0.24996243,-0.078852214,-0.12383239,-0.011099371,0.11551371,-0.15261912,-0.14633137,-0.024143731,-0.034299105,-0.33445716,-0.29522142,-0.08394861,0.35784674,-0.21365461,0.051469937,0.19687629,0.05115893,-0.0096691465,-0.0028685129,-0.257891,0.06446048,0.17889139,-0.04645403,-0.2346366,0.19959345,0.052664623,-0.050940454,0.28216705,0.11168504,0.29411256,0.10785364,-0.06081186,-0.061214898,0.09025219,0.06499014,0.17276987,-0.013144712,0.2115536,-0.07438168,-0.008189429,-0.14042915,0.20738277,0.015864106,-0.12663788,0.17041959,0.2702313,-0.17271699,0.11021707,-0.2081682,-0.27405122,-0.14047883,-0.07710307,-0.1667252,-0.29362187,-0.32051733,-0.17863113,0.18584237,-0.007221073,-0.023057817,-0.39377496,0.3121869,0.10727912,-0.27307552,0.018735593,0.11936229,0.27120093,-0.16825002,0.14721748,-0.119040176,-0.080645286,0.4799436,0.14686607,0.117567405,-0.018350702,0.29274568,0.38379452,-0.36781773,-0.044861518,0.4326876,0.33892962,-0.19137447,-0.20964727,0.022825448,0.22312674,0.112116426,-0.21924056,0.17385367,0.06643647,0.2338309,0.130185,-0.35275,0.08400526,0.14738424,-0.1045909,0.039412316,0.04445364,-0.13586484,0.15011807,-0.050560467,0.13847251,-0.14036892,-0.018311597,0.20228717,-0.15168023,0.14014278,-0.01432901,0.028995845,-0.17610125,-0.076579586,-0.117684625,0.01045511,0.054363728,-0.14031792,-0.03627741,-0.09567653,0.09926607,0.18669318,0.12906723,0.103361025,0.15222818,0.17084382,-0.22251527,-0.20151196,0.27630097,0.33626798,-0.1205133,0.16814996,0.19612089,-0.24215572,0.095979944,0.19817449,0.0371871,0.13835466,-0.009094078,-0.19533022,-0.0065338556,0.08717501,-0.032914147,-0.091355324,-0.22871634,0.076114416,-0.002372592,0.19356075,-0.2622314,-0.23425928,0.19214988,-0.04022353,0.1541507,-0.23172942,-0.19424239,-0.0203875,-0.21614143,-0.19049631,-0.13698478,0.09480592,0.13466203,0.17706373,0.3430416,-0.19609693,-0.15817057,-0.07946433,0.027984736,-0.07402656,-0.014106231,-0.2039731,-0.014680379,-0.17009073,0.15154183,-0.21962452,-0.3310016,-0.09147793,-0.3870298,0.27426562,0.15491553,-0.08425156,-0.05198512,0.22023672,0.35151857,-0.1433036,0.2041127,0.16699362,0.20540299,0.31172833,0.012574447,0.15704858,-0.0443471,0.010453832,0.32088938,-0.046689354,-0.3647866,0.27604917,-0.017754657,-0.01334182,-0.06604786,-0.19056796,0.24537998,0.23282206,-0.1304748,-0.17652847,-0.030131012,-0.009840356,0.22054411,-0.24952298,-0.21998268,0.22788034,-0.068649516,-0.14816101,0.12882702,0.120956264,-0.11360705,-0.028650416,0.19172515,-0.013417655,0.24717806,0.20278436,0.2076322,0.12566297,0.0040783603,0.19546673,-0.01716224,0.16638723,0.14437386,-0.12225002,-0.03301174,-0.011582997,0.100497924,0.18579604,0.28610376,0.04655852,-0.15890752,-0.23622978,0.12910162,-0.17475733,-0.0548435,0.07519956,0.09634541,0.13012089,-0.010311757,0.00105498,-0.006096865,0.019052472,-0.14612918,-0.08756092,-0.2639449,-0.035762075,-0.035590112,-0.0026339667,0.15510833,-0.05132149,0.05833523,0.006561286,-0.16541569,0.26268396,-0.035742376,-0.06698088,-0.20707741,0.060447153,-0.25073394,0.12156028,0.03147573,0.100932926,-0.12012848,0.19290689,-0.17775074,-0.17597644,-0.10073104,-0.07713064,-0.15519422,0.25285372,0.27891287,-0.3268526,0.18804349,-0.2201299,-0.2894143,-0.12677112,-0.16154638,-0.19675183,-0.043857414,-0.32792434,0.11624621,0.18831822,-0.14169744,-0.15017587,-0.3293243,-0.07482412,-0.027865065,-0.054484274,0.16698426,-0.013047922,0.1405982,-0.12691367,0.07788072,0.28266236,0.052439906,0.43113217,0.27198255,0.32588026,0.04492835,0.18424171,0.4438668,-0.34136212,-0.13665994,0.20051748,0.39709735,0.01291987,0.02295284,-0.07630064,0.32106423,0.16074625,-0.21095867,-0.05765737,0.37433216,-0.042908687,-0.04849537,-0.20997593,-0.12295962,-0.09249766,-0.23899907,0.08249522,0.17967843,0.0035366141,-0.13394238,-0.15903136,-0.09708041,-0.21774784,-0.18547064,-0.053088397,0.23773691,0.18492532,-0.12331963,0.07205292,-0.16406904,-0.015521464,-0.11759248,-0.115458705,0.20705321,0.053490035,-0.2220579,0.2107212,-0.121345274,-0.22728184,-0.21459824,-0.18993977,0.23581561,0.08619544,0.19929986,-0.23802064,-0.15810189,0.24424408,-0.18316567,-0.22645004,-0.0047750366,-0.15725203,0.22633922,0.18131475,-0.37424845,0.1079039,0.21342438,0.026953718,0.05831619,-0.056776512,-0.11530037,0.17013511,0.31642506,0.04600645,-0.022103928,-0.067127585,-0.15790041,0.1838465,-0.095719844,0.18699777,-0.050886255,0.087556936,-0.16393222,-0.2446106,-0.3193709,-0.21165478,-0.08558147,-0.0690889,0.2634922,-0.057256307,0.29989603,0.03438372,-0.024193067,-0.08928547,-0.22969344,0.012018841,-0.13090497,-0.25145742,-0.18851863,-0.3458136,-0.14990577,0.1297223,0.015716575,-0.13782349,-0.19908653,-0.009267973,0.21930209,-0.40424538,-0.25238097,0.23933823,0.43850157,-0.24868415,0.21706802,-0.13025354,0.21039298,0.45939264,0.26967645,0.01582998,-0.15601057,0.3665391,0.29455528,-0.05322953,-0.2734178,-0.08839421,0.3736626,0.02865274,0.20431182,-0.15468007,0.33666956,-0.06913383,0.07793659,0.099497184,0.20978355,0.1199839,0.24668278,-0.03275614,-0.26602647,0.2605348,-0.2778792,0.032129195,0.2946288,0.12658067,-0.09638693,-0.1835111,-0.05865488,0.07895101,0.17706592,0.19436622,0.16595961,0.23012955,-0.015195564,-0.012875253,0.17822629,0.07651527,0.03757561,0.17479649,-0.17429465,-0.27478087,0.2569045,-0.027795007,0.048867796,-0.003762369,0.09848485,-0.24941385,-0.13436171,-0.119855754,0.37574586,-0.037163414,-0.14458749,-0.08228763,-0.015423024,-0.10375424,-0.17850615,0.050401255,-0.10148537,-0.2107853,-0.31160295,-0.10389547,0.023495812,0.09408275,-0.07282663,0.1786023,0.076303475,0.19437401,-0.1908708,0.0666664,-0.2754074,0.117243856,0.116110526,-0.120631285,0.14667797,0.2954977,-0.16872634,0.21402983,-0.10193513,0.038287297,-0.1984678,-0.13471512,-0.12857865,0.18139909,-0.13691516,-0.19063103,-0.007476392,0.051564578,-0.11378611,0.07577121,-0.29888946,-0.08808614,0.1452244,-0.043949924,0.1505789,-0.442068,0.24803238,0.036894433,-0.37341443,-0.11003068,-0.08033507,0.04374684,0.1215195,0.0026178863,-0.20254217,0.16317423,0.51830703,0.027856609,-0.06124991,0.15212667,0.19151507,0.33255503,0.30341274,0.052218072,0.14423268,0.35602334,0.42680413,-0.14651951,-0.080007784,0.3342218,0.20110998,0.0004297506,0.063133195,0.01108358,0.32954788,-0.2067284,0.018048117,-0.025017662,0.12721069,0.372696,0.16761664,-0.23181666,-0.23297112,0.29615238,-0.10596941,-0.018245324,0.091180645,-0.1783937,-0.09108563,0.19770096,0.13623628,0.002421645,0.095071696,-0.019587025,0.22570151,0.20350677,-0.15873854,0.24247368,0.11421293,-0.017536143,0.028320221,-0.15507811,-0.12008702