-0.29369265,0.26582605,-0.0527546,0.023878397,0.2853427,0.111406125,-0.016452579,-0.14104784,-0.34946397,-0.123514056,0.06470552,-0.087365896,-0.07483085,0.032146223,0.06632939,0.2807519,-0.20667103,0.30226883,-0.07032025,0.03263898,0.08541528,-0.2840207,0.051994007,0.1029546,0.03668619,0.3052912,0.25654525,0.030671882,-0.20507398,0.11626577,0.093340226,-0.24469016,0.036020115,0.17093737,0.013463048,0.08522216,0.107372314,0.22283146,-0.10297992,-0.23188382,0.20736042,0.093183845,-0.118172064,0.1970522,-0.09295869,-0.055783316,-0.104734145,0.009926621,-0.22348252,-0.22178674,0.009880285,-0.07632963,0.3440066,0.26578966,-0.26646954,-0.100566864,-0.42386413,0.26008445,-0.12441461,-0.069198824,-0.35070896,-0.037849657,-0.20664535,-0.18670921,0.33181226,0.044726476,0.17012776,-0.1719766,0.1591234,-0.13336101,0.26499915,0.10313557,0.17655681,0.041642543,-0.09459314,0.032209363,0.20508869,-0.07993315,0.006982936,-0.23337406,0.17943561,-0.075221375,-0.07246709,0.12584147,0.35785437,-0.16927177,-0.15604043,0.09448506,-0.20600484,-0.18620549,-0.13273458,0.07384558,0.13667658,-0.046925075,-0.14008176,0.22671565,-0.19057718,-0.11653986,0.22275087,0.05520479,-0.051053274,0.0009844789,-0.13134116,-0.16312316,-0.19697076,-0.08171759,-0.22824797,-0.0029507114,0.16356012,0.22378068,0.13703054,0.29470468,0.23477486,0.21619928,0.12612686,0.20719524,0.23352672,0.07784899,0.16222,-0.115311466,-0.2558053,-0.15049705,-0.2329276,-0.2768031,-0.3443173,0.05793776,0.14349347,-0.12305898,-0.3229548,0.2914283,0.1787582,-0.19911943,-0.15560156,0.08331355,-0.25887007,0.17350028,0.11977562,-0.12719801,0.24092925,-0.07726095,0.14853954,0.2043428,0.21119522,-0.25947452,-0.027990876,-0.064033136,-0.028648613,0.19137743,-0.08944193,-0.12754896,0.10948366,-0.14573504,-0.049675986,0.027108671,-0.2872172,0.1432697,0.04959127,0.08521163,-0.2793904,-0.2272375,-0.23121923,-0.21454573,-0.2529434,-0.059356567,0.0746576,0.2923848,0.050380748,-0.19347075,-0.04000723,0.37096316,-0.3776197,-0.39529344,-0.24247344,-0.19031307,-0.36816847,-0.17197895,0.12803492,0.022614358,0.09282954,-0.3586927,0.12787035,-0.048459128,-0.011719563,0.033173867,0.044703547,0.085291974,-0.0020505667,0.09133639,0.14569613,0.04393171,0.33814806,0.04073705,0.24349904,-0.123597585,-0.1106194,-0.09581887,0.23099068,-0.16478473,-0.110064544,-0.18355283,-0.074918486,0.03399421,-0.078748286,-0.013325296,-0.071257375,0.037887212,-0.1767966,0.30858827,0.13845974,-0.012145437,0.13536766,-0.02753909,-0.1117863,-0.16151002,0.13743006,0.15774617,0.23301572,0.0806086,-0.16151711,0.15109485,-0.1717184,0.035083663,-0.043160945,0.27078265,0.19176549,0.1310695,0.03336546,-0.017681196,0.09988463,0.1097082,-0.048982542,-0.09330484,-0.36256334,-0.11531737,-0.010066307,-0.122779384,-0.27765757,-0.20521043,-0.16267245,0.22049432,0.26475933,0.17369534,0.19336064,-0.082637124,-0.19398518,-0.26263595,0.133922,0.22427738,0.25091276,-0.00851415,0.103918895,0.09694982,0.07675357,-0.14689867,-0.15907568,-0.0017452979,0.097075574,0.08370378,-0.093950786,0.20163478,0.2339972,0.25124457,-0.13902758,-0.1388957,-0.23020521,0.18618251,-0.07429471,-0.20146598,0.16451167,0.19276,-0.14463201,-0.05494952,-0.18482444,0.1707669,-0.04630245,-0.2557642,0.31698474,-0.12458164,0.122104146,-0.06673218,-0.35692933,0.047783643,-0.30893806,-0.41733557,-0.3036493,-0.07350992,-0.22509167,0.14109513,0.16439131,0.0132870935,0.18969436,-0.015288047,0.17467974,-0.14738484,0.18690349,0.28626424,0.20335206,-0.009736532,0.09460661,0.09179242,0.01941184,-0.30721128,0.15700196,0.05435264,-0.1718353,0.1110968,0.05192951,-0.08562683,0.2266681,-0.24316421,-0.048700787,0.0015865015,-0.17759338,-0.13277172,0.19301434,0.04901859,0.12634408,-0.088550866,-0.27811214,0.052150317,0.17911732,-0.19113879,-0.1883242,-0.14833412,0.060362916,-0.124590985,-0.081711955,0.13621977,0.09486996,0.14914863,0.1341128,-0.020295873,-0.05758735,0.17397562,-0.13346432,0.071516946,-0.13425408,0.25960025,-0.06475509,0.21521273,-0.0040677474,-0.0022890808,-0.063734375,-0.07258918,-0.31455672,0.14655718,0.13441725,-0.08923601,0.19979703,-0.11888128,-0.23815878,0.26125026,0.34359166,0.21519119,-0.095781185,-0.15769036,-0.13337813,-0.15311651,-0.11086733,0.0300517,-0.16531175,0.143098,-0.17218077,-0.20828833,-0.124906406,-0.11036338,-0.21741667,-0.13631502,-0.10347769,-0.16907884,-0.025150558,0.059321545,0.15057477,0.18841496,0.1282571,-0.12239113,0.075506546,0.23622677,-0.3017803,-0.10158531,-0.21057129,0.16960327,0.2011677,-0.1348983,0.12883008,0.16452537,0.0746102,0.16656439,0.124658756,-0.08053417,-0.21037965,0.12325931,-0.39719853,0.10881938,-0.030935444,-0.099131286,0.03947557,0.14309886,-0.31372365,-0.0034891812,0.023035454,-0.12897535,-0.05594652,-0.27946264,0.007552022,-0.0038134125,0.10272125,0.43854374,0.1629811,0.023282079,0.18662614,0.3398111,0.15344718,0.028450796,0.09226651,0.048239116,0.06750323,0.10923083,-0.15831158,-0.17847954,0.19578604,-0.32217,0.2510499,-0.050859414,0.11575902,-0.049173776,0.1364932,-0.1442394,-0.15779881,-0.0036340845,-0.27923638,0.2548976,-0.107698955,0.11941951,-0.18705301,0.23952793,-0.1744976,-0.17506793,0.042806655,0.26885727,-0.112683766,-0.04365612,0.06781265,0.2749918,0.07493513,0.23094782,0.034318395,-0.03151588,-0.07100829,-0.15836805,0.17335996,0.09954826,0.2574428,-0.19212125,-0.1978373,0.19167869,0.10962013,0.20137924,0.041671015,-0.23115756,0.24883813,-0.29240954,0.21805128,-0.0009811318,-0.10571096,-0.12079939,-0.05643127,-0.048500545,0.025347304,-0.27052048,-0.1919677,-0.24877647,-0.058366675,0.18257165,-0.121500865,-0.035858635,-0.048613697,0.0042625302,-0.26578626,-0.2024773,-0.13663244,0.1462581,-0.22408661,-0.16870165,-0.08985631,0.0696649,0.29977852,-0.20817465,-0.2717139,0.3148812,-0.30354702,-0.1294084,-0.29169714,0.20042259,0.09876911,-0.047087755,0.055262983,0.22049828,-0.29024857,0.020402754,0.053682707,-0.03333027,-0.012823543,-0.16990851,-0.30969146,0.2911746,-0.2915432,-0.3604553,-0.16560294,-0.18265676,-0.09925646,-0.12307557,0.07068545,0.026935892,0.3378053,-0.025412044,-0.003283724,0.15567425,0.13253328,0.029964752,0.10494241,-0.021332953,-0.041086074,0.18122433,-0.021187177,-0.029384214,0.09762739,-0.14877023,0.11764674,-0.108322,-0.16164713,-0.10985808,0.1408202,0.09664072,-0.086869165,-0.14482607,-0.28660858,0.1185006,-0.04605811,-0.22176765,-0.0028499085,-0.09271802,-0.24973877,0.0075430176,-0.029880067,0.017679464,-0.16171832,0.26373616,-0.15757692,-0.1514733,-0.18948516,-0.007769485,-0.149056,0.16132787,0.15223977,-0.017625224,-0.18651071,-0.0787333,-0.16432813,0.2709445