0.14728214,0.1326237,0.06512679,-0.07731235,0.018069569,-0.08818408,-0.11121902,0.008962623,-0.052647535,0.044162683,-0.076659456,-0.056500968,-0.030327829,-0.08174046,0.024022233,-0.11995581,-0.123880066,0.11956682,-0.009562444,0.03271071,0.089898355,0.011732548,-0.032874465,-0.007785941,0.1893687,-0.07350357,0.028768063,0.19107151,-0.13775939,0.16155702,-0.14165407,0.022856757,0.0421257,0.03902357,-0.10399549,-0.014736082,0.14120136,0.020708052,-0.027415188,0.11565397,0.16614875,0.060304318,-0.10830606,-0.083272964,0.11277056,0.007040865,-0.16312541,0.15203226,0.0666044,-0.04964583,-0.059552427,-0.048157774,-0.010865885,-0.022677885,0.13202281,0.0034210721,0.14396153,0.10624705,0.020923844,0.18861477,-0.036634743,-0.058682326,0.0037532563,0.1316046,-0.122190684,0.06292135,-0.0053462926,0.11348166,0.12524238,-0.11511693,0.104903854,-0.005748112,0.0686698,0.084050424,-0.060550258,-0.03214356,0.12784624,-0.030690074,0.048487827,0.079816744,0.05695108,0.07666416,0.0972355,0.14505148,0.13105687,-0.04087631,0.1668887,0.10834062,0.0848177,-0.0146162305,-0.13284597,-0.079820246,0.048475515,-0.069815464,-0.061839,0.09561601,-0.11867984,-0.11236638,-0.025521947,-0.10932488,0.07010148,0.06842886,-0.097942285,-0.04472369,-0.08655775,0.16408981,0.12601733,0.033519488,-0.04941497,-0.1641308,-0.05475347,0.14462808,0.13547334,0.10139799,0.06073627,-0.05011894,0.098134816,0.031975657,-0.098161004,0.13022518,-0.12856248,-0.05964955,0.044790126,0.07101755,-0.014449335,0.13444367,0.08203472,0.079591975,0.08361609,0.12715419,-0.09645603,-0.04662468,-0.038644206,-0.022568539,-0.09460434,0.13548756,0.18166311,0.057079524,-0.14641915,0.09179661,0.118905745,0.13496105,-0.07451803,0.09143179,0.20978442,0.1019382,-0.039382868,-0.04263292,-0.12541029,-0.038415972,-0.04888467,0.16035022,0.07759946,0.060267553,-0.11498106,0.110121675,-0.0131925745,-0.06807657,-0.016501632,0.02937833,0.14367045,0.030370276,0.019214332,0.07837702,-0.11650455,0.08385026,0.11589121,-0.056726906,-0.051198676,0.054484077,-0.07566099,0.035232358,-0.103258535,0.0821725,-0.05717204,-0.031466614,-0.104355276,-0.07577972,0.12972043,-0.006957909,0.052254364,0.1567735,-0.04628065,-0.10687783,0.074861236,-0.07165462,0.013237546,0.10630198,-0.11340717,-0.04097648,0.04708141,-0.07084816,0.08066514,0.064116284,-0.110652395,0.15800783,0.036900423,0.08594634,-0.056630693,0.03488426,-0.024352923,-0.07992347,0.07628156,0.039321683,0.041617766,0.05149593,-0.056241892,-0.04981519,0.093498,-0.11103446,-0.025250504,-0.0068693417,-0.10915335,0.103156745,-0.012011568,0.16370964,0.05002258,0.07185059,-0.13531248,0.07074246,0.08328347,-0.051528465,0.04354356,0.055164862,-0.008080166,0.034739632,0.06261089,-0.038037706,0.011085751,-0.11144568,-0.041430518,-0.15678202,-0.16846171,0.07151807,-0.11026263,0.03701703,0.081097566,-0.027403727,0.118811876,0.012935128,0.07265615,0.13132562,-0.03311411,-0.08561739,-0.048299205,-0.0860106,0.011789443,-0.050973974,0.10939013,-0.029427148,0.14555828,-0.11772186,-0.064243965,-0.05569907,0.15184447,0.14365594,0.006306214,0.09141157,0.13755275,0.07071659,0.010657291,0.14371721,-0.043833543,-0.085781835,0.042170968,0.0114951935,0.035674233,0.078635216,-0.091620766,-0.05309349,0.09085992,0.0186191,-0.08708705,0.11600935,0.12027709,0.07612683,0.021906037,-0.01797744,-0.06374775,-0.07184957,-0.10044714,-0.029241882,0.14069597,0.0045531965,0.051689148,0.14493953,0.11674209,-0.11945711,0.033625565,0.05496285,-0.10190103,0.13136606,0.13307832,0.013980038,0.20243561,-0.0030255828,-0.03863928,-0.06650559,0.013141842,0.02641718,-0.014595963,0.14020082,0.037013054,-0.06986386,0.13207014,0.12423404,0.043184116,0.15069664,0.034066252,-0.10606104,0.22019635,0.10476332,-0.12830213,-0.07378003,0.038411103,0.17677969,-0.12427883,-0.109532855,-0.0830322,0.16004491,-0.021703217,-0.02328717,0.04474314,0.1343983,-0.10148997,-0.04542369,0.15567283,0.09720772,-0.17041716,0.059097067,0.20301412,-0.13246465,-0.02106889,-0.078300536,0.0726831,-0.15715928,-0.09076566,0.08054049,0.090400174,0.0714589,-0.06384287,-0.02488293,0.04274924,0.07685787,0.13074304,4.4902154e-05,0.07672957,-0.058689285,-0.13211057,-0.17583667,0.0018152801,-0.1549731,0.03938235,0.2186622,-0.0037983882,0.090845875,-0.114432305,-0.075073294,0.06356779,0.055197217,-0.061094303,-0.045651414,-0.11492513,-0.07557541,-0.10596723,-0.06326875,-0.09358805,-0.0032706612,0.18063122,0.09066662,0.052070186,0.011994155,0.08068712,-0.090692244,0.06326836,0.11856224,0.16721392,-0.030615015,0.03105561,0.20221384,0.029480128,0.15650441,0.0697443,0.22680368,-0.13338497,-0.0035669028,0.0012956408,-0.07512606,-0.031132715,-0.060784575,0.11654154,-0.06257664,0.011559624,-0.02872547,0.03537379,-0.016079819,-0.062283188,0.102643415,-0.050728973,0.054642566,0.15699928,0.040339015,-0.10517599,0.21764757,0.1553918,-0.12411364,-0.08618287,0.06995619,-0.17662145,-0.091671064,-0.1254732,0.043885734,-0.12169682,0.17865375,-0.061547183,0.08140227,0.1242035,0.038383443,-0.16308445,0.03815883,-0.15579942,-0.02391265,-0.09689125,-0.16321261,-0.08589974,0.14946967,0.21379407,0.098741226,0.19186439,0.040610693,0.052935053,-0.029890385,0.019126607,-0.010941205,0.01636361,0.12636892,0.09685523,0.031141657,0.09843607,-0.17865522,-0.016996006,0.16366808,0.08156606,-0.09296858,0.0037624238,-0.12819289,-0.17234124,-0.022187812,0.1341222,0.09323065,0.057394337,0.13542628,-0.09281155,0.06798599,0.03959553,0.17703688,0.0072989604,-0.118483804,-0.088139385,0.1209711,-0.033798292,0.031469237,0.01215066,-0.0045387554,0.16762653,-0.123235136,0.18865679,0.011384087,0.0798629,0.046394385,0.063169,0.0032310765,0.014856852,0.15104532,0.010245791,-0.055697985,-0.04690173,-0.10635426,0.14324026,0.019735385,-0.022301707,0.117010266,0.07640442,0.15407135,0.11781132,-0.12949845,-0.048409484,-0.1151022,0.061944224,0.116072446,0.04694348,0.08798991,0.01775219,-0.1162679,-0.124816,0.037922714,0.07820536,0.026085356,0.0023446989,0.066633224,0.0403881,0.03975462,0.06951235,-0.02624425,0.048273403,0.109186515,-0.07985813,0.14290649,-0.051990416,0.13904391,-0.019154135,0.0969249,-0.07376548,0.10135183,0.10577515,0.09600068,-0.020941366,-0.11974391,-0.06770298,0.13141982,0.00850435,0.11011735,-0.15901817,-0.053985965,0.07857772,-0.14924005,-0.09860493,0.10673316,-0.006672886,-0.049167175,-0.05577828,-0.009003495,-0.02151618,0.067105144,0.08481245,0.04594383,-0.06021722,0.06277523,-0.17827258,0.059650883,-0.054187328,-0.10679883,0.12532805,-0.09248622,0.13693535,0.07227612,-0.14348197,0.14305502,0.030252852,0.1402242,-0.07380402,-0.00822939,0.21052076,-0.055717774,-0.063551724,-0.18327206,0.15336815,0.034751423,-0.0616565,0.11753057,0.22957861,0.14865315,0.07104314,0.1247279,0.09138855,0.10493595,0.081611805,0.11813551,0.2309918,0.05434594,-0.023549529,0.0012997673,0.09087631,0.1263866,0.121034786,0.18942308,0.14804354,0.10183478,-0.02604981,-0.09538486,-0.12433886,0.04871971,-0.04652133,0.15544313,-0.042702764,-0.008374643,0.06963637,-0.100008845,0.15874888,-0.08355528,0.067345746,-0.06704588,0.17734763,-0.13751724,0.102500156,-0.078482464,-0.059604656,-0.06541389,-0.04919604,0.07982464,0.0489154,0.12877676,-0.16753119,0.03915693,0.04694108,-0.021936988,0.09124978,0.10046755,0.059477,-0.035764072,-0.04855436,0.06277407,0.115071304,0.09401243,0.022603566,-0.014081167,0.03608536,0.052738648,0.009795976,-0.072135255,-0.0088803265,-0.07840774,0.124698475,0.18804696,-0.11243208,-0.022271924,-0.09558745,0.007387559,0.049371645,-0.1561598,0.14134373,0.06341902,-0.13621914,-0.16463488,0.11897148,-0.019629046,0.004510133,-0.07646424,0.064722285,-0.10135159,-0.040203515,-0.064342245,-0.18134066,-0.07071584,-0.1293728,0.008153286,-0.03358603,0.048832145,-0.09603419,-0.09983041,-0.12090315,-0.15094134,0.06390605,0.06324652,0.0048647113,-0.090307,0.010148312,0.030596336,-0.046082415,0.030690705,-0.044684026,-0.0792811,-0.11934553,0.11920282,0.09046822,0.17738761,-0.15547019,-0.08077729,-0.06396437,-0.11784164,0.16122141,0.1650751,-0.034427397,-0.12137299,-0.150428,-0.0015626401,0.047294647,0.122698955,0.112568185,-0.044294253,-0.038121633,-0.026458872,0.03490277,0.12196934,-0.14073142,0.09573193,0.0077304156,-0.1289416,-0.14733556,-0.13374424,-0.09642311,0.080837764,0.097674735,0.15232362,-0.06193073,0.17492579,-0.10968872,0.05004723,0.10313541,0.03155466,0.019912196,0.0008741069,0.033801775,0.10736743,-0.077274166,0.037595287,0.10084382,-0.08963836,-0.08844724,0.0139671145,-0.029110068,0.114598185,-0.12932989,-0.024380695,-0.009186822,-0.050008137,-0.14574225,-0.15226054,-0.09465364,0.10201524,-0.13696972,0.11027032,0.11977747,-0.02006124,-0.15920897,0.14252922,-0.094491474,0.0050322153,-0.053760003,-0.11039383,-0.14570098,-0.0075280396,0.10450569,0.13453211,-0.13988663,-0.16577357,-0.011535511,0.10574859,0.09522162,-0.04290114,0.070553206,0.03904227,0.15718699,-0.036176734,-0.101862706,0.12642792,0.06742745,0.010494437,0.05443899,0.087565675,0.07762349,0.004498345,-0.057388388,0.16548802,-0.10189542,0.11236226,0.12897725,-0.009013093,0.04841404,0.041187435,-0.019590905,0.061265595,0.12769637,-0.07987846,0.16858214,0.06952916,-0.101925135,-0.0068725534,-0.09724025,-0.022595705,-0.030629534,-0.04674916,0.13571385,0.13330431,-0.026234012,-0.07060216,-0.16512215,-0.01981036,0.034101404,0.054086775,-0.07840259,0.06520318,0.13608404,-0.121240504,0.027620839,0.12373997,0.0034072462,0.10617409,0.058885735,-0.013784485,-0.061017152,0.051735498,-0.074147984,0.032886412,0.09343635,-0.04917596,0.04584132,0.10794754,0.14705752,0.02666262,0.017666016,-0.030202504,-0.16603045,0.16116233,0.12547493,0.15908505,0.1632523,0.14998347,-0.11344927,-0.074479915,0.0019071469,0.10799209,0.10123433,0.10655789,-0.12767504,0.055887863,0.10794453,-0.0059956787,0.003938957,0.09820351,0.0124433115,-0.13191,0.10321938,-0.015381176,0.066293225,0.048050806,0.03698093,0.066729866,-0.10163675,0.07703339,-0.07003387,-0.020319771,0.024487374,0.03586425,-0.059495002,-0.11959343,-0.098046884,0.1010877,0.09357076,0.071270764,-0.17527992,-0.10941936,-0.068045564,-0.09761427,0.08854766,-0.057762656,-0.0033169077,-0.036089357,-0.048020877,0.0335052,0.062224805,0.0011522381,-0.056358837,0.14534089,-0.10418026,-0.03696857,-0.025521634,0.12978536,0.008591581,0.054002892,-0.113905005,-0.059545554,0.019296026,0.0727813,-0.057095,0.07033553,0.112474464,0.15812476,-0.016728591,-0.016937116,0.041036326,-0.050285984,0.029940283,-0.108180374,-0.13871188,-0.09329223,0.015587952,-0.12727378,-0.15541244,0.030204348,-0.008433664,0.16606656,-0.095696144,-0.07867621,0.048097417,-0.1940861,0.096956044,0.022313522,0.05901079,-0.069476105,-0.12446137,-0.046040583,0.10831593,0.012586399,-0.015175188,-0.061024893,0.08150275,-0.10617731,0.100729056,0.0154669685,0.073072806,-0.0155340675,-0.049136534,-0.06482075,-0.0509639,0.19088626,0.0026060445,0.08908189,0.046694674,0.05886756,0.02016745,-0.064829744,0.04939776,0.010331364,-0.070914626,0.14107145,0.13893002,-0.10101565,0.1436705,-0.1329884,-0.22365823,-0.10973557,-0.060651552,0.0151220495,-0.029642576,0.11222691,0.03213947,-0.03151249,0.14311486,0.06027373,-0.18330058,-0.13751519,0.05178032,0.07652033,-0.10815415,-0.113114685,-0.0453744,-0.081872344,0.13331959,0.04890794,-0.029230975,-0.08154366,0.04608676,-0.060591374,-0.11215356,-0.05522872,0.19400531,-0.14078195,-0.0655894,0.14132524,-0.124407284,-0.11075253,-0.051600628,0.109011956,-0.14820899,-0.023187315,0.13138726,-0.16213006,-0.11485123,0.11529643,0.14642367,0.11138682,-0.066072166,0.034616727,0.030838683,-0.08966225,0.03823888,0.003831929,0.08605167,-0.022989849,-0.16492741,0.17814639,-0.060313188,-0.040535517,0.0049855676,0.05346906,0.10291159,-0.119214095,0.124636315,0.0017298248,-0.122485675,0.113405526,-0.07996089,0.07526694,-0.03721438,0.09174338,-0.09378447,0.05183303,-0.0593848,0.08488201,0.07261341,0.11237604,0.13315795,0.047034573,0.20563623,0.1421659,0.1134172,-0.06941397,0.12249651,0.071224995,0.22256796,0.110931925,-0.08290486,0.08897981,-0.08268698,-0.091256216,-0.07229598,-0.04471513,-0.0008960759,0.1353564,-0.09757036,0.04094879,0.1802588,-0.06693831,0.13070758,-0.006630762,0.02217136,-0.016096475,0.06256487,-0.024256466,-0.0059115654,-0.014394073,0.053901047,-0.1320515,0.066905424,0.027144419,-0.07137243,-0.07078127,0.05003546,0.043157693,0.096943915,-0.03198024,0.17799768,-0.037837226,0.038273394,-0.0023241846,0.06835132,-0.06381158,-0.09354607,0.07589858,0.10782673,-0.03402242,-0.085423306,0.006350131,-0.10562965,-0.08558212,0.1406836,0.0749127,0.022968324,-0.0227669,-0.0046828296,-0.061699655,-0.12657535,-0.02119238,-0.09202646,0.13284741,0.08626455,0.1283191,-0.0041499506,0.22257541,0.034331523,0.022598349,-0.13631396,0.08866746,0.17383471,-0.07805767,-0.14799145,0.1850416,-0.18085605,-0.08721443,-0.10102657,0.08228471,0.16097638,0.020276641,0.004492648,-0.0064558606,-0.07131259,-0.118559465,-0.10302935,0.23186976,0.14997369,0.020784829,0.018991064,0.20658576,-0.040536605,-0.02217256,0.16283754,0.24942817,-0.08491299,0.09021344,-0.07571319,0.006786437,0.032035287,0.09491866,-0.13139653,0.12707818,0.04592092,0.17085657,0.16913351,-0.09125785,0.19582933,-0.019766785,0.08069184,-0.124008186,-0.018070579,0.05885478,-0.0648435,0.012341428,-0.010564611,0.053841017,0.079618916,0.08055226,0.006705332,0.21735534,-0.17774801,-0.09124061,-0.027014177,0.039978217,0.08546899,0.18951094,-0.0064409613,0.0959935,-0.13935424,-0.046741266,-0.007673427,-0.1268621,0.12458231,0.026122507,0.12921086,0.07494671,0.0023750474,-0.18436006,-0.030335564,-0.0130489385,-0.06277229,0.15923631,-0.0044617206,-0.021548262,-0.045819104,0.06640853,0.09583711,-0.16896664,-0.07330428,0.16782808,0.13701141,-0.0756805,-0.059844766,0.06377167,-0.11606133,0.13369457,0.030375548,0.00035704044,0.1825199,0.06909652,-0.10119403,0.10417006,-0.031765856,-0.038125206,0.09682823,-0.031051222,-0.015404662,-0.08313594,-0.06287099,0.060057074,0.045861315,0.05337389,-0.012797007,0.14695029,0.033520628,0.11680144,-0.16395776,0.05348559,-0.1357007,-0.004912805,0.0053702295,0.0793689,0.10738211,0.036856808,-0.02170343,-0.052591212,-0.14067814,-0.093016095,-0.049560823,0.02057063,0.064210944,0.09030872,-0.022285404,-0.09332511,0.13318944,0.040329643,0.002292532,0.0067322142,0.0824311,0.024095513,-0.04816036,0.1583603,-0.035302095,0.11711302,-0.044520307,-0.06609742,0.02135059,0.055530243,0.08329208,-0.023725389,-0.13449818,0.08955583,0.112493955,0.08840831,0.034195613,-0.11398655,0.07094734,-0.012952237,-0.02034903,-0.06572356,-0.10440465,-0.004395953,-0.13884968,-0.028625667,0.10012695,-0.04038643,-0.17308238,-0.041287195,0.09926928,0.10991368,-0.05882592,-0.06304343,0.008726479,-0.07815265,-0.1471197,-0.17482631,-0.12340568,0.037710838,0.0021763258,0.13726185,-0.091856696,-0.08674051,0.03808031,0.0016403232,0.1092202,-0.1050157,0.047272697,-0.013859239,0.036985982,0.0017709761,-0.008825662,-0.11113534,-0.068655014,-0.12000174,-0.0032867556,0.04132926,0.042006798,0.010501242,0.084155165,-0.0018859393,-0.03820659,-0.042769432,0.014306995,0.11134015,0.04485888,0.181493,-0.11905194,0.103774294,0.060476813,-0.076583944,-0.036336027,0.002556594,0.12506817,-0.03951104,-0.08400784,0.16129768,0.07620333,0.051884048,-0.09430123,-0.1640053,0.072123855,0.00998079,0.08485837,0.04271634,0.037477538,0.07788505,-0.060441263,-0.058956765,-0.027351486,0.020551829,0.09305818,-0.07358225,0.051604733,-0.13519514,-0.020786818,-0.13278997,0.15987158,-0.013507188,-0.028202346,0.029370286,0.09855387,0.08824021,0.05773581,0.090570055,-0.009266619,0.070429265,-0.12265541,0.187196,-0.06222697,-0.03687453,0.018735044,-0.21066587,0.087712325,-0.06554567,-0.036826596,0.11398134,0.10148505,-0.045999274,0.15757138,-0.11091022,-0.12745923,0.120378025,0.052872732,0.18078299,0.0015796592,-0.035136204,0.008146747,0.07473153,-0.028099112,-0.048787996,-0.09780547,0.09458825,0.053391676,0.10119917,-0.011486859,-0.14753059,-0.0022383165,-0.02871664,0.06205017,-0.025312964,-0.0033983144,0.22631042,-0.051628582,-0.13628662,0.018185005,0.21765195,0.025087554,0.027743744,0.0841399,-0.06109147,-0.12693103,-0.066928826,0.0698036,0.12549092,-0.06294357,0.059495587,0.08883873,-0.11210164,-0.019164683,-0.007835663,0.04672225,0.040783,-0.02884917,0.08636953,0.15117069,-0.004541108,-0.15361547,0.1301672,0.14417797,-0.11265507,0.033414867,-0.04658163,-0.164316,-0.028842326,0.09606049,0.03660463,-0.113566935,-0.057494156,0.022328978,0.07733731,0.08514307,0.11676932,0.0042978977,0.024366867,-0.07267483,0.26970235,-0.10519144,0.064090416,0.0952012,0.08038325,0.010711611,0.0798136,-0.033146564,-0.07535016,0.073662005,-0.024664765,-0.11907527,0.04221494,-0.055200964,-0.025010478,-0.0895111,-0.0054987716,-0.17861983,0.050768644,-0.047415562,0.20418838,0.15671325,0.0439444,-0.04200487,0.1702719,0.12514003,0.1356954,0.22127141,0.17381915,0.028907381,-0.032529943,-0.1530277,-0.122037984,-0.07038219,0.04620783,0.14400233,0.14392315,-0.018591993,0.037564453,0.14540713,-0.031436857,0.11880607,0.11655745,0.09771388,-0.15292585,0.093641885,-0.021401417,-0.038599625,0.13843758,0.0795005,-0.12738869,0.0003553091,-0.14388387,-0.11000135,-0.13978729,0.07530743,-0.1113905,0.014738746,0.10534883,-0.14091253,-0.08514425,0.07634004,-0.045584705,-0.06983215,0.056857247,-0.016891018,-0.004109766,0.077640444,-0.026097398,0.13352776,0.105613746,-0.057438806,0.022223487,0.07418768,0.014988746,0.23425652,-0.014874505,-0.09856265,0.09150683,0.19408491,-0.14309907,0.07196153,0.09481491,0.03204898,0.05471608,0.072132856,0.20317309,-0.06088218,-0.09394438,-0.0451394,0.13690063,-0.0044589858,-0.078843646,0.085135505,0.13418658,-0.12092518,0.013098399,-0.12914652,-0.07543134,0.1408749,0.039416112,0.098618716,0.060241602,-0.12838931,0.15952344,0.024438743,-0.021380145,-0.08534218,0.018952714,0.0914197,0.051779293,0.08512769,0.06031581,0.06259212,0.041731592,0.1736004,0.05581879,0.11746363,0.0667452,-0.114861906,-0.087307185,-0.014188453,0.016638052,-0.017235544,0.119093806,-0.14261304,0.005949776,0.122919664,0.1082995,-0.008296183,0.08805792,-0.045883056,0.055397257,0.03196978,0.06367553,0.061256338,0.072560236,-0.14564244,0.02991165,-0.11641619,0.19748992,-0.12052359,0.14780602,-0.14523031,0.06841677,-0.06006223,-0.15820208,0.10239608,-0.07201718,-0.12197676,-0.09489059,0.04947358,-0.09286625,0.0071638674,-0.037512433,-0.115941316,0.06801257,-0.08333357,-0.06769122,-0.09728133,0.14024268,-0.013555925,-0.094288975,0.009525989,0.16081941,0.19038272,-0.108438596,0.012000463,0.032186843,-0.09741669,0.0027551034,-0.005108071,0.034248255,-0.031358346,0.1757012,0.016665487,0.025166895,-0.075695805,-0.15223826,0.00054467254,0.21991538,-0.012262501,0.07697325,-0.16405748,0.01034539,0.02450511,0.039744914,0.13804957,-0.10241949,0.14553118,0.09716282,0.17368731,0.15651648,0.01862877,-0.13599369,0.055281293,0.117805175,0.17142153,-0.05263432,-0.084671,0.04844947,-0.06563739,0.07940771,-0.16014132,-0.006868536,0.109905444,0.0006256528,-0.09283065,0.1712522,-0.040795647,0.08585656,-0.067349695,-0.016115509,0.013060776,0.007950774,-0.086406134,0.1580312,0.13186029,-0.030118331,0.051723845,0.08462088,-0.033723883,-0.13253814,-0.035777323,0.10440761,0.021304954,-0.031733427,-0.066249415,-0.07009112,-0.060532294,-0.0029019106,0.13349423,0.11833596,-0.034958616,-0.09082654,0.18273981,0.08064483,0.023739614,-0.054386776,0.018357327,-0.059706155,0.025468843,-0.12616673,-0.02519522,-0.03166777,0.022281397,0.08831598,-0.085711695,-0.021414282,0.13798445,-0.008318183,0.1441822,0.012046506,-0.047106776,-0.024446215,0.02962511,-0.11634326,0.16358614,-0.009661463,-0.033818625,0.003443487,0.053422406,0.057459015,-0.048889454,-0.17205939,0.07831573,0.09586934,-0.0070762243,0.14290316,-0.020837631,0.027251223,0.066918425,0.059115183,0.048822727,-0.13660246,0.09027119,-0.05094497,0.041878223,0.08594943,0.0906873,-0.07045994,0.053750742,-0.04123431,0.03200221,-0.035455246,-0.06218944,-0.0924919,-0.02407856,-0.08624435,0.04120959,0.0021270525,0.0680445,-0.019078579,0.026710743,0.068439916,0.07818386,0.026157476,-0.12651154,-0.056913886,-0.09030767,0.06540439,0.21135798,-0.11373305,0.049709383,0.2151002,-0.16883372,0.15206425,-0.20317873,0.09448636,-0.03814902,0.06860452,-0.1422236,0.017523142,-0.008612692,-0.110257804,0.036743384,0.20311292,0.12860025,-0.033203244,-0.11966742,0.030899914,-0.0997951,0.07595308,0.0425724,0.116739325,-0.14258957,-0.052426733,0.007402324,0.049236592,-0.039244127,-0.005282905,-0.1338024,-0.035605066,0.081320256,0.10143704,0.084202506,-0.13560002,0.0022682727,0.10571831,0.07521796,0.10081363,0.04399857,-0.14697072,0.087607265,-0.09113062,0.14553109,-0.077948056,0.07317958,0.022403477,0.09108604,0.04708643,0.0374556,-0.15891692,-0.19416817,-0.031014668,-0.0083593065,-0.058210243,-0.096185006,-0.0833679,-0.06681059,0.15242463,0.0068328036,-0.11878577,-0.17418411,0.05195281,0.051198546,-0.024977425,-0.034486037,-0.002947704,-0.1381316,-0.10638348,-0.050919864,-0.0253393,0.102236204,-0.115828976,-0.14201796,0.033752024,0.030695679,0.03255807,-0.064538874,0.08186757,0.092705004,-0.01097135,0.06424742,0.10774846,0.058054585,0.06745177,0.06113762,0.046239577,-0.078445636,0.11206667,-0.076597705,0.1597366,-0.07488571,-0.087172285,0.007927992,-0.042182498,-0.14975691,-0.13381697,-0.010820948,-0.12745048,0.08074094,0.12250843,0.108604886,0.02978364,0.04272598,0.11293418,0.13628188,0.13626817,0.1765165,0.123779595,-0.028614044,-0.026479296,-0.10101633,-0.039976057,-0.030277671,-0.09565473,0.11626483,-0.06361673,0.15091394,0.013189016,-0.030280272,-0.1074863,0.07551072,0.05535846,-0.10376955,-0.06527508,-0.10244159,-0.03427303,-0.13319689,-0.017596472,0.12825382,-0.111606725,0.08687554,0.12641789,0.0865906,0.019660924,0.117048584,-0.12215231,0.09098913,0.16328716,0.0629407,0.05463802,-0.10256377,-0.12528881,0.08473362,-0.05283776,-0.06801174,0.11070334,-0.08776336,0.17943773,0.07657478,0.042537183,0.024019176,-0.093340196,-0.11253156,0.18003011,-0.16754888,0.074712284,-0.035605665,-0.20027381,-0.13626198,-0.062146865,-0.07828479,-0.050422113,-0.107226945,-0.029748179,-0.055954017,0.1963058,0.14020139,-0.04959863,-0.12521714,0.14263919,-0.10074098,0.011265865,0.086850084,0.08243013,0.011868266,-0.0033787256,-0.059619524,-0.1425219,-0.105660446,0.13127056,0.04607349,-0.014999179,0.0015027536,-0.11361617,0.007975601,0.10500052,-0.087318026,0.01656768,0.011711834,-0.007096669,-0.17222527,0.09849286,-0.08615743,-0.20344533,-0.11224689,-0.09829228,-0.038160153,0.04198638,0.09889937,-0.013643933,-0.006706832,-0.084797405,-0.04560348,-0.011685776,-0.12855068,-0.06444647,0.09202289,-0.057074066,0.16372627,-0.035003845,0.029128429,-0.088566765,0.011946759,0.13692118,0.12339126,-0.06435696,-0.14997663,-0.16486919,0.012230376,-0.06902996,-0.1522399,0.11668825,0.105217196,-0.05874112,-0.12686047,0.11447165,-0.0888856,-0.041169595,0.02548128,0.2070676,-0.076693624,0.052270923,-0.10961825,0.1420708,-0.028691404,-0.044405278,0.27664936,0.030981222,-0.14758767,-0.032798614,-0.13768749,0.093645774,0.14526355,-0.028759079,0.008257496,0.12901276,0.14075744,-0.033944406,0.1148207,-0.1718597,0.033217102,0.061949186,0.03794421,-0.04142134,0.12391248,-0.12853485,-0.049742613,-0.032915697,0.1463852,0.0682541,0.025932733,-0.029407084,0.08291121,0.04887622,0.12082524,-0.016643053,0.008931983,-0.074629374,-0.18675579,-0.14235058,0.12171398,-0.07503598,0.021626504,-0.054602616,-0.13025375,0.007109858,0.023433676,0.061314307,-0.02738613,0.12556703,0.09637956,-0.096963,0.16702305,0.05292766,0.18392332,0.1786884,0.06523791,0.03973213,0.08805209,-0.1431112,0.026960324,-0.067724794,-0.15299182,0.101863205,0.0085881725,0.14594868,-0.034994487,0.0546307,-0.12650141,0.027701447,0.013792145,-0.13917191,0.14942627,0.09088861,-0.0032144408,0.10794777,-0.03711118,-0.030711118,-0.11216458,-0.10841014,0.069220506,0.10091681,-0.02193564,0.130114,0.023076665,-0.0038716837,-0.03225108,-0.19611314,0.15820843,-0.016845474,-0.08052166,-0.02808641,-0.024942605,0.009751622,0.082612686,0.03352005,0.12929095,-0.085992485,-0.11369077,0.21343268,-0.10678831,-0.034810077,0.08072853,0.12006355,0.084445976,-0.03156654,-0.01861609,-0.05382553,0.08461308,-0.08074209,0.044907086,0.11443138,0.06478384,0.13669173,-0.012966188,-0.16341825,0.0863835,-0.021328438,0.024620194,0.1374819,0.07728038,0.038511526,-0.007972133,0.12535737,0.111466035,-0.19466494,-0.13921854,0.13066193,-0.10431475,0.01127933,0.07169325,-0.0025061895,0.10005765,0.023026451,0.1403748,0.09614057,-0.100544885,0.16635577,0.06185901,-0.05466395,-0.13452932,-0.07774002,0.08216794,0.08332747,-0.011148315,0.06076215,0.11009308,-0.05977803,0.09604165,0.16291963,-0.038171157,-0.08121991,0.08874323,-0.086590715,-0.031193728,-0.099424504,-0.09200243,-0.028463291,0.025004622,-0.01838933,0.06612158,-0.16313991,-0.19442914,-0.053384125,-0.024620185,0.110273734,-0.07612744,0.14189869,0.14114866,0.18736924,-0.07375073,0.060771767,0.07106433,-0.0047617676,-0.11320889,0.07847706,0.07509275,-0.06895798,-0.09567035,0.0006021533,0.030043393,-0.054190595,-0.15022215,0.013425678,-0.06352128,0.15120293,-0.10471159,0.0812136,-0.13191518,0.037053682,0.0067824246,0.19309595,-0.010751838,0.10594501,-0.20110807,0.14060302,-0.0078071454,0.14046766,0.1760502,0.13773628,0.08132841,0.056147102,0.028616533,-0.022973357,-0.027979584,0.10331181,-0.051649097,0.11152277,0.09968584,0.050712306,-0.018922295,-0.086688496,-0.0063845543,0.11340745,0.09656317,0.0065271757,-0.015605898,-0.0052099666,0.1149956,-0.075174086,0.03162801,-0.050125398,0.066102654,-0.03852175,0.1409435,0.079427645,-0.13609497,-0.022402192,0.062495857,0.053905085,0.13693464,0.065333255,-0.057110038,0.03428541,0.015056617,0.13252696,0.1601123,-0.084606744,0.118533984,0.013050496,0.1808314,0.052036803,0.070246644,0.021289883,-0.10148907,-0.17036638,-0.07124089,0.023817547,0.0037976198,-0.0042660786,-0.047094353,0.054869987,0.12809312,0.09295845,-0.21430486,-0.062127315,-0.09088982,-0.01702454,0.09470779,0.03665691,-0.005221492,0.17807108,-0.026136072,0.05539473,-0.084053606,-0.016851574,-0.016130565,-0.03892643,0.01950565,-0.108679436,-0.18490675,0.16233943,0.10766798,0.09690989,-0.050190445,-0.008860098,-0.08200674,0.06698572,-0.12057733,-0.033033036,0.046511162,-0.03905489,0.08928701,0.12020643,-0.16981459,0.093029976,0.19219485,0.025817351,-0.040508445,0.08287201,-0.18856438,-0.003240559,0.04692797,-0.07690991,0.10729877,0.08198433,0.09399338,-0.007397913,0.13975863,-0.041391086,-0.11011133,-0.022154145,-0.0039734975,-0.03223032,-0.11166473,-0.15706539,0.12359056,0.032450546,0.07513047,0.02409092,-0.025323566,-0.10003933,0.09348633,0.08008417,-0.040022716,-0.13068724,-0.16757242,0.011887164,-0.009978628,-0.028531523,0.082582235,0.08986098,-0.02276169,0.029705446,0.024393296,-0.03630296,-0.12682289,0.09765691,0.10131347,0.107009046,-0.03997644,0.09476356,-0.12960616,-0.03337214,0.081474386,0.1523835,-0.022051252,-0.015572138,0.18489057,0.027546884,-0.13166764,-0.080534235,-0.19931601,0.066293634,0.14485352,0.16189916,0.006709511,-0.06349311,-0.158106,-0.09001296,-0.07014703,-0.03571646,0.1182272,-0.00035573353,-0.07116599,-0.10760805,-0.0548893,0.044003114,-0.023022994,-0.023828764,0.00086674315,-0.032473065,0.14261729,-0.07077267,0.037790302,0.018623667,-0.15640073,-0.049437996,-0.058976255,-0.11342106,-0.12386188,0.030562209,0.1106623,0.030195026,0.09081231,0.13221702,-0.1885684,0.0993251,-0.021249475,-0.15047161,0.0839989,-0.029407186,0.17161292,-0.13274434,0.06588712,0.027645785,-0.03837061,0.11440879,0.025677793,0.07604452,0.07517002,-0.07007555,0.0450118,0.05880752,0.1695368,0.03703936,0.18857953,0.11496095,0.06201494,0.105935104,0.041818008,-0.15416284,-0.06114737,0.07560477,-0.09916348,0.1619116,-0.11852726,-0.009199458,0.047775377,0.032161042,-0.034360833,-0.027949885,-0.0417612,0.13847587,0.16711734,-0.061106086,0.019242473,0.10862227,0.103782624,0.0863451,0.059200432,0.11186551,-0.14082181,-0.08103519,0.064726435,0.06841528,-0.17669867,0.14989239,0.04435847,-0.12515062,-0.028913857,-0.05358133,0.17691122,0.049929675,-0.19792713,0.10723152,-0.063047804,-0.048190486,0.024501873,-0.09429112,-0.006951657,-0.1574097,-0.160552,0.03214488,-0.0075874464,0.027828686,0.100193135,0.022499433,0.10289473,-0.01615702,-0.068192154,0.041989774,-0.0966522,0.03860173,0.0056807147,0.15302637,0.12383238,0.06611953,-0.039382778,0.025341248,-0.1478131,-0.04585897,-0.0049698236,0.11130593,0.12213316,-0.1412221,0.07393408,0.031054256,-0.044035945,-0.098015286,-0.06903426,-0.013640148,-0.10119333,-0.057544135,0.1388861,0.026334481,-0.037086822,0.1224125,-0.11216085,0.11264606,0.032482665,-0.16269541,0.09242574,-0.16629194,0.07084736,-0.072330646,-0.06905692,-0.10608777,0.15521744,0.100148916,-0.024348393,0.1891346,0.06491152,0.05460014,-0.012173387,0.025780935,-0.071234666,-0.055213854,-0.15502949,-0.0036969744,-0.06879854,-0.036098327,-0.13558851,0.06695268,0.11069867,0.060081974,-0.14944254,-0.19950195,-0.13395277,0.07422961,0.11358579,0.07319384,0.09683262,-0.01151595,-0.0787907,-0.093421556,0.124467544,-0.043929074,0.17797671,-0.08638559,-0.030195337,-0.072859995,-0.04970938,-0.0056864377,-0.0461922,-0.09080061,-0.0554757,0.026375001,-0.08217827,-0.0003438639,-0.025436625,-0.079826824,0.07678726,-0.0048843473,0.053047262,-0.20006274,0.06163546,-0.067477144,-0.045146637,0.16234003,0.10516148,-0.1396059,-0.1535468,0.17258272,-0.16046713,0.13668118,0.12721802,-0.11613405,-0.062201172,-0.05971481,0.07371194,-0.041024096,0.017462691,-0.0650037,0.056795467,-0.105088554,0.032150812,-0.14274503,0.056613684,-0.12299531,0.20142618,0.040779565,-0.028949345,-0.052266188,0.17697567,-0.070827104,0.13492683,0.101940766,0.17556101,-0.050772727,0.13632652,0.031065367,-0.007397569,0.05855987,0.012774494,-0.19885954,0.063972674,0.04837907,-0.15732436,-0.09455135,0.1456259,-0.13006216,0.10488946,-0.0011107384,0.15643978,-0.0056293407,0.13137588,0.018763324,0.040961575,0.0027264107,-0.01875743,0.08138787,0.16737588,0.11899883,0.13056548,0.09745046,-0.0051835435,0.11623494,-0.11197833,-0.021795606,0.10245182,-0.064093105,0.004230312,-0.09563313,-0.13462646,0.19285943,0.20269416,-0.029819034,-0.004977813,0.082053244,0.07675597,-0.014599841,0.102487415,-0.15331437,-0.0020818918,0.062127423,0.011883109,0.05734554,0.12617224,0.14300528,0.056375355,-0.011835065,-0.10953063,0.15378691,0.050263114,-0.003074548,0.088971294,-0.06468408,0.035151973,-0.15607186,-0.026495198,0.059033856,-0.077626705,0.11810457,-0.17126109,0.010349362,0.13471505,-0.05745659,0.0027778936,0.14508429,0.034798782,-0.032582223,-0.1404662,-0.1458744,0.11107925,0.028645603,0.108282045,-0.12915017,-0.09841824,0.18837996,-0.08065429,0.02164252,-0.16011573,0.14089528,-0.12726118,0.14818062,0.03293118,-0.048372936,0.03130595,-0.08232383,-0.016889323,0.059952114,-0.19094162,0.003597823,0.00023461525,-0.03565465,-0.10789992,0.03694124,-0.13648646,0.011577292,-0.02112566,-9.510768e-07,0.06255392,0.12287014,-0.15210222,0.157955,-0.12878521,-0.07036383,0.17518948,-0.08933697,0.11189897,-0.06222762,0.104789585,-0.01078671,-0.07651322,0.11126735,0.027375743,0.07788403,-0.13070443,-0.07241075,0.017277833,-0.12646982,-0.064057745,0.011070762,-0.07635263,-0.16338816,-0.066594325,0.019403717,0.06840074,0.08386659,-0.035300568,0.053110495,-0.09070109,0.15619102,0.08563106,0.12561479,-0.18649319,0.022554457,0.10035933,0.14492047,0.09014282,0.12931022,-0.0126498025,-0.06545175,0.083190635,0.17132929,-0.07271003,-0.10031325,-0.16372932,-0.05712896,-0.044782396,0.056269497,0.01910933,0.059211936,-0.024809575,-0.06832488,0.23158841,-0.01857122,-0.02279741,-0.110451445,0.10953104,0.16108024,-0.015896251,-0.13700922,-0.022011299,0.09545007,0.15315464,0.08544336,-0.1530041,-0.13883567,-0.029890416,-0.14147349,-0.03676678,-0.03869457,-0.0046104593,-0.16739166,0.16528255,0.06906926,-0.06375237,-0.008830081,-0.12587234,-0.0536133,0.16143812,0.08488753,-0.1208911,-0.13770719,0.038894664,-0.05235167,0.01886982,-0.0047745546,0.031359587,0.06779274,-0.0999679,-0.007490172,-0.010893757,-0.1282362,-0.09713494,-0.12788406,0.05414528,0.13844101,-0.11887113,-0.10959418,0.020633409,0.060485575,0.0021412973,0.093864925,0.12191614,0.054294497,0.09830916,-0.023033153,0.00079459,0.060450986,-0.17155586,-0.057860907,0.049165778,-0.055710394,0.004732467,-0.07477896,-0.14894977,-0.019002767,0.016114075,-0.0116015095,-0.027023971,-0.045678236,0.055355985,0.16952957,-0.02908573,0.045009755,0.07212534,-0.04388378,0.068160266,0.055218082,-0.1709163,0.006562207,-0.15372328,-0.13919935,0.093162455,-0.12720783,0.09148923,-0.044472694,0.03164694,-0.05408283,0.08416553,-0.0053785406,-0.020392898,0.09225492,0.08586248,-0.019631859,0.1555256,-0.1782609,0.12575196,-0.004239415,-0.086424634,0.046777297,0.032661643,-0.056297023,0.13051489,-0.026441168,-0.16864087,0.05039623,0.09510193,-0.0808711,0.0539452,0.036703683,0.13431844,0.088148065,-0.106994845,-0.040450767,-0.010864935,0.07429503,0.108886845,0.03772928,-0.035926063,0.018264621,0.019601183,0.10523286,0.19408207,0.17246717,-0.0006812881,0.065563515,0.012044194,-0.07755125,-0.07056654,0.059891608,-0.045353327,0.11933397,-0.09883561,0.07135087,0.068708286,0.11834171,-0.10181826,-0.09595361,0.07519259,0.08199792,-0.053834368,0.057953767,-0.17113993,0.08734838,0.061238933,0.014988775,0.0053583677,0.023488276,0.061828878,0.06438128,0.09670359,0.06555131,0.03319481,-0.08650015,0.03857677,-0.056529667,-0.08682307,0.08213441,-0.031609602,-0.12094563,-0.07705188,0.08707097,-0.102811806,0.09154511,-0.06947429,-0.12843068,-0.1369898,-0.13981731,0.11955498,-0.044280276,-0.09109311,0.023158232,-0.059415057,0.07672769,0.16802774,0.13934295,-0.046246562,0.11662842,-0.12551889,0.0849988,-0.052434605,-0.07243578,-0.076228164,-0.082785666,0.04543776,0.006806902,-0.04415448,-0.09760329,-0.07176882,-0.17713091,-0.121320374,-0.048933897,0.062460925,0.06426573,0.035135765,0.057503045,0.064891085,-0.06829739,-0.011512142,-0.14946671,-0.15652032,-0.003200168,-0.044263132,-0.15057915,0.14901605,-0.07852418,-0.058070492,0.090515934,0.09245764,-0.045231283,-0.0085708,-0.10405326,-0.057440862,0.028961785,0.065063044,-0.04593129,-0.07374021,-0.13175745,-0.025341336,0.034076836,0.053868033,0.034611415,-0.10780992,-0.031187048,0.1485984,0.09268324,0.019572131,-0.10013176,-0.10998089,-0.0035848296,-0.121296376,0.124657124,-0.086224556,-0.01786477,-0.019926038,0.081309274,0.14038503,0.032502793,0.038168024,-0.06313489,-0.022089465,-0.03140107,0.05805134,0.11665631,0.114869066,0.030189585,-0.04951575,0.078191094,0.098431215,-0.104029305,0.1655921,0.016989788,-0.10302423,-0.01806236,0.20408614,-0.07940652,0.08501957,0.082185425,0.058975838,0.09339285,0.12532717,0.13611382,-0.0951829,-0.13529311,-0.1802476,0.055062793,-0.08518716,-0.00120241,0.09434925,-0.084190406,0.040885527,0.07702738,-0.0147404075,-0.1259654,0.030622847,0.047602456,0.09335049,0.04601933,-0.09393952,0.057174668,0.021810587,0.20017768,0.11540597,0.044427153,0.09713469,0.028993439,-0.0007717753,-0.2046115,-0.047719967,0.07527788,-0.072455265,0.04141163,-0.092076436,-0.07416202,-0.12574874,-0.015054393,-0.014528048,-0.059859384,0.1065974,0.1645284,0.21102957,-0.030232713,-0.17243004,-0.045680597,-0.072456256,0.067548506,0.07728632,-0.062333606,-0.14772795,0.10953655,0.037626892,0.07228838,0.104021035,0.089848384,0.09762346,0.04826538,-0.037914425,-0.109505884,0.084503375,-0.066280715,0.0279337,-0.0668807,0.21262465,-0.09053344,-0.086542234,-0.09973305,-0.075644225,0.12703201,-0.016344683,0.04621246,-0.18587603,0.120208316,-0.1675536,0.07805471,0.021507569,0.035034746,0.06708589,0.09822769,0.027361933,0.08145108,-0.07611989,0.012796804,-0.056079365,-0.056049466,-0.12993251,0.024519641,-0.040911842,0.059840024,0.10664144,0.117231235,-0.06550939,0.18293864,-0.043599956,0.12483862,0.12585983,0.076292,0.07519263,-0.106747024,0.14952634,-0.043607302,-0.06765148,-0.08665697,0.09372265,0.04185905,0.05960898,-0.008153267,-0.062690526,-0.18798842,-0.022947082,0.07151228,0.015148098,0.03254701,0.13647033,-0.065688625,-0.11006277,-0.008577808,0.045620028,0.091602474,-0.13114049,0.04688205,0.09409093,-0.23221485,-0.0824055,-0.07624003,0.06808374,-0.033978783,-0.15548602,-0.06137224,0.05582046,-0.031224832,0.075283155,0.08308003,-0.110998854,0.040481247,-0.09185244,0.10840443,-0.06743094,0.052139018,0.14895111,0.20744966,-0.10586521,-0.080170214,0.13660312,0.105121434,-0.11877368,0.09262302,0.009194316,0.024317019,0.0061820117,0.10075149,-0.110080026,0.108797714,0.22600868,0.17757528,-0.12483576,-0.14473188,-0.0008845144,-0.050426867,-0.01970901,-0.0766466,-0.043493096,0.14005272,-0.12630887,0.029023508,0.097365245,0.0011370354,-0.1281294,-0.023233984,-0.030399147,0.07960714,-0.19621167,-0.14140965,0.06449968,0.007291731,-0.067071855,-0.06813504,-0.045025263,0.08305312,0.014629303,0.020613547,0.10222792,0.15301032,0.04258513,-0.08521261,0.10096788,-0.101939574,-0.0040260325,0.04233472,0.12578678,-0.13803527,-0.110820636,0.039816733,0.18254112,0.1781289,0.07804165,-0.062439762,0.03382515,-0.085943006,-0.0040142452,0.15668279,0.05960966,0.03623567,-0.068194024,0.0016192549,-0.11682869,0.066583425,0.15403928,0.0016304741,-0.026006987,0.02774524,0.13862376,0.012779396,-0.18373501,0.05025104,-0.032427453,0.12468297,0.078900166,-0.087423526,-0.098365754,-0.048841562,0.058341842,-0.05685414,-0.09097344,0.085562944,0.04646134,0.1165021,0.020255903,-0.037984032,0.048821088,0.17996281,-0.1732288,0.0444342,0.1260323,-0.03564484,-0.044898953,0.035102617,-0.094485454,0.049875937,0.14362437,0.11910852,-0.009722778,-0.026252268,-0.0710083,-0.12633719,-0.14192149,-0.137081,-0.07110258,0.083998136,-0.008609473,0.05986947,0.13016352,-0.042460855,-0.059773132,0.06954518,0.05516437,-0.055684492,0.04795056,-0.009425496,0.0022663784,-0.00692631,-0.14647663,0.011674696,0.059350017,0.20604151,-0.029001674,-0.12300748,-0.2089606,-0.04367059,-0.07003394,0.10807912,-0.13007969,0.121279836,-0.18232176,-0.057912722,0.1290003,-0.08779291,0.05407674,-0.05836458,-0.00839679,0.032449827,-0.033654194,0.21931069,-0.050535396,-0.040263753,-0.12437372,-0.13762061,0.038477767,0.042741805,-0.074832246,0.1415115,0.12902121,0.08504369,0.15037271,0.09855567,-0.10047166,-0.16958775,-0.07581716,-0.05746869,-0.08872713,-0.038897377,0.13331777,-0.07000139,0.07223074,-0.021732273,0.1496887,0.08256008,0.09979577,0.0014179759,0.058304567,-0.092632435,-0.013322612,0.12053326,0.058812536,-0.0075348164,-0.04727312,0.10836506,0.08025503,-0.06253062,-0.008957865,0.0182536,-0.09279644,-0.15380658,0.09331594,-0.03639553,-0.10731638,0.06252576,0.00969413,0.1322777,-0.038640723,-0.037973616,-0.08397675,-0.085148424,-0.13158533,0.09973137,-0.03725656,-0.023529371,-0.095947914,0.19316307,0.13220565,0.06811896,0.059867933,-0.010384082,-0.0763253,0.06814756,-0.035149414,-0.1586066,0.054433282,-0.1612555,0.11074514,0.06878056,-0.17414947,0.058936067,0.015589766,0.15141629,-0.0060226563,0.056334566,0.00958672,0.19304173,-0.008400298,0.002162397,0.10346292,0.0876666,0.10646148,-0.011289883,0.03936328,0.06259457,0.1378757,0.14433864,-0.0596484,0.046782043,-0.14716628,-0.05939524,0.050247412,0.19765426,-0.07231271,-0.003994822,0.06985419,-0.12015743,-0.032497,-0.14139374,0.11131793,0.01029588,-0.100109875,-0.06700186,-0.03699065,0.103290275,0.062258013,-0.13971701,-0.12759474,-0.05799083,0.09553599,-0.11074684,-0.083389446,-0.14542778,-0.11560713,0.01981,0.14301462,0.011501776,0.09402413,-0.12705344,-0.06215259,-0.07303816,-0.017142495,0.1166874,0.11365228,0.07159654,0.034081895,-0.12667772,0.028386313,0.13140416,-0.015241251,-0.04278139,0.04591838,0.12500396,-0.07955496,-0.059001762,0.022803916,-0.13159849,0.034181204,-0.09081148,0.125067,0.15080461,-0.010660989,-0.020287396,-0.025054066,0.007931061,0.10400884,0.0655702,0.18720685,-0.09452321,0.10915215,0.10515672,0.080571,-0.013997348,0.08722768,-0.008793031,0.12601833,0.072780065,0.030023389,-0.06246693,-0.059164796,-0.06954792,0.04868323,-0.14575763,0.061322413,0.17947768,0.05272672,-0.013079678,-0.050771177,-0.09844204,-0.09377326,0.033485122,-0.05471566,-0.011666308,0.016813552,-0.09232574,-0.11650505,-0.08202007,0.17221266,0.10004833,0.08906241,-0.028839136,-0.14604007,-0.03303514,-0.011071025,-0.038408753,-0.14279202,0.0905087,-0.03106547,-0.06727003,-0.13547774,-0.051991336,0.06840609,0.036156002,-0.0005955603,0.023446687,0.02555485,0.09302005,0.0010667115,-0.20131257,0.09662424,0.08745348,0.090270124,0.0418432,-0.08878693,-0.11210743,0.02814599,0.24355768,-0.010291689,0.058503605,-0.1030869,0.053825825,0.05328435,-0.15051518,0.17634194,0.08128223,0.064406484,0.120832995,-0.12186246,0.0016584388,-0.11379241,0.15195684,0.01562921,0.04108932,0.030578759,-0.061265465,0.13570423,0.072183736,0.13848472,0.03843942,-0.08900929,0.12974596,0.094388664,-0.03841627,-0.1241843,-0.16820465,-0.011667759,0.09849782,-0.038303904,0.026552696,-0.060821064,-0.061241128,0.036789868,-0.08509738,0.095841974,0.012028839,0.11622763,0.070603885,0.14420143,0.05859652,0.18884915,-0.0072031235,-0.0032962565,-0.032935146,-0.12069627,-0.055592615,-0.08130919,-0.11429098,-0.03285681,0.055814683,-0.069489256,0.0334123,-0.111961745,0.07565402,-0.06932261,0.022990474,0.019223932,-0.064832,-0.14751203,-0.002756742,0.05867744,0.21958049,0.12307988,-0.03579306,-0.05655304,0.09729377,-0.0608411,-0.12192361,-0.0062884083,0.110405855,-0.021017388,-0.08166834,0.069803916,-0.10370353,-0.10555633,0.054382186,-0.14306304,-0.040260173,-0.032903936,-0.09002394,0.08261203,0.07478034,-0.124041475,-0.05440129,0.22746302,-0.079412796,-0.113950156,-0.11687217,0.07448862,0.07418706,0.030963264,-0.04280389,0.055944737,-0.082629345,0.08137649,0.08818254,0.14176339,-0.020238552,-0.05357302,-0.10895925,-0.11075813,-0.08678738,0.0037337767,0.031423967,-0.018175568,-0.12129007,-0.1547433,0.04486054,0.11624216,0.061280005,0.13949867,0.07409091,0.070398234,0.21911122,-0.09032906,-0.09709127,0.13053657,0.0838069,0.05118606,-0.11740071,-0.018534087,-0.06824802,-0.10929075,0.0029933872,0.13543776,-0.111917056,0.06008437,-0.027420757,0.04428162,-0.21076377,-0.07873786,0.007156892,0.072634116,0.12775776,0.18122663,0.06658607,0.10282644,0.10131201,0.009819353,-0.090648755,0.054635093,0.08820984,-0.010671778,-0.19115065,-0.17730452,-0.012911266,0.04084995,0.07054731,0.064531595,-0.146196,0.16679923,-0.14508516,-0.1661385,-0.11304911,-0.14088592,0.058897786,0.038482282,-0.12775749,0.05531276,-0.044879016,0.1378174,0.0974729,-0.034358464,0.077402994,-0.03650625,0.11693559,0.084985174,0.020067157,0.0016647293,0.052549396,0.08351541,0.06859017,-0.076617874,0.12739217,0.04201059,0.06278098,-0.06111466,0.080180995,0.07170147,-0.013801122,-0.03121577,0.15509824,-0.034795012,0.17929105,-0.05768932,-0.09240263,0.17399615,-0.020739466,-0.027924333,0.09227121,0.13867664,0.116090916,0.07421063,-0.05420743,-0.08145975,-0.08610665,0.028751161,0.06841377