0.17860366,-0.017216183,0.026380455,0.16849986,-0.0016015135,-0.030690119,-0.055287737,-0.01075809,0.07045713,0.015571492,0.006462508,-0.16311042,-0.078336254,0.12770793,0.046648636,0.038815826,0.041769404,0.047669597,0.21402392,-0.13582654,0.18315841,0.1407715,0.0018645416,0.07672177,0.09368094,0.14039856,0.027825182,0.12243257,-0.15788949,-0.0055038533,0.004569887,0.17671862,0.1003287,0.09882487,0.14211953,-0.10118402,0.061799485,0.07846512,-0.109907225,-0.09910121,0.07499824,-0.0411252,-0.1251352,0.010670901,-0.019883847,0.010238328,0.11539317,-0.02991506,-0.0545608,-0.043620307,-0.036264222,0.10777265,0.13467765,-0.03900599,0.0057052807,0.091422394,-0.07759658,0.14972201,-0.01218108,0.0025858572,0.08849656,-0.065981805,0.0028303422,-0.14379764,0.14892055,-0.049332906,0.025087804,0.09994995,-0.056036983,-0.120174915,-0.026477203,0.046291173,0.25038534,0.13375568,-0.1224095,0.016864266,-0.043735687,-0.010849294,0.18977308,0.046703964,0.12468753,0.0071747974,-0.043083716,0.07879489,0.026730128,-0.121366225,0.11673114,-0.009160171,0.0796123,0.034281805,-0.061418843,0.015374407,0.051904116,-0.01986377,-0.063515164,-0.04678439,0.054812558,0.1437848,-0.018976456,0.14473481,-0.023894798,0.06859481,-0.019916572,-0.011909108,-0.07960168,-0.03456876,-0.09873895,0.018347176,0.03528971,-0.14454798,-0.11489791,-0.08029282,-0.073856995,0.0509054,0.06715593,0.09165349,-0.124739714,0.02927759,-0.0959173,-0.119155146,-0.05948053,0.045993384,0.0786387,-0.03548481,-0.084122024,0.1482126,0.048879206,0.034707725,0.0716466,0.10912488,0.07910184,-0.13478015,0.12172183,-0.09732644,-0.045354463,-0.07346672,-0.09756563,-0.061122727,-0.110118166,0.07710649,0.0064181546,-0.09276419,-0.14653979,0.07256801,-0.13941035,-0.04814343,0.014475476,-0.11908883,0.08285683,-0.17932746,0.029708458,0.096295126,-0.12995018,0.0595197,0.011961882,-0.024133896,-0.008765247,0.016319053,0.110204436,0.02478171,0.2313169,-0.03119,-0.0062229605,-0.12915765,0.10997243,0.1304966,0.086993806,0.2641117,0.031381965,-0.13254164,-0.1569061,0.17064457,0.07222857,-0.001349424,-0.14259747,0.06587611,-0.1376858,-0.10382128,0.124822505,0.033082034,-0.028085228,-0.029928327,-0.0019749121,0.00029752724,0.06810897,-0.12997085,-0.13449572,0.07837128,0.096543625,0.06612939,0.023926634,-0.23179393,0.1027552,0.10476855,-0.0011087304,-0.022473153,0.03639265,0.057053555,-0.028286148,-0.013451276,0.04334905,0.13137738,0.071178295,0.1260077,-0.10904342,0.045746844,0.12529229,-0.082660295,-0.049288314,-0.12094567,0.1754766,-0.09589253,0.20190735,0.13116914,-0.13828875,0.10323396,0.046621237,-0.14783897,-0.0662739,0.11844722,0.109929316,0.0021897564,0.09726972,-0.19931987,0.056498155,-0.1411781,-0.09699181,0.060531396,0.08204231,-0.08456716,-0.14827847,0.09621663,-0.060191147,-0.020241665,0.021296786,-0.040788326,0.12869692,0.013849225,0.19642007,-0.11472992,0.11760983,0.060078036,-0.14515446,0.09653619,-0.06029915,0.1293673,0.09542458,0.10541887,0.102608815,0.06988645,0.10676034,-0.0038302916,-0.09327162,-0.1070065,-0.114965975,-0.012084784,0.003948687,-0.10321095,0.08992801,0.13016899,0.023323279,-0.029184045,-0.09060581,0.1639581,-0.065665014,-0.1689656,0.0781797,-0.032519754,0.008260012,0.14415419,-0.22466451,0.17033604,0.23963676,-0.1193875,0.116668135,-0.15121157,0.063584656,-0.060920168,0.07641688,0.014667065,0.024456427,-0.042166036,0.046567008,0.007836972,-0.07500652,0.040518228,0.004700895,-0.08109731,-0.11288739,0.102590755,0.03131315,-0.06745936,0.05493017,-0.14333218,-0.0016497514,-0.040045727,-0.13690986,-0.066334836,0.070575275,0.18077074,0.053927105,0.07425871,0.021959068,0.025400246,-0.06731882,0.019151904,0.060082037,0.05798007,0.11759855,-0.08067701,0.16111249,-0.14305651,0.039482538,-0.06539123,-0.028467188,0.08395193,-0.021691607,-0.03389217,0.066942036,-0.10877316,-0.026169967,-0.12114024,0.061743174,0.03467702,-0.0055938354,0.086806014,0.11477902,0.18897668,0.20845063,0.15009649,0.03101557,0.12890404,-0.0745194,0.07991509,0.12859935,0.046766214,-0.01628616,0.043223724,-0.09831462,0.1718342,-0.07662088,-0.039275903,0.07063007,0.073414296,-0.09378219,0.13793239,-0.0018699573,-0.07607167,-0.15333183,-0.066463165,-0.104136646,-0.07683382,-0.035062805,-0.07203706,0.15990269,0.08188535,-0.17023116,-0.10990711,-0.13620742,-0.06502351,-0.003907899,0.006203633,0.020456877,-0.07779041,-0.030824257,0.115798816,0.08633256,0.093255706,0.09806363,-0.06316426,0.0329341,0.1226689,0.03942948,0.171302,0.080833726,0.009665271,-0.061436143,0.06659451,-0.042249423,-0.11349354,0.029978925,0.023702832,-0.10553054,0.0039240876,0.17246148,-0.023551615,-0.07243972,0.080791816,0.18403678,-0.10508222,0.16771275,0.1503399,-0.0018227025,0.016524736,-0.03500575,-0.016142903,-0.045943655,0.08354158,-0.017918019,-0.09476237,0.10957263,0.09790136,0.19026631,0.11837457,0.030473854,-0.029656636,-0.029163169,0.13788024,-0.05250159,-0.06927629,0.13299744,-0.08205843,-0.1205404,0.08206972,-0.0588139,0.13623849,-0.048935335,0.18023066,-0.02429619,-0.075840145,-0.100322224,0.0442031,0.15424417,-0.15102114,-0.10357321,-0.029459856,0.18373983,0.03185159,0.16741839,-0.06217594,-0.10350422,-0.08461018,-0.069117896,0.09653954,-0.031897984,0.039913952,-0.122320764,0.106867045,-0.05135393,-0.07923481,0.02429019,-0.13828011,0.13358684,-0.09661208,0.065076396,0.041805457,-0.073886335,0.07416341,0.12823547,-0.13228022,0.0034803583,0.13975023,0.06476861,0.19037694,-0.051259406,0.13158064,0.024304178,-0.087427355,0.06688534,0.00759735,-0.029462457,-0.12185459,-0.1060484,-0.17691135,0.057614516,-0.11903577,0.03255463,0.092795946,0.005604027,-0.098267406,-0.051985633,-0.03717103,0.14129893,0.015818689,0.018476103,0.112318695,-0.071201056,0.06528806,0.1772463,0.10325577,-0.13622019,0.06274859,-0.05539437,-0.0983611,-0.06112095,0.13239826,0.082034945,0.056426644,-0.027871374,-0.022850998,-0.018599477,-0.12147169,-0.12075304,-0.25211373,0.13662757,0.11986592,-0.20462543,0.12042455,-0.13979363,0.08893169,-0.18282804,-0.027183391,-0.12993498,-0.04729352,0.025431795,0.01621253,0.08925163,0.1070967,0.0048397696,-0.078672275,-0.115903355,0.09706948,0.05486162,-0.011242729,-0.15760884,-0.027013842,-0.024141477,0.12032029,-0.006750475,-0.11175103,0.09558189,-0.019001473,-0.120388664,-0.10523546,-0.051901296,-0.015932228,-0.08866483,-0.10073207,-0.07999697,0.046940893,0.14517854,0.11253645,0.056487937,-0.103159234,-0.12560807,0.19817336,0.0501218,-0.09558793,0.13431676,-0.11858507,-0.0936584,0.11210556,0.07278092,-0.0526708,0.06023834,-0.112340495,0.089108676,-0.028161297,-0.022940695,-0.24271366,0.10026674,-0.18876024,0.17227286,-0.11533609,-0.14345647,0.054600917,-0.13393517,-0.08833998,-0.06699059,-0.053501613,0.067157105,-0.104816295,-0.045860954,-0.11053162,0.09168739,-0.091469765,0.105077885,0.01607158,0.092408374,0.18946333,0.059056576,-0.11583351,0.062762104,0.1397152,-0.05296226,0.12576626,0.033746455,0.07040427,0.025107773,0.0011087612,-0.031056194,0.09972729,-0.057324395,-0.14854896,0.27292293,0.00018013756,-0.11256747,0.058614247,0.016018478,-0.09030011,0.004336858,-0.028353896,-0.104918264,-0.1328181,0.007056191,0.23403636,-0.0075166444,0.14616741,0.07539459,0.031860106,0.17696428,-0.0026763256,-0.021185689,-0.033095222,0.095803976,0.21554011,-0.087181844,0.065043725,0.036904737,0.19887835,-0.07005825,0.096933864,-0.11572359,0.073225,0.09708076,-0.0373283,0.055894688,-0.057855923,0.092643365,-0.11444465,0.056103505,-0.08803823,0.031571954,0.11247291,0.03554325,0.020639043,0.035626724,-0.0027480533,-0.07797579,0.08772364,0.0999751,-0.081541546,0.0735,-0.05393863,0.0566212,-0.09282717,0.08733825,0.16082782,-0.11187043,0.079349086,0.04302314,0.04009535,0.018849423,-0.06726282,-0.00063356134,0.1397043,0.09590328,0.105926864,-0.19133344,0.016937919,-0.057293355,0.08231454,-0.07035376,-0.11236949,-0.02147753,-0.03881896,0.081660196,0.108047605,0.035506546,0.0724952,0.14428614,-0.1274069,-0.03855495,-0.012928597,-0.16446152,-0.015107897,-0.078619,0.0038237146,-0.073073685,0.21085766,-0.09352553,0.0929794,0.19597416,0.0032282162,0.042122733,-0.04452791,0.11726377,-0.008479388,0.057849728,0.2073105,-0.08656012,-0.14961866,0.017769303,0.19898808,-0.011179693,-0.08646938,0.027810683,-0.08621188,0.13097885,0.050993793,0.22299822,-0.018293686,0.08643474,-0.10441327,-0.030820068,0.11545639,-0.13643329,-0.0004990009,0.09589268,0.17816047,-0.059657484,0.23426478,0.061711248,0.0026168148,0.17674881,-0.11025763,0.17012471,0.015819684,-0.07819059,0.0027536263,0.16329429,0.112399764,-0.04935552,0.06635579,0.10691152,0.19961049,0.080024466,-0.06595323,-0.13100694,0.08592652,-0.0016456245,-0.106802486,0.124952406,-0.08572649,0.154087,0.0065207155,0.09478595,0.08644132,-0.09988375,-0.14084615,0.050607774,-0.048323613,0.06603889,0.005832558,-0.031333596,-0.16629648,-0.0492591,-0.16184427,-0.09032399,-0.031778615,-0.090028025,0.021272281,0.06648045,-0.00028044108,-0.022601517,0.01996171,-0.075241044,0.06772714,0.10822163,0.025406606,0.051376883,-0.013181577,0.007267404,0.15988529,0.0522857,0.025806082,-0.007015189,0.06839233,-0.10933826,0.1459783,0.13602158,0.001515832,-0.117804185,0.059250753,-0.039752696,-0.13233249,0.017827336,-0.15490188,0.16206229,-0.084916435,0.08905184,0.1403609,0.011300716,0.15457456,0.019941423,-0.12280866,-0.046071116,-0.15223993,0.1790745,-0.09650124,-0.022784553,0.1812718,-0.019862387,0.050319914,0.12557566,-0.059397634,0.20534436,-0.08028644,0.21282712,0.005883547,-0.13091464,0.15813932,0.013227249,-0.0152046885,0.11752776,-0.053864993,-0.21300621,-0.04829362,0.15059502,0.11234993,-0.17290808,-0.015187482,-0.055155087,-0.030434905,-0.022050275,0.0890395,-0.033159688,-0.16827555,-0.16433941,0.039483007,-0.0138545465,-0.01444953,0.15862672,-0.08372039,0.060648292,-0.04348868,0.07898521,-0.04242537,-0.08816551,-0.035637397,0.11513165,-0.10130468,-0.06366984,-0.06461319,-0.10256035,0.13666403,0.029549014,-0.15065575,-0.025121512,-0.12027392,0.051034342,-0.14872395,0.03477889,-0.100490786,-0.111139424,0.15261461,0.08239991,-0.022774708,-0.04860618,0.14413404,0.055065427,0.028189337,-0.0845898,-0.02467438,0.09288019,0.05238308,0.043818004,-0.18975297,0.091227874,0.17234078,-0.04564131,0.05954744,0.1667581,0.12905872,0.055029348,-0.06723454,0.027585143,-0.022968153,0.018038057,0.09493809,-0.0886746,0.11104737,0.03041732,0.083261274,0.12312483,0.078408524,-0.12631445,0.16215499,-0.13772231,-0.04604992,0.035017796,0.032880526,-0.094367854,-0.0039446987,0.0013302297,0.0029286935,-0.023748137,0.016260792,-0.03814237,-0.084660545,0.17239146,-0.033066116,-0.019115038,-0.044006944,-0.026031122,0.11438714,-0.1490806,0.06488398,0.08205574,-0.11002967,-0.09218197,-0.1404444,0.0909171,0.06577673,-0.10547496,0.09742343,0.16749072,-0.004101904,0.06562059,0.0918335,0.060814608,0.18267907,0.22676598,0.0075816954,0.028908193,-0.06238122,-0.08419019,0.061462212,0.09184685,-0.040372483,-0.16275145,0.09550616,0.04844433,-0.1485485,0.15368055,0.18706115,0.15965562,-0.06408734,0.056554005,-0.04575899,-0.13069355,-0.022369927,-0.0023266573,-0.07998078,0.105137505,-0.081276104,0.21066454,0.03197591,-0.048027948,0.13158037,0.05438221,0.09651557,-0.172055,0.0046860673,0.005108266,-0.13039024,0.041813526,-0.05425449,0.081709795,0.11146735,0.09619012,0.10880874,0.11714944,-0.02615516,0.010378958,-0.09648591,0.0627669,-0.11994902,0.03568052,0.1321621,0.022715786,0.07138677,-0.004164059,0.064252816,0.03949499,-0.09444216,0.15814441,0.022196926,-0.12349187,0.028822545,0.06971398,0.002751786,0.11692296,0.015794303,-0.068570495,0.053307716,0.075533025,0.04592838,0.08415096,-0.051955722,0.108807884,0.079537384,0.09481273,0.014441144,0.044793796,-0.18224959,0.08736295,-0.050579105,0.13684802,-0.011764353,0.07630748,0.08965644,-0.08767511,0.18133907,0.047378317,0.023832949,0.11314149,0.07681251,0.14970681,-0.072392456,0.016568545,-0.05110622,0.03949914,0.13096309,-0.0045811376,-0.06280635,-0.03933376,-0.08703939,-0.09237131,0.1434808,-0.049196236,0.13693081,-0.09569562,-0.11942214,0.09905537,-0.14372247,-0.0672773,0.03911663,0.057450905,-0.00013229511,-0.06820184,0.1524189,0.08260823,0.13728966,-0.016073251,-0.062380046,0.045503743,0.16858354,0.032382563,0.09914895,0.022081845,-0.008863079,-0.09430154,0.12595567,-0.02261267,-0.17730752,0.108495966,0.17595957,-0.0004651058,-0.046304114,0.23878475,-0.07578622,-0.06471449,0.04430332,-0.16057643,0.05875382,-0.05563958,-0.105053455,-0.09033792,-0.14974138,0.10541819,0.045200616,-0.016373785,0.21633986,0.12330292,0.13620287,0.06805189,0.04112313,-0.06799538,0.14251886,0.14873902,0.05921613,-0.049440727,-0.004363772,0.20021378,0.19323392,-0.13799478,-0.08621733,0.16410848,-0.068452224,-0.106198706,-0.12941533,-0.048832912,-0.20693342,-0.031711496,0.050528977,-0.11640966,0.15295064,-0.14765534,-0.02838105,0.028043764,0.10240313,-0.032384884,0.023555515,0.09875106,-0.1143109,0.008915336,-0.04846195,-0.009989585,0.07388873,0.095489696,0.11178603,0.06446436,-0.078761004,-0.014453413,0.15495224,0.113356,-0.095286675,0.021028312,0.015482948,-0.08308089,0.12647565,-0.08065462,-0.09281195,-0.057882193,-0.07471848,0.14542256,-6.115015e-05,0.014407028,0.051328905,0.05353444,0.07884427,0.009737399,-0.07447591,-0.06519808,0.049687352,-0.07168537,0.080610685,-0.0137489,0.15420413,0.13989386,0.18252195,-0.076375835,-0.04824644,-0.10097556,0.08913258,-0.015959106,0.07143086,0.09991558,-0.101558104,0.092963815,-0.055372927,-0.14928174,0.052935828,-0.048426636,0.052537654,0.1394014,-0.09960873,-0.1391084,-0.013636918,0.117029876,-0.07696087,0.025243973,-0.13819718,-0.037754193,0.1399479,-0.009331227,0.15630709,0.027587058,-0.101905674,-0.11906333,0.091543354,-0.04693624,-0.033761144,0.019096933,0.088304736,-0.0806085,0.06532101,0.08786465,-0.018906318,0.06161559,0.023686169,0.104043946,0.06301863,-0.02284334,-0.09986667,0.11982986,-0.14351144,0.19203025,0.015247918,0.08505825,0.050902016,-0.18131156,-0.0475891,-0.18625638,-0.10091718,-0.07237876,0.18970644,-0.041449968,-0.021464586,0.16968878,0.022915242,0.07971094,-0.028887967,0.14379793,-0.037483923,-0.053752474,0.1181535,-0.17349121,-0.021212904,-0.13772303,0.07942687,0.13534279,0.012782759,0.04792786,-0.06046983,0.08225841,-0.11187197,0.08094987,0.17345366,0.0750837,0.080480486,-0.008610138,0.08475107,-0.0119322315,-0.0062102247,0.051280953,0.0581973,0.034282774,0.061263263,0.11602383,-0.08115953,-0.010186029,-0.1200111,0.12446074,0.005336256,-0.104135215,0.006199353,-0.13536127,-0.03541553,-0.12568384,0.114621274,0.13810238,0.0694261,0.16869411,-0.097342566,0.10396326,-0.035165433,-0.025550788,-0.055583015,-0.12640826,-0.011091146,-0.06282917,0.03474987,-0.039609212,-0.112507805,-0.07471001,0.12084037,-0.004283032,-0.0305075,0.019621829,-0.035762526,0.18867235,-0.03160199,0.055208795,0.048793174,0.008925589,0.0094645135,-0.0028002562,-0.011590813,0.10374885,-0.10912149,-0.09174009,0.0661908,0.18148006,0.14657249,0.07163322,-0.14674447,-0.024224648,0.08000548,-0.08029581,0.049752895,0.020693155,0.08081119,0.11335687,0.02267135,0.056457873,0.18488137,0.15878206,-0.08294388,-0.01663236,-0.047455225,-0.07949048,0.004533158,0.04138273,0.07904381,-0.050569687,0.06874009,-0.045899607,0.12964223,-0.10847152,0.14715216,0.055199023,-0.09593691,0.035835497,0.10926399,-0.08928145,-0.015750302,-0.12533592,0.07660037,0.12581103,-0.17390645,-0.09065719,0.0662659,0.036794446,-0.018722704,-0.046047784,-0.18771324,-0.16021411,-0.008585306,0.20835456,-0.113815345,0.14759289,0.041100226,0.02195169,-0.049444355,0.115233935,0.10522067,0.1511338,0.06914119,0.038184293,-0.03617938,-0.04868081,0.05289393,-0.09781685,-0.118649766,0.019545685,0.08909003,-0.052552663,-0.08302278,-0.0330453,0.084533155,-0.031349998,0.084100865,0.02974271,-0.0072721546,0.108439855,-0.16068318,-0.00983193,-0.16379057,-0.04350906,0.012993276,0.011379099,0.19876255,-0.05286455,0.056105517,0.08829856,0.022776835,-0.04670042,-0.036659747,0.16098624,-0.03327432,-0.08480431,0.065720595,0.16055337,-0.14294359,0.027428752,0.073633455,0.00030053555,-0.049706206,0.06772947,-0.08448652,0.0010036966,0.073661335,0.061783697,-0.12575087,-0.108018935,0.18631977,0.004036572,-0.06497068,0.091054395,0.08490878,0.020388028,-0.003954002,-0.077961646,0.034946658,-0.101766355,0.15548868,0.15443356,-0.10267231,0.09402663,0.039190985,0.1384364,0.12970722,0.07077937,0.066293225,0.049195275,0.13401257,0.02393691,0.07667791,-0.12245726,0.039344512,-0.17899255,-0.0003423674,0.012655667,-0.064557664,-0.04050094,-0.027032837,0.059564292,0.14531247,-0.0582698,0.05347307,0.06657113,0.037771516,0.011963056,-0.11456077,0.21711808,0.0342819,0.13091701,0.115785114,-0.10920648,-0.12086965,0.1050918,0.084899515,0.076263726,-0.07823035,0.0995471,0.1809516,-0.08298611,0.065400384,0.015549788,-0.13541253,0.11379361,-0.072849385,-0.00082216284,0.091517724,0.053431407,-0.0054182997,0.13081686,-0.15468638,0.12619561,0.16730997,0.07872672,0.0163766,-0.07951213,-0.08938736,-0.04594971,0.04602264,-0.020771913,-0.028089058,-0.08495444,-0.021686062,0.015828708,-0.06666114,0.09923632,-0.10884251,0.19310106,-0.10274716,-0.008197674,0.092217535,-0.02322419,0.07751739,0.03309933,0.017995195,0.024779182,0.15566327,0.043850627,0.027510297,-0.011498082,0.12350297,-0.05075608,0.15567075,0.09254278,0.10153043,-0.035119705,-0.08187625,-0.019523907,-0.14760868,0.038077805,0.10302899,0.095546655,-0.005883846,0.051007695,-0.02960818,0.10858477,0.013986752,-0.06007516,0.030004872,-0.03156596,-0.13239135,0.16412011,0.061301306,0.09132166,-0.15109019,0.0075266715,0.04254032,-0.0028914653,0.05216931,0.14849508,-0.10650935,0.080207035,0.048156366,0.20891567,-0.09506751,0.09912619,0.070066765,0.13521568,0.008317774,-0.09881204,-0.10119477,0.08550617,-0.03556752,0.07029186,-0.06517966,0.03545005,-0.12898372,-0.09380495,-0.13587181,0.15769969,-0.082361534,-0.08564925,-0.11163332,0.049130958,-0.010688902,-0.043232366,-0.06051993,0.12425169,0.03679761,0.043610435,-0.06507177,-0.05022762,-0.076782055,0.24411826,0.07268394,0.008781153,0.016916944,-0.02378898,-0.026480207,0.12039364,-0.03916147,-0.071830735,0.17032711,0.08142821,0.122535564,-0.14575805,0.06596129,0.0059958505,-0.0593479,0.16301385,0.10385234,0.076029606,0.011860235,-0.124707244,0.18877512,-0.14213234,0.066662826,-0.08429317,0.08377218,0.10861534,0.04027298,0.11209708,0.12185967,0.048121624,0.116836645,-0.003227101,0.12316942,0.13844147,-0.07854483,0.08513135,0.087527834,-0.04010694,0.17302021,0.18804218,0.07877241,0.19613545,-0.10619725,-0.120669216,-0.1070381,-0.15572362,-0.059121802,-0.028249552,-0.17361915,-0.031085499,0.07399881,0.016505541,-0.10464647,0.10640609,0.07596038,0.02492685,0.0037490919,0.11557659,-0.042073093,0.105213605,-0.0658917,-0.07097326,0.12118773,0.0048779254,0.12871657,-0.08170614,-0.04602073,0.18501598,0.102206245,0.13903116,-0.03789549,-0.12276786,-0.23381113,-0.0910858,0.11381165,0.017693723,0.14605989,-0.12911749,-0.023953507,-0.061017863,-0.12058271,0.026097478,-0.02993103,0.038714115,0.15921642,-0.09944779,-0.07531345,0.15909733,-0.062078726,0.120950714,0.08812294,0.05306427,0.10677202,-0.09144129,-0.03689327,0.117557,0.11993703,0.022798834,-0.11540983,0.02213134,-0.07369234,0.12305708,-0.010800011,0.18145745,-0.08766822,0.27032432,0.13098383,-0.15356575,-0.013511704,-0.15312944,0.10974505,0.034414124,-0.046602346,-0.13458923,-0.014408521,-0.022233587,0.11991459,-0.0069142133,0.09716668,0.013996403,0.10454077,0.084957145,-0.035058618,0.094396845,0.10302383,-0.009324078,0.14917348,0.1132809,0.078163765,-0.017452013,0.1472949,-0.15856197,-0.06763673,0.06000279,0.053859174,0.16282855,-0.046552222,0.023654103,-0.06304859,0.07081527,0.11923966,-0.14733429,-0.009044388,-0.11159977,-0.023468899,0.013502092,-0.06583232,-0.022268217,-0.10576355,0.00645693,0.0027038422,0.1579864,-0.041784037,-0.07532885,0.016003156,0.072828844,-0.09484594,-0.105843715,0.041760307,0.13432209,-0.06361586,0.108365044,0.06473081,-0.0018271831,-0.097025014,0.027461108,-0.05821578,0.040282756,0.034104183,-0.06295228,-0.10240357,-0.20790634,0.07544816,-0.0620866,-0.047837485,-0.00795541,0.18336724,0.14775053,0.012028844,0.1051191,0.080979995,0.11584448,-0.1404833,0.0836058,-0.12881891,-0.0014032512,0.119777165,0.0074650114,-0.08293082,-0.08362404,0.056783095,0.15229778,-0.09759037,0.019923719,0.0035894169,0.015770383,-0.12609373,0.13572983,0.019248072,0.005208829,0.15381245,0.04120924,-0.026288593,0.10258285,-0.050730743,0.074080214,0.13957375,0.027104225,-0.011220539,0.09332096,-0.047123056,0.09844286,-0.035745796,0.21434201,-0.018800661,0.076030225,-0.09574228,-0.19919133,-0.0021131716,-0.03229574,0.09646634,0.034425538,0.015027435,0.1119299,-0.1857783,0.059977725,0.08540446,0.09479867,0.11364922,0.016782334,0.11943741,0.022352595,0.0016421226,-0.032848746,0.030910335,0.051762808,0.18883502,-0.047676723,-0.004354036,-0.022497617,0.08167249,-0.08067703,-0.083125256,0.13541456,-0.07450364,0.1420001,-0.026897598,0.12960011,-0.09044257,0.02149631,-0.007558601,-0.06296539,0.17650108,0.06867677,0.012813332,-0.008212609,-0.06356726,0.089787625,0.07727014,0.12648775,-0.06502554,-0.0073236944,0.08376499,-0.057759296,0.090212375,0.03398166,0.15675013,0.18010847,0.016265005,-0.048173975,0.14657949,0.08812451,-0.14757168,-0.0068589896,0.06506938,-0.11486918,0.1550836,-0.07622602,0.1135657,-0.14390646,0.15168816,-0.01533314,0.17009799,0.09505311,-0.020778092,0.051480673,-0.016311476,0.061849393,-0.06534233,-0.08510614,-0.2072878,-0.019649127,-0.0153542,-0.046872385,0.08771599,0.08524212,-0.04122591,-0.079679206,-0.12820487,0.007995472,0.01983392,0.120493025,0.1016705,-0.06500463,0.024172688,0.04100943,-0.11356806,-0.019840457,-0.05129566,0.08655605,0.010944169,0.059187926,0.14583492,0.041407723,-0.14308873,0.19618885,0.16686177,-0.21093193,0.054651294,-0.09468094,0.07025345,-0.06107955,0.10298575,0.13479902,-0.06449654,-0.021506442,0.002070995,-0.051980145,0.0938453,-0.13048925,-0.057571832,0.10551727,0.05268688,0.13565291,0.14034407,0.11460125,-0.16512837,0.11994186,-0.11797923,-0.08794471,0.0044765607,-0.080283314,-0.09669589,0.16935512,0.031330924,-0.11912482,0.10550762,0.08060831,0.04631388,0.11112084,-0.055299316,0.13304462,-0.02139596,0.06634186,-0.1254162,0.10360321,0.0686435,-0.141071,-0.102514766,0.1928417,-0.055472802,0.08002113,0.17241223,-0.0035826615,-0.020887444,-0.09697443,0.1587249,0.090027645,-0.09054866,-0.059405662,0.10156154,0.008215056,-0.022534696,0.0850332,-0.0564573,-0.09019422,0.14025334,0.09555195,0.15195276,-0.08840117,-0.034273323,0.055906348,0.19644871,0.15032741,-0.05358726,0.04252656,-0.0014672729,0.012960364,0.08368182,-0.028047878,0.0039628134,-0.09307343,0.021025823,-0.110319205,0.14421697,0.21173933,-0.040294,0.16707954,0.07443473,-0.07647719,-0.09249882,0.114439204,-0.10818563,0.078285515,-0.009301805,0.038446374,-0.0300422,-0.17425582,0.05977187,0.12455023,-0.1500958,-0.0016876193,-0.12269507,-0.13549359,-0.13823912,0.049016956,0.11399818,0.14073935,-0.15122542,-0.14295223,0.13014935,0.09393563,0.20771624,-0.07841004,-0.06837561,0.049878463,0.035449985,-0.02233036,-0.17853509,0.017624373,0.10904941,0.09762689,0.022561064,-0.035657313,-0.07071204,-0.005912871,-0.10799066,0.08065658,0.139189,-0.014766438,0.18789369,-0.11434342,-0.08033873,-0.031162387,0.110159285,-0.00439283,-0.060387637,0.20334181,0.06230437,-0.029835923,0.1585144,0.011152833,-0.07385475,-0.16818061,-0.0070437957,0.03432567,-0.065048866,-0.119431,-0.028445393,0.004222325,0.14838478,0.19809872,0.025339395,-0.0031575384,-0.06715748,0.08186876,0.11514348,-0.010748174,-0.016442336,0.0017035595,0.0014565135,0.044819634,0.063396566,0.15872678,-0.07339135,0.08307627,-0.10995626,0.16919109,-0.16807105,-0.09706806,0.043117754,0.0036501708,-0.14674614,0.007982821,0.16028446,-0.031091722,0.15224348,-0.046154097,0.13200045,0.06181652,0.030235775,0.0034295097,0.0069154357,-0.002117158,-0.018850956,0.0015875826,-0.13615432,0.0022140278,0.04210178,0.027602695,0.08927395,0.2132392,0.042956874,0.10758794,0.105284035,0.03927833,0.049313363,0.15039572,0.19861937,-0.041860096,0.1431744,0.04096776,0.04508225,0.031182345,0.074752934,-0.17695011,0.08220619,-0.08543826,0.13043071,-0.017034588,0.028128047,-0.06362726,0.01648184,0.035886563,-0.18937671,0.09515508,-0.16895185,-0.0034116234,0.064807996,-0.14568938,0.060905028,-0.054524112,-0.008064198,-0.048686367,-0.012244262,-0.0779641,-0.056476716,-0.014375306,0.037478395,-0.046044525,-0.09622362,0.108771466,-0.07820364,-0.16708082,0.03246063,0.25903472,-0.12848786,-0.15815513,0.042687364,0.1562431,0.15611847,0.22356866,0.048740648,0.1114259,0.15210806,-0.1182196,-0.1196898,0.07373876,-0.00047953828,-0.003292629,0.026580028,0.13029417,0.02954907,-0.058357116,0.10628063,0.14663894,0.06506805,-0.0052082916,0.056013066,-0.03154149,0.16586666,-0.056254465,0.004380687,0.09687965,0.052844327,0.15180433,0.15697686,0.06307986,0.0037939234,0.053246994,0.085886754,0.062279344,-0.2033784,0.022667011,-0.20253535,0.14620458,-0.035889547,0.091574475,0.17518057,0.023377404,0.09249004,0.033015713,-0.026623776,-0.11685213,-0.09188282,0.14074112,0.062387183,-0.051627286,0.109910466,0.074400485,-0.07299645,0.06381869,0.059376527,-0.07304087,-0.172702,0.1426357,0.08336558,0.045740515,-0.0011208392,0.030286476,-0.108311795,0.13935183,0.16563271,0.01226873,0.058219112,0.016232112,0.09153153,0.027297996,-0.021735052,-0.06248503,0.17511675,-0.1697431,-0.13061674,0.1445722,-0.03827239,0.034477953,-0.14207746,-0.1213583,0.00260571,-0.09775976,0.18565297,0.121254124,0.18184605,0.10086635,0.05587507,-0.06242827,-0.031304765,0.09869214,0.22266944,0.1294178,-0.004757095,0.07262565,0.17340523,-0.007898211,0.16205755,0.032198727,0.08879648,0.003185331,-0.053262148,0.1266419,0.027276065,0.065207615,-0.07522793,0.07225253,0.019046035,-0.053630054,0.07722262,-0.13032305,0.13069035,-0.13845645,-0.06793981,-0.1292622,-0.10079343,0.06401438,0.007722596,-0.034448218,0.043480158,0.030205444,0.04616618,-0.07403361,-0.12339654,0.12474483,0.12047043,-0.0451743,-0.06833181,0.12343517,0.09440671,0.1651846,-0.121721715,0.03909417,-0.099499196,-0.04015874,0.0037573273,0.087540165,0.117329895,-0.00838127,-0.088726476,-0.0374779,0.11544335,-0.10102207,0.071004964,0.14183998,0.04418389,-0.07244219,0.072411396,-0.0052829008,0.015567988,0.03141516,0.071550824,-0.044044197,0.07723184,0.07624191,-0.026184924,0.014597462,0.15692899,0.061584633,-0.0146833435,0.14459562,0.03206565,0.13756189,0.1244134,0.18936999,0.27183136,0.068019256,0.060329072,0.019483864,0.051292814,0.010413915,0.15393728,0.06222418,0.03141452,-0.061070293,0.009711605,0.18675174,-0.08320784,0.003107022,-0.07721949,0.034026597,-0.15070753,-0.015772993,-0.0010733339,0.16561177,0.21364936,0.014696304,-0.024127053,0.059262127,-0.065488204,-0.07726595,-0.07379993,0.065044954,-0.00079935236,0.11234874,0.18004777,-0.072501026,0.16402286,0.14777608,-0.0967269,-0.0364046,0.14741677,0.12888087,0.13860491,-0.08720298,-0.070284314,-0.12954243,-0.07178356,0.02086237,-0.023712572,0.12172094,-0.11460794,-0.008731441,-0.108165495,0.05340285,-0.092487365,0.042308677,0.05118031,0.12591045,0.020628165,-0.05311829,-0.07453812,0.07806299,0.043118298,0.020924259,0.15972042,0.1105538,0.026719613,0.068498924,0.1112901,0.107071035,0.07504785,-0.011197749,-0.0062402044,0.029550387,0.05874841,0.15462865,-0.049980476,0.07771153,-0.07285126,0.0038151827,-0.1015484,0.15926903,0.020755336,-0.079585165,0.07753869,-0.090946764,0.057173926,0.081612125,0.025234217,-0.08199021,0.10793325,0.056226026,0.0324699,-0.08189285,0.0351753,0.02867493,0.14154847,0.10009832,0.16587697,-0.058448397,-0.16847596,-0.08743497,-0.15232794,0.18964148,-0.115092084,0.048382428,-0.034194194,-0.15627037,0.01505502,0.066527,0.11301117,0.15748316,-0.09496816,0.27066055,0.12972729,-0.11177611,-0.017404817,0.026592921,0.04314738,0.085629515,0.11444907,-0.21912654,0.0027774912,0.15141578,-0.013380955,-0.07903352,-0.08898027,-0.058023006,0.09530864,0.071560465,-0.073362306,0.05143314,-0.0596626,0.0695491,0.03718359,-0.051023647,-0.0018015666,0.09648061,-0.0018473846,-0.049084347,0.016090916,0.06977235,-0.07452614,-0.08413857,0.13859436,0.15479283,-0.09733257,0.09647593,-0.049931753,0.13273582,-0.04157538,0.010903824,-0.069538414,0.018146975,-0.14265586,0.036518183,-0.12808561,0.22146524,-0.0927881,0.13347791,0.15043087,0.054191936,0.050622687,-0.008412018,0.13800485,0.20286688,-0.02697707,0.009829173,-0.03420078,-0.1288395,0.1204145,0.007304208,0.09708626,0.055946562,0.1089534,0.023282893,-0.07143752,0.07426259,0.1479325,0.01580789,0.17228863,-0.094244234,0.17014028,0.03132198,-0.03526575,0.0072330018,0.06415898,-0.05071412,-0.11049999,-0.14832029,-0.111352585,-0.13779092,0.06356377,0.04571455,0.017229844,0.021817844,-0.03682965,0.07584723,0.0706569,0.15184061,-0.05485012,-0.009526787,0.080616556,-0.012426932,-0.003629507,0.04731885,0.06749332,-0.048479185,-0.09938986,0.06733707,0.07949319,-0.0018092617,-0.009767326,0.086074635,0.016338209,-0.015351597,-0.097450316,0.036492135,0.02972275,-0.018421404,0.06373322,0.18418473,-0.09817448,-0.11730546,0.21925727,-0.051486485,0.0065243635,-0.078181624,-0.12826677,-0.06373062,0.0095159905,-0.034731105,-0.10974603,-0.03448115,-0.03546082,-0.116793536,-0.06217842,0.056931604,-0.1231192,0.16420792,-0.05397226,0.2361256,0.03810701,-0.10396085,-0.04036855,-0.011438086,0.0998079,0.062945865,0.06929549,0.0926978,0.14662497,0.11965057,-0.043098085,-0.1147901,0.091317095,-0.03936121,-0.111066766,-0.12078199,0.07270838,-0.09536463,-0.033286057,-0.07185965,0.023574973,0.015022773,-0.06716491,0.17812277,0.13601302,-0.026451295,-0.19709155,0.014872447,0.069717064,-0.08968313,-0.07319283,-0.0866084,0.10332735,-0.019951407,0.029468762,0.15801412,-0.040526792,0.008350218,0.04537834,0.18073937,-0.109372094,0.06492611,0.12849346,0.12178909,0.04085645,-0.032022096,0.119272485,0.16203782,0.22101854,0.06871408,-0.028374314,0.02191946,-0.0017460941,-0.003141642,0.027804952,0.07913953,0.04156815,0.09997834,-0.053354,0.0733674,-0.03891886,-0.07162281,-0.04991015,0.15972841,0.08333848,-0.06688677,0.18308954,0.12627043,0.07481783,-0.07378565,0.24648122,0.109027036,0.0613679,0.22466736,-0.022928435,0.008737969,0.141298,-0.13945319,0.0143228425,-0.03463519,0.047407832,-0.1547002,0.047313098,0.13254015,0.17083979,0.14466266,-0.060143992,-0.09913733,-0.11622936,-0.07378302,0.09355254,-0.18478501,0.08063541,-0.019832363,-0.12196458,-0.15851133,0.10123224,-0.116620004,0.13036339,0.07684356,-0.06579838,-0.042462494,-0.12258695,0.0928363,-0.06389217,-0.005798615,0.03474106,-0.012246444,-0.030277003,0.04536446,0.22846247,0.057469882,0.10706437,-0.031652313,0.11062239,0.09573288,0.16620657,-0.043184347,-0.13271311,-0.1633316,-0.11853731,-0.1629865,0.059269536,0.09460237,-0.0053922334,-0.03379719,-0.012790523,-0.015319472,-0.026919648,0.03809596,0.021682277,-0.03398067,-0.1237969,0.06258355,0.118987806,-0.12878838,0.040756237,0.07640596,0.07391099,-0.010792478,-0.13350178,0.20689636,0.010659497,0.13755925,0.050259184,-0.105894215,-0.11092336,0.06789178,-0.0058389027,0.043377347,0.16012509,-0.0942173,-0.03716245,-0.010497073,-0.1479465,-0.104186475,-0.017448949,-0.0021583526,0.10052655,0.036499523,0.14033091,-0.06241747,0.008096748,0.0732631,0.10584157,-0.18885706,-0.07715939,0.06869259,0.034463875,-0.11059038,-0.01345096,-0.02461798,0.09358778,-0.014726388,0.12783027,0.0072200024,0.13440417,-0.026918106,0.06879604,0.058832947,-0.05896782,-0.117291264,-0.011250811,0.052786745,0.051108826,0.063007034,-0.034988597,-0.00070929574,-0.14457972,-0.13393535,0.11156745,0.012959484,0.056709,0.08067089,0.012703665,0.10406114,0.026512302,-0.031415805,-0.06344238,0.0024284853,-0.006255774,0.09915719,0.044733822,-0.13446243,0.17476194,-0.15201935,0.1355837,0.0899832,-0.02208834,0.12326473,-0.06397987,-0.13575032,0.079055905,-0.0498173,-0.059087545,-0.06643253,0.016619166,-0.0853195,-0.0856463,-0.1179222,0.0064830566,-0.06917922,-0.11992716,-0.13035652,0.0009150045,0.058824178,-0.05172171,0.1299794,-0.06948228,0.06362,0.08779506,-0.1318469,-0.09731633,-0.110599495,0.023317045,0.007319335,0.032947596,0.0501887,0.012236118,0.23833585,-0.07337808,-0.0019156694,0.12443435,-0.075567454,-0.085633166,0.04105226,-0.06296133,-0.011297676,0.123570316,-0.1515547,0.09649933,0.14398819,0.03528673,0.06696281,-0.04855492,0.07330574,-0.047231868,0.10578179,0.09396599,-0.16183667,0.047002338,0.008041844,0.012412335,-0.054177143,0.02677187,0.019159991,0.14155908,0.069446445,0.0070299013,0.15316814,0.050275624,-0.0009730806,-0.041748215,0.15414354,0.18587343,-0.14283165,-0.16213553,0.09261816,0.0687172,0.011891884,0.053095363,0.018469678,0.22715402,-0.004643242,0.05194493,-0.06408569,0.042472776,0.011979652,-0.12307816,-0.09370173,-0.00503002,0.0072348425,-0.09146378,0.055724803,0.13916162,-0.05742951,-0.06680572,0.12800479,-0.0021657755,-0.070475705,-0.09606238,0.13848566,0.0107057,0.081792675,-0.038187746,0.026437815,0.047502328,-0.14349404,-0.14028141,-0.022918249,0.00028836657,-0.0006882649,-0.016658166,-0.09009355,-0.04767572,0.0045261374,-0.019322349,0.0141253695,0.010843792,0.004062973,-0.019292628,-0.015767928,-0.055941563,0.02505429,0.10762249,0.042089738,0.20208928,0.033395384,0.0686839,0.13040306,-0.027057482,0.18246649,-0.14945327,0.008615229,0.027057135,0.014569532,0.009324094,0.07559011,-0.06397051,0.06278032,0.05704668,0.010262477,0.12696485,0.06960721,-0.02179238,0.011693163,-0.111529574,0.09173882,-0.02092186,0.15882847,0.023195932,0.04901232,0.15580925,-0.115252376,-0.05821695,0.1085886,0.11541462,-0.08414621,0.06677358,-0.11315921,0.018906627,-0.14128648,-0.029600771,-0.08683195,-0.045053367,-0.15094939,-0.0050803316,0.09292388,0.0048284656,0.027611226,-0.10521076,-0.14799649,0.0788378,0.18183541,0.0896178,0.022156835,0.07550834,-0.12819971,-0.10655848,0.14152268,-0.0047584907,0.220651,-0.14950253,0.085053355,-0.11298839,0.033818927,0.05357626,-0.16136183,0.015896276,0.03414833,0.14497891,-0.16057955,0.11707265,0.10041363,0.1149635,-0.1020521,0.023621062,0.09838134,-0.08685892,0.13113976,-0.06597748,-0.12855023,0.02538234,-0.06508367,-0.10663753,-0.016315607,0.17417888,0.093507245,0.16014789,0.082479075,-0.13231792,0.051901806,0.018342668,-0.027174303,0.1376041,0.102969214,-0.057874978,0.045584023,-0.12782776,0.13182136,-0.04730908,-0.07424784,0.02995341,0.14208367,-0.09045423,0.060448393,0.0007999785,0.13078997,-0.08050787,0.02520846,-0.04120666,0.120388955,-0.11972832,0.095496,-0.00032257757,0.18116154,-0.049157605,-0.0978843,0.16240452,-0.007963373,0.0020155464,0.11091626,-0.02044709,-0.027320096,0.04469984,0.11924281,0.042107314,0.011975133,0.113288976,-0.08114348,-0.028274566,-0.03961657,-0.047507636,-0.0035210215,-0.058588035,0.055552762,-0.01655443,0.014450909,0.045439538,-0.05908967,-0.026600907,-0.021477781,0.17236745,-0.13855454,-0.1283052,0.051225875,-0.046857543,-0.17732042,-0.02418695,0.1933605,-0.058486443,-0.028067302,0.024603391,-0.0978009,-0.20781761,-0.052363683,-0.0964992,0.092570335,-0.041156385,0.17850459,0.013369472,-0.1286089,0.11645485,-0.103633165,-0.1604369,0.15256765,-0.012195406,-0.059116278,0.018771717,0.026568348,0.14873274,0.06591142,0.06224727,0.0796391,0.079299815,0.1418785,0.17919649,0.018731346,-0.24133107,0.049886476,0.12664872,0.027598899,-0.19824614,-0.094459094,0.014428528,0.06288572,-0.08688734,0.057064123,-0.05144861,0.04921305,-0.12425991,0.23753236,0.022511987,-0.15122615,0.19958606,0.022605263,-0.12692441,0.1802499,0.015431306,-0.113495976,0.16452546,0.099675596,-0.028256759,-0.034215696,0.04454338,-0.032213453,-0.027558228,-0.1228778,-0.05716029,0.03188313,-0.0024658365,-0.1460328,-0.07051335,0.022616541,0.06809267,0.08039111,-0.08795081,0.0023993035,-0.09185205,-0.04302747,-0.032639705,-0.1302468,0.16739208,-0.03007467,-0.09784643,0.10725368,-0.0058429916,0.12609199,-0.11820933,-0.094943956,-0.06840995,0.036241256,0.03524676,0.07068695,0.020529915,0.16309951,0.0019298386,-0.12909131,-0.027598169,0.14873195,0.0674413,0.1984322,0.037612136,-0.110341065,0.09645324,-0.082677074,-0.03699497,-0.08711897,0.13571307,0.09275624,-0.12843364,0.100398876,0.007160878,0.19354668,-0.031681854,0.11683015,0.09604279,0.045123756,-0.07753121,0.14550164,-0.11852411,0.022304883,0.0383686,-0.0389673,0.04738839,0.041143496,-0.0013496055,-0.091156326,0.07384783,-0.12405237,-0.072842754,-0.03317344,0.04239627,-0.15667981,0.13959879,0.17331277,0.009250115,-0.04308262,-0.17665215,0.062238652,0.02401616,0.12288438,0.1717842,-0.0007058266,0.16558416,0.041187692,-0.12754652,-0.13667572,0.16885428,0.029331427,0.040306825,-0.08231651,-0.04168502,-0.12828499,-0.11515942,0.006157068,-0.112634666,-0.12974022,0.09277198,0.124041945,-0.0277564,-0.17392208,0.1758409,0.14267969,0.10687858,0.19214256,-0.13445233,0.09506089,-0.05810909,-0.13217846,0.059167355,-0.1515586,-0.04003822,-0.03651954,0.020237554,0.114827186,-0.13351649,0.09729772,0.04260192,-0.04587067,-0.010217762,-0.020459605,0.18035728,-0.09230154,0.07172253,0.071602695,0.17931823,0.03840013,0.13547464,0.26894698,0.049995862,0.04440923,-0.10536419,0.19918817,-0.136142,0.062618904,0.12000248,0.00722024,-0.050796453,0.13876222,0.07791506,0.065037206,0.16485912,-0.076976635,-0.036730736,0.014764678,-0.15605496,0.13854265,-0.13896878,-0.021125026,0.01709681,0.017897053,0.0048338114,0.16099161,0.13525599,0.12340886,0.006173853,-0.014707381,0.04607031,0.06793267,-0.042357184,-0.0039082435,-0.13195267,-0.07375157,-0.043045584,0.12429266,0.012634437,0.09772188,0.103288814,0.059939593,-0.026392085,-0.0038811315,-0.07598356,0.09240071,0.095165215,-0.042333785,-0.021094283,-0.012073747,-0.034871798,-0.08070145,0.06486729,-0.118046775,0.094827816,0.120737575,0.056729924,0.052210055,-0.042341046,-0.15873393,-0.003072645,-0.026715579,0.0432193,-0.044113744,0.11126207,0.017169233,0.085477695,0.0011052629,-0.07247569,-0.07761761,0.00103956,0.14095438,-0.09055244,0.14997002,-0.031410757,-0.12046332,0.12234379,-0.02422113,-0.014338357,-0.050055925,0.14759171,0.108958974,0.15439995,0.095413275,0.16602969,0.10538157,0.09240335,0.03685165,-0.13137081,0.111749545,0.07148894,0.08770194,-0.002482245,-0.118384555,-0.023896296,-0.13066186,0.08652832,0.14436397,0.113279074,-0.1163774,0.03134377,-0.055356435,0.014287283,0.13333897,0.07956646,0.04903067,0.068597294,-0.062219683,-0.019011924,-0.039312605,0.10092792,0.008001392,0.009718621,-0.015874658,0.15825227,-0.08902215,0.07323888,0.038295712,0.094538696,-0.040492028,-0.075268075,0.016188612,0.040524453,0.052618854,-0.1385738,-0.005475518,0.07718264,0.035794917,-0.041081827,0.16148292,0.16358498,0.2105346,0.14394404,0.07089212,-0.026007088,-0.0038049463,-0.032256264,-0.06516237,0.17957255,0.035536673,-0.068785526,0.102026545,0.09275025,0.0707623,0.16787091,-0.145827,0.022153255,-0.05294794,0.060701422,0.013884978,0.12337602,0.21109091,-0.017602148,0.045021582,0.09115924,-0.14192581,-0.059555016,0.122703336,0.23149996,0.094131656,-0.03420762,0.19519052,-0.16318908,0.09970754,-0.06474453,-0.0017288129,0.007472515,0.03879217,0.1277928,0.043916963,0.11343139,-0.024685625,0.03480123,0.036896367,0.024108168,-0.0038470132,0.092084095,-0.018964054,-0.0812544,0.060038272,-0.0812917,0.04421577,-0.12606357,0.09001518,0.10410222,-0.056387473,0.07275794,-0.017790621,-0.13928038,0.12588796,0.22313324,0.08669382,0.10888879,0.113407135,-0.004345549,0.16586386,0.058871433,-0.061609585,0.13688943,-0.013362244,0.06753078,-0.030153263,-0.09047523,0.038506713,-0.0040487093,0.14616135,-0.011364754,-0.12404534,-0.071112305,0.1422367,0.07520626,0.05135793,0.10353601,0.04645812,0.07172856,-0.015202651,0.055330016,-0.09979504,-0.08749676,0.043637857,0.106819555,0.016846156,0.10088503,-0.12566712,0.00039850565,0.073358096,0.036598522,0.08637927,0.03275601,-0.11087908,0.04317916,0.10471139,-0.05694374,0.14964496,-0.034829337,-0.0426412,-0.038299426,0.19583914,-0.0956698,0.13477422,0.10945468,-0.08138189,0.002710392,0.11943085,-0.15557596,0.17177898,0.109464265,0.1509706,-0.031665158,0.0029754227,-0.011789506,-0.03488721,-0.1185449,0.026033994,0.042769354,-0.13391785,0.07489303,0.004152988,0.01103368,0.12804733,0.019404903,0.1354826,-0.09110278,-0.12254545,0.024653966,0.073374666,-0.07159479,0.03944201,-0.019535178,-0.09538531,0.034443323,0.07087021,0.1197852,-0.06639308,-0.013275039,-0.00407805,-0.044438645,0.13474958,-0.02816436,0.103777185,0.08517168,0.14539312,0.07423273,0.06578242,0.065702595,0.14766374,0.10779928,0.102345936,0.07299967,-0.071446516,0.091787845,0.15478384,-0.17810053,-0.048153628,-0.005222265,-0.15062852,-0.0128809055,0.09917636,-0.10007855,0.1482223,0.1546316,-0.022955088,0.17201968,0.07647087,-0.08054254,0.123779,0.059319552,0.015860008,-0.008136464,-0.07700982,-0.009246238,-0.05023045,-0.036179084,0.10614084,0.11438465,-0.075942226,-0.07748822,-0.047018044,0.014619434,-0.08916858,0.098266505,0.12596574,-0.0026592824,-0.076021865,0.027868092,0.07313073,-0.039679945,-0.2254141,-0.043214645,0.02957346,-0.06438333,-0.030150563,-0.032648824,0.09463189,-0.16541208,0.113937676,-0.023372378,-0.022860298,-0.22093914,0.09243508,-0.12814626,0.109721996,-0.05635513,0.015661592,-0.031981584,-0.05234611,-0.009739929,0.01144947,-0.13001695,-0.032255903,0.10076556,0.048900057,0.032566108,-0.07118594,-0.061290674,0.23175466,0.0048204227,-0.1308549,0.14203227,-0.017454794,0.20774285,0.06595102,-0.07559933,-0.14402726,-0.11615591,-0.056614142,0.057072338,0.10493285,0.12442593,-0.065610535,-0.0022698122,0.035092708,0.06724455,0.14717986,-0.07277129,-0.021016683,-0.13853787,0.068723485,0.17534961,-0.16665447,0.062342282,0.16270065,-0.007665803,-0.15008749,0.12161842,0.18905774,0.06972943,0.10457416,0.0007175404,0.15007602,0.10758276,0.06793591,0.1339374,0.039580077,0.019882604,0.016420275,-0.024478959,0.1409299,-0.02486775,-0.0672687,0.16095093,0.08864503,-0.05965443,-0.04943707,-0.06193142,-0.090026386,-0.03541492,-0.091775246,-0.054718267,-0.026767131,-0.028046733,0.05320507,-0.080610886,-0.01923262,0.09732378,0.17753223,0.011388756,-0.06606552,0.047212623,0.045082804,-0.19786349,-0.08679094,-0.036964413,0.15617187,0.10317584,0.04050337,0.045874592,-0.09791074,8.871326e-05,-0.015819473,-0.024753645,-0.013786738,0.015683083,0.085810274,0.01142166,0.06419542,-0.09843846,-0.0155649,-0.12852582,0.10952343,0.017400824,0.08339192,0.049538303,0.07004718,-0.14451474,-0.092952855,0.02776326,-0.122720905,-0.071713984,-0.108934425,-0.077864744,-0.1170942,0.12679628,0.0045410385,0.14358914,0.11318788,0.09983594,-0.13708298,0.13465957,0.16085966,0.011731674,-0.016139736,-0.15616158,-0.089576654,0.0665516,0.09403109,0.027089732,-0.013550052,0.13865948,-0.039314203,-0.12132621,-0.1837644,-0.100340314,-0.035989646,-0.046440937,-0.051912494,-0.1309062,-0.10450636,0.039976668,-0.10798045,-0.07024234,-0.04874416,-0.031171277