0.26389253,0.23787755,0.00567696,0.17256495,-0.023099657,-0.28380713,0.20735659,-0.36811447,0.0697943,0.2718783,-0.23530075,0.05791325,-0.22696261,0.06732376,-0.17430507,-0.27159628,0.28849474,-0.26125792,-0.005307394,0.1541638,-0.2620066,-0.06295329,-0.20542887,-0.0588145,0.22109346,-0.27147287,0.12585671,0.082225814,-0.00911807,-0.1307641,0.03447819,0.044868033,-0.041328292,0.03539767,-0.18628517,-0.038497012,0.15004386,-0.020238765,-0.18644555,-0.15293002,-0.007026395,0.21041204,0.10702676,-0.15605596,0.026501955,-0.04880203,-0.39233348,-0.272886,-0.12800778,-0.023423944,-0.2539676,0.2246597,-0.19037685,-0.3869431,-0.21909027,0.2245622,0.24556658,0.08756415,-0.23899853,-0.059061833,-0.34422085,0.29290912,0.145019,-0.06759578,0.31131095,0.2078795,-0.05466272,-0.20545246,0.039704084,-0.18047109,-0.12277544,-0.16184291,-0.07442726,-0.08036642,0.18831474,0.07091444,-0.14753503,0.06781805,-0.034316327,0.065660864,-0.083572365,0.24705553,-0.3909477,0.14962895,0.0750583,-0.1266321,-0.02969459,-0.14320631,0.042979803,0.035783447,-0.014609093,-0.1897777,-0.27546486,0.26857996,-0.40096375,-0.08696284,0.018474193,-0.22909006,0.11166636,-0.14628226,0.026115436,-0.0146595305,-0.33740366,0.31808025,0.17981166,0.11364117,-0.024192132,-0.008726405,0.2998784,0.18024737,0.25511456,0.17370439,0.061606556,0.10068642,-0.24726678,-0.29436713,0.15403838,-0.18653807,-0.15835017,0.2672258,-0.23188339,0.0976142,-0.027365124,-0.17723998,0.028116668,0.24074447,0.06531275,-0.41032493,0.113761656,0.11778114,-0.16826847,0.17292789,0.14513063,-0.20624195,0.13253681,-0.04658584,-0.31790063,-0.24959248,-0.16773227,0.19620338,0.15987374,0.19740732,-0.20629221,0.07129503,0.063630864,0.18943019,0.040353887,0.24026327,0.015219323,-0.16798952,-0.25452498,0.119927526,-0.22903861,-0.1521568,-0.22002634,-0.07071185,0.02631694,-0.029781345,-0.19880746,0.081789054,0.31598473,0.121730134,0.22432521,0.13233957,-0.063480504,-0.39608058,0.068468325,0.25937968,0.20832852,0.27690947,0.24976763,0.17689182,-0.25947234,0.119859494,-0.36912528,0.0632687,-0.14350447,-0.16671938,-0.109586135,0.033382934,-0.052234437,0.34989205,0.054720428,-0.067642815,0.022663837,0.08040196,-0.13434248,-0.07028959,0.14507508,-0.17201312,-0.053823717,0.027519904,0.13530509,-0.26045242,0.32867762,-0.13080415,-0.037302528,-0.17946404,-0.24896532,-0.022794811,0.08934616,0.27540904,-0.07556702,-0.21878265,-0.05963034,-0.24307229,-0.10394057,0.2754894,-0.04360965,0.01709366,0.25689015,0.1234693,-0.29186085,0.19545937,-0.33196792,-0.18315797,0.30904657,-0.2074229,-0.3417824,0.16847591,0.28774077,0.28008577,0.02762662,0.010428626,0.15632594,-0.17571837,-0.17787547,0.030970192,-0.08991654,0.20600626,-0.08713329,-0.22401549,-0.007354847,0.13993458,-0.28784922,0.20088106,-0.36623204,-0.0090390835,0.16288947,0.13263974,0.062970504,0.11151398,-0.28060314,-0.21448334,-0.22817224,0.22389719,-0.10293314,0.1990834,-0.2601383,0.0456836,-0.19634339,0.18612732,-0.0290653,-0.14254132,-0.15700419,-0.26141566,0.32856327,-0.2169234,0.10454461,-0.22931539,0.1543375,-0.103345096,0.2648488,0.15273349,0.24957792,-0.20179747,0.16340394,-0.09100193,-0.29730237,-0.35368612,-0.122634865,-0.1342376,-0.08473941,-0.09360939,0.050366208,0.09454112,-0.23029397,-0.001119079,0.023815745,0.09991155,0.3206044,0.13093528,-0.26858842,-0.15289468,0.02642432,0.17842641,-0.21851225,-0.14737023,-0.11575499,0.14963636,-0.17217715,0.18906379,0.26630712,-0.14141116,-0.071113594,-0.1813166,-0.16439788,-0.031840645,0.17230125,0.28364357,-0.28246188,-0.08509204,-0.42796955,0.108363345,0.24354522,-0.18054347,-0.1856564,-0.0071976776,-0.17466982,-0.3606326,-0.08439334,0.09494416,0.09256006,0.105656564,0.0666307,-0.16279556,0.29686132,-0.12293071,-0.16580816,-0.1742511,0.28160587,0.2667063,-0.10784492,-0.19203699,0.19361815,-0.054989934,-0.20420128,0.19851948,-0.20657845,-0.097085424,0.10199038,0.31620663,0.28041,-0.11232748,-0.1616052,-0.08462779,-0.10089887,0.18120117,-0.046353083,-0.048005503,0.27591872,0.19478504,-0.1316532,0.18165003,0.29355684,0.20200634,-0.396704,-0.008684416,-0.20523287,0.17735335,0.008338488,0.044141576,-0.0615448,-0.00052069954,0.24856986,0.09972237,-0.06225092,-0.029270656,-0.23763232,-0.26006812,0.09389553,-0.3409796,-0.31737107,-0.24916482,-0.040230613,-0.32754484,0.17525573,0.06839666,0.22475442,0.24783896,0.06993372,0.25594568,0.009894577,-0.040296316,-0.109436944,-0.11040666,-0.12769678,0.11514124,-0.21652065,0.07997438,-0.018578928,0.19860893,0.012271246,-0.13125984,0.16019078,0.13060212,-0.19518903,-0.07339394,0.1385974,0.07522578,-0.25624692,0.26710996,0.11977913,-0.08546505,-0.27966738,0.2762818,-0.13774411,-0.04826247,0.013169001,-0.10402743,0.036610033,0.24911842,0.04704622,0.16741866,0.19845644,0.02911111,-0.4726206,0.16583718,0.06044913,0.23137726,0.25919503,-0.050846178,-0.14668225,0.14913589,-0.08985822,-0.15339868,-0.29151884,-0.2852893,0.16498831,0.23753938,0.013192502,0.07215851,-0.13021635,0.24217458,-0.25962153,0.16430674,0.22774483,-0.23156086,0.009173116,0.29354835,-0.09594499,0.17868133,-0.097502984,0.18753223,-0.1712954,0.16114844,-0.23868997,-0.32241842,0.29121238,0.02457543,0.25069165,0.040376972,-0.22308998,-0.06337861,0.1683217,-0.19953305,0.10145626,0.27460113,-0.049701404,0.24185155,0.12753718,-0.1495397,0.032375354,0.20987508,-0.15998563,-0.020299489,-0.15636118,-0.06603,0.16940293,0.22871166,-0.28511918,0.17534,-0.26352316,-0.059987992,0.1108795,0.07889137,0.18306276,-0.1516451,0.185544,-0.21278928,0.16318603,-0.2130443,-0.24886066,0.21277988,-0.27534306,0.32199576,0.30946177,-0.16946228,0.13529916,0.15870933,-0.27345994,-0.024481192,0.16519845,-0.13830757,0.0073826807,0.09207732,0.14427856,0.21046503,0.16611862,-0.29642117,0.124488115,-0.28175065,-0.26541683,0.061135404,0.0984267,-0.2772076,0.27197587,-0.03809625,0.18776575,-0.2807083,-0.17770201,-0.24715693,0.2541793,0.20737351,0.03291839,-0.16453245,0.19008282,0.27421913,-0.3385898,-0.33072436,-0.21134011,-0.07190246,0.013460426,-0.22052345,0.003551483,0.06417294,-0.16721413,0.10756662,-0.07203448,0.026531415,0.091320045,0.035632543,-0.27041045,-0.40740523,-0.32098058,0.1967443,-0.18030962,0.059800334,0.27261677,-0.020605791,0.19969186,-0.21325806,0.1067018,-0.24424644,-0.25019726,0.015535842,-0.08513444,0.15306355,-0.06304811,0.12565674,0.27745336,-0.32544836,-0.10961045,-0.3485126,0.2519552,-0.023231952,0.18801545,-0.14196357,-0.18979318,0.2754855,0.09644652,0.19432025,0.18586224,-0.23444949,0.14135225,0.14027259,-0.15422043,-0.112853244,-0.2943631,-0.01757378,-0.26706308,0.12851538,0.2968781,-0.32198754,-0.121273264,0.036363102,-0.2088322,-0.2681847,0.051935136,0.12541144,0.14072105,0.2296842,-0.23697956,-0.2349238,0.22213984,-0.2880963