-0.29178816,-0.22564377,-0.38240087,-0.30963904,0.12129677,-0.017041832,-0.011167686,0.18397245,0.18127687,0.061467703,0.24276273,-0.057676997,0.1770441,0.121329956,0.21361455,-0.019171877,0.038163703,0.010424188,-0.15425433,-0.27588522,-0.06753491,0.067081995,0.23025882,-0.14867768,-0.25208578,-0.36560062,0.070552066,0.035787493,-0.22257724,0.30512038,-0.1423454,0.079574965,0.10790524,0.23424187,-0.24050933,0.06923315,-0.251346,-0.18113476,-0.2900063,-0.07306895,-0.0403346,0.010914099,-0.29187623,0.1983992,-0.11468772,-0.13860674,0.1365176,-0.2836671,0.03537273,0.015838804,-0.10312586,-0.21468985,0.2700629,-0.0070385663,0.25696862,0.2533947,-0.19169803,0.103262484,-0.33432648,0.034858,-0.08219262,-0.10469263,-0.23608553,0.040502094,-0.10350963,0.0040034875,0.23615602,-0.19486926,0.0497367,0.22357084,-0.1144377,0.27023545,0.12086954,0.03011526,0.25077918,0.10410154,0.14301547,-0.16234703,0.14655784,0.21151482,-0.0018286332,0.1302382,0.2768118,-0.19758657,-0.03370226,-0.23900463,0.032060858,-0.21076615,-0.28593543,-0.049016677,0.1859059,-0.1267401,0.09614618,0.16385978,-0.3480112,-0.06613703,-0.1516665,0.15721956,-0.30943397,-0.0934465,0.176834,-0.19090344,-0.29078546,0.114357986,0.17737536,-0.1744058,-0.07333709,0.26309833,0.19553243,-0.20549016,0.26600483,-0.323105,0.17787665,-0.21158893,0.08718908,0.14422773,0.10465646,0.04670131,-0.25415978,0.24236578,-0.16206302,0.045914475,0.1850481,0.1702963,0.10713504,0.25762835,-0.3041898,-0.3421127,0.07350759,0.15666582,-0.23887587,-0.059334148,0.2666566,0.13575664,-0.21158668,-0.13749667,-0.27515674,0.11649443,0.1517509,-0.18285586,0.12166927,-0.23563309,0.19204095,0.08661421,0.26409122,0.0049345945,-0.18835828,-0.30874792,-0.32166517,-0.123084076,-0.2463663,0.07611853,0.060338054,-0.16727196,0.25830725,0.2762041,-0.07581374,0.25535768,0.051003333,-0.23639584,-0.03582375,-0.11860037,0.16789788,-0.049316917,-0.26342604,0.03350367,-0.13643545,0.1007989,0.20681201,-0.06348771,-0.2983988,0.1909596,-0.34231445,-0.25489968,0.07767966,-0.10981582,0.19275595,-0.06683064,-0.08972394,-0.32568267,0.0968664,-0.33693054,0.0470037,-0.3631516,-0.30986598,0.1526122,-0.0354199,0.18588541,0.016768819,-0.21752813,-0.117934234,0.11394149,-0.28331998,-0.3289737,-0.17200693,-0.31960326,-0.022808032,-0.14804931,0.2063487,-0.22284509,0.11031993,-0.33980045,-0.38397622,0.12813124,0.10438077,0.12818485,0.16444722,0.17373589,-0.3068223,-0.073400475,-0.06929553,0.21039568,0.26325172,-0.17926231,-0.022414086,-0.041223228,0.052881546,-0.12431492,-0.25024217,0.10228212,-0.017855221,0.16952269,0.037968844,-0.07889525,-0.13322486,0.17745662,-0.25319624,-0.10003091,-0.3378062,0.06741749,-0.1380499,-0.083654985,-0.21153669,0.2877979,-0.31189612,-0.13415727,-0.2101605,0.2567818,-0.02579974,0.22212787,0.19506003,0.18131094,-0.07639543,0.026255038,-0.3220583,0.13071544,-0.32944494,-0.28218648,-0.050384346,0.24441701,-0.17612559,-0.2935792,0.07628515,0.009423749,-0.12146371,-0.111506365,-0.15799089,0.0759983,0.19513792,0.076653466,0.20777611,-0.05501316,-0.11767902,0.09444445,-0.07122434,0.23211575,-0.07531367,-0.19898906,0.15376408,-0.3207858,0.20491831,0.042170588,-0.31208366,-0.22408238,-0.25779462,0.036865044,-0.27776146,0.08308914,0.14904854,0.189072,-0.3129639,-0.14414108,0.08414462,0.036096565,0.09119384,0.35266662,-0.14415465,-0.15382975,0.17460279,-0.02882051,0.06372793,0.006408681,-0.26836696,0.1761479,-0.18139859,0.07322318,-0.014953415,-0.048129745,-0.15154912,0.2750652,0.14275448,0.027820835,0.22866343,-0.31928527,0.22850789,-0.14367987,-0.18936116,0.22676937,0.2158285,0.2135225,0.087470144,0.113445505,-0.10528154,-0.09664732,0.21971975,0.19461367,0.2004336,0.17263563,0.13035864,-0.31069854,-0.20811573,-0.00795502,-0.06948568,-0.039434295,-0.30004558,-0.14259285,-0.31023034,0.22607766,0.29165834,-0.17809944,0.11641964,0.17713006,-0.051591568,0.25328797,0.06723405,-0.13545565,-0.26454577,-0.27631128,-0.12587659,-0.12540032,0.1791873,-0.11857919,-0.38249424,-0.008168825,0.19514336,0.19522205,0.20376778,0.025991093,-0.20957744,-0.27966854,-0.055829413,0.19187671,-0.3857379,0.09865745,-0.39285415,-0.2710861,0.011024281,-0.3254016,-0.20688693,-0.28273654,0.086953945,0.21966636,-0.27545187,-0.10060382,-0.22420879,-0.38485295,-0.2451208,0.29462865,0.17049496,0.28112277,0.10659658,-0.08827234,0.19275224,-0.13270792,-0.24880749,-0.3023903,-0.371329,-0.05202321,0.12360764,0.10242386,0.033201776,-0.21217234,-0.07453925,0.0153886955,0.10728983,0.059485223,-0.12653813,0.034738682,0.16009656,-0.21086404,-0.23630023,0.10689874,0.10629006,-0.15034051,-0.070443764,-0.12356827,-0.0029368084,-0.081193626,-0.02456436,0.21130219,0.08987299,-0.038559437,0.15525712,0.20019488,-0.07428435,-0.0996333,0.0920868,0.17493582,0.24752313,-0.35312164,0.19701746,-0.34490272,0.20214295,0.04396418,-0.23374565,0.25656635,0.24166943,-0.284384,0.22825225,0.0343658,-0.15238842,-0.3635021,0.0852246,0.099425174,-0.26334992,-0.22912233,-0.009219274,0.058748823,0.24797298,-0.3364127,0.13995464,0.27128628,0.19050062,0.006537491,0.031439446,-0.07840246,0.19617672,-0.17376886,0.07832015,-0.3581327,-0.21152881,-0.31194234,-0.14395851,-0.16920063,-0.177551,0.16061983,0.0778013,-0.2939721,-0.17544676,-0.2570401,-0.13152222,-0.40740934,0.1920964,-0.35517547,0.14183648,0.10618323,0.24192654,0.20478025,-0.08748593,-0.27559838,0.20891412,0.078805014,-0.2852668,0.23118217,0.15066051,0.1007929,0.20018625,-0.24163118,-0.32225442,-0.2264478,-0.05093729,-0.26794377,-0.3777158,-0.052852433,-0.28052494,-0.33501792,0.10039355,-0.016653124,-0.24167325,-0.39424384,-0.26652184,-0.32625684,-0.37939999,-0.13902546,0.09562794,0.1948155,-0.20569825,-0.12872456,-0.27016833,-0.34266797,0.16898052,-0.19800666,0.11548019,0.079008095,-0.40198573,-0.1478654,-0.25866753,-0.35167506,0.0626238,0.16159903,-0.05594102,-0.29751086,0.16427343,0.17848738,0.22879566,0.23143595,0.2818305,-0.16737911,-0.27318138,-0.1215852,0.2503818,0.28594354,-0.04071883,0.28041732,0.029755015,-0.3398117,-0.27588332,0.20052792,0.017053047,-0.091865994,-0.12784754,0.19278702,0.09231597,-0.09584134,0.058564898,-0.34724784,-0.3696453,-0.038606986,0.20704852,0.22255434,-0.05182445,0.19951761,-0.3417063,-0.09353168,-0.31368193,0.024882013,0.22541079,0.17944388,-0.2433034,0.087882735,0.22549349,0.15723974,-0.26380485,-0.20235763,0.084355086,-0.32797706,0.25931203,-0.2650199,0.13119598,0.01387617,-0.0145981,-0.16764912,-0.052468266,-0.07960017,0.1685415,-0.118799016,-0.22448656,0.13302007,-0.086605854,-0.29191947,0.23775075,-0.3390614,-0.18365157,-0.30028996,-0.25157487,-0.13123113,-0.15610619,-0.08722845,0.20226409,-0.06443786,-0.2394984,0.13996068,0.012775303,-0.09153142,0.1271499,0.21621957,-0.2316456,-0.24579811,-0.23802084,-0.35953507,0.17339857,-0.1214048,-0.30853254,0.13014677,-0.12780374,-0.3062536,0.15755814,0.07692723,0.18965314,-0.28888598,-0.12827687,-0.3354252,-0.2661542,0.14077204,-0.20823984,-0.2131638,-0.2237296,-0.35306865,-0.2681569,0.2321683,-0.17437604,0.058909934,0.06891004,-0.12100437,-0.3390821,-0.3433939,-0.2286929,-0.035398953,-0.20312631,0.22603534,-0.022978675,0.22054733,0.26513848,0.2700883,0.25372082,-0.38486043,0.11194786,0.22349961,-0.23535436,0.13345201,0.019571165,-0.2787238,-0.09603553,-0.26085722,-0.25363606,-0.28079024,-0.21732241,0.0077711847,-0.21976626,0.114963055,-0.36398706,0.3396318,-0.060923945,0.17690706,0.18413644,-0.32172534,0.00468135,0.06678127,-0.19460364,0.30323455