0.05322901,0.015068273,0.03166448,-0.00041270716,0.06318168,0.023400756,0.052128125,0.056019288,-0.007935055,0.049722996,0.053908367,0.018801128,-0.037671365,3.7696038e-05,0.061537217,-0.027498232,0.015778502,0.023956344,-0.08172029,-0.1082087,-0.028594311,0.07139037,-0.087010786,-0.058098283,-0.0027914974,-0.072912544,-0.015200689,-0.011268075,0.10144493,0.025555285,0.012234009,0.05542328,0.04128384,0.075079046,-0.037501242,-0.0017373613,-0.041745972,-0.015213893,0.06645623,0.017239846,-0.0010173945,0.033832487,0.046872556,0.047441747,-0.052685257,-0.007161834,-0.030039817,0.033009898,0.014173147,0.0021030172,0.060958765,0.012503839,0.01192871,0.019869983,0.05956348,0.061469726,0.032449976,0.048022505,-0.045509513,0.009374923,0.081930935,0.09180129,0.031536207,-0.07743182,0.09175918,0.06984523,0.04016372,-0.0026619579,0.021239363,-0.0020920206,-0.016025525,0.015085159,0.018851753,-0.06126565,0.0021889962,-0.025158001,-0.056200016,0.022302302,-0.0030307546,0.07726703,0.029554782,-0.004877992,-0.018476807,-0.05452523,-0.09136132,0.05551947,0.055569902,0.03269002,-0.09101123,-0.042057917,-0.034892753,0.059122827,-0.00032715837,0.06159166,-0.026412899,0.032335173,0.114413455,0.03924359,0.0035860077,0.11803366,-0.044622757,0.10085913,0.0056821476,-0.03149475,-0.031673208,-0.036063574,-0.02956366,0.024830874,-0.09698974,-0.06541214,-0.0060042436,0.023343628,-0.0038224412,0.025234992,-0.0030718322,0.073779576,0.04427402,-0.06534488,0.1073612,-0.04103526,0.05810306,0.018257294,-0.027909346,-0.05386275,0.018728059,-0.04093966,0.059173364,0.021720221,0.0010453927,0.0554522,0.06743654,-0.04074623,0.063862495,-0.034175895,-0.038769756,0.063286304,-0.0037430306,-0.051167447,0.06011776,-0.014374728,-0.026968889,0.0575661,0.064933725,0.0038722192,-0.10641035,0.0948337,-0.0051503778,-0.04070688,0.1073733,-0.0011425092,0.02542703,0.022405809,-0.043126043,0.0526765,-0.03813989,-0.016687186,0.04209186,0.0786302,-0.109466255,-0.054726038,-0.06069047,-0.018153949,-0.030005079,0.019300839,0.07703076,-0.077948354,0.07927381,0.0015653846,-0.055825774,-0.009277151,-0.0760353,0.009873365,-0.023271484,-0.06554641,0.076147884,-0.00060213084,0.009076779,-0.041608494,-0.018578906,-0.011808663,0.013994563,0.05359343,-0.00019576201,0.04280327,-0.023231495,0.037967127,0.01638377,0.07355018,0.06562711,0.04998416,-0.0953878,-0.0555772,0.018462209,0.07376445,0.06834959,-0.045535535,-0.065287404,0.041769873,0.011107807,0.061990388,0.020642791,-0.048717204,-0.0042204917,-0.041575544,-0.050126016,-0.030832909,0.06573304,0.061572805,-0.056481328,0.057826802,0.07937961,0.05651391,0.09688407,0.015653163,-0.0805859,-0.033388246,0.016714117,-0.040786427,0.057354502,-0.06537473,0.018751156,-0.017345803,-0.06720391,-0.009602224,-0.04017041,-0.0066850013,0.028172102,0.062213592,0.09898137,-0.07741992,0.052688427,-0.075378686,-0.07746474,0.06328482,-0.023013882,0.06171088,-0.027674835,0.029816953,0.04837875,0.07795536,-0.044527624,-0.066817746,0.015826518,0.0490219,-0.00072325853,0.02332656,-0.069273084,0.023827573,-0.043346338,0.016074425,-0.058949076,0.05216701,-0.09103186,0.10579585,0.022025831,-0.038552582,0.013282874,0.01991543,-0.09144261,0.033999667,0.04463573,-0.011520061,-0.050763834,0.09238313,-0.075410865,0.033466566,0.008621646,-0.022933612,0.01679834,-0.032970414,0.0656263,-0.0723435,-0.05081271,-0.04707811,-0.022069482,-0.021803327,-0.078136794,0.009652057,-0.10133649,-0.08744262,0.101527065,-0.012689001,0.0046619503,0.10177428,-0.050432388,0.08749329,0.012400296,-0.03780955,-0.02484408,0.075243674,0.054025393,-0.012227116,-0.10469164,-0.009700047,-0.15503156,-0.073151976,-0.021505922,0.06855576,0.04516463,-0.009667693,-0.032987565,-0.014053958,-0.05474097,0.016641134,0.0618665,0.0065961396,-0.07949679,0.026674408,-0.058327112,0.010078707,0.100935325,0.055595897,-0.045093935,-0.08726255,0.055333838,-0.010737757,0.024053283,0.052643865,0.04655797,-0.010236198,-0.010543218,-0.08378179,0.035943575,-0.045268442,-0.08160108,-0.060185097,0.040376052,0.048429936,-0.05047572,0.02653094,0.1065053,-0.051782846,0.046849,0.10317517,0.0050089695,-0.02847971,0.06573399,-0.09307568,-0.05141882,0.0011989946,-0.11346121,-0.007854476,0.08302018,0.048020504,0.056778155,0.03808181,-0.0246162,0.09757191,-0.048596285,-0.075365745,-0.00190579,-0.051635038,0.12214229,0.106810756,0.01863259,0.07790175,-0.042325776,0.018205406,-0.074890986,-0.0047001517,0.0064351074,-0.055205457,0.06734158,0.00082379265,0.019092293,-0.044451695,0.048150323,0.037805576,-0.11866759,-0.048409633,-0.047329955,0.055994228,-0.115025535,-0.1313351,-0.038404197,0.052050885,0.10967886,-0.03471344,0.084518,-0.029378507,-0.0020549113,-0.04882803,0.08238391,-0.06590895,-0.020589318,-0.07074609,0.077466816,0.008436294,-0.0016403056,0.054671213,-0.058593214,0.01505284,-0.04415113,0.01132104,0.0484911,-0.11938086,0.03203411,0.08917237,-0.020821635,-0.01748629,0.045901068,0.091373384,-0.060176894,-0.13149978,-0.024753444,-0.043106012,0.10925036,0.034507334,0.028552607,-0.02117666,-0.06976892,0.012909396,-0.028681602,-0.010119268,-0.00060522306,0.018714305,0.16165844,0.09502699,-0.0034307723,0.016178599,0.024773369,0.07118468,-0.07977219,-0.03453522,-0.051415056,-0.05736321,-0.054287095,0.09374222,0.07005666,-0.028743574,0.13031572,0.1413432,-0.0050865402,0.086512834,-0.009348455,0.11238322,-0.07484457,0.031372275,0.007700293,0.00872671,-0.080441035,-0.0832772,0.04159499,0.049059194,0.1478995,-0.037016716,0.10333676,-0.009396456,0.077850394,0.07026882,-0.0323087,0.02111289,0.07863856,-0.049617525,0.005458873,-0.039040327,0.014490732,-0.015928427,0.0145297665,-0.031921033,-0.05425617,-0.07234836,0.011493656,-0.008555572,0.0038207667,0.10798656,0.0022441007,-0.06709108,0.02764431,0.06406942,0.061700583,0.014423941,0.07493154,-0.025404861,0.003983024,0.030428322,-0.059707843,-0.040248506,-0.053624086,-0.0641958,-0.050704125,-0.053881858,0.01271065,0.055968653,-0.054407295,-0.03493524,-0.07506564,-0.0101707205,-0.0021317825,-0.041989934,-0.06280342,-0.04521456,0.049434595,0.010436768,-0.010518255,0.036202203,0.031223333,-0.002921783,-0.01306855,-0.01321053,-0.025448656,0.12005482,-0.026202051,-0.08843079,0.021106964,0.02324363,0.05439229,-0.03744693,-0.042541366,-0.044157684,-0.082026966,-0.030105565,0.05557108,-0.026679251,-0.06449457,-0.05342089,-0.07181209,-0.0032001287,-0.029576514,-0.019109724,-0.026049875,0.009810702,-0.008336709,-0.02458891,-0.08146258,-0.029042536,-0.03261885,-0.033784892,0.02683627,-0.11739132,-0.117249906,-0.0041003563,-0.004848412,0.09857762,-0.022732455,0.094847776,0.051912438,-0.0154271135,0.058097348,0.06451957,-0.025920667,0.012681888,-0.048687495,-0.06533167,-0.062800266,0.032740466,0.007538429,0.07445613,0.05748946,-0.015996806,-0.07236191,0.02263282,-0.052671872,-0.042516142,0.022703167,-0.12357961,-0.09939303,-0.029407533,-0.10742163,-0.11627592,0.03287739,-0.0031794456,-0.0031861472,0.016922103,0.06443785,0.03061219,0.050641894,-0.04995158,0.049426813,-0.03495526,0.12639678,-0.04938797,-0.0019075997,0.015422037,0.07778078,0.048972417,0.010428496,0.040758442,0.028869813,0.011699114,0.01324987,-0.0060115107,-0.0007852671,-0.003878823,-0.044726804,0.084102996,0.07988673,-0.083316885,0.017781563,0.025824312,0.0012540201,-0.040398,0.09194766,-0.034227703,-0.07577524,-0.008333468,-0.05872215,0.04893149,0.017178733,0.05437457,0.023562444,-0.053203396,0.048010364,-0.024944862,-0.1002268,-0.02012935,0.03163694,0.071004994,0.009455347,0.043779343,0.04549167,-0.060713723,-0.11879937,-0.026884431,-0.045521066,-0.051300272,0.013689104,-0.016688038,0.003616944,0.046259552,0.04018004,0.082636334,0.05645302,0.05722455,0.03740289,-0.015527202,-0.02074494,0.07007993,0.013213854,-0.056306936,-0.031638574,0.05546139,0.078487016,0.014463204,-0.020437097,-0.0071309516,0.07970854,0.01507017,-0.011548944,-0.07294638,-0.0438638,-0.04852453,-0.02877373,-0.06273917,0.02909146,0.0630843,0.056832787,-0.000852853,0.007961727,-0.028871998,-0.020610226,0.028891556,2.7406286e-05,-0.0019429215,0.035036795,-0.07253858,-0.08944204,0.05753066,-0.04497553,0.01779853,0.0930026,0.08702629,0.06069508,0.06326702,0.10283725,-0.07492488,0.06646473,0.088003926,0.07592151,0.023439419,0.09307581,-0.059260868,0.006326594,0.043235924,0.025200155,0.066777386,-0.04203431,0.04637121,0.05373429,0.046587944,0.005633965,-0.07974646,-0.042121876,-0.031364445,-0.07898273,0.016912848,-0.110158265,-0.061108403,-0.008910081,-0.042009406,0.08563939,-0.100118734,-0.017038658,-0.045865178,0.0151686855,0.021286484,-0.04227891,-0.020497082,0.07249983,0.011019771,0.05094424,0.073548965,-0.02738388,-0.03763604,0.062617525,-0.005918295,0.044755843,0.12908372,0.040208664,0.0005685584,0.036468714,-0.02013879,0.0146539705,0.05292823,0.11783601,0.015583634,0.04358635,0.030883333,-0.0004221823,-0.084332235,0.0537035,-0.08286677,-0.033921212,0.0569516,-0.06705257,-0.006858416,-0.050205626,-0.006917431,0.08234586,0.058948524,0.04041956,0.07310109,-0.070649095,-0.01918164,0.09646425,-0.034669243,-0.04023401,0.037428316,0.023199642,-0.08596289,0.013252475,0.030803151,-0.110939234,0.04283785,0.020421406,0.03784691,0.009626572,0.07490497,0.041485418,0.09606454,0.041245315,0.048182677,-0.0973259,0.06284469,0.06428065,0.048682686,-0.15658458,-0.031539463,0.0131862685,0.033145007,0.029206775,-0.08724989,0.035435203,0.06657486,0.014520719,-0.10686567,0.06556141,-0.13333513,0.08819629,-0.0070381574,0.007224388,-0.088913366,0.025326269,-0.030043066,-0.05167218,-0.00983568,0.014620241,0.060835868,-0.002380363,-0.061069716,-0.0064432495,-0.058125224,-0.032652445,-0.098830976,-0.023705812,0.032314718,-0.01601841,-0.053252652,-0.023585638,0.09766383,-0.060475532,0.041689847,0.050845128,0.0024045857,0.027952109,-0.030357093,0.0029686743,-0.061332565,-0.0016810307,0.04130846,-0.06793448,0.016368885,-0.025138069,-0.018245602,-0.033600166,0.007809461,-0.1343778,-0.037466336,0.028247792,-0.017541902,-0.07332698,-0.05124988,0.005391682,0.092177674,-0.04771542,-0.0011391562,0.048635174,-0.0369716,-0.017130801,0.0024133783,-0.07515509,-0.028731547,0.0078665735,-0.020253427,-0.040366888,-0.051334064,-0.06149978,-0.04540832,-0.122478135,-0.07344952,0.007380651,-0.05712293,0.020712946,-0.016605105,-0.095781244,-0.0685581,-0.06909466,-0.023797465,-0.06343571,-0.027960662,-0.005249034,0.0896944,0.0038260021,-0.04267975,0.0072180256,0.047705762,-0.046553582,0.0071338075,-0.032944508,-0.053294305,-0.0022344226,-0.04690037,0.014777406,-0.008920007,-0.04175691,0.032305613,0.057603836,0.012464708,0.041654002,0.10599944,0.006380285,-0.051672243,0.103152655,-0.0077530304,-0.003044887,0.01923522,0.073406376,-0.00046695303,-0.026188865,-0.07158811,-0.028637568,0.010547653,-0.018533729,-0.038311556,0.046648026,-0.055287566,0.04534141,0.05034623,-0.08759863,0.009693189,0.051628593,-0.061045516,0.025590766,-0.10001603,-0.02822279,0.048469655,-0.05827515,-0.052430574,0.009832114,0.11315735,0.050337605,0.049561918,-0.0691768,0.046120606,0.03252246,-0.0799795,0.015960898,0.068451494,-0.035601445,0.026113555,0.037983663,0.0727405,-0.014510883,0.038200647,-0.069963254,-0.023137826,-0.055614598,0.051420745,-0.036551427,-0.07552036,-0.040010586,0.036043964,0.00338271,0.0059940913,0.014387921,0.024254944,0.014027094,-0.047613233,-0.1088851,0.058739796,0.017811414,-0.043361105,0.052141868,0.012569769,0.09329558,0.032078635,-0.037664954,-0.047286607,-0.0794751,-0.054206524,0.10195811,-0.03209714,0.07329224,-0.06653142,0.045596834,0.061857563,-0.05675775,-0.0012523723,-0.029547488,0.043385778,0.07038515,-0.019165296,-0.02238815,-0.07835182,0.056535225,0.007936993,0.09630786,-0.048075736,-0.020504186,-0.02814365,-0.10503135,-0.033013415,0.045986783,0.10117028,0.0065409853,0.015791018,-0.042240653,0.02163074,-0.07599335,0.027569724,-0.0102450745,-0.039608184,-0.07781428,-0.040882304,0.055700675,-0.047594085,-0.064435005,0.05978376,-0.010659847,-0.10020143,0.04486398,0.06296012,-0.0548742,0.061431844,0.060926743,0.07558179,-0.113924526,-0.029889276,0.039444927,0.07158578,0.030782377,0.000809431,-0.05939182,0.0745818,-0.034833577,0.024433099,-0.00795007,-0.00628593,0.046783835,0.02366109,-0.08294707,0.03991362,-0.0018076001,-0.044106074,-0.025828106,0.10445655,0.025908355,-0.056602858,0.013387071,-0.073945425,-0.059168432,-0.05954423,-0.06339616,0.040703088,0.012379539,-0.031202419,-0.047162965,-0.03128823,0.06623715,-0.08755151,-0.05058803,0.017640073,0.03345258,0.059489224,0.048610073,-0.06197684,0.004397868,-0.06221374,0.035516158,0.03531272,0.021611536,-0.028878262,0.0062602474,-0.053539656,0.03924062,0.047839537,-0.019957516,0.084212944,-0.073760755,-0.02595656,-0.05668836,0.04941711,0.015248158,0.06316553,0.03468302,-0.011724941,0.059312146,0.081959605,0.010749973,-0.06393209,-0.035351507,-0.018833803,-0.054300528,-0.032490037,-0.020130372,-0.094620846,-0.0016855488,-0.020972349,-0.01956361,0.008833403,-0.095257185,0.0019421543,0.081988804,0.07072895,0.027744064,0.07144445,0.073064834,-0.036446117,-0.02326762,-0.007277161,-0.050740957,0.05110714,0.021048617,-0.060827065,-0.070639305,0.03347624,-0.078887925,-0.054743342,-0.0010844036,0.052417003,0.020120958,0.08052165,-0.06322795,-0.02387148,0.07218523,0.013445923,-0.048559103,0.09579521,-0.089985296,-0.004057198,-0.023927983,0.0023481615,-0.064220175,-0.08882578,0.092790425,-0.021221034,-0.0004118153,-0.079947405,0.035186306,0.07081771,-0.108918875,0.047714807,0.065765545,0.049100187,-0.056647718,-0.05654443,0.043534607,0.010340283,-0.07757104,0.065241136,-0.0736576,-0.07050504,0.033330634,-0.049301,-0.062197484,-0.04316048,-0.020634346,-0.05944481,-0.029876957,0.018909654,-0.033112403,0.06562082,0.021967474,-0.056393515,0.051117454,-0.0032980503,0.06436243,-0.018293452,0.06909313,0.0392051,-0.020948203,-0.09473219,-0.00030003296,0.085791446,0.040858924,-0.02935173,-0.020791994,0.0012893331,-0.0020805,0.06544444,-0.0045762383,0.088699415,0.057292838,-0.024244469,-0.10709474,-0.01575143,0.0022181806,0.025770335,0.047304302,0.024031753,0.039391633,0.029844755,0.047989056,-0.05338198,0.05591809,-0.047059555,0.016366053,0.04702888,-0.008536169,-0.057651654,-0.05725128,-0.033025227,-0.08669032,-0.03031684,-0.053921767,0.042244952,-0.036387824,-0.05471131,0.024969924,0.057009134,-0.02257473,0.01195905,0.031873755,-0.10250343,-0.025062358,0.068644606,-0.041865066,-0.013748536,-0.03346682,0.09543211,0.05828363,0.0052195736,0.070045605,0.03717773,-0.07366163,-0.0023467375,-0.016321596,-0.007958529,0.013188779,-0.11255108,0.10614763,0.034534134,-0.017625121,0.057379466,0.13259016,0.01311824,-0.0531534,0.04665958,-0.04031985,-0.03925902,0.0151277855,-0.05296043,0.05905111,-0.0080448,-0.072029926,0.08341971,0.02738499,-0.06231918,0.02817162,0.1418177,-0.050990917,0.082319744,0.11392905,-0.013635859,0.011020148,0.032079432,-0.06102538,-0.04239941,0.008190721,-0.028611839,-0.046509992,-0.04259946,0.08691148,0.06397936,0.028331455,0.006941938,-0.003575035,-0.029685771,-0.023325015,-0.06935773,0.004935425,0.035995733,-0.029777912,0.056467175,-0.013757732,-0.033488378,0.0047702035,-0.06685501,-0.039984353,0.031915005,0.032716878,-0.0025098976,0.011689639,0.11552031,-0.0040012174,-0.047678974,0.096175484,0.0143264225,0.015185076,-0.060393512,-0.041067116,0.046641532,-0.030635646,-0.05377152,0.11070002,0.06575394,0.023632707,0.059506137,-0.068732955,0.021746779,-0.036283035,0.0183231,0.06469749,-0.044155665,0.0790008,0.0563347,-0.05578138,0.03540977,0.04826436,0.092139356,-0.010443305,0.04992021,-0.010620893,0.057697408,0.07057397,-0.0009042006,0.086975016,-0.027962796,0.070622414,0.034581207,-0.059407722,-0.011464153,-0.010261546,0.053294566,0.022917205,0.011275995,0.013314147,0.050657555,-0.048816886,-0.0047497572,-0.07572479,-0.013961497,-0.040814262,-0.034133274,-0.036998067,-0.0015522684,-0.035425738,-0.037033897,-0.009510444,-0.06465549,0.03294976,-0.014590027,0.021710433,-0.07203514,0.09050747,0.03661877,-0.044119935,0.06197469,-0.046846297,-0.10332497,0.026756093,0.038712926,0.04586782,0.017815351,0.06498444,-0.038847927,-0.034837075,-0.00642358,0.113263465,-0.04243356,-0.10027417,-0.005932068,-0.033072583,0.0031087962,0.03698441,0.059998095,-0.037614364,-0.00019401126,-0.015439946,-0.060955618,-0.029995674,0.062325183,0.015296173,0.08187842,0.04631012,-0.037266955,-0.0069845077,0.10965061,0.017048579,-0.017691385,0.049863078,-0.0127070425,0.09379715,0.018139882,-0.031447325,-0.06769256,-0.040154744,0.017084546,-0.026117869,-0.020926684,0.053913314,0.078523345,-0.015420343,0.025972698,-0.037620813,-0.07514973,0.055303268,0.11525623,0.010354003,0.019026892,-0.014061734,-0.0035253612,0.05069756,-0.024509793,0.06571389,-0.029362392,0.017324608,0.027917787,-0.004651221,0.042831957,-0.08817914,-0.06882216,0.028987465,-0.017417945,-0.06468092,0.034695197,-0.015073828,0.08318707,-0.0008696838,0.036236323,-0.069219,0.0010902038,0.0129310265,-0.027913718,0.08389811,0.034142315,0.009932536,0.06609031,0.058489528,-0.045854606,0.058264103,-0.007124343,0.02954372,-0.062089015,0.050447036,-0.011272186,-0.015890688,-0.06730345,0.03275485,0.012541426,-0.0062229624,-0.08183855,0.013153518,0.008624065,-0.058571238,-0.044758808,0.05070193,0.021836916,-0.07016689,-0.011325796,0.02214813,0.010819189,-0.09826857,-0.0043416144,-0.0032762743,0.021274067,-0.0021375718,0.07425562,-0.043578003,-0.030191982,-0.07986864,-0.0062170397,-0.05716401,-0.014258865,0.06098041,-0.0731609,-0.05125124,0.029502628,-0.056851443,0.004555588,-0.027225915,0.09435014,-0.016150264,0.10153252,0.027142813,0.019074734,0.026832378,0.068062484,-0.029681988,0.026506055,0.10071261,0.036896452,-0.066678904,-0.032173324,-0.0029688042,-0.03899344,-0.01830389,0.07067391,-0.13901505,-0.07928233,-0.024853392,-0.066967756,0.0099949045,0.05172517,-0.06714505,0.042374965,0.044989165,0.012154865,-0.025722701,0.04773633,-0.049626794,0.04798881,-0.0219193,-0.082325645,-0.014577786,0.0057158247,-0.031561986,-0.02113158,-0.078536876,0.012820067,0.030253522,0.017101098,0.021288335,-0.0600967,0.04643932,0.06952215,-0.022344755,0.08823079,-0.008153942,0.0031499788,-0.10197102,0.026297076,0.07045255,0.05488381,0.01634181,0.034816813,-0.06962889,-0.016135275,-0.04645774,0.05162635,0.03193972,0.10515747,0.018213443,0.005916802,-0.0524598,0.05057375,0.03711325,-0.13989492,-0.0448747,0.078532144,-0.1351571,-0.02113454,-0.032639906,0.07928971,0.028452726,0.017108036,0.010725018,-0.04476439,-0.09034864,0.07241828,-0.058527675,0.0055841273,0.070411004,0.027161045,-0.02144693,0.026770644,0.083685525,-0.06438887,-0.05755265,-0.004042339,-0.14295296,0.06724831,-0.020844191,-0.0691535,0.019534908,-0.035492036,-0.03772269,0.05242586,0.10275473,0.09657541,-0.16576351,-0.013746788,0.066188924,0.056859173,-0.09207153,0.012868685,-0.055624787,0.027008817,0.020597063,-0.08405797,-0.0023650075,0.002716193,-0.004274126,0.07173664,0.08481812,-0.18428433,-0.013319533,0.012355007,-0.04639198,0.0073037953,0.09549429,-0.039340235,-0.07249131,-0.06386822,0.022000927,0.0055980794,0.0107705705,-0.10521235,-0.020992728,0.022275547,0.032672267,-0.05623464,0.014244758,-0.017306965,0.008139992,-0.08473132,-0.02336131,-0.051477794,0.048998278,-0.06510745,-0.028720932,-0.040271,-0.014331466,3.8985527e-06,-0.0948492,-0.10228275,0.0027083382,0.030161515,-0.016884478,-0.07629669,0.04813196,0.012432192,0.01022646,-0.005201992,-0.09908074,0.0058804387,-0.04984824,0.07480787,0.0010804924,0.057924163,0.049181573,-0.016196689,0.046507247,-0.008388542,0.010728746,-0.03240997,0.062644206,0.054578613,-0.012470354,0.045244765,-0.043348134,0.06034346,0.03255653,0.024715697,-0.057931602,0.03920705,0.10909959,0.040173817,0.013209248,-0.07612367,-0.061441295,-0.021454161,0.06143984,0.072077036,-0.03377853,0.076241516,-0.034980923,0.03837291,-0.00929512,0.0027929381,-0.066920444,-0.017155899,0.018601025,-0.028953671,-0.018385502,-0.009484923,0.07471904,-0.0152359605,0.05475344,-0.057409808,-0.000345975,-0.10310104,0.05079215,0.0484672,-0.07075141,-0.017024115,-0.018800125,-0.026236702,0.02288823,0.03514675,0.029730247,0.051222842,0.008430283,0.016991207,-0.07354488,-0.07176753,0.02814281,-0.01538746,0.018032297,0.005627931,-0.05759638,-0.036019936,0.0156077305,0.010455026,-0.013396763,0.021981742,0.034545172,0.10316195,0.06776888,0.06993093,0.010988506,0.09670394,-0.07764848,0.06230005,-0.005631987,0.06424844,-0.07057391,-0.095274165,-0.03065518,0.014186873,0.009871053,0.02741322,0.00071297487,-0.011673805,0.04685819,0.07208236,-0.060717877,-0.07142471,0.026892291,-0.04536958,-0.040247545,-0.022207884,-0.009536863,-0.0644061,-0.035123475,0.0076900646,0.047566026,0.084178336,-0.015656918,0.07266366,-0.026883606,-0.04352453,0.061661173,0.04746789,-0.04684194,0.05231047,0.051513396,0.0346593,-0.055901323,-0.047885228,0.04098347,-0.0022496292,-0.05592364,-0.026148751,0.0051416946,0.033282556,0.05234677,-0.03171112,0.01266509,0.027422259,0.040617604,-0.030684939,0.04909778,-0.043816477,0.030414678,-0.025165588,-0.018415784,0.013666347,-0.0052635083,-0.0056077843,0.0715963,-0.017096207,-0.052483127,-0.037657294,-0.07921624,0.009197813,-0.019804312,0.027193543,0.023784326,-0.07542021,0.06229169,0.018934727,-0.06607965,0.05707189,0.06773104,0.07088316,-0.057667337,-0.047412034,-0.03502161,0.022905914,0.055797514,0.012177005,0.05545881,0.018741412,0.007238238,0.02018645,-0.0035283975,-0.11617293,0.029035693,0.049117174,-0.0670795,0.030673772,0.011039017,-0.054690734,-0.076266915,0.081806704,0.09151058,-0.03943423,-0.009573145,-0.052842144,0.033067603,0.061911985,-0.009438418,0.045255546,0.031993423,-0.14633866,0.073495656,-0.0369339,0.016465329,-0.070763454,0.058782548,-0.0972708,-0.044807594,-0.030871676,0.044165112,-0.06109609,0.07938364,-0.077427305,-0.012591877,-0.053899225,0.057176344,0.107753545,0.10990293,-0.0067196917,0.082370855,0.105998985,0.06728671,0.014382792,0.052926205,-0.032824162,-0.005952161,0.029897587,-0.03808152,-0.014665183,-0.082392365,-0.029789532,-0.09631571,-0.06477014,0.07417703,0.08424743,-0.0528856,0.034170248,0.034417853,0.09842968,-0.07106543,-0.049511705,-0.035947297,0.07688978,0.067287326,0.03511879,0.068587095,0.031262416,0.034236144,-0.008528714,0.025848953,0.009875032,-0.0064174733,0.003261628,-0.078623496,0.07099045,-0.027775155,0.030755332,0.07882768,-0.03342397,0.015469306,-0.049197957,-0.023367275,0.040221512,-0.054945633,-0.07095512,-0.043957263,0.0013151732,0.03764794,0.01452689,-0.027570738,-0.0022051937,0.040254727,0.03991803,0.108353786,-0.0807352,0.033307515,-0.0570877,-0.074964784,0.027983965,0.04308221,-0.015731951,-0.021678416,-0.005050682,-0.11072831,-0.043088578,-0.023282742,-0.011409908,0.052852735,-0.042374637,0.078759044,-0.017600179,-0.055591386,0.002857226,-0.0021388824,-0.0364145,-0.070099235,0.09812419,0.011685394,-0.02661341,-0.046124425,0.024255138,0.12758604,-0.05627282,-0.12760547,-0.07067338,0.06407617,0.0035799146,-0.018713728,0.03264737,-0.0537705,0.06238922,-0.024414364,0.009311763,-0.07416693,0.011152287,0.08342991,-0.054445896,-0.033334855,0.059367318,-0.08724167,-0.07182831,-0.028174497,0.1653834,-0.008079864,-0.055529926,0.051728215,0.06462811,0.015099168,0.0010938107,-0.06891145,0.017567106,0.042109653,0.055682063,-0.06610667,0.015763981,0.009716406,0.060802322,0.00018026501,0.08723434,-0.13584048,-0.034887146,-0.02051052,-0.020129312,-0.041914944,-0.095287286,-0.02362312,-0.103020035,-0.01996615,-0.02505963,0.0050806943,0.041952007,0.10023187,-3.8824564e-05,-0.0798261,-0.0240066,0.050197214,0.032269496,0.053298343,-0.06395076,0.099978864,-0.07144033,-0.031824946,0.016201137,-0.041330054,0.01673988,0.04460167,-0.057251263,0.07703081,0.06426727,0.06509426,-0.048556168,0.09534166,-0.025569005,-0.050155308,-0.03788553,-0.039919503,0.08799275,0.034270756,0.13397452,0.0898219,0.00015093276,0.06724997,-0.117797114,-0.007516886,0.082128845,0.12521413,0.0907,0.001850596,-0.08612497,-0.060968235,-0.021369085,-0.01711687,0.08661314,0.06372829,-0.016718414,0.073191285,-0.06339272,-0.072965205,0.040234257,0.027470347,-0.062699065,0.06762573,0.056551952,0.014140638,-0.00790686,-0.052167222,0.01288607,0.072466835,0.040868845,-0.04700729,-0.050792687,0.098552085,0.06987815,0.0075825998,0.04698662,-0.101168446,0.005782722,-0.0011348353,0.018559922,-0.0017537846,-0.0100617595,0.070182964,-0.066202745,0.029591037,-0.025849396,-0.06556935,0.017256256,0.048021458,-0.021146698,-0.07450051,0.045946226,0.01319599,-0.044024628,0.0460741,0.0042722295,0.033177543,0.03965708,0.003982643,0.08040379,-0.020617295,-0.13199449,-0.061195318,-0.05753483,0.045506623,-0.12708111,0.03785478,0.021096416,0.0193866,-0.033415925,-0.04141413,0.060066074,0.040447585,-0.043176066,0.05986054,0.035146043,0.040767796,0.033188805,0.08796999,0.025666837,-0.012340285,-0.07817535,-0.007039985,0.09968892,0.0003527432,-0.042983867,0.03703041,-0.024588522,-0.08258171,0.017147845,0.05100723,0.0022933502,-0.012517545,0.013058633,-0.01858851,0.00975787,0.1120755,0.04577008,-0.08213912,0.05242271,0.007262793,0.051464558,-0.019439172,-0.0037132981,-0.02835755,0.050607838,-0.029249016,-0.052580398,-0.0105380695,-0.024041204,0.019025981,0.038799025,-0.017597383,-0.09374066,0.009139203,0.03307397,-0.081800185,-0.026839852,0.011358949,-0.0068259216,-0.0470706,0.04392037,0.04102637,0.020667076,-0.037717808,-0.03843923,0.030643187,-0.040128056,-0.034449004,0.033320643,-0.07253529,-0.025261942,-0.022366082,0.018022826,-0.021038432,-0.02043105,-0.05034173,-0.04557379,0.034771275,-0.057275623,0.048663065,0.012892546,0.10012757,-0.0067033293,0.010649722,-0.017998409,-0.05479373,0.053906444,0.027425539,0.015549477,-0.04300936,-0.01552075,-0.007898892,-0.02405245,0.036666635,-0.03488472,-0.025614822,-0.03971528,-0.0045319702,-0.05366096,0.08564875,0.006776106,0.031321358,0.04664501,0.10701445,0.03436563,-0.041810885,0.030687673,0.054210138,0.053057123,0.07895547,-0.023362493,-0.07284855,0.01986122,0.06804256,-0.023376342,0.044584613,-0.002762798,-0.008780444,-0.01896248,0.0509282,0.06514982,-0.0045187105,0.011147034,0.08492994,0.033940833,0.009699716,0.055373773,0.015241271,0.011811882,-0.07691646,0.08687721,-0.08114111,0.044097494,0.066332504,0.0399167,0.0503233,-0.06834448,-0.06761926,0.029139377,0.10670132,0.030893479,-0.06816517,0.0066517345,-0.0028479856,-0.012408051,0.0057882685,0.072406635,-0.09297781,0.019113632,0.04990952,-0.029102478,0.026803505,0.03529634,-0.010567592,0.12076068,-0.05399605,0.05025019,0.0171146,-0.037563987,-0.06835196,0.034551717,-0.09936985,-0.08457741,0.015598394,-0.0044436273,-0.0048421104,0.0008037328,-0.09730477,0.08250864,0.0045656106,-0.016799567,0.023845365,-0.074967064,0.07869831,-0.020486474,0.07777751,0.046129033,0.0687264,0.03110313,0.06643875,-0.042146154,-0.009412277,-0.011483106,-0.011855247,-0.065419294,-0.05971348,0.06859572,0.0028982088,0.090566635,-0.027430348,0.03186004,-0.025202386,0.020827958,0.02261757,-0.0058502234,0.04589629,0.069220036,0.0011057847,0.08804457,-0.04376604,0.016231872,0.09941104,-0.078305475,-0.027214875,0.04059188,-0.100166626,-0.03184488,-0.006742383,-0.037169594,0.08921776,0.033115365,-0.11461043,-0.07471564,-0.07431372,0.05002845,0.029939683,0.05068215,0.038134422,-0.1080865,0.05923865,-0.06500872,-0.011049553,-0.07383995,-0.020706039,-0.005901535,0.030542674,-0.00066221633,-0.033310223,0.0077246767,-0.036714684,0.052924443,-0.047975365,0.015419022,0.021166705,-0.0019546386,0.049660664,-0.010049983,-0.07887771,-0.038059976,0.04578731,0.07668802,0.0074875522,-0.00299333,-0.050470103,0.060684584,-0.07442527,0.0486958,-0.045676943,0.040071562,0.007867946,0.04053327,0.045903563,0.022672564,-0.01696141,0.019084433,-0.01084446,0.018907508,0.024269866,0.0024825719,0.025488578,0.07602534,0.0038000068,0.02803145,-0.011444228,-0.060049526,-0.022576554,-0.026602471,-0.0903073,0.011539526,0.031151237,-0.02539488,-0.067827694,-0.035043314,-0.0034414413,-0.039630216,-0.025446355,-0.05851822,-0.04157651,-0.048202235,0.012056546,0.0645666,0.08034351,-0.027642552,0.049949512,0.027943471,-0.026085692,0.059265956,0.02942369,-0.038223527,0.0753953,0.0069164205,0.018113548,0.051531933,0.05628208,-0.011282384,-0.047748916,-0.037789524,0.0845215,-0.040326793,0.011583169,-0.009710692,-0.07934716,-0.05141507,-0.02060923,0.014945334,-0.037794188,-0.004577224,-0.054193065,0.028715676,0.0302362,0.08639726,-0.03543301,-0.10650846,0.0903448,-0.015316197,-0.026148079,-0.05350291,-0.060977492,0.054261323,-0.02535983,0.024064504,0.031146683,0.06506677,0.017572898,-0.06331014,-0.048004158,0.0832166,-0.10951201,0.022256017,-0.08065519,0.060044866,-0.007835086,-0.06755032,0.042926393,0.040602263,-0.07385648,0.079561606,-0.015432248,0.05357554,0.008535098,-0.07155092,-0.00077963056,-0.011056646,-0.03808312,0.08528347,-0.05680942,0.08169508,0.004382984,0.06371255,-0.01736866,-0.07058944,0.009268962,-0.030331936,-0.0960784,0.007957013,-0.024047587,-0.058945496,-0.014642861,0.034401126,0.053379048,0.06633046,0.023425668,0.04467141,-0.0066585927,-0.07041014,-0.05601183,-0.12773591,-0.012435322,0.007228352,0.037468378,0.046657808,-0.0036178576,-0.053629786,0.03182782,0.08791621,-0.09493669,-0.10363414,0.020615067,0.07899113,-0.018069413,0.04344342,0.019739617,0.06709895,-0.060481332,0.083475135,-0.060102575,0.106532894,-0.06502048,0.08601458,0.0672517,0.06574339,-0.085820526,0.019673323,-0.16341491,0.11512272,0.08847922,-0.106369205,-0.007351514,-0.06719618,0.028274607,0.018727584,-0.13739838,0.07373182,-0.034182027,-0.026134683,0.126041,0.09103871,-0.038551804,-0.003299348,-0.044370554,0.19120207,-0.08341171,0.04865333,-0.00067553116,-0.07902934,0.06678249,-0.082962334,-0.06551147,-0.0029360917,-0.0045028655,-0.0119423205,-0.0070359316,-0.02525995,-0.007746959,0.004921836,-0.013948103,-0.028146893,0.06655216,-0.015544942,0.11976108,-0.09311122,0.06436168,0.020552676,0.081417836,0.08900146,0.065381065,-0.07876217,0.035045814,-0.037804868,0.0580661,-0.06115982,0.07803957,0.06201863,0.024056787,0.014679809,0.049464814,0.08125102,-0.00934158,-0.05252651,0.053604763,0.008784009,0.013406732,-0.052673455,-0.050509315,0.0384854,-0.05650113,-0.055340983,-0.028924076,0.079197116,0.0055157957,-0.053483102,-0.028404417,0.06190433,-0.056787334,0.026876038,-0.046655856,0.0012386582,-0.0798523,-0.06435242,0.09816024,0.02226388,-0.015507946,0.060304813,-0.062662646,0.012397616,-0.09442557,-0.020930247,0.03210054,0.009649098,-0.0041799345,-0.032708067,0.022488602,0.0002468605,0.04987911,0.09870437,-0.00783174,0.048430227,-0.027528761,0.07093002,-0.11551763,0.09399481,0.039167263,-0.055396907,0.025892595,-0.02125921,0.0607996,-0.0030579078,0.055928253,-0.008323085,0.104666434,-0.081274115,-0.040174577,0.027436046,-0.111178,-0.020207277,0.022165857,0.03995304,0.023588743,-0.08205171,0.026691101,0.001208773,-0.04469118,-0.015604529,0.07039201,-0.11671215,0.03161052,-0.03116257,0.021051848,0.029117636,0.010451619,-0.0859386,0.12906301,-0.01077784,0.05501337,0.04058207,0.034777094,0.03029836,0.037011895,-0.011005903,-0.045658953,-0.0042832107,-0.04120109,0.042053394,-0.032846164,0.0055219363,0.022559807,-0.028243113,-0.0045995596,-0.038207557,0.070459,0.04436209,0.0033597946,-0.0003366992,0.071853414,-0.049875434,0.10019804,0.02020364,0.055507764,0.047250573,-0.056679897,0.09443531,-0.026327543,-0.09501881,0.12505198,0.08975382,-0.060547534,0.0025735993,-0.0659379,0.03001281,0.016177136,0.040001612,-0.027969971,0.0029298025,-0.028809903,0.0749622,-0.015812956,-0.0073361667,0.06242295,0.04381186,-0.0070441156,0.06351489,0.024258293,-0.040855512,-0.02660141,0.084159225,-0.0075765774,0.061618373,-0.06108962,0.014902107,0.07319864,-0.094210476,-0.0037259918,-0.07596656,-0.113333724,-0.083608046,-0.0011396194,0.034890868,-0.04680251,0.09293205,0.05352654,0.05891766,0.07249223,-0.025598386,-0.025232885,-0.04778873,-0.009093558,-0.027712926,-0.02358274,-0.013061605,0.0011028193,-0.03466922,-0.0012411104,-0.081746265,0.011545708,-0.031417344,0.017800856,-0.07172846,-0.078273565,-0.07470448,0.043171532,-0.031057486,0.014967394,-0.059744246,-0.03081398,0.022218438,-0.09381683,0.011024076,0.09127714,0.056356885,0.037285797,-0.05366554,-0.068021074,-0.09413811,0.026086872,-0.033785127,-0.026169684,-0.015124725,-0.010100319,0.02110372,-0.098531,-0.014518679,-0.14990443,-0.06562249,-0.048797444,0.06984608,-0.06729644,0.12564123,-0.038340073,0.08410559,-0.027647804,-0.0896604,-0.03485198,-0.016875302,-0.09047871,-0.019864595,-0.018047152,0.09567099,-0.17507944,-0.022993326,-0.023585947,0.033430543,-0.011333434,-0.07849649,0.01787491,-0.03427569,0.04204458,-0.0538692,0.07823717,0.010157225,0.008349729,-0.04799368,0.061740648,0.028930327,-0.007945117,-0.03749238,-0.043849275,-0.014904315,-0.108553804,-0.08350167,0.034809284,-0.02699872,0.041833393,-0.15174004,0.030246068,-0.052437283,0.02022191,-0.05862859,0.004816452,-0.09774963,-0.0030601933,0.050749514,0.017404452,-0.011134416,0.051434863,0.048859533,0.031685814,0.01646336,-0.0023221644,0.020721782,0.03079985,0.018704172,0.0504548,-0.101483695,-0.018930474,0.06751607,0.01539694,0.027921828,0.07349134,-0.042540036,-0.0634946,-0.03711592,-0.007743861,0.063382514,-0.0336814,-0.028535089,-0.046624072,0.025342984,0.0361753,0.013267929,-0.037723046,-0.047139432,-0.0040690512,0.07769198,-0.042616293,0.060920388,0.0016797604,0.06861312,-0.011698806,0.026617307,0.0662829,-0.056839015,-0.051228337,0.0004157966,0.03588421,-0.07018226,-0.019451268,-0.04505941,-0.040805794,0.06870874,0.014578215,-0.040653847,0.047868263,-0.03156905,0.035562802,-0.045968067,-0.056872703,-0.00982739,0.01014393,0.05661247,0.013423081,-0.058588333,0.08224187,-0.016940253,0.09259281,-0.074400716,-0.00042612152,-0.074712306,0.027915739,-0.042981233,0.02403367,0.013941067,-0.033272874,0.029472714,-0.017815806,0.060241483,0.00164544,0.018394481,-0.013510224,-0.03137843,-0.012960195,0.009270383,0.062172335,-0.029117825,0.101037346,0.047741476,0.046755612,0.043591928,0.01923653,0.04686405,0.040555842,0.070791535,0.050624475,-0.060176484,0.012939839,-0.051117342,-0.0236308,-0.02078928,-0.09137517,0.021188632,0.0057963943,0.025187489,0.085275576,-0.034600347,0.09702218,0.10050142,0.044566732,0.014510853,0.058006316,0.019917587,0.017236752,0.0078072473,0.042673383,-0.005330831,0.059113298,0.03896037,-0.01648227,-0.06537313,0.00855897,-0.06372606,-0.057418585,-0.0069534536,-0.052466244,0.02862561,0.04540411,0.030056499,0.0012742679,-0.037295,-0.04754594,0.004826261,-0.0917619,0.018093627,-0.00176042,-0.07713469,0.09201223,-0.0019990562,0.0941209,4.9368973e-05,-0.0394298,0.0057364595,0.00745254,-0.07883289,-0.03420089,0.019496223,0.06272452,0.033675693,0.022420954,-0.016302172,0.03859948,0.019660288,-0.023821177,-0.0068110293,0.008626947,0.012780197,-0.054767884,-0.006108015,0.11387153,-0.13819335,0.018349513,-0.09020889,-0.06716087,0.042395167,0.103783034,0.03317938,-0.07314889,0.1250626,0.04827425,0.004872823,-0.006854474,-0.0464727,0.014078247,-0.032856815,-0.012667711,0.051530242,-0.00996553,0.03845222,-0.023574803,-0.040204044,-0.07342101,-0.026956901,-0.00049278873,0.011931898,-0.0443536,0.053887926,0.047336597,0.07466183,0.05645838,0.07434341,0.017407877,-0.0025284525,0.068607196,-0.08039996,0.0429326,0.015366731,-0.036732808,-0.018170867,-0.03956196,-0.026787508,0.039784353,-0.039497692,-0.012832963,-0.1057651,-0.06801207,0.035963025,-0.0076410407,-0.015667006,0.045236588,-0.013761201,-0.0799611,0.001182817,-0.017056566,0.010605936,0.042550337,0.016943421,0.049806025,0.02658098,0.08721975,0.052227516,0.00971999,0.013172183,-0.007276793,-0.049846344,0.059112456,-0.05410591,-0.075376116,0.0339769,0.100573644,0.008054679,-0.060620338,-0.00069537,0.12152082,-0.009174809,-0.045600474,-0.05048154,0.075660594,-0.1351417,0.0782826,-0.06665946,0.01554641,-0.013977961,0.07791646,0.04233638,0.05877249,0.012913704,-0.10456974,0.024976537,0.0021022423,-0.06834817,-0.059508007,-0.010559884,-0.018354569,0.10337925,0.021940334,-0.013048425,-0.0056961835,0.042701606,0.0062390235,-0.02705019,-0.021185266,0.01681044,0.0129784215,0.02637395,0.026107378,0.037433084,0.05077029,-0.1153637,-0.0037901222,-0.042135093,0.020137154,-0.029507805,0.07416105,-0.0601882,0.05116931,0.026112523,-0.051508572,0.021626092,-0.062555484,0.03513166,-0.009300851,0.02628541,0.043505203,-0.058144115,0.043618232,-0.003685652,-0.0077327825,0.047202475,0.043546017,0.0042403145,-0.029120417,0.0058608814,0.03382273,0.037789237,-0.03577263,0.07046108,0.08994211,-0.055874053,-0.049693674,-0.04055083,0.08417276,0.019601757,0.008800568,0.025917083,0.013612241,0.025187245,0.052884847,-0.037211142,0.024339689,-0.026953196,-0.034841266,0.073013395,-0.06406927,-0.0672135,0.024848979,0.014169888,0.063033484,0.04358919,-0.06442386,-0.0024056649,0.012882704,-0.013467949,0.018084453,-0.06522482,0.014885339,-0.05158977,-0.0761369,0.067896195,-0.0498197,0.08248522,-0.030525403,0.051369574,-0.080245644,-0.027076611,0.042796545,0.052689675,0.04209441,-0.02002179,0.011880087,-0.04602489,0.029971305,-0.025730498,0.06439027,-0.02287158,-0.01588457,-0.09532959,-0.062861055,0.05074675,-0.035187565,-0.036373097,0.020378677,-0.003460751,-0.058997747,0.052699707,0.08955135,-0.032698505,0.0027794724,0.054717876,0.012558441,0.027579088,0.034750115,0.028773142,-0.031912476,-0.11453408,0.032470427,0.05424285,0.015165832,0.061687328,0.0041682697,-0.095656976,0.07136321,0.04046985,0.086657226,-0.03227075,0.072832294,-0.010322415,0.04170419,-0.045993414,-0.0137574915,0.051846143,-0.005534428,-0.022647094,0.021233011,0.06757918,0.015886659,0.0077400506,-0.0049245805,0.0057268525,-0.047906864,-0.010965342,0.059587423,-0.03737823,-0.07905707,-0.003478668,-0.016409405,0.065738045,0.011697916,-0.03023391,-0.06236897,0.0839618,0.026891043,-0.014888255,-0.027020898,-0.07882592,-0.039321847,-0.062472183,0.051699527,0.08259928,0.041211184,0.054152757,-0.029210517,-0.022695445,-0.02161369,-0.058047906,-0.026126228,0.061232973,-0.07056366,0.06871078,0.018503696,-0.037841517,0.090014294,0.012743353,0.03764792,0.024385987,0.05581881,-0.050039154,0.03291899,0.008668251,0.0043609715,-0.004544851,0.021625143,-0.01078793,0.06497726,-0.0032861782,0.023441538,-0.05844955,0.04745429,0.0030612098,0.03951429,0.05273313,0.008877113,0.0013746792,0.031402882,0.055231716,0.010079579,-0.05692658,0.023707302,0.10699943,-0.0032798087,0.076339096,0.008477419,0.033724446,0.032232165,0.034740437,-0.063394554,0.057674833,-0.07455353,-0.097738884,-0.08307388,0.04110004,-0.049894482,0.07990468,-0.03375667,0.058858067,-0.05423383,0.0005986365,0.07494901,0.07876366,-0.033446524,-0.06758908,0.050014064,-0.021767836,-0.03764916,-0.059236266,-0.0018229245,-0.08350704,-0.056341078,-0.09302871,0.04441196,-0.059702493,-0.078561254,-0.0036365476,0.06105183,0.009998804,0.1267491,-0.08327778,0.00081676745,0.017362142,0.06273771,0.062040433,0.07191939,-0.113698326,0.0079729315,-0.048745822,-0.033507157,0.008755483,-0.032908306,0.014906707,0.013392585,0.014423838,0.036638852,-0.06697836,0.028134516,0.03497421,-0.0311635,-0.016048877,-0.052116375,0.033540282,0.030211797,0.05849704,0.0302685,0.0318833,0.048165873,0.08310565,0.062367085,-0.039518703,0.050716624,-0.07145906,-0.09763142,0.018899746,-0.022153309,0.096326195,-0.0707789,-0.008579831,-0.006959007,-0.00020328633,0.008712495,-0.03014838,-0.034206625,0.023805566,-0.04985259,-0.07748477,0.004550428,-0.00020764559,0.07801731,0.11676422,-0.04378878,-0.05108978,-0.09716212,-0.070178166,0.06381039,0.011744806,0.011753534,0.028805686,-0.03297305,-0.00701101,0.06925577,-0.04929575,0.023184387,0.046078358,0.00023022507,0.07322153,0.031512316,-0.039166357,0.07363251,-0.032629687,0.08755219,0.012857992,0.03875215,-0.03801723,0.013109517,0.012462992,-0.045180455,0.06787094,-0.016275005,-0.06794221,-0.022352627,-0.0084879305,-0.020001397,0.06413334,-0.009401799,0.05467444,0.04432739,0.07848681,-0.05892496,0.020390369,-0.015558354,0.07205735,0.02082613,0.016898554,-0.011806909,0.07032335,-0.058744844,-0.070561156,0.0057881866,-0.11730459,0.07292949,-0.0048264638,-0.04882361,0.03363343,0.012779644,0.0061144056,0.05130924,-0.054852545,0.06702786,-0.07426471,0.025039194,0.042223327,-0.067191035,0.04783806,-0.061261903,-0.037306756,0.04749966,0.009129595,0.008683793,-0.05831854,0.057941634,0.00022111827,-0.010705416,0.03659687,-0.041039754,-0.029760614,0.047221184,0.0691952,0.013020829,-0.047753587,0.018401096,-0.07250357,-0.0011422682,0.058359545,-0.005526453,-0.066939756,0.025072902,0.023032034,-0.008666154,-0.040993806,-0.039851855,-0.027376471,0.06485052,-0.004997907,0.013892685,-0.04928907,0.011935762,0.05507346,-0.07620465,0.041836258,0.053376213,0.046894737,0.06114263,0.04662935,-0.0415948,0.046575293,0.006115374,-0.0077666077,-0.013654656,-0.075034834,-0.0020712356,-0.06848743,-0.060378015,0.04039681,0.03970914,0.052657463,-0.02099245,0.053233504,-0.077993445,-0.043996654,0.03688068,-0.061749205,-0.02745326,0.04383627,0.021714356,-0.024831094,0.014376948,0.044686224,0.040712267,0.0034939374,-0.0043053813,-0.07047756,0.003151673,-0.005543577,0.024241796,-0.006513308,0.007391206,0.12985696,-0.04923712,-0.05375607,0.09942639,-0.09215631,-0.050694052,0.028412014,0.030860394,0.002936645,-0.014399547,-0.042568196,-0.0044752555,-0.011611988,-0.05318511,-0.031742822,-0.018695526,0.033896953,-0.060325243,-0.043773994,0.045018747,-0.042651284,-0.02188697,0.04306697,0.05379086,-0.07857135,0.036518652,-0.014936206,0.035706986,0.028644266,-0.02454137,0.139161,-0.046242066,0.050321124,0.024885481,-0.07052263,-0.022634652,-0.010435707,0.008367466,0.026116744,-0.068825915,-0.047768787,0.0317032,0.06659189,0.06139305,-0.021083858,-0.07491658,-0.022778634,0.077584736,0.053080276,-0.010495354,0.09454868,-0.05053358,-0.0038395151,0.017257428,0.023712404,-0.08065307,0.013762337,-0.017104609,0.02414071,0.054565396,-0.052656125,0.021878252,0.053742312,0.03735062,-0.0005832349,0.11399778,-0.024150135,0.012331697,-0.07985218,0.045465827,0.033980213,0.066632316,0.0012400291,-0.08809635,-0.054088224,-0.032318536,0.087989576,0.049311537,-0.006848095,0.067198075,-0.06408764,0.07027788,0.018273005,0.028952865,-0.050192326,-0.03562285,0.01717535,0.02050913,0.010997068,0.015194986,0.08138724,0.08315934,-0.023305962,0.034285925,0.07491829,-0.06503533,0.047118146,-0.08603439,0.039772406,-0.009194432,0.06834205,-0.017886186,-0.011625807,-0.06354681,-0.0012456543,0.027573029,0.046366557,-0.07624288,-0.018195504,-0.05045887,0.01166152,0.017239671,-0.015467312,-0.045066886,-0.030293386,-0.06721274,-0.045042288,0.004131285,-0.06914602,-0.012179531,-0.07630495,-0.005415486,0.06796479,-0.06904714,0.012724338,-0.07019367,-0.033365704,0.014896812,0.056120083,0.0070463996,0.018410549,-0.029768545,-0.013444535,0.07027761,-0.003064291,-0.081409186,-0.023121208,0.041849885,-0.11324288,0.015539429,0.01648579,-0.008908261,-0.04261492,-0.023519455,-0.09348181,0.01641643,0.059119266,-0.06585008,-0.016624589,0.0142204175,-0.025661957,0.024059061,-0.07764986,-0.004641767,-0.07239603,-0.07472094,-0.05723975,0.027878197,0.0059375777,-0.0068306006,-0.030571466,-0.07398021,-0.049240667,-0.015073024,-0.004302855,-0.04555092,-0.04175293,0.045812387,0.08944722,-0.06914998,0.03142895,-0.05318398,0.043728177,-0.049820226,0.010571119,0.054515768,-0.037216652,-0.04603831,0.0723959,-0.051968392,-0.09166426,-0.0099977115,0.071650565,-0.04640672,0.12810059,0.15014048,-0.03672254,0.07142329,0.035401266,0.01008213,-0.08565127,0.015033223,0.05790684,-0.08950367,0.013599744,-0.10007336,0.043386914,0.031756666,0.09293291,0.004665796,-0.014133014,-0.07229576,0.045887485,0.04669105,-0.088356964,-0.0030393642,0.0011365437,-0.06828522,0.16813883,0.038357355,-0.014257566,-0.005571875,0.015690168,0.0074959816,-0.011366401,-0.05454797,-0.057734486,0.030372381,0.009837068,0.023220561,0.050689343,0.09161549,0.053939153,-0.06876129,0.04043853,0.0147861345,0.10467076,-0.029303709,0.06574704,-0.053436708,-0.008892614,0.024148868,-0.04201248,0.013197697,-0.013237209,0.036607873,-0.067025155,0.118921794,-0.042437192,-0.02917634,-0.012298183,0.04979108,-0.012059225,0.010353579,0.033525217,0.007417952,-0.05615839,0.01747476,-0.020952886,0.05555807,-0.08475771,-0.017886378,0.0496629,-0.011285862,-0.12199993,0.07446799,0.037236508,-0.010025768,-0.06248824,-0.061921164,0.051574025,-0.055734105,-0.07725961,0.013990095,-0.07418447,0.053565912,-0.07169074,0.043799557,-0.12276156,0.07347773,0.011680003,0.043711115,0.05029864,-0.051854473,-0.06790894,0.050126046,0.08395422,-0.017694892,0.016805664,0.024795592,-0.018910574,-0.0052337246,-0.04931962,-0.079837725,0.045236517,0.043017045,0.035843857,-0.0669483,0.009945138,0.06390162,-0.017125932,-0.102867104,-0.05603947,0.035897125,-0.03879522,0.004574404,-0.07711696,-0.02298359,0.018859668,-0.03472956,0.023355516,-0.036805943,-0.0938708,-0.06932802,0.052099437,0.023398645,-0.058166206,0.05752899,0.0872627,0.04732071,-0.048197124,0.0008372782,-0.003470211,0.029930992,-0.033777308,-0.07687479,-0.07167306,-0.0139395455,-0.07637924,0.06306994,0.093702205,-0.0377066,-0.057648998,-0.07039448,-0.038711883,0.012619608,0.04555911,-0.04604432,-0.030067625,-0.05842184,-0.03538756,-0.07243418,0.009236006,0.061883442,-0.06878304,0.09891821,-0.051951908,0.033355195,0.030730765,-0.062393576,-0.0305641,0.0152224265,-0.030740568,0.051729873,0.010799139,-0.040229775,-0.026399544,0.07115268,0.0066932067,0.035979558,-0.0020257432,-0.018507626,0.033491902,0.049518913,-0.024864458,-0.061983988,-0.049651913,0.0033035972,-0.043989602,-0.017966159,0.0059382725,-0.065863006,0.061392423,-0.021040397,0.02954216,0.024601601,0.019873386,-0.004734594,0.0017907994,-0.02151363,-0.029967844,-0.007747564,-0.003332371,-0.059652075,-0.04108308,-0.05096699,0.0061666556,0.03701976,0.057881206,-0.050925396,0.070401125,-0.018547863,0.06278175,0.029854028,0.028919771,-0.003245161,0.046744503,0.07402319,0.03091193,-0.050788127,0.08392719,-0.072171636,-0.010235129,-0.002571335,0.04805658,-0.046806686,0.10033583,-0.021912077,-0.004801833,0.019841097,-0.058864273,-0.012468254,-0.024537597,0.00096911413,0.0025499647,0.015612,-0.07362937,-0.03365017,-0.005444684,-0.041955054,0.047351483,0.06506103,0.036344804,-0.041778006,0.06577767,0.00021220253,0.012226485,-0.0671341,-0.003240651,-0.03327506,-0.03322572,0.032330766,0.0683888,-0.046663944,0.058885075,-0.02926857,-0.044468008,-0.078460075,-0.004935774,0.002547926,0.03685321,-0.012368225,-0.038060572,0.043966,-0.026273672,0.058863964,0.07006532,0.052935928,0.052723695,0.031667408,-0.08754425,-0.0550434,0.029075608,-0.0689041,0.0018639633,0.10176284,-0.084597416,-0.033233937,0.09752778,0.040942132,0.035758235,0.11072155,-0.09463825,-0.09453673,0.023253178,-0.005183608,-0.06051418,-0.039146304,0.017127223,-0.0071299197,-0.021915747,-0.051605873,-0.058819253,-0.045681585,0.030732695,0.028554626,0.0644383,0.08145334,-0.07942778,-0.025009247,-0.06836157,-0.05825498,-0.029820068,-0.0642036,0.04317174,0.10096013,0.0152776,0.06308953,-0.014472574,-0.012085899,0.04200674,0.029822148,-0.052916143,0.04618903,0.044821773,-0.0711244,-0.06964312,-0.03643775,0.03466439,-0.098206066,0.008491774,0.0068587926,0.0069102617,0.004841536,-0.016388983,-0.016620193,-0.015796496,-0.08383177,-0.026664596,-0.02447717,-0.011052183,-0.015183581,0.0050483695,-0.024522431,0.0047637117,0.048114043,0.10660138,-0.06764354,0.0033599269,-0.059225038,-0.011129156,-0.04226058,0.03575857,0.034662828,0.08096708,-0.00060439354,-0.035993863,0.05976808,0.0105112335,-0.0618378,0.0063131116,-0.062783726,-0.08961004,-0.043165445,-0.04118367,-0.055384077,0.0042585074,-0.067423426,-0.08566145,0.02625862,0.089894585,0.10273181,-0.043708418,0.074327946,-0.066467345,-0.03985025,0.07451448,0.0020025345,0.0398009,0.020079752,-0.026925951,-0.1172217,-0.02619113,0.094395,0.013937801,0.0071651856,0.009610966,-0.006556687,0.053505678,-0.021560002,-0.017589988,-0.054114126,0.06977524,-0.026043,0.08779437,0.0141335195,0.023163365,0.024353443,0.0722044,0.09740217,0.036917545,-0.048979893,0.02358574,-0.0014321463,0.028562438,-0.022426544,-0.038695857,0.02334851,0.0034596422,-0.15037072,-0.11521561,-0.03187003,-0.064273454,-0.033987038,-0.007522781,-0.03658837,-0.045751024,-0.011872525,0.012178615,0.06358369,0.053259335,0.021114938,0.023906708,0.07089692,0.0030026436,0.054016344,0.03363242,-0.011098961,0.0010197726,-0.034336384,-0.04745836,-0.006597596,0.041842636,-0.07206855,-0.052743338,0.03183637,0.01802209,0.017594408,0.022126831,-0.07065735,0.015417897,-0.03348202,0.0007007329,-0.019018177,-0.031888068,-0.061552096,-0.04104316,-0.0059350687,0.019794727,0.056882963,-0.026105745,0.05894535,0.0068942253,0.028403569,-0.0065738093,0.052838337,0.012100474,0.09966407,-0.056745134,-0.0400812,-0.067687824,-0.05051561,0.05246005,0.01792397,-0.04556179,-0.02189122,0.06488867,0.022901168,0.059158877,0.018038044,0.07222326,0.019825488,-0.06581181,0.08985262,-0.042006508,-0.057471372,0.02713465,0.07753455,-0.10058129,0.017839951,0.030429153,-0.039370183,0.030295407,0.014415388,-0.048255593,-0.026200695,-0.04639079,-0.077299096,0.018946692,-0.022407353,0.04356576,-0.021935357,0.012090751,0.06872089,-0.03514293,0.032667395,0.034573104,0.018212004,0.018079847,0.072117686,0.088029265,-0.10951328,0.011525974,0.013733232,-0.04669059,0.04886525,0.00780093,0.10812086,-0.0068581337,0.04522437,0.030343717,0.015661078,-0.035551347,-0.031447608,0.040241607,0.029377744,-0.004729738,-0.09027176,-0.0027735084,-0.04610913,-0.061423834,-0.04920708,-0.08279537,0.02577455,-0.062435932,0.07990203,-0.08500225,0.014398697,0.059928942,-0.0044863475,0.022464385,-0.0038821907,0.07408909,-0.061634596,-0.04923953,0.010475863,-0.06862628,-0.07570729,-0.049556132,-0.01593885,-0.016009545,-0.01259158,-0.020736545,-0.052568108,-0.023228403,0.04582127,0.011371752,-0.046005137,0.048578568,0.059188873,0.03788333,-0.0595447,-0.078117184,-0.04655349,-0.012307961,0.10193256,0.036527563,-0.021940315,0.064678796,-0.0006306284,0.034622394,0.020009784,0.014402262,-0.07589657,0.058882073,-0.100857675,-0.050711047,-0.06910757,0.057394538,0.0328984,0.01267881,0.10940608,0.018227436,0.05541777,0.1350991,-0.022071902,0.123884484,-0.039302714,0.0998735,-0.08531205,0.028363021,-0.03219837,-0.07846894,0.020657405,-0.031455763,0.0044483566,0.014973657,-0.013772835,0.082526945,0.065070845,-0.016404185,0.037421487,-0.022157487,-0.030755607,-0.011297435,-0.05160573,0.099291295,0.04023453,0.0219263,-0.000836419,-0.010062719,-0.04994166,0.008673389,-0.011980841,-0.07648876,-0.07373138,-0.084599905,-0.0703201,-0.03548694,-0.022105753,0.039993342,-0.015206197,0.05780514,-0.012304432,-0.02382178,0.04661472,0.028000893,0.04766309,-0.07818934,0.084858775,0.030700682,-0.017693674,0.046502486,-0.04168073,-0.067469984,-0.04805629,0.024257762,0.015182984,-0.04856116,0.011617687,-0.022385452,-0.040598888,-0.030720485,0.057875104,0.03753635,0.041549314,0.0062751565,0.010911553,0.06886882,0.017080912,0.014912292,0.024758615,-0.05975098,0.07454455,0.058802098,-0.0652759,-0.062402297,0.0044972645,-0.05265673,0.010205521,0.07969887,0.0650104,0.06233753,-0.04205219,0.046400517,0.046095684,0.06816359,0.065486215,-0.03791475,-0.0018808403,0.04920602,0.081755556,-0.082480505,0.035870157,-0.012093633,-0.033576332,0.0035076465,-0.05669475,0.14000165,0.014098388,0.08777965,0.03601516,0.060780212,-0.06815006,0.023049042,-0.09381573,0.045549225,0.12014906,-0.010361913,-0.10197116,-0.018587599,0.026621103,-0.00969078,-0.06099726,0.042478234,0.048077207,0.0079580145,0.079496875,0.019334985,-0.024446798,0.039037533,-0.021997727,0.009175623,0.0704514,-0.000949669,-0.050051954,0.05482016,0.05383661,0.04062959,-0.08213526,-0.06348126,0.05381017,-0.051175173,0.07574253,-0.07991169,0.013445503,0.08387904,-0.067744486,-0.042095132,0.06462135,0.010623945,0.085010834,-0.025772588,0.011881542,0.036279168,0.08223969,-0.08514549,0.07656231,-0.0055856793,0.022330044,0.044281088,0.084737904,-0.00014818384,-0.016569804,0.053409424,0.041668467,0.06399207,0.027229583,-0.036601674,-0.05443705,-0.04940927,-0.012227084,-0.060920283,0.015225955,0.0069983285,-0.08719531,0.00791824,0.08591718,0.057569344,0.054193344,0.022113586,0.020078557,0.07731825,0.026872622,0.008964365,0.02968222,-0.09680679,0.014502496,0.10146406,-0.02364942,-0.03024224,-0.08401881,0.022124844,-0.065081,0.005817111,0.074977875,-0.05725615,0.01779088,-0.005971392,-0.06809134,-0.017574448,0.028242191,0.0327198,-0.01662015,0.011140643,0.03582237,-0.014229374,0.03740847,0.047555085,-0.06190211,-0.029401839,2.070862e-05,0.05009045,0.051791903,0.0166734,0.014213143,0.030029468,-0.05279189,0.03658724,-0.0064813765,0.038068257,0.008588389,-0.034756433,-0.0016462302,0.024421714,-0.024200192,-0.047441762,-0.033516463,0.021853928,-0.016881814,-0.012356487,-0.035330854,0.04335342,0.025943106,0.05726588,0.026117142,-0.052936375,0.08117893,0.02196699,-0.090071715,-0.004537443,0.018812254,0.08620785,0.10410558,-0.035711523,0.03400458,0.03807533,0.02576696,0.015522193,0.059998263,-0.017842188,0.017901342,0.034903057,-0.08692236,0.02946259,0.050722376,-0.06363761,-0.04383592,0.06213192,0.0673662,-0.080020994,-0.0019692765,-0.012029193,0.05603996,-0.06744567,-0.0036447777,0.008024167,0.05706722,-0.06748425,0.073014595,0.085530505,0.038551226,-0.06912261,0.055248853,-0.08166818,-0.022750989,0.045023996,-0.04952025,-0.035895184,-0.029766466,-0.010230342,0.014020988,-0.048595775,-0.076580025,0.036821097,-0.00716121,-0.0047659636,0.05361652,0.08278193,-0.048058994,0.0058877305,0.0072228154,0.002464877,-0.102608815,-0.04174687,-0.015766986,0.013146404,0.039406933,0.06961705,-0.045198277,-0.02283404,0.09062289,-0.06067098,-0.049198747,0.0036089097,-0.121229574,0.107180335,-0.064465545,-0.045779575,-0.043334827,0.079671964,0.017152471,0.06394714,0.02806702,0.051619936,-0.009009239,-0.012554166,0.007861474,0.030492641,-0.06651481,0.14110917,0.0003247045,0.053432688,-0.011747453,-0.07741542,-0.090597,-0.010379107,-0.04776026,0.047069978,0.021205628,0.021473935,-0.069739275,-0.04208198,0.008566026,0.03104535,0.021779679,-0.0454787,0.037696946,-0.042494208,-0.094869435,0.083006196,0.033869687,0.06012686,-0.015418825,-0.046695676,0.11016429,-0.039298575,-0.07682298,-0.037192453,-0.014422222,0.0048793363,0.037976682,-0.06310252,0.032800935,-0.04452215,0.07138939,0.039154682,0.038500763,-0.057750545,-0.05543299,-0.06388915,-0.07068844,-0.015169212,-0.07974664,0.09651173,0.0016300781,0.07841888,0.078954056,-0.017191617,-0.10793423,0.080086514,-0.16356261,-0.08771933,0.010613069,-0.042736117,-0.034362156,-0.05633069,0.057783894,0.123073906,-0.14464001,-0.061843216,0.121353105,-0.03703718,-0.0013727415,-0.020962847,0.083913766,-0.066577725,0.035114434,0.07220104,-0.044042755,-0.029070836,-0.027313909,-0.035101805,0.025482535,0.08893752,-0.051133547,-0.025270784,-0.057303388,-0.06209206,-0.011384672,-0.09346572,0.00922487,0.11902487,-0.108012386,-0.078260705,0.003090129,-0.035415765,0.0023476002,-0.038968675,-0.0016461146,0.01240776,0.123118185,-0.07147588,0.028979128,-0.04805818,0.064679004,0.015439453,-0.11598602,0.026170861,0.11201095,-0.028654963,0.07634149,-0.0076613454,-0.03802466,0.06868343,-0.018369533,-0.094948374,-0.060849104,-0.03047378,-0.04411709,-0.060073208,-0.095118344,0.087069966,-0.036696177,-0.07719247,0.01693649,0.024921605,0.03544463,0.015000326,-0.0026594587,0.013693818,-0.07870283,0.07247461,0.027480248,-0.005671124,-0.054307226,-0.08283976,0.114121586,0.06016278,0.040706154,0.015339742,0.023649441,0.13187452,-0.10000403,-0.07247432,-0.061097115,0.020729482,-0.040136628,-0.0011861693,-0.09524797,-0.09085698,-0.0610447,0.0051650614,-0.025606044,0.11536282,0.1020102,-0.0027366485,-0.03218499,0.06020358,0.0903647,-0.033993512,-0.0028311599,-0.012824103,0.0023103144,0.03556363,0.089102484,-0.027845256,-0.036303196,-0.06305359,0.0032644381,-0.010538224,-0.004990736,-0.063699424,0.1081698,0.04969569,0.05489296,-0.032302156,-0.049198005,0.08282868,-0.07506731,-0.12156231,0.008155733,0.009596632,0.08090713,-0.02609237,-0.025601499,0.08301645,0.016620137,-0.07347066,0.056471426,0.061004806,0.018792056,0.037928224,0.091745466,0.034927692,-0.013343452,-0.061602734,-0.05193261,0.09888651,-0.01682834,0.01741701,0.0061891293,-0.052087143,0.016921489,-0.04160043,0.060558446,-0.055882372,0.04308481,0.015157866,0.061359525,0.008974729,0.02650897,-0.091843635,0.027791994,-0.04914066,-0.03122548,0.11816998,-0.06957168,0.061080977,0.006883183,-0.0329862,0.13187544,0.16284229,-0.044929303,0.071294084,-0.10602721,-0.039745826,-0.1072101,0.000949596,0.020452447,-0.056342464,-0.09937926,0.028894205,-0.10216868,0.03511293,0.06431657,-0.027337812,-0.069603354,-0.0290739,-0.066990115,0.067218915,-0.057445075,-0.0053818887,-0.044026155,-0.07988602,0.06358273,0.04957936,-0.0012232469,-0.058825504,-0.011758024,-0.009559689,0.01364594,-0.09264333,0.10564175,0.037653863,-0.07853085,0.03321485,-0.02159377,-0.08170207,0.039028812,-0.028889904,0.005392251,-0.04465897,-0.07806726,0.0035357166,0.040271297,0.0055424776,-0.05674099,0.048142903,0.057926826,0.007312473,-0.0549275,0.04133489,-0.015165251,0.028938416,-0.021424593,-0.08617672,0.083381124,-0.07169746,0.012510529,0.013728756,-0.03127229,-0.02020793,0.012448194,0.0318078,0.08189609,0.006960479,0.035253793,-0.06755143,0.066822015,0.015482896,0.023045842,-0.032749757,-0.023467306,-0.034528818,-0.051971953,0.04385315,-0.08474578,-0.025698746,-0.024619486,-0.058493447,0.040054064,0.068664484,0.06881154,0.044707734,-0.022395507,-0.008932191,0.017201079,-0.11676203,0.020521231,0.00012779812,0.052793548,-0.023612376,-0.038913097,0.0842501,-0.13909864,-0.010872018,0.06532898,0.024495367,-0.084795326,-0.031979054,0.028026864,-0.032226235,0.023490159,0.0017776511,0.092289805,0.035574667,0.056897026,0.067100435,0.05126346,-0.033139285,-0.01742457,0.031178243,-0.03889015,0.038110916,-0.11678351,0.025890477,0.027434288,-0.029971885,0.039069735,-0.047616955,0.086447194,0.0061113657,-0.034031767,-0.052509885,-0.030446634,0.050068934,0.02640526,-0.044415,-0.07551239,0.053277764,-0.07037398,-0.0712357,-0.08418323,-0.04380972,0.065073155,0.040027853,0.021561254,0.022949433,-0.011516004,-0.09561243,0.036243565,-0.016256154,-0.03003899,0.070870325,0.09502098,0.070937075,-0.0010201612,-0.03307401,0.057752207,-0.0074876174,-0.041413527,-0.06242959,-0.07180362,0.016425982,-0.013831902,0.043671675,-0.073055975,0.011423645,0.050764065,0.0035162875,-0.037083745,0.044238925,0.034852408,-0.046656158,-0.01865314,-0.047365323,0.05230034,-0.03151679,0.03587878,-0.069011346,-0.041334897,-0.04465727,0.009533827,-0.00274292,0.094315775,-0.00087977544,0.024718175,0.0069734463,0.082900316,-0.067705944,-0.008808351,0.059193756,-0.039377533,0.005514427,0.036579527,0.026986498,-0.0068755285,0.025045495,0.07358747,0.0031656867,-0.028178237,0.041476753,0.069172874,0.054684337,-0.057173606,-0.0740158,-0.055134844,0.079885915,-0.02891346,-0.05182553,0.058388125,0.018460473,-0.053920083,-0.024787309,-0.004207689,-0.049124192,-0.031884458,-0.043566465,-0.03409169,0.025351604,-0.07734344,0.020480085,0.019632764,-0.06883715,-0.030719707,0.06188066,0.010062444,0.10584375,-0.032338984,-0.050274227,0.06182111,-0.06816473,0.036490098,0.09784497,-0.112288974,0.017426535,-0.03240438,-0.025415834,0.034202144,-0.079028495,-0.053101644,0.047742054,-0.02343753,-0.024180356,-0.01195175,-0.038633753,-0.012452516,0.0019619048,0.027172852,0.004348763,-0.08227968,-0.014025659,0.040685724,0.03606596,0.0057225167,0.0018458054,-0.025604568,-0.012778435,-0.06580079,0.08610611,0.04315489,-0.066391565,0.026681248,-0.03841104,-0.017004045,0.09081249,-0.03391584,-0.025334056,-0.02909663,-0.037553318,-0.008269034,-0.12555698,0.107218824,-0.010019917,-0.030311076,0.046169948,0.059712727,0.01757244,-0.007371917,0.0198413,-0.03141816,0.02718446,0.052325934,0.016200908,-0.038028777,0.05512067,-0.013445011,-0.050526988,0.10408467,-0.014131487,0.057243887,-0.017639311,-0.020442452,-0.11687902,0.06752211,-0.057643116,-0.020079132,-0.022112127,-0.019623233,-0.009505262,-0.047540452,-0.028710013,0.048782907,0.063490614,-0.029341353,0.034256723,-0.042580087,-0.11511244,0.010718117,0.062918805,0.044920508,0.04236871,-0.050862078,-0.06257199,-0.015556138,-0.030857185,-0.042827558,-0.04796755,0.06219401,-0.02817454,-0.010434211,-0.075975075,0.06581284,0.0059587327,-0.06616981,-0.0012979859,0.0398402,0.020472225,0.070940174,0.035275973,0.06679107,-0.0017224632,0.061805826,-0.039346408,-0.053508304,-0.07570387,-0.02269536,-0.040330347,-0.05194245,-0.04183968,0.01922512,-0.017571112,-0.03934145,-0.045170233,-0.07726187,0.02881139,0.05726284,0.01628105,-0.012347625,-0.04158454,-0.01222626,0.022171026,0.05283771,-0.0855318,0.020595115,-0.040603828,0.029399708,-0.10152544,0.054590754,-0.003495472,-0.006451397,-0.029040337,0.06976211,0.03429801,-0.040873855,0.06880734,0.105697945,-0.008665379,-0.046980422,0.049976587,0.08106392,-0.058658306,0.070754446,-0.04008262,0.07517202,0.031672686,-0.0057585607,0.04728562,0.026974618,-0.027627213,-0.053800393,-0.033446394,0.03753094,0.02373658,-0.004458614,0.067484535,-0.01210705,0.026183596,-0.07901213,-0.006998817,0.024797807,-0.043635447,0.070036,-0.038589615,0.039305475,-0.02851664,0.018854694,0.025103068,-0.058608606,0.03954189,-0.030342717,-0.02798523,-0.05850441,0.024345169,-0.05646573,0.04679965,0.03251389,0.08020271,-0.015648138,-0.015676752,0.019869115,-0.054930214,0.021216441,0.087548055,0.00042648346,-0.013536391,0.033141878,-0.009402939,-0.07854623,0.051985726,0.023627378,-0.0997404,-0.024801297,0.055483703,-0.036365576,0.0848617,0.006213533,-0.007143999,-0.10376125,-0.04301329,-0.026223179,-0.044125192,-0.0800374,0.033111684,-0.027516725,-0.04065674,0.07188244,0.020195505,0.043507647,-0.019642888,0.018608587,-0.031095674,-0.028883085,-0.07874229,0.08320294,-0.03702795,0.011776145,-0.014401919,-0.06338884,-0.049206037,0.03567106,0.03387982,-0.053881414,-0.026439983,0.06499293,-0.024250992,0.031206166,0.0088321585,-0.05129265,-0.014576621,0.030455008,-0.061962225,-0.044979677,0.11510585,0.046527218,-0.018989636,-0.0706123,0.04859292,-0.021541484,-0.011569843,0.048742507,0.040829305,-0.07375819,-0.06745744,0.0060487846,-0.060458906,0.035940092,0.058794033,-0.0067945956,-0.05501262,0.020109804,-0.031441104,-0.005684776,0.05504916,-0.022021713,-0.009314973,-0.07613716,0.092939146,-0.03155881,0.06621163,-0.007775037,-0.014007019,0.08923748,-0.028027738,0.06287853,0.020525344,0.056722533,-0.04775418,0.082601614,0.11332742,-0.099431716,-0.040495034,-0.026179805,-0.0635365,-0.062698215,0.05556948,0.005040789,-0.021577673,0.074712254,0.033248026,0.019536495,-0.072879106,0.008796386,0.013493847,0.0735239,0.012866148,0.003321096,0.062439,0.058140367,-0.04211871,0.0337927,-0.116237074,0.040925104,-0.032273497,0.061954208,0.022277115,-0.045204323,0.08186619,-0.03714896,0.0067071686,-0.054216705,-0.0097315125,-0.08596039,0.0391613,0.06427704,-0.0029528195,0.032196924,-0.01957694,0.015718725,0.06611919,0.02378788,-0.011018062,0.06052274,-0.0882112,0.03437663,0.033325054,-0.026656622,0.051388405,0.06536169,0.014051339,-0.05268762,0.0056336364,-0.024080416,-0.096240886,-0.031982675,0.045980647,-0.038391724,-0.042405874,0.005691358,0.034309458,-0.053283855,0.046863,0.1011025,0.0047058114,0.019477416,-0.047441565,0.040493485,-0.0038931994,0.053171504,0.010511973,0.007853834,-0.014960386,0.032290716,-0.06445608,0.04444121,-0.04988381,-0.07624469,-0.007877742,-0.053888608,-0.013568781,-0.0070934375,0.07105275,0.02391245,0.09265726,0.08929831,0.07138522,0.06914553,-0.012805278,0.030106958,0.058330737,-0.06480359,-0.0502874,-0.03025382,0.070132464,-0.039070096,-0.015449608,0.07208934,-0.00029307482,-0.09622779,0.052428987,-0.016508248,-0.0016786585,0.016583782,0.015122879,-0.02636544,0.010647715,-0.07742097,-0.045452513,0.05714655,-0.0446017,-0.03338808,-0.013261464,0.04850025,-0.054323934,-0.052961748,0.02296633,0.10276305,0.025186023,0.023341414,-0.0572377,0.04252097,-0.047200553,0.026719915,0.019209985,0.032994386,-0.11567656,-0.027645178,0.040548757,-0.016541077,0.003586328,0.06370995,-0.100356124,0.030739073,0.03733898,0.072005846,-0.08828324,-0.050224528,-0.009908755,-0.03629397,-0.051526595,0.042836968,0.08640574,-0.026188506,0.055671085,0.0016605136,0.012369213,-0.01820038,-0.034824103,-0.016811673,0.0014555978,0.11180111,0.0010704509,-0.030025309,-0.064736165,-0.07748061,0.044221666,-0.08404665,0.029044598,-0.024653161,-0.02660176,-0.04809027,0.042382907,0.022292227,0.14283277,-0.048225928,-0.1117935,-0.008192178,-0.049070787,0.03412682,-0.018658252,0.025076345,0.035077397,-0.05524437,0.012299929,0.062791735,0.023348171,0.050808977,-0.076110594,-0.037772734,0.12291826,-0.08061331,-0.0027335028,-0.03929957,-0.011675174,-0.0063161654,-0.03252493,-0.036080267,-0.013066698,0.045207977,0.0018767411,0.015164531,0.07917519,-0.0041911085,-0.011191951,0.06263393,0.060324844,2.2393564e-05,0.057348534,0.010155824,-0.021281406,0.03720739,-0.06321747,0.051605094,-0.04168179,0.01794252,0.007377583,0.047758404,-0.070614815,-0.05078461,-0.0041818144,0.04964884,0.04777484,0.12288719,-0.027163776,0.012760013,0.020886587,0.07391462,0.02943267,0.016962955,-0.11507204,-0.0033501203,-0.013022869,0.056379166,0.06173758,-0.06203757,-0.085357584,-0.042003825,0.08304808,-0.02014219,-0.045288615,-0.009941254,0.08342205,0.050629858,0.055556122,0.016008554,-0.024761152,-0.067147575,-0.054352477,0.0032041324,0.038982753,-0.02437299,0.027529055,-0.045644682,0.07254905,-0.085782,-0.05488508,0.04883402,-0.027006093,-0.028184513,-0.016307553,0.072414815,-0.00093334966,0.046019215,0.062737554,0.09463874,-0.05899409,0.054179247,0.028028945,0.027537622,-0.0038676672,-0.00066352764,0.07595068,0.09388147,-0.12690395,-0.032929618,0.03835259,-0.0034168495,0.008859931,0.059033785,0.06304893,0.08094804,0.07202956,-0.08555586,-0.050664626,0.033620335,0.05994187,0.044667706,-0.07259627,0.06630843,-0.06103252,0.023045579,-0.029758815,-0.05632243,0.020567484,-0.055425864,0.06151463,-0.046797495,-0.038302395,-0.06606006,-0.062305704,-0.03624354,-0.04548743,0.07383817,0.005459881,-0.041906536,-0.031259533,-0.018304422,-0.043417104,0.0019190069,-0.05033558,-0.08782575,0.001965428,-0.034266673,-0.08047644,0.03631003,0.0015440529,0.012438494,-0.015679924,0.07079968,-0.06873571,0.06900382,0.050102286,-0.02197224,0.01155985,-0.012372337,0.053015698,0.018567592,0.006768615,0.0832124,-0.05036031,0.031927448,-0.068021655,-0.022377081,0.023214638,0.017244453,0.024389766,0.050844815,-0.03902576,0.043855295,-0.010856822,-0.06045918,-0.023622818,-0.025059901,-0.024345115,0.065209255,0.00678513,0.027667997,0.0781194,-0.03534309,0.0045678993,0.063496545,-0.05534854,-0.0425236,-0.029117784,-0.038070124,-0.075147904,-0.027858445,0.03179113,-0.054454137,0.02307397,0.07382663,0.0633421,-0.048372447,-0.035749074,0.05787892,0.03918918,0.0028027042,0.036941133,0.07172883,0.03292294,0.062408905,-0.045047324,-0.04256992,-0.0020594385,0.000438101,-0.05090078,-0.06956237,0.030980187,0.04108264,0.052355263,0.025967514,0.029912783,0.112271726,-0.047709092,-0.06772823,-0.07481408,-0.024623785,-0.033566266,0.005933889,-0.032296747,0.013961671,-0.05447468,0.04769422,-0.023991883,0.078582026,0.025166858,-0.021246286,-0.03860569,-0.022628948,-0.005139028,0.040236115,0.008919591,-0.02299986,0.0066961255,-0.061895795,-0.06488169,-0.031322245,0.065233015,-0.04133891,0.089594625,-0.020746117,0.04822754,-0.011650236,0.07317322,-0.049528573,-0.023061877,0.004402126,-0.045841858,0.0682187,0.036087006,-0.06013982,0.0023257951,-0.058060706,-0.09637011,-0.07037435,0.06472344,-0.062300738,-0.029198274,-0.05717185,0.09133693,-0.0349493,0.009369803,0.07213091,0.029572312,0.030600436,0.010344057,0.017261531,-0.13485977,-0.034620926,0.07492111,-0.021934869,0.049810212,0.042495187,-0.004280171,0.037789643,-0.0301904,0.06027418,0.079794474,0.03405974,-0.01238363,0.0033907942,-0.010949445,-0.067083076,-0.026826976,0.028585272,-0.09204204,-0.0746262,0.012370923,-0.019578299,-0.009140789,-0.029829906,-0.004506351,-0.02110019,0.08880723,0.010098055,0.03623017,0.038047705,0.060850672,-0.055102833,0.048795775,0.04590193,-0.03067019,-0.021820918,-0.051928923,-0.093693614,-0.051410895,-0.019558268,0.051350676,-0.07191193,-0.07907471,0.062023558,0.009957633,-0.030412547,0.009452275,0.0022406753,0.023684299,0.054943975,0.07155468,0.0016658158,-0.029163057,-0.09135448,0.035018805,-0.0077352063,-0.02975482,-0.02198113,-0.015956257,0.001196329,0.059301108,-0.047282707,0.07447886,-0.010690464,-0.07947353,-0.06386776,-0.018553158,0.0680618,-0.0066758487,0.014477079,-0.0131339,-0.015626617,-0.012277653,0.02077466,-0.06151059,-0.00054268126,0.005198165,-0.0011287321,0.061141245,0.03450386,0.038866494,-0.019996412,0.04495101,-0.017394565,0.0128854485,0.09740863,0.046141442,0.060488515,0.077692695,0.0637765,0.062021174,-0.015936524,-0.03423507,-0.03190871,0.058764663,-0.05370288,-0.027150653,0.03506621,-0.031290285,0.0595432,0.0033837382,0.07838827,0.012238955,-0.06899297,-0.03128882,0.028705811,0.09659955,-0.0939393,-0.057982177,-0.07395611,0.027726969,0.016018815,-0.06284437,0.048673593,-0.042047713,-0.01781342,-0.054972354,0.023272753,-0.08278857,-0.027592268,-0.02298975,-0.018153533,0.0011503543,-0.034369957,0.011814297,-0.07905876,0.022886472,-0.03023644,0.0061722817,0.08799675,-0.01664676,-0.032439385,-0.0363902,0.019040382,-0.0034147762,-0.006104251,0.04749454,-0.0032518113,-0.017855037,0.009456152,-0.012345653,0.0036628821,0.044065975,-0.009378026,0.023733623,0.06765713,0.058707647,-0.043878622,-0.049059168,0.040642276,0.055034276,0.006649921,0.02966304,0.005805122,0.011993605,-0.03109365,-0.023492517,-0.024917474,0.04292059,-0.06616816,0.060308542,-0.05214447,0.06257068,0.06377968,-0.004457576,-0.052581344,-0.062370487,0.015764555,0.047837503,0.06866074,-0.003906284,-0.068475276,0.03754183,-0.051573116,0.05756827,-0.032609034,-0.07434358,0.05553527,0.05709523,-0.01066274,-0.052134894,0.061078545,0.03267943,0.02320934,0.08357609,0.07169924,-0.04264822,-0.082669504,0.0033226225,-0.06285716,0.024362767,-0.06227784,-0.094830476,0.044856176,-0.045301106,0.01668973,-0.051813643,-0.041752942,0.04638718,-0.019468715,0.025777306,-0.059464794,-0.07255604,-0.032176215,0.052091718,0.035561964,-0.040181488,-0.058265664,-0.041412253,-0.04641288,-0.05029765,0.009780366,-0.014168142,-0.039566573,-0.024917757,-0.013266302,-0.012352312,0.02074241,0.0030415067,0.02732296,0.014953549,0.020736532,0.02237186,-0.050452754,0.031774756,-0.019008528,-0.025654618,-0.022875216,0.0190724,0.0086130025,-0.011981696,0.018213525,0.005201422,0.039457634,0.009137495,-0.047406044,0.028183676,-0.0028211537,-0.0517529,-0.047659323,0.020391589,-0.08971703,0.021411361,-0.03915548,-0.031009167,-0.03671666,-0.07000732,0.016495137,0.048317038,-0.057025902,0.04341823,-0.03589243,-0.018654568,0.037177883,-0.020510359,0.0060618287,-0.09867869,-0.081969626,0.07001279,0.0037720304,-0.0045075295,0.016371563,0.00056852686,0.033265166,0.07438857,-0.0041715624,0.06574599,-0.036829237,-0.07097345,0.061417323,0.06732035,-0.014876208,0.022768827,0.0350223,-0.040724583,-0.0023472575,0.10166239,0.007570002,-0.037361644,0.050490186,-0.08587298,-0.062280707,0.009843368,0.026195768,0.007665235,0.040748484,0.013880233,-0.052196857,0.002302443,-0.07066459,-0.027393175,-0.013148914,-0.05664046,-0.023951426,-0.00100481,-0.037896022,0.06123111,0.028380552,-0.08701522,0.012827007,-0.028296191,-0.03449074,0.05869388,0.03446143,0.030076262,-0.07307779,0.075408176,0.027817886,-0.027077623,-0.09533286,-0.007676052,0.0011128855,0.0062861172,0.016341029,-0.0076756245,0.016454991,-0.057750814,-0.038145214,0.070639506,0.015710574,-0.0043359804,-0.06478154,-0.046490274,0.049862828,0.002021922,0.099436045,-0.025310514,-0.01602636,0.039643638,0.022709003,0.027620045,0.019389559,-0.097545214,-0.0040453714,0.047618434,-0.052742187,-0.06602547,-0.031699277,-0.04134394,0.080782145,-0.051589105,-0.0124111045,-0.0029168923,0.038749076,-0.060610685,-0.032400783,0.039626196,0.097690046,-0.0019681514,-0.075049184,-0.007136394,-0.017992657,0.06273113,-0.061378498,0.00622913,0.0650208,0.05254278,0.07996966,0.074436486,0.025194254,0.10029756,0.05708921,-0.08805787,0.03350717,-0.015019289,0.045630403,-0.040866695,-0.08067513,-0.017019413,-0.10274658,-0.020660538,-0.08282186,0.035335686,-0.12442203,-0.07183388,-0.038311362,-0.023610348,-0.00026221678,-0.06195172,0.0010614466,0.012973317,0.051159617,0.02658888,-0.05889197,0.026915202,0.07867087,0.09201034,-0.005585334,-0.016674241,-0.018654967,0.012391254,-0.027055461,0.00093792495,0.07574899,0.014625239,0.041629598,0.019267041,-0.03883219,0.003499295,0.0758321,0.057237938,0.021544838,0.04087443,0.06702082,0.023080423,0.032500368,-0.039158113,-0.09913497,-0.07162003,0.00930907,0.016414298,0.08437516,-0.07260142,0.06467746,0.061768513,-0.002373379,-0.06006806,0.043367174,0.05348391,0.029878221,-0.03714998,-0.01939008,0.026656255,0.053640086,-0.019831806,0.009303818,-0.09982508,0.06948928,0.06386814,-0.04267779,0.056441285,0.009147737,0.05071241,-0.026108703,0.02680298,-0.09964969,0.07374135,-0.02264853,0.09296357,-0.044705585,-0.005932692,-0.07133296,-0.057229858,0.0031630401,-0.021900509,-0.08223315,-0.0022815643,-0.023374803,0.06645513,-0.039664026,-0.09495347,-0.052594855,-0.056667425,0.03646088,-0.07299773,0.084115446,0.023738736,-0.04395043,-0.008712617,0.07150945,0.11117048,-0.047610536,-0.0022529273,-0.014170281,0.05735363,0.0032456163,0.011764843,-0.06569064,0.01909532,0.011187069,0.059102528,-0.0048164055,-0.018087532,-0.09846501,-0.018618941,0.020507272,-0.013529652,-0.09220992,0.014650995,-0.0565615,0.041263904,-0.0013493001,0.030802764,-0.06301414,0.0043386803,0.015127214,-0.018313548,0.05446428,-0.024660608,0.032923225,-0.09094343,-0.028189685,0.00944756,-0.017217718,-0.0674688,0.0026519592,-0.05493913,-0.00064022234,0.044576164,0.040362187,0.07606613,-0.0129536055,0.057673223,0.043490134,-0.0064768,0.046685457,0.15175965,-0.09595508,-0.10571945,0.04496563,-0.06280445,-0.038602315,-0.025517937,0.019687813,0.0614498,0.005912572,0.054262258,0.1568209,-0.07835717,0.085331425,-0.11549246,0.051738646,0.0783978,-0.0097774165,-0.084949374,-0.09762002,0.0553475,-0.0017657826,-0.02962,0.089427106,0.12706025,-0.052227214,-0.08518658,0.108433224,0.064649016,-0.14420977,0.065090016,0.10435502,-0.1356491,0.04978196,-0.10808808,-0.0689945,-0.021852382,0.039410964,-0.048458457,-0.010217451,-0.036557198,-0.079297476,0.07868095,-0.08477273,-0.05053507,0.023109885,-0.044088088,-0.04302981,-0.042570487,-0.084004425,-0.03255403,-0.046340566,-0.03529153,0.10357332,-0.16211617,0.030831495,-0.11620378,-0.120404884,-0.086576484,0.040105183,-0.10921572,0.020037249,0.0104140835,-0.051582597,-0.07993782,0.036614712,-0.0021640935,0.05782655,-0.00044086156,-0.00062211556,-0.0382297,-0.01830123,0.0017901714,-0.079916336,-0.0104338955,0.00022659289,-0.0056038755,-0.067257404,0.08000942,0.016675431,-0.010671885,0.06117505,0.057047952,0.003197022,-0.037758853,-0.045152754,0.00033308158,0.046502534,0.013790544,0.012914232,-0.070291854,-0.012678459,-0.0039797286,0.112503506,0.046160437,-0.015860558,0.008463702,0.0090099545,0.04550702,-0.032150954,0.006898098,-0.03187456,0.056287017,-0.02102955,0.0728386,-0.047920763,0.063583545,0.03794731,0.110043876,0.070901364,0.0052191545,0.072520055,0.061014008,-0.10099638,-0.030746454,-0.04277482,-0.054165863,-0.078336395,-0.05000439,-0.027544048,-0.026051586,0.037009437,-0.008381195,0.024650501,0.019705215,-0.08617618,0.069975555,0.06315452,0.01258476,0.06986988,-0.022159297,-0.040882904,-0.0029375665,-0.034316417,-0.05986171,0.048731185,0.0022933155,0.049968008,0.00975824,0.03445939,0.036714256,-0.07663903,-0.005196221,-0.027107902,-0.03560013,-0.035638865,-0.071800746,-0.04443502,0.06689388,-0.03538012,0.009861752,-0.052488316,-0.027882455,-0.026492165,-0.012950598,0.039691187,-0.014731884,0.024792446,-0.053696353,0.060671628,-0.033509865,0.063848495,-0.0046814918,0.018262893,-0.02003051,0.0070825475,-0.07065202,-0.008721384,-0.043525655,0.07169273,-0.045262035,0.036388766,-0.046963345,-0.0036061455,0.03429305,0.0040911282,0.012638723,0.041607887,-0.050357286,-0.07344096,0.05551212,-0.03333183,0.03344453,-0.024503121,0.08852749,0.03133511,0.061394617,-0.004055953,-0.02145213,0.036230855,0.050474245,-0.035256434,0.015475088,-0.058149166,-0.01848771,-0.03591342,-0.07610444,0.052834004,-0.013556655,-0.020059433,0.029646354,-0.06802284,0.04851081,-0.0026046087,0.059080143,-0.03007337,-0.008090374,-0.048162915,-0.011510269,-0.010806227,0.0012862841,0.03043767,-0.05731074,-0.047728952,-0.0674777,-0.020695986,0.056351304,-0.031556632,-0.030076362,0.07029113,-0.05623738,-0.021929353,0.05460975,-0.011551304,-0.02353846,0.017031867,0.083507545,0.06262595,0.013960886,-0.07180328,-0.07776439,-0.01643304,-0.051241577,-0.048702836,0.0077616614,0.06244847,-0.049290266,0.024996672,-0.08221684,-0.10103892,0.016500128,-0.047305547,0.02889552,0.053626515,0.012717561,0.007958474,-0.060557462,0.030836817,0.000840785,0.027759247,-0.043083485,0.08300297,-0.0674596,0.048806492,-0.044510297,0.06461342,-0.050267506,0.032404505,0.015327335,0.03420634,0.010917097,-0.05922364,-0.086159825,0.021479184,-0.014954622,-0.07749564,-0.08123453,0.048631296,0.08953289,-0.05807787,0.07801082,-0.04257817,0.013437471,0.057880677,0.026608359,0.015444776,0.050306465,0.022911146,-0.03866257,-0.008907299,-0.08768185,0.08312804,0.057232663,0.028634263,-0.0554279,-0.08376218,-0.08088891,-0.006146482,0.018516473,0.060971946,0.00022562593,-0.01382557,0.011350352,0.00056452176,0.047423612,0.034980744,0.04442462,0.08882868,0.00068931404,-0.028279502,0.0368855,0.018057553,-0.07324136,-0.00327217,-0.037541315,-0.02239529,0.019495232,-0.01327603,-0.04342196,0.0065532196,-0.042691607,-0.00523793,-0.053617965,0.046754982,0.08204319,0.017380442,0.009884636,0.043447196,-0.027598679,-0.02227451,-0.027273806,-0.007571838,-0.028509757,-0.03613928,0.052578367,-0.040072795,-0.0112086,0.0365475,0.0101287775,-0.0067980434,-0.06707462,0.081407525,0.06981646,-0.042856026,0.013681359,-0.061499238,0.056108788,0.017911922,0.05106892,-0.0014370186,0.05700831,0.012175498,0.03152054,0.064423755,-0.029272541,0.03178256,0.07943439,-0.055355243,0.032538693,-0.076992534,0.07016822,-0.021498485,-0.038538408,0.08630963,-0.08051548,0.07260708,-0.052198026,-0.031819753,0.035585225,0.020420399,-0.061344367,0.06072736,-0.02462742,0.01149661,-0.027296156,0.081132814,0.057403795,0.0032181412,-0.022641502,-0.009003811,-0.00072577025,0.05271244,-0.0521205,-0.026393585,0.0070231305,0.049264096,-0.013777266,-0.07551558,-0.027100813,-0.027369488,0.06699258,-0.03754012,-0.03491628,-0.030948263,0.08610101,0.05638353,0.00018096759,0.041745946,-0.05905094,-0.0594406,0.06686017,-0.0585245,0.013906702,0.059536323,0.07116585,0.10715864,0.001536471,0.044624317,-0.0323725,-0.0849911,0.02308603,0.046153873,0.09872055,0.0345611,0.039279893,0.018831396,-0.057467435,0.06482834,0.10484353,-0.00033262052,-0.061632663,-0.00019093388,0.027124694,-0.086146854,0.047601696,0.098203525,0.00767597,0.007862086,-0.043132994,-0.08081692,-0.08134959,0.0030147443,0.021702398,-0.033520643,0.034086794,-0.0060291123,-0.023072131,-0.08152789,-0.034554783,-0.021236952,-0.029666381,0.07527335,0.03814412,-0.075720854,-0.041653953,-0.07948407,-0.0074760965,-0.057790667,-0.06957505,-0.06703817,-0.027124554,-0.020851761,-0.059375644,-0.0378169,-0.08759636,0.081461065,0.044155657,0.09058395,0.031104695,0.018819682,-0.038450636,-0.01028355,-0.081151225,-0.03743554,0.023189373,0.064091384,0.12626272,-0.07854687,0.05404272,-0.07612268,0.10409778,0.07332597,-0.065360524,0.02598277,-0.013870243,-0.12677372,-0.023684178,0.056838658,-0.036973376,-0.09022448,-0.0010290241,0.056293506,0.11107326,-0.0018096598,-0.07651787,-0.055985052,0.020839935,0.06982755,0.051702883,0.08183753,-0.038175907,-0.041052878,0.032483604,0.021935105,-0.070210606,-0.054634113,0.029086336,-0.012311626,0.038241908,-0.10559077,-0.027664853,0.052684676,0.0038463334,0.02623005,-0.082696274,0.043863215,0.09367295,0.002618232,0.033303104,0.047526006,-0.030274794,-0.029082116,-0.07898977,0.101005025,-0.049583558,0.004427534,-0.025663646,0.056061897,0.04171915,0.042823445,0.10265332,-0.050782904,-0.05194769,-0.0128354775,-0.025199376,0.001032994,-0.05024719,0.053266834,0.05406795,-0.028264025,-0.0266132,-0.03027819,0.0010061949,0.013520361,-0.059425995,-0.07158458,0.04695757,0.011497095,-0.12798487,-0.03188611,0.06706216,-0.040981244,-0.020900156,-0.014599663,-0.0027138088,-0.07292034,0.013911357,0.02724722,0.035539094,0.00914182,-0.029363118,0.08361074,0.031010868,0.041750316,0.11080864,-0.024393257,-0.016636264,-0.031743128,0.04471368,-0.053857755,-0.0171664,-0.001315701,-0.0059324913,-0.025416415,0.044526443,0.0067219925,0.085758805,0.019412268,0.12572458,0.09511587,0.003977069,0.0036047255,0.043771215,-0.025934847,-0.0194165,-0.00023284592,-0.10640429,0.013915558,0.094324134,0.069804415,-0.03614851,-0.03937482,-0.012108684,-0.045340378,-0.11776677,-0.04204601,-0.066415384,-0.002207615,-0.013863049,-0.04531365,-0.07541925,-0.05168127,0.03620531,-0.04176724,-0.0490109,0.04114618,-0.08584515,0.03192324,-0.020149466,-0.038333647,-0.0004341118,0.08176827,-0.0346755,0.035320845,-0.016920932,-0.04913899,-0.03897708,0.0095272,0.04676921,-0.0013824708,-0.0010989194,0.06361552,0.010495235,-0.024056304,0.023966953,-0.00216368,-0.016003687,-0.055108882,-0.026670236,-0.012011806,-0.08937057,-0.022588128,0.015812378,-0.019160453,-0.040788174,0.022160012,0.0502347,0.092049725,-0.06210431,-0.036316548,-0.015098032,0.06690726,0.117834345,-0.0043885126,-0.0045250193,0.09746552,0.16498683,-0.057484247,-0.058719546,-0.030817892,0.04894347,-0.08805333,0.023433544,0.03813176,0.038177796,0.0025824627,-0.021307608,0.018231155,0.049791776,0.05394569,-0.04983769,-0.09253715,-0.024980253,0.049455944,0.05356984,-0.06789124,0.116065174,0.050329942,-0.06938048,0.062320154,-0.033541575,-0.07122504,0.0657644,0.020289507,-0.026222665,-0.15583451,-0.034776688,0.021293974,-0.050888754,0.07694235,-0.054894716,-0.045712844,0.051171493,0.065459326,0.024111386,-0.022310209,0.056908794,-0.077824116,0.028720727,0.06667526,0.052464098,-0.089433044,0.052513923,-0.020483023,0.05001446,0.0162385,-0.06944746,-0.017999047,0.01987277,-0.024403336,-0.024732245,-0.027126998,-0.015360245,-0.029164787,-0.034158524,0.056823574,0.016574882,-0.053357374,0.009022573,-0.001610764,0.026818467,0.017972687,0.007302405,-0.0415597,0.03541975,0.0024774522,0.05681804,0.005408981,0.059102617,-0.03458837,0.07105675,-0.057467572,0.09412856,-0.00443854,-0.010217232,-0.09026753,0.036885053,0.04313105,-0.05198876,-0.01029642,-0.0038876424,-0.067248076,-0.03258014,0.048909977,0.031971447,-0.05676906,-0.06821461,-0.009788556,0.09291486,-0.06506227,0.047098573,-0.055288736,0.017061373,-0.08335343,-0.024137827,-0.0014582119,0.046601124,-0.0242581,-0.080542475,0.021677917,0.029336067,-0.037526526,0.06420973,0.0641618,-0.009335787,-0.097412065,-0.05345882,-0.016241057,-0.07997683,-0.038121063,0.058524694,-0.07853533,0.042261425,-0.060382392,0.004214819,-0.050147794,-0.030903874,-0.00096609676,0.013378102,0.04531161,-0.059554588,0.035606336,0.0125823,-0.082490996,0.053805467,-0.088075325,-0.027802842,-0.066280305,0.027107107,0.033863895,0.048812106,-0.046122245,-0.0017266145,-0.07097225,-0.07113643,0.053657737,-0.0587121,-0.06789212,-0.03127777,-0.0005903442,0.03453732,-0.0076168743,0.02142357,-0.034886464,-0.083033025,-0.031898912,0.078273706,-0.04595959,0.016327588,0.029417071,0.041386113,-0.058633916,0.026625575,0.061841376,-0.020972868,0.0857492,0.0026315583,-0.05454635,-0.023978658,0.031095939,-0.013002353,0.013174182,-0.05044644,0.045235142,-0.043007564,0.023553915,0.036923952,-0.019101162,-0.027443694,-0.018913744,0.07261011,0.014782853,-0.013704551,0.01115631,-0.03212282,-0.012386771,-0.02700451,-0.078523375,0.04327528,-0.0032956072,0.0076011955,0.03886443,-0.03635724,-0.070845954,-0.044416282,0.08043213,-0.05711404,-0.051960215,-0.055460785,0.02085462,0.027265098,0.029857257,0.0034869057,-0.021263264,0.053644594,-0.005988808,0.06589881,-0.08738909,0.07021147,-0.012101664,0.0019320747,0.018390527,0.060225535,0.07166468,-0.016963398,-0.028401284,-0.0038298338,0.009608714,0.012589551,-0.075157106,0.017428255,0.012432608,0.060996022,0.05903009,-0.05841436,0.075503655,-0.024966031,0.023732679,-0.029850833,0.01704856,0.01927949,-0.0049172486,-0.0063551404,0.116681606,0.00042124535,-0.021265984,0.016929887,-0.085428365,-0.08445121,0.00280444,-0.0023388534,0.03802134,0.0036888542,0.09744916,0.09927789,-0.016712384,0.06408232,-0.023708342,-0.043358803,-0.015648024,-0.011670664,-0.0072015515,0.004445451,-0.0016403007,-4.23982e-05,-0.0063531357,-0.030600006,0.019997612,0.04382094,-0.025135253,0.014532477,-0.07526674,0.04812502,0.025394551,-0.08063105,0.09574653,-0.044298004,-0.01038198,-0.103857346,-0.03450106,-0.067055106,0.10497478,0.0010534392,-0.020806124,-0.06621075,-0.023409681,0.051027652,0.049314544,-0.0074353446,0.006088077,-0.044976328,-0.07144101,0.063051395,-0.051925555,0.00014455989,-0.03279603,-0.094421394,0.006030234,-0.11754134,0.057092376,-0.04532383,-0.07705014,-0.073989354,0.016958736,0.00091516785,0.013385836,0.06710124,0.070126295,-0.06258557,-0.044085648,-0.005455901,0.011921721,0.059348095,-0.0036178916,0.010275404,0.059551243,-0.04554312,-0.030986484,-0.029018113,-0.015721252,-0.009272056,-0.014793951,0.035125308,-0.06448058,-0.07404001,0.04218637,-0.0124245705,-0.046678174,-0.033156548,-0.044434596,-0.06364787,-0.012782783,-0.016557822,0.0023717477,-0.041802846,0.035668302,-0.0071117794,0.0389205,0.023867425,-0.047991186,-0.018637266,-0.04065957,-0.013241881,0.0013429062,0.03440328,0.009101594,-0.0060299546,-0.047765583,-0.06442516,0.019525273,0.048319887,-0.05431241,-0.03718949,-0.031633206,-0.07030853,-0.033225022,0.047066435,-0.067039125,-0.03925408,0.014049147,-0.06558595,0.019239433,0.02340453,-0.053479012,-0.006364034,0.026288725,-0.01718847,-0.014106219,0.05959552,-0.054073837,-0.045503944,0.060877994,-0.053744722,0.065396905,-0.046389353,0.010818387,-0.07390202,-0.011690417,0.052383725,0.022048932,0.045050014,-0.035714466,0.05157659,0.053884,-0.055076588,-0.08324195,-0.018695265,0.056801073,-0.06764759,-0.041338198,-0.05695989,0.002868183,-0.0058322516,-0.012733344,0.036778897,-0.062464926,0.039539393,-0.01302117,-0.029033815,0.04809802,-0.022118894,0.011150975,-0.028748477,-0.041414026,0.0045223106,0.026697723,-0.06929274,-0.02134865,0.057122555,-0.035358895,-0.0647192,-0.05781641,0.07153066,-0.05653686,0.0325644,-0.015775396,4.8607115e-05,-0.04043645,0.08245175,-0.048000928,0.025306405,-0.03481422,-0.011221751,-0.052721974,0.028285969,-0.01610746,-0.039475936,0.024317216,0.04901023,0.053545337,0.035407893,0.11158991,-0.04816354,0.025286023,0.052694105,0.048965972,0.03946262,-0.005747097,-0.049104042,0.07087147,-0.06588984,-0.031288937,0.000520991,0.024584824,-0.035238057,-0.023737228,0.03463392,-0.023500653,-0.13548209,0.0017076496,-0.0528156,-0.03726321,-0.020425905,-0.0438243,-0.067283854,-0.06183752,-0.010591104,-0.048794877,-0.11639579,0.04681669,-0.105984464,0.05383579,-0.0215833,0.043317974,-0.034013197,-0.06259719,0.059392687,0.05905715,0.04646188,0.010684803,0.080520414,-0.06416423,0.058284864,0.023151936,0.07149599,0.031795148,0.09420213,0.0008663476,0.06054374,-0.036567662,0.02859751,0.051426917,0.008409404,0.0025279394,-0.07638523,-0.09338762,0.03334704,0.06056484,-0.05912136,0.0179475,-0.010356038,-0.04875931,0.048301272,-0.03509,-0.026791535,0.078674026,-0.004754578,-0.019153602,-0.024415065,-0.010961934,0.037263293,0.01922025,-0.031598933,-0.031368237,0.09348967,0.024399007,-0.0320457,-0.043295916,0.03301056,0.060102664,-0.0330857,-0.027049353,-0.11799485,0.0422683,0.03964149,0.0043355175,0.07082515,-0.02234493,0.017811393,-0.04736487,-0.06347321,0.013664746,-0.024583109,0.03760345,-0.027904319,0.06207536,-0.089544505,0.08489002,-0.07027624,0.023897357,0.02216452,-0.06017564,-0.023722421,-0.09973051,-0.032136578,-0.123322934,0.06802062,-0.02145774,-0.05622529,-0.016909398,-0.035420924,0.014784844,0.06555349,0.042048745,0.03751648,0.08222396,-0.03436606,-0.016603053,-0.052983254,-0.082391754,-0.028850833,-0.06477648,-0.050248757,0.08476019,-0.059393413,0.031639002,0.020850929,-0.06715992,0.012794552,0.08999316,-0.036568783,0.0032513402,0.05068833,-0.042980958,0.036741704,0.03613982,-0.036803562,0.0024256988,-0.03013007,-0.06810204,0.06501804,-0.017694594,-8.6324326e-05,0.026013177,0.028215444,0.021071887,0.027858606,0.025578303,0.002800532,-0.034818053,-0.05323703,-0.06866001,0.0040404056,0.03147977,0.028381111,0.004293481,-0.009243764,0.075868204,0.04534423,0.0045658303,-0.033672247,0.047619563,-0.059908297,0.06998819,0.05364365,0.03358653,-0.012720699,0.03094104,-0.020660626,0.069766715,0.07079387,-0.08324659,-0.098085135,0.044177767,0.06533548,-0.035817485,-0.038727466,0.04789256,0.010741714,-0.030904233,0.073482886,0.0047864607,-0.0607593,-0.044310804,0.06631576,-0.05146399,0.03680052,0.012333977,-0.08614069,0.03180054,0.027908495,0.058678415,0.012315885,0.021084238,-0.08240245,-0.04702549,0.06573177,-0.09179349,0.01997879,0.07555931,-0.09471848,0.044450626,-0.013969898,-0.06272274,0.018156242,-0.026553968,-0.041592274,-0.012003498,0.032460388,0.005818442,0.021440899,-0.048123416,-0.037273727,-0.02116901,-0.008577032,-0.06695225,0.005332143,0.02518601,0.038504265,-0.030446157,-0.042865306,0.009060056,-0.055512287,0.07690015,-0.112187214,0.041548707,0.06479271,-0.05676213,0.042877607,0.05140258,0.021215122,-0.033224735,0.088983946,-0.036011748,0.00819978,-0.06707172,0.03845378,-0.07253958,0.02736878,0.07139407,0.023963913,-0.035511885,-0.003793474,0.047916006,0.0816165,0.014624942,0.025262196,0.019449407,-0.06417338,-0.030675814,0.019733466,0.028706849,-0.087857865,-0.10551232,0.06444932,-0.049991347,0.046479005,-0.006793898,0.0049185846,0.045580413,0.03414528,-0.04192372,-0.0755917,-0.046645835,0.004531177,0.05356763,-0.059520178,-0.008866701,-0.0715222,0.0028745981,-0.029414287,-0.01125991,-0.03880471,0.035939015,-0.025859376,0.0010697953,0.06420125,-0.038467854,0.025402311,0.046161965,-0.023982532,-0.057386752,0.008651656,0.035414405,-0.0041660024,-0.020866044,-0.0044102804,0.09851984,-0.010688888,-0.03287831,0.008120683,0.05648299,0.03556873,-0.019539172,0.052736055,0.05310171,0.0590693,0.038292818,0.024102485,0.021502739,-0.044492263,0.011251394,0.037953064,-0.021646857,-0.056143306,-0.036674984,-0.00090236455,0.00414568,-0.01942747,-0.0012436426,-0.0024587696,-0.050620083,0.07912404,0.06229682,-0.05378312,0.08096667,0.0034644578,0.019802148,0.008347923,0.011853587,-0.010289949,0.01616168,-0.051999524,-0.07455651,-0.06583171,0.08747028,-0.021440936,0.013495876,0.0012948181,0.07257645,0.044452734,-0.032923337,0.062394314,-0.096238725,0.045609962,-0.0005077544,0.052434646,0.076138034,-0.10056809,-0.06017726,0.038416762,-0.045235347,-0.08285438,-0.01815535,-0.03450659,0.03624956,0.101855874,-0.00052902295,0.03602582,0.104671635,-0.054746415,0.008946409,0.043720096,0.0040738094,-0.07043689,0.060298678,0.05754944,0.050553255,-0.02749808,0.018229092,-0.0018449674,-0.08517229,0.062139742,-0.07861343,0.03937423,-0.05651109,0.03126239,-0.008675813,-0.061280403,0.06575035,0.05652881,-0.044763926,0.03926084,0.008499015,0.036819555,-0.012277232,0.03904377,-0.019744772,-0.023194505,0.07525826,-0.026429104,0.027726386,0.06091566,0.010853324,-0.015621756,-0.024895515,0.011758406,-0.011314456,0.035587933,0.0075306837,-0.0064480263,0.02982086,0.031658106,0.04675903,0.08843973,0.011684037,0.048905026,-0.06516504,0.049554497,-0.057997648,0.049989156,0.09263621,-0.101944156,0.029022794,0.054271877,0.025718858,-0.053403523,-0.058862794,-0.04176923,-0.039397705,0.030253539,0.046114527,0.049385462,0.097926,-0.04309465,-0.0019022758,-0.061093505,0.07181582,-0.019249769,-0.05315284,0.054230213,-0.07879573,-0.08592621,-0.01158559,-0.041001633,0.021542907,-0.03274777,-0.0016290457,-0.02020255,-0.040176112,-0.062306523,-0.006087155,-0.027511405,-0.014768867,-0.005177804,0.054233044,-0.050292626,0.020612657,-0.09916799,-0.03305396,-0.03347485,-0.07573547,0.017068375,-0.035660803,-0.016733538,-0.014912745,-0.038979467,0.0025011858,0.07861334,0.046794992,-0.019207666,0.06216518,-0.02768337,-0.013115394,0.055566836,0.04260862,-0.029249081,-0.053049095,0.03146497,-0.033665325,0.03619514,-0.0056014447,-0.015307978,-0.028077116,0.061082534,0.053554848,0.050438643,0.069589935,-0.022601318,0.06535155,0.0072553703,-0.04417475,0.056596894,0.05006218,0.06904851,-0.076507635,0.0069764024,0.017632106,-0.051392335,-0.016822645,0.06396066,-0.0033148287,-0.021293506,0.06720709,0.018785195,-0.004935802,-0.08861838,-0.015825322,0.048815258,-0.073090546,0.001169501,-0.07184977,0.08162119,-0.03869353,-0.017183268,0.031543124,0.05771056,-0.062362134,0.044987787,0.099662736,0.03652515,-0.011097371,-0.070004374,0.06050392,-0.026660975,0.004916474,-0.027602393,-0.031419877,0.026648432,0.019646866,0.040664773,0.07309347,0.049501974,-0.040118393,-0.05116811,-0.023114601,0.02585646,-0.08131293,-0.06338352,-0.02963393,-0.033411723,-0.04335246,0.106011726,-0.02957542,0.036153503,0.015467692,-0.0892854,0.045044556,-0.051068615,0.046168685,-0.047672167,0.13964427,-0.06785029,0.055033326,0.06782697,-0.01143235,0.051293246,0.03645447,0.03302698,0.013073434,-0.051812265,0.06721551,0.035507225,-0.0570238,-0.057847697,0.015885046,0.03165372,-0.055849172,-0.032221105,-0.017362248,0.05696198,-0.069095105,-0.008627637,-0.018461382,-0.094731994,-0.02117087,-0.03701268,-0.08778015,-0.011037949,0.05594912,0.016081063,-0.090593405,0.030777669,-0.043927114,-0.0774715,0.028869763,-0.019994691,0.07222174,0.06862059,-0.0020188764,0.18155788,-0.027706727,-0.0652828,0.10051499,0.045779012,-0.019792004,0.05080664,-0.057095397,0.010214328,0.010919498,0.07783412,-0.053721145,0.066504374,-0.05735421,0.028474707,-0.026155248,-0.07042185,0.09075983,-0.003373064,0.12359809,0.03261412,0.043652005,-0.095816426,-0.036023825,0.0543324,-0.0049718376,-0.023710163,-0.07843144,-0.013522904,-0.06810807,0.03548117,-0.048435856,0.045104824,0.010735075,-0.017129885,-0.11914591,-0.06192627,0.056036077,0.09110177,-0.06781936,0.0019023888,-0.087814026,0.022058276,0.05116116,0.04023715,0.069388054,-0.009906233,0.08025533,-0.033202868,0.1305742,0.017168136,0.018616734,0.04261626,-0.07926515,-0.011400565,0.050601825,0.047205053,-0.02687113,-0.02281576,3.4098193e-05,0.10088649,0.047156572,-0.023389079,0.007263771,0.10404079,-0.02872546,-0.030379431,0.05124851,0.058076344,0.0061296495,0.008025494,0.045220092,0.060388234,-0.05615804,-0.018523214,0.030438399,0.061613385,-0.0045660622,-0.05825178,0.012236868,-0.0643231,-0.07474934,0.023269625,0.09213737,-0.084718116,-0.05201297,0.06225872,0.027140448,0.09866392,-0.023879139,0.05370872,0.048346166,0.053653736,-0.04446469,0.040711448,0.045324314,0.0119761005,-0.025150858,0.051336147,-0.054902777,0.062104862,0.09826001,-0.016300425,-0.009405615,0.070744224,0.021036636,0.06372892,0.06581125,-0.029144151,0.043550994,0.07559976,-0.0040065264,0.051783785,0.038464196,-0.04739951,0.052322756,0.05212876,-0.06430737,-0.07582342,-0.0095503125,0.05592966,0.07534017,0.057771914,-0.07408743,-0.01740453,-0.06802876,-0.06309456,0.039809987,-0.06543877,-0.06400381,-0.092377566,-0.009487935,0.10925125,-0.045440916,-0.10174359,-0.046019513,0.08122096,0.07081035,-0.013107231,0.036148157,0.05436602,0.050333675,0.047225736,-0.022861626,0.07628661,0.062036883,-0.0024668172,-0.05664193,-0.018537702,-0.0425908,0.048506923,-0.040004186,0.07728144,0.008913512,0.06060747,-0.07917534,0.021032773,-0.036450975,-0.02660616,0.008296107,0.0046912995,0.00068585057,0.03003719,0.020691631,0.06993075,0.09287087,-0.061420158,-0.05855485,0.027333573,-0.013562495,0.06753747,-0.07985529,-0.027173929,-0.043033414,0.054415565,0.0540335,-0.01475485,0.028192995,-0.07741993,-0.019984914,0.06643026,0.014896856,0.06533941,0.045688096,0.0538967,0.0016631642,-0.023153512,-0.071623966,-0.081177,-0.06174628,0.037403356,-0.052222457,-0.08245282,-0.03702462,-0.070817195,0.033838805,0.0057154237,0.07915308,-0.056164194,0.08119738,-0.042081594,-0.05418698,0.03529599,0.0455388,-0.053769737,-0.003870827,-0.030850498,0.08318094,0.016554566,0.0039595254,-0.048535325,0.030457286,-0.041418042,0.060138814,-0.052497692,0.016429022,0.036570705,-0.031978622,0.007968066,-0.005460454,-0.03085392,-0.05787424,0.062062103,-0.044784896,-0.007144654,-0.078809984,-0.037688825,0.03490485,-0.0039894786,-0.012281873,-0.018117277,0.06193611,0.06079055,0.0458079,-0.05725077,-0.076169945,0.01760401,0.027850706,-0.009162755,-0.08038955,-0.042207137,-0.037584923,0.0091493605,-0.051275652,-0.07170536,-0.042964373,-0.013525661,0.06543975,-0.055359475,-0.013502694,0.05825778,0.0044205976,-0.051251605,0.0040175007,-0.0005914655,0.023862649,-0.060919177,-0.050359767,-0.03390492,-0.013061099,0.020927174,0.04104609,-0.0043977965,0.083544634,-0.07870085,-0.057722267,-0.07246583,-0.034587465,0.027550174,-0.02275885,-0.03518773,0.053318176,0.032606345,-0.0005869289,-0.05797202,-0.025587328,0.041239247,0.019191163,-0.056753993,-0.024706554,-0.0761969,-0.06687098,-0.0037352634,0.010456778,-0.073223434,-0.07130663,0.058726147,0.07146933,0.06215006,0.04440295,0.09422035,0.033662315,0.0015803291,0.014835711,-0.03745385,0.022214495,0.0300402,-0.058936447,-0.0409239,0.018148301,-0.09077869,-0.0801878,-0.020534132,-0.026780682,0.06654019,0.04185892,0.022347057,0.06788401,-0.053394213,0.060533788,-0.057530668,-0.03005336,-0.026240127,-0.012930092,0.049476463,0.045607567,0.01857559,0.043429624,0.06521398,-0.017336056,-0.06690765,-0.043105,-0.0084058475,0.0050061923,-0.07634242,0.018239243,-0.045034118,0.002756803,-0.048693962,0.018692829,-0.043650776,-0.05631445,0.04380433,-0.01011771,-0.09263813,-0.008987661,0.03564237,-0.006853359,0.038630582,0.0010752681,-0.060323626,0.049427375,0.07855578,0.0121376915,-0.03380195,0.09304085,-0.06758227,0.0155315595,-0.00030480465,0.024767164,0.015109642,-0.07977688,-0.030643363,-0.051715504,0.04314042,0.033709317,-0.100035906,-0.05510733,-0.027151963,0.004755697,0.0632739,0.011185252,0.0063180155,0.010741918,0.0091058025,-0.09274317,-0.02895094,0.06143984,0.05082652,-0.04033674,0.04543517,-0.0660011,0.043469552,0.06734085,0.041019246,-0.014985042,0.08340227,-0.052058563,-0.06328801,-0.05840746,-0.020410163,-0.0007887537,-0.112991296,-0.05215033,-0.04970684,0.0108998995,-0.008580068,-0.011436145,0.06275977,-0.029800434,-0.09158007,0.009126116,-0.04229775,-0.050911516,0.019909307,-0.02497276,0.014262919,-0.040037308,0.067821376,0.011323981,0.079649,-0.06452196,-0.017395914,-0.050701316,-0.02185936,0.021943849,0.006397086,-0.010149767,0.10261468,-0.07257091,-0.022806231,0.010425083,-0.025935372,-0.018500637,-0.048421126,-0.0047141155,-0.070445955,-0.007987873,0.043323547,-0.061788037,-0.0066409195,0.0186403,-0.026349634,-0.026229981,0.030061645,-0.027106522,0.06360752,-0.023759745,-0.03393818,-0.042712063,0.065481715,-0.08036485,0.017224783,0.028326059,-0.06592125,-0.038109567,0.043563336,0.0067974348,0.08318735,0.020906014,-0.04559289,-0.097037956,0.043789208,0.00048638135,-0.05449569,0.07224815,0.15825613,-0.028572045,0.057914346,-0.015971752,-0.08393363,0.10372193,-0.055322632,-0.034445368,0.017798327,-0.052653383,0.02393774,0.06946049,-0.02584707,-0.0025174422,0.07182793,-0.041756615,-0.044404063,-0.03968562,-0.09941258,-0.0292085,0.043758646,-0.008705396,0.072466955,-0.0020883325,-0.015517139,-0.009916235,-0.051441226,-0.09809001,-0.06139187,0.03618989,-0.006207362,-0.006173454,0.035109002,-0.034796935,0.0739035,-0.0025109763,-0.04670212,0.0369679,-0.050834592,0.06685718,-0.035758305,0.043868344,-0.042636514,0.05250008,-0.031350117,0.08379844,0.03007963,0.0044063195,-0.022099495,-0.07117753,0.012893915,0.024685234,-0.041257072,-0.06383276,0.092194706,0.015088276,0.036632545,-0.044568755,0.04058781,0.0070562493,0.019012619,-0.0014820739,-0.016911002,0.021120789,-0.081674695,-0.07578558,0.05544773,-0.04539345,-0.086129785,0.038367182,-0.004881242,-0.016746769,-0.016086526,-0.07387395,0.057641037,-0.04868782,-0.053522084,0.016660048,-0.022799918,0.008918179,0.073951796,0.025612326,-0.010670755,-0.07672644,-0.07362514,0.029560162,0.03869628,-0.020817107,0.017445695,0.050853256,0.04404114,-0.093537904,0.051171288,0.031271864,0.05522907,-0.06695872,-0.036486555,0.01845938,0.049285524,0.030525703,-0.04185506,-0.014434722,-0.013002603,-0.040215585,0.04466911,0.031310882,0.0439313,0.033614255,0.016670996,-0.033703584,-0.035088096,0.003154744,-0.031172588,0.09199191,-0.012762765,-0.016221015,0.038239036,-0.051836625,0.0448593,-0.031153392,0.022585124,0.07966531,0.088181295,0.021623086,0.016304217,-0.01728919,0.039873667,0.028477168,0.070687674,-0.04326253,-0.087822,0.027631896,-0.029670272,0.011480694,0.0037617267,-0.0010681166,-0.0094712535,0.11887334,-0.00269341,0.055839814,-0.019847961,-0.10698984,