0.089235865,-0.052139614,-0.315894,-0.239655,0.054130297,0.16203552,-0.36968222,0.02822336,0.042765368,0.33116305,0.021049427,-0.30062228,0.21308646,0.2162497,-0.18755102,-0.020544972,-0.32475558,-0.23478568,0.244117,-0.17507249,0.20384876,0.0037446069,-0.20615067,0.08896396,-0.20673029,-0.014522426,-0.30788544,-0.07467655,0.16136461,-0.02851253,-0.21008842,0.056896772,-0.03498149,0.08794232,0.17369013,-0.0988607,0.025611155,0.24809277,-0.16242693,-0.054979783,0.013004357,0.14224903,-0.2916489,0.016946612,-0.29046667,0.025994672,-0.17370185,0.31046903,0.23184896,0.09862938,-0.14791957,-0.28304154,-0.26207557,-0.23655726,0.059455715,0.3149813,0.18994737,0.19772758,0.2720086,0.16725191,0.30476525,0.26291537,0.2770714,-0.32611555,0.16597642,-0.027744673,0.08545516,0.039653406,0.06780255,-0.32342023,0.025352083,-0.106354445,-0.06913565,-0.22570261,-0.21387322,-0.19825882,-0.06667437,0.26927724,0.19277506,0.020615628,-0.06667293,-0.27054662,-0.09444041,0.12314352,-0.14012949,-0.18612832,0.10678093,0.08102779,0.04129874,-0.05224703,0.2480165,0.25448465,-0.24329178,0.2636495,-0.3461505,-0.29699495,-0.010986658,0.36241734,-0.18058325,0.11220218,0.3224251,-0.23601827,-0.05394347,0.029337514,-0.27747768,0.15347457,0.15931818,-0.19324651,-0.14586727,-0.061539922,-0.3836689,-0.07617335,-0.12254103,-0.28621238,0.057091538,0.22021572,0.28938022,0.31097558,0.22991574,-0.008767502,0.20718509,0.25925583,0.16589563,0.17491496,0.21848933,-0.30796304,-0.25164464,-0.055455703,0.052641544,-0.102938905,0.25039628,0.2863459,-0.10792569,0.27478033,-0.35631314,0.09973329,0.29473954,-0.31299147,-0.08768305,-0.05183931,0.13871899,0.06804484,-0.22124079,0.21817684