0.19203782,-0.14817385,0.36497712,0.31981948,0.004219396,-0.22259127,0.14672157,-0.079693854,0.029249163,-0.27075765,0.011623887,-0.24352439,0.3182968,-0.024573268,-0.19502933,0.107402354,0.08737722,-0.029906183,0.13392882,-0.26034576,0.02351535,0.32720667,0.2964751,0.11992107,-0.15739223,-0.110563606,-0.0432332,0.37660837,0.33693194,0.15698974,0.23003855,-0.30607834,-0.027240874,0.0047049792,-0.15619026,-0.05756753,-0.025696712,0.21130767,0.34782994,0.17404163,0.3009753,0.15625133,0.31320396,-0.20194416,0.25922757,-0.11381661,-0.24334939,-0.04760309,0.1895491,-0.20454788,-0.3448831,0.28854254,0.33522934,0.24938336,0.27411836,0.2572967,0.27876475,-0.3559386,-0.09802909,0.30171677,-0.27313632,0.20788278,0.3103296,0.06285922,-0.22510484,-0.22134282,-0.19857307,-0.34080964,0.2699897,0.12764613,0.31114668,0.34548816,-0.32618755,0.1904532,0.057828724,-0.27249253,-0.13923691,0.07706759,0.08999532,0.22684707,0.31606603,-0.10233656,0.089276604,-0.25669277,-0.27412447,0.31499493,-0.2954068,0.29139814,-0.30098537,-0.14949258,0.08508405,-0.19046585,-0.2022372,0.1898058,-0.049836624,0.22711162,-0.334066,-0.18613985,0.12519635,-0.16399749,-0.18615282,0.070406415,-0.2677858,-0.15650198,0.033925727,-0.29727834,-0.043638337,-0.26672187,-0.029895732,0.25403917,-0.064982705,-0.072110645,-0.29167178,-0.22792193,0.13670017,-0.09274588,0.24495012,0.008175588,-0.042556733,0.36856094,-0.16866553,0.22596824,0.034057826,-0.2700879,-0.25503808,0.051880777,-0.3169321,-0.06050463,0.09380377,-0.3070331,-0.17898072,-0.005782726,0.016303658,-0.042402197,-0.15801197,0.21142155,-0.2146377,-0.27275127,0.11803976,-0.25625783,-0.019547299,0.02791986,0.25908878,-0.17218025