0.0602144,-0.14780144,-0.13135271,-0.06789564,0.07871021,-0.0769265,-0.009488285,0.0009874748,-0.06507768,0.124448344,0.16260172,-0.09901945,-0.08330174,-0.012684993,-0.12786156,0.06642489,0.086171426,-0.009107975,-0.12666707,0.1978649,0.09528538,-0.11256993,0.033566434,0.018534979,-0.1241393,-0.06596811,0.05707538,0.00918203,-0.10355533,0.02651092,-0.063094355,0.026174203,0.14087376,0.12458433,-0.01037695,0.0035268008,0.07484112,0.0006229877,-0.17522274,0.036061414,0.15365085,-0.096058026,-0.096971594,0.034055255,0.038680475,-0.077057,0.067788094,0.09419501,-0.040354133,0.06290462,-0.042934783,0.20994018,-0.033994805,0.13301964,-0.087904416,0.14175597,0.028201198,-0.063917145,-0.062683426,0.077861734,-0.08657652,-0.1135733,0.10314402,0.118922375,-0.045416836,-0.08490661,-0.14338413,0.09497952,0.1800209,0.09990558,-0.006487117,0.07944844,-0.14681663,-0.009779037,-0.041629378,-0.1577598,-0.075391226,-0.115414485,0.10393141,-0.01656303,-0.103513725,0.16613808,0.061808128,0.11155599,0.0055514746,0.11320349,0.19014399,-0.041702405,-0.17231801,0.035013456,0.061268076,0.12776089,-0.015295731,0.07300565,-0.16478243,0.04798231,0.019381154,0.022839524,0.10416933,0.07323622,-0.14583275,-0.120791554,0.1263919,-0.00761381,-0.11671609,0.20377831,-0.06643718,0.1528755,-0.10220617,-0.073396094,0.043777972,0.045127064,-0.030536655,-0.08440068,0.17032996,0.014905593,0.039673556,0.09559945,0.1826232,-0.028339302,0.046180427,0.020052616,-0.12740515,0.010638518,0.111716345,-0.051737666,0.01524306,0.044918675,-0.00804,0.006007603,-0.057645217,0.05730539,0.1421454,-0.010053518,-0.100010954,-0.17663997,-0.016556587,-0.12687309,0.0301883,0.0037502474,-0.088490896,-0.030184302,0.07978889,0.0036757577,-0.09062317,-0.10323694,-0.08336722,0.10652341,-0.17250554,0.120986186,-0.06984004,0.15834746,0.14261377,-0.036277495,0.1389329,0.05722515,-0.1496326,-0.109493434,-0.0064524645,0.08461952,0.15814711,-0.041491397,0.07253538,-0.09490783,0.13280919,-0.16602924,-0.047820635,0.09893672,-0.08325454,-0.02676125,0.039204627,0.14619716,-0.11262199,-0.02184899,-0.0967952,0.093857765,0.00027986307,-0.15225348,0.15350229,-0.103670344,0.05964074,-0.11752147,0.06209424,0.097715005,0.047275923,0.07439292,-0.022040825,-0.16113585,-0.0010601308,-0.09111741,-0.14287357,-0.047303222,0.055879742,0.098987326,-0.08178358,-0.042621274,-0.08245031,0.033090796,-0.17934416,0.011156619,-0.031805553,-0.17915173,-0.0870849,-0.043600533,-0.0393671,0.10605985,-0.124282226,-0.027808798,0.023853803,0.10306929,-0.08285551,0.029378459,0.17550378,-0.04417921,-0.04256929,-0.036074627,0.10341825,-0.1508074,0.10986105,-0.13183254,-0.16473281,-0.05827014,0.072511576,-0.06397564,-0.12874903,-0.055564094,0.057191383,0.13348897,-0.10282449,-0.14668866,-0.0051928936,-0.15471889,0.04520753,0.061156742,0.14025189,-0.062375486,0.054093696,-0.15569222,-0.12517732,0.12014555,-0.091771096,0.13774705,-0.07244058,-0.010114206,-0.15223387,-0.16540213,-0.04953196,0.07409837,-0.08170241,-0.002597042,-0.08306968,0.051374085,-0.14842409,0.017462404,-0.14945357,0.097463936,-0.0872947,0.10336736,0.12778343,-0.16583024,-0.11990602,-0.162829,0.13572425,-0.053730194,-0.14962241,-0.042032175,-0.18445346,0.04417404,-0.07874551,0.106874086,-0.08124969,-0.043692585,-0.056785583,0.085374594,0.078248516,0.009827074,-0.12383977,-0.037578814,0.15108806,-0.011092278,-0.11281847,-0.09662257,-0.07386889,0.086013995,-0.022073478,-0.009900973,-0.080040075,0.053722396,-0.05019685,0.0771672,0.12045319,0.036518194,-0.16397937,-0.044617396,0.06752082,-0.107180014,0.10656195,0.055687506,0.0118506495,0.117380194,0.11026645,-0.060399257,0.13596141,-0.06037849,0.011138584,-0.14982095,-0.06726059,-0.1351186,0.12536979,0.1008132,-0.08269445,0.071334645,-0.044511557,0.13733612,-0.10839678,0.023122068,0.023290684,-0.042331755,0.067868985,0.066416554,-0.007758038,0.11556762,-0.038400672,0.09692013,-0.031172909,-0.11166853,-0.15464821,0.021715704,-0.08641957,-0.09584212,-0.07699389,0.12028242,-0.12804452,-0.17621288,0.03188775,-0.057141382,0.09470385,0.10798622,0.1811085,0.1058936,-0.082946055,-0.047847316,0.14558835,0.15501145,-0.1209418,0.13261952,0.11847675,-0.015670033,-0.04680961,0.028759364,0.080075644,-0.14047839,0.076620325,0.005342934,-0.03344254,-0.07203096,0.10492354,0.022296702,-0.08602464,-0.1007276,-0.030713247,0.15229027,0.053019978,-0.121812694,-0.100334935,-0.09640929,0.023176981,0.049706023,-0.11552001,0.0069408044,-0.08415437,0.09233715,0.19321936,0.057356812,0.07020035,0.14618336,-0.085800074,-0.028526114,0.06598876,-0.09136623,-0.16028199,-0.082569316,-0.12515189,-0.0893062,-0.096550666,-0.058881357,0.09436166,0.03837384,-0.11492642,-0.13837156,0.11133044,0.12063609,0.04884537,-0.004941734,0.013672017,0.05612415,0.115676805,-0.15278803,0.11116797,0.01618967,0.084096864,0.0005402342,-0.01685407,0.022656502,-0.0935128,0.08253979,-0.08086616,0.071045615,-0.014051956,-0.13204885,0.12656054,0.14881012,-0.15726939,-0.0011123414,0.012852131,-0.02249701,0.10449755,0.13235727,0.121001445,0.067458786,0.044161007,-0.024972074,0.14316086,0.010612648,-0.06329974,0.14186585,0.0409746,0.060235392,0.15022463,0.060347244,0.017268533,-0.024654996,-0.10089885,0.051951133,0.14137787,-0.13601537,-0.054809827,-0.018465756,-0.1023174,-0.087458566,0.0636949,-0.1364441,0.14584324,0.027890654,0.096604876,0.15997213,0.08877852,0.034712918,-0.08035246,-0.00404885,-0.06730031,0.15474935,0.033965304,0.09210854,-0.15951517,-0.098258294,0.02844212,-0.08154708,0.110362954,0.03687508,0.07181753,-0.026759274,0.056142733,0.06388542,0.11377164,-0.17327428,-0.17923541,0.110378705,-0.034743737,-0.010383787,-0.17636728,-0.048019394,-0.19102436,-0.13867484,-0.07236893,0.035367917,-0.15615498,0.13793944,-0.070632465,-0.0040111654,0.09857324,0.06952353,0.10671956,-0.14649913,0.048701886,-0.13583617,0.117210515,-0.10068158,-0.013014359,0.060837716,0.016177408,-0.13647075,-0.1732865,-0.1330123,-0.09407988,-0.17115997,-0.06809977,-0.12246061,0.14506814,-0.010956361,0.022437094,0.13069618,-0.050119955,-0.035231885,-0.08139439,0.13908745,-0.16142368,0.1443211,-0.09360775,0.09191475,-0.06498926,-0.12827292,0.124428496,-0.14318407,0.08771646,-0.027175171,-0.008297752,0.11163202,-0.13770999,0.09747657,-0.14039533,-0.10688618,0.0033935318,0.1338435,-0.047529258,-0.06425856,-0.11285002,0.011916345,0.009176214,0.15561795,-0.056691818,-0.051011905,-0.05976975,-0.030646594,0.03412336,0.14293447,-0.13155125,0.14457968,-0.13440722,0.13899258,-0.118112646,0.07720046,0.15007114,0.09551562,0.14865234,-0.050022278,-0.010998181,0.08611369,0.013703302,-0.07245324,0.03452712,0.08762224,0.123330235,0.028035805,-0.04442912,0.09412655,0.059515767,0.04710538,0.028869769,-0.21082751,0.15765558,0.034494705,0.1075851,0.22742128,0.23564291,-0.010786734,0.14081039,-0.03467585,0.016187144,-0.14703253,-0.09404918,-0.11107812,0.01575054,0.06371979,0.12915437,-0.04149623,0.10831284,-0.15746275,-0.1340452,-0.018389314,0.16359478,0.07040155,-0.066431865,0.03106208,0.02726744,0.017709186,-0.06703675,0.02631541,0.14820504,0.057205718,0.10881634,0.13864441,-0.10852289,0.099663705,0.004943724,0.1445093,-0.06766122,-0.055575095,0.10790331,0.18029319,0.12514888,0.04402813,0.030605773,-0.16368069,0.14107578,-0.04693286,-0.037056524,0.10808493,0.10788589,-0.15278395,0.042668782,0.0063941735,-0.040261343,-0.07632682,0.12647809,0.12159926,-0.02445833,-0.08866462,0.19521703,0.066709414,0.14695778,0.08925055,0.04302357,-0.08921452,-0.15712138,0.08156425,0.15190738,0.06265478,-0.038685765,0.1936305,0.14398193,-0.009115889,0.1435573,0.03557496,-0.047207806,0.12088583,0.11086501,-0.10188038,0.13960677,-0.09824695,0.07510298,0.105215795,-0.09411374,0.046714712,-0.1487341,0.08328095,-0.08276813,0.15223461,-0.01654056,-0.087378964,-0.0242488,-0.04783409,0.118468046,0.13361615,0.11082045,-0.13160072,0.093914226,-0.10721516,0.0046147453,-0.031325612,-0.057508126,-0.06879262,0.061841674,0.033501122,-0.03181913,0.10864065,-0.061898116,0.066253304,-0.08852266,0.14406556,-0.09361788,0.061754663,0.074616164,0.014416909,-0.030306589,-0.13366696,0.04805738,-0.13512662,-0.1816343,0.08315097,-0.05466025,0.064837664,0.036839202,-0.08449767,0.07574808,0.08288951,-0.037994303,0.07461778,-0.16626975,0.10765227,-0.030397648,-0.08764584,0.045344558,-0.06554573,-0.0532009,-0.031152377,0.024978114,0.002065946,-0.08267592,-0.016026875,-0.003219897,0.070864804,0.04933658,-0.0064187297,0.14957002,-0.016395668,-0.03161397,0.06695324,0.12909167,-0.05191818,0.06118271,0.15612206,0.025238955,-0.10755577,-0.12585498,-0.15039593,0.122031264,-0.04713753,0.03033146,-0.10120252,0.10278994,-0.14364944,0.092114,-0.08436957,-0.039947078,0.13688494,-0.011508237,-0.04159487,-0.13439927,-0.14662984,0.0036377793,-0.054562155,-0.017333524,0.10188929,-0.013735047,-0.06830754,0.099804975,0.10074971,0.026125873,-0.013132705,-0.1540807,0.061306804,0.10682956,-0.07577283,-0.085641325,0.15938555,0.046663605,-0.16431387,0.01053124,0.018903693,-0.1229354,0.12752484,0.054888684,0.09548877,-0.16096091,0.1176619,0.09012885,0.12371478,-0.027624385,-0.07697977,-0.0021370533,-0.092104584,-0.005462401,0.09994784,0.096216746,0.13814393,-0.046431635,-0.13174877,0.008622382,-0.07930146,-0.10566275,0.028269628,-0.058555603,0.12731333,0.059744965,-0.014446168,-0.15025757,-0.04847792,-0.032910258,0.09702628,0.053330332,0.08344824,-0.019754602,0.14757033,0.105016775,0.1064095,0.12860778,-0.106465995,0.031847436,-0.13130264,0.11989561,0.08883835,-0.13752413,-0.0395297,0.11091531,0.1119343,-0.055877365,0.022473676,-0.120570965,0.048674386,-0.090699695,0.1203273,0.114256024,0.107150346,0.024264703,-0.14889193,-0.03579759,0.15804866,0.029658912,0.07595455,0.006435253,-0.11996781,-0.06386811,0.17363827,0.09873721,0.15103261,0.08710857,-0.15430237,0.08275231,0.14040565,0.0408184,-0.03140191,-0.08777078,-0.05933834,0.094846636,0.02502722,-0.08238735,-0.023924442,-0.061242763,0.0701799,-0.053584654,-0.0726137,0.07659282,-0.14189757,-0.08433608,-0.056695927,-0.10147139,0.1695619,0.031998906,0.054621153,-0.10862728,0.11699687,-0.00756539,-0.076260746,-0.16068931,0.08755733,0.070200644,-0.031499982,-0.03191204,-0.117890984,0.013529288,0.040297,0.11804818,0.03425327,0.20666498,0.016041875,0.123575434,-0.042664785,-0.15046085,-0.020784246,-0.08418805,0.1743129,0.053167757,-0.1432454,-0.12763488,-0.043569744,-0.06905731,0.011798203,0.100213565,-0.06964051,-0.098588645,-0.05433462,0.09696099,-0.0054775756,-0.116364926,0.02343861,-0.14729421,0.09719526,0.13789411,-0.104364045,-0.01899279,-0.059426855,0.023652159,-0.05258483,0.12929888,-0.0685198,0.19815017,0.094729245,0.13162953,-0.123006456,0.15251209,-0.07971671,0.025281968,-0.07929292,-0.116902456,0.008539552,-0.053083196,0.11961484,0.061876774,0.05418279,0.13032143,-0.015016926,0.030095626,-0.16192749,-0.1606391,0.012923701,-0.11580187,-0.037310623,-0.015008669,0.036914796,-0.13169937,0.08405812,0.098335035,0.1350723,-0.036128346,-0.086126424,-0.0014889169,0.11356335,-0.05642161,0.1752317,-0.07511779,0.12140811,-0.03954743,0.07321489,0.0670618,0.03526041,0.13354687,-0.014014293,-0.011092016,-0.0067765536,-0.10170919,-0.061865047,0.119099855,-0.07226883,0.13795346,0.047817424,-0.024955962,-0.056327626,-0.15986557,0.0918073,-0.0024293046,-0.034922883,-0.082008936,0.020349607,-0.14755103,0.04302197,-0.14280199,-0.07526216,0.02551321,-0.1114198,0.03551632,0.05113758,0.13692002,0.014500577,0.0059549445,0.012794365,0.13251564,-0.15481529,-0.09331391,-0.06336521,-0.06981396,-0.035538014,0.12089962,0.1778355,0.14385143,-0.04034605,-0.02081785,0.08644673,0.20009536,-0.17735356,-0.007436696,0.10775458,-0.05195121,-0.12952077,0.14050175,0.121779196,-0.07165245,0.0013271621,-0.031971205,0.10037155,0.09915221,-0.11382387,-0.1295746,-0.041962974,-0.12906525,-0.07182458,0.11517902,-0.15736744,0.10829749,-0.047292095,-0.117830865,-0.13080303,-0.011571361,-0.018224612,0.14065705,-0.1125921,-0.05725156,0.018175464,0.086214796,0.06483003,0.07499663,0.08451248,-0.0044528195,0.037185494,-0.15234107,0.12919176,0.1110893,-0.063730285,0.10647799,-0.13320483,0.06680809,0.17816518,0.13593595,-0.05221703,0.1386983,0.16843845,0.093911625,0.020957747,0.070989214,-0.023319783,0.051565386,-0.025562681,-0.089126416,-0.10054028,-0.056600343,-0.15032786,0.053571988,-0.08154914,0.05666412,-0.01729574,-0.026672596,-0.08214469,0.114878945,-0.10265835,-0.07426512,-0.07430389,-0.14786237,-0.07458254,-0.07965358,-0.16054522,-0.062546276,-0.01942598,-0.067328915,0.12639046,0.118175335,0.10881282,0.021370674,-0.092410006,-0.007069234,-0.03571541,-0.07870752,-0.15824404,0.025162442,0.04999124,-0.15613247,0.037831828,0.098072305,-0.14335118,0.14878376,-0.08095891,0.07703217,0.1874222,0.008079259,0.097072154,0.043679863,-0.0574636,-0.14336585,-0.102635674,0.00306644,-0.1968727,-0.14396165,0.047086123,0.15358467,0.095568456,0.044074718,0.03249543,0.22950302,-0.04292067,-0.0009449787,0.064014845,0.039664563,-0.025224023,-0.09333599,-0.10955943,0.11406648,0.020642426,-0.13699907,-0.07226478,-0.12439966,-0.109735675,0.043900248,-0.0576342,0.1281592,0.039996374,0.02653779,0.11318102,-0.0073096305,-0.09288844,-0.006591156,0.14498878,-0.16319488,0.0355108,-0.03672934,0.13621986,0.046293713,0.12523028,0.034020543,0.03280489,0.17982459,-0.14643872,0.07399075,0.15858449,-0.047531683,0.11450375,0.0015661862,-0.03583929,0.10503488,-0.02429083,-0.14223303,-0.00385144,-0.0043537845,0.0416099,0.08962651,0.026549468,-0.1668229,-0.04750807,0.10049544,-0.10322,-0.17062503,0.05041833,0.1857629,-0.0058642332,-0.108011134,-0.065237,-0.106257565,0.008639787,-0.13935283,0.050536938,-0.11769671,0.13892654,0.10172748,-0.0043480312,0.100564584,-0.05414703,0.012189312,0.14017235,-0.07194692,-0.16229291,0.07289977,-0.14740154,0.2059888,0.061846003,-0.033498086,-0.13414018,-0.060462862,0.07278619,-0.14794512,0.04956967,-0.11260968,-0.06730168,-0.06388922,-0.083122864,0.14942393,0.0057043387,0.039763477,-0.048416864,0.0785853,0.14166862,-0.14463668,-0.11560661,0.09563473,-0.033534776,-0.09543785,0.05286883,-0.17279123,0.15722199,0.16277717,-0.19726948,-0.1433072,-0.17460287,-0.020082965,-0.07007295,0.11777364,-0.14802018,-0.07232517,-0.005228607,0.14744203,-0.034127876,-0.13657847,-0.15173478,0.030084651,-0.15748852,0.073110275,0.08866046,-0.09711488,-0.034292012,-0.041268382,-0.06499081,0.116653256,-0.0956349,-0.1457191,0.16402689,-0.009740315,-0.11792959,0.08814311,0.07955488,-0.05542736,0.006084715,0.13048424,-0.071027815,-0.16953452,-0.1030178,0.0040005143,0.010763976,0.15356492,-0.1017856,0.05739629,-0.06531625,0.16834845,0.076517485,0.032774646,0.18046415,-0.049748566,-0.17261511,0.14875074,-0.024820888,0.07294792,0.08954512,-0.16259353,-0.105778985,0.10145209,-0.025479086,0.047350325,-0.18176587,0.04456177,0.0002678115,-0.017193383,-0.10825182,-0.06445514,0.12479814,-0.032693677,-0.13651477,-0.09145559,0.05158827,-0.059834816,0.10480745,-0.026693774,-0.09849365,0.035959575,-0.101536356,0.14471212,-0.06350736,-0.016410943,-0.09283087,0.13145645,-0.1369257,-0.09896118,0.09361352,0.018244376,0.123201855,-0.0336015,-0.09215449,0.031393364,0.12500605,0.02873783,0.07543792,-0.008461612,-0.16204795,-0.005973105,-0.033121556,-0.0013413442,-0.04802316,-0.1251803,0.105951406,-0.09549186,-0.1061489,-0.05333084,-0.08853383,-0.098477036,0.07210551,-0.009708231,0.063482575,-0.045153107,0.079374164,-0.038542334,-0.11135264,0.15287572,0.09536306,0.123952314,-0.106523715,-0.10746693,0.111567,0.13417801,0.15441468,-0.09895664,-0.01961114,-0.14430128,-0.023819827,-0.10250021,-0.00070771703,0.021843938,0.12234277,-0.13220352,0.09415414,0.028472582,0.13822019,0.06979037,-0.018553717,0.06812735,-0.0069546453,0.073208116,0.110470764,-0.11178002,0.024256524,-0.05575984,-0.016119506,0.08024327,0.058948543,0.13612945,-0.16447613,-0.16470978,0.048451845,-0.07100699,-0.064747445,0.15986094,-0.06630877,0.14860515,-0.032339763,0.1124319,0.15462299,0.08574148,-0.113268614,-0.06079713,-0.061066005,0.14303772,0.06269864,0.014560299,-0.013168516,0.06639986,-0.019249247,-0.13655071,0.03788078,-0.04476389,-0.13842443,0.035922427,0.0026086404,0.029317,-0.01686318,-0.07206172,-0.07128502,-0.05071199,0.097899884,-0.09904503,0.16852602,0.16076241,-0.15184654,0.050629105,0.16229546,-0.055917438,-0.06548034,0.11141605,-0.059235897,0.14213142,0.009520563,0.04757805,-0.09087832,-0.05133618,0.13302626,0.100878075,-0.06886356,0.007015263,0.09138293,0.14458938,-0.04720134,0.14624238,0.10232434,0.15011205,0.03024642,-0.05930103,-0.0055837454,0.03966111,0.0082116425,0.07072764,-0.05671501,0.024976548,-0.09402798,0.14410779,0.043021683,-0.08078523,-0.036863793,-0.049339347,0.041287124,0.052470144,0.17947431,0.032474086,0.06274775,0.045844994,0.15272379,-0.12597567,-0.021154493,0.1024003,-0.10119129,0.05784224,-0.024280919,0.08439478,0.13790463,0.1546934,-0.043178827,0.075539276,-0.0737981,-0.10814521,0.10720981,-0.11248627,-0.1988142,-0.0060628513,-0.116777636,0.09240321,0.025705379,-0.16724926,0.14342661,-0.017081186,-0.012323886,0.117239654,0.12948202,-0.037601866,-0.15208712,0.008781156,0.12471566,0.0008792336,0.077689305,-0.05755663,-0.09004283,-0.018675918,-0.04890282,-0.061081942,0.040562514,0.058707457,-0.12059483,0.08618446,0.056788392,-0.04989693,0.09933095,0.10675316,-0.07527049,0.104700714,-0.054608565,0.14722644,0.03158838,0.068160936,-0.07348492,-0.020254478,0.09129394,0.110359296,-0.0590098,-0.13459472,0.11568226,-0.11395357,-0.15974267,-0.076035455,-0.108918846,0.06996505,-0.052850872,-0.1330539,-0.016827917,-0.17897728,0.07278158,0.081411354,0.020244485,0.022463195,-0.004029638,-0.042316657,0.1253617,-0.057138138,0.04850679,0.09980653,-0.15144934,0.0745538,0.18288037,0.03047469,0.03139261,0.005165481,-0.11728699,-0.14027672,0.044312365,0.029734662,-0.17336656,0.10784447,0.039050624,-0.08625002,-0.13891563,0.024899462,0.059172284,0.059229698,0.059016902,0.062097434,-0.18051915,0.039172385,-0.18656546,0.10563242,-0.041630514,0.0901315,-0.03055672,0.0659438,0.09689287,-0.0051453393,0.13472454,-0.088201165,0.0163604,-0.034567628,0.042641014,-0.12681942,-0.026477309,-0.09545733,-0.09717552,-0.20092441,-0.10437681,0.033426177,-0.015377311,0.16886275,-0.04474415,0.18602446,0.021519601,-0.0654076,0.1806528,-0.082149655,-0.022833297,0.07526105,0.06319161,0.09569241,0.11125392,0.023781432,-0.009773022,-0.11929093,-0.027071834,-0.071107544,0.06256529,-0.10029402,0.11143111,0.020212771,-0.16450539,0.17325035,-0.1240343,-0.17042403,0.06678226,0.07316799,0.12827297,0.10068507,0.10210185,0.09028768,-0.09727005,0.040058747,0.083665974,-0.13074902,-0.08665121,0.06743637,0.09081151,0.18837532,-0.08533536,0.043890506,-0.1366895,-0.011119111,-0.094450966,0.04886491,0.018834116,0.04487006,-0.1797384,-0.12461648,-0.06699295,0.117903635,0.11599876,0.13634801,-0.026746796,-0.014991714,0.105959974,0.049196158,-0.10910932,-0.036097687,-0.055825766,0.01442809,-0.17259352,0.048638657,-0.12442933,-0.012928032,0.018933931,0.029843247,-0.16154557,0.15392683,0.09451823,0.23719226,0.09187843,0.10831277,-0.010809622,0.068701036,-0.03398503,0.033796217,-0.12774622,0.08825409,0.0646814,0.12526873,-0.021201799,-0.14499176,0.06458241,-0.03113751,-0.010343427,-0.053302553,-0.023287412,-0.0841,-0.005417738,-0.07059277,0.0666728,0.06087747,-0.09873462,0.06664062,-0.053754937,0.0867243,-0.119675554,0.07429059,0.14883803,-0.026090436,-0.011206228,0.03096585,-0.070565976,0.13796169,-0.04016225,0.020942751,0.08179608,-0.02625424,-0.004701092,0.04864222,-0.07134406,-0.14386247,-0.13730994,0.066952385,-0.11465607,-0.07991744,0.056293026,0.02052767,-0.13098761,-0.12123671,-0.15421516,-0.08173407,-0.13791415,-0.04090822,0.10928527,0.008560752,-0.10116303,-0.11074338,0.11059076,0.12969229,-0.12810151,0.17509498,0.085435264,0.09221138,-0.038004596,-0.11680674,-0.01473054,0.15595841,0.05158604,-0.06265144,0.051231436,0.12957495,-0.0643025,-0.018886264,0.1763147,0.11097759,0.0920806,-0.017826153,0.08081567,-0.12105537,-0.017450206,0.013558013,0.0111042755,-0.058274098,-0.16631402,0.037575647,0.13649955,0.03875547,-0.052134812,0.029680507,0.027106496,-0.041024182,-0.061107557,0.15361905,-0.0087233065,-0.0106296195,-0.00039339648,0.09722682,-0.09851828,-0.1040246,0.08284213,0.09700628,0.10625843,-0.15668957,-0.02005892,-0.082114145,0.031424735,0.031247469,0.026737703,0.11132084,-0.08839469,-0.069072165,0.13695046,-0.13319339,-0.121318795,0.008500927,0.10173716,-0.051938225,0.04513664,-0.026192814,-0.15729333,0.053788412,-0.058935087,-0.030819418,0.0020372116,0.06939767,0.008996701,0.011267083,0.028385561,0.039457586,-0.10132352,-0.17399576,0.0036680372,0.015068404,0.10783373,0.07677991,0.045500204,0.017778307,0.06487359,0.02660729,0.06612333,0.0028769714,-0.05842441,-0.008110859,0.08863156,0.041649263,0.108119994,-0.05901801,0.008625088,0.061227694,-0.06636791,0.091582984,0.12127348,-0.15658395,-0.139887,-0.012885668,-0.08158059,0.046542056,0.055833068,0.08777661,0.043491773,-0.08995372,0.09160433,0.17803037,-0.096593626,0.040168032,-0.13286933,-0.09255032,-0.14425799,-0.09532643,-0.09724253,0.13300194,-0.07536932,-0.094451495,-0.049576476,-0.10324986,0.13999484,-0.09943581,0.10177201,-0.105465345,0.08404705,0.0836217,0.06986794,0.08419642,0.10286278,0.07045171,0.0023035833,0.032155644,-0.06421183,0.079780936,-0.118621975,-0.076626375,-0.015155738,-0.1842127,-0.09920286,-0.083979934,-0.09693747,0.023318652,-0.052231323,0.03599758,-0.12552847,0.13084365,-0.07802605,0.12366708,0.10338235,-0.103840925,0.10325415,-0.06845997,-0.07361557,-0.14636321,0.12107674,-0.13394836,-0.01646012,-0.11517876,-0.15425804,-0.1295997,0.058541775,0.15624659,-0.04729218,0.062285773,0.12982376,-0.08132512,0.100210726,0.12080791,-0.07992881,0.027558593,-0.08312573,-0.028509902,-0.025575582,0.14812364,0.009656168,0.1194334,-0.1380168,-0.027147047,-0.023469692,-0.06423307,-0.06185978,-0.09852957,0.13133827,0.1409234,-0.046083715,0.13408236,-0.15302962,0.08055112,-0.033799693,-0.050245304,-0.08179985,0.059355687,0.019094953,-0.13706556,0.018170767,0.07722615,0.16535498,-0.06674945,-0.020234814,-0.0723554,0.053939514,0.04491447,-0.07779535,0.0950147,0.01763669,0.10881077,-0.15133986,0.055293996,0.11975929,-0.08241874,0.022226496,0.11019339,0.008333955,-0.07389998,-0.05213384,0.088039994,0.04597608,0.03574303,0.07245872,-0.042526245,-6.982942e-05,-0.058529876,-0.053717062,-0.11622527,0.021476693,0.11503893,0.037483748,0.18302822,-0.02545465,-0.012637882,0.1256522,-0.011844928,0.09903177,-0.11794192,-0.106416725,0.07641736,0.043099627,0.057471573,0.007953655,-0.09788605,0.14071667,0.14027874,-0.07786317,-0.036204495,0.06207187,-0.113736115,0.00096675835,-0.06830504,0.025693363,-0.03301746,0.09091555,-0.06685951,-0.11699698,0.07581836,0.080094025,0.034383096,0.11043849,0.03203592,-0.10700367,-0.01764465,-0.11466459,0.10523227,0.17153873,0.17927371,-0.04974872,-0.06386147,0.16346249,0.13836741,-0.1771178,0.12283872,0.11098669,0.0021040323,-0.02633146,-0.040402785,-0.074779056,-0.12881717,0.016152514,-0.1098392,0.09943811,-0.16592799,-0.13789576,-0.1281034,0.09080899,0.0480847,0.0033501438,0.0019310536,-0.13292712,0.120913826,-0.11076272,-0.051735945,0.103755,0.14214237,0.06182225,-0.004009636,0.08875021,0.11312482,0.05233261,0.08961854,-0.12645942,0.009328104,0.052787215,0.110080525,-0.06686551,0.13759194,-0.059055228,-0.048785638,0.1558954,-0.124638945,0.14171985,-0.06035675,-0.12233924,0.0039428626,-0.12445529,-0.059959177,0.07238934,0.113697276,0.04000684,0.06586906,-0.022764852,-0.073170654,0.0019969104,0.11376573,0.100493595,-0.023889825,0.035642844,0.058457945,-0.15446219,-0.020488642,0.08485707,-0.09568673,-0.005257344,0.03386593,-0.0030617393,0.1387439,-0.03294123,-0.16998224,-0.08168174,0.060502715,0.021529175,0.10947332,0.1111048,0.117400005,-0.09537906,-0.06978278,0.21278402,-0.024807382,-0.017570155,0.18763511,-0.11671181,0.11298551,0.09514182,-0.105028234,0.04939445,-0.025380824,0.009428183,-0.14875557,0.024390442,-0.11298509,0.11219258,0.19413769,-0.08693015,-0.027170938,0.15209828,-0.102216616,0.017693002,-0.105480134,0.11907701,0.1127379,-0.045579616,-0.13357121,-0.017776819,0.024428079,0.055517003,0.046513915,-0.18474793,0.08803954,0.12739474,-0.06495488,-0.0023078094,-0.054172244,-0.12079638,0.05444112,0.027714068,-0.0074742055,-0.12574166,-0.07465398,-0.032593343,0.14286542,0.11823053,0.15988036,0.028256118,-0.0171738,0.15228933,0.037665185,0.046823278,-0.15324433,-0.14427064,-0.11447926,0.11213035,0.14507665,-0.03216566,-0.011088434,0.14486483,0.010967149,-0.1497919,-0.13020042,-0.15080683,0.12681474,-0.11674291,-0.17217265,0.07342395,0.026104486,0.05700877,-0.15780622,0.09095715,0.11680892,-0.05841404,0.12787099,-0.14159675,-0.11079533,-0.12305464,0.0066027488,0.10108041,-0.06352263,-0.057593156,-0.074948646,0.079883546,-0.04230527,0.13952641,-0.08294713,-0.15744813,0.09298828,-0.006127008,0.08582706,-0.036285434,-0.06257007,0.060514983,-0.12772757,-0.15623564,0.05666319,0.14359188,-0.061001133,-0.052417394,-0.08087756,-0.14159779,0.12140872,-0.14319842,0.043591134,-0.012716873,-0.06412857,-0.08167757,-0.07641191,0.08454539,0.15286839,0.08225895,0.18800627,-0.049078885,0.16957349,-0.04573678,-0.121289395,-0.08297133,0.096203186,-0.11543164,-0.088834494,-0.111483276,0.0052721393,-0.06284411,0.07155456,0.06870405,0.11745128,0.05657932,-0.03841362,-0.21595962,0.09699705,0.021712061,-0.06511186,0.08599805,0.17810231,-0.023547415,-0.15156873,-0.09849651,-0.04126151,-0.0022614077,0.14435768,0.10701788,-0.14111471,0.16657738,-0.070289545,-0.14123431,-0.083401546,-0.12180431,-0.027206143,-0.06898249,-0.118810445,-0.030854426,-0.020256238,0.051378354,0.096115306,-0.11490116,0.06419038,0.07348622,-0.16709942,-0.07677601,-0.044933196,-0.10913516,-0.13178948,-0.028586283,0.12588458,-0.0214859,0.12423285,-0.012714223,-0.047074534,0.07690325,-0.11430668,0.011839143,0.08214553,-0.05317688,-0.035965405,0.10847072,0.10535182,0.14836414,0.22083491,-0.1155186,-0.10327689,-0.093213215,-0.07104423,0.046914097,0.00012583222,-0.11912403,0.09120895,0.0561231,0.022442454,0.015183444,0.0774434,0.03016242,-0.09827093,-0.12569113,-0.08618628,0.11612859,-0.10111957,0.05169898,0.120138735,-0.01619979,-0.12669776,-0.0331749,-0.15389289,-0.10474505,-0.16178313,0.013544341,-0.09361705,-0.05968415,-0.087455034,-0.0230299,0.053156577,-0.122364804,-0.06825797,-0.14662935,0.12771066,0.06753427,0.07402797,0.19223805,0.10836037,0.031205343,0.06905529,-0.08783901,-0.12487687,-0.12413928,-0.03458584,0.09695862,-0.1692319,0.12667975,0.07478006,0.091425374,0.10085475,-0.15311585,0.0914655,0.02121597,-0.02196978,-0.037119832,0.09826758,-0.17030519,0.13466659,0.16047142,-0.020727899,0.087151736,0.10571624,-0.016199792,-0.07829112,0.12061457,0.038518485,0.13004506,-0.06855405,0.02201592,-0.0526851,-0.15818132,0.051455367,0.020774411,0.025332568,-0.040166333,0.07377098,0.18095808,-0.06404429,-0.10723355,-0.09361342,-0.037799217,-0.082437694,-0.035391644,-0.12663984,-0.09997565,-0.038104896,-0.05367812,0.12312377,0.022582566,0.15451767,-0.073391706,0.2105805,-0.06697407,0.022069065,0.08107032,0.13889201,0.08489843,0.1418855,0.08338895,0.10504375,-0.020584766,0.12938495,0.13358775,0.032596923,0.004259061,0.03631365,0.06101614,0.13193648,0.07805011,-0.085270256,0.043553468,0.16477977,-0.09385542,-0.11942486,-0.0056117466,0.17736436,0.04162556,0.013081245,-0.05300807,-0.12462367,0.002926316,-0.0767794,-0.12018189,0.10374672,-0.08627673,-0.07009817,-0.11832207,0.13049784,0.10948138,-0.032324634,0.038234197,-0.00017698453,0.03353006,-0.030368313,-0.13718659,-0.16766307,-0.14854519,0.082234636,-0.00629201,0.15776838,-0.12310034,0.13670114,0.017416881,-0.06445186,-0.061780553,0.115988635,-0.06503505,-0.007977184,0.14979859,0.057717755,0.09318989,-0.030255599,-0.009774823,0.039587755,0.07767477,-0.053650383,-0.041723568,0.13640049,0.1417546,-0.07755945,0.13202728,-0.012400394,0.025723608,-0.020688776,-0.10688342,0.092103906,-0.0143257035,-0.11374469,0.08268664,-0.020896623,0.11978442,0.14009811,-0.047262486,0.06340215,-0.12164282,0.06500322,0.12414167,0.038483024,0.14373235,-0.018022763,0.11184667,-0.09582735,0.009596515,0.13984427,0.009801468,0.084521145,0.16675927,-0.009818294,-0.110984415,0.11484419,-0.07267942,0.10802774,0.020499783,-0.12251167,-0.15438384,0.12737836,0.070779994,0.1426145,-0.1397828,0.1479518,-0.08414011,0.057409607,-0.18852931,-0.00017151963,0.14834689,0.1138481,0.099665,-0.0064055296,-0.02259153,-0.033618335,0.13517785,-0.16919044,-0.0846147,-0.14535573,0.08732438,0.14775057,-0.011881138,0.18644539,0.08211182,0.13972992,0.027432598,0.16120486,0.057822872,-0.12633312,0.05937146,0.028790541,0.076949954,0.04577722,0.11251154,-0.14728561,0.06844898,0.17206639,0.024558581,-0.0944044,-0.16574717,0.068523236,-0.031268068,0.14379448,-0.0013930821,-0.029149136,-0.039843068,-0.04569104,-0.05456339,0.12902774,-0.056885146,-0.036816016,-0.05195384,-0.007322012,-0.083740436,0.07015301,0.043769315,0.065765575,0.08930574,0.15687294,0.1376899,-0.12703253,0.004335736,-0.018414445,-0.04744104,0.15229465,0.025579486,-0.1746323,0.059783317,0.15032735,-0.00970921,0.004667204,0.066895746,0.11147979,0.07074197,0.09214155,-0.05621982,0.15613341,0.02184832,-0.040274903,-0.049773254,0.034083158,-0.15114617,0.067070894,-0.07506153,0.09519375,-0.0483175,-0.021532275,0.15241568,0.13290645,0.14077272,-0.041894313,0.09538125,-0.04816903,-0.14851412,-0.11050101,-0.020233028,-0.11871083,0.047578394,-0.11792621,0.022442795,0.0051824483,-0.0854826,0.01305245,-0.06807998,-0.015091066,-0.1229094,0.082390435,0.13641404,0.10653928,-0.13178119,0.04939884,-0.1218484,-0.036622457,0.015301959,-0.120140366,0.162279,0.14233525,-0.111334175,-0.14057295,0.11097278,-0.03734893,0.14105678,-0.019786192,-0.041799687,-0.020544345,0.033750284,-0.14942244,-0.04143892,0.13120252,-0.12851451,0.08865828,0.0045592785,-0.007444294,-0.010866487,0.039024297,0.039277624,0.08900135,0.0036801272,-0.14189783,0.05625471,0.17466861,-0.0029533023,0.027431251,-0.064156055,0.072621405,0.09617969,-0.15028083,-0.11903595,-0.14701541,0.009103656,-0.107306294,0.118455306,0.10175736,0.07446631,0.13193141,0.029791493,0.020612663,-0.101461716,-0.0794963,0.055289213,-0.07972556,-0.042839177,0.12568253,0.065601595,0.18070656,0.11213269,-0.029288726,-0.014850558,-0.004703817,-0.10283723,0.11536125,-0.03180606,0.044717576,0.042276684,-0.11162132,-0.15113595,0.008317815,-0.085243516,-0.14829393,-0.061361298,0.010115688,-0.020099148,-0.025547145,0.1918553,-0.07870628,-0.05184179,0.055045284,-0.012015071,-0.049633853,-0.07281865,-0.0289512,-0.0340061,0.07459026,-0.12762426,0.08242918,0.06682781