-0.025633471,0.22724172,-0.2438774,-0.28939608,-0.27623844,0.18005028,-0.3071115,0.10588403,-0.3177065,0.33293995,-0.0026582014,-0.31008086,-0.27323422,-0.20560536,-0.17065723,-0.2048162,-0.24807926,0.18510965,0.25654185,0.06570694,0.16844407,0.16773911,0.23064284,0.18085976,0.11020976,-0.19070934,0.24166065,0.13400404,0.12241952,0.03954075,0.16032529,-0.051324725,-0.24485971,0.2521357,-0.14350735,-0.04168779,0.26947072,-0.1175247,0.20970538,-0.26348844,0.318936,-0.23210926,-0.31283385,-0.28004447,-0.22699776,-0.075943954,-0.16888185,-0.23099843,0.08466372,-0.15039556,0.024605324,0.14336124,0.29490757,0.069506675,0.024187883,0.29208225,0.18705656,0.03096925,-0.01911323,-0.11789427,-0.0363145,0.15421884,0.1713462,-0.26353794,0.10674637,-0.059730753,-0.27105373,0.311654,0.27422893,-0.08919292,0.18235755,0.078712225,-0.026271835,0.27399483,0.32370794,-0.0053432146,-0.0020020884,-0.25491816,-0.09673227,0.12213539,-0.2758664,0.32179806,0.21430492,0.26401663,0.06997588,0.0077646347,0.17343816,-0.10630294,-0.20888615,0.08919259,-0.28134602,-0.33263266,0.026226176,-0.27715394,0.17565645,0.3031282,0.24511284,-0.09731711,0.22732028,0.24343717,0.092354655,-0.2545988,0.19037625,-0.09000284,-0.05879448,-0.32555845,0.25590158,-0.01694684,0.013605837,-0.27965805,0.19657606,0.27159345,-0.06842281,0.08461106,-0.26752794,-0.12862472,0.16735496,-0.23140211,0.012409454,0.22765307,0.1125734,-0.09439304,-0.2652145,-0.14651714,-0.23265132,0.038402677,-0.29987475,0.024751658,0.3567374,0.04837717,0.16925861,0.2945077,-0.005078438,-0.2644669,0.28922755,-0.10879271,0.12905791,-0.20849271,0.051972743,0.20845088,0.0990308,0.24654457,0.13805042,-0.0035694337