-0.13781002,-0.22445188,-0.17585249,0.065408394,0.20705353,-0.10730888,-0.26836032,0.011940449,-0.008926105,-0.17608891,0.2600756,0.081991516,0.2169583,0.043590497,0.18094467,-0.3270042,-0.118491024,-0.31498674,0.071639255,-0.049163647,0.107086256,-0.12484295,-0.18680839,0.020205975,-0.09244701,-0.14965826,0.2737393,0.14438473,0.22489493,0.040312156,0.018792437,0.012038809,-0.3038426,-0.30557337,0.033717014,0.033612456,0.26774615,0.15614976,-0.15690996,-0.25884593,-0.12120605,0.2211556,-0.08002596,0.24619003,0.22772889,0.12427658,0.0253774,0.05095347,-0.22740082,0.1993394,0.07131391,-0.14474943,-0.20158519,0.3090795,-0.2220728,0.16050681,0.029786479,-0.046732433,-0.08348328,0.19938426,0.118218526,-0.19882274,0.274808,0.22423281,0.16259761,-0.15539591,0.098951675,0.13737257,0.09234938,-0.034361046,0.2472093,0.2566816,-0.25198635,-0.14815934,-0.04373891,-0.24174583,-0.009399305,-0.13541698,-0.2565797,0.14882486,0.082265444,-0.06811332,0.23117869,0.21960472,-0.20891479,0.039691083,-0.2496729,0.21378283,0.07151957,0.21726204,-0.07242505,-0.1197551,-0.17497084,0.15966469,0.13017714,0.14108045,-0.024452941,-0.035519958,-0.30901718,-0.25401914,0.034145728,-0.26139176,-0.0066385157,0.25531134,-0.28565785,-0.24162027,0.14618187,0.115065664,0.011470321,0.19212985,-0.21908395,0.06229716,-0.21769634,-0.15083973,0.17349117,0.26654893,-0.1670769,0.29546764,0.18166085,-0.2146918,0.21314843,0.14145662,0.018158786,0.013382004,0.15357439,0.092682205,0.109184735,0.034688618,-0.2328623,0.0826333,0.03487527,-0.09550445,-0.24208152,0.025072638,0.19931114,-0.07952753,-0.07823655,-0.104839005,-0.239713,-0.05774723,0.15728226,-0.09597214,0.17733786,-0.2538285,-0.20757876,0.23325588,0.18818617,0.11001555,0.095045775,-0.1992534,0.15041317,-0.121331304,-0.20725402,-0.13855013,0.07599095,0.17843467,-0.22973688,-0.044466127,0.1380581,0.21869813,0.16131221,-0.24291861,-0.2384007,0.04780356,-0.051625244,0.25778407,0.18924832,0.24997476,-0.14648849,-0.21245037,0.027499862,0.19098842,0.03402632,0.03867912,-0.17870198,-0.18228555,0.1673457,-0.081728004,-0.2593004,0.1353532,0.23280162,0.08044977,0.19097145,-0.13676454,0.26919836,-0.16520043,-0.10265739,-0.05721671,0.073090985,-0.20817874,0.28308022,-0.23915926,-0.24304199,0.082491644,-0.28188077,-0.050865456,-0.12072725,0.14778407,-0.11647468,0.22214353,0.096735165,0.18702874,0.22902617,0.26424104,0.13077089,-0.0555225,0.12156787,-0.045238037,-0.15626968,0.1303762,0.091977134,-0.013231925,0.18074828,-0.09244115,-0.012820759,0.25652385,-0.0008493082,0.18073462,-0.015061949,-0.3260791,-0.08731913,0.21817571,-0.1629847,0.28791678,0.23145267,0.10252084,-0.12150846,-0.092558905,0.13143338,0.15349026,-0.19489527,-0.20279358,0.0032675145,0.23950078,-0.11599637,-0.1985763,-0.12143076,0.21466242,0.16716471,-0.09238178,0.28061903,-0.27210674,-0.21707606,-0.25071576,0.0060514305,-0.2423411,-0.11014722,0.14810152,0.1358138,-0.11074611,0.06600987,0.2850897,0.11224082,0.24527062,-0.17872532,-0.2684217,-0.032240756,-0.26814377,0.16946541,-0.027691469,-0.273516,0.2796935,-0.07695183,0.03336589,-0.23096634,-0.27897677,0.27466676,-0.028550215,0.05996116,-0.2799274,-0.09719038,-0.07199965,-0.1420556,0.3393578,-0.111903146,0.12495033,-0.20788021,0.23317063,-0.103955045,-0.15359361,-0.28283063,-0.022949513,-0.17165408,0.14162584,-0.22534668,0.27045768,0.109677866,0.23077306,0.064435214,0.020249574,0.13408267,-0.24135855,0.01565699,-0.08747774,-0.17558444,-0.13420385,-0.17219442,-0.12152411,0.238052,-0.037964735,-0.25698727,-0.17920855,-0.24955447,-0.1955039,0.04878447,-0.21750574,0.17659825,-0.2261453,-0.36684567,0.030943774,-0.2341134,0.26229006,-0.22688846,0.014234033,0.21470879,-0.11933713,-0.026154513,-0.28457186,0.2588992,-0.14032575,0.041683633,0.19708715,0.06871823,-0.10719938,0.010177727,0.26309636,0.23952556,-0.2046489,-0.07346467,0.08736624,0.10632264,-0.078067206,0.075508736,0.061602313,-0.08231215,-0.049388397,-0.22069342,-0.21905473,-0.14791276,-0.24197559,-0.2984046,0.16007975,0.020393867,0.094912626,0.027200498,0.1781619,0.08177548,0.27085254,-2.0514708e-06,-0.270987,0.107377365,0.11054299,0.036102593,-0.26275688,-0.011523884,-0.2933369,-0.087486126,-0.2557326,-0.02174298,-0.31072363,-0.2352085,0.20782518,0.12599024,0.22502542,-0.056637876,0.18034309,0.057279095,0.13733642,-0.09586666,0.007240654,-0.063291505,-0.18603612,0.23311123,0.058410868,-0.27195212,0.13847555,-0.12153927,-0.18989095,-0.14283381,0.01955304,0.1533104,0.05380725,0.0008639963,0.09963878