-0.031657673,-0.02136506,0.027273662,0.009346181,-0.01633306,-0.04149838,0.008411174,-0.0093269115,0.01788721,0.023870695,-0.039474234,-0.007847021,-0.0178474,0.02934436,0.020779477,0.029150544,0.012491244,0.006770898,0.036522355,0.019608114,0.024145951,0.032174584,-0.031582437,0.00439424,0.0079308925,-0.018727256,-0.011747803,0.0038986923,-0.0016216078,0.0076567763,0.031601537,-0.006800097,0.057396997,0.026049633,-0.040004037,-0.012323697,0.041936904,0.015364735,0.027421288,-0.034412038,-0.03181151,0.027340319,0.01640968,-0.024242718,0.021121707,0.018079964,-0.0071710977,0.0021228394,-0.011159883,0.0053395345,-0.05355907,-0.012407513,0.031024113,0.022602694,-0.028819056,0.0016623443,-0.007919423,-0.023786725,0.034553315,0.031163463,0.0045071184,-0.008365093,0.024968835,-0.01337149,0.017794747,0.014167622,-0.02815422,-0.048794754,0.016179368,0.020603035,0.00780639,0.012699551,0.026995277,0.029515995,0.019011524,0.023008775,0.0199305,0.03346553,-0.04098384,0.010122309,-0.0044139517,0.010946413,0.029144963,-0.0011006892,0.02054874,-0.025840353,0.048123237,-0.009529432,0.02193479,0.028242197,0.00646225,0.002420283,0.059697967,-0.04270947,-0.01170572,0.033732716,-0.032406423,0.0055403775,-0.059169196,-0.020399371,0.065649085,-0.022065418,-0.008213585,-0.05091506,0.006812522,-0.06831568,-0.015012309,0.013857266,0.044801924,0.03338042,-0.019495154,-0.030072236,-0.0075590904,0.02160968,-0.025241094,0.015393475,-0.0302571,-0.028326549,0.026473539,-0.017075064,-0.030633613,0.05107964,-0.040576626,0.03354942,0.0003365192,-0.040869255,-0.037658148,0.01734975,-0.05194297,0.064176805,-0.045220528,0.04994255,0.044508684,-0.034230985,0.011198174,-0.0036944158,-0.008671354,-0.048918713,0.018165657,0.014362361,0.009200617,-0.002421228,0.07582971,-0.038727727,0.018778589,-0.060898233,0.009527683,-0.031812575,0.006519371,0.007829314,0.023368262,-0.040971935,0.025015166,-0.06779456,-0.05335214,-0.041443616,-0.029840626,-0.05408738,-0.0066457284,0.0023115657,0.061109234,-0.04577637,0.02809251,0.01694612,-0.009852439,0.016756073,0.035994444,-0.05107598,0.007548616,-0.015082933,-0.012884349,-0.01864063,0.029032521,0.003384987,0.075185016,0.0406009,-0.061977692,-0.006661391,0.058267023,0.01881575,-0.027700007,-0.05028759,-0.012711011,0.036717582,0.036439706,0.005616352,0.00085802085,0.05468344,0.053882007,0.036723003,-0.010860002,-0.056954633,0.040879935,0.03456881,-0.0552546,0.035051055,-0.048358914,-0.045845356,-0.008414868,-0.004422642,-0.017014628,-0.0026562326,0.0043601594,-0.0032229736,-0.002720397,-0.01716539,0.0090308115,0.013300338,0.014309745,-0.025977952,0.0039116694,-0.029313907,0.032164354,-0.012335705,-0.04005694,-0.03624885,0.021018073,-0.032503843,0.011687332,-0.02963363,0.0125105865,-0.024212234,0.033708025,-0.014704392,-0.027710868,-0.022877486,0.015690232,-0.0129733,-0.009591511,0.018901214,-0.019178106,-0.037330795,0.008802205,-0.062026136,-0.026698384,0.0040133647,0.035020158,-0.0091415495,-0.032814432,0.030615691,-0.048745487,-0.051979467,-0.04416257,0.00863138,0.029575257,0.056252692,0.013803037,-0.055409003,-0.052278057,-0.016934153,0.014296889,0.02515409,-0.01817512,-0.039290685,0.044442553,-0.0097241,0.06659718,0.02513698,0.018210724,0.066393085,0.016680991,-0.004038467,-0.00068479544,-0.019260954,0.027459066,-0.041306023,-0.05480866,0.010317917,0.022287646,-0.05175791,0.043888476,-0.01837811,0.0085915765,-0.045658432,-0.019883923,-0.052375097,-0.031073058,-0.006670469,0.006136822,-0.024991052,-0.000961402,0.027380511,0.018282374,0.047425777,-0.05387175,0.03144843,-0.02808565,0.029700054,-0.011560929,-0.051884633,0.03576484,0.03339523,-0.0030046878,-0.019890008,0.038196586,-0.046345018,0.06915601,-0.040191106,0.05514583,-0.021069756,0.021632785,0.021280933,-0.023260511,-0.034686603,-0.054613266,-0.015796052,-0.020432686,0.020190218,-0.025780154,-0.0059412452,-0.024705326,-0.0055573997,-0.034112565,-0.014828044,0.06434152,-0.0048317076,0.056616575,0.007833513,0.008957642,0.040026218,0.052688185,0.004226167,0.035387814,0.008670983,-0.007261525,0.036785804,0.034684483,0.011083976,-0.021275636,-0.04686547,0.008188044,-0.040744364,0.0031421548,-0.0005675366,0.022572426,-0.003984491,-0.041882817,0.019552924,0.04737213,-0.042530812,0.025947873,-0.038880292,0.028258856,0.0075171767,-0.04286362,0.010435022,-0.007880517,-0.005340273,0.0055215573,-0.0012481738,-0.004329843,0.062971495,-0.03198728,0.018752342,-0.053038426,0.0052437065,0.051657256,-0.013344054,-0.012794263,-0.020863075,-0.027711626,-0.0045173606,0.034713723,0.0011199217,-0.022174241,0.018118853,-0.010376042,-0.0065946616,-0.018936308,-0.033216596,-0.056441113,-0.0007684782,-0.027276563,-0.042607673,-0.040362507,-0.03468316,0.031240985,0.04180266,0.04873305,-0.015343978,-0.010205418,-0.024832943,-0.05675566,-0.036007214,-0.0036259594,-0.024000807,-0.007493478,0.025461497,-0.030853765,-0.04150786,-0.035081524,-0.0017080212,-0.046198785,0.03863277,0.071560174,-0.049024742,0.024469804,-0.030434016,0.021688422,0.014408643,0.040153716,0.012413501,-0.053438514,0.03212027,0.051668476,0.04996643,-0.0555177,-0.04584264,-0.013125406,-0.027856419,-0.0064911437,-0.002407044,-0.012700221,-0.0021179332,0.03846101,-0.0103381565,0.004515503,0.0378109,0.02663365,-0.04294126,0.02163684,0.027170982,0.023302203,0.014510895,-0.057482153,0.04585893,0.027755529,-0.031585854,-0.049915258,0.014355696,-0.03454766,0.005190242,-0.037328936,-0.02546903,-0.029115196,0.01860336,0.04709925,0.018329993,0.004738758,-0.01862294,0.062425073,0.031831436,0.019573644,-0.04444501,0.003496162,0.0017252109,-0.03801936,-0.01946458,-0.055116806,0.010820655,-0.015524011,0.04906842,-0.012056889,-0.0465085,0.0090352995,0.0008943943,-0.005318241,0.03168984,-0.013660683,-0.016014528,0.011873282,0.021659203,-0.017322179,-0.030573163,0.051032193,-0.007031312,-0.014657344,0.040680822,0.02322887,-0.026010105,0.01573949,-0.047683634,-0.020097634,-0.014588773,0.023931522,-0.043151326,-0.027594961,0.0359287,0.01973322,0.012655752,0.022814402,-0.018580806,-0.004319809,-0.04632999,0.016377077,0.011643496,-0.0535815,-0.049808167,0.05792942,-0.019788539,-0.030800382,-0.0039697317,-0.027320202,-0.01645492,0.03820132,-0.024241626,0.012369549,0.034461357,0.016301306,-0.040412806,-0.029185552,0.063929975,0.039844565,0.028935602,-0.04430443,0.013939693,0.036571298,0.029602379,0.04807416,-0.03190728,-0.0404299,0.02327333,-0.01139777,-0.030407717,0.02651989,0.033575136,-0.04674387,-0.053303592,0.02577209,-0.0085176835,0.021073053,-0.012587763,-0.032964915,-0.001830183,-0.03770013,0.022004986,-0.027785819,-0.014573886,0.0021946393,0.025596863,0.013011205,0.020396557,0.020775054,-0.029526925,0.04763076,0.030019416,0.020666916,-0.039898586,-0.034505688,-0.05639297,0.0006315384,-0.049470846,-0.007221516,-0.0027180125,-0.010020607,0.040740773,0.029913176,0.028013878,-0.033695247,0.060916893,0.0057364083,-0.012396884,-0.018586429,0.007624531,0.040224858,0.048124585,-0.03180714,-0.017163906,0.03998208,0.020911895,-0.011607775,-0.055385947,0.012052696,-0.035744477,-0.04638658,-0.020792732,-0.00034998867,0.027937252,-0.022682067,0.025191568,0.0094459895,-0.029866414,0.023258511,-0.012282288,-0.035616253,-0.050223432,0.023757815,0.06363102,-0.027634036,0.015368947,0.005807639,0.00045711882,0.024553921,-0.0045211716,0.030415526,-0.022701127,-0.042599387,0.044931266,-0.011078704,0.025569068,0.009204687,-0.042866256,0.040289372,0.017511498,-0.023438876,0.0034184419,0.00039653786,0.042272896,-0.048984237,0.01863661,-0.061238084,0.0016624535,0.010435626,0.037453517,-0.025291871,-0.011935394,-0.03851244,0.0013992254,0.034430046,0.03969754,0.051329754,-0.02163369,-0.03885147,-0.016080476,0.035600446,0.0056638713,0.041022006,0.01744514,-0.011737423,0.06376387,-0.04040398,-0.03539465,0.0052957092,-0.021315455,-0.06628212,0.0010718202,0.010655946,0.0012630508,0.028014816,-0.045184813,-0.07064343,-0.0042082374,0.014323497,-0.03999429,0.01003881,0.008340706,0.015984926,0.03840468,0.011436188,-0.035439197,-0.03696025,0.025827283,0.01869948,0.04404078,0.03649737,-0.026574172,0.008587906,-0.041205637,-0.05126052,-0.021630483,0.02733921,0.001780849,0.025783315,-0.04302116,-0.035729196,0.028413415,-0.04483878,0.037983257,0.020942211,-0.01626848,0.053142216,-0.0038582697,-0.019939872,0.039501585,0.017770175,-0.011051985,0.005187221,-0.054856237,0.0030362383,-0.037269026,-0.014988773,-0.0017476187,-0.0779501,-0.030848246,-0.01754642,0.016185727,0.0008474964,-0.0017730702,0.004728374,0.02585617,0.04132447,0.018483235,0.014416967,0.008290857,0.023884367,0.063859075,-0.021947965,0.030710544,0.010842167,0.040347066,0.032450307,-0.037992775,0.019359741,-0.022732066,0.026954366,-0.002834063,-0.033227157,-0.031409822,0.012186618,-0.050523125,0.0368701,0.0035718232,-0.02848165,0.07348466,-0.05074159,0.004993455,-0.05349713,-0.0050276755,0.039181743,-0.021585802,-0.0049055456,0.074861035,-0.036105618,0.02732807,-0.020391831,0.031007681,0.005588458,-0.039484486,-0.003514543,0.034346174,-0.014555138,-0.019593948,-0.02232648,0.008895963,-0.044893667,-0.051641505,0.0457224,0.0033010286,-0.0012115064,-0.030641595,0.05189356,-0.013773652,0.011167286,0.019938966,0.018647932,-0.038423344,-0.028969413,0.01610038,0.029049044,0.011989931,-0.04305592,0.034584265,-0.058700647,-0.009174634,0.060914785,-0.0149702635,0.0028329587,0.025555037,0.059564188,0.039493803,0.03600968,-0.04541237,0.04049694,0.03299753,0.031054158,0.019311246,0.035211924,-0.028451974,-0.017033555,-0.029073201,-0.04097323,-0.05034762,-0.05466327,0.047292124,0.0560238,-0.02561733,0.00021488045,-0.017729484,0.03512119,0.028287163,0.028697038,-0.009688754,-0.02909739,0.0057270764,0.024832187,-0.044634443,0.040891368,-0.027727993,0.04208561,-0.047059856,-0.024092166,-0.040446997,-0.009242891,-0.0073527335,-0.0018855911,-0.013324348,-0.0296881,0.02128342,-0.03928955,0.0330896,-0.021202082,-0.022789078,0.028813265,-0.016296811,-0.024665857,0.007820072,0.025872009,-0.03636235,-0.017656438,0.041514944,-0.028829439,-0.021613466,-0.040133327,0.0019510936,0.032898095,0.04645553,-0.02968406,0.018758139,-0.00020453091,0.03584494,-0.029748572,0.0018317378,0.024930945,0.035396464,0.015536296,-0.008655873,-0.035221487,0.0021623324,-0.0052565713,-0.0115918685,0.038551986,0.0074716033,-0.043912046,0.028404575,-0.015225755,-0.028777147,0.034538407,0.019683255,0.041977126,-0.016196031,-0.0493297,-0.05171004,0.015001801,-0.05381127,-0.036599565,-0.07404861,0.017021809,-0.014358983,-0.030990718,0.032608733,-0.025794156,0.034642566,0.04139718,-0.0077181086,0.023885794,0.020072304,-0.052113157,0.016708722,-0.020456417,0.0033143659,0.0071812044,0.027342664,-0.031037753,0.02337322,0.02599756,-0.043928422,0.012553517,-0.050185114,0.034294877,-0.021802882,0.06436447,-0.017893285,-0.0027080823,0.032248512,0.03817286,-0.008780921,-0.03423069,-0.034710865,0.026499972,0.020481229,-0.004161139,-0.05248002,-0.051140938,-0.023176648,-0.047996465,0.04922715,-0.0007125504,-0.046557292,0.034082834,-0.01742478,-0.0013577383,0.043453332,-0.03784996,-0.055200957,-0.020970514,-0.0015586707,-0.002557768,-0.022064207,0.0063389344,0.0045012627,-0.0037167282,0.045507703,0.033101376,0.028903557,-0.033956226,0.0134048,-0.030426895,0.03136428,-0.035966,0.032227766,0.017986143,-0.011828281,0.05637004,0.0028422852,-0.013283654,0.035104472,-0.021852067,-0.016920049,-0.0075813425,-0.013234214,0.0046216697,-0.046472613,0.035714645,-0.008482533,0.031533353,0.03427444,0.048199505,0.03461934,0.020359343,-0.050126266,0.051404208,-0.04572485,-0.030710027,0.045948423,0.020515643,0.039177854,0.03167911,0.017384386,-0.021892661,0.008422721,0.027712328,0.01593734,-0.0010502454,0.029966723,0.011647354,0.003242784,-0.053017285,-0.038925275,0.039620772,-0.009537421,-0.005285255,-0.01829719,0.06188552,0.0033888011,-0.00035314463,0.026096307,-0.04522507,0.024561958,0.017038254,-0.0061561232,0.0057155075,0.0035673664,0.049507227,-0.0059610726,0.02775663,-0.0328452,-0.0471299,0.0056459936,0.018851744,0.008346213,-0.0076634563,-0.00054538355,-0.0003809949,0.042146146,0.018048555,0.030893415,0.009359862,-0.051144313,-0.022709671,0.028936,-0.02903479,0.0018932894,0.0018488832,-0.031751595,0.019071894,-0.053732555,0.050522104,-0.058036696,-0.027354846,-0.00022259024,0.02026245,0.022866275,0.02705976,-0.05460102,-0.036184665,-0.0055459375,-0.032657847,0.020441122,0.055044424,-0.04250588,-0.011770881,-0.03305763,-0.005421707,0.03066874,0.024947453,0.016172905,-0.028235747,0.008610416,0.05112111,0.016374554,-0.013578372,0.0023268703,-0.005105394,-0.029402047,0.0076333783,0.0056103943,0.037677288,0.03198206,0.034080558,-0.029588595,0.039699182,0.024260743,-0.016493674,-0.020593174,0.0038269963,0.025201786,0.029840091,0.036793668,-0.03588405,-0.0020577998,0.003994664,-0.034803048,0.029491689,-0.050890382,-0.029418163,0.026378527,-0.0574053,-0.013646851,0.017882448,-0.009027123,0.049793877,-0.039078668,-0.043741982,0.029761631,-0.0427817,0.007855833,-0.018218014,-0.06561986,-0.01796364,0.036031064,0.04024263,-0.017071739,-0.03758606,0.0057766354,-0.017027184,0.015405404,-0.054495674,-0.037693564,0.025407333,-0.0557232,-0.015704269,-0.04151918,-0.024418322,0.028499505,0.004952268,0.024531566,0.050952867,-0.04206332,0.041463293,-0.046506807,0.0063268812,0.055092324,0.00012906747,-0.0060891984,0.009707612,0.0071395324,-0.036476053,0.04517533,0.03911862,0.039362386,-0.03630743,-0.04768585,0.025286246,-0.019122167,-0.024019282,0.018074183,-0.007369936,-0.035823684,-0.045651034,-0.030712502,-0.025689434,-0.024452979,-0.0019362738,0.008953716,0.0030755906,0.01917675,-0.010467676,0.017510176,-0.021877564,0.018981079,0.019434005,0.03238771,-0.027625104,0.01442244,0.027092164,0.0071686315,0.043198086,0.010721669,-0.025567655,0.0009807317,-0.022912286,0.009677876,-0.040040918,-0.013367736,0.0155097125,0.01908012,0.035850745,-0.040912237,-0.03773208,-0.058553897,-0.010347982,0.023229811,-0.03991085,-0.028171407,-0.030686459,-0.0022939274,0.025290323,-0.009843333,-0.04136369,0.007964104,-0.021561056,0.043591794,0.05199625,-0.008449156,-0.038443267,0.026520237,-0.01287715,-0.04541484,0.045200646,-0.035710104,0.02335227,-0.052804694,-0.027302697,-0.0057825414,0.046985272,-0.022900172,-0.037473764,0.016431386,-0.010719038,-0.013370179,-0.010727436,0.006900054,-0.05501405,0.0084789,-0.022031346,-0.04610214,0.04151694,-0.04082211,0.02498639,0.00033515604,0.014680329,0.019249318,-0.0331314,0.059099793,-0.021254472,0.038279813,0.01370069,0.014828247,0.03128476,0.016125327,0.0067772656,0.02245352,-0.039225448,0.04420736,-0.020753473,-0.014474953,-0.008448908,-0.019935325,-0.015508931,-0.052944202,-0.014559199,0.016778324,-0.06394478,-0.051945925,-0.040669646,0.051027298,-0.0047042137,0.009981625,-0.047453932,-0.04968621,-0.060122155,-0.011847407,-0.020843208,0.01942303,-0.02172755,-0.045898516,0.036152966,-0.018868677,-0.057592466,0.021815034,-0.011655672,0.025591532,0.01288276,0.065572195,0.037849218,-0.017150372,0.016243177,-0.027314177,-0.0018598974,-0.025460973,-0.05203978,-0.039844405,0.009419676,-0.03347532,-0.0011258647,0.0037590656,-0.05580935,0.025467355,-0.013517536,0.0047453684,-0.03826003,-0.0017708028,-0.01660556,0.038271148,-0.04678202,-0.030940734,-0.011293917,-0.041597925,-0.0033868935,0.033934847,-0.009732285,0.0030916687,0.059302326,-0.025192302,0.02266342,-0.0062965453,0.03749825,-0.015047781,-0.0067666066,0.0015524526,-0.036755465,0.039262388,0.012753002,-0.006273425,0.03938837,0.0264302,0.010817262,0.05072815,-0.018221077,0.03573567,0.030581374,0.047402807,0.030246519,-0.0013425441,-0.034866553,-0.02889352,-0.05430289,-0.017064225,0.03272955,-0.039792657,0.011333691,-0.04990187,0.025125042,-0.04956689,-0.027620692,-0.030934766,0.0030500873,0.01922903,0.007801965,-0.06864299,-0.0009573889,0.03644347,-0.018081862,0.04001451,0.04631912,-0.029479146,0.0046948125,0.021311315,0.026426155,0.021159284,0.031083165,0.027808761,-0.013957476,0.0522012,-0.0047409283,-0.026683258,0.034523655,0.02804403,0.012150541,-0.052070465,0.017291375,0.037145413,0.017661635,-0.044838574,-0.021748934,0.017239122,0.01815402,-0.042420786,0.0145817585,0.038276646,-0.005573889,0.040792186,-0.05580449,0.0034275542,0.023912018,-0.021885026,-0.036895916,0.019324018,0.025939392,0.039741803,-0.020827418,0.03449717,0.01853085,-0.037635863,0.007013555,-0.02264041,0.03690855,0.034782458,0.017791148,0.0048120357,-0.007919878,-0.004962813,0.041181058,0.04049446,-0.03278781,0.00770976,0.011189132,0.011243108,-0.0032636644,0.041242253,0.019132629,0.047236715,-0.030011319,-0.0111331185,-0.064633094,0.026197653,-0.0029071714,0.030439053,0.026095152,-0.03479417,0.027122483,0.015643984,-0.042935953,-0.0002545489,-0.025731763,-0.0052122436,-0.008575161,-0.031948447,-0.036800724,-0.017458603,-0.030687017,-0.048385516,0.023900965,-0.0015556322,-0.0284545,0.014391625,0.031117594,-0.039010137,0.009264568,-0.043742187,-0.009175142,-0.039321076,0.020061921,-0.046197224,-0.009945543,0.017654542,-0.0037415524,-0.01865025,-0.015528541,0.023336984,0.051063612,-0.0008412128,-0.01564323,-0.012383752,0.046272244,0.05229413,0.006590564,0.040251162,0.0037048974,-0.021734182,-0.014486615,-0.029404711,0.02575316,0.044027265,-0.049154837,0.0007422846,0.002780828,-0.04516199,-0.013212824,0.049441006,0.03409904,0.030225916,-0.020001344,-0.04730708,0.031281613,-0.013624108,-0.028096145,-0.010591924,-0.027585285,-0.010926651,0.017400924,0.013734702,0.030989666,0.02321542,0.026538583,-0.014619533,0.033553656,-0.022195987,-0.01933818,0.0312909,0.010984772,0.00086488307,0.011186412,0.03911484,-0.066616625,-0.0064486675,0.024803065,-0.026781023,0.0060183452,-0.013989709,-0.05721292,0.015877292,0.014964352,-0.021212857,0.00020140302,0.04118601,-0.029959308,-0.024334574,-0.049690377,-0.049688123,0.02995755,-0.002949596,-0.001303462,0.03590332,-0.03834058,0.037074707,0.02374198,-0.031566173,0.021861719,-0.002555514,0.016919127,0.008277555,-0.0048775054,0.029066961,-0.031419363,0.012483773,0.0003261483,-0.0078924745,-0.028794013,-0.031764172,-0.047070492,0.029060872,0.04289278,-0.030664334,-0.036590543,-0.024466818,0.011872941,0.021439731,-0.034006048,-0.03898329,0.032368045,0.01602972,-0.021798054,-0.04505984,0.0013042216,0.035640746,-0.008738861,-0.041465804,0.032205284,0.025892496,-0.025696175,0.020331223,0.016394718,-0.047000892,-0.049964324,-0.02196079,-0.0055601588,0.00042630977,-0.015930627,0.004795731,-0.010154002,-0.035349607,-0.0019238031,-0.030291103,-0.002020614,0.0212912,0.049586,-0.015460285,0.018755699,-0.053192947,-0.054418392,0.008626832,0.03409524,-0.045188066,-0.0308779,0.005603192,-0.057889994,0.054000296,-0.04858065,0.05500703,-0.010619575,-0.010007961,0.018690722,-0.027894484,0.029027296,-0.010029485,-0.029682316,0.034951128,0.009616636,-0.025276046,0.013325311,-0.054854963,-0.04335822,-0.0011398982,-0.018468438,-0.044664316,-0.056503806,-0.049688797,0.01190324,0.023865694,0.051664166,0.033820048,0.023500336,-0.029589871,0.02573385,0.034129396,0.05670276,-0.016240982,0.002061025,-0.05257606,-0.0059623127,0.0107291415,0.024202382,0.007051835,0.033697505,0.016106322,0.028286701,-0.018752228,-0.018164411,0.00014630874,0.033509273,-0.018365648,0.046976432,-0.05573508,-0.03000888,0.038618658,0.01518947,0.03844894,0.038278673,0.01104538,0.015254175,0.04573356,-0.008843427,0.0017187756,0.0024838238,0.022842582,0.0009172698,0.03473616,-0.023199957,-0.01501356,0.033749588,-0.020506766,0.023745721,0.00031180607,0.029000456,0.030202921,0.016283127,-0.012413714,0.007487419,-0.0005528592,-0.02779785,0.039753284,-0.042404212,0.01729913,0.034992993,0.02819116,0.010574728,-0.029249832,-0.021725822,-0.042695407,0.031035619,-0.0041681547,-0.030025903,0.035585906,-0.05596494,-0.023866335,0.015861621,0.052988622,0.0067301057,-0.023281803,-0.016004745,-0.023487402,0.021370346,0.027349867,-0.031897835,-0.018061252,0.027656151,0.023779871,0.02994071,-0.049184468,-0.03785027,0.0038721107,0.011060825,-0.03416949,-0.0030738027,0.009087768,0.02760217,-0.047343418,0.030797783,-0.0072496017,0.03945781,0.048117645,0.014556413,0.0042083,-0.032431606,-0.009171137,-0.06632866,0.04180727,0.019494314,0.0032873824,0.021927955,-0.008261373,0.022085657,-0.027004272,0.0022095891,-0.072601,0.030454699,-0.0065921424,0.0676632,-0.042229943,-0.0494405,0.029455515,-0.02716941,-0.0015155073,-0.0018212658,0.0008519067,-0.009226113,-0.010782985,0.032416407,0.009069994,-0.043464504,-0.02004028,0.01662687,-0.02093731,0.022150856,-0.053775292,-0.011096135,0.0469616,0.043677956,-0.035301108,0.05453557,-0.017806875,0.052076697,0.035825238,-0.026396403,0.043240182,0.0015579644,0.01665384,-0.05205405,-0.02764579,0.03901929,-0.05438096,-0.04144318,0.04510081,-0.050562445,-0.03184983,-0.06874559,0.018845646,-0.054826654,0.02589146,-0.022213133,0.021160385,0.013599191,-0.03602697,-0.012596452,0.03473807,0.027282873,0.021235397,0.041886315,0.009168642,0.047283497,-0.04399556,-0.052384727,-0.026636815,0.047062278,-0.037450153,-0.012373199,0.067678824,-0.04722773,-0.024752349,-0.012214885,-0.013744541,-0.0334076,0.03391455,0.05417306,0.051638417,0.017673057,-0.0068854103,-0.01822625,0.04694612,0.037055157,0.04171186,0.020086387,-0.010119311,0.01242469,-0.025251204,0.04272226,-0.018996267,-0.021053921,-0.030029852,0.06818197,-0.026183344,0.035508752,-0.023438353,0.021239469,0.0023001577,-0.008153367,0.03531176,0.020626774,-0.044680245,-0.029589081,0.03554592,-0.028112076,-0.008148881,-0.06562469,-0.035827342,0.03140993,0.015307571,-0.0031596886,0.005184171,-0.033014398,0.057099875,0.055685215,0.0038260943,0.018282851,0.039659202,-0.014993584,-0.010785193,0.013290846,-0.03698492,0.019905467,0.019313434,0.038248453,0.010963448,0.008074129,-0.018093089,0.0062760725,0.015684705,-0.045020327,0.026693668,0.031975657,0.003953144,0.025145236,0.025653178,0.036871757,0.00017123646,0.030630272,0.021549443,0.04589135,0.006715484,0.03159618,0.035595283,0.011461504,0.050451223,-0.040948737,0.019791406,-0.04881178,-0.03197898,-0.03210609,-0.029099317,-0.046683054,-0.003776076,0.01719925,-0.044406373,0.046106156,-0.011897819,-0.059170976,-0.02848688,-0.004362634,0.026367992,-0.03978209,-0.033604015,0.01978882,0.0033798462,0.010012247,-0.034177255,-0.031493895,-0.06829664,-0.022630328,0.027031736,-0.027795246,0.03217865,-0.011108286,0.0017881431,-0.007146917,0.010973009,0.0027153948,0.0134347435,0.022793408,0.0286013,-0.044572245,0.010974613,-0.02342376,-0.0054731085,0.0028316774,0.042866144,0.03917464,-0.018952664,0.014364915,0.029831419,0.03881789,-0.040144663,0.013297742,-0.012970939,-0.0102369655,-0.00068400626,-0.051543124,-0.006132425,0.009095053,0.0044349185,0.0026262417,-0.02339603,0.02331176,-0.04918633,0.03303084,0.029397773,-0.019303089,0.03557388,-0.006689179,-0.038601745,0.009203214,-0.0034315512,0.018342094,0.020298015,-0.0134583805,0.015670322,0.011043917,0.0038687733,-0.03773002,0.042440034,0.0022311313,0.025534322,0.0027902687,-0.012970149,0.005096298,0.042513505,0.062174566,-0.052384138,-0.025834734,0.027285304,0.035800084,-0.03536169,-0.023125522,-0.037470132,-0.05129327,-0.012820972,0.03545432,-0.03727296,-0.043623127,0.03746479,-0.044735257,0.039874557,-0.020535085,-0.050425343,0.041802175,0.0062388913,-0.031809665,0.059911143,0.011477155,-0.04438682,0.031672325,0.044675235,0.02852618,0.04952519,-0.00032348747,-0.04028412,0.034101997,0.030127123,0.04016517,0.0030622166,-0.030573994,0.016488867,-0.015698202,0.0592771,-0.034124892,-0.04155392,0.0065201116,0.025035812,0.025662953,-0.0037062187,-0.0028736806,0.016979836,-0.0024254175,0.04632861,0.038690217,0.0075349654,-0.021071883,0.058772977,0.002665643,-0.03160578,-0.039120764,0.0023351521,-0.027074637,0.019725177,0.033059496,0.0058350065,0.033962887,0.014288722,0.0004394782,-0.02958657,-0.052511718,0.015126905,-0.030406384,0.03581703,0.029702606,-0.035108414,-0.057853766,0.0028074887,-0.020250643,0.0562863,0.0037693987,-0.04754923,0.025190815,-0.03804654,0.046159003,-0.042793445,0.0004566192,-0.04824715,-0.049866613,0.018462641,0.028413568,0.03525615,-0.037465468,-0.029592149,0.052034244,0.038172234,-0.017110666,0.037359834,0.008777245,0.0071661975,0.043074515,0.030394046,-0.011845717,-0.0267395,0.04240485,-0.020800376,-0.03260045,0.005568536,-0.019692255,-0.040234014,-0.0045212912,0.009194356,-0.033172097,-0.0014206416,-0.035780158,0.030000167,0.005460182,-0.027847819,-0.007865808,0.037290435,0.029050639,0.018141694,0.013602401,0.04049502,-0.024245193,-0.0042287773,0.04711337,0.036923267,-0.003562776,0.012554971,-3.6507823e-05,0.008398049,-0.026053045,0.026887631,0.019422699,0.041438166,0.03554411,0.018825686,0.05678422,-6.641964e-05,-0.01982424,-0.035296075,0.030532697,0.054226995,0.04847442,-0.020357268,-0.050374307,0.0426508,-0.04199044,-0.025003895,0.040025506,0.023630358,0.042611152,-0.006219582,0.011316997,0.031642545,-0.04445123,-0.033964034,0.024538923,0.026119037,-0.03527656,0.011621232,-0.007051569,0.020732827,-0.0128694745,0.039503787,-0.0062500844,-0.017552955,0.0010080254,-0.03251404,0.004168549,0.03866301,0.006362127,-0.005820889,0.048144992,0.04281626,0.024103109,0.0052426155,0.0052079097,-0.016593965,-0.041356307,-0.040399406,0.057952713,-0.025337104,-0.015807418,0.057521764,0.034054138,0.029271811,0.028295146,-0.030203901,0.070238054,0.037965413,0.06199094,0.026136765,-0.004886095,0.02302652,0.031515278,-0.014806032,-0.023430154,-0.031909466,-0.041341037,0.010390228,0.05221576,-0.034281835,-0.04733932,0.007020759,0.021383982,0.014782385,0.05735993,0.032706406,-0.054188844,-0.0060151764,-0.003057883,0.014558264,0.020559147,-0.018428048,0.02406972,0.0018924193,-0.025829602,-0.045891948,-0.022252256,-0.002335104,-0.03760153,0.035096895,-0.015600536,-0.0041577406,-0.019521894,-0.044085898,-0.038978875,0.008366479,-0.046717796,-0.008313817,-0.019064534,0.04440948,-0.032985628,0.061922584,-0.0052554533,0.028458048,0.02353124,0.008794841,0.02999845,0.030602153,-0.032240137,0.032006137,0.019757997,0.0038533614,0.04060049,-0.043119553,0.016497545,0.052278765,-0.010745315,-0.021375557,0.025724882,-0.011534123,0.034438018,0.04442503,0.027482303,-0.0037358417,-0.015800932,0.0011560423,-0.016471114,0.04327842,0.03252213,0.045670852,0.04170997,-0.04152803,0.043165423,0.009866083,0.013519567,-0.049749523,0.013693134,-0.014064589,-0.032107335,0.020116307,-0.038924154,-0.009584923,-0.010240589,0.05121011,0.0644828,-0.006773366,-0.044925053,-0.034236424,-0.016814403,-0.042777743,-0.022443518,-0.03757567,-0.019407798,-0.04593131,0.0013742702,0.03453859,0.032340754,0.022156902,0.014479684,0.045032565,-0.047360078,0.03886605,-0.045688234,0.03382551,0.010397208,-0.005658901,0.023124672,-0.0013111867,0.050831877,-0.035536926,-0.048011396,0.016537355,-0.04696983,0.029288407,-0.00052641943,0.004411622,-0.014059394,0.049129497,-0.026904983,0.048363436,0.03170403,-0.040869437,-0.008729114,0.010252158,-0.010463968,-0.054635994,0.029663468,-0.04563181,-0.0031212196,0.007405114,-0.022339344,0.014038074,0.02775043,-0.06279387,0.030637275,0.037562456,0.040513467,0.02162832,0.010713669,0.00013402064,-0.0172779,0.04530506,0.051655244,0.021885334,0.021749625,0.0563883,0.044298194,0.025823817,-0.034109704,-0.0012056604,-0.054927457,0.019306483,-0.022775562,-0.014526806,0.022087136,-0.0018928743,-0.04602528,-0.02645253,-0.041010294,0.01307529,-0.03568793,0.007847799,0.015285331,-0.052617088,-0.04217052,-0.06804315,0.067806445,-0.06494571,-0.028697943,0.051561937,-0.013285576,-0.04990028,-0.061598342,0.019190291,-0.046175744,-0.014955842,-0.03779085,-0.014276068,0.021324206,-0.0699951,-0.052466445,-0.032324675,0.04283042,-0.042139743,0.0179973,0.037466682,0.01084182,0.03131032,-0.011712492,0.014897752,0.033982627,-0.0348826,0.0039635757,-0.020888887,0.057530757,0.045713063,-0.018054603,0.02815052,-0.0066585816,-0.01554114,-0.032399833,-0.0508124,0.06888991,-0.032381404,0.001243058,0.04244617,-0.017991567,0.0010968447,-0.011258117,-0.0033878835,-0.04789239,0.021038465,0.05082727,0.018582432,-0.025287488,0.010652312,0.0092699425,0.0009706534,-0.035843596,0.001797125,-0.043078806,-0.016726593,0.01693324,-0.07164466,-0.051992714,-0.047141675,0.0016779938,0.013494011,-0.0018245069,-0.02734093,0.053296104,-0.01711957,0.005336979,0.020102799,-0.0017179663,-0.052492116,0.011457594,0.001598901,-0.025364641,-0.01176172,-0.023077767,-0.06645186,0.013999804,-0.03760762,-0.03426989,0.00884108,-0.040284295,0.023993092,0.00732607,-0.015041569,-0.0065790787,0.012325936,-0.015013744,0.0066494653,0.044255525,-0.044457555,-0.041765377,0.010733446,0.0101761855,-0.024327995,-0.051197723,0.016803248,0.0074266423,-0.010532111,0.025883341,-0.05842433,-0.045288704,0.016008988,0.022585029,-0.0074108206,-0.060666274,0.04304384,-0.011128887,0.031215647,-0.01915191,0.09098691,-0.027803458,0.008740814,-0.033188555,0.03455482,-0.033711355,-0.0117672365,0.031701777,0.028820846,0.0058228937,0.009421511,-0.010883932,-0.0019226862,-0.034284204,-0.026209878,-0.06158236,0.01007085,0.01670251,-0.007158884,0.00045534052,-0.006102183,-0.00570989,0.011198905,-0.030273672,0.032556936,-0.043871127,0.035880823,-0.03510649,0.03415828,-0.015406042,0.011700924,-0.019724272,0.03583038,-0.053085856,-0.02362165,0.0061666095,0.013320975,0.062474586,0.012420573,0.072771154,0.01790742,-0.008462834,0.026517043,0.017405184,-0.039939,0.025025638,-0.00885813,-0.027701266,0.0565416,-0.0013587016,-0.0144763645,0.07839701,0.014739338,0.021754835,-0.032657903,-0.031471044,-0.03657586,0.031376798,-0.05412603,-0.0073980964,-0.031558767,-0.02658109,0.0121969115,-0.04828108,0.030144757,0.05703154,-0.034550864,-0.012243964,-0.01235581,0.002038807,-0.016867736,-0.02351364,-0.007897512,-0.010680843,-0.011523405,-0.037855156,0.039631624,-0.01740222,0.04042783,-0.03435042,-0.00583864,0.01014359,0.034324028,0.025402857,0.053954616,0.011158635,-0.046244267,-0.02348883,-0.036222555,-0.023144893,0.019035496,-0.036297705,0.010185471,0.027678646,-0.025190841,0.008048443,-0.01308822,0.05237675,-0.025865005,-0.022361454,-0.017320767,0.05147866,-0.0045804046,-0.0071394397,0.021232605,-0.0035346036,0.018440837,0.017815683,0.010397256,-0.015881708,-0.020330718,-0.014112614,0.007444275,0.029229833,0.04390619,0.051764928,-0.03079517,-0.058121867,0.039416708,-0.028465271,-0.05026175,-0.02052759,-0.021315025,0.042497046,0.026484082,-0.013779293,0.03642081,-0.017649626,0.040167637,0.014406739,-0.03523075,0.001724757,0.02988912,0.04258343,0.012002421,0.017322537,-0.04090167,0.011111423,0.04814291,0.0068338057,0.024354326,0.008944488,0.018998709,0.024362937,-0.011223488,0.030166226,0.038016997,0.0269558,-0.017109469,-0.025910422,0.03549827,-0.041618448,-0.0012052692,0.009575178,0.035117995,-0.02955094,-0.01346506,0.034068614,0.05910544,0.017981628,0.019591618,0.040280137,0.021510815,-0.0014355505,0.008785457,0.029587135,0.0471743,-0.02159299,-0.015361455,-0.013354108,-0.00689366,-0.036327027,-0.054440394,-0.029417235,0.023864718,-0.0113128815,-0.0032284518,0.034080267,-0.028233672,0.03257378,-0.008822177,0.037285343,-0.0044032796,-0.006729926,-0.05054563,0.017158352,-0.010172934,0.05348738,0.024022678,0.03333036,0.04635602,0.054649584,0.02027044,-0.0064731543,-0.004831117,0.024076473,0.031631697,0.025377577,0.016947633,0.031239498,0.056401998,-0.019718654,-0.03414771,-0.017727636,-0.007304287,0.03967598,0.008476968,0.013413016,0.025667835,0.0062997,0.03996679,0.015631773,-0.04984834,-0.013187725,0.0035115874,0.013262971,-0.033751942,0.039359514,-0.032091714,0.023938593,-0.04141998,-0.040744048,0.030404426,-0.0025127225,0.042817984,0.020593984,-0.0052498654,-0.051125675,0.026045583,-0.029966528,-0.003876857,0.037829604,-0.00828167,0.0052089924,0.044412795,-0.052329827,0.022467744,-0.020386813,0.029802687,-0.054056935,-0.04187015,-0.02570941,0.014471532,0.021991018,-0.02732204,0.00951146,-0.02497094,-0.028763635,0.015256739,-0.0076626055,-0.025412932,-0.027078366,-0.019802758,-0.006711503,-0.054291535,0.010360984,0.037017383,-0.027485842,-0.031949457,-0.007795087,-0.039770227,0.030584961,-0.0635425,0.023377921,-0.0018588015,0.013647143,0.0003044078,0.037403475,0.032630295,-0.042298928,-0.0085922675,-0.03145781,-0.04090116,-0.027734635,0.024035774,-0.039446037,-0.04673405,-0.03813388,0.022764383,0.010876073,0.00063857064,0.042105705,-0.033511005,0.0048303194,0.034744028,0.020568885,0.0053653033,-0.05526049,-0.052729435,-0.03243663,0.02624118,0.019904062,0.01135216,0.0314607,-0.030542504,0.0016420806,-0.040798485,0.027477719,-0.0460545,-0.028702857,0.035501268,-0.035176214,0.04583962,0.0006280134,0.019632963,-0.035471644,-8.709e-05,0.02938454,0.03852436,-0.0077647455,-0.039510675,-0.028591137,0.024373632,0.021625837,0.006626442,-0.03777005,0.006334616,-0.033692908,-0.021938758,-0.026037334,0.03709091,-0.016177896,-0.020624593,0.01415905,-0.021451727,0.014361033,0.0041821375,-0.025464103,0.036650132,-0.008300642,-0.021502921,0.005978029,0.014852122,0.04459675,0.011772148,-0.016160185,-0.009075496,0.010223012,0.0005455882,0.039780457,-0.04443139,-0.029310297,-0.0060106,-0.009298107,-0.008749299,-0.056724172,-0.009592387,0.024579462,-0.026540464,-0.057480857,-0.019259755,-0.0144754015,-0.06558763,-0.04556625,0.035928242,-0.030749192,-0.043608043,0.052048214,0.011145867,0.057098053,-0.052699957,0.026354238,-0.000590191,-0.064363524,-0.026267774,-0.0017845564,0.00072946516,-0.019057186,0.0040896316,-0.017522011,0.039193142,0.030331513,0.04400074,0.0022461037,-0.058264274,-0.0071400036,0.05520528,0.002121291,-0.016350633,-0.0035612108,-0.006367423,-0.04770235,0.026751649,-0.044543296,0.009227245,0.0022063795,0.038769927,0.0046944846,0.027321542,0.008023514,-0.02633043,-0.032131754,0.036983337,0.039486285,-0.031943478,0.0046561104,0.031801865,-0.0446005,-0.0025601275,0.0138804745,0.019078102,0.02838212,0.00024815463,0.0073612807,0.018970098,-0.02030948,0.008406219,-0.019806484,-0.0054929517,-0.014350143,0.0128173195,-0.023124725,-0.014970537,-0.04734939,0.0055549247,0.008034002,0.056184057,-0.062289793,-0.025417892,0.008864712,-0.009685464,-0.011646039,0.032171603,0.060368933,-0.04710158,0.035026267,-0.03037503,-0.028798085,0.044765558,0.013643731,-0.031823512,-0.01624582,-0.02491511,-0.022644633,0.034189995,-0.050358273,-0.014778279,-0.04350135,-0.011391563,0.01884445,-0.06042279,0.029107783,0.056946322,-0.042964652,-0.0022078194,0.05800735,0.030588014,0.049813062,-0.048757367,0.04209456,0.01921432,0.023239246,0.027075578,-0.03248316,-0.013026291,-0.020011907,-0.022567624,0.030590769,0.029143155,-0.034547552,0.033979822,0.05212936,-0.008582249,-0.037889935,0.012978167,-0.05322873,0.03707839,-0.015847145,-0.056145072,0.022308782,-0.019156681,-0.055728834,0.009534996,-0.023839317,0.033935234,-0.0074656233,-0.052448094,-0.0076991334,-0.02941723,0.011696754,-0.00708975,-0.055401873,0.042551693,0.026375704,-0.058435492,-0.02863178,0.024775323,0.056572054,0.017433055,-0.024472157,-0.026260149,0.00869638,0.001950156,0.04439487,0.024370689,-0.021129541,0.044649377,0.03265937,-0.024459463,0.009910065,-0.020513339,0.025804749,0.0066012386,-0.030345144,0.00093336456,0.0039385073,-0.04252169,-0.0007690216,-0.019263005,0.028579589,-0.022203654,-0.03135698,-0.013801271,0.04125206,0.040763028,0.0044945455,0.042282443,0.014064388,-0.044024635,-0.020008309,-0.017337283,-0.0107887685,-0.050665032,0.024219535,0.030724803,-0.049053125,0.028419573,-0.027529284,-0.0029300512,-0.0021797142,0.006074091,-0.006224286,-0.044021096,-0.029487286,-0.0069528623,0.001998461,0.037557576,-0.041070726,0.033795506,0.0031244233,0.0003025859,0.023954129,0.019426662,0.019601412,-0.06266919,0.038231812,0.015304468,0.011842517,0.03487791,0.016311519,0.026635189,-0.047818568,-0.053460717,0.028162934,0.06663501,0.0009944917,0.02363123,-0.05320384,0.025598528,-0.04984523,0.041815896,-0.035021953,0.036636278,-0.014506513,-0.024501294,-0.03495277,0.035379633,0.012174289,0.041104607,-0.01163207,-0.021525042,0.023756722,0.002504771,0.03628002,0.0007959198,0.016436463,0.03398768,-0.04083412,0.04095733,-0.034598753,0.027146526,0.0374542,-0.05173386,-0.03619392,-0.010861942,0.044495583,0.0010891905,0.04412392,0.001982696,-0.044456538,0.014540747,-0.011739201,-0.006649513,-0.044197228,-0.04542161,-0.052287895,0.030371461,-0.030651541,-0.03288994,0.013065365,0.034245025,0.033968553,0.019838331,0.042360928,0.0163796,0.006042293,0.022004372,0.00333182,-0.05764221,0.01576474,-0.04361059,-0.007257469,0.017151186,0.040676143,-0.055273633,-0.069765486,-0.02346133,0.06593882,0.041676093,-0.027940005,-0.028,-0.06270483,-0.025915554,0.015565133,-0.0300571,-0.021280527,-0.03985478,0.019338235,-0.049536407,0.016182704,-0.033759724,-0.029254435,-0.064303406,0.025663476,-0.020512193,0.01515226,-0.037319645,0.01991237,0.045863636,-0.02651502,-0.043159243,0.037181232,-0.030159866,-0.03961339,0.042202618,-0.02264894,-0.034895774,-0.019074475,0.012793007,-0.02716879,-0.00413929,0.03643531,-0.036168948,-0.04631646,-0.020975394,-0.002485667,-0.029888628,0.061191533,0.0019855052,-0.030385863,-0.027198507,-0.03036269,-0.0035616795,0.020549104,0.021334225,0.006126738,-0.04219875,-0.027366463,-0.0056212815,-0.005165834,0.044248108,-0.029356876,0.00061329955,0.022128992,-0.0058514676,-0.005024085,-0.036819085,0.01170413,0.006024914,0.042166505,0.010005303,0.044558827,0.060751274,0.034060523,-0.033635274,-0.025458373,-0.012803783,0.017264359,-0.02525497,0.008421907,-0.02161281,0.022402145,0.013030883,-0.018225348,0.018752621,0.03084294,-0.034754615,0.04266498,0.020994054,-0.015341457,-0.023172123,-0.04300517,-0.00060318987,0.010942281,-0.043265082,-0.018312726,0.004887968,-0.053908203,-0.021304127,-0.030300153,0.03129236,0.048404496,0.0142836515,0.010426924,-0.056506906,-0.03422974,-0.030690573,-0.03252278,0.009418763,-0.026229974,-0.017160214,0.006254626,-0.009131652,-0.003910148,-0.06841825,0.0462465,0.064794265,0.020775516,-0.0022590037,0.00044051098,0.043963928,-0.031157281,0.035148975,0.010232553,0.010154338,-0.046806946,-0.018220313,0.053051565,-0.043738883,-0.021161728,0.026455143,0.05154551,0.024927728,0.027034447,0.030437682,0.044378005,0.005482747,0.03900392,-0.024273103,-0.04957809,-0.022379734,-0.057177972,0.027444936,0.049773604,0.021256996,0.028991869,-0.029692011,0.031958807,0.030686133,0.006749465,-0.047052477,0.014884654,0.034006312,-0.024977349,0.01921291,-0.04067931,0.019452814,0.01948001,-0.04369997,-0.03246651,-0.03291144,0.0032302416,-0.033421185,0.05336681,-0.044157617,0.0070408634,0.027711108,0.03807754,0.019088173,0.00032632155,-0.043757748,0.03524441,-0.0475189,-0.03976383,-0.025885481,0.03923827,0.024042264,-0.039305285,0.014685831,-0.05790861,0.050154477,-0.012862875,-0.035000615,0.03440333,-0.040827442,0.039348148,-0.040262677,-0.03138996,0.008714527,-0.040212367,-0.015986046,0.009959142,0.0012321806,-0.005004076,0.032958005,-0.027116576,0.0049267905,0.027289087,-0.027955187,0.007883655,0.009498211,0.015394974,-0.04139174,0.021064036,-0.019077878,-0.04995184,0.03540712,-0.04227498,-0.046208415,0.037396554,-0.03495217,-0.024089701,-0.04940175,-0.031140747,-0.035013907,0.015839238,0.029600615,-0.024092508,0.018077357,0.007862096,0.005618883,-0.01277534,0.04015937,-0.00586519,-0.04568716,0.02621456,0.020057946,0.0219522,0.020972911,0.03358992,-0.06328231,-0.0061662383,0.017275833,-0.008305687,0.0023381314,-0.02671027,-0.039885096,0.023221511,-0.008948962,-0.02421066,-0.007558303,-0.012175478,-0.019591125,-0.02253636,0.016482683,0.010543301,0.014998397,-0.046459943,-0.020436428,-0.0021928847,-0.0011013219,-0.041262697,-0.024013476,-0.010306235,0.06396368,0.06717275,0.004189603,0.030860802,0.033264983,-0.016852584,-0.01696151,-0.029486394,-0.044432394,0.018743483,0.017449513,-0.018378716,-0.00021186162,-0.03986866,0.0028957003,-0.054017667,-0.026264858,0.016291112,-0.029276462,0.031281486,0.02329358,0.028437361,-0.019048655,0.007635355,0.04104878,0.028697051,0.01269808,0.038712773,0.03651468,-0.034542784,0.043014165,0.004621715,0.04616996,-0.049908686,-0.03266815,0.023022933,0.044140313,-0.01703307,0.0131122265,-0.02338407,-0.009176271,-0.0025219715,-0.045361195,0.02510427,-0.039995458,0.047277115,0.00069383165,-0.009926015,-0.012616213,0.021890547,-0.036325987,-0.010352785,-0.07964304,-0.030121792,-0.020253941,0.04592045,0.007715326,-0.042261474,0.0581287,0.0130123235,0.028787084,-0.033774428,0.02024043,-0.007876974,0.014735672,-0.04869188,0.041964453,0.033185128,-0.013405154,-0.021583682,0.033633698,-0.022650076,-0.009178232,0.021356726,-0.008410024,-0.021502584,0.01097244,0.03527231,0.017573137,-0.029767154,0.0064073456,0.015733888,-0.03436874,0.044138014,-0.041800216,-0.025297126,-0.0734299,-0.04502347,-0.04455971,0.0297582,-0.04792736,0.006526956,-0.018388364,-0.027178252,0.02180726,-0.026485875,0.016671304,0.0069580283,0.042758804,0.011522192,0.023534672,-0.027172776,0.042748455,-0.017758833,0.046638027,0.001507263,0.0127647,-0.0076080635,0.032905784,-0.02550658,0.04861219,0.0016937506,0.0016826168,-0.032680582,0.009025589,-0.009742257,0.008730057,-0.052714657,0.02542748,0.06552871,-0.027031243,-0.008510011,0.044289425,-0.024560537,0.031125192,0.02712995,-0.030840207,-0.001949135,-0.0021865966,-0.055788588,-0.038821302,0.007501227,0.017949762,-0.017835278,-0.045140076,0.037481043,-0.0047693257,-0.019729188,-0.014627597,-0.047298536,0.0058844797,0.0358029,-0.021182137,-0.0376918,0.008933742,0.039595388,-0.0146900695,-0.0050935196,0.037920136,0.022542683,0.014487909,-0.01335642,-0.040173173,-0.048228726,0.00930635,-0.033998523,0.022835078,0.044924818,0.043176003,0.007959278,-0.00052369735,0.028246647,0.03625941,0.03219915,0.026941417,-0.037325487,0.0057143164,-0.02645212,0.0054241354,-0.022302963,-0.050316993,0.027562724,0.0027496638,0.03096519,-0.02162411,-0.052568518,0.0060866997,-0.03529764,-0.029097572,0.015421221,0.009304088,-0.00023049861,-0.0010028861,-0.0070491913,-0.045329817,-0.05937998,0.04578346,0.020978209,-0.041546505,-0.00423052,-0.026072253,0.038880203,5.3838943e-05,0.04618186,-0.008711934,0.011809677,-0.012025336,0.019614134,0.02373099,-0.03779128,-0.012115277,0.0454274,0.019062089,0.004664821,0.013235148,0.019241598,-0.022064779,-0.044285096,0.025293764,-0.052410882,0.09203862,0.045744367,-0.030886995,-0.045889135,-0.004998554,0.030926162,-0.045976955,0.02780262,0.028285,-0.01332023,0.028370257,-0.07017889,-0.008420745,0.0153201725,-0.023492126,-0.019661933,-0.014404073,-0.049745362,-0.052078325,0.040095765,0.016676808,0.05120562,0.017433025,-0.044605583,0.0012536312,-0.025498481,0.056489658,0.032007124,0.021153074,0.03918179,-0.014285132,0.025133984,-0.056042925,0.04714742,-0.03589652,0.0033148075,0.025389764,0.026596505,0.033535097,0.052820053,-0.025177332,0.044935603,-0.022601051,-0.030982936,-0.042480063,0.040765945,-0.007813492,-0.04522965,0.023793679,-0.004623506,-0.028244574,-0.04253587,0.015021753,-0.016491288,0.0040482855,-0.04312555,0.03443148,-0.043324932,-0.026553243,0.046443816,-0.063722506,0.009628699,0.03842753,-0.0121075455,0.05634802,0.028561182,0.021569625,-0.041565713,-0.0094325915,0.019252943,-0.032206327,-0.03464835,0.017120097,0.03566578,0.036032695,-0.021605609,-0.05430002,-0.04323335,0.017469613,0.008554936,-0.039616942,0.0038749315,-0.028426668,0.04269523,-0.0114435125,-0.04316825,0.043690708,0.014205911,-0.051513195,0.0017893371,0.044401098,0.012958282,-0.029221825,0.013520124,-0.027119873,-0.045633152,0.030723842,-0.012896829,0.032977674,0.034107942,-0.04957553,-0.013965527,0.04379441,-0.008163676,0.0057632914,0.013576897,0.0020661207,-0.03522744,0.014606243,0.017634142,-0.050788477,0.04321873,-0.04482938,-0.013982607,-0.03935646,-0.0022392033,-0.00985903,-0.034731165,-0.035196543,0.029459937,0.022148214,-0.012216357,-0.042256556,0.043730885,0.044485994,0.05251191,0.0022303702,0.048624467,-0.033827778,0.051708393,0.019305604,0.005420939,0.050439253,-0.014853301,-0.042342026,0.01929284,0.008834096,-0.048543677,-0.018921148,0.013724467,-0.015069827,0.039569322,-0.027282735,0.01142009,-0.0051981574,0.020957207,0.0009573741,0.055360638,-0.03626876,-0.052439604,-0.026031453,0.0505543,0.016839428,0.032904398,-0.005803396,0.0046874653,-0.036032304,-0.010886264,-0.029453706,0.057402752,0.026648564,-0.05395186,0.021556325,0.015646039,-0.03260573,0.021783566,0.00015488868,0.03648239,0.0015931498,-0.030146327,0.03514337,-0.017483847,-0.029707003,0.006342289,-0.0022967982,0.044425055,-0.00096041744,-0.04137826,0.00011496086,0.039542608,-0.0053840624,-0.03814512,0.031657264,0.055709645,0.032419927,0.0016479827,-0.0535918,-0.005963337,0.010771038,0.0073368805,0.024048755,0.03854969,-0.016856475,0.024515186,0.037408654,0.029419925,0.027115818,0.0054034507,-0.03868777,0.008178053,-0.04441741,-0.031116983,-0.050359476,0.01437849,0.030319994,-0.03841361,0.02349393,-0.0004500824,0.023881368,0.007114847,-0.023884397,0.0088519575,0.0005694749,0.008132994,0.003822913,-0.033000115,0.016447818,-0.038028814,-0.015454413,-0.03369029,0.042602938,-0.043150682,0.035896413,-0.021980153,-0.007871223,-0.035913695,0.052237596,0.034303684,-0.0057827,0.011124579,-0.0095512215,0.022912545,-0.04329541,0.012562098,-0.028543346,-0.02640013,-0.033591766,-0.03883386,0.02539003,-0.0048880214,-0.008754749,0.005392656,-0.009082458,0.018476387,-0.047664735,-0.018758025,0.007418069,-0.036012262,-0.0027097664,-0.007953798,0.02837148,-0.0065042037,-0.04204618,0.040805403,0.030734016,0.034604356,-0.034008175,-0.0065917126,-0.022981422,-0.023014758,-0.018379107,-0.033819202,0.033375923,-0.019380245,0.010744368,0.0027813904,-0.011545391,-0.009748375,0.044702638,0.04615717,0.012343266,0.052073788,0.018522672,-0.027358187,-0.026845567,-0.032853372,-0.02913703,0.008154181,0.036712162,-0.0051879245,-0.030036477,-0.019668315,-0.008675613,0.043826725,-0.04375172,-0.047671746,-0.0015481052,-0.052904252,-0.029746274,0.02100943,-0.029878292,-0.05109345,0.0019177877,0.011720326,-0.027477449,-0.02122426,0.047455624,-0.004483253,-0.04314699,-0.029942933,-0.032214645,-0.016048301,0.011251592,0.015697055,-0.026477855,0.005697985,-0.051518433,0.041787922,0.0003191785,0.033616517,-0.03571773,0.010205608,0.020109463,0.025205282,-0.012581361,-0.010842347,0.022628434,-0.0060742074,0.05327381,0.0045749675,-0.0023443259,-0.0056847385,-0.0073779793,-0.042440075,-0.052704632,-0.004847475,0.018126216,-0.05052983,-0.0034197008,0.031967964,-0.03634035,0.0077829272,-0.034308527,-0.0050422177,-0.023343788,-0.020233927,-0.04673314,-0.0058192005,-0.02959708,-0.00055130705,0.00034200677,0.018663999,0.0068063783,-0.03717032,0.0027933314,0.0041543012,-0.05801889,-0.046472423,-0.027872931,-0.02345843,0.031734925,0.027405484,0.054918423,0.03977669,0.007613936,-0.021799244,-0.053397674,-0.027937107,-0.044273663,-0.026056401,-0.018241655,-0.050689135,-0.041921962,0.030315656,0.035142966,-0.02397177,-0.036438797,0.04522357,-0.047004674,0.048001006,0.07039709,0.04138986,-0.04238371,0.03222975,-0.022335887,0.04420524,0.031585712,-0.0077819773,-0.045005236,-0.04935037,-0.039003834,-0.029090803,0.007168639,0.05022936,-0.00055232074,-0.013263109,-0.035820305,-0.010922691,0.051717266,-0.0020312138,0.02882428,-0.0125648575,-0.020205442,-0.03181648,-0.010470768,0.024298124,0.039617464,-0.035920843,0.015774606,0.019766016,-0.051894713,-0.01722693,-0.026975174,-0.03498599,-0.0064114495,0.032949492,0.030573886,-0.028968774,0.029796898,0.01638732,0.049465947,-0.023414046,-0.03648622,0.018998006,-0.030308358,-0.014957088,0.016046287,0.0155142825,-0.04921489,0.027355002,0.026038423,0.062046014,0.046176445,0.025731614,0.052324414,-0.03297573,-0.002459924,0.025118632,-0.032852426,0.032421906,-0.041208684,-0.0026559036,0.031707,0.044040944,0.028937858,-0.02179466,-0.01566866,-0.023159435,0.022814747,-0.019661626,0.010311087,0.041338064,-0.013035893,0.020434413,-0.06320022,0.019629845,0.0275915,0.014977523,-0.006575084,0.009333678,-0.01076011,-0.028039744,-0.005471282,0.052349973,-0.025270736,0.046323497,-0.013993654,-0.026160875,0.00772145,-0.015173893,-0.063605614,-0.027502041,-0.049893443,0.034799375,-0.0024094954,0.021824308,0.037806086,0.008671638,-0.017580003,0.021636086,-0.025050342,0.004758744,-0.059030257,0.025485221,-0.0028687343,0.004938309,-0.050235618,0.006758627,-0.008327395,-0.019698111,-0.058050934,-0.03820998,-0.034690917,-0.0066615664,-0.03873002,0.015835866,0.049246673,0.007821274,0.025453739,0.024939608,0.02201307,-0.006416617,-0.015583638,-0.029452559,-0.043826185,0.0042924355,0.018324327,-0.042045888,0.027596997,0.019747686,-0.04652311,0.032826964,-0.023679458,0.021562884,-0.022885451,0.027664287,0.028947748,-0.04188357,0.018612156,-0.037295014,-0.022399476,0.024327407,0.02280164,-0.0021497912,-0.009534977,0.037196122,0.022915812,0.021713914,-0.04101075,0.0026449605,-0.042252403,0.024562007,0.014012773,-0.012361845,0.03436429,0.018140195,0.06934802,-0.02307995,-0.0024935594,0.041067466,0.04064754,0.030549927,-0.035710655,-0.034970723,-0.022397159,-0.026979553,-0.024838109,0.04500202,-0.040176187,0.027227044,-0.024354588,-0.045619987,-0.032600574,0.013744504,0.052214954,-0.03198835,0.015225987,-0.034735233,-0.010524531,-0.054411054,0.041437782,-0.025562475,-0.019505277,0.042450044,0.013115467,0.036040593,-0.037089486,0.03706499,0.046190932,0.03762378,-0.04119309,-0.03807888,-0.048945468,0.021447374,-0.052952383,-0.031166736,-0.019516071,-0.008357589,0.02873738,0.038998947,-0.0039186776,0.0006308324,0.024022277,0.018643748,0.036318634,-0.015030639,-0.005600454,-0.02391528,-0.0054110885,-0.058873866,-0.001253406,-0.06734275,0.051150583,-0.0044791526,-0.043307595,0.0021467893,-0.008477673,-0.033814587,0.010334274,0.002359872,0.06987924,0.04361282,-0.054107282,-0.058290154,-0.013200245,-0.042718995,-0.047413617,-0.024868898,0.0010535402,-0.044735365,0.028567512,0.019338425,-0.029435998,0.039389733,-0.019264827,-0.020905292,-0.030295664,-0.009238238,-0.0019038055,-0.051160753,0.033192944,-0.025529223,-0.010466793,-0.028601022,-0.044510346,0.022735832,0.03816095,-0.00046010688,0.015963636,0.035469245,0.023821922,-0.012651705,-0.009083713,0.027095757,0.015117122,-0.05242052,0.048220422,-0.037988048,0.004623978,-0.050546154,0.02623919,0.03772103,0.07533528,-0.048156768,-0.00028903974,-0.017121462,-0.070313476,-0.01694387,-0.01626464,0.047924954,0.036067158,-0.006557819,-0.03480307,-0.011747567,-0.015754892,0.044936214,0.005081709,-0.031718884,0.012697554,-0.001266873,0.0064321533,0.012415928,-0.033372223,-0.022361886,-0.006784302,0.026650427,-0.03084858,0.04772736,-0.02028829,0.042828295,-0.046856705,-0.055725012,0.0032060023,0.041319463,-0.035443425,-0.040536225,0.018381039,0.037626773,-0.014484468,-0.04679795,0.026505616,0.0025933033,-0.051361226,-0.02462785,-0.022969844,0.034279995,0.0136707155,-0.043340918,-0.011117887,0.03007133,0.04689365,-0.029274188,-0.0032631718,-0.013814146,0.01897075,-0.014629946,0.001716148,0.011755555,0.037416134,-0.054311853,0.028870737,0.017887982,0.020028627,0.008959041,-0.029527064,0.05977338,0.053963955,0.04935707,0.040800802,0.03524366,-0.058458187,0.047410965,0.005993349,-0.0071794563,0.017227113,-0.045207586,-0.031430155,0.021893037,-0.03985851,-0.035330594,-0.061879832,-0.048894864,0.05411091,0.003112418,-0.04332811,-0.06174591,0.0018466748,-0.02762088,-0.003988964,-0.008231629,0.0074275415,0.024258323,0.0028331054,0.022402408,0.031529132,0.012755786,0.015089828,-0.023513723,0.01190621,0.029902194,0.03078592,-0.04542536,-0.017951794,0.04241148,0.0006807267,0.03200254,-0.049463347,-0.059576843,-0.01434524,-0.030087508,-0.013086383,-0.017733507,0.008967858,-0.008724196,0.045074932,0.023925062,0.030658245,-0.039070245,-0.012648935,0.02304183,-0.03914098,0.024368493,-0.042130616,-0.0011856307,0.02105539,-0.010264026,-0.045192245,-0.04439472,0.025045192,-0.0029952312,-0.033267584,0.010107024,-0.04385388,-0.055521738,-0.068715006,-0.062453683,0.013954166,0.031274106,0.007140928,-0.048044365,-0.034754604,-0.017208083,0.03694224,-0.008438803,-0.03899786,0.020078832,0.0068830536,0.042767595,-0.0522126,0.013048514,0.020341007,-0.0003802141,-0.027812613,-0.020632342,0.00400272,0.04502403,-0.028298069,-0.005190483,-0.06364854,0.018227994,-0.061680544,0.048656177,-0.035090946,0.001568554,-0.04533887,-0.0156947,0.025047194,0.057311535,0.038570713,-0.03439384,0.0478475,-0.066578954,-0.0025066193,-0.013552394,0.051160436,-0.02425176,-0.0459049,0.07229592,0.044631105,-0.049134657,-0.024486588,-0.007765299,0.0010856692,-0.00916391,0.014152396,0.06370578,-0.02958655,-0.042452645,0.018618751,0.016856367,-0.028288284,-0.04989695,-0.034382533,0.06532404,0.045762695,0.0034128707,3.805409e-05,-0.052433487,-0.022995899,0.029778147,0.022980744,0.009662824,-0.045371544,0.011564882,0.0438093,0.01897082,-0.013520882,-0.034932066,0.02369926,0.021455774,-0.026349865,0.039945334,-0.0057696905,-0.024764407,0.07078958,-0.012004991,-0.03656052,-0.0080675855,-0.025080636,0.005295536,0.05990208,-0.0359945,0.0066329883,-0.032291945,-0.008993378,-0.009697814,-0.0030665342,0.053277973,-0.013873693,-0.03474951,0.004590977,-0.054520994,-0.005076259,0.035860382,0.032917462,0.05884612,-0.005059141,-0.053710263,-0.022921484,0.03841736,-0.037486754,-0.006892541,-0.02573586,-0.023582345,0.012346222,0.003098458,0.03871205,-0.031182114,-0.0120955175,0.007883794,-0.034619063,-0.027981345,-0.015023054,0.032917112,-0.014592712,0.057097975,-0.04078335,0.031393126,0.005590897,0.04082747,-0.05394131,0.0028696007,-0.042401984,-0.051696856,0.023457667,0.044967413,0.026353126,0.017529145,0.020398185,-0.05753844,-0.047842704,0.0519802,0.02545466,-0.040476352,0.009153634,0.0027097128,0.013217759,0.0020051096,-0.050620355,-0.0066717616,0.043103665,0.045381024,-0.053422328,-0.008996291,-0.0030614948,0.0049621332,0.010692664,-0.027883602,0.03083272,0.05659913,-0.048872203,-0.03710077,0.0033747023,0.03970368,0.012179329,-0.05543616,0.0043590744,-0.014550059,-0.060390912,-0.0038756656,-0.002672877,0.012051324,-0.0011761389,0.050317474,-0.030619718,0.015170963,0.039701797,0.03538375,-0.021968257,0.03120418,0.013779138,-0.003529135,-0.046046387,0.016043039,-0.054896794,0.021843908,-0.030829355,-0.007236903,-0.012700109,0.07619677,-0.036930103,0.029645778,-0.0065042465,-0.022285763,-0.055221766,-0.01618235,-0.015640333,0.048684783,0.025920562,-0.011041271,0.014885404,0.07071873,0.01853551,-0.0010837251,-0.022418978,0.044086374,0.019766314,-0.017005699,-0.04476232,-0.017675512,0.015169402,0.025023254,-0.028193053,0.00448061,0.031448174,0.058949172,-0.014434234,0.014584762,0.031442843,0.0127602955,0.017917829,0.018834466,-0.037767436,-0.05284648,-0.029344724,0.0184281,-0.03360565,0.028842358,-0.035652407,-0.00041583084,-0.014658011,-0.023200447,-0.00093242544,-0.032928873,-0.03589207,0.0017388037,-0.046442114,-0.021150002,-0.041673277,-0.018208487,0.038462266,0.02123795,-0.013226843,-0.036934692,0.024760298,-0.03571296,0.025624346,-0.06148958,-0.04407873,-0.01369797,-0.04061441,0.004774689,-0.01600903,0.030899474,0.03875431,-0.02884983,0.037551492,-0.03694786,-0.023380717,-0.0007238433,0.045577887,-0.00022962323,0.030544776,-0.0017906184,-0.030595785,0.026193324,0.046036582,0.004551004,0.02653894,0.019592784,-0.012047724,-0.010892571,0.0070421984,0.018679606,-0.052950576,-0.028223682,-0.032086972,-0.037111398,-0.0081050135,-0.002729515,-0.004751543,-0.024552856,0.027856449,-0.04369889,0.03728584,0.040565103,0.00857178,0.03195839,0.017843101,-0.04333959,0.027562186,-0.052489042,-0.03096333,0.028435443,-0.010467369,0.0057707513,-0.005179984,-0.019967875,0.03299038,0.04700898,0.0053185546,0.02182866,0.022589773,0.019259598,-0.0108080115,-0.03773871,-0.0018548517,-0.014440459,-0.04600708,-0.010393608,-0.033452705,-0.011998756,-0.034163743,0.024299292,-0.029381603,-0.046961505,-0.02287275,-0.005299193,0.030211816,-0.046899274,0.016679604,-0.023938797,0.01341576,0.053997714,0.01685634,-0.01627966,-0.031633876,0.010266383,0.013246031,0.0015927261,-0.023198718,-0.013511341,-0.035362158,0.0354394,0.028513214,0.04036106,0.03250871,-0.03035565,0.03292928,-0.059068855,-0.011835725,0.0009090601,0.028487056,0.008116273,-0.017673422,0.036544044,-0.032533377,0.009180025,0.007833513,0.0051919804,-0.044048537,-0.023230536,-0.042677507,-0.0089733675,0.04977596,0.039372347,0.0005640574,0.0026043283,0.036302615,0.011343091,0.011886057,0.019496847,0.014245374,-0.025372773,-0.013242737,-0.037890572,0.010527804,-0.041959014,-0.041422017,0.039734703,-0.041774236,0.04538697,-0.0133717,0.009618137,0.033798732,0.027350627,0.005104862,0.00886614,0.0031613484,-0.0048459684,-0.017746525,0.031247435,0.04289925,-0.03953279,-0.01328418,-0.009153463,-0.054227334,-0.027827628,0.00960758,-0.037265427,0.004414963,-0.018691253,0.007797243,-0.03993667,-0.010369871,0.0003186589,0.04155761,-0.044279784,0.029427778,-0.012723092,-0.0050734854,-0.02602717,0.004065371,0.0051229647,0.040472288,0.0052507543,7.888753e-05,0.01728765,-0.013936142,0.023356589,0.05340631,0.007430237,-0.051704634,0.021423807,0.0226495,-0.0414255,-0.015850026,0.019283881,-0.013914854,0.04710275,-0.0038331156,-0.0012104763,0.011414008,0.015847972,0.009388732,0.050451532,-0.018198265,0.035467066,0.028806577,-0.008453165,-0.010161899,0.009465722,-0.004346449,0.008863207,0.0078056767,0.012574407,0.007273548,-0.01373109,0.004529599,0.023169199,-0.020780593,-0.0028162417,0.014317466,-0.015294419,0.042649142,0.037564605,-0.054194123,0.0096634505,0.03904857,0.0032039536,-0.04446966,-0.05096848,-0.02549239,-0.028407387,-0.02489096,0.026199274,0.0016962839,0.011680166,0.010692853,0.004790415,-0.065581016,-0.01736444,0.020995703,-0.023425275,0.024262885,-0.00024397532,0.020025037,0.036783744,-0.005813075,0.009429844,0.025570108,0.003155077,-0.0073211305,0.037146695,0.023027994,-0.015355418,-0.005399455,0.029984895,0.041680865,-0.017903823,-0.03787754,-0.053224448,-0.004739186,-0.028228996,0.002593241,0.04710839,0.032193806,0.058129035,-0.039779473,0.012031958,-0.036805287,-0.020105185,0.021374809,0.03877428,0.01609588,0.03160352,0.023988403,-0.023667846,-0.044804003,-0.0260136,-0.03168804,0.006419482,0.01726001,-0.040255312,-0.027672406,-0.03153909,0.045124605,0.043695554,0.0035330702,0.005238147,0.03813778,-0.027656473,0.006599059,0.01425212,0.004843366,0.05515044,0.0076531493,0.06044461,-0.03336077,-0.0020848138,-0.009997778,-0.05672898,-0.015048506,0.03652397,-0.046330284,0.012552523,-0.02623616,0.0023314564,0.05650207,-0.04088061,0.023071105,-0.014004742,-0.037958402,-0.042233985,-0.06566928,0.040456202,0.024740612,-0.020346858,-0.05137159,-0.006324717,-0.018878754,-0.0355535,0.027965575,0.02498018,0.0096963765,0.03296169,0.026168486,0.0043245708,0.011500262,-0.058312774,-0.023205169,-0.03547236,-0.07538328,0.064018115,-0.06907684,0.04415204,-0.004550418,0.023165355,0.024742719,-0.043787375,-0.01987353,-0.011023067,0.051263295,0.0016979135,0.017711814,-0.04670197,-0.05192955,0.011440567,0.010029741,-0.024890428,-0.030315615,0.037044607,0.02722963,-0.021926593,-0.021601137,-0.026893884,-0.024151418,-0.06502504,0.0200422,0.012337751,0.0030116288,-0.03315586,0.04449482,0.012501163,-0.017556533,-0.03905582,-0.0359969,0.019029701,-0.06488159,-0.009809677,0.00066455675,-0.048080686,-0.009398384,-0.043409582,0.029352348,-0.033073675,-0.06351763,0.035933375,-0.017539384,-0.02744322,-0.050097473,0.042900138,-0.027362078,0.017489387,0.0066126203,0.000790257,-0.00081897964,-0.02270122,-0.06419652,-0.031104736,-0.008358084,-0.028601332,0.014794391,0.033588268,-0.0084441565,-0.00042379706,0.032402888,-0.020060409,-0.050656855,-0.02043875,-0.0112237735,-0.038639296,0.00056455657,-0.056597404,-0.058515556,-0.046910957,-0.032698214,0.016965186,0.0294701,-0.045440033,0.022631988,-0.05249509,0.030814428,0.04264541,0.010389189,0.011835654,-0.030203922,0.003426477,-0.03917879,0.071092784,-0.027385384,-0.05230166,0.017589968,0.039613552,-0.030817656,0.015452363,0.037968665,-0.005150141,0.022117857,-0.04149228,0.0102221295,0.037634816,0.013144805,-0.03853381,-0.032933075,0.048951257,0.0066622933,-0.04770798,-0.017417759,0.007154871,0.03972847,-0.022991037,-0.022879066,-0.0029000011,0.00075977296,-0.027582997,0.01853819,-0.07178985,-0.046990693,-0.0054364316,0.039683305,0.065895416,-0.011629935,0.040377382,-0.018337833,-0.015632467,-0.019648826,-0.023516878,0.018839147,-0.03969678,-0.026061496,-0.001162348,0.03631922,-0.030668765,-0.0052292086,-0.022241784,-0.036975354,-0.015448466,-0.039777376,-0.035102133,-0.03172275,-0.027063413,-0.033116657,0.02961939,-0.055420693,-0.02995457,0.0024654232,0.030584738,0.015338988,-0.015593862,-0.010283802,0.044566765,-0.025190331,-0.022252724,0.038396906,-0.06498328,0.008707335,0.002597684,-0.028409127,0.0152318515,0.061831795,-0.018435627,-0.007809772,0.011665197,0.010421302,-0.030498087,0.011562692,-0.015632853,0.04541463,0.04836947,-0.059830524,-0.05388182,-0.039472274,0.056925256,0.016648889,0.016325815,0.032854006,0.07511406,0.031009417,0.05118038,-0.046145983,-0.018273916,0.042810436,-0.030253837,-0.038936112,0.030563716,-0.04533977,-0.049081005,0.028321953,0.012086967,0.019505622,0.030679828,0.00069918385,-0.019393252,-0.009762761,0.005835575,0.018555958,-0.0014902494,-0.012179598,0.034530576,0.014017333,-0.04544986,-0.008227096,0.007165211,0.0122645665,-0.039346773,0.040123872,-0.014299662,-0.03891471,-0.015424791,-0.026959848,-0.0009928521,0.02041671,0.035681732,0.009968352,-0.0152765745,0.0006064658,0.014602918,-0.033024542,-0.036906738,0.021144727,0.035369046,0.020240372,0.03495893,0.03103966,-0.011980926,0.003110269,0.027164612,-0.018608851,0.04197922,-0.015784366,0.050666016,0.031114787,-0.0065584294,0.03989831,0.03472347,-0.039237652,0.025386648,0.031467225,-0.05392834,-0.024409154,0.03564031,0.003875224,0.017554147,0.03871345,-0.03334358,-0.011310854,0.020369917,-0.053790055,0.01682977,-0.01718848,0.0139262285,0.018456666,-0.03945535,-0.039772883,0.01095465,-0.016169835,-0.023902941,0.021132125,-0.037818067,-0.01798551,0.027978871,-0.019935684,0.0072021047,-0.02546693,0.085102834,0.042119715,0.0018923916,0.052112162,-0.041358158,0.042310644,-0.024441747,0.021327818,0.018510344,-0.013904296,0.04002168,0.01321879,0.027689748,0.041104008,-0.04200516,-0.008413605,0.008343453,-0.038124632,0.05661853,-0.00025399405,-0.03477231,0.0005184064,-0.063126504,0.004833808,-0.003221082,-0.0009733129,-0.054051813,-0.017015643,0.039862063,0.026494794,-0.0066252314,-0.006074633,-0.038593374,0.017915275,0.05711883,0.027039355,0.02062278,0.0133772995,-0.011746318,-0.02812161,0.046996318,-0.04707791,-0.04913166,-0.020522108,0.010078357,-0.038171574,0.012350436,0.021824555,0.039511394,0.0028453246,0.022207566,-0.025515996,-0.01914883,-0.0074566263,0.0057022506,0.030666118,0.027877305,0.025699832,-0.02843786,-0.026467698,-0.043759294,-0.02666888,-0.019546866,0.03100059,-0.03309185,-0.0025228022,-0.0136333555,-0.041973792,-0.014741905,0.03494158,0.00925167,-0.0031912925,0.03784909,0.006681766,0.020912314,0.018067623,-0.022189243,-0.0052706203,0.027797054,-0.013642091,-0.003112772,-0.0002943023,-0.009924241,0.023420654,0.009589478,0.021271518,0.031026673,0.042993758,0.03556198,0.008706872,0.028456189,-0.025839193,0.018982444,0.04308649,0.0033419498,0.022234352,-0.052846316,0.023335787,-0.018046048,-0.009896431,-0.047253855,0.008729812,-0.009973229,-0.0006588684,0.014658469,0.017625488,0.03246901,0.024550999,-0.0035862352,0.014379116,0.016272599,0.047845397,0.0095702,-0.047374103,0.019320946,0.026549093,-0.023205696,-0.014311895,0.011773833,0.04338887,0.04971194,-0.040617507,-0.01350062,-0.012914851,-0.010602803,0.016941901,-0.012859978,0.0049096565,-0.07075207,0.013217301,-0.037465986,-0.01030198,0.024485994,-0.041147318,0.024643596,0.012347757,0.05882884,0.016432473,0.019965325,0.01771973,-0.0059493743,-0.012645088,-0.025248593,-0.04530516,-0.046438877,0.004788738,-0.010144038,-0.044873424,-0.052932814,-0.008172175,-0.033191483,0.048931308,0.06456777,0.0019567185,0.053205423,-0.009408459,-0.062799186,-0.024799265,-0.02275777,0.039740235,0.017178155,-0.047476716,-0.023674535,-0.04918013,0.016511885,-0.027906647,-0.010807652,0.063102975,-0.023635663,0.031004604,-0.029060522,0.0031367072,-0.011142718,-0.041664787,-0.03883745,0.035793487,-0.031763524,-0.024210846,0.0057479166,-0.047202516,-0.0486126,0.015082189,-0.022458542,-0.0038977072,-0.018299319,0.034232646,0.0037232314,0.015807524,-0.009953753,-0.007551443,-0.023421422,-0.017978486,0.03562529,0.046143897,-0.05144695,0.024961649,-0.033477783,0.01979247,-0.023622436,-0.03159816,0.01395531,-0.034256965,0.03201561,-0.009190969,-0.00881549,0.038809147,-0.035369664,-0.03951557,-0.028463835,-0.007664626,0.010589859,0.012038124,-0.0011247199,0.021081263,-0.04188223,0.024184622,-0.01636241,-0.0071747503,-0.01730727,0.0071452046,-0.0031308553,0.0135579305,0.005492543,0.021508092,0.021647697,0.011883446,-0.019924654,-0.024774503,-0.0039448,0.038965587,-0.041044444,-0.01611502,0.05685169,-0.036610078,-0.049424347,-0.024285158,0.07336559,-0.03747638,0.04177411,-0.06494402,0.03537724,-0.03936249,-0.002390278,0.030897772,-0.013546475,0.010885745,0.020467823,0.02845012,0.0538143,-0.030088935,-0.032945305,0.007034867,0.0376344,0.020678045,0.039234657,-0.020772304,0.023299279,-0.023107294,0.01624856,0.022803053,-0.033439904,-0.0059002433,0.018292492,0.027556548,-0.024218073,0.020494584,-0.051222112,0.024343582,-0.024876375,-0.013713394,-0.013016879,-3.18654e-05,0.07737789,-0.013932969,0.014603095,-0.034205034,0.01225369,0.0015666015,0.009834918,-0.002285867,-0.043848623,0.042166553,-0.026060669,-0.048420552,0.032138426,-0.043622177,0.012095908,0.022825701,-0.0068335533,0.041929875,0.030065157,-0.009062622,-0.0401972,-0.0023356145,0.038295265,-0.012380023,0.013606847,-0.048114333,0.03141137,0.023252299,-0.029979572,-0.0089567285,-0.0187841,0.060407907,-0.042141233,-0.05824551,0.0107652405,-0.045287292,-0.0051067737,0.0343155,-0.0027426342,-0.02675591,0.010943677,-0.025790585,0.004050861,-0.025027018,-0.050153196,0.026160015,-0.010197218,0.04717416,-0.03836975,0.02204786,-0.044693556,0.027530616,-0.05416535,0.019661887,-0.04739984,-0.0050156675,0.023966765,0.043467518,0.0161797,0.020329166,0.023080666,-0.01219289,0.059354335,0.007828375,0.010177272,-0.03203878,0.023659438,-0.024953866,0.03707562,0.03062561,-0.004421322,0.005358283,0.01800805,0.035140086,0.021778641,-0.02799333,0.012940193,-0.07701978,0.06032475,0.008582085,-0.038948104,0.0153906,-0.06710407,0.02661236,-0.01960566,0.034242414,-0.029602703,0.026067141,-0.05598933,0.037599314,-0.0017460014,-0.0210875,0.027461028,0.026005354,-0.013577116,-0.022393089,0.05655403,0.0063545275,0.0010137495,-0.0021860043,0.04362759,0.044845264,0.013302402,-0.036416817,0.0021715628,0.045617826,-0.011540736,-0.039943866,0.010956053,-0.025910862,0.00987849,0.00087158754,-0.04378242,-0.007055691,-0.004498379,-0.045821354,-0.03594497,-0.050228454,-0.023286473,0.04720481,0.03319942,0.019845847,-0.046012618,-0.07660228,-0.06335143,-0.033681825,0.016924921,-0.031144386,0.010143945,-0.03239447,-0.043640498,0.035733644,-0.0028411853,0.01868501,0.0010029109,-0.02548506,-0.028185597,-0.02376011,-0.012222382,0.0074942447,-0.032650992,-0.0047082445,0.029955013,-0.0032821433,0.03890044,-0.024326373,-0.048798215,-0.00997109,0.038444065,0.023504158,0.028515982,0.0582931,0.0123381475,-0.008304334,-0.023451993,0.022168323,0.04822655,-0.037295565,0.0023374446,-0.038083255,-0.035934452,-0.008260212,0.018984416,0.03823237,0.026476022,-0.004577264,0.0019336616,-0.03190333,0.004382292,0.038085144,0.040759984,-0.039292607,0.023260351,-0.008021672,0.05326516,0.030542161,-0.023513515,-0.03423034,-0.00097331405,0.0064675324,0.043236542,0.053088322,-0.013341468,-0.00012860869,0.04557599,0.006949585,0.02451859,0.03652758,-0.05006577,-0.0011329353,-0.0039095953,0.002735287,0.040107816,-0.004211554,-0.03006944,0.016090777,0.02770137,-0.0029252146,-0.013081157,-0.06447832,0.018425794,-0.028587796,-0.006875363,-0.02641187,-0.008144459,-0.03746371,-0.0356558,0.030561382,0.038554695,-0.02426134,0.010954328,-0.031740725,-0.026456567,-0.032819785,0.050241675,-0.025491126,0.030141855,0.03470215,0.010921042,0.04194884,0.040695075,0.007547606,-0.04303952,0.03577079,-0.011127275,0.0023462167,-0.027904434,-0.039826185,0.011508935,0.029224228,-0.036890287,-0.034534488,-0.0078368075,-0.03910459,-0.008509371,0.014493849,-0.0073980503,-0.019873012,-0.009312478,-0.004110787,0.010303597,0.015331701,-0.019566983,0.011479989,0.037533313,0.011753016,0.02732416,-0.029028442,-0.041975934,0.012696743,0.039743856,0.03820187,-0.033576235,-0.018209793,-0.013914915,-0.050991718,0.0056334953,-0.052136686,-0.00037194486,0.023521319,-0.023171687,0.016149897,-0.029493771,-0.049288623,-0.03196071,0.00027731902,0.039825372,-0.023887033,-0.034249138,-0.02273612,0.02323596,-0.008535676,-0.0018451512,0.01005556,0.019363781,-0.026516603,-0.03423886,0.023797132,-0.0016948784,-0.0024056325,-0.015902326,0.0073191673,0.03812076,0.035529047,0.054125153,-0.013828087,-0.042322204,0.01864903,0.013721482,-0.0311228,0.03710587,0.033788558,-0.01528864,0.010522313,-0.0016232403,0.002912089,-0.018765446,0.040859085,0.03789693,-0.0015787674,0.004108666,-0.03299234,-0.026740547,-0.046165545,-0.011420544,0.02854387,0.017962284,0.035129033,0.009397114,-0.0044007483,0.018902974,-0.018659972,0.04013944,-0.025550008,0.009174135,-0.041205432,-0.04198935,-0.026625678,0.060032293,0.020124156,0.005781702,0.038281914,0.0100629395,-0.028690832,-0.054997027,0.03818999,-0.010176247,0.01941381,0.031071736,0.024402864,0.03886568,-0.03291319,-0.030710489,0.014394805,0.004015013,0.019490715,-0.002124618,0.008291681,0.026942108,-0.044558614,-0.0005232625,0.0066706426,0.029515928,-0.02000847,0.04719747,-0.03621337,-0.05062241,0.016850257,0.011455029,0.002686012,-0.02280293,-0.0040733856,0.029562611,-0.019821394,-0.020134645,0.028591396,-0.031228308,0.023754148,0.045421917,-0.042685416,-0.028566333,0.03003916,-0.04696642,0.014676775,-0.04181334,-0.029609635,-0.02799301,0.022395752,0.035228495,0.03024725,-0.050497923,-0.036606256,-0.026376292,-0.0654091,-0.03841326,-0.0016500328,-0.016173853,0.004894263,0.04054289,0.039716326,0.041448418,-0.04931193,-0.030289812,-0.024457099,0.022183366,-0.037370313,-0.016043924,0.039454177,0.027177151,0.0035864643,-0.0013568309,0.032882046,0.018453736,-0.0045434767,-0.030899907,0.010183595,-0.003590794,0.005323472,-0.024041655,-0.0153735215,-0.0033996967,0.008299725,-0.017639892,0.009437082,0.04189489,-0.018193562,-0.014292421,-0.033175807,0.062504485,0.006840249,0.004132147,0.036498714,0.016689274,-0.016159331,0.0071425745,0.028294642,0.013389764,-0.02717293,-0.051561885,0.037025947,-0.0042131464,-0.046745893,0.04299663,-0.036241915,-0.050725456,0.006805862,0.04572757,0.029610744,-0.002842178,-0.024999322,-0.017326921,-0.01699407,-0.043935984,-0.025582919,0.028845236,-0.044365745,0.02526417,0.013792329,-0.04302189,0.041767806,-0.033538286,0.00661722,0.014317014,-0.024363926,0.037923746,-0.05085147,-0.013830607,0.007998117,-0.02443976,0.05188192,-0.024004463,-0.021408651,-0.024346443,0.04198493,-0.0025203142,0.023423862,-0.022678819,0.02241488,0.010047883,0.034084864,0.015231743,0.007962775,-0.0015753981,-0.035429202,-0.03797317,-0.041637335,-0.020310046,0.011538005,0.0009356034,0.015583129,-0.03981623,-0.03286236,-0.0058105076,-0.017801885,-0.012222014,0.045189057,0.055384327,0.061383795,-0.012981265,-0.016547285,0.036279574,0.005963835,-0.04602613,0.050940048,0.0007445506,0.030048136,-0.04266533,-0.025996739,0.058835603,0.0011579504,0.007396356,-0.04770225,0.0017130285,-0.033072576,0.051366676,0.037908196,-0.033067647,0.00038196077,0.0142844785,-0.001096355,-0.037095223,-0.025633065,0.011736921,-0.005770128,-0.030938087,0.026238333,0.0339565,0.008500432,-0.05859323,-0.030516494,0.009782587,-0.017892592,0.04121169,-0.020117337,0.019441582,0.03768668,0.052056797,0.006856513,-0.039214917,-0.04865794,0.024383485,0.039263926,0.034178138,-0.014385136,0.03067095,-0.006401166,0.02415327,0.013926522,-0.04057022,0.052991807,-0.040334906,-0.053919736,-0.06746322,0.017644873,-0.026772263,-0.0005615421,-0.0013228393,-0.043840032,-0.012507814,-0.02265899,-0.045467183,-0.04224914,-0.034864195,-0.016769232,0.041134648,0.027745744,-0.020756202,0.021259433,-0.030467527,-0.023455704,0.00021150336,-0.018165987,-0.017757343,0.004162255,-0.013255727,0.011682366,0.010349296,-0.009507747,-0.041418917,-0.04715622,0.02654059,0.03637397,0.034932237,-0.022217816,0.043672245,0.009954549,0.039662562,0.011761576,0.041728064,0.03695994,-0.033049896,0.023827195,-0.014297622,0.041526113,0.011826313,0.034282364,-0.008607197,-0.016056588,0.017052978,-0.051188126,0.0007205612,0.026912866,0.020417754,0.028951619,0.0411759,0.022314468,-0.019022195,-0.021572646,0.026314516,0.05895234,0.049222995,0.0028518238,0.0008456656,-0.008011283,-0.022118084,0.009071402,0.039560188,-0.0049632196,0.014682153,-0.030321833,0.04874719,0.034792982,-0.011649226,0.012643286,0.04618467,-0.0202795,0.009453846,0.0337482,0.03247966,0.021099214,-0.01056305,0.00036112688,0.025313178,-0.04555842,-0.01645475,-0.031076068,-0.03093145,0.048610575,0.016621623,-0.023848826,0.047951624,0.018060237,0.029839767,0.024913814,-0.003650592,0.0095378375,0.04857615,-0.013749043,0.028545491,-0.0038986849,0.008239947,-0.025786608,0.002821816,0.035139967,-0.0360664,-0.0007933355,-0.053924788,0.02268089,-0.01452289,0.020550061,-0.011085125,0.052399904,0.01575588,0.026991917,0.0076617845,-0.035376642,-0.011055553,-0.044949688,-0.039063744,-0.033568326,-0.0068745757,0.039485056,-0.0069528655,0.024076274,0.02704705,-0.010838742,-0.035154015,0.025392003,-0.01673186,0.0026639244,-0.021240035,-0.048661277,-0.03574661,-0.02888822,-0.02037381,-0.04233326,-0.013846395,0.002986148,0.049130484,-0.020997193,0.026263908,0.021490807,-0.0053599565,-0.021622447,-0.00066929375,0.042806003,-0.041091587,-0.052145984,-0.0058904993,-0.003180176,-0.010744605,-0.041215125,0.014592659,-0.033239525,-0.016901761,-0.019278953,0.013623744,0.044372905,-0.0076851067,0.027446989,-0.032666635,-0.041891858,0.009727537,0.01236228,0.011874418,0.024840008,0.061372213,-0.016049579,-0.051009584,-0.004272771,-0.016296567,-0.052469753,0.044112224,-0.01932892,0.057494365,0.0021391313,0.0009155196,-0.043749996,0.0020389697,-0.00029536436,-0.022012275,0.029900743,0.044901893,-0.0004619377,0.042229377,0.018492585,-0.02853224,-0.062469617,-0.033121657,-0.028166274,-0.03419438,0.03411651,-0.007537074,-0.0019184116,-0.044945993,-0.013007178,0.026566034,-0.008549608,0.029791294,0.014856265,-0.0013778262,-0.00736995,0.023897957,-0.0016766764,0.020636486,0.023355154,0.031385858,-0.043994013,-0.019451596,0.023578325,-0.050257787,-0.038679697,0.033370227,0.043646086,0.011376355,-0.007816399,0.035261776,-0.014758207,-0.031078892,-0.043495167,0.029458411,-0.02058103,-0.03169882,0.046338413,-0.019114621,0.018852383,0.03590872,0.043821692,0.029581156,0.02548551,0.0011201113,-0.0037603837,-0.007223025,0.041859154,-0.035288695,0.009526719,-0.045750998,-0.05042232,0.041719675,-0.033093125,-0.0144484155,-0.0067728013,-0.0038229777,0.019603277,0.014817391,-0.007423212,-0.030218193,0.0020677748,0.011716049,-0.04919824,-0.07223074,0.0010466119,-0.052059606,0.050218023,-0.03381807,-0.012215276,0.030967247,0.0137010235,0.019108566,0.05931599,0.00833735,0.033222068,0.030137531,0.04183591,0.028875722,0.008986863,-0.0012999788,-0.049389496,0.038221445,0.03008818,0.035867203,-0.046593666,0.0028732473,-0.051526304,-0.042010356,-0.00075200165,0.047075447,-0.042622868,-0.037327122,-0.049700722,-0.057277754,-0.025235182,0.010251311,0.006672528,-0.058141377,-0.0005147569,0.008478407,-0.022961795,-0.0025651827,-0.02595078,0.0031449865,0.027092932,-0.015624636,-0.03944489,0.0444133,0.017392749,-0.055757385,0.023387903,0.041404832,0.014403464,0.008684104,-0.01734788,0.05639421,-0.011825789,0.021190044,0.01595473,-0.03489425,-0.03388906,0.01586724,-0.016391618,0.012267377,-0.0064847176,-0.02631176,-0.050432827,-0.023032725,0.018425642,-0.0065749474,-0.06067726,-0.03125933,0.056198154,-0.0011021483,0.032912616,0.016232796,0.05648152,0.02862408,-0.020441521,-0.0037792453,-0.024861865,-0.03948726,-0.033427637,-0.05520545,-0.030989941,0.004496101,0.032106437,-0.031139942,0.017266542,-0.012708176,0.0064127594,-0.02213467,-0.025526373,0.013396861,-0.00050101057,0.027298057,0.022818763,0.015289465,-0.03429721,-0.03547267,0.011202231,0.044228777,0.03676236,0.02377049,0.030830428,-0.022148307,-0.0050829835,-0.030553117,-0.03186244,0.042304616,-0.036469836,-0.00542082,0.045588236,-0.014602314,-0.0315571,-0.020905549,-0.009695036,-0.038579892,-0.04576513,-0.023507176,-0.012566969,0.035861216,-0.0005677429,-0.01406798,-0.04461736,0.009814331,0.041598443,0.046268675,0.014569213,-0.008808247,-0.022105522,0.022467542,-0.0011959344,-0.03769455,-0.029066388,0.049501754,0.03806499,-0.015082256,-0.019867102,-0.05640195,-0.01653723,-0.04677904,0.028196972,0.035043392,0.039490666,-0.0214508,0.021914702,-0.015822956,0.023791445,0.03288001,0.02943892,-0.026784569,0.0272581,-0.0054036565,0.013859096,0.029192356,0.0043576015,-0.040256135,0.0010366285,0.036921836,0.024104645,0.004615705,0.024681417,0.009123751,0.0051753214,0.038287878,-0.03892591,0.05757036,-0.0313707,-0.045410037,-0.014567485,-0.0020400265,0.0012998735,-0.009777704,0.02084333,-0.0047162143,-0.04879435,0.0055815815,0.030258443,0.013374438,-0.052415635,0.011921444,-0.04391316,0.0069774296,-0.03568232,-0.019578945,-0.00055545446,-0.05742185,-0.031359438,-0.015981069,0.03282831,-0.041069344,-0.043879066,0.014616505,-0.007795498,0.012831559,-0.03970029,-0.042462748,-0.059126757,-0.049799226,-0.016847251,-0.024791908,0.030669965,-0.002213749,-0.038831964,-0.05327319,0.052807063,0.051753454,-0.022064582,0.04034584,0.04777074,-0.028646663,-0.034054838,-0.0278984,-0.08614525,-0.011832471,-0.012959587,0.032307375,-0.05489515,-0.0010887075,0.006070897,0.06421942,-0.017733637,-0.010705696,-0.042136054,0.015232144,-0.010147268,-0.02045869,0.055026066,0.0027017326,-0.014323264,-0.011946591,-0.012371463,-0.039452158,-0.040276755,0.011332927,-0.023810675,-0.011024773,0.02676996,0.00011227792,-0.0062670335,0.03307083,0.06951478,-0.00051476766,-0.007201014,-0.0063310503,0.02845271,0.0006780852,0.020283174,0.058645476,-0.0085425535,-0.017747894,-0.061205514,-0.03948003,0.01223494,-0.044514693,-0.04330029,-0.033135403,0.0099530285,-0.005563561,0.030894397,-0.062766574,-0.0042330734,0.041621998,-0.0370516,0.068759434,0.040600467,-0.016263308,0.074242234,-0.05195991,-0.036671866,-0.008711551,-0.015906204,0.035574924,-0.005666829,-0.0354083,-0.013167967,0.0071524177,-0.022032164,-0.030220864,0.030234005,0.054114867,-0.038596973,-0.016629342,-0.04207036,-0.05264457,0.024393726,-0.05202462,-0.029752875,0.010270148,-0.026348416,0.005495726,0.03207546,-0.020481149,0.01671204,0.010260573,-0.03161191,-0.04768752,0.037089303,0.0237871,0.022260124,0.012157062,0.013336775,0.023205796,0.014080298,0.023663858,-0.055276565,-0.015507847,0.019986486,0.06822505,0.010846221,-0.06711903,0.05049203,-0.04098943,-0.05235012,-0.028519671,-0.033209395,0.016139522,0.044562202,-0.014978446,-0.039293874,0.042064674,-0.04010325,0.012496034,-0.018704584,-0.0042299456,0.013833371,0.04202456,-0.03994913,-0.047900755,-0.008165057,0.007843385,-0.010162201,0.032975394,0.018417131,-0.020103674,-0.01571218,-0.013138065,0.012703315,0.0036593063,0.00980607,-0.055370387,-0.022701664,-0.022420665,-0.009547695,0.020948919,-0.010760891,-0.0017075649,-0.02017819,0.005447356,0.019035188,-0.0018077828,0.01851674,0.032635983,0.025330666,0.04228853,-0.04153807,-0.007519246,0.030571127,-0.025984365,0.03941396,-0.028447866,0.014385168,-0.02606814,-0.031324465,-0.012011626,-0.018299386,0.039983597,-0.02777288,-0.035553787,-0.05426229,0.033683244,-0.03765922,0.026467567,0.009680358,0.036346447,0.030282125,0.015418355,-0.0011091531,0.019039307,0.008028764,-0.020388804,-0.009337925,-0.023555433,-0.008177016,-0.022664454,0.018704975,0.012926675,0.020258378,-0.0029266302,-0.046844643,-0.00030667498,-0.016251534,0.01442993,0.008814813,-0.0063186,0.022201613,0.02908535,0.052121334,0.000235758,0.0130243115,-0.03335206,-0.0005196927,-0.032146897,-0.017434848,-0.03116944,0.062022015,0.031272233,0.0018333824,0.008983349,0.012341409,0.040382423,-0.008261839,-0.025247512,0.01995568,-0.062575206,-0.014943874,0.04139369,-0.056491468,-0.041716717,0.00042332086,-0.025330747,-0.029080456,-0.020748055,-0.061966814,-0.018464116,0.014497738,0.024882812,-0.0032870504,0.03625142,0.023312684,0.011245496,-0.037315268,-0.0375899,-0.009751844,-0.04296388,-0.036275998,0.060338765,-0.044003133,-0.073857985,-0.0399036,-0.047933705,0.043916,0.05497545,-0.020484788,0.0528975,0.025008615,-0.030927064,-0.05361677,0.03775875,-0.034879558,-0.022595853,0.022455912,0.0058388603,-0.06541986,0.039720323,-0.019027825,0.0046193325,-0.012913493,-0.026899848,0.0066378294,-0.026447484,0.0018398317,0.05976232,0.0083364425,-0.050045453,0.021490319,0.033368096,-0.059074603,-0.047238346,0.022198824,-0.041427158,0.039012447,-0.034715455,-0.0059239254,0.028148605,0.027195718,0.009875125,0.016246285,-0.016961128,-0.029140111,0.05434627,0.034747873,-0.029688124,0.011390429,-0.0049605817,-0.042745434,-0.009393284,-0.023689847,-0.013681157,0.011316148,0.0099633895,-0.024285328,0.004227237,-0.037233315,0.05115233,0.009128931,-0.030316588,-0.030687327,0.02920339,-0.006645702,0.024326889,-0.030738236,-0.030600078,-0.015779322,0.007875405,0.018687295,-0.031885196,0.05796284,0.015584552,-0.044278387,0.0031999708,-0.052641485,-0.038681954,0.04107474,-0.039116118,0.015760085,-0.041746054,-0.009592943,-0.016054906,0.001888653,0.00861434,0.01710799,0.013626489,-0.028176645,-0.041142303,0.037549566,0.0004993272,-0.00022167216,-0.025317997,-0.010832932,0.06320667,0.039700378,-0.023196502,0.015445561,0.028261203,-0.029619511,-0.04533365,-0.008148267,0.029145304,0.025183182,0.076270044,-0.009068435,-0.03238582,0.032936417,0.044058442,0.017064745,-0.022698475,0.018389657,-0.012229348,0.042887714,0.055295207,-0.00034968692,-0.030914277,0.03436125,0.0040349364,0.029348772,0.016434018,0.06963309,-0.0074870028,0.017263334,0.034333218,0.006082394,-0.027705537,0.0058178506,-0.008078839,-0.013153377,0.05903223,-0.032182477,0.045127325,-0.0072632283,0.046513855,-0.021026654,0.045418546,-0.04790724,-0.057640288,0.030794038,-0.006968645,-0.03221205,-0.054924946,-0.035903852,0.05181944,-0.06127543,0.01594321,0.055118028,-0.023097094,0.017462574,-0.0035212322,0.025292201,0.06289926,-0.027235588,-0.0031613144,0.00891443,-0.0033903273,0.0008490053,-0.0055069774,-0.01112894,-0.051660255,-0.044336412,-0.015312876,-0.034051828,-0.010933284,-0.024101684,-0.03865893,0.044097017,-0.014827569,-0.031882845,0.014655186,-0.039288025,0.07888624,-0.05346955,-0.014988136,-0.019459875,0.048927817,0.010783013,-0.060154084,-0.056457583,0.002198644,0.00574881,0.026466163,-0.017322525,0.025112687,-0.032007262,-0.03874907,0.004937943,0.044688005,-0.033546288,0.009015557,0.013161632,0.028489402,0.029938797,-0.031644393,0.016893432,0.025373304,0.03617648,-0.014673225,0.013619154,-0.01847914,0.060327254,0.055426124,0.028440593,0.02042729,0.046134662,0.017875472,-0.0071521355,0.009252977,-0.012292575,-0.011400682,0.0194363,-0.015164429,-0.019212099,-0.04327696,-0.011269449,-0.029750466,0.080089316,0.04965075,0.0067941505,-0.006066693,-0.02190054,0.031587,0.046750095,0.0035359284,0.03655607,0.02480441,0.040718723,-0.026870878,-0.0026883984,-0.020754633,0.010796238,-0.0038038096,0.0143354945,-0.0014784746,0.00018094917,0.03620957,0.012210289,0.017894916,0.0024826962,0.0069129043,-0.009063199,-0.02010747,-0.024978735,-0.047625188,-0.0036865666,-0.053071454,0.02139524,-0.0010643937,0.0459816,-0.032414485,-0.040127754,-0.035782497,0.011582865,-0.0046158885,-0.033536527,0.046675663,-0.024473244,0.05359947,0.0017929734,-0.035904124,-0.03505554,-0.032957483,0.029859021,0.017174345,-0.037953608,-0.0038999312,0.01186422,-0.051815163,0.019405622,0.009870352,0.017373197,-0.008986164,-0.0024025626,0.040899064,0.03244157,0.01896615,0.03595867,-0.05781695,0.026337408,0.0027630858,0.0060524745,0.056278422,0.002313437,0.016442364,0.07236842,-0.024808574,0.0019020053,-0.022511544,-0.00814813,0.00739301,-0.023957375,-0.018800803,-0.024384843,-0.041974872,0.006893806,0.0073900544,-0.010488946,-0.012803076,-0.015413156,0.05316386,-0.0019222976,-0.025202405,-0.010948351,0.021332862,-0.038852252,0.021209965,-0.0035404437,-0.024273694,-0.009987457,-0.05109051,-0.053070933,0.026572566,-0.0043476005,-0.059849486,0.014245442,-0.023127535,0.0025765593,-0.0012639965,-0.027997227,-0.01016735,-0.010006653,0.033485793,0.071852766,-0.012785174,-0.005309602,-0.019342175,0.04546897,-0.027359309,-0.022226097,0.013188025,0.027565254,0.034217633,-0.029600205,-0.07308535,0.00016342252,-0.027065571,-0.02328186,-0.018935082,-0.019159347,0.03939927,0.02326674,0.0017860004,0.0029054612,-0.03609714,-0.00067196216,-0.004437182,-0.048913468,0.0050050463,-0.031741094,-0.010098876,0.0090981,0.051978737,0.02120823,0.031068508,0.0068629356,0.050665807,-0.042685725,0.019741729,-0.006426096,-0.027128987,-0.034889933,0.008768521,-0.0039449506,0.034513872,-0.011404737,-0.019461874,0.010052178,0.013391016,-0.030268949,0.024685372,0.01996502,0.009066433,0.02266646,0.018673604,-0.0017153467,-0.02011177,0.037155095,-0.023898972,-0.036336474,0.016096178,-0.06766623,0.055433623,-0.012782671,-0.023362441,0.012859585,-0.0030448448,-0.007919841,-0.009086092,0.0015975643,-0.024666334,0.08117711,0.031351414,0.00136117,-0.056246143,0.0033929134,0.00046167744,-0.039995182,0.014873584,0.01741887,-0.049737617,-0.031135494,-0.04788143,-0.084712595,0.023998896,-0.017988,0.027232489,0.06712581,0.063236155,0.013508733,0.054813676,0.03556538,-0.016656747,0.00035492083,0.013261935,0.034920484,0.0047462485,0.03875798,-0.000547771,0.026452987,0.005907197,0.01234855,-0.03449039,-0.028751897,-0.063032545,0.037408702,-0.016640939,-0.03538891,0.047496114,0.006559572,0.027649978,0.0127574755,0.0029625695,0.026175525,0.023021102,-0.061516486,-0.0479906,-0.015392034,-0.006021233,-0.05018021,-0.034828767,0.040090743,-0.018256452,-0.041344732,-0.045545943,-0.0440171,0.023465596,-0.033401836,-0.006124606,-0.00064263545,0.048148952,-0.033555042,-0.023952859,-0.010191683,0.0054678977,0.039816644,0.01789718,-0.040582668,0.052452542,0.041489486,-0.040164202,0.0027346238,-0.0023202542,0.003338906,-0.02142835,0.031591587,-0.017210875,-0.009129747,0.020694977,-0.00028195107,0.037948277,0.008751227,-0.017876126,0.023614392,-0.02247762,0.033417046,-0.019819072,-0.020125087,0.005711141,-0.01760314,0.01465492,0.030279707,-0.0448206,0.050250534,-0.033734918,0.03273457,-0.0137074385,-0.028317492,-0.027722484,-0.04240255,0.046651058,-0.03566666,0.025528602,-0.010632718,-0.050402824,0.022700502,-0.03181383,-0.028366288,0.03970846,0.040901326,-0.049291752,-0.04251461,-0.0019492067,0.024390174,-0.010128908,-0.046501733,0.012666408,-0.017487446,0.032398134,0.010246274,0.043239843,-0.00738956,-0.04013039,-0.055777587,0.021608341,0.02444892,0.014907947,-0.041214257,-0.03512089,0.022962527,0.025310554,0.041421656,-0.049923062,-0.028497962,-0.016148126,0.022514153,0.022996258,-0.010261153,-0.04399734,0.029229771,-0.030325254,-0.011334601,0.020686388,0.021984829,-0.003834392,-0.0070516723,0.01621259,-0.042771846,-0.04158057,0.0107131,-0.043181065,0.0075458707,-0.03409155,0.0079609575,0.016685061,-0.02532701,-0.014403123,-0.026672397,-0.02203737,0.011408883,-0.031120067,-0.032338247,0.0026632897,-0.044742618,-0.030037953,0.0017033017,0.020504687,0.024123298,-0.047797,0.020998828,-0.025032837,-0.011660263,0.028297078,0.03825918,-0.0012909956,-0.038309366,-0.026255844,-0.027456347,-0.014604313,-0.05429766,0.01586661,0.032947082,-0.031049004,0.05515572,-0.014716503,0.01749838,0.023014057,-0.017172849,0.04469002,-0.020786446,0.023766335,-0.043356113,-0.0019123281,-0.052209858,-0.0355071,-0.014480884,0.052712444,0.0026491957,0.022572543,-0.0047190026,0.06189223,-0.03722173,-0.013569628,-0.014154642,0.008429631,-0.033703923,0.073610365,0.0097005665,-0.059944335,-0.0124397045,0.0074471165,-0.041881703,0.03153122,-0.029195758,0.009548219,-0.025150461,0.03372201,0.0211388,0.017602004,0.01814389,0.02792714,-0.009837735,0.004029071,0.014674531,-0.016228655,-0.0059310244,0.020379733,0.025214646,-0.014265368,-0.030092694,-0.0059935255,0.014732844,-0.05244198,0.043181498,0.0023834128,-0.029089946,-0.0062129414,0.008506837,-0.038517687,-0.030645091,0.0019065404,0.04303612,0.009795465,-0.04560445,0.0067960327,0.027620958,0.026614191,0.009493606,0.0029399833,0.025250034,0.02404354,0.03564985,0.04652753,0.016573641,-0.005158232,-0.015761843,0.019214299,-0.024205938,0.012337153,-0.033342056,-0.01287094,-0.032107886,0.02662365,-0.026648266,-0.053406395,0.049804263,0.012909638,-0.0009093571,0.025126973,0.008733904,0.014896522,0.0038940774,0.020417573,-0.040880013,-0.02910668,0.017938808,-0.03956152,0.0015677322,0.0017963701,-0.029658629,-0.05988211,0.047319885,-0.04132057,0.024764862,-0.06454897,-0.05075308,-0.04757644,0.054102536,0.009350058,0.04752821,-0.0060817003,-0.03267657,0.024878483,-0.015591018,-0.020794744,0.01427566,0.011839674,0.027098333,-0.011398158,-0.031166045,-0.0058374945,-0.042027187,-0.0457514,-0.01777294,-0.022479974,0.0203776,0.0348136,0.014904096,-0.053194553,-0.043272465,0.049222704,-0.043649975,-0.009554963,0.04014357,-0.0030096197,-0.053689353,-0.03254194,0.002081795,-0.007024966,0.003909491,0.0026581285,-0.011514541,0.020496944,0.07311429,-0.008009662,-0.00851021,-0.032246158,-0.0149232745,-0.03219903,-0.04016512,-0.00890377,0.012934407,0.028812032,-0.050123073,-0.0099593215,0.035325143,0.046204712,-0.007273084,-0.05558505,0.06587955,0.06987593,-0.020366928,-0.018590968,0.009007395,0.030711688,-0.046305887,-0.03756646,0.018755177,0.025484655,-0.034933567,0.015368702,0.025873667,0.006834178,-0.012216399,0.01939515,0.022506004,-0.017234715,7.1018294e-05,-0.01205162,-0.030164428,-0.026265442,-0.017081374,-0.008051015,-0.022019155,-0.012943301,-0.043970615,-0.033763334,-0.04980503,-0.009521508,-0.026332052,0.024481488,-0.0137537485,0.0049712546,0.030863304,-0.042526126,0.030344317,-0.042606406,0.008251024,0.049057394,0.01811042,-0.015545848,0.028519718,-0.027599359,0.010816922,0.005069652,-0.035709336,0.04504772,-0.018798202,0.041405726,0.043524195,-0.051343385,0.01170522,0.014016711,0.017303785,0.02682227,-0.00784419,0.00023040609,0.036621947,0.039265472,-0.008424899,-0.027064519,-0.02642919,0.024641646,0.025280373,0.023524752,-0.052395795,-0.042767595,0.035855837,0.005406096,-0.016016493,-0.023894124,-0.041880865,-0.016095456,-0.020821337,0.029777357,-0.029809725,0.0014434239,0.02634861,0.026845621,-0.036570873,-0.012638475,0.056604348,0.049840346,0.07064477,-0.017986383,-0.015729241,-0.010232073,-0.0037117726,-0.011770778,-0.013909044,-0.022582948,-0.009080902,0.046099093,-0.01902608,-0.018328363,0.026580876,0.037584845,-0.043405592,-0.056176245,0.023017503,0.017486747,0.0357567,-0.013535714,-0.01817942,0.041645322,-0.020824756,0.022306774,-0.01749536,0.014265498,-0.009803874,-0.007535728,0.0043146173,0.04589656,-0.0038235984,-0.012309248,0.011701047,-0.021075554,-0.026548663,0.023212602,0.013493005,0.01869246,-0.04032023,0.0418806,0.041732326,-0.01617777,0.02572079,0.010639972,-0.021428388,-0.035553627,-0.046957266,0.025877427,-0.015760412,0.0064902725,-0.024210365,-0.03659422,0.044427738,-0.055957936,0.019294217,-0.04717103,-0.02994702,-0.024533028,-0.03277145,-0.02240126,0.011538938,0.039814904,0.035601683,0.053137053,-0.04985036,0.03694148,0.039268583,0.007896436,0.016933162,-0.03302868,-0.004811135,-0.014533248,0.038952775,-0.053947914,0.050950896,0.033132993,-0.019455733,-0.005766227,-0.01818394,-0.034046184,-0.057369187,-0.044153173,0.022712817,0.018222775,-0.010269769,0.035553385,0.045247957,0.009549349,-0.046111405,-0.025508665,0.016859066,0.05225307,-0.019539379,0.0067133415,0.051296208,-0.0151342545,0.037650194,-0.062374815,-0.018804058,0.06200876,-0.0046136086,-0.03559959,0.021925792,-0.049810454,0.03399996,0.0044268626,-0.008119659,-0.051436793,0.025344715,0.027337616,0.02349554,0.029936025,0.025222572,-0.057006933,-0.04259055,0.029435225,0.05667215,-0.024836157,0.007803018,0.000421096,-0.0058804,0.021384247,0.037206206,-0.035336982,-0.005376376,0.011433315,-0.000897961,0.030437415,-0.03499109,-0.016965417,0.037226908,0.014593472,0.04246099,0.035296835,-0.021329314,-0.028279321,0.004030465,0.008121305,-0.017261993,-0.028225016,0.020426946,-0.004682105,-0.042125218,-0.031364534,-0.04309338,-0.03790402,0.013104681,-0.037850343,0.025663983,0.042386513,-0.035355143,0.03195137,-0.024477974,0.037014324,0.0023727661,-0.0037368168,-0.03423116,0.01809493,0.0034085112,0.036718633,-0.04030545,-0.04732927,0.014109439,0.012491161,-0.02788198,-0.022656433,-0.0008773862,0.02855594,-0.0028337215,0.013435083,-0.016100118,0.0001250033,0.016089996,0.022674581,-0.035008717,-0.012364302,-0.0024084095,0.06485381,0.04074612,0.025254969,0.027476374,0.034781504,0.0570218,-0.03860421,0.02573238,0.018353347,0.048772667,-0.0055853976,-0.016865566,0.04010703,-0.038443435,0.006079055,-0.008324095,-0.03658766,-0.026462084,-0.015042181,0.015233893,0.02612333,-0.019171936,-0.040661912,0.028948847,-0.017071234,0.015887585,-0.004835032,-0.004864398,-0.014524781,-0.04027358,0.010368891,0.032094084,-0.02579595,0.037773658,0.019999538,-0.033926293,-0.01966353,-0.012414272,-0.042784713,-0.0033231564,-0.011581047,-0.04142111,0.0073832655,0.0404914,0.052172676,0.046700153,-0.0063054175,0.03666314,-0.030131027,-0.033922076,-0.045488063,-0.027776293,-0.026102232,0.028951066,0.02236707,-0.017522443,-0.059126727,-0.015288044,0.023844922,0.0005336977,-0.020810552,0.03472961,0.02757795,0.0104155205,-0.0086926045,-0.070507154,0.03006186,-0.056309864,-0.011783175,-0.04832243,0.029062014,-0.06876611,-0.016362306,0.017989729,0.022701593,0.0072075427,0.03861117,-0.07185589,0.03886307,0.0145962825,0.011555422,-0.023587286,0.021572985,-0.032094646,0.0046344437,0.042206537,-0.0423341,-0.04000806,0.02759862,-0.034736156,-0.015417586,-0.0099702645,0.008433457,-0.05021921,-0.01158246,0.052006487,0.00062563055,0.0044554546,-0.059006643,0.03411525,-0.042523306,-0.027647508,0.0012917607,0.003275067,-0.0048822695,0.059543915,-0.031674013,-0.012063073,-0.0009534859,0.025944704,0.027931303,-0.046526417,-0.0008415853,-0.0068764905,-0.012036725,0.04114181,0.044171352,-0.05497418,-0.02040002,-0.04301388,0.024612157,-0.02464489,-0.028718088,0.07461573,-0.004248045,-0.0076195,-0.018451747,0.015120676,0.007641395,0.013353566,0.025624555,-0.03858847,-0.0013121266,0.013163765,0.021295808,-0.0026501876,-0.010792163,-0.019355427,-0.042004626,0.0041568247,0.041925795,-0.010021641,0.001817781,0.004667387,-0.027352732,0.019526877,-0.024297528,0.030400962,-0.004955299,-0.021524986,-0.022904614,-0.04403081,0.0060598403,0.031830672,-0.011047694,0.04609829,-0.013667824,-0.029393967,-0.008385386,-0.032013644,0.0371926,0.015718978,-0.018918362,-0.025678372,0.00015048802,-0.05138583,0.03790108,0.03112886,0.0139383515,0.011334818,-0.015906686,0.025071723,-0.028672393,-0.04133938,0.04145301,-0.0133843515,0.04128135,0.012292465,0.011334377,0.037586514,0.020635515,0.0019240356,-0.0019594328,-0.02881231,0.03046446,0.015334244,0.046456877,0.038650442,-0.034703087,-0.04899034,-0.011890601,0.044460762,0.016855882,0.032087035,0.037634153,-0.015101466,0.027849184,-0.006776319,-0.061048336,0.05598731,-0.0009673033,0.020690689,-0.0016887052,-0.03359725,0.022465553,-0.009397797,0.012467398,0.046822056,0.0367021,0.03576119,-0.037911445,-0.03716099,-0.011949643,0.014779203,0.01832495,0.029255003,-0.037476134,-0.053627152,-0.034274004,0.0036399001,0.055458844,0.028584108,0.02610753,-0.012568897,0.029848844,-0.0068601747,0.040038463,0.035066947,0.00048843067,0.00081062835,-0.018983817,-0.005159329,-0.04836167,-0.02103903,-0.03548147,-0.044497777,0.003526729,0.021320563,0.02245075,0.025465501,-0.0006199976,-0.02362764,0.02866787,-0.015524363,-0.03454172,0.002852024,0.031990215,0.0225945,-0.03959397,-0.014167408,0.029588962,-0.015325001,0.033680763,-0.028288668,0.025488708,-0.028495474,0.027678985,-0.019034632,0.0018545701,0.016203282,0.01956054,-0.033349518,-0.03136703,0.05228318,0.021428457,-0.041886978,0.040099718,-0.041933425,0.014118543,-0.043103352,0.00902618,0.034451358,0.024045957,-0.037387915,0.008820744,0.024186557,0.03552363,0.00516416,0.01744597,-0.02848842,-0.022308368,-0.018294536,0.032177437,-0.019904288,-0.046274733,0.04361962,-0.05283923,0.0066782823,-0.029527545,0.007806926,-0.011808132,-0.047520313,0.03164841,0.03293655,-0.022584382,-0.04550051,-0.04627826,0.036154777,-0.0046180515,-0.031337775,-0.020215569,-0.049508214,0.040309913,-0.05245412,-0.02541408,-0.018417075,0.016169433,0.01756781,-0.05261508,0.024175191,-0.020441204,-0.015179607,-0.02987327,-0.006950243,0.018529119,0.008586796,0.024151772,-0.023962125,-0.02708576,-0.017803742,-0.04365875,0.03972889,-0.0026260286,0.0056583406,0.049142785,0.003910997,0.011630178,0.05428583,0.014048606,-0.039698496,-0.032166295,-0.0452661,-0.020592242,-0.06793775,0.045263857,-0.0030712201,-0.012850704,-0.035900466,-0.020199068,0.012081146,-0.006819678,-0.007496227,-0.009288028,0.03457582,0.015848702,0.012752757,0.012552655,-0.04110067,0.032512367,0.040291134,-0.037199102,-0.004304762,0.038133666,-0.02808618,0.036908716,-0.008335973,-0.0073614744,0.042964723,-0.05581332,0.03492722,-0.016372684,0.038057115,-0.021568978,0.010096719,0.043134697,-0.0026562253,0.0137600945,-0.053206217,-0.06482639,-0.03412466,-0.00082171656,-0.0070840437,0.023528151,-0.07486936,0.007838524,-0.011582645,0.006122518,-0.048576023,0.02084488,-0.0103603965,-0.0032170063,0.038680904,-0.05968139,-0.02312594,0.03932479,-0.03228967,-0.05279376,0.027132446,0.031891204,-0.009789463,0.011832556,-0.009258076,-0.048698362,-0.006446574,0.020618511,0.024818026,-0.025766984,0.038166564,-0.042296547,-0.027560199,0.00061117613,-0.019074447,0.016096724,-0.02697558,-0.038986947,0.02179346,0.032699045,0.009870809,0.037306253,0.030303136,-0.051769465,0.025799012,0.01319443,0.015139103,0.03182601,-0.034077298,0.033802323,0.01710898,-0.050280843,0.020031538,0.013833381,0.020682855,0.015626775,0.007261115,0.036088087,0.024184506,0.044354774,-0.0017093786,0.03156895,-0.012637988,-0.029602323,-5.214289e-05,-0.053701267,0.003347866,-0.04919871,-0.03891544,-0.034822293,-0.025889771,-0.04529379,0.018041557,-0.02601618,0.0028455332,-0.039635006,0.027875818,-0.039081093,0.005596961,-0.023527496,-0.043801688,0.014826804,-0.03817515,-0.023644798,-0.032859366,0.009026774,-0.0036949576,0.05032778,-0.0115563655,0.006045239,0.014396165,0.04402036,0.016587798,0.012092651,0.04984781,-0.03227704,0.00692272,-0.038355526,-0.018715432,0.0008792032,0.04507606,-0.004470261,-0.016276106,0.028242495,0.03372935,-0.041116476,-0.019211676,-0.045342192,-0.018939529,-0.036639247,0.029692564,-0.039783385,-0.05159406,0.018436842,-0.034780286,0.009961343,0.030686595,0.006580862,-0.055852875,0.042957738,0.009837907,0.00312928,0.022432106,-0.023675952,0.030246763,0.03256021,0.021560827,0.022206495,0.010118697,0.0028520573,-0.05229974,-0.0019468616,0.033731226,0.030816842,0.016313242,0.0026131033,0.010316034,-0.045812644,-0.013283116,-0.036243718,0.02542667,-0.018318636,-0.026652645,0.0022012868,-0.003020648,-0.040969837,-0.01773466,-0.025884332,-0.01810754,-0.020263856,-0.05364464,0.014140968,0.01139195,-0.008357171,0.020513674,-0.02673574,0.008139115,0.023331134,-0.05038397,0.041024107,0.008616563,-0.04060465,-4.579262e-05,0.018435124,-0.003974803,0.0054587205,0.006672855,0.024284285,0.014144895,-0.06033527,-0.024529057,-0.02210312,0.03312773,-0.03187964,-0.01369245,0.012607773,0.014808552,0.051283646,0.039845794,0.03747095,0.032414474,-0.014079371,0.042875957,0.0025580525,0.040966693,-0.043672267,-0.012979672,-0.029862525,0.058907557,0.008229391,0.05390863,0.0068412866,0.02225115,0.027164849,-0.038335536,0.019176688,-0.03301181,0.008035544,-0.00072035304,-0.0034403675,-0.0019776258,-0.0035405066,0.00811558,-0.0433502,0.066158965,0.017309882,0.02398693,-0.012129613,0.015672112,0.032282084,0.03922621,-0.05052319,-0.03412389,-0.045607414,-0.020756382,-0.010810315,0.053934,-0.042707864,-0.022873046,-0.018942943,-0.051330846,-0.0007197885,0.0051546977,-0.012711601,-0.052050643,-0.0026011134,-0.047528777,-0.0124229845,0.026475545,-0.047178794,0.034486502,0.019054178,0.03987855,-0.0050198855,0.026098775,-0.031259976,0.03451478,0.008622846,-0.03451551,0.04090196,-0.044702016,0.032177847,-0.0008498264,0.025338626,0.0020307766,0.017204495,0.0010148252,-0.03320728,-0.0250593,0.032807413,0.03429258,-0.02538703,0.019883193,-0.035438854,0.0402584,0.023761213,0.04038297,0.007555647,0.056844823,-0.047143295,0.033261944,0.007842064,0.040474884,0.0384951,0.031170567,0.024768386,-0.025570534,0.034048904,0.034076665,-0.023286259,0.0023054674,0.03280784,0.009865589,-0.0095305275,0.039784152,-0.015754737,0.024989476,0.040587097,0.017952282,-0.056474578,-0.03813564,0.012902649,-0.019971965,0.029719181,