-0.19227286,0.23239304,0.25965244,0.20455803,-0.14985496,0.012486447,0.019042535,0.03382231,-0.16846949,0.24267738,-0.037048023,0.25272286,-0.18001598,-0.087186,-0.11497543,-0.20743492,-0.07705612,0.23474582,-0.21700592,0.08825184,-0.1742016,0.14063093,0.07063132,-0.07005489,-0.21836102,-0.080103435,-0.028831191,0.039336428,-0.12673011,0.2526009,-0.293412,0.10506584,0.18069582,0.2928584,-0.04845959,-0.047039766,-0.15373623,0.21537794,-0.1213002,0.23023193,-0.24238262,0.06888945,-0.034488667,-0.15159594,-0.16310467,-0.006085421,0.19883443,0.22074996,-0.27041185,0.27627757,0.3121746,0.023854824,-0.25083658,-0.08490056,-0.06487123,-0.053007875,-0.13412566,-0.18335484,-0.22262354,0.28362343,-0.18928868,-0.23987156,-0.22760119,-0.27135748,-0.030577946,-0.023516506,-0.049409024,-0.017372431,-0.17572832,0.2805168,-0.17595339,0.18850753,0.13128194,0.16959733,-0.18978569,-0.09982853,-0.1590746,0.22302721,-0.23776083,-0.26993454,0.08750526,-0.06784793,0.17356099,0.09497284,-0.275052,0.049531057,0.106358394,-0.29001698,0.014315014,-0.12205067,-0.16273285,0.1432715,-0.21513434,0.1577075,-0.014864282,-0.13182253,-0.094363146,-0.16732511,0.1157861,-0.25621307,-0.053180765,0.13926218,0.07896234,0.048813764,0.13367635,0.1520031,-0.12253917,0.052163366,0.07787643,-0.25212735,-0.071407065,-0.07404163,0.28066128,0.106683426,0.048007764,0.09230255,-0.28082195,-0.057506952,0.17915784,0.18818405,0.1525235,0.12561788,-0.14068778,-0.012834694,0.16300227,0.15331788,0.10187076,-0.010539046,0.21787679,0.17807952,0.09780857,-0.028851809,-0.09661753,0.02933256,0.26058996,0.066713125,0.011542133,0.1259041,0.0014271804,-0.04790636,-0.16978714,-0.0027956532,0.041399557,-0.27298978,0.073199145,-0.2220134,-0.18903793,-0.046882153,-0.26532155,-0.2061241,0.20075938,-0.26038533,-0.12592939,-0.20667884,0.2409674,0.0859319,-0.12890501,-0.27144963,-0.007107171,0.20331284,-0.10924126,0.1670378,0.062493928,0.06123422,0.16331217,-0.22727537,-0.023117805,-0.13749634,0.2588074,-0.24869621,-0.100747176,-0.2891739,-0.13862932,-0.121416815,-0.030967496,0.25985086,-0.060719106,0.070133515,-0.044671167,0.17677438,-0.08227755,0.07614352,0.3186959,0.23736292,0.07992645,-0.041344665,-0.21861845,-0.04120411,0.24918903,-0.088992685,-0.21441326,0.16708675,0.24631602,-0.029157655,-0.07358171,-0.10829213,-0.052367035,-0.25499365,-0.015039397,0.08461649,0.2677337,0.038987655,-0.10500226,0.061252173,0.12420933,0.0582268,-0.32484424,-0.22857423,-0.00067371683,-0.029050224,0.16537987,0.116791695,0.12568057,0.2596205,0.15263246,-0.13753109,-0.24790058,-0.18539195,-0.14632739,0.0836726,-0.0059766155,0.054295313,-0.21476965,0.1537369,0.05966678,-0.13405508,0.2536937,-0.16759987,0.0766924,-0.112712875,-0.027528275,-0.0066233687,0.11422665,0.2402284,-0.14783074,0.08138467,0.19704448,-0.23159036,0.21778715,-0.2150981,0.17726502,-0.0704543,-0.02043289,0.27926528,-0.2557243,0.1030163,0.2704658,-0.11203417,-0.013169695,-0.075993784,-0.0017733905,0.13765666,-0.27985695,-0.22538081,-0.07178465,-0.021621719,0.11865668,0.18384887,0.2029481,0.19170047,-0.024858268,-0.13461989,-0.057500232,-0.27215555,0.21576622,0.26784864,-0.015508347,-0.2472718,0.065182514,-0.24670914,0.15517123,-0.08349233,-0.1728176,-0.07884144,0.2119379,-0.0824806,-0.16870879,0.28348243,-0.108236134,-0.20705503,-0.15043345,0.047192313,-0.19869757,-0.028435534,-0.19330932,0.03164842,-0.23467663,0.042626694,0.27449527,0.14175543,-0.06482635,-0.0934629,-0.10163944,-0.12963733,0.105452135,0.31067342,0.21896905,0.012950211,0.16709188,0.09625174,-0.2383198,0.23979266,0.15555963,0.0023987044,-0.053122666,-0.22039466,0.0638927,-0.155322,-0.012853024,0.33474582,0.24682462,0.0118863275,0.20783608,0.13708436,-0.04397399,-0.1929898,-0.24299824,0.11091934,-0.09956171,0.026998129,0.04168999,-0.29225686,0.060974736,0.103858456,0.063934,-0.25250712,0.16432326,0.043661326,-0.01786272,-0.034491174,-0.08017721,-0.063018434,0.22772546,0.12127196,0.23012891,0.05027203,-0.013506133,0.21745601,-0.18338919,0.011555483,-0.07484622,-0.009998465,-0.25502595,0.296448,0.30154517,-0.19904059,0.13201243,0.12664649,0.10839044,0.2835988,-0.05166364,0.2547308,0.057830956,-0.12799059,-0.18493316,0.10020822,-0.08181715,-0.10057302,0.14547294,0.023498416,0.099832855,0.1781862,0.13348092,-0.022827428,0.15482852,-0.046710186,0.26845688,0.0744097,0.11235518,-0.10436804,-0.15265496,-0.21963853,0.2672393,0.011040785,0.10522632,0.3275383,0.26603597,-0.23047644,-0.07676056,0.03278663,0.045059454,0.03061028,0.2227181,-0.052270822