0.083687365,0.19063954,-0.2918553,-0.12248646,-0.14120005,-0.010776096,-0.16650973,-0.115309544,-0.032214697,0.13322386,-0.06470395,0.10059784,-0.038860116,-0.16992432,0.014433018,0.045051787,-0.17708574,0.12759562,0.049465664,0.037975743,0.1146562,0.1296263,0.15633203,0.04450911,0.0944302,0.12409847,-0.08138141,-0.014560653,0.14432076,-0.0009525332,0.1633311,-0.13646483,0.20915984,-0.06079754,0.016334387,0.19983084,-0.1483571,-0.008948979,-0.014019942,-0.23567548,-0.049409024,-0.11342215,0.20926826,-0.19052127,-0.09888122,-0.07375806,-0.19527763,0.24528468,-0.039228026,-0.107746854,0.108294316,0.079994656,0.06688243,-0.1716872,0.009482976,0.07351849,-0.017850187,-0.0955721,0.01784569,-0.1837377,-0.06624397,-0.15547054,-0.13396695,0.18873028,-0.005953024,0.018311799,-0.051197592,-0.015256771,0.08802604,0.089035764,-0.12444283,0.04684999,-0.053719107,0.16926347,-0.20781279,0.24610192,0.0021450813,-0.014076937,0.034817558,-0.19840491,0.12710348,-0.10325418,0.03379688,-0.04405499,-0.21799049,0.2101736,0.14382218,-0.19619016,0.116923,0.030084014,0.06017674,-0.11131949,0.14118424,-0.029336948,-0.0016160902,-0.13371341,0.28477192,-0.19427772,0.26473397,0.10827892,-0.16411974,0.07116244,0.07456274,0.14878787,0.111180045,0.031233748,0.1871738,0.1416818,0.30386293,0.06061719,-0.05768728,0.04118961,0.057379693,-0.3865028,0.37171245,0.2369274,0.16090608,-0.055678386,-0.04393444,-0.19881202,-0.07202978,-0.20669192,-0.031773884,-0.33396706,0.108920954,0.033326704,-0.06754593,0.28148374,0.016699309,0.12899947,-0.060186997,-0.20061752,-0.09259271,-0.013447141,-0.029929059,-0.18197763,0.034669694,0.046775315,0.15079848,-0.12997481,0.004233322,0.21277943,0.24682069,-0.029759673,-0.22185946,-0.16414537,-0.014419157,0.11270533,0.14769752,0.07092126,-0.03262966,0.1675397,0.0009112141,0.2380904,-0.12074176,0.24897362,-0.17181563,0.023967931,0.15196009,-0.03174509,-0.11211542,-0.093343705,0.03520955,0.11516402,0.2453007,-0.08246892,0.1495527,0.15375577,0.04385929,0.12228539,-0.010975373,-0.015998889,0.100753926,-0.096260354,0.085523315,-0.06650161,0.08704462,0.11033401,0.111511014,-0.06582239,-0.060435656,-0.15595147,0.13196577,0.05937728,0.027625823,0.047128733,-0.10363169,0.16967158,-0.071014054,0.24953845,0.28362212,-0.30062526,-0.26122928,-0.16279523,0.17715286,-0.15016496,0.09565022,0.009718452,0.16570486,-0.11579967,0.38333952,-0.13269755,-0.17601259,-0.15129568,0.13217235,0.027888041,0.108490705,-0.09821426,-0.1367405,-0.14643137,0.10942815,0.10536488,-0.018818995,0.0649335,0.004526304,-0.14934097,0.16895732,0.13883764,-0.0969186,-0.0105936555,0.043892343,0.18324883,-0.39055037,0.090749346,0.0684813,-0.013532536,-0.22589974,0.0072092856,-0.021471355,-0.07440393,0.030007862,-0.09098095,-0.1193017,-0.08678496,0.16925539,0.06271171,-0.03547333,-0.012640506,-0.12208587,0.032590088,0.0026313493,-0.029908484,0.002791023,0.019083768,-0.039671063,0.060804274,-0.019919243,0.049957264,0.093927674,0.0411397,-0.08438318,0.047908787,0.036577046,-0.1006616,-0.122682154,0.25816128,0.079697415,-0.07253429,-0.1438913,-0.012713694,-0.10076589,0.08064495,-0.12865926,-0.111539274,-0.12471297,0.102063306,0.22670877,0.025615348,-0.23531207,-0.100245245,-0.10094111,0.11899536,0.06691034,-0.055043157,-0.19365007,-0.07278444,-0.15373932,-0.046189327,-0.09763509,0.11056362,-0.044954125,0.0038622078,-0.11529287,0.082261,0.08620176,-0.2245009,0.025805658,-0.04186592,-0.14259152,-0.15565868,0.23516503,0.3135213,0.21873203,-0.07589473,0.06331035,0.13583778,0.23395991,0.0006456716,-0.0890755,-0.000663782,-0.27078715,0.111479,-0.004388712,0.19046222,0.25372547,0.07255495,-0.07852947,-0.08372835,-0.31076822,-0.28539026,0.07187487,0.012180761,-0.036028944,-0.11566068,0.117827535,0.006528333,0.033262007,-0.063319676,-0.1053957,-0.11353636,-0.026541555,0.08774122,0.15967113,-0.070836455,0.34322232,-0.19600546,-0.073295735,0.2253574,0.09823497,-0.08209091,-0.21618879,0.26775938,-0.10509919,-0.14850777,0.06230754,-0.099166766,0.2796797,-0.019624315,0.23241058,-0.41349873,-0.3345465,-1.1915356e-05,0.29209766,-0.089223854,-0.14299448,-0.1465386,-0.060188185,0.10893412,0.08259318,-0.011734804,0.34783414,-0.07769795,-0.16310947,-0.08085003,0.23191999,0.16609943,0.093500726,0.20648517,0.43785903,0.30430186,0.2892134,0.044162795,-0.043584187,0.19293334,-0.07668241,0.025919337,-0.0857025,0.025669055,0.073214225,0.04762266,-0.09592442,0.0851011,-0.02339492,0.014056956,-0.22860599,-0.0055868146,-0.07479219,0.3822951,0.036162224,-0.006050128,-0.0508179,0.004186924,-0.14984979,0.04367635,0.25885478,-0.1654996,0.07370317,0.0057527586,-0.2480737,0.0586367,-0.24719484,0.045098886,-0.12136373,0.16549142,0.00079675583,0.000319721,-0.17883663,0.05277046,0.050515078,0.23418434,-0.32217023,0.23961823,-0.017788423,-0.04536053,-0.010915363,0.07621496,0.01458972,0.22263508,0.17998706,-0.036428258,-0.13539784,0.034707192,0.016850345,-0.08866746,-0.030063406,0.007121536,0.14325963,-0.012388693,-0.11138341,-0.110197045,-0.07251652,0.21772811,0.12340895,-0.19362734,0.055975173,0.006662255,0.069727376,-0.16397582,-0.015315596,-0.0023769946,0.15551881,-0.20519312,-0.011200702,-0.124602295,-0.035823364,0.22093183,0.21972232,0.05873224,-0.065575406,0.07270711,-0.10254044,0.16051717,-0.0013812053,0.16683248,-0.104776606,0.1875356,-0.13845363,-0.10267554,-0.07383434,0.004645067,-0.24793671,0.088456005,0.057873987,0.12193711,0.09391494,-0.21009113,0.251389,0.04456826,-0.0029428205,-0.07119316,-0.034629285,0.15958162,0.13322134,-0.1315115,0.13808492,0.051726833,0.11759483,-0.024907293,-0.13845612,0.24023728,-0.023775147,-0.073786624,-0.011387955,-0.09696124,0.054867502,-0.11542321,-0.09420917,0.1448868,-0.063661546,0.046428043,0.1024508,-0.07924668,0.18603888,0.061978716,-0.18455939,-0.011826018,0.17108339,0.13329996,-0.124103375,-0.06928723,-0.02217831,0.21288471,-0.10023221,-0.21239595,-0.19342664,-0.0072160736,0.18040533,0.10343875,0.19771685,0.09549647,-0.039189965,-0.006161621,0.014948413,-0.061413627,0.09468364,0.0018180511,-0.053955838,-0.14405642,0.1672725,-0.18417509,0.20829971,-0.13634922,0.15969078,0.16469489,-0.17713687,-0.033274114,0.058443174,-0.052621786,-0.16674802,-0.08196236,0.0005118257,0.15704195,0.11117429,0.1245959,-0.05451595,0.047973644,0.042521764,0.076938055,-0.08231579,0.15467669,-0.113547586,0.0075108903,0.032861594,-0.05491392,0.027767695,0.031317107,0.09092743,-0.064485416,-0.009277818,0.079999216,-0.012578376,0.04610405,0.010020546,-0.23111978,-0.06492813,0.1525048,0.12764,0.08272845,0.07404717,0.027612671,-0.17847206,0.0034452835,0.033736624,-0.12889205,0.198745,0.07793692,-0.10666322,-0.09101472,-0.076385885,0.2383522,-0.060344946,-0.055082418,0.08785766,0.12838215,0.08702834,-0.06652573,0.054180007,0.04013472,0.06176805,0.008465892,0.021497441,-0.025927288,0.089820914,-0.09233755,-0.16779006,0.23045707,-0.08549461,-0.084495105,-0.18545035,0.035536576,0.18957874,0.2116914,-0.15204555,-0.15655011,-0.032662977,0.04354429,-0.07193605,0.06711721,-0.14408773,0.09506808,0.13561094,-0.2874249,0.12180142,-0.1465743,0.16262272,-0.15935414,-0.12491612,0.09667278,-0.0038872168,-0.11337065,0.110410966,-0.11506278,0.08071832,0.026715562,0.015050083,-0.06528083,-0.015567668,-0.18719964,0.14845595,-0.18915787,0.07820247,0.14495344,-0.1262178,-0.17386024,-0.003283067,0.014404266,-0.018436799,-0.1665721,0.16694126,0.23191033,0.21937642,-0.064380266,-0.17661703,0.14912294,0.26107037,-0.24003777,0.30476192,0.18676925,-0.20316319,-0.22924712,-0.08804339,-0.1900789,-0.016889114,-0.18469538,-0.047830347,-0.14061248,-0.056020956,0.028101431,0.04315538,0.062049787,0.13107848,0.07313022,-0.10827632,-0.23006287,-0.048464622,0.17458816,-0.07052471,-0.14613757,-0.12108769,0.22893573,0.16566302,-0.13883077,0.011725414,0.19317906,0.31894916,0.011324335,-0.06689614,-0.12189064,0.10632725,0.13462499,0.019868761,0.018080525,-0.12879483,0.10356184,-0.10155424,0.03995912,-0.079898864,0.19701806,-0.03110478,0.0365516,0.06339979,-0.13603449,-0.10134412,-0.105357915,0.106880985,0.18148088,0.016812231,-0.031228745,-0.03860304,0.15875094,0.102308854,0.0116104325,-0.030253014,0.08250962,0.034635246,-0.034311254,0.051252384,-0.23384112,-0.072118096,-0.14630826,0.06674397,-0.13419223,-0.019569732,-0.16936614,0.013914931,0.15117621,0.085576355,0.010980862,-0.03815766,0.02908167,-0.004299558,0.0854901,0.24184634,-0.16887337,-0.17529346,0.0786762,0.13078575,0.1420458,-0.025000824,-0.11718201,0.08717867,0.0800771,0.31522632,-0.21293534,-0.10562809,-0.22106653,0.15711237,0.25338155,-0.0968269,-0.20569652,0.016496267,0.010036054,-0.020641293,0.1515234,-0.1785753,0.09997005,0.04599321,-0.13284105,-0.0054387664,-0.114484385,0.111636944,-0.015967766,-0.106359266,0.1633233,-0.29337922,0.1322819,-0.077031106,0.04500648,-0.12982537,-0.020352565,-0.0807863,0.123521075,-0.09546095,-0.055492014,-0.078880616,-0.153702,0.008755828,0.09984764,-0.17935297,-0.15812793,-0.0014338476,0.029444704,0.18684098,0.036360197,-0.18256414,0.07518783,0.07160645,-0.10779746,0.12080955,-0.093644254,0.1290892,-0.13774753,-0.1025128,-0.11688992,0.07902361,0.028091483,-0.017765379,0.018913925,-0.021644806,0.0628183,-0.08373248,-0.029286679,0.046262175,0.15991372,-0.06773174,-0.07431342,-0.13887452,0.109177686,0.1348658,0.03365533,0.04886931,-0.22428854,-0.04711593,-0.047271147,0.07895948,0.002543002,-0.2462637,-0.051397596,0.075708814,-0.123446345,0.070439465,0.043012798,0.10714442,-0.12607738,0.059843037,0.02192299,0.13812776,-0.20481163,0.08879846,0.07512037,-0.13469312,-0.24731095,0.23726216,0.16740964,0.059464604,-0.23192555,0.16948956,0.28693315,0.116061784,-0.060382836,-0.17298365,0.19587305,-0.23965186,0.026082598,-0.031974725,0.03358971,0.20307261,0.081792705,0.04068612,-0.032329295,-0.12718756,-0.11206677,0.06434163,0.14325728,-0.072773226,0.14933375,0.10228022,-0.029179797,0.13489598,-0.02204351,-0.10520794,-0.19845489,0.07127233,-0.06500376,-0.008664772,-0.00052294857,0.38456938,0.043508835,-0.16017094,0.1072155,-0.029768286,-0.034897003,-0.24136128,0.17877966,-0.18802966,-0.16757405,0.020377886,-0.23011613,0.18604778,-0.09022707,0.15135062,-0.16866186,-0.22983335,0.043811526,0.06662508,0.05613065,-0.17645554,-0.15088862,0.100583725,0.09370018,0.050201353,0.0213468,0.21252641,-0.12087738,-0.19064146,0.17681696,-0.011809517,0.10587796,-0.12670557,0.08091243,0.38892677,0.27911618,0.30459693,0.059544414,-0.058933474,0.22856982,0.018431759,-0.098388165,0.11065301,0.0059954724,-0.16981955,-0.2386804,-0.018284377,0.13192728,-0.15982865,-0.080860086,-0.06731086,-0.09225259,-0.256701,0.15732186,0.062855124,0.1419677,-0.071645245,0.25948277,-0.13321397,-0.019999022,0.08522396,-0.25541407,-0.011335566,0.057359353,-0.027608125,-0.096461765,-0.04049273,0.104454026,-0.045343164,-0.087162144,-0.013516734,-0.13351823,-0.13101432,0.067029685,0.122400604,0.28671303,-0.24270934,0.04086112,-0.121350065,0.09395796,-0.06776731,-0.17554776,0.16253935,0.13851665,0.0037204367,0.17254512,-0.028283224,0.112036444,0.076073065,-0.13268076,0.072019145,-0.04669138,-0.09719498,-0.0016721811,0.0029773505,-0.20111093,-0.0013270457,-0.0033946207,0.086116835,-0.061403085,-0.0841408,0.11777978,0.026783992,-0.0781535,0.10423084,0.15615647,0.20105131,0.05899402,-0.068619326,-0.15725535,0.0083392495,0.1569919,0.12022548,0.10949482,-0.18763436,0.12227819,-0.042634763,0.10781378,0.081962325,0.018895498,-0.113446094,0.056827478,-0.062043607,-0.024694325,-0.040117748,0.09950973,-0.13773023,-0.09283442,0.07641351,0.11973668,0.017568763,-0.07586886,0.22636972,-0.041715067,-0.09872971,-0.066548064,-0.058570854,0.08955226,-0.1181508,-0.10853713,-0.107316926,0.10435782,0.026517775,-0.13394679,-0.092878245,0.19575311,0.031410635,0.027469268,0.023365468,0.03304673,0.0021739167,0.12146925,0.009437073,0.08703178,0.03678043,-0.151185,0.0049963878,-0.100777134,-0.008630183,0.08169577,-0.19733578,-0.019313458,0.016714577,0.1962653,-0.07824636,-0.004865068,0.034129422,0.14522801,0.043731503,-0.18447685,-0.045894615,-0.055265922,0.041771248,-0.10587727,0.14771211,-0.13622946,-0.0626126,0.06381295,-0.07075515,0.039413337,0.15046047,-0.05113316,0.104486726,-0.13998312,0.17490073,-0.15440251,-0.05961132,0.065503314,-0.04250701,0.060899045,0.062955506,-0.18073513,-0.062768206,0.043639604,0.04417823,-0.06140964,-0.19591738,0.059527494,0.10784946,-0.009312399,-0.12226989,-0.05184873,0.20698664,0.008559194,-0.21445082,0.11649806,-0.22690326,-0.038850628,-0.08396127,0.021291705,-0.09607102,0.17035566,-0.09376285,0.15942945,-0.13132708,0.16320568,-0.12471632,-0.020044426,0.10966603,-0.17190103,-0.026371514,-0.03688193,-0.043058675,0.19727398,0.09756261,0.002567902,-0.056510016,-0.009624738,0.121750526,-0.27677774,0.12492539,-0.092716575,-0.12020741,0.01750907,-0.15590225,0.0046473574,0.15874507,0.081946105,-0.10423884,-0.019982379,-0.110745706,-0.06382099,0.009436816,-0.09413086,-0.059619177,-0.00097262266,0.05350474,-0.033530496,-0.0524291,0.0990154,0.043571275,0.17784484,0.1223207,0.035443664,-0.021554064,-0.08614798,-0.083594725,0.12650183,0.048118006,-0.11821545,0.19936943,0.11493651,-0.12003439,-0.12955579,-0.16691707,0.023465868,-0.08436687,-0.28449225,-0.06650593,-0.10735365,0.14468735,-0.17043312,0.056324285,0.0893596,-0.051931247,-0.10563929,-0.09566109,0.08347548,-0.047099013,-0.11948551,-0.14073998,0.11699027,0.098335505,-0.024652101,0.15112863,-0.027745828,0.02213676,0.13348852,-0.1308075,-0.12977736,-0.067037486,-0.013791564,0.006445285,-0.13947049,-0.02803198,0.1985477,0.1465252,0.07699803,-0.20558059,0.09997421,0.15330708,-0.24272105,0.328058,0.11255142,-0.14274447,-0.13257857,-0.19367124,-0.1366227,-0.03301248,-0.2592491,-0.119766,-0.2484369,-0.27068174,-0.010627979,0.06642787,0.08878068,-0.018686827,0.0995279,0.015457361,0.03343558,0.010238689,-0.019455275,-0.059115387,0.07861186,-0.09800051,0.10783282,-0.0068505206,-0.0989586,0.05047908,-0.0030144074,0.110342085,-0.053781584,0.05443411,-0.19251388,-0.009515991,0.00430506,-0.022581056,-0.0074051423,-0.027339445,0.2399807,0.019694347,0.07977703,-0.046482053,0.17532845,-0.030228464,-0.09744409,-0.069548376,-0.012667032,-0.12040249,-0.030623293,0.05739232,0.25177425,0.11880618,-0.010801509,0.1372823,-0.00017386967,0.22278446,0.07800881,0.11448066,-0.17768936,0.19418924,-0.2093308,-0.14489904,-0.19124107,0.1135822,-0.16250071,0.13422315,-0.045509942,-0.09402741,0.012615351,-0.13831341,0.040120505,-0.14215887,-0.18289647,-0.045261603,0.091751345,-0.08481212,0.0048319353,0.27003786,-0.06695077,-0.14451015,0.008805227,0.1416423,0.16554394,0.06653617,-0.072523475,0.08394189,0.0011179312,0.15421872,-0.15553586,-0.13610493,-0.022946225,0.16156669,0.2741847,-0.06353284,-0.021700958,0.010706179,0.1516289,0.014873709,0.109105036,-0.039381556,-0.010744622,0.0030260044,-0.18315968,-0.07278454,0.095233575,0.021957587,-0.0032938842,0.058759697,0.11886023,-0.12153493,-0.0796996,-0.013942932,-0.061367694,-0.008448036,0.12271156,0.10771797,0.09457984,-0.11076702,-0.02896422,-0.0954381,-0.12638429,0.034078922,0.010437727,-0.24878737,-0.14513828,-0.084984474,0.07736758,-0.024014784,-0.1114609,-0.23333322,0.12871163,-0.066393726,0.03096094,-0.06719835,-0.17555425,0.04962661,0.00602488,-0.13595153,-0.017446524,-0.11894879,0.0105650285,-0.16642846,0.0767328,0.03220416,0.16304685,0.0209312,-0.032312762,-0.061561007,0.14079867,0.14267422,-0.048865728,0.06817099,-0.06722952,0.10742774,-0.03478653,-0.13775484,-0.10792401,-0.033690978,0.0643665,0.129106,0.047609087,-0.4304265,-0.14604884,0.08771836,0.02724903,-0.08335929,0.13770905,0.075317785,-0.010949798,-0.023801219,0.100099504,-0.017714333,0.03894097,0.13451059,-0.09201898,0.024225013,-0.08031814,0.119165525,0.115524285,0.2268085,-0.080219254,0.12320218,0.120259,0.16895711,-0.1285233,-0.26433724,-0.019528689,-0.12672356,-0.013852291,-0.020473156,0.066301554,0.14007755,-0.062561825,0.14999847,-0.14494598,0.047383755,-0.3458171,-0.03883797,0.13047554,-0.061593387,0.120203845,-0.023617692,0.008778566,0.123245746,-0.09000445,-0.16817923,-0.030539047,0.089223154,0.1253035,-0.036978465,0.14806665,0.1540942,-0.08183723,-0.059073396,-0.052752137,0.03980953,0.15839721,-0.39336455,0.105217256,-0.1593729,-0.0034001903,0.00983868,-0.18207973,0.14799191,-0.10187796,0.3600731,-0.39034748,-0.018492477,0.0088017015,0.06609157,0.14251973,-0.23280898,0.061714444,-0.12842266,0.11388935,0.06417083,-0.099934675,0.27951324,-0.047465406,-0.21304825,0.07694891,0.26574185,0.32387894,-0.04660531,-0.0013292105,0.46979335,0.29767764,0.3532363,-0.118872955,-0.10265015,0.08261279,0.017007818,-0.07496193,-0.13110664,-0.16264237,-0.0323496,-0.08655477,0.096243665,-0.003728669,0.17747517,-0.0319995,-0.2747782,-0.20299092,-0.24551563,0.20337938,0.035682973,0.037508227,-0.07225658,0.06807627,-0.067609586,-0.09834165,0.04585611,-0.261932,0.0128241,0.104774855,0.018721217,0.05571745,-0.030383615,-0.08275665,0.105891384,0.071419865,0.08718313,-0.1363812,0.015051906,0.020798398,0.083371244,0.11825242,0.10881694,-0.054958403,0.05691982,-0.08505827,-0.07088492,-0.16220285,-0.02920052,-0.03160832,0.04573788,0.09410925,0.028836502,0.1793021,0.07236159,-0.05607995,-0.15711364,-0.015842432,-0.072408,0.09589795,-0.016414508,-0.060849115,0.06739287,-0.05208513,-0.07881601,0.11017408,0.01830641,0.06767405,-0.03972592,-0.0013358354,0.14737791,0.07686252,0.12724832,-0.18728317,-0.10419624,-0.20912218,0.12712927,0.055714622,0.080138125,-0.054861918,-0.1539897,0.02684127,-0.09809026,0.08745572,-0.045277,0.04998227,-0.23713161,-0.044030108,-0.037269317,0.12788588,0.09656269,0.05095534,-0.002500292,-0.049846478,0.12818085,-0.0005088439,-0.00024304728,0.064788565,-0.13411668,-0.079105794,-0.14301546,-0.056788385,0.025087152,0.20261787,0.10837548,-0.2299914,0.021491608,0.05306297,0.05440994,0.056165412,-0.028964994,0.25342953,-0.0011342368,0.02237741,-0.058551516,-0.095143184,-0.14124042,-0.110921875,-0.07680377,0.017750284,-0.04480458,-0.07055586,0.09850839,0.029782834,-0.0751485,0.05708003,-0.12543969,0.0015530254,0.0852011,-0.025881648,0.26654252,0.047187682,-0.117398456,0.195806,-0.10156376,-0.19283374,-0.09309953,0.14601168,0.05475714,-0.012995536,0.10400192,-0.12705475,0.09106906,0.090436295,0.0663636,0.017079026,0.13219343,-0.17139386,0.12142529,0.05561125,0.121957295,0.06945681,0.06526712,-0.10431308,0.17206064,-0.02308998,0.14218684,-0.17150128,-0.017811881,0.11447858,-0.05201255,0.026206108,-0.20302606,0.16473065,0.044696964,0.02164415,0.056648597,0.05563053,0.04973294,-0.11790889,-0.05894322,0.14536092,-0.2847354,-0.10259051,0.13673967,0.00048859627,0.11960314,0.22024731,0.14159949,0.16229448,-0.10593941,0.0036270604,-0.065640934,0.14722127,-0.04005963,-0.18226036,-0.24188022,-0.044694636,0.07472351,-0.067594714,0.1560274,-0.21153696,-0.14829908,-0.21754494,-0.10618989,-0.2434875,-0.0030189336,-0.13983627,-0.26869166,-0.11386742,-0.18847668,0.09673025,0.04030075,0.067759745,-0.0026031914,-0.015468634,-0.037818342,-0.10949551,0.1428103,-0.0035245037,-0.0066662636,-0.09257443,-0.081717454,-0.04159809,-0.08042042,0.12892403,-0.10337839,0.19156656,0.15851285,-0.10370415,-0.055613585,-0.1446551,0.05544336,0.1448428,0.044954255,-0.048974194,0.02864734,0.17928714,-0.19782302,0.05085518,0.011600459,0.1334688,-0.07269215,-0.061819546,0.14204304,0.027346417,0.026845358,-0.040167745,0.04718195,0.21601091,0.032211415,-0.17145357,-0.14979678,0.107859895,-0.06743302,-0.16543601,-0.23005459,0.12840514,0.021302314,-0.10465996,0.021371353,0.042896584,-0.06284687,0.07152002,0.026301162,-0.11180489,0.13172269,-0.017683558,0.14285658,-0.0694172,0.15640312,0.00041627538,0.32594708,0.11811817,0.012587626,-0.15812992,0.1277581,-0.300117,0.279111,-0.016976595,-0.047411133,-0.025956672,-0.26901215,-0.3560429,-0.17171368,0.028141225,-0.054951526,-0.27941656,-0.096585035,-0.11207512,-0.016473383,0.18692702,-0.11294561,0.06991874,-0.059745673,-0.16249731,-0.069898784,0.064612806,0.054848406,-5.150611e-05,-0.11123718,0.06357008,0.11628161,-0.14689404,0.17293078,-0.04036677,0.26797056,-0.04938628,0.0471676,-0.0024881335,0.019882152,0.16919714,-0.116701014,-0.13104083,-0.05780823,0.12876141,-0.15979683,0.19571623,0.10170356,0.03618434,0.013307736,-0.10848715,0.078708634,-0.076209016,0.067433655,0.11000503,0.034910314,0.24105652,0.1265063,-0.009569139,0.13270861,0.013785532,0.08883466,0.018501915,0.0023596364,-0.006038674,0.106273726,-0.18961652,-0.03820138,-0.15392269,0.049292978,-0.16469485,-0.038583543,-0.071524,0.11193836,-0.040548023,-0.13179699,0.025585575,0.0075096413,-0.038413707,0.05510159,-0.0178239,0.06900617,0.1104506,0.13837367,-0.10971276,-0.30004925,-0.05669228,0.07925689,0.05744851,-0.1307533,-0.2513735,0.19201991,-0.007667798,0.09084815,-0.22961888,0.024163738,0.1163049,0.058240347,0.069892235,-0.025604758,-0.2560544,0.072890915,0.18777376,0.17169914,-0.010119418,-0.13107823,0.016623504,-0.11871151,-0.11123339,0.12352767,0.109559454,-0.088821515,-0.05283848,-0.10840028,0.078574784,-0.093110405,0.16332431,-0.19033329,0.09445137,-0.037019335,0.08023716,0.21719265,0.012090709,0.11118635,-0.11213933,0.06457349,-0.0899888,0.061743036,-0.037387665,-0.18920292,-0.0059792846,0.032444414,0.0142543735,0.15419234,0.059902847,-0.04303732,0.16796213,-0.05519349,-0.14350523,-0.05796537,-0.18322073,0.14093639,-0.008918347,0.08098504,-0.09211503,-0.02820217,0.21298796,-0.09513638,-0.04756187,0.09956436,-0.08376647,0.13028811,-0.15745994,-0.14930227,0.1835004,0.17764015,-0.07973881,0.061729107,0.069710284,0.0604957,0.17209587,-0.33439085,-0.013500034,0.0433715,-0.102038115,-0.1537841,-0.0060583935,-0.36761767,0.010590971,0.12704635,0.055350285,0.14962956,0.13342474,0.18219717,0.04518402,-0.13252495,-0.0019527809,-0.0859584,0.09193502,-0.027397027,-0.059205636,0.045425214,0.033326074,0.004856336,0.105103634,-0.014874999,-0.21341503,0.069225214,0.107322566,0.17456235,0.053177003,-0.28242767,0.032979686,-0.1653658,-0.112602524,-0.07037876,-0.04463918,-0.010462492,-0.12457089,-0.13573161,-0.17610547,-0.16503116,-0.39387715,-0.11588721,0.1355854,0.104619294,0.20314224,-0.1142835,0.07352133,0.19296394,0.1027061,-0.025149956,-0.14399657,0.23229334,-0.11151547,-0.1602651,0.1947025,0.2742002,-0.023943005,-0.005566808,0.08867637,-0.05347948,-0.0710075,-0.3891427,-0.06837767,-0.23529945,0.05479253,0.1372907,-0.08923572,0.13527781,-0.15700756,0.19455701,-0.34729677,0.2009824,0.09224717,-0.08583959,0.09200993,-0.1973498,-0.070217244,-0.037740577,-0.10477143,-0.038660683,-0.12162999,0.1930703,-0.0064495374,-0.30603418,0.13724643,0.055991586,0.12852244,-0.14115494,0.045185246,0.3403564,0.28998688,0.3959602,0.016329166,-0.24237415,0.22213598,0.02779487,-0.017642226,-0.13166861,-0.19790883,0.098415434,0.01564807,0.013754148,0.020414319,-0.13728394,-0.21665369,-0.3592175,-0.06134696,-0.008639381,0.264424,0.077560335,0.13482985,-0.27560598,0.15315133,0.008104987,0.050603453,0.004598914,-0.1779743,0.11259512,-0.00968331,0.0742078,-0.106913485,-0.20949943,-0.04754202,0.05900397,0.060662992,0.12995568,-0.1673025,-0.095860645,-0.19077882,0.17374979,0.18623994,-0.11259721,0.006129813,-0.09129523,0.02011768,-0.14905535,-0.2944249,-0.010648005,0.127448,0.12556644,-0.057711747,-0.1286334,0.12740725,0.23690304,-0.23273142,-0.13337427,0.14787875,-0.15582635,0.10012334,-0.087113224,-0.25467455,-0.046296287,0.06785556,0.17287494,0.049028955,-0.0022611765,-0.0647074,0.09175485,-0.11782057,0.16775148,0.09338982,0.15690921,-0.111092985,0.00031862763,-0.09488111,0.0075523006,0.03465785,0.0074495277,-0.051320158,-0.09958083,-0.0045769927,-0.16974068,0.10537474,-0.08776615,0.16129833,-0.06350073,0.037820943,0.039609794,-0.0613125,-0.046641946,0.1223932,0.0122774,0.06569812,0.09515539,-0.018848117,-0.02754,0.0019457882,-0.09009057,-0.013128279,-0.02222798,-0.008352483,0.022033853,0.0174333,-0.0491716,-0.02095507,-0.04021971,-0.03499768,-0.025624547,0.009863524,0.033318184,0.08343582,0.11949374,-0.10371418,-0.15281859,0.0847817,-0.038203362,-0.037974544,-0.31723136,0.08377135,0.053731922,-0.060824472,0.12096787,-0.07600125,0.13933012,0.13713157,-0.14671618,-0.038132574,0.24878588,-0.023241814,0.26160777,0.18877383,-0.117584355,0.116385,-0.11376878,-0.23807971,-0.1633761,-0.084156096,0.1473299,0.043422118,0.03483839,-0.01927634,0.13774122,-0.0922707,0.10627883,-0.11632123,0.089884706,0.03952649,-0.09188531,-0.081877686,0.10477364,0.05616957,0.13317178,-0.15982272,0.054284856,0.08511129,-0.006024705,-0.052530795,-0.120314576,0.14518891,-0.053854108,0.00694002,-0.052182253,0.1456889,-0.14072089,-0.091301754,-0.045098394,0.092147455,0.01411923,-0.051275503,-0.18207356,-0.012776433,-0.1258904,0.0998789,0.011348896,-0.014166172,0.09961724,0.22269647,0.0038008806,-0.042911332,0.05214533,-0.09346731,0.11176172,0.0068473537,0.021803493,-0.15463702,-0.23154995,-0.045507263,-0.09776367,-0.06739082,0.150125,-0.12818009,-0.11040679,-0.13248695,0.01700873,-0.16460457,-0.049135983,-0.08610442,-0.31098357,-0.006649438,-0.20067531,-0.08405432,0.13288397,0.001953741,0.24549913,9.366946e-05,0.03948636,-0.13705237,0.079293974,-0.15206715,-0.06736734,0.0043344414,-0.10537881,0.041545253,0.15088017,-0.017342668,0.005783508,0.18186268,0.20768404,0.040709067,-0.04899243,0.051625628,-0.07006785,-0.10650579,0.037333068,-0.013560096,-0.18645348,0.16607323,-0.060897972,-0.036375716,-0.021358915,0.13666111,0.11307791,-0.27203652,0.1882235,-0.09373208,-0.051935147,-0.09368421,0.16270815,0.19042285,-0.10217933,0.00440377,-0.15023401,0.096292175,-0.03240089,-0.17239174,-0.13793203,0.00021566969,-0.123021424,0.07103643,-0.22261727,-0.10514369,-0.06797036,0.03307305,0.029659728,0.09478872,0.09491655,0.06691889,-0.11403031,0.055306442,0.009077206,0.11864739,0.34161457,0.17020912,-0.116873085,0.04765583,0.21733971,-0.3515221,0.24943763,0.02707713,0.05790602,0.008858418,-0.2635068,-0.3422998,-0.1065684,-0.0024723306,-0.113600634,-0.15531895,-0.15605727,0.0024263815,0.014577753,0.07054415,-0.1431374,0.06895148,-0.14687711,-0.10735573,-0.1001095,0.047899347,0.01845557,0.098005384,-0.1118607,0.05857365,-0.02235679,-0.13346677,0.09465156,0.17026184,0.042878665,-0.0762308,-0.21117488,-0.26191828,0.02367321,0.014661579,-0.0539298,-0.020261765,-0.15053917,0.2217974,-0.007501095,0.22533867,0.060693115,0.023524364,0.0968678,0.10977119,0.1265151,-0.14828987,0.06981992,0.068586834,0.05211952,0.26560134,-0.029274754,0.12973459,0.12134624,-0.034331538,0.07848157,-0.05699697,0.010185117,-0.05331173,0.025129786,-0.1355986,-0.04982072,-0.020285727,-0.12476829,-0.17351751,0.0014210357,0.0070651416,0.15326846,-0.1022398,-0.25569096,0.04607805,-0.1252884,-0.14030524,-0.054792233,0.054830488,-0.042075854,0.11962875,0.2078436,-0.098216064,-0.30524766,-0.10611886,0.09565829,0.084901206,-0.12194007,-0.22103968,0.07160599,0.09582328,-0.12568744,-0.1829365,0.01644462,-0.12857968,0.17391776,0.005563442,-0.04580803,-0.11301634,-0.010781237,0.149389,-0.015536017,0.0697579,0.06911886,-0.103264056,0.07753744,-0.3074382,-0.094939,-0.037273373,0.02338398,-0.06208767,-0.2704807,-0.043964792,-0.20888658,-0.017727867,-0.21395287,0.03263328,0.019453667,-0.005004179,0.23766796,0.022741094,-0.07147976,-0.09378439,-0.083615676,-0.07895044,0.13222308,-0.14913568,-0.24231704,-0.1856434,-0.11471236,-0.085824534,-0.09735763,0.12383287,0.0111611895,-0.030190982,-0.05542651,0.02131605,-0.07897719,-0.04499282,0.11793902,0.017214116,-0.06728179,-0.14548394,-0.0797412,0.044763967,-0.044116583,0.14385462,-0.082056455,-0.04250627,0.046902575,-0.21637388,0.14700116,0.06771396,-0.0039815023,0.09579382,-0.11207909,0.097954854,-0.0024899642,0.023375884,-0.15788656,-0.10512777,0.006959082,-0.08126736,-0.1628255,0.13841832,-0.3212595,0.056881737,0.10702703,0.0915842,-0.08760671,0.061593678,0.04866584,0.08882436,-0.06444937,-0.055355772,0.016474903,0.14215867,0.045366194,0.0508075,0.0778291,-0.03248361,0.23813573,0.29484525,0.061762124,-0.07287073,0.14627297,0.22490661,0.27598345,0.030761285,-0.21607289,0.17406969,-0.25424325,-0.36103627,-0.12593158,-0.021491341,0.12049941,0.038026277,-0.051866237,-0.28029898,0.06585073,-0.3241856,-0.0659241,0.057904407,-0.05704262,0.1571794,-0.081021614,0.104509056,0.14231166,-0.082000345,0.086073585,0.023081452,0.038563743,0.08907322,0.051305424,0.15509231,-0.013833042,-0.0137947,-0.08055993,0.064769685,0.13592082,-0.080475874,-0.20703265,0.018091692,-0.12457395,-0.042435404,0.03522958,-0.28379646,0.067026384,-0.13658404,0.08986615,-0.494477,0.24681692,0.08170825,0.015247603,-0.034456544,0.022391582,-0.040631104,-0.111385524,0.10919541,0.10612995,-0.046588045,0.11256547,-0.045705464,-0.25761876,-0.17713133,0.048252992,0.19005847,-0.31523567,-0.13174605,0.28750452,0.28040817,-0.05078831,-0.1787979,-0.14403148,0.09692806,0.12559868,-0.17189215,-0.19985293,-0.057396527,0.11567052,-0.075490855,-0.13175969,-0.08838652,0.22474521,-0.24968536,-0.16455877,-0.26710615,-0.24145234,0.1305362,-0.03149199,0.034098122,-0.11373615,0.06849605,0.057172738,-0.12210795,0.034681045,-0.09431103,-0.07073295,0.19887316,0.043884236,-0.009287204,-0.030137537,-0.08857588,0.16586101,-0.14724296,0.115052596,-0.0797593,-0.10355358,-0.08213276,0.20618792,0.18544605,-0.112097315,0.09228499,0.1035478,0.022396281,-0.0111121675,-0.20311299,0.09207908,-0.009218615,0.08035853,-0.06440379,-0.026132807,0.14322819,0.17150621,-0.23097761,-0.26930165,0.08726243,-0.21496055,-0.049246196,0.07062514,-0.31782308,-0.074655585,-0.059419923,-0.015329971,0.118610196,-0.15783738,-0.02918361,0.123662286,0.0019923279,0.17483325,0.14292704,0.21245109,-0.14208747,-0.075624585,-0.22853118,0.06645636,0.11090465,0.13174328,-0.03749706,0.03239809,0.04766302,0.060197428,0.15708509,-0.1219015,-0.022525525,-0.1908991,-0.024597328,-0.07506791,0.09668851,0.017809197,0.07415167,-0.039519317,-0.1635367,-0.074263595,-0.07614107,-0.040780265,0.03255638,0.090031415,0.01654229,-0.17587085,0.024459573,0.06554109,-0.017969359,-0.036161423,-0.28089964,0.020961707,0.049661282,-0.038551576,-0.0027936636,-0.15568134,0.06306305,-0.023440782,-0.15317805,0.13003868,0.10901418,0.051352505,-0.12959091,-0.17061673,0.12144907,0.094008215,-0.08230017,0.026301032,0.073418,-0.07875221,0.028152311,-0.10004907,0.12071648,0.045739774,0.20576198,-0.08888038,-0.022193357,-0.08795625,0.019624434,-0.04703746,-0.18272397,-0.055434037,-0.07621355,0.06192185,0.06849741,0.012352532,-0.120119564,0.0292062,0.118457876,0.05029651,-0.0026655658,-0.04363635,-0.09034538,-0.11514939,-0.054063868,0.1168387,-0.11047704,-0.08301469,-0.15301386,0.097803354,-0.04969046,0.030036699,-0.06263989,-0.108660296,0.15571694,-0.12605534,0.05310417,0.02478526,0.021760743,-0.115337946,0.11907656,-0.05890474,-0.02038718,0.09031562,0.044021733,0.05180719,0.10189641,-0.22942322,-0.076693095,-0.0099518765,0.15846087,0.14233772,0.12901723,-0.10902097,-0.042157337,0.005746652,-0.10821738,-0.0095185125,0.09558204,0.17193948,-0.03473301,-0.21693763,0.078766234,-0.15910612,0.18365763,0.23731953,-0.1456575,-0.013055347,-0.04073731,-0.06865567,-0.19885366,-0.032089435,-0.15227598,-0.17044431,-0.17277479,-0.19102937,-0.055505805,0.04728378,0.065613456,0.13532116,0.18902175,0.025644196,-0.09506777,0.1012926,-0.1187552,-0.0007441312,-0.0056187734,-0.064858675,-0.09071579,-0.10017373,-0.034114,0.0063988217,0.17781931,0.17357826,0.027745992,0.19601618,-0.13145152,-0.17295723,0.07592721,-0.091804825,-0.061967798,0.11494931,-0.09317221,-0.12303712,-0.018198075,0.026051847,0.04536358,-0.099239685,-0.101948105,0.035425913,-0.069622904,-0.11225972,0.032776926,0.03460656,0.21314847,-0.009433629,-0.06819972,-0.08347919,-0.04070752,0.111586496,-0.016901912,-0.14488776,-0.15444495,-0.022279566,-0.022400683,0.015897196,-0.16141859,0.00046280187,-0.05316556,0.13762484,0.057725076,-0.038179148,0.0065369788,-0.091594934,-0.09036377,0.18325695,0.2168588,0.25077724,0.120722495,-0.14496592,-0.10360603,0.16797896,0.0034883341,0.38151777,0.13853228,0.0040745563,-0.08311611,-0.20843326,-0.13418204,-0.07999673,0.024269845,0.11523678,-0.014956672,-0.094325714,0.044837207,0.021216016,0.18171422,-0.08071109,-0.13534436,0.010381203,-0.21067455,0.11465831,0.06958325,0.14496706,0.07122894,-0.09029035,-0.083150536,0.037043285,-0.0085127065,-0.007926321,-0.016047088,0.11797459,-0.09373013,0.010301154,-0.23753391,0.06572845,-0.018390587,-0.08887896,-0.20508629,-0.22576594,0.15997495,-0.064565055,0.06179773,-0.022619072,-0.0070041497,0.06908564,0.055595584,-0.09318234,0.018523594,-0.18167679,-0.077708654,-0.0021466573,0.08254953,-0.069724806,-0.06871324,0.10983481,0.13070215,-0.050794814,0.11324764,-0.10023171,-0.085839614,0.17177954,0.10862485,-0.14506385,0.0017565477,0.00058470125,0.06365161,-0.056402344,-0.031408813,0.24795793,-0.30066025,-0.16707586,-0.14001867,0.06886919,-0.11931413,-0.14451551,0.08305118,0.24054763,0.11702544,0.30372784,-0.16672994,-0.07989592,-0.089027,0.0060998625,0.16381162,-0.10320348,-0.19835337,0.04309728,0.27300477,0.19654788,-0.20801842,-0.042348668,0.078872934,0.072576575,0.16780154,-0.17689548,-0.12670787,0.14228807,-0.078533374,-0.12371389,0.15277754,0.052246682,-0.13616687,0.097890444,-0.18359652,0.019484716,-0.010020063,-0.086175345,-0.15569209,0.039738514,-0.09607889,-0.14102733,-0.11106142,-0.05267489,0.07074673,-0.078409314,-0.07697994,0.1718807,-0.051036656,-0.028456515,-0.17195965,0.11826794,-0.108397104,0.19506556,-0.07073254,-0.20575513,-0.00016580588,-0.26134855,0.06157935,0.054140855,0.14117855,-0.07739412,0.11480253,-0.121276096,0.0146970805,-0.07836821,0.025959013,-0.062299117,-0.0557767,0.024964226,-0.1845411,0.08321334,0.13546813,0.12365902,0.18116757,0.025609756,-0.09524545,0.13485953,-0.06987248,-0.08443167,-0.054017663,0.062037818,-0.05237611,-0.031976584,-0.036799956,0.0851525,-0.02798769,-0.068113714,-0.09773475,-0.0050438987,-0.030710688,-0.08583788,0.19696282,-0.19280937,-0.012180562,0.1204022,0.031088784,0.09729855,-0.06422683,0.108113065,0.059587646,0.035268087,0.0820098,-0.012445663,-0.00026653503,-0.04245268,-0.0059225326,-0.08427448,-0.010827312,0.08427894,0.107776955,-0.058902517,-0.14756094,0.25803646,0.10130253,0.2846297,0.014339009,-0.25657076,0.059941396,-0.2781995,-0.28836402,-0.17147821,-0.088274226,-0.025075343,0.12965041,-0.15976647,-0.058223117,-0.090489075,-0.30649784,-0.082890056,0.07112845,0.029886812,0.03438475,0.03453444,0.19045554,0.19407132,-0.015265904,-0.024326812,0.028281193,0.18390158,-0.027231751,-0.072915494,0.21551023,-0.07924252,-0.07568017,-0.120568246,-0.036482804,0.01311411,0.009767812,-0.33233017,0.117739506,-0.16198936,-0.12948705,-0.022521475,-0.24665062,0.19310118,-0.00919483,0.024266783,-0.2210641,0.13155021,-0.06586852,-0.039509162,-0.02211324,-0.032572873,-0.036198888,-0.038290773,-0.04365601,0.16125236,-0.14208396,0.009570139,-0.24514602,-0.2444283,-0.055996627,0.019718377,0.299706,-0.37574196,0.038730767,0.37512746,0.38469657,0.26673797,-0.12476507,-0.22093827,0.04992228,0.076707065,-0.01037948,0.028345061,-0.02433305,-0.15245028,-0.08329365,-0.11271996,0.08185248,0.22808762,-0.28552568,-0.18667582,-0.17878217,-0.10117069,0.24200952,-0.104252145,0.121335976,-0.20582728,0.14807403,-0.12953877,0.10446542,-0.09544432,-0.15522383,-0.09315565,0.19066486,-0.03757931,-0.1792475,-0.15144472,-0.007541621,-0.09957881,-0.15045482,-0.052016843,-0.1396117,-0.17846414,-0.13778563,0.22964968,0.13009441,-0.23287831,0.00776948,0.068919316,-0.044709068,0.06338617,-0.023958309,-0.054235764,0.12078061,0.031449296,-0.1827019,-0.0069860914,0.12474303,-0.011888842,-0.20939638,-0.16326995,0.14454758,-0.06749721,0.06295401,-0.057901334,-0.15282443,0.07356998,0.11440079,0.04209462,0.077597104,0.03833363,0.027028961,0.050626904,0.04760405,0.19896148,0.20167078,0.0010817044,0.0643019,-0.12078792,-0.14231959,0.105781086,0.073497735,-0.06303005,-0.1049224,-0.07392894,0.049038917,-0.050725114,0.0342905,-0.09224363,0.11473086,0.031650033,0.06095207,-0.031675067,0.1058262,0.13512993,-0.057134897,0.18352482,-0.024834719,0.03238158,-0.02133275,0.08257674,-0.0682327,-0.05492971,-0.010147098,-0.13180883,0.043823723,-0.010544158,-0.022908846,-0.17215647,-0.28092328,0.14420252,0.14613369,-0.021726586,0.02547766,-0.038414747,0.11833796,0.054435086,0.06640101,0.05398963,-0.031394582,0.04736159,-0.03007251,0.024014719,0.086299405,0.050741117,-0.10649598,0.14748468,0.15891057,0.044651687,0.044194218,-0.2006659,0.04051971,0.28152236,0.087153114,-0.12437655,0.05825987,-0.088776655,0.031871077,-0.01949047,-0.11182683,-0.13967521,0.074235864,0.0916411,0.019199714,0.03326752,-0.04886316,0.059553027,0.1770531,0.026662145,-0.00258549,0.09013625,0.06832884,-0.035749126,0.08902954,0.060908873,-0.075800985,-0.083349474,-0.17571434,0.02631424,0.01913751,0.20343974,-0.123749614,-0.07660016,-0.03211237,-0.090144694,0.07534462,0.12040199,0.14786272,0.085265405,-0.02900552,0.08548625,-0.03628143,0.10567699,-0.016495107,-0.0027840142,-0.045149636,-0.059139065,-0.031240135,-0.13717186,0.1732489,0.15259334,0.09217119,-0.101520054,-0.10418022,0.011139277,0.13158198,0.037415802,0.030910986,0.11364225,-0.09071338,-0.14948928,-0.03292583,-0.09279757,-0.090299845,0.03760149,-0.12094064,-0.095008425,-0.20459808,0.16972946,-0.15333885,0.08333108,0.06563134,-0.20866932,-0.16981661,-0.11297542,0.06541861,0.11595494,0.10472434,0.23120937,0.028646287,0.09296932,-0.03424374,0.16490938,-0.20941837,-0.032806706,0.008100108,0.012590302,-0.08026121,-0.10805963,-0.009122744,-0.029712502,0.0017342411,-0.030524625,-0.096729346,-0.0055830274,-0.051442016,-0.16155134,-0.09299126,0.023229996,0.04917205,-0.038564015,0.14943017,-0.14122058,0.011497931,-0.055873707,0.009686927,-0.07623735,-0.09850116,0.13658786,0.06887874,0.006222418,-0.12675454,-0.0745074,-0.04902921,-0.097274356,0.019517537,0.021797147,-0.031420298,-0.13348608,-0.026702682,-0.16708012,-0.18477929,0.032097306,-0.0036129984,0.07258476,-0.14534453,-0.3434901,-0.09658306,0.1540797,0.08933864,0.16754223,0.11700037,0.0010709913,0.0034867818,0.028481686,0.052793376,0.35145938,0.023312744,-0.018211734,-0.04920679,-0.0051115463,0.12983942,0.26139832,-0.015249286,0.04281133,-0.12999742,0.049289476,-0.24077989,-0.14767598,-0.0525067,-0.12988871,-0.095614694,-0.21590355,0.011757821,-0.014245376,0.20674406,0.06546815,-0.08945672,-0.02046713,-0.2586419,0.13797048,0.051599782,0.08018714,0.107478455,-0.068133384,0.031777352,0.08875013,0.002451319,0.11665759,0.082683876,0.16854359,0.09986357,-0.14219062,0.01969824,-0.13311505,0.07017471,0.039739657,-0.04092987,-0.17132309,0.08118394,-0.075737976,0.016497044,-0.020841982,-0.06606382,-0.06919313,0.11763901,0.14228031,0.124225795,-0.14037378,-0.10485182,-0.29672295,0.023361262,-0.068530515,-0.037007436,0.009375647,-0.04267002,-0.126604,-0.056246657,-9.577877e-05,-0.06654359,0.25977916,0.027298197,-0.09369325,0.13274117,0.17316154,-0.040967546,0.019967597,-0.05570449,0.1529699,-0.30949688,-0.25236785,-0.089136824,0.0027010448,0.044285588,-0.113344066,0.07116802,0.1441672,0.12393009,0.1631299,0.05987266,-0.21089695,0.010491966,0.104014054,0.3002776,-0.0062370133,-0.2315557,-0.013054097,0.1953318,-0.14503431,-0.019095602,-0.14431101,-0.013515565,0.15820676,0.12647444,-0.17065075,-0.11025369,-0.020885468,0.08821799,0.029753074,0.2178943,-0.07984926,-0.1569624,-0.109606884,-0.32387474,-0.06961544,-0.020757489,0.04002382,-0.05122699,0.020898392,-0.02102306,0.020973796,-0.0756271,-0.17713147,0.03497332,-0.0032368475,-0.10158738,-0.061642326,0.062264923,0.069280125,-0.19571967,-0.043169297,-0.0987934,0.17022753,0.082978494,-0.063807815,-0.22823231,-0.26849625,-0.015779259,0.015400083,0.17005034,-0.027193286,0.19830139,0.09164386,0.04965887,0.11497948,-0.20228049,-0.12421085,-0.16592339,-0.06853535,-0.17851022,-0.16374028,0.13738595,-0.09314814,0.0036192704,-0.061564144,0.13418846,0.11068303,0.029435936,-0.063610435,0.053841807,0.06614996,-0.06927435,0.052254163,-0.038662944,-0.0010775819,0.07003222,-0.13924688,-0.04323808,-0.069185995,0.054430097,-0.038049422,-0.0019992702,-0.1015655,0.12247216,0.00124476,-0.024078228,0.10635474,-0.090107195,-0.12470023,-0.08765334,0.011031746,-0.124063075,-0.15065877,0.03597791,-0.010918091,0.10980182,0.02075455,0.046030186,0.29622173,0.2018156,-0.0042174393,-0.26164025,0.21872619,0.08023589,-0.025754228,-0.046694957,-0.09346229,0.06708699,-0.40662497,-0.1872346,-0.17087698,0.028896403,-0.05652004,0.09796149,-0.14027317,-0.16164005,0.0052501312,-0.0956801,-0.108125955,0.010946274,0.07318729,-0.08228115,-0.12941334,0.053776793,-0.0134807695,0.09503748,-0.13654009,-0.051856425,0.17510535,-0.12770805,-0.061774902,0.27010506,-0.13036118,-0.22106385,0.15594816,0.08840057,-0.046685126,0.15749474,-0.25210455,0.08442316,-0.16572963,-0.15556367,0.04842937,-0.1543131,0.07226445,-0.15193221,0.016278487,-0.21685086,0.08391353,0.014473079,-0.033435218,-0.09578105,-0.12077583,-0.15172775,-0.11937698,0.12455008,0.18921685,-0.14139318,0.09981685,-0.27621228,-0.28753364,0.05472988,0.08456729,0.055979162,-0.116402686,-0.13525562,0.25757185,0.29856643,0.21883483,-0.021553168,0.0033988785,0.09201306,0.15046111,-0.20515513,0.0023730525,-0.1689991,0.012695066,-0.14701259,-0.09322089,-0.14765297,0.19502966,-0.16645561,-0.16734298,-0.24929754,-0.10160708,0.0650406,-0.016580382,-0.107899465,0.07295905,0.1210367,-0.1446532,-0.045791,0.055295818,-0.17415999,-0.08854634,0.17413257,0.03859253,0.00755797,-0.21022673,-0.049580436,0.036488168,-0.2206087,0.05533362,-0.0437273,-0.3047639,-0.07522591,0.042542294,0.035264388,-0.0448841,-0.09677531,0.14237216,-0.04187253,0.027514352,-0.19528809,-0.034666304,-0.03324491,0.17137128,-0.123469114,-0.01799568,0.17557369,0.09009099,-0.26794034,-0.36195567,0.094172575,0.008826045,-0.07307952,0.16569082,-0.23231953,0.09184121,0.036777254,0.19775474,0.08083441,-0.10490065,0.039916534,-0.059779417,0.02787843,0.027153894,0.15550795,0.11220996,0.09762443,-0.07300976,-0.1387153,-0.06875907,0.043584738,-0.117847614,-0.2571458,-0.16612811,0.10838652,0.0025369888,0.0038398164,-0.09353295,0.042360723,-0.17562777,0.12848714,-0.119655006,0.14202453,0.15051344,0.082344785,0.1310838,-0.06858117,0.03554756,-0.18468325,0.011651776,0.13259546,0.017362362,0.12164435,-0.15552776,0.13838248,-0.060031924,0.0908264,-0.008143071,-0.21375468,0.18377914,0.02740499,-0.23771171,-0.01633421,-0.107869364,-0.01967631,-0.007995064,-0.075002134,-0.10779523,0.02405797,-0.11222405,-0.09153845,0.12850264,0.018762313,-0.050444894,-0.07852054,-0.020679219,0.08323015,0.11981552,0.22218382,-0.18166445,0.072826415,0.2247816,-0.059052456,0.18314812,0.12831771,-0.014574238,0.102229714,-0.08299868,-0.12685874,-0.13256419,0.08951377,0.018459562,0.14475726,-0.11486021,-0.068471886,0.004106391,0.11740503,0.01011694,-0.13628575,-0.049716663,0.043175016,-0.006329196,-0.11323907,0.060220394,-0.10878607,-0.12694633,0.06003142