-0.057234105,0.09123456,0.15180491,0.11412287,0.048019234,0.04854884,0.15344614,0.23011503,0.11828388,-0.07743921,0.1426736,-0.11751012,-0.004474246,-0.17603649,-0.22583932,-0.08171113,-0.12004466,0.255413,0.039421815,0.19369425,-0.1403471,-0.015286687,-0.04122923,0.26669776,-0.20848614,-0.112897076,0.020988602,-0.29570228,0.19438565,0.041739378,-0.23007846,0.035703655,0.4088789,0.1844879,0.12370044,-0.16578966,-0.11504219,-0.035779722,0.31139407,-0.33252308,-0.24167037,-0.23589121,0.168761,-0.3675956,-0.4102334,-0.026815252,-0.27371168,-0.072731785,-0.1869858,-0.014905346,-0.124339804,-0.35648993,-0.058259066,-0.21029252,0.36493403,-0.024771733,-0.19912109,0.04465381,-0.0045320746,-0.02178583,0.04207204,0.20686811,-0.12739268,-0.070978165,0.2821496,0.24800098,0.2941726,0.03413045,0.15433754,-0.2280385,-0.14835185,0.22258444,-0.07274587,-0.13434102,0.061011273,0.08102596,-0.19227396,0.14688508,0.038491454,0.007110775,-0.033137314,0.24848469,0.058570307,0.08227396,-0.12071846,-0.23030499,0.055448245,-0.15549244,-0.3910724,-0.11273101,0.044481974,-0.120392166,0.10204038,0.42869064,-0.36621395,-0.14589372,-0.25997037,-0.076089665,0.16468945,-0.14247786,0.17225403,-0.015239071,-0.23728834,-0.09284751,0.16780111,-0.18239297,0.08506444,-0.08102393,-0.17006268,-0.094005,0.22982341,0.047191102,-0.15403084,-0.077700086,0.07242612,0.18921237,-0.26329863,0.04466164,-0.037152093,0.15111667,-0.27342367,-0.036940936,0.22112806,0.054441676,-0.12702608,-0.02271132,-0.0028250287,0.21189313,-0.2811194,0.014340266,-0.24119623,-0.042869866,-0.033109024,0.11291113,0.010423905,0.19994153,0.22850777,-0.19366491,0.10295794,-0.15407912,-0.10127781,0.10624659,-0.32490814,-0.012519401,0.03673694,-0.09377959,-0.07486093,0.035562187,0.024528932,0.08102911,0.15809785,0.28500494,0.10650122,0.15890896,-0.12096312,0.09164446,0.008618467,0.027226182,0.0151453,0.05544358,0.03747955,-0.009789249,0.2122202,0.10627045,0.040312603,0.15691283,-0.13820498,0.08012056,0.10918079,-0.0673972,-0.058630735,0.13494876,0.014271247,-0.020336932,0.1221866,0.11611722,0.2072307,0.009908131,0.025908489,0.24728818,-0.031227687,0.062092572,-0.069633625,0.05867306,-0.46221316,-0.035838284,0.028913265,0.012619612,0.15459451,0.000720948,0.05558553,-0.024934318,0.07354993,0.03936318,0.010428256,0.072038665,0.021090947,0.23843159,0.13111344,0.112563506,-0.13991827,-0.22631897,-0.0402206,0.0917759,0.1094317,0.13714884,0.12293606,-0.0048251995,0.15891483,-0.14864801,0.12529455,-0.09917389,0.04928618,0.060541317,0.050532088,-0.07919387,-0.29365018,-0.23466778,0.013250427,-0.5412759,0.19793583,0.06307433,0.22935882,-0.022386529,0.031805445,0.021518726,-0.4144228,0.17459172,0.17074502,0.090435535,-0.16734944,0.06019953,0.010962019,0.026391583,-0.027407115,0.053182974,-0.1058049,0.08040744,0.09103367,0.15120004,0.05944107,-0.022162082,-0.2201588,-0.048065,-0.102202065,-0.14858592,-0.03305735,0.069329016,0.23775128,0.22078763,-0.11075897,-0.005142138,-0.26697773,0.27226126,0.07186741,0.01717929,-0.027263036,0.10303343,-0.08843139,-0.15186952,0.039428536,-0.34419125,-0.2969262,0.25897348,0.15076828,0.007911649,0.1612595,-0.08166691,0.20487562,-0.29158503,0.15808342,0.14981513,-0.22382234,0.11129113,-0.16441725,0.09505029,0.036144655,-0.06600234,0.034009226,0.16178355,0.10128183,-0.24931559,0.07570282,-0.015877232,-0.16102037,-0.012047388,-0.026778761,0.16664249,0.11538262,0.0834638,-0.0014916176,-0.059729986,0.08404248,0.13952895,0.18041816,-0.16492097,0.013443797,0.16579066,0.06317157,0.26614043,0.1540402,0.06951079,0.07108721,0.10930623,0.15009752,-0.022717837,-0.0011358806,0.14700024,0.03460365,0.2873242,0.010565363,-0.12490942,-0.09233241,0.020591434,-0.015343395,-0.08590245,-0.12031842,0.0010654189,0.15442161,-0.0627215,0.04542631,-0.013783952,-0.14758843,-0.2919409,-0.05132533,0.28409165,-0.07458376,-0.028882518,0.26747677,-0.07348144,-0.07104355,0.1346757,0.44482395,-0.0038143515,0.15646963,0.121530786,0.16190006,-0.3061625,0.06698387,0.040845037,0.08546841,-0.108235106,-0.27117524,0.06927762,-0.021127636,-0.178981,-0.025015883,0.12130627,-0.3155121,-0.1646157,0.1255358,-0.19579457,0.16211285,-0.054321546,0.0052019,-0.28032342,-0.27240753,-0.2963445,-0.010903588,-0.5010457,0.17595455,-0.11509516,0.008218958,0.103930235,-0.2108174,-0.08857633,0.03525877,0.048885077,-0.31098822,0.03646978,-0.07352852,-0.08379546,-0.20130233,-0.090844765,-0.16228029,0.12311828,0.26558736,0.06914902,0.066583335,0.044505645,0.13954824,0.145893,-0.15412033,-0.09217172,-0.039572336,0.12503964,0.27808845,-0.009887323,-0.041319996,-0.04033228,-0.3012761,0.15121591,0.11058766,0.05602896,0.085401975,0.06992259,-0.03458475,-0.0124730645,0.012928586,0.06398923,0.13684557,0.11548557,0.03932258,0.1765408,-0.06360286,-0.0633649,-0.03894109,-0.09411434,-0.40184727,-0.03141766,0.32629505,-0.5048877,0.32483268,0.12047314,-0.37097937,-0.050373964,0.12649094,0.15378703,0.010903711,0.08950567,-0.3163921,-0.4455801,-0.041653432,-0.049209934,0.0037010615,-0.04451528,0.14066905,-0.19208094,-0.29362935,-0.18921667,-0.18395017,-0.047867898,-0.46720552,0.4664125,-0.31474054,-0.052379686,-0.26660678,-0.10373305,0.08629574,-0.05488579,-0.08167049,-0.071570404,-0.0565221,0.02214065,0.1826222,0.13351423,-0.6450434,0.04919925,-0.010312317,-0.1401998,-0.012038965,-0.11562568,-0.22551893,-0.032343935,-0.13237272,0.12142574,0.34673974,0.15153944,-0.11410184,-0.1478105,0.16229552,-0.0529846,0.118256606,0.15780623,-0.17652875,0.06867082,-0.11174657,0.08452716,0.13507836,-0.112118445,0.17600216,-0.052833766,0.14443305,-0.1178566,-0.0418987,-0.0232222,-0.018912142,0.24712934,-0.24541931,-0.02769024,0.20132774,-0.20714027,-0.3181992,-0.07599493,0.07349501,0.21037742,-0.10547908,0.08914017,-0.044876687,-0.09542869,0.12629627,-0.12069128,-0.27132344,0.056583956,-0.064893715,-0.10124304,0.12351613,-0.11934165,-0.04732325,0.013138753,-0.083855644,-0.20685911,-0.004480709,0.13512345,0.123601794,0.21884467,-0.28556457,0.1634388,-0.1883444,0.2682518,0.19817625,0.0012017481,-0.39912212,0.22973421,0.059115484,0.2079863,0.13286403,0.06198278,0.20379081,0.19082549,0.07487694,0.14121802,0.16540155,0.1066025,0.01828977,0.042899586,-0.38731954,-0.10790577,-0.022501323,0.15684177,0.10774262,0.31050012,-0.099654935,-0.03748633,0.086282276,0.2306323,-0.25811782,-0.036225863,0.04893222,-0.21441516,0.1781261,-0.14520842,-0.09502849,0.057266217,0.32734123,0.05452242,0.18982604,-0.06416372,-0.33254418,-0.12044938,0.28603807,-0.06753945,-0.36291862,-0.23034716,-0.11304061,-0.2018032,-0.0057567023,0.08704973,-0.1779417,-0.14886814,-0.2926433,0.041824017,-0.15035239,-0.07504942,-0.16742049,-0.02722125,0.20060815,-0.292051,-0.10230653,0.02451494,0.1874657,-0.19558296,0.07280981,0.10587594,-0.037051447,-0.19275056,0.3408254,0.122008555,0.10964176,0.23470485,0.07493793,0.022369135,0.2197926,0.2393821,-0.16344516,0.14452024,-0.25452358,-0.01825575,0.015028192,0.050857585,0.0541222,-0.011710943,-0.05079842,0.18927364,0.13795029,0.11524604,-0.05810862,-0.18744275,0.24270888,-0.39149323,-0.31270483,0.085501604,0.013611038,-0.36127433,0.0057654716,0.33885854,-0.23811677,0.00062386994,-0.05478843,0.06486568,0.14504638,-0.07285629,0.019263072,-0.075108536,-0.0038138852,-0.07666303,0.23199615,-0.06502528,0.16889295,-0.079413764,-0.099769816,-0.16272502,0.077697255,-0.06343877,-0.120323636,-0.00589606,0.042518396,-0.07543638,-0.040270206,0.0853745,0.020048557,0.17780462,-0.22437477,-0.15495583,0.10482026,0.0847944,-0.13965221,-0.038212173,0.030603047,0.0845144,-0.39346507,-0.034010813,-0.33076084,-0.020234978,-0.13661893,0.116008505,0.07689034,0.108583085,0.1118898,-0.113970175,-0.06437874,0.010918206,0.0917973,0.12095608,-0.082850754,-0.24815992,0.008591394,0.069370896,-0.0023711713,0.20051524,0.053445537,0.21845494,-0.033994064,0.24205829,0.022994671,0.05954258,-0.087136,-0.016165787,-0.02980863,0.032542206,0.055131953,0.07696408,-0.041279808,-0.016726801,0.061985888,0.04627024,-0.0796913,0.21949473,0.07918361,-0.051372472,0.10243933,0.040830754,-0.13019708,0.131568,0.006054981,-0.050154172,-0.01843722,0.06066887,0.15340175,0.055670273,0.17195556,0.03608899,-0.049975444,0.18350196,0.11733774,0.115430556,-0.32510626,0.027823577,0.14972268,0.016506271,0.14409702,-0.038770173,0.0884298,-0.08565878,0.13608041,-0.19443214,-0.07833731,-0.093603365,0.23325463,-0.06495479,0.15886132,0.070326716,-0.15418763,-0.10003402,-0.05896659,0.062796764,-0.16521512,-0.100380234,-0.15181541,-0.030486967,-0.07430484,-0.053124823,-0.031812564,-0.03439873,0.2111535,0.055744838,0.056921724,-0.21127222,-0.22124185,-0.19364615,-0.107111305,-0.49877858,0.19004618,0.08853455,-0.043515462,-0.04795954,-0.035271406,0.111887686,-0.016348846,0.06689813,0.06665089,-0.09983158,-0.020940425,-0.06725725,-0.12257002,-0.15439917,-0.05995039,-0.028955586,0.09353207,0.052580114,0.022425486,-0.04148382,0.0057399217,0.22714983,-0.05940219,-0.047570188,-0.04261757,-0.26438913,-0.15359218,-0.0016710997,0.24199337,0.1529542,0.09161459,0.06799869,-0.009839668,0.32344475,0.013122653,0.078817874,-0.06058467,0.0149885025,0.08046788,-0.010210718,-0.14102428,-0.17044213,-0.09293205,0.22106989,0.06138067,0.005106258,-0.11794017,0.04486713,0.13508084,-0.0869849,-0.0007223736,0.23612817,0.0028451604,-0.056805443,-0.067201324,-0.10994486,-0.10355256,-0.1826902,0.09858684,0.12171793,0.027576046,-0.30284408,0.12089584,0.10721041,-0.16763428,-0.12509812,0.13982,0.061130606,0.12556565,0.13940525,0.021173527,-0.14143889,0.31805444,0.05829231,0.20869589,-0.03428222,-0.12804578,0.10911303,0.079560615,0.16014946,0.15381955,-0.098997176,0.20305195,-0.06231298,0.05141578,0.18803772,0.068786226,0.15897775,0.09819409,0.038600203,0.0009202719,0.11626446,0.09401058,-0.04056662,0.04997277,-0.30946594,0.050885465,0.21164414,-0.103660844,-0.0070611564,0.06661427,-0.073482886,-0.067769766,-0.49521014,-0.15755028,0.25999868,-0.030275386,-0.10908915,0.108635396,-0.07845998,0.020856207,0.048389737,0.36899877,0.13746025,0.20953788,0.18333471,0.14610937,-0.4877019,-0.023624461,0.105917804,0.005983475,-0.09869249,-0.29995823,-0.08285932,0.027964327,-0.23409453,0.03969747,0.18546347,-0.38425082,-0.12334799,0.09913468,-0.048259746,0.23778526,0.05515509,0.041117437,-0.30722582,-0.25024262,-0.14221652,-0.14857842,-0.23333856,0.13185118,-0.086677715,0.17965995,0.027806656,-0.35527766,-0.1647459,-0.07765743,0.26542896,-0.050342016,0.16919316,0.018504215,0.015986666,-0.07921721,-0.051484335,-0.11684258,0.1641573,0.23076133,0.07593788,0.12554558,-0.037055753,0.13383372,0.037529055,-0.094437875,-0.3054789,0.00223524,0.10891458,0.07125754,-0.06210918,-0.1224874,-0.0028017822,-0.04358675,0.090402886,0.11692507,-0.046450537,-0.059172202,-0.00767311,0.06497599,-0.12786585,0.09613447,-0.044883206,0.26661232,-0.02083379,0.03726286,0.11121771,-0.0525631,-0.0014885999,0.027397094,-0.11805334,-0.19616616,-0.08172535,0.20407385,-0.34989196,0.15866315,-0.051050708,-0.037308745,-0.02788325,-0.12591088,-0.11999849,-0.013255348,0.17988543,-0.14105201,-0.18804061,-0.05607441,0.11454247,-0.042563077,-0.028246608,0.07630469,-0.25421962,-0.32404873,-0.20293018,-0.26750886,-0.0045702728,-0.28593323,0.2885631,-0.14826985,0.094062865,-0.020925157,-0.19341697,0.16234688,-0.015350818,-0.05683959,-0.03160654,-0.11060868,-0.35689044,0.20393912,0.21050367,-0.33052945,-0.124248765,0.14580747,-0.20367499,-0.037599966,-0.12417675,-0.28807056,-0.05948511,-0.1251376,0.041447822,0.048982367,0.037334204,0.07887186,-0.17305872,0.012579837,0.1594204,0.011026983,-0.039206564,-0.11174095,-0.0381637,0.0016118839,0.032045472,0.045705196,-0.13128984,0.19987299,-0.120836675,-0.06472047,-0.31397918,-0.10200269,0.10116204,0.11387814,0.10505473,-0.26060295,-0.22854231,0.08445769,0.04854869,-0.32869446,-0.008580627,0.034938388,0.043247942,-0.038224958,-0.11732915,0.043483194,-0.13869645,0.07725804,-0.05561396,-0.027790228,-0.10264817,-0.07483348,0.027750423,0.07477228,-0.08799785,-0.051340807,0.038947076,0.022222223,-0.07582558,0.19137098,-0.0694888,-0.054112058,0.100995325,-0.1320721,0.043447576,-0.077743486,0.14618929,0.023751052,-0.08920156,-0.25090456,0.15384239,0.08158457,0.20990552,0.077326536,0.054008972,0.14628194,-0.008047212,0.09808831,-0.053984478,0.09459722,0.12411771,0.13120085,0.0017688405,-0.048912942,-0.15076452,-0.18087925,-0.072023384,0.02982568,0.35610136,-0.10623773,-0.1243196,0.062091034,0.2244534,-0.12839994,-0.23498207,-0.008357981,-0.11934078,0.030396635,-0.32081547,0.0020458135,0.07130768,0.24057367,-0.0033758082,0.12045091,-0.1003315,-0.052609574,-0.18774138,0.29198545,-0.06581691,-0.29259488,-0.11420746,0.2143113,-0.32089585,-0.010660948,0.112466976,-0.2169673,-0.107528195,-0.2676969,-0.05525996,-0.006061082,-0.028634528,0.09578642,0.019620383,0.31271648,0.16737938,-0.23583473,-0.09243139,-0.00512281,-0.31103835,0.14006692,0.10931749,-0.10622618,-0.15352105,0.18379462,-0.0053089242,0.028439831,0.2998161,0.19749746,-0.09796028,-0.09177316,0.3153983,-0.10290881,0.15652108,0.15710731,-0.06509019,0.02536623,0.0648251,-0.028608965,-0.042370275,-0.14733423,0.099359326,-0.084879085,-0.113048114,0.09411593,-0.3022028,0.2138113,-0.46960235,-0.4528664,-0.049659412,-0.335688,-0.24990873,0.046659466,0.19830249,-0.18984117,-0.2684336,-0.034138747,0.018870365,-0.068027034,-0.046015356,-0.09092309,-0.11329467,-0.009014221,-0.13652006,0.03553697,-0.21338324,-0.11924514,0.04373171,-0.18683426,-0.13081542,0.13605365,0.105150804,-0.044233564,-0.18862477,0.08891319,0.07841484,-0.25286,0.07148553,0.11661439,0.13745742,-0.029102443,-0.22428659,-0.031694464,-0.05447987,-0.12693079,7.4726704e-05,0.21248025,0.11046451,-0.4853853,-0.2685866,-0.28996554,-0.05940406,-0.020699352,0.15828528,0.14808957,0.049832396,-0.035886694,0.0085217785,-0.06932003,-0.071749814,-0.018353619,0.15016668,-0.34586728,-0.111344196,0.060631312,-0.1517802,0.041514613,0.17756353,-0.04270914,0.09076316,-0.03747935,0.122029915,0.06565415,0.023944452,-0.07594045,-0.020720238,0.09931401,-0.1833913,0.028895035,0.025966888,-0.0969799,0.082439326,-0.018806342,0.021839445,0.08604403,0.026401361,-0.11058353,-0.2234071,0.17170359,-0.045761753,0.14181612,0.04051198,-0.05734634,-0.016596353,-0.1972173,0.023873642,0.10117841,0.1325745,0.082536444,-0.002409869,-0.13555422,0.112556264,0.049848165,-0.028176012,-0.27256933,-0.0073490418,0.171965,-0.12911953,0.043928143,-0.08571585,0.036207683,-0.045400955,0.0341486,-0.008945822,-0.13630009,0.0038280394,-0.019685267,-0.12492426,-0.11361554,0.12349406,-0.25698403,-0.26262906,-0.26188004,0.098984465,-0.10090516,-0.006292894,0.004701537,0.0046912795,-0.088168345,0.050355066,-0.060610503,0.019646673,0.14411141,-0.032072086,0.008363053,0.105900586,-0.23979498,-0.26051897,-0.082529,-0.54785407,0.18690214,0.17583928,0.07373577,-0.008512876,-0.059140217,0.046071563,-0.19175966,0.010946616,-0.006302412,0.058698315,-0.018257262,0.00037660953,-0.102333926,0.08347568,0.09973043,-0.13180692,0.04980988,0.0072732023,-0.071525335,-0.13972484,0.16616306,0.19346836,-0.20897968,-0.30576885,-0.053756308,-0.017980525,-0.11398256,-0.08951243,0.24197358,0.16161314,0.007629919,0.17802861,0.021965725,0.049098242,-0.071856186,0.02457149,-0.06391569,0.061187945,0.046642598,0.105501235,0.07580061,-0.2842877,-0.024345519,0.15469083,0.13581564,-0.067823514,-0.20480093,0.011475719,-0.15597017,-0.17913318,0.09128029,0.20034195,0.0977794,-0.23466532,0.0271945,0.11175377,0.0698075,-0.16782272,0.044212535,0.051225573,0.078176074,-0.31194156,0.10233861,-0.0056482623,-0.2870287,0.010616647,0.2677208,0.15055124,0.05601959,0.16500786,0.07864215,-0.14957488,0.14330736,0.06336423,-0.014106586,-0.2625681,-0.29795206,0.16380048,-0.061295796,0.15890376,0.05961769,-0.02380131,0.08323798,-0.13963597,0.046550706,0.2274938,-0.255706,0.019640684,0.054786768,0.1907615,-0.011176579,0.10131341,0.21821797,-0.10479157,0.08777321,-0.13373423,0.10761239,0.16207589,-0.0944596,-0.093298025,-0.15027395,-0.18522966,-0.10964525,-0.47866547,0.0076925396,0.21357457,-0.0960428,-0.23535693,0.052459482,0.1386987,-0.15259844,0.17972939,0.1479692,-0.03938152,-0.045208648,0.18746261,0.1349214,-0.39291826,0.008209787,0.07860648,-0.036520995,0.021278195,-0.101840585,0.046953674,-0.045760013,-0.07293384,0.1742242,0.060567565,-0.25259617,-0.19440813,-0.12049454,-0.07779791,0.18875773,0.12358046,-0.007383852,-0.2381802,-0.12473199,-0.34013724,-0.06451141,-0.41369572,0.16749863,0.04148141,-0.078697965,0.17689851,-0.2701665,-0.19529662,0.18379058,0.2218937,0.10235241,0.19316019,-0.16613866,-0.034079168,-0.116488054,0.16367148,-0.12737894,0.11266115,0.1223735,-0.1755105,0.1982136,-0.2957353,0.13173907,0.16122039,-0.06683136,-0.26241574,0.0017091699,0.033658043,0.17826416,-0.0047074463,-0.18547393,0.08596851,-0.059690535,-0.056033004,0.0032430366,-0.022588674,-0.038745902,0.084351294,-0.051593795,-0.09467894,0.016814185,-0.09995604,0.21199599,0.0868781,0.13116387,-0.050924875,-0.040837243,0.08645015,-0.15957299,-0.23510994,-0.16223037,-0.25610363,-0.02091556,-0.28955972,-0.008303702,0.058941368,-0.03654686,-0.029474556,0.021020235,0.051990572,0.067685604,0.16825919,0.011515274,-0.053509433,0.09517388,0.15412048,-0.123479776,0.037445575,0.31886622,0.0012037185,-0.38503832,-0.19747116,-0.2633584,0.091897525,-0.059523534,0.24377932,-0.15827926,0.024197046,-0.13846503,-0.16521627,0.0993527,0.048381437,-0.26012653,-0.053376164,-0.034595743,-0.32729763,0.2343973,0.26369506,-0.33831894,0.1374123,-0.07823829,-0.23376429,0.08970702,0.12881511,-0.30090314,-0.067174345,0.043317743,0.10188577,0.18179211,0.021135734,-0.007075291,-0.14359172,0.17186391,0.08367015,0.15068905,-0.019276375,0.14738613,0.010989997,-0.056765158,-0.0700967,-0.0030053728,-0.1783728,-0.024791952,0.013030984,-0.0045805713,-0.38715082,-0.0014736567,-0.18761045,0.21956813,0.12488726,-0.108081415,-0.15192765,-0.17172416,0.0310891,-0.24477652,0.026458468,0.10977263,0.105551936,-0.05245731,-0.114300184,-0.033940624,-0.11562668,0.15806486,-0.051738508,0.05560786,-0.11256808,0.03366248,-0.18178003,-0.13798669,0.05879129,-0.120977096,-0.10405885,0.10964997,0.085590795,0.15055226,-0.10460532,0.17327741,0.12265015,-0.1757513,0.0064267274,0.026210118,0.12471974,0.09415984,0.11187044,-0.48544776,-0.0393916,0.028277656,0.07047502,0.022041425,-0.04518534,0.28596827,0.13112253,0.21821155,0.061793745,0.18012106,-0.0053843926,0.070664875,-0.039510507,-0.0907525,-0.30441463,-0.12315329,-0.07261191,0.07051451,0.21199378,0.00092814653,0.012120237,-0.062013544,0.12870829,-0.19013691,-0.15035422,-0.014982766,-0.35292855,-0.089528844,-0.4055235,0.16409233,0.022229316,0.14128442,-0.067604534,0.03833494,-0.027846439,-0.22178397,-0.13092594,0.044939756,-0.15551688,-0.4061144,-0.14192685,0.19611317,-0.19041437,-0.08441883,0.1766642,-0.1365798,-0.20325176,-0.2868843,-0.074937664,-0.04761907,-0.09113242,0.10020835,-0.12058728,0.2634487,0.2810908,-0.340385,-0.028338294,-0.16955301,-0.4184696,0.25709268,0.017821113,-0.19174373,-0.20324486,-0.0997994,0.0030200272,0.09307176,0.3091109,0.07371278,-0.10074995,0.14214161,0.36428848,-0.3417946,0.2691527,-0.1874632,-0.048180703,0.15245073,0.041437313,0.23911561,-0.275858,0.05812263,-0.021199586,0.08248379,-0.12627688,0.27913123,-0.15914021,0.19056267,-0.031343035,-0.286964,-0.04367322,0.081772886,-0.10459999,0.057366967,0.14422195,-0.06098955,-0.36451548,0.208498,0.10515033,0.1052769,-0.123298585,0.13752674,-0.06398361,0.017297454,-0.03184308,0.15046832,0.07604951,-0.084907725,-0.15953967,0.035530187,-0.015324395,0.07703194,-0.050852943,-0.14782065,-0.06306507,0.06293349,0.040786676,-0.23184352,0.13265085,-0.13379867,-0.14903009,-0.18948999,-0.1346128,-0.11829997,0.11878928,-0.23467052,0.11827982,0.28314066,0.16698033,-0.61342555,-0.37473506,-0.55654335,0.06729807,-0.09532471,-0.055905014,0.07559662,-0.023594791,-0.102293134,-0.065454334,0.16189884,-0.06877492,0.021593532,0.033509444,-0.40232062,-0.040632777,-0.061026596,-0.15364155,0.057956822,0.1640352,0.09127031,-0.01679929,-0.089072004,0.26861575,0.026896482,-0.07324739,-0.41184977,0.070675485,-0.09397299,-0.31055027,-0.074719965,0.06636836,-0.08972175,-0.120523006,0.05263659,-0.06724321,0.068244234,0.22022694,-0.13067767,-0.27510867,0.03511426,-0.27090898,0.022501832,0.15629756,0.13290705,-0.0692412,-0.03722345,0.062390577,-0.010477368,0.0070447084,0.16450779,-0.007795129,0.056077722,-0.004468784,-0.0006671116,0.024498938,-0.46489173,-0.06371476,0.20360518,-0.11729746,0.050914455,-0.21106327,0.09379588,0.025971852,-0.21237993,0.040796738,-0.2426632,0.21528116,0.008684491,-0.05044871,-0.22415178,0.109141044,-0.2282774,-0.0885407,-0.1152906,0.100930244,0.05729921,-0.09138086,0.013423119,-0.15790656,-0.09834435,0.17256172,0.0131814135,-0.08697681,0.040720034,-0.1382702,0.21604821,-0.12111262,-0.091106534,-0.2520051,-0.08728757,-0.37156317,0.15013722,0.03396851,0.090606354,0.043177024,-0.038282182,-0.07293123,-0.071928404,0.021107683,-0.114874505,0.16692175,-0.026563797,-0.014360856,-0.271041,0.07326406,-0.09243797,0.047454286,0.16309416,-0.07308449,-0.13506953,-0.17854504,0.11949009,0.13638492,-0.10859297,-0.12348318,-0.054019205,-0.15424931,0.047695022,0.00039991562,0.060351085,0.20045206,-0.07886857,0.0476368,-0.10807496,-0.07141332,-0.019786863,0.066917,0.16639635,-0.06859313,-0.066760786,0.06862293,-0.08379742,-0.049006443,0.015491544,0.11419682,0.0011265648,-0.018008731,-0.10472692,-0.050143644,-0.15763913,-0.06775236,-0.01999024,0.018060591,0.07829544,-0.06179952,-0.09690318,0.032723922,-0.020216856,-0.009794477,0.109388515,-0.18303034,0.026217423,-0.17912626,0.11214569,-0.101889096,-0.08157847,-0.11346303,0.19216208,0.15544751,-0.0015931188,0.116983004,0.041171234,-0.19636065,0.08275304,0.12303691,-0.012155201,-0.027814059,-0.30054322,0.18484549,0.009077081,-0.079144694,0.10785177,-0.07820616,0.13740778,-0.036714427,0.07128312,0.22568591,-0.34834334,-0.01497933,0.13399917,-0.10352222,-0.16220136,0.119862325,0.11989364,-0.14689411,-0.1161685,-0.06655297,-0.081669845,0.087056875,-0.005404476,-0.34198585,-0.043332245,-0.20600101,-0.08650108,-0.42435828,-0.0723727,0.11159988,0.08399869,-0.043283027,0.13599893,-0.018737838,-0.16184786,0.05260943,0.21478395,-0.10820646,0.067014955,0.14603919,0.19632562,-0.24043569,0.06680798,0.088263094,0.09952778,0.11695833,-0.18758026,-0.13706635,0.0024297822,-0.24855512,0.0055011017,0.048938688,-0.12245047,-0.10671505,-0.06778992,0.059757236,0.12430167,0.08352022,0.13074568,-0.26551095,-0.11094531,-0.100050084,-0.23519711,-0.3824313,0.0434476,0.09964098,-0.16159056,0.00070492167,-0.115648344,-0.041343912,0.06174077,0.14783324,-0.048241016,-0.042237688,-0.15105866,0.014230398,0.0988861,0.18437654,-0.16351554,-0.009077843,0.19318151,-0.23151422,0.16140056,-0.16850983,0.054732155,-0.026150418,0.12849927,-0.16425006,-0.044828977,-0.005406379,-0.012283092,-0.018398006,-0.14678119,0.048378114,-0.017827505,0.025983175,-0.00051637675,0.056165002,-0.14987414,0.016770056,-0.039991967,-0.0044182553,-0.18372683,0.02058316,-0.07914235,0.03883699,0.08311343,-0.14118566,-0.02889653,-0.08428981,-0.14962247,-0.19671609,-0.1472973,-0.03785103,0.05229035,-0.42017457,0.026156813,-0.05886286,-0.040036432,-0.027167888,-0.12861091,-0.0365464,0.032246877,0.16786718,-0.15562594,-0.14006661,0.15161617,0.073795125,-0.12597185,-0.07049369,-0.07297946,-0.023185087,-0.21400493,0.1399899,-0.21961348,0.06640329,-0.08221144,0.2994209,-0.23652212,0.15093967,-0.1318736,-0.07189435,0.05013755,0.164453,0.020315994,0.01195987,-0.17696084,-0.22411886,0.20917727,0.09557294,-0.068201706,0.14729866,-0.035439678,-0.1410122,-0.06148193,0.17973442,-0.054725066,-0.010673424,-0.11054798,0.22486982,0.14173113,0.16841114,-0.044289704,0.02296305,-0.08675596,0.22033213,0.059328288,0.20742272,0.026296247,-0.0052347598,0.045328077,0.10501672,0.19723295,-0.058402214,-0.011075555,-0.034717914,-0.05668394,-0.48342535,-0.07637642,-0.17920388,0.048349056,0.07087302,-0.07081866,-0.059382103,-0.29355362,-0.13246927,-0.48045185,-0.003092968,-0.021881796,0.16437417,0.0035063603,-0.15039036,-0.12792093,-0.14840035,0.17898084,0.13726668,-0.095571116,-0.110118926,-0.044839583,-0.063346244,-0.085388266,0.13461517,0.03348328,0.16269939,-0.006924327,0.007445687,-0.042157978,0.11233262,0.09830902,0.21390533,-0.21567394,0.1370645,-0.12267179,-0.16350897,0.063269354,-0.07350894,-0.253211,0.07349567,-0.015797315,0.0120975785,0.041380826,0.012237145,0.18166837,0.083807126,0.04479415,0.13625862,0.02607312,0.13383695,0.07150421,-0.058709927,0.00892623,-0.21744297,-0.20234978,-0.10407683,0.012521303,0.13554697,0.116632275,0.02120115,-0.020370614,0.36247897,-0.10730072,-0.16901243,0.09782366,-0.3181112,0.004844136,-0.43093482,-0.10905085,0.02698875,-0.11635191,0.09346561,0.0896233,0.12085217,-0.04473177,-0.37007976,0.098036215,0.13768314,-0.2396401,-0.013970309,-0.1496417,-0.19128086,-0.072208636,0.17280462,0.0444262,-0.24565068,-0.18623583,-0.016268332,-0.03360292,-0.13606451,0.20026483,-0.33490884,0.27288955,0.10620899,-0.22679138,-0.13851766,-0.12897912,-0.08286279,0.26514956,0.15205298,0.04563454,-0.27675465,-0.07722025,0.22190703,0.2324764,0.23102273,0.2281598,0.04233932,0.049030785,0.27235788,-0.28562987,0.47007355,-0.09806896,0.054432537,0.21558546,0.26166773,0.09650599,-0.27702993,-0.005249826,0.02317201,-0.25828305,0.00062782783,0.19275421,-0.25255325,0.08668979,-0.232869,-0.31863725,-0.049772702,0.07359975,0.016568715,0.2004385,-0.03840921,-0.2678444,-0.2988504,0.25027213,0.028662302,0.14874417,-0.043085344,0.059799604,-0.04903087,-0.0005042742,-0.061432958,-0.042682856,0.015346816,-0.21734974,-0.06728887,-0.04900741,-0.16717531,0.22254702,-0.14156498,-0.23268141,-0.05626562,0.1616701,0.05908923,-0.070933655,0.09357653,0.009501084,0.052191123,-0.07406805,-0.11162406,0.044166293,-0.02823584,-0.16153154,0.010105152,0.02595069,0.0695522,-0.6970083,-0.288701,-0.4627287,-0.09182108,0.05867926,-0.01610963,0.18286078,-0.13793315,-0.38133392,0.12172195,0.12274014,-0.0034517383,0.04793897,0.22602329,-0.2801575,-0.13839497,-0.13136518,-0.30021635,0.105804175,0.20714332,-0.026158031,0.109486006,-0.110572875,0.1391881,-0.05480864,0.09861931,-0.07967874,0.017306026,0.14768322,-0.4060721,-0.19563687,-0.044432513,-0.19921431,0.026152816,-0.1154849,0.0361815,0.009714583,0.19089781,-0.08109602,-0.13891275,0.22388943,0.0032973555,-0.07764058,0.12085353,0.008047176,0.13832472,0.18805006,-0.17594405,-0.07994338,0.114992134,0.10179054,0.050514147,0.027659494,0.03460504,0.09175648,-0.17398824,-0.53055423,-0.09462661,0.07407863,-0.19228292,0.13800229,-0.2408138,0.082023315,0.16346614,-0.23976217,-0.16450661,-0.22863898,0.09221842,-0.08572668,-0.23242742,-0.23586869,-0.04754074,-0.10088842,-0.17583582,-0.22854878,0.16971323,0.069033585,0.058866877,-0.024902849,-0.092987336,-0.028580084,0.01371673,-0.071441315,0.0017341739,0.17141812,0.10499567,0.15063584,-0.24916963,-0.1510532,-0.17723551,0.010925063,-0.22722712,0.23663813,0.16037418,0.10743628,-0.21398854,-0.026489358,-0.06107491,-0.1600665,0.10578605,-0.18048199,0.061739534,-0.0006646531,0.10528702,-0.40964463,0.114032246,0.11999258,0.029142722,-0.032125827,-0.046610314,-0.35001752,-0.042103283,0.11054974,0.18072245,0.054956138,-0.06962177,0.05850403,-0.040559288,-0.08199721,-0.109846145,0.020958833,0.071016826,-0.08113499,0.16205633,0.030576276,-0.0022271094,0.06033567,0.047683798,0.12848452,0.020179704,0.068653,-0.0069462606,0.060860977,-0.22073081,-0.17833917,0.22535105,-0.17366935,-0.041035462,-0.31554893,0.090030976,0.08283941,0.10634355,-0.07711224,0.010260963,-0.18098156,-0.11946551,-0.0034749142,-0.052671093,0.081791885,0.084628016,-0.11588948,0.10461886,0.13787152,-0.17379218,0.0020827001,-0.029109376,-0.18897738,-0.12951538,0.041328095,0.050534826,-0.15473925,0.21856257,-0.08505501,-0.14541933,0.02014889,0.14875251,0.15783237,-0.11186703,-0.4928588,0.07681958,-0.2183236,0.14633721,0.1728597,0.15810314,0.01936674,0.043358408,0.23466425,0.20591058,-0.22432381,-0.005965182,0.11320379,-0.03247781,0.023458904,-0.06860964,0.24201465,-0.073109716,0.04847767,-0.31200644,-0.13236278,0.08736819,0.15515174,-0.32710084,-0.18877694,-0.068943694,-0.035529062,-0.2989018,-0.0466557,0.1489821,0.057113476,-0.19502465,0.1055378,-0.08318259,-0.114492595,-0.008635849,0.17865728,-0.068925075,-0.11649513,0.109409295,0.21434055,-0.25419757,-0.039345466,-0.088403516,0.015581442,0.009259698,-0.26216364,0.0021365292,0.06761664,-0.23841746,0.03264836,0.09000081,-0.1768705,0.06746657,0.07342519,-0.10861504,-0.006069168,0.051481556,0.15682866,-0.036321126,-0.08229885,-0.23549147,-0.23789857,-0.18032414,-0.17984566,0.06276044,-0.20312919,0.06704989,-0.22446337,-0.068915665,0.10467631,-0.15687151,-0.083741195,0.110914916,-0.19129875,-0.07138338,0.0698708,0.20792654,-0.122980155,0.05520925,0.2574167,-0.36671484,-0.035202865,-0.32662305,0.066431835,-0.10692161,0.1538841,-0.096675776,-0.21159188,-0.008823253,0.10908779,0.01996084,0.040686447,0.046758454,-0.09963965,-0.044642124,-0.008059889,0.056408715,0.021324864,0.17827621,-0.044468325,-0.18893816,0.09605866,-0.20157902,-0.0543797,0.15125734,-0.08183851,0.027738208,0.07316666,0.049179327,0.084771655,-0.18991852,-0.27018756,-0.15785652,0.0516321,-0.28096396,0.09891506,-0.18294215,0.0542152,-0.11645624,-0.24195406,0.08074135,0.08057525,0.33019656,0.06262572,-0.15190013,-0.012090574,0.23608297,-0.039971665,0.21958883,-0.16226712,0.17208658,-0.089867726,0.17342609,-0.20026428,-0.036020134,0.004247884,0.26788166,-0.25022814,-0.011184157,0.04394169,0.09309006,-0.0223688,-0.030340027,0.09140952,0.068987176,-0.16770945,-0.07390306,0.10324497,0.110533334,-0.094859175,0.10225584,-0.068390585,-0.012287254,0.06260206,0.11213908,-0.27769408,0.08332085,-0.13865127,0.031315193,0.0095401015,-0.011607531,-0.08491823,-0.1413077,0.050242875,0.2836802,0.058244,-0.044734307,0.06854496,-0.033552926,-0.17156443,0.033878025,0.11904579,0.00073573715,0.081451565,-0.17769067,0.018244093,-0.35842234,-0.14699602,-0.22167067,0.12542555,0.14619632,0.190273,0.15930626,-0.17645861,-0.14116429,-0.24755864,0.11424321,0.026562165,-0.06952991,0.006677816,-0.13926528,-0.19120623,0.09956294,0.15762681,-0.012215886,-0.102832526,-0.0066637336,-0.068343945,-0.032786198,-0.087060675,0.061308004,0.061986994,0.048534773,0.16994442,-0.07204405,-0.12759969,-0.0053058607,-0.078849986,0.28148535,-0.1692529,0.16471812,-0.023794279,-0.26305857,-0.011506663,-0.09805427,-0.23323514,0.011853777,-0.016179213,0.29532567,0.07028333,0.025301514,0.20957331,-0.029170956,0.26417607,0.20297107,0.009273427,-0.031314395,-0.116425134,0.1847243,-0.06448853,-0.33348787,-0.10804239,0.13965845,0.074253246,0.36407557,0.022759821,-0.03730698,-0.027899642,0.108471505,0.019878978,0.07930249,0.048574653,-0.13347319,0.05627651,-0.5986215,0.056345034,0.17800719,0.009755358,0.050610643,0.048012517,0.04841207,-0.0151086245,-0.33448464,0.29391685,0.04551313,-0.4269414,-0.04637026,0.07468492,0.08618064,-0.20999001,0.1349228,0.20984757,-0.24171552,-0.20057058,0.08701166,-0.15209903,-0.030894743,0.073595844,-0.23031187,0.4503638,-0.083828166,-0.3299928,-0.2383886,-0.029058868,-0.39294204,0.24328853,0.11345901,0.2840363,-0.2395573,-0.111074075,0.11805541,0.0965347,0.23263893,0.20214367,-0.116493165,0.20191626,0.15411805,-0.62253195,0.5222435,-0.23717923,0.24816523,0.1570673,0.16624853,-0.15965994,-0.48117295,0.03246721,0.024083894,-0.026750524,-0.013691902,0.15132225,-0.29395297,0.13515987,-0.42891034,-0.36092067,0.041988604,-0.46754098,-0.286338,0.10628687,-0.2556274,0.015635531,-0.17774095,0.19399822,1.1362863e-05,0.22056039,-0.016055845,0.24461699,-0.05638707,0.08860511,-0.00054594374,0.15028973,0.04544424,-0.30278778,0.039498884,-0.023649437,-0.26681978,0.06309152,-0.06517922,-0.3787535,-0.13257286,0.0393493,-0.1777125,-0.20919633,0.15789397,-0.23488005,0.056520287,-0.16297576,0.018938776,0.06626954,0.10012348,-0.18310446,-0.056207478,-0.09528489,0.13360147,-0.48557794,-0.31637493,-0.5218817,0.13340516,0.057596676,0.015612728,0.19379736,0.13381106,-0.29547814,0.057024617,0.24264668,0.10160918,0.09514464,0.29600605,-0.22698747,-0.032913532,-0.24848232,0.06196626,0.17653552,0.03771952,-0.032275133,0.16256848,0.015531504,0.11228942,0.06866761,-0.07920934,-0.17438906,0.0971717,-0.04612132,-0.4676733,-0.032755487,-0.22098865,-0.27579093,-0.14104557,0.124142535,0.036030225,-0.04154577,0.1165589,0.04533511,-0.1375243,0.22073446,-0.07769484,-0.10465407,-0.07686352,0.022445153,0.018719343,0.1619461,-0.38695192,-0.016995378,-0.038554244,0.15850581,0.038396068,0.0754529,0.050698433,0.03040855,-0.13070424,-0.35127193,-0.1339998,0.14978346,0.0023509404,-0.019526677,-0.26229617,-0.08641076,0.08832595,-0.16938497,-0.22722553,-0.20722188,0.024233589,0.038301155,-0.043226182,-0.22591545,-0.18303639,-0.07836782,-0.024037845,-0.07339792,-0.034628294,0.011324353,0.16042852,-0.06624311,-0.08870971,0.07328934,-2.95309e-05,-0.23028912,0.13338067,0.25563687,-0.08766806,0.30711764,-0.18674736,-0.09180799,-0.29561403,-0.08647478,-0.3835934,0.27040195,-0.12911583,-0.016063256,-0.24101366,-0.070523255,0.11959627,-0.2450588,0.17183009,-0.116937995,0.18087934,0.00449183,-0.0009217245,-0.38460135,0.12868635,0.19199897,-0.110512726,0.052223917,-0.0007389669,-0.3017812,-0.016851515,0.010779829,0.10120451,0.04884456,-0.26167014,0.109188884,-0.15219155,-0.051565126,-0.06964452,0.17053352,0.20358096,0.15254813,0.27603048,-0.088530146,-0.24870661,-0.14099109,-0.12650996,0.13747972,-0.009495888,0.10654504,0.05454537,0.028179115,-0.072204165,0.07269226,0.28242764,-0.23097694,-0.074601986,-0.475202,-0.039580576,0.08658615,-0.13273388,0.19344717,0.020378118,-0.10199813,-0.000757064,0.06514727,-0.12322769,-0.012819294,0.0783108,0.08361276,0.043551497,0.0486449,-0.22781645,0.039058324,0.010220089,-0.114787966,0.034991298,-0.0718471,0.022462351,-0.14841759,0.12753832,-0.121297255,0.027084438,-0.07156963,0.16391467,0.06913515,-0.109256335,-0.43536362,0.0907359,0.08642234,-0.0079220375,0.04381113,-0.11054785,-0.16180207,0.071964495,0.3330188,0.07238217,-0.14597815,-0.117036,-0.14257568,-0.02286387,-0.07161501,-0.09445477,0.09382525,-0.06718231,0.0007492471,-0.15165772,-0.00015724148,-0.097410835,0.026805608,-0.19210117,0.082157604,-0.020130629,0.03251762,-0.2785386,-0.14522475,0.08656036,0.097304665,-0.16590972,-0.013095058,-0.20288122,-0.1683249,-0.034093205,-0.04228295,-0.04831153,0.09671587,0.16583054,0.14984795,-0.11487806,-0.017351901,-0.20291707,0.014064978,0.18726465,-0.23310286,0.0374327,0.14243838,-0.102957666,0.15051198,0.092089064,-0.22565992,0.04994793,0.086311415,0.0031196624,-0.07024397,-0.016156988,-0.00034600828,-0.20316467,0.02501292,-0.021887671,-0.18993378,-0.07754916,-0.10022429,-0.017589552,0.012315407,-0.11794074,-0.04373583,-0.13137665,-0.11119021,0.06308041,0.03998247,-0.06628701,-0.022900373,-0.239176,-0.1776479,0.2744068,-0.087953284,-0.011691201,0.16656181,-0.13605176,0.0020138784,-0.30397153,-0.015200748,-0.109678656,0.09539247,0.056665163,-0.2588817,0.20157182,-0.057858855,0.026614703,0.078392476,0.053581513,0.11797753,-0.020189364,0.081799015,0.1624905,0.0357417,0.055769823,0.09652676,-0.08125916,0.26287064,-0.21401551,-0.035410095,0.07336405,-0.1825247,0.0056473184,0.057567645,-0.20672743,0.067335546,-0.0999209,-0.28751096,-0.16822366,0.1534323,-0.53625244,-0.021597268,-0.09488598,0.017731057,-0.07127859,-0.29219347,-0.13582088,0.14563783,0.31933197,0.07912538,-0.29037514,0.13851197,0.180834,-0.2974903,0.047599692,0.29948223,0.07282332,0.029513886,0.11855426,-0.23885678,-0.33889392,0.0061216326,0.12884168,-0.28810924,0.34931833,-0.06973084,0.053940758,0.15326704,0.12045059,0.05802919,0.14345646,-0.22115572,-0.23848559,0.16399832,-0.13463636,-0.21879454,0.13535108,0.09189985,0.013187527,-0.0760665,0.06257251,-0.22677422,0.0077716256,0.05604663,0.07148039,0.01994225,0.17964092,0.033289425,0.123823725,0.029588828,0.27553836,0.007166474,-0.009640951,0.1230261,-0.06576119,-0.24268907,-0.17273623,0.20979325,0.11462501,0.16438198,-0.10237411,0.16825451,-0.3074078,-0.12859589,-0.045408238,0.08624678,-0.024550159,0.16086854,0.211523,-0.25244057,-0.06883099,-0.41367668,0.05013678,0.045667328,0.08505309,0.073045105,-0.14710237,-0.14469698,0.28179947,0.19593559,-0.06371149,0.067367,0.22127794,-0.19919178,-0.009099137,-0.12018743,-0.06261302,0.18156892,0.0639971,0.05291586,0.08738429,-0.08347618,0.019435894,0.03380833,0.15636054,-0.22918786,0.16918156,0.14958966,-0.23592685,-0.07361434,-0.05694754,-0.48537695,0.19179383,0.07130733,0.12903164,0.17268924,0.030346557,-0.010703244,0.0076937233,0.24282715,0.22895351,0.23478928,0.19095771,0.14501771,0.21560818,-0.08961961,-0.46779957,-0.23389931,0.08071927,0.006278649,0.48354164,-0.10415035,-0.027133595,-0.1600523,0.105053514,-0.101814024,0.04314292,-0.046659943,-0.07264931,0.0764734,-0.5448836,-0.09801385,-0.039861016,-0.092779376,0.13324788,0.110499926,0.21788353,-0.13875093,-0.30665487,0.24073571,0.13269903,-0.18498044,-0.03981485,0.5629823,0.1600516,-0.29832947,0.37973106,0.14472449,-0.23622347,-0.2613321,0.23513056,-0.43455318,0.16368967,0.08087671,-0.30537766,0.5863095,-0.0004591413,-0.32384223,0.10054153,-0.13119045,-0.3125854,0.2588588,0.12966302,0.19195382,-0.18034714,-0.21423423,0.10497842,0.033352334,0.40388036,0.1730043,-0.09989692,0.16725408,0.19959684,-0.40802002,0.78615785,0.5832327,0.19844154,0.26155627,0.35208854,0.18938513,-0.56492525,0.15023671,-0.13790798,-0.06514801,0.34504315,0.5054302,-0.45362377,0.3868172,-0.30129012,-0.39450496,0.26959532,-0.25697243,-0.18079565,0.17460807,-0.28624988,-0.06232398,-0.32127458,0.080069646,-0.13182354,0.16865143,0.09426934,0.2725814,-0.2079079,0.053216778,0.024551494,0.12803052,0.1805872,-0.07398004,-0.046410542,0.12461845,0.02956586,-0.028987585,0.008477256,-0.3237862,-0.11057174,0.24075243,0.12852505,-0.22841884,0.05428772,-0.2760548,-0.09552711,-0.10616586,0.0008083506,-0.05190002,-0.05179893,0.05492788,0.14874044,-0.28672856,0.114945106,-0.31258762,-0.32217982,-0.13834538,0.16429906,0.12861826,0.010645201,0.05687755,-0.040556487,-0.33337256,0.16242875,-0.010206368,-0.041442897,0.18690236,0.27330235,-0.061027102,-0.17624912,-0.15181229,0.010939177,0.19192675,0.16038845,0.054387946,0.26563436,-0.1426958,0.008196086,0.06299701,0.04343645,-0.4230204,0.10547909,0.24225555,-0.4387643,-0.1114811,0.04118946,-0.35317278,-0.025734704,0.05587298,0.122104935,0.039587658,0.0633567,-0.1960976,-0.34858984,0.16874748,0.06494271,0.035083093,0.03448627,0.020042276,-0.005436264,0.027079409,-0.45674714,-0.015945844,-0.039911255,0.21009026,-0.020369343,0.09318963,0.1377819,-0.068501346,-0.22744693,-0.23436938,-0.0790378,-0.10000588,-0.031784892,0.10261087,-0.20844705,0.04566661,-0.042677056,-0.12802573,-0.13399298,-0.21062857,0.12200665,-0.08364627,-0.08567319,0.023973616,-0.040243026,-0.30405474,0.1772112,-0.19721392,0.06097533,0.16872874,0.107795216,0.1490007,0.050381247,-0.012630472,0.12112327,-0.40274006,0.11422959,0.3106011,-0.13862614,0.378083,-0.28329659,-0.17819124,-0.09060398,-0.1854452,-0.56250346,0.3648493,-0.02186585,0.13466169,-0.13306999,0.0066689816,0.07997823,-0.10148529,0.1438293,-0.093144,0.2462911,0.070873275,0.15894975,-0.47537625,0.08182114,-0.09664934,-0.08052335,0.059370995,0.018639795,-0.09039877,0.16162854,0.070838965,0.25569135,0.10658627,-0.4814264,0.009449858,0.040740564,-0.19074395,-0.047774885,-0.068938896,0.030526899,-0.02227992,0.21607113,-0.053975128,-0.3396553,-0.019759376,-0.14021766,0.056224246,0.062413987,0.07682833,-0.099390164,0.11173575,-0.15669455,0.0960777,0.21537724,-0.13551643,-0.111070335,-0.16935395,0.0137300445,-0.022077994,0.10339773,0.20934421,0.13983661,-0.27570322,-0.1849426,-0.023710769,-0.14427291,0.0855756,0.108857185,-0.12896904,-0.15543868,0.09368257,-0.116034165,-0.0706622,0.005025399,-0.07617605,0.028457297,-0.24250449,0.04260089,0.11228133,0.24786517,-0.25058088,0.16646022,-0.5222752,0.12473921,0.14258316,0.12506452,-0.56036365,-0.09897454,-0.1469685,-0.20257044,-0.14770967,0.00518804,0.09252395,0.03516086,0.36742303,0.08727763,-0.39693388,-0.005494392,-0.008266236,-0.30379653,0.067171216,0.12447644,0.0801111,-0.0052827466,0.10280897,-0.2008351,-0.17675427,-0.073721625,0.06722511,-0.32476538,0.13532053,-0.07682753,-0.11457975,-0.32857236,-0.10772933,0.11468883,-0.009097669,-0.068168126,-0.0015041234,-0.21261856,0.029516475,0.034597035,0.00460873,-0.25183418,-0.09569458,0.13475817,0.11260165,-0.22360566,0.032446515,-0.24030821,0.028991187,0.046818145,-0.048370846,0.043874554,0.025592634,-0.079105765,0.11939209,-0.05560938,-0.18440138,0.020924654,-0.09204623,-0.021647282,0.05411042,0.20390262,-0.030440431,0.103033826,-0.23859347,-0.16037896,-0.2709871,0.06695097,-0.43312287,-0.11591061,-0.0038160698,-0.17818421,-0.22446692,0.0007060557,0.0918364,-0.092212476,0.114714794,0.21463698,-0.20439424,-0.056460682,-0.020526223,0.03343567,0.0817298,0.13885239,0.17944887,0.13336952,0.11037974,-0.44199377,0.047174692,0.025318097,0.02019861,-0.078964405,-0.10358431,0.19093117,0.19127764,0.051588576,0.19101006,-0.016203986,0.07907668,-0.017577568,0.04349449,0.18609385,0.118925266,0.25801027,-0.088848926,-0.09097118,0.099644445,-0.4458623,0.056999553,0.20247024,-0.05111951,0.14512925,0.03315364,-0.124705106,0.07205771,-0.07897594,-0.2603637,0.031937752,-0.093755454,-0.5864632,0.017452508,-0.41719443,0.081290156,-0.12590614,-0.25440726,-0.053068332,0.0016430638,0.37374124,-0.03304191,-0.18301842,0.1399564,0.16741812,-0.37944072,0.24735013,0.349082,0.22965942,0.11961183,0.36357832,-0.24938028,-0.2536339,-0.15892711,0.04478564,-0.3784196,0.258963,0.06832884,-0.06325003,0.19989793,0.25791657,0.081515275,0.16551888,-0.43577164,-0.12895982,0.15394688,-0.2734429,-0.2314072,0.12825857,0.13503669,-0.1793971,0.05253142,0.09605239,-0.22084655,0.13477631,0.09154051,0.14648308,-0.06576919,-0.07594335,-0.14166889,-0.007506016,-0.1258995,0.1449301,-0.095523365,-0.06744308,0.15564059,-0.00016243273,-0.1933101,-0.052598767,-0.049447406,-0.0589348,0.123352416,0.051331494,0.10434937,0.059386708,-0.18278113,-0.22470485,0.11423449,0.08069774,0.19982933,0.04632295,-0.3480672,0.07018864,-0.27037472,0.09777259,0.115144014,0.028930211,0.024761025,-0.111542374,-0.3472152,0.100187734,-0.09251244,0.08379576,0.013771102,0.21646996,-0.19021763,-0.116976805,-0.059852917,-0.043305855,0.22907333,-0.050229255,0.019192643,0.11839549,-0.005886013,0.008747876,-0.16237237,0.056619756,-0.3266326,0.30268732,0.1831349,-0.08147821,-0.15810342,-0.04782115