0.26080385,0.28470924,-0.2936756,-0.20127726,-0.20078605,-0.3362401,-0.39473447,-0.58208394,0.24219462,0.20714341,0.2773008,0.26783165,-0.33512858,0.29509804,-0.19029316,-0.31425214,0.2292996,-0.51046264,-0.37896174,0.11448526,0.2107612,-0.4023815,-0.45474038,0.284383,0.20588718,0.2449466,-0.35374066,-0.37905446,-0.29516864,-0.18366177,-0.17182519,-0.29050836,0.11650402,-0.33951718,-0.020446986,0.26525217,0.11010038,-0.17473982,0.12891634,0.039211195,-0.08881848,0.09915792,-0.6554254,0.18912937,0.1500964,0.118884176,-0.56573707,-0.37435564,-0.3613513,-0.38354865,-0.21387184,-0.15646619,-0.34996215,0.27037552,-0.35514894,-0.2978451,-0.09980024,0.15815324,0.040624075,0.18398406,0.1965519,-0.41103637,0.28960332,-0.33625346,-0.19743128,-0.22202499,-0.39485475,0.24643181,-0.1532453,0.21994391,-0.110675044,-0.18592054,-0.23549217,-0.13433455,0.07149562,0.0837649,0.031385724,0.04536821,0.27314004,-0.10619813,0.16808033,0.23156264,0.20221591,-0.17554885,-0.41072804,-0.21341385,-0.58480036,-0.33752513,-0.2991676,0.1827955,0.052345954,0.2371318,-0.35339257,0.23868218,0.22807339,-0.6131046,-0.497541,0.010351866,0.20887545,-0.54652214,-0.57440704,-0.03534206,0.17603718,-0.45757753,-0.31795746,-0.19295754,-0.4814789,0.24007703,0.2636132,0.16318305,0.42026967,-0.35624123,-0.42876297,-0.11202677,-0.12597816,-0.27018407,-0.09821551,-0.2290923,-0.20994811,0.47859082,0.1331242,-0.49334306,-0.47121838,-0.59488416,0.20745108,0.23479074,0.22150926,0.19165644,0.16392198,-0.2899254,-0.040964656,0.34011945,-0.4851802,0.39382634,-0.071562715,-0.5684096,-0.19454622,0.409018,-0.2506364,-0.0481829,0.24738489,-0.5801093,-0.28898767,-0.3748486,0.2345577,0.25418717,0.289187,0.18609452,-0.12518904,0.001534485,0.14570464,0.13931623,0.1693921,-0.57089376,-0.35186666,0.003461588,-0.64764106,0.06371749,0.10785345,0.12338481,0.0585458,-0.6135154,0.23026617,-0.28180495,0.11505724,0.17749773,-0.391801,0.119237974,-0.3942551,-0.52014136,0.30564126,0.31094325,-0.15931155,-0.19717969,-0.36722594,-0.45317882,-0.08447458,0.24956569,-0.07867826,-0.11222809,-0.36762542,-0.42674965,-0.4066375,-0.20730636,0.36504048,-0.38234958,-0.31847408,0.3082375,-0.20032443,0.39325643,-0.28480932,-0.42528713,-0.66325676,0.13614814,0.2494543,0.25402263,0.26301375,-0.41211888,-0.51003,-0.36218935,0.31203845,-0.23723005,-0.37701657,0.31878212,-0.37788206,-0.20326725,0.27291676,-0.11475189,-0.3656804,-0.12272986,-0.225553,-0.4457562,-0.45466998,-0.26652417,0.4624385,-0.17522863,0.2893912,-0.08889174,0.33577618,-0.23400074,-0.08889909,-0.38653642,0.055267833,0.24491559,0.34340703,-0.26943707,0.31309637,-0.1680895,-0.07441113,0.28723106,0.2864796,-0.23804517,0.28305456,0.29262188,-0.17388678,0.26069117,-0.10337703,-0.4066051,0.2580398,0.24137707,-0.3884166,0.22831407,0.15787867,0.15126982,-0.3255927,-0.3459908,-0.62290984,-0.26327965,-0.14522664,0.19963086,0.30821505,-0.26749173,-0.43223122,0.0032373292,-0.21619955,-0.252439,-0.22904164,-0.42917883,-0.18645643,0.21847309,0.28661543,-0.39623302,-0.503448,-0.32039952,-0.15900475,0.30155358,0.30647606,-0.21805638,-0.0005241996,-0.2554614,-0.06634051,0.009754771,-0.16071641,-0.32704255,-0.09333079,-0.37006444,0.34289753,-0.19714878,-0.039979335,-0.17455992,0.23167087,0.034977138,-0.0024197665,0.10170513,0.08385752,0.2148489,0.13251217,-0.24903725,0.060766224,0.2037159,0.06189465,0.11303619,0.029918473,0.1589353,0.07945516,-0.6473204,-0.13139193,-0.002522521,0.04051937,-0.6646288,-0.3120688,0.20482732,-0.3549182,-0.47137034,0.24300516,0.2850822,0.26811093,0.12063444,0.20888747,-0.5122572,-0.0015563885,0.19398472,0.3053915,-0.45881927,0.30774426,0.31944937,0.3597419,-0.46906918,-0.6572235,-0.05240417,0.28086576,-0.6800125,-0.73024505,-0.32459325,-0.13188998,0.26158896,0.27482766,0.18806155,-0.45253944,-0.3504694,-0.11254924,0.37815806,-0.33145836,-0.36408994,-0.3141941,-0.20500742,0.06747709,0.29995903,-0.228332,0.4310939,0.17183319,0.16050626,0.16862066,0.19980419,-0.41431922,-0.29320413,-0.67775387,-0.41885233,0.14467986,0.066355735,0.2264254,-0.20345928,-0.61130273,0.27172977,-0.3975918,-0.30610812,0.19972517,0.29586607,-0.36991468,-0.490118,0.13128936,-0.51694584,-0.36430624,-0.46659467,-0.47728175,0.20299177,0.23220834,0.22208343,0.2553924,-0.16203122,-0.12366108,0.2947452,-0.25992405,0.007134311,0.27074713,0.30740803,-0.47479674,0.32511294,0.33015487,-0.37604353,0.22631425,-0.3177527,0.21404971,0.25345007,-0.42200634,-0.46288732,-0.32351303,0.19679686,0.23547244,0.2080703,-0.51349133,-0.5682691,0.24644071,-0.095085554,0.17561156,0.078682385,-0.44691676,0.07491563,0.21079344,-0.76960754,0.19045782,0.2120721,-0.33688727,0.24469423,-0.39709577,-0.35788947,-0.4471061,-0.30987003,0.23208192,-0.30986756,-0.37552303,-0.3886651,0.3060565,-0.42682323,-0.41640466,-0.457346,0.1481877,0.222816,0.2403604,-0.026416587,0.11279502,-0.5750279,-0.6682995,0.03632928,0.120204315,0.15982899,0.15500228,-0.4068924,-0.75840616,-0.3662932,-0.5246573,-0.40827164,0.05766757,0.13352516,0.10600009,-0.58730704,-0.19024199,-0.31877238,0.14526702,0.18389899,-0.080620065,-0.2638123,-0.41098893,-0.19896695,-0.2449034,0.22855248,-0.284704,-0.32607704,-0.5627642,0.4731368,0.21397145,0.07251939,-0.066769205,0.12281395,-0.26026934,-0.1658476,-0.14433827,-0.09143684,0.11583876,-0.15242079,-0.2512841,-0.27128008,0.19565737,-0.042962234,0.24171714,-0.2667166,-0.16061108,0.023902446,-0.035419676,0.22127418,0.2006108,-0.4843496,0.26310304,0.19746134,-0.14355612,0.20231842,-0.58368605,-0.4668568,0.14030461,-0.26641858,-0.47695377,-0.35390165,0.3861707,0.21068794,-0.4271136,-0.2329566,-0.5760007,-0.20953786,-0.078464,0.23817414,-0.072101586,-0.18111251,0.17388922,-0.19051461,0.22525375,-0.20781022,-0.21991019,-0.044662014,-0.17961888,-0.20752294,-0.116709724,-0.047975793,0.095903404,-0.25525615,-0.2867973,-0.08648517,-0.15922447,-0.1273462,0.17270748,-0.112458155,-0.5731198,0.19049436,-0.118943244,-0.3998249,0.106785834,0.09216258,-0.49383458,0.15052417,0.10502792,-0.1420242,-0.0765098,-0.3440307,0.42420208,-0.19051304,-0.011281214,-0.47758785,-0.33757377,0.38392252,-0.3750386,-0.59724814,-0.28108287,-0.23440632,0.011542645,0.23567523,0.25284946,0.23058602,-0.23729518,-0.062472753,0.106045574,0.23584312,-0.6991848,-0.046527196,0.0768563,0.11285332,-0.29739383,0.24624038,0.3000355,-0.30524227,0.11081638,0.2521875,0.22732349,-0.37670228,-0.23248811,-0.3429494,0.21900606,-0.4246721,-0.2343964,0.23981142,0.23659776,-0.8532858,-0.12260586,-0.04524914,-0.275711,-0.016942643,0.17653339,-0.12618847,0.042405356,0.25188452,-0.24392682,0.04347175,-0.1869961,0.20317604,0.017431313,-0.0069187563,0.20025699,-0.20032659,0.21778473,0.16573489,0.1263177,-0.049276844,-0.032815374,0.14985184,-0.35385564,-0.18479629,-0.3044439,-0.14907776,0.041776467,0.13585356,-0.19023198,-0.2588984,-0.17153627,0.14647688,0.20043547,-0.478894,-0.02712986,0.123325735,-0.5343231,-0.57876444,-0.40901986,0.18234666,-0.36485156,0.12681682,0.16102228,-0.72435015,0.21732974,-0.47706625,-0.21512495,0.12152642,-0.19906083,0.11847646,-0.15564471,-0.22195858,0.14668427,0.12664215,-0.11182643,-0.0848649,0.06520305,0.2620623,-0.1681852,-0.17987958,-0.122656666,0.029727034,-0.70720965,0.09785218,0.09227706,-0.5900918,0.088420674,0.11126161,-0.1603797,-0.4868778,-0.1192276,-0.06537192,-0.5935252,-0.27434507,-0.061913803,-0.53054297,0.28339478,-0.13770218,0.31856334,0.2118984