-0.10513417,-0.031184515,-0.16157836,-0.105034076,0.00070833706,0.005438558,0.06428939,-0.010581059,-0.009809735,-0.011728332,-0.009039062,0.07040694,0.042521495,-0.18252273,0.2600264,-0.12798269,-0.23279265,-0.08595355,0.20106427,0.08295501,-0.12980315,0.15263721,0.3974051,-0.2912819,0.17111222,-0.04554885,-0.13408473,0.12157798,-0.011032357,0.10098365,0.015043244,0.10238039,-0.014677059,-0.025752796,-0.06932634,-0.060630612,-0.21938004,-0.24399994,-0.053610366,-0.017772416,-0.17106889,0.19874495,0.16446097,0.20718989,-0.10346441,-0.013401392,-0.08252685,-0.21087706,-0.030561905,-0.07473331,-0.1237982,-0.15577713,-0.13982093,0.06986257,0.015458634,0.05959647,-0.08498188,0.0611589,-0.07768758,-0.28167263,0.27186728,-0.06015404,0.21764562,0.121755205,0.08589238,0.025307141,0.12355788,-0.15256503,0.18970859,-0.07015708,-0.17012018,-0.024334498,0.08796067,-0.09297109,-0.054760266,0.1353718,0.09308962,-0.0033086836,0.21368214,0.008444389,-0.019382278,0.06676241,0.014889404,0.042183835,0.093403704,-0.18848677,-0.11959917,0.009730962,-0.1197777,0.17310955,0.0683766,-0.037008792,0.05649701,-0.12866728,-0.14629304,0.03443233,0.19170544,0.08207511,-0.011106655,0.10721375,-0.0021500296,0.059212584,0.067586906,-0.16155659,0.0040638503,-0.123587295,0.16681704,0.03274321,0.15214826,-0.090418525,-0.00896053,0.06291778,0.009456501,-0.0050291833,-0.13101727,0.059447993,-0.11931821,0.011803659,0.06562326,0.028491516,0.061622046,-0.072751135,0.053126197,0.12234166,-0.015139205,-0.099516146,-0.03617516,-0.022876022,0.14500305,0.17152713,-0.062686615,0.025651023,-0.06367583,-0.2192559,-0.028644832,0.03755451,0.07880418,-0.26078892,-0.354283,0.12003301,0.11653606,-0.10955774,0.21234031,-0.17388201,-0.038019005,0.08258111,-0.1512731,0.10056651,0.082481705,-0.13395123,0.027677337,-0.1488446,-0.1083707,0.17333394,0.19107835,0.18465489,-0.070264146,-0.15872456,0.03940205,0.2119786,0.13009553,-0.22572991,-0.19204113,0.15523382,0.048774205,-0.23132999,-0.23463067,-0.32143226,-0.14947256,-0.22062187,0.33226582,-0.070503846,-0.30635837,0.035791352,-0.110426955,-0.14307831,-0.106707394,-0.0706761,-0.055954795,-0.210282,-0.02014531,-0.11612726,0.095482066,-0.038376994,0.04167547,-0.011467433,-0.048620824,-0.13277714,-0.13684511,-0.01371122,0.11186915,-0.17049594,0.093444765,0.12733246,0.14167929,0.045263566,0.047216967,-0.052168373,0.14105852,0.0617282,0.15553087,-0.11845735,-0.38698873,-0.11152079,-0.023795286,-0.052780908,0.15596113,0.1997195,0.17213005,0.1908522,-0.17305653,-0.11196628,0.11205185,-0.15011081,0.103868164,-0.03590361,-0.0058670714,-0.09603598,0.23769258,-0.008976814,-0.068975806,0.056012265,-0.21378501,0.09906289,0.26347405,-0.15367988,0.058501955,0.1889223,0.053764436,-0.09683651,-0.025066907,-0.20205678,0.043448973,-0.29516897,0.25726703,-0.20206434,0.03185862,0.06810994,0.013894373,0.12121805,-0.038773265,0.0124077555,0.019623188,-0.173325,-0.05185226,-0.114466056,-0.009785465,-0.05525716,-0.055105355,0.056017738,0.0051912316,0.006738294,-0.14577453,-0.047735073,-0.05219691,-0.22117156,-0.003525813,0.1809252,0.24333778,-0.11850041,0.24033557,0.12278195,0.06959563,0.07346282,0.13817134,0.17919011,-0.1039595,0.05958468,-0.068364725,0.004280801,-0.053074434,-0.10018922,-0.04782655,0.0128933545,0.15861541,0.02785484,0.13071126,0.07467235,0.140812,-0.1067656,0.15815224,-0.02990638,-0.06061778,-0.030808045,-0.06433447,0.14659247,-0.020643966,0.055977788,-0.011205923,0.1607659,0.02541651,0.0053804386,-0.22169146,0.13901079,-0.012388886,0.039200053,0.0889913,-0.121691644,0.03700859,0.043941766,0.12613155,-0.07611133,-0.09942102,-0.01542597,0.09920319,0.01731815,-0.13487877,0.058475576,-0.1188603,0.010112561,-0.12794971,-0.067447394,0.032619525,-0.024928488,-0.011788272,0.23799033,0.06615295,-0.056176946,0.058731504,-0.08464756,-0.067410775,-0.280147,-0.032500174,0.013967803,-0.116269454,0.013763399,-0.06644042,0.07373151,-0.07811423,0.16747661,0.34440133,-0.24054064,0.11655811,-0.055043362,-0.008978938,0.10734955,0.13303202,-0.17804128,-0.16828729,-0.24366908,-0.35887295,0.1592091,-0.23281586,0.02104784,-0.033723176,-0.36197066,-0.20532322,-0.18075334,-0.11419969,0.059280835,0.13300326,0.023041712,-0.12558626,-0.19761121,0.056979384,-0.15287767,0.16331455,0.30995062,0.076946594,0.28001612,-0.12521766,0.40966552,-0.12295736,-0.15152666,-0.20568049,0.0010154328,0.0038530196,0.086974025,0.11675409,-0.0015831424,-0.0080839675,0.31236193,0.15055701,-0.0058962083,-0.24619676,0.09566715,0.03066745,0.043251283,-0.075067595,0.072518714,0.084621765,-0.0057463706,-0.12688263,0.087294675,0.12109705,-0.24724615,0.07107721,0.04022454,0.11661414,0.14467366,-0.05240367,0.021811714,-0.068702936,0.26437208,0.08593437,-0.03908039,-0.039098155,-0.025132358,-0.009083869,-0.042617686,-0.24675395,-0.12361179,0.18375058,0.012698962,-0.073087715,0.24536249,0.109420896,-0.11879187,-0.018744426,-0.10501105,-0.106143,-0.19252805,-0.027684528,0.03366172,0.32547113,-0.10230661,-0.25869066,0.12880045,0.00395945,-0.02717679,0.0071879737,-0.0062362324,-0.09974757,0.036511287,0.007323756,-0.08247116,0.102460235,0.1732691,-0.024912143,0.0132145565,-0.013281593,-0.18593898,0.004815662,-0.029107647,-0.11864996,0.115328915,-0.20225835,-0.047898524,0.052019432,0.08240813,-0.02492978,-0.092342146,0.0023650867,-0.13320243,0.19906309,0.010266116,0.19024542,0.31210783,-0.15565816,0.2807933,0.19177552,0.040900778,-0.013374059,-0.18251196,0.13190442,-0.053510793,0.19486904,-0.082764134,-0.042170413,-0.046699893,-0.07077098,0.098232195,-0.017438518,0.061478253,-0.008507546,0.024775902,-0.19873188,0.011295116,0.30860412,-0.25981826,0.03382416,0.106984384,0.12855087,-0.10401064,0.08278131,-0.04903415,-0.074000575,0.04500136,-0.24008442,0.09022403,0.056159463,0.05921048,0.25085357,0.17460106,0.08514213,-0.09607662,0.22623494,-0.17554267,0.1063945,-0.026194068,0.10622928,-0.0062861005,-0.1261074,-0.09324676,-0.07609429,0.20952772,0.13151683,-0.08983121,-0.06469222,-0.21445203,0.10405822,0.0056409407,0.090169914,0.05585945,-0.06787646,0.040917594,0.0028461532,0.087198585,-0.20970902,-0.03522412,0.005770041,-0.11657873,0.1260911,0.010088728,-0.1400623,-0.0144859515,-0.26249433,-0.06981063,0.029825488,-0.04311881,0.15875727,-0.16118345,0.1385633,-0.034077946,-0.054950625,0.1064674,0.022084776,0.16052388,0.23613179,0.15653144,-0.112788446,-0.15269855,0.069456086,-0.1622438,-0.19514088,0.059763037,-0.00095661875,0.011912063,0.12044084,-0.0030602969,0.032200795,0.041275874,-0.114528134,-0.16419385,0.10581579,-0.018755512,0.1489883,0.32464942,0.022377633,0.2149362,0.007948263,-0.097449735,0.17790869,0.08300223,-0.046453312,-0.26829225,-0.41952416,0.07780024,-0.0489597,0.041341275,-0.06791472,0.03579004,0.032483846,0.093178935,0.288448,-0.092097566,-0.20226131,-0.060006153,-0.07908974,-0.0057903677,-0.01429305,0.15204754,0.06876689,-0.0108488295,0.06727888,0.0836388,0.100254096,0.10415686,0.10079064,-0.022231858,0.06056605,-0.25442165,-0.029383555,-0.091123454,-0.1160135,0.039992303,-0.049982354,-0.08049642,0.049907945,-0.065334335,0.020316288,-0.045776848,0.009484233,0.11136054,-0.06016406,-0.01964267,0.07318704,-0.007228007,0.096298076,0.074613586,-0.084772386,-0.10221234,-0.012483517,0.0038001686,-0.06556286,0.05307913,-0.105544664,-0.06885985,0.013882859,-0.19234142,0.07030479,0.12992552,0.082929626,-0.06428893,0.13054815,0.08049543,0.21201974,0.022286074,0.091989264,-0.018535502,-0.1226283,0.023251673,-0.0061345776,0.051012825,-0.15620244,-0.06631761,-0.023249026,-0.022933222,0.026108941,-0.053190537,0.089484155,0.15943074,-0.044220787,0.009963949,-0.06105595,-0.098530136,-0.052644514,-0.103369355,0.04006432,0.14470318,0.15672006,-0.02008043,-0.019446025,0.0076940814,0.10025103,0.103979275,-0.06803851,0.027180431,0.20328966,0.11627304,0.0650065,0.15236253,-0.021852864,0.14384112,-0.124984354,0.034961693,-0.13667871,0.10794543,0.11216682,0.084307656,0.0010093459,0.13982688,0.05802642,-0.061484206,0.19343546,0.16396587,-0.11566528,-0.1041284,0.005019456,0.07163373,-0.014681734,-0.07362985,-0.1397544,0.16803697,0.107205346,0.03776694,0.025584994,0.2851287,-0.11488003,-0.11309398,0.08540439,-0.032145493,0.074907504,0.15162167,-0.07975523,-0.010619258,0.00553433,-0.06051563,-0.075756945,0.009649498,0.024733592,0.23871484,-0.120584,-0.10556166,0.178902,0.05685035,-0.08736302,0.045086868,-0.030441133,0.13035014,-0.00064823194,-0.07550128,-0.055386644,-0.113293365,-0.09829263,-0.07685589,0.0029917366,0.07618873,0.05264303,-0.13040732,0.04674856,-0.04283309,0.08358344,0.025989925,0.063820764,-0.16191354,0.03918167,0.03825081,-0.012284949,0.1531893,0.16776302,0.0024511302,-0.2643745,0.016214443,-0.049647048,0.0659103,-0.08416784,0.051527385,0.12187035,-0.100630015,0.02829398,-0.011019131,-0.037628442,0.15710665,0.033822604,0.14082883,0.04550038,-0.027365638,-0.030440152,-0.08391262,0.0048594256,0.1062513,-0.09220934,0.09320704,-0.08980188,0.007587119,0.052437823,-0.34824228,-0.03128693,-0.05304737,0.007495575,0.07136445,0.042407427,-0.046021998,0.044454917,0.13347255,0.049005847,0.0017099261,-0.07742675,0.004355925,0.04403984,0.03234363,-0.08131443,0.08508007,-0.013372627,-0.018137474,-0.025779966,0.0058779875,0.116574876,-0.10730086,0.12233508,0.18531935,-0.03724446,-0.13300098,-0.07332385,-0.096818574,-0.0651907,0.22548121,0.30877024,-0.14143714,-0.031788785,-0.06769179,-0.20939276,0.070053086,0.10132388,-0.27086318,-0.0333714,-0.07445774,-0.12518789,0.32078958,-0.033134848,0.11966421,0.109236725,-0.13955952,-0.2197802,-0.18833497,0.02106019,0.08596672,0.18445015,-0.019213043,-0.2294245,-0.025192646,0.46130136,-0.19744179,0.15558508,0.2203013,0.19574356,0.4644496,0.36993298,0.38977584,-0.2316317,0.046263676,-0.2355349,0.04459725,0.04381386,0.14762971,0.20908186,0.051951706,0.003892754,0.27221727,0.098889746,-0.023624998,0.015479956,0.1967125,0.020673316,0.006100672,-0.125531,0.06375569,0.14026895,-0.07381044,-0.05186807,0.26359951,-0.15567252,-0.013904476,0.039874975,0.04804222,0.14641069,-0.013615153,-0.16454147,0.036525805,-0.09897972,0.118448555,0.0733684,-0.08390575,-0.02992569,-0.09260768,-0.036118824,-0.0898159,0.06585171,-0.070049495,-0.07839286,0.13067809,-0.047243167,0.13396902,-0.054265622,0.06280477,0.2895794,-0.29436183,-0.05640031,-0.155032,0.018643202,0.049465366,0.22045767,0.075122066,0.042589966,0.07638469,-0.111040406,-0.1929044,0.07167446,-0.029286347,-0.05404694,0.051449154,-0.071181536,-0.03670603,0.17270786,0.10989927,0.1165592,0.02231177,-0.046042826,0.05572941,0.16607429,-0.052929822,-0.030708635,-0.060312185,0.02408122,0.05642163,0.1868337,-0.1709335,-0.11279658,-0.03232022,0.051354278,0.09103164,-0.016641863,-0.13113937,-0.10062899,0.14919607,-0.2678529,-0.074895635,-0.13051249,0.07691623,0.033014428,-0.30194557,0.15423606,-0.09251259,0.046820953,-0.11586797,0.068928085,-0.3649774,0.07039555,-0.2343869,0.08275827,-0.06034658,0.32771748,-0.2375282,-0.20556027,0.1468191,-0.203806,-0.083741546,-0.2264358,0.120961994,0.036561675,-0.14691415,0.04499161,0.17648587,-0.0055589266,0.06368906,0.11503459,0.31720942,0.0337916,-0.40076077,0.18059747,-0.100737944,-0.05742929,0.028943216,-0.15942745,0.20656092,0.00448663,0.4226438,0.023106735,-0.37345606,-0.40367144,0.07891342,-0.05368199,0.31658643,0.3112495,-0.05561105,-0.05753377,0.11995123,0.40538615,0.05196492,-0.07738894,-0.19105697,0.023144247,-0.09777146,0.077221796,0.2803944,0.18349513,0.009728488,-0.2894501,-0.18343726,-0.22165924,0.053762022,-0.10326044,0.033114355,0.055021882,-0.131037,-0.06369484,-0.004432654,-0.12288507,-0.19201306,-0.070853114,-0.229161,-0.03170901,-0.00975517,0.06131887,-0.24215733,0.076177,-0.1975886,-0.08608025,-0.09402872,-0.048132952,-0.019319842,0.08655522,0.052087914,0.20481156,-0.1975785,-0.09703664,-0.010674048,-0.09025106,-0.04229142,0.044112667,0.16784583,-0.100074336,-0.09712624,0.0655216,-0.116525285,-0.016146837,-0.18854146,0.19018964,-0.19709855,-0.06888003,0.119922,-0.08617889,0.11338139,-0.060228426,-0.07274368,-0.09966485,0.080010414,0.2205873,-0.018832121,-0.09340741,-0.03826466,0.115748495,0.05586734,0.07719722,-0.1678267,-0.0769091,0.032705355,0.10118637,-0.06531766,0.04122355,-0.046682876,-0.09960741,-0.11574475,0.0037092636,-0.26405838,-0.23201703,-0.090677805,-0.056326885,0.15391763,-0.14853245,0.015472688,-0.1713233,0.05884464,0.38789424,-0.1409868,0.30416086,-0.119786285,0.138044,-0.09137863,0.007462334,0.13226883,0.07500753,0.017209155,-0.2707802,0.033632945,-0.14069355,-0.1862706,-0.11107917,-0.061588503,-0.06344351,-0.030466907,-0.070765935,-0.020176196,0.009424073,-0.16595641,0.21174379,0.02575059,-0.21009931,-0.0441394,0.3345651,0.21418488,-0.019703899,0.19653986,-0.010024024,0.37034243,-0.07438552,0.060153585,-0.04560005,0.016255377,0.026020635,-0.21432036,-0.23158783,-0.030524477,0.026325174,0.19512102,-0.061648984,-0.05282134,-0.020258512,0.18830615,0.044217557,0.0017909923,0.033792384,-0.109674595,-0.047739226,-0.043531377,-0.17402512,0.10314568,0.35530332,0.28952003,0.2308298,-0.043781802,0.098858684,0.03597161,-0.016736845,0.074742444,0.18853435,-0.047404103,-0.3431561,0.302067,0.13241614,-0.06111698,0.21000747,0.18385129,-0.12242368,0.13331906,0.028044665,0.12195509,0.3021545,-0.14663397,0.11701732,0.115121774,-0.19764401,0.45249182,0.31126806,-0.23044075,-0.08076142,-0.023106335,-0.18821947,-0.12667282,0.23635189,0.12660256,0.052573025,0.3272593,0.051744066,-0.10977768,0.067131266,-0.27685472,0.10298686,-0.5784577,0.38355562,-0.04784264,0.23572224,-0.003480276,-0.046323366,0.20624991,-0.2226691,-0.10575923,-0.042550102,-0.15423551,-0.36517975,0.046470687,0.20140749,0.1323145,-0.007827532,-0.012020998,-0.070127964,-0.024372468,-0.08732564,-0.10657383,0.06027871,0.017614298,-0.10800335,-0.119039185,-0.005662124,0.07826899,0.09239644,-0.018300274,-0.02401829,-0.08199325,0.1632317,-0.01581243,-0.054834113,0.027327213,0.006250209,0.03935571,0.1442114,0.006406305,0.10041941,-0.13463615,-0.00027274073,-0.03365226,-0.13940868,-0.1692822,-0.04266165,0.082548514,0.054325093,-0.029048951,0.07797463,-0.11131391,-0.060060643,0.0037631146,0.041869994,0.10211315,0.021758195,0.014507402,-0.061404105,-0.06205219,-0.0105583025,0.03341944,-0.028757162,-0.017649617,-0.052667838,0.010757791,0.005232701,-0.103716046,-0.057434853,-0.066935584,0.04043713,0.07988758,0.13955711,0.06295743,-0.1236735,0.17437313,0.01656516,0.038271155,-0.1862378,-0.05621012,0.071898356,-0.016925756,0.026245475,0.119143434,0.1329944,0.069952294,0.05989366,-0.104802445,-0.16601378,-0.022171048,0.07917581,-0.015088078,0.10827872,-0.22544494,0.038610756,0.033656288,-0.030749101,0.047503244,0.04094722,-0.35755545,0.050556667,0.107654214,-0.008861503,-0.034635622,0.17139348,-0.012222323,-0.09582801,-0.099462345,-0.008225278,0.0802437,0.04130646,-0.021784538,0.14091316,-0.24740878,-0.068897076,-0.06040941,-0.09886109,0.2674068,0.04401481,0.111030646,-0.030193139,-0.123390935,0.07104689,0.1205361,0.011534083,0.07893618,-0.054133605,0.06713928,0.04642691,0.08441847,0.040423553,-0.38594276,-0.25759047,-0.020731729,0.010697833,0.054500274,0.08081566,0.009743093,0.032208133,0.175833,0.24268743,-0.002053257,-0.139963,0.1034045,-0.082327865,-0.10739571,0.0013413538,0.10993271,0.21819916,0.053300105,0.03765857,-0.0549084,0.0049518277,0.0061020115,-0.011571321,0.16940288,0.0023369861,-0.04149489,-0.051586162,0.029739892,-0.23698361,0.047924362,0.108879745,-0.12522048,0.14813484,0.04767398,0.03539128,0.04056864,0.094254576,-0.091456294,0.020140473,0.094047554,-0.09882945,0.06410275,0.005877561,0.054062173,-0.13223194,-0.034939867,0.03716343,-0.08544247,0.040355504,-0.06874147,0.27783394,0.032834288,-0.1367627,-0.086607076,-0.03759733,-0.03904668,0.15198436,0.050303403,-0.057917494,0.05875861,0.08510439,0.15565853,-0.0638432,0.052184943,-0.039011497,-0.0369568,0.014692078,-0.056302477,-0.22361341,0.00520068,0.079569764,0.11957743,0.05869357,0.03858266,0.12790996,0.04933279,0.00089406903,0.00735407,0.06624522,0.024947379,0.019993098,0.0034822687,-0.012888149,0.1571142,0.07507016,0.02100358,-0.04039339,-0.1370714,0.037432127,0.037478577,0.08445795,-0.016204054,0.018605933,0.10969285,0.046736293,0.079940625,-0.106255494,0.15823857,-0.057368066,-0.015275395,-0.066042244,0.10275921,0.08675218,-0.16680056,-0.035214018,-0.089568146,-0.15317024,-0.04095918,0.1823969,0.12057065,-0.2537236,-0.2226361,-0.068322584,0.20082904,0.05938138,-0.013279142,-0.1429742,0.12244136,0.16049914,0.025323587,-0.15804341,0.17563868,0.03776269,0.015681198,0.06624539,-0.11952916,-0.06820783,-0.07696227,-0.051515367,-0.041002043,-0.037456308,-0.048302684,0.049946126,-0.010642255,-0.03550288,0.09081428,0.15546076,0.048349228,-0.20404217,-0.008591201,-0.0930275,0.04030774,-0.0012905778,-0.09114725,0.13188376,-0.07969786,0.09097867,-0.08330639,0.16034864,0.037220784,-0.086639985,0.020586839,0.011721434,0.0129058175,0.09689831,-0.049029693,0.25308377,0.023839984,-0.06660886,0.19322042,8.3849045e-05,-0.03626373,0.16473135,0.02306152,-0.06780432,-0.067332454,0.088524885,0.055058133,0.1674756,0.06034851,0.13524303,-0.062696844,-0.055379033,0.09920736,0.08833659,-0.043968234,-0.03751016,-0.070949934,0.023901261,0.014485014,0.074011646,0.1560758,-0.008438868,0.23674794,0.037640512,-0.02962926,-0.08283372,-0.14838822,-0.09823232,-0.265471,0.28342503,0.12910797,0.07975333,0.039388426,-0.012721178,-0.1291433,-0.15410848,0.005761053,0.053068187,-0.028190402,-0.04427283,0.059726544,0.033754468,-0.22731988,-0.04677769,-0.015648784,-0.02785328,0.0672087,-0.043281432,-0.041495174,0.13054432,0.118261464,-0.05623724,0.015550777,0.12867907,-0.104631454,0.0418643,0.17106058,0.032370843,0.07093424,0.15346746,-0.06270982,0.11697432,0.07661425,-0.21910067,0.23338419,-0.06665541,-0.03647686,0.0845941,0.0017707011,0.050421838,-0.24184519,-0.1710799,-0.30624163,-0.07977239,-0.10981305,0.3173891,0.094567865,-0.13685809,-0.24337824,-0.013763932,-0.05717795,-0.25360703,-0.18168424,-0.013807725,0.31073004,0.004654944,0.093687415,-0.0878785,0.26869237,0.12970567,-0.17249843,0.09133548,0.02931781,-0.29231676,0.16210312,0.0015954844,-0.09985063,-0.016415624,-0.04523702,-0.015981406,-0.105033755,0.04685096,0.2620343,0.16911155,-0.07272725,-0.13932209,0.067708135,-0.12009464,-0.06544095,-0.057074096,0.29890156,0.21684018,0.059038464,0.043473806,-0.1684975,0.10938652,0.056779835,0.35690692,0.14879513,0.22595526,0.21418056,-0.19417793,-0.09295517,-0.22093414,0.066625915,0.03977278,0.1551218,-0.2253342,0.13743527,-0.15841252,-0.24768797,-0.08455806,-0.2547431,0.20911202,-0.025127966,0.17179126,-0.10166687,0.011543733,0.3881076,0.04478343,0.12061209,0.041565575,-0.0695846,-0.020963563,-0.049458485,-0.31519538,-0.4446209,-0.10386037,0.093033955,0.12781052,0.039781764,-0.07724264,0.062009085,0.20007823,0.0077875066,0.18635467,-0.24708273,-0.001515171,0.19472395,0.22664936,0.02067198,0.03308088,0.034176003,-0.20255329,-0.100415535,-0.024314787,-0.11212353,-0.27552223,-0.04118548,0.20488381,-0.12612352,0.025816921,-0.00923595,-0.09084032,-0.12035532,-0.08220134,-0.0363014,-0.115145504,0.17448732,-0.11417129,0.16850019,0.13831471,0.0041244044,0.037407685,0.009423444,0.04627294,0.04630606,0.08291157,0.04620894,0.061283898,-0.13583465,-0.063023336,0.18082117,0.0039128033,0.012932937,0.32875115,0.17336766,0.13055927,-0.09261311,0.12903732,-0.14585274,0.2531762,-0.23342371,0.028089164,-0.11028712,-0.27582142,-0.06056083,0.011488404,0.28094748,-0.2241739,0.08691958,-0.13494106,-0.04479165,0.058868416,0.3432022,-0.21695457,-0.055880304,0.052398648,-0.08915469,0.046906047,-0.0006770029,-0.02108662,0.08571476,-0.08552953,-0.06935506,0.0018101009,0.07765516,-0.13028663,-0.010422108,0.003781406,-0.14584312,-0.03691798,-0.086476274,-0.11964852,0.0970113,-0.052479547,0.009417063,-0.05784312,-0.047346093,0.041350957,0.05036961,0.19536574,-0.059776757,-0.010227586,0.18267217,-0.17899202,-0.124651894,-0.14574268,-0.24222708,0.20806953,-0.066427484,0.29619938,-0.2252199,-0.36632168,-0.010055159,0.0050225453,0.10260836,0.012995861,0.16373505,0.20425373,0.30155507,-0.35255858,0.118576474,0.16581403,-0.12857406,0.11179322,0.31216994,-0.08211678,0.13639343,0.17586018,0.043754194,-0.06716273,0.18623431,-0.095990315,0.31055298,0.06172485,-0.3019743,0.19538304,0.18528192,0.046775904,-0.012024251,0.17062849,-0.111743584,0.017818626,-0.041576087,0.14147502,-0.36909503,-0.29647806,-0.06513144,-0.047868643,0.3120674,0.09453607,0.015426323,-0.09061305,-0.088273965,0.26860657,0.07330542,0.033780042,0.05283024,0.042004116,0.06010143,0.10598032,-0.013609159,-0.08268536,0.027454572,0.19183873,-0.16430709,0.22817498,0.015299819,-0.02456796,-0.17693278,0.0070642657,0.3349787,-0.09527289,0.02063861,-0.1759613,0.13187896,0.10137537,0.1505204,-0.019221481,0.18097939,0.0026260943,-0.17215887,-0.12277553,-0.18605615,0.38159856,0.017100813,-0.052799717,0.117138274,0.27221194,-0.099596426,0.0033387167,0.27744162,-0.13484284,-0.051481605,-0.0049735084,-0.20877513,-0.22162934,-0.28301144,-0.13889888,0.28173187,-0.23524128,0.20828933,-0.053814292,-0.0042927903,0.12721367,-0.034102622,-0.12659094,-0.12591231,-0.10732781,0.07930373,0.26411033,-0.075117715,0.062266577,-0.3322204,-0.25327286,-0.054835264,0.042659122,0.053559646,-0.29200846,0.056549102,0.16042814,-0.19552931,0.006500209,-0.058571495,0.039199527,-0.076431476,0.09749569,0.012189864,0.22362605,0.23765415,0.2723429,0.15663177,-0.12682758,0.041608717,-0.04951233,-0.21865833,0.13240175,0.039284755,0.26511362,-0.18098038,-0.09864654,0.25209346,0.35394785,-0.13637789,0.28650486,0.24022186,-0.1454182,0.16130264,0.026758326,0.14207098,0.10149363,0.06666437,0.017374873,0.076549016,-0.2757222,0.30400246,0.31042546,-0.18207829,-0.03975113,-0.15730946,0.07904943,0.16941234,0.28003773,0.114397265,-0.13846764,0.08277331,0.15577725,-0.06481098,-0.21254343,-0.30380824,-0.102570556,-0.22742757,0.38082507,-0.26282585,0.106736004,-0.046156023,0.05174389,0.03235858,-0.338406,-0.053534675,0.0093493285,-0.091156125,-0.10054222,-0.046293125,-0.020209886,0.047636703,-0.09406589,0.04711205,0.106028445,0.07637287,-0.023305014,-0.0070696375,-0.0035051974,0.08104779,0.29561892,0.0018978935,0.116444774,-0.005989188,0.076321535,0.015487062,0.020477688,-0.04505946,-0.097014904,-0.06750711,-0.008604327,0.3052493,0.23226754,-0.06143884,0.19264315,-0.048606448,-0.047526628,0.03971275,0.10236636,0.02804789,0.14879411,-0.03753555,0.04554148,0.07415092,-0.18294556,0.23476289,0.20205231,0.0015446787,0.024616191,-0.11117029,-0.17579962,-0.10495497,0.25344294,0.16410281,-0.11697556,0.15983169,0.07670566,-0.11052427,0.17587154,-0.24584702,-0.03229229,-0.07433146,0.17608035,0.06340407,0.3055438,0.048596337,-0.028912034,0.08718233,-0.24616072,-0.11400066,0.0042972374,-0.10026482,-0.22166596,0.02364711,0.17310646,-0.025069319,-0.09147807,0.07823129,0.026614051,-0.009947546,0.07278395,-0.07223393,0.009673672,0.11414095,0.0012340874,-0.23785771,-0.037492935,-0.092831865,0.1041292,0.19592287,-0.09485515,0.05306521,-0.01842146,-0.024343029,0.44161046,-0.06340186,0.08413014,0.08457535,-0.08210165,-0.08312556,0.058158964,-0.27403942,0.028286397,-0.062064532,-0.19944137,0.099775724,0.021272894,-0.10353601,0.28840062,-0.32351843,-0.33976713,-0.04055543,-0.01894417,0.2122182,0.18181783,-0.07709558,-0.17788054,0.21223952,-0.052434057,-0.19931467,-0.0017539405,0.36890426,-0.11943721,0.3579756,-0.07223384,0.30319697,-0.23262115,0.088166945,0.0692653,-0.091896325,-0.00563007,-0.056356583,0.22407171,-0.057515014,0.07610822,0.3600692,0.14269313,-0.06933581,-0.05120737,-0.0069389367,0.0018150695,-0.10571759,0.0063323514,0.18009242,0.117944956,-0.009679228,-0.087980956,-0.05533657,0.035355832,-0.037815142,-0.0755937,0.10242562,0.020963417,0.15302724,-0.07864929,0.052790813,0.03614598,0.10547588,0.2428719,-0.038980216,-0.092251115,0.086459816,-0.11271869,-0.00021413424,0.07748928,-0.045524772,-0.0694551,-0.1138674,0.04867204,-0.008969133,-0.079614244,0.1252109,0.29077125,-0.18570898,-0.12327999,-0.028925514,-0.068375416,0.003943177,-0.081100166,-0.12198286,-0.10802461,0.12137525,0.14792898,0.049692973,0.08727584,0.4096908,0.1615631,0.034811504,0.2489959,0.13026121,-0.037495885,-0.032643646,0.07792966,-0.024482451,0.015871264,-0.076650396,0.18887554,0.0061636427,-0.030568808,0.17852603,-0.037804823,-0.0076647736,0.0580174,-0.06996508,-0.03382592,0.05276043,0.048424646,0.20510738,-0.04433636,-0.014206696,0.1564479,0.16920528,-0.08778705,0.10302897,-0.15623756,-0.026100323,-0.08875311,-0.06566518,0.005025761,0.010372252,0.086938635,-0.1451262,-0.15794736,0.10512231,0.08600275,-0.03337429,0.3107687,-0.057889767,-0.25306568,-0.048664104,0.09579286,0.088470235,-0.05061688,0.15240116,0.20295432,-0.15972573,0.08891456,0.06819935,0.03245648,0.07635946,0.050343882,0.16554584,0.16275907,0.24237426,0.11209943,0.00224032,0.027374703,0.1254218,-0.17335407,-0.20409513,-0.08776709,-0.1522706,-0.1498299,0.18521224,0.22104257,0.10415413,-0.06264394,0.044208087,0.06606938,0.011111549,0.06905729,0.05483944,-0.11385601,-0.28863853,-0.12636513,-0.0664661,0.06424759,0.01600661,-0.009445379,0.015410605,0.06975775,0.0047713155,0.15963754,-0.023259986,0.19527256,0.152255,0.23887928,0.10633088,0.17067999,-0.047613584,0.07545767,0.05592368,0.07567083,-0.046820782,0.1493144,0.19007832,-0.02858501,0.11229643,0.022023173,-0.016359009,0.06917063,0.15557289,-0.041677047,0.084944524,0.005262583,-0.07109713,0.040888373,0.068484716,0.02130277,-0.08202974,-0.14547765,0.16812587,0.08086468,-0.02098539,-0.076411374,0.06368365,-0.11398914,0.036548752,-0.024873909,0.10709845,0.12952457,0.052714717,-0.026240202,-0.11184194,-0.0267765,0.016416458,0.17378607,-0.08779686,0.05768615,-0.05246346,-0.046554066,-0.09776856,-0.014053266,0.08005126,-0.10999958,-0.070212506,-0.13343634,0.019197015,-0.14855061,-0.022170283,-0.032010067,0.13396423,0.02761017,-0.017754938,0.08705223,-0.038968496,0.08263456,-0.029169803,0.032121178,-0.012503882,0.14517269,0.08483045,-0.123410024,-0.124168955,-0.098273806,0.038946524,0.108314596,0.003706766,-0.048269123,-0.09131413,-0.19814537,-0.052326337,0.11300184,-0.011102305,0.2429046,-0.15566388,0.0014180787,0.052797467,-0.22513816,0.08454477,-0.05443053,0.11531441,0.039217,-0.11127053,-0.161125,0.03428557,0.046195835,0.1412335,0.031812824,-0.025842257,0.1283247,0.1585431,-0.022808991,-0.037104994,-0.09184867,0.15197177,0.0631658,-0.095652774,-0.08291955,-0.132663,-0.13625823,-0.016594246,0.3406789,-0.10052011,-0.14233771,-0.085528284,-0.055533372,-0.05593956,-0.116186604,-0.021873001,-0.005930597,-0.08591785,-0.057400066,0.020447679,-0.10390492,0.09554892,0.056905534,-0.012131522,-0.036748856,-0.1392909,-0.167002,-0.09219957,0.09367176,0.08635423,0.06177767,0.20231213,0.097109884,-0.04839341,-0.0807003,-0.075695746,-0.019389097,0.046817232,0.1668339,-0.16704145,-0.37090173,-0.07975558,-0.060176343,-0.0063522984,0.11719502,0.06538084,-0.07282958,0.12286369,-0.13770187,-0.010764089,0.27856484,-0.2215412,-0.025596626,0.16151081,-0.026735706,-0.059409555,0.13706033,-0.0036852185,0.020472007,-0.00062398403,-0.090552434,0.047534242,0.24531679,-0.060447615,0.18718599,0.19355685,0.012359363,-0.2935719,0.05686043,-0.15879773,0.04542185,-0.23816964,0.22312373,-0.22961296,-0.012578706,-0.02551566,-0.082008086,0.22613937,-0.10135029,-0.088006176,-0.08920175,-0.2375764,-0.087592386,0.011004525,-0.04280381,0.01735805,0.021405596,-0.10569994,0.10141514,-0.09284013,-0.2921464,-0.05890845,-0.06944778,-0.019516706,-0.09021317,0.06679887,0.25403753,-0.011952121,0.15672392,-0.030393278,-0.078662194,-0.0030837057,0.10192445,-0.07184665,-0.068221204,-0.06600943,0.14999387,-0.00955939,0.10021995,0.0344094,-0.09603473,-0.050110266,0.08221371,0.0024932928,-0.027261445,-0.055298805,0.014034784,0.02116466,0.11692705,-0.06457723,0.14490634,-0.03777293,-0.09177312,0.08715301,-0.120293826,0.036584765,0.20135945,0.1326651,0.051898737,0.13344786,0.012252972,0.008282713,0.0074777375,-0.12794611,0.05245323,-0.1473398,0.1533149,-0.12859975,0.15221849,0.012153648,-0.05651646,0.0073856576,0.098048486,0.058666315,0.006029154,-0.060005087,-0.07668021,0.04565235,0.017230297,-0.062224105,0.045839235,0.007615782,-0.049528666,0.13818334,0.07978243,0.03246467,0.058247447,-0.17728631,-0.034872495,-0.22865285,-0.029191317,0.018493263,0.036595553,-0.036522973,-0.011719801,0.059348676,-0.057893164,0.06579929,0.18846256,-0.2507619,0.066952586,-0.115870126,-0.02095971,0.21038409,0.013822624,-0.13657601,-0.13181524,-0.20955887,-0.087929055,0.12942208,-0.16591503,-0.03667382,-0.015346631,-0.3107467,-0.060089514,-0.102778524,-0.032705158,0.09401669,0.14335753,0.039628364,-0.09800165,0.01899144,0.10282535,-0.13793029,0.19097678,0.10059159,0.055961777,0.1823315,-0.06372122,0.23194303,-0.10610146,-0.0400596,-0.039741743,-0.05499895,0.021324586,0.022699784,0.055466216,-0.08459061,0.015803723,0.3868645,0.11021811,-0.09710417,-0.026710097,0.029839354,0.02233533,-0.018606007,0.020183109,0.122162476,0.0703199,0.016967205,-0.094276585,0.06986886,-0.026993139,-0.1295581,0.030011294,0.04383959,0.1346885,-0.01938316,-0.10195152,-0.09410746,-0.15022698,0.18689765,0.12009895,-0.07693096,0.05513362,0.06301069,0.07739165,-0.023642655,-0.12672572,-0.09021501,0.23991793,-0.0062396354,-0.1418545,0.20260456,0.23432948,-0.14776339,-0.0495794,-0.12151424,-0.158984,-0.23104894,0.03217042,0.0717694,0.1557053,-0.0003249835,-0.1431468,0.03002313,-0.13027431,-0.07936537,-0.12388037,-0.0140406145,-0.02678143,0.044754557,-0.07937086,-0.13089357,0.07471047,0.10607832,-0.053480707,-0.03572277,0.06928222,-0.23407312,-0.063294195,0.06952689,-0.027996505,0.21949825,-0.07015967,-0.026179764,-0.022475017,-0.029328268,0.04401728,-0.058052544,-0.085439116,-0.06253046,0.19130851,-0.08161716,0.106666885,0.2052423,-0.0018954332,0.12342606,0.0045816274,0.07030817,-0.10236256,-0.0064312313,0.038772207,-0.06455228,0.1414854,-0.1427379,0.049747996,-0.08028558,-0.07364982,0.0014063347,0.04459836,0.17277378,-0.024675835,0.131036,-0.015417776,-0.060675565,0.20157923,-0.29214722,-0.1694005,0.22424394,0.008213058,-0.13451603,0.1192081,-0.040237255,-0.0035774356,-0.121904396,-0.16762795,0.03569433,0.14801072,0.037301213,0.1136248,0.18240441,0.07702606,-0.037336912,0.12468208,-0.14246985,0.14631963,-0.078921735,0.05421385,-0.13380605,-0.04282145,-0.046675164,0.03915621,0.2667081,0.12823047,-0.043349568,0.06417411,-0.17348391,0.13025743,0.041945443,0.18319373,0.033142317,0.010608444,-0.003762371,-0.001226105,0.056772225,-0.23012917,-0.097876795,-0.090927914,0.024888055,-0.06115837,0.038842965,-0.022757782,0.08999659,-0.12498189,0.003446295,0.13130786,0.03690674,0.071721956,-0.15541324,0.15715207,-0.1475251,-0.042174462,0.10460734,0.06229624,0.048096046,0.14085548,0.13531922,-0.22428207,-0.17017858,-0.054792233,-0.028697012,-0.071087845,-0.07900901,-0.045885786,-0.1257244,0.08987388,0.058042545,0.03651996,0.0065676123,0.09210309,-0.20459436,0.122456126,-0.033562195,0.020292198,0.28634885,0.13613595,0.10460575,-0.057757095,-0.07462451,0.1168066,0.11040008,-0.20706081,-0.22504301,-0.15882121,0.04215874,-0.08140598,-0.13376684,-0.06957693,-0.02614029,0.00937632,0.124334276,0.10984073,0.020346938,-0.2547462,0.021071523,-0.047999393,0.0033696343,0.032556046,0.0016440272,0.20208095,-0.04844063,0.16957863,0.042959988,-0.102881275,0.18114766,-0.051229607,-0.113278,-0.034126837,-0.19117266,-0.07637556,0.03310488,0.005819661,-0.005768583,-0.013886835,-0.10900509,-0.12791811,0.025684334,-0.060331408,-0.09870469,-0.0714172,-0.018545311,-0.05617625,0.005337661,0.040422007,0.045167044,-0.011898306,0.13012797,0.011699035,-0.0844004,-0.0622647,0.055486858,-0.081404075,0.12613705,-0.11969874,-0.058835886,-0.037618116,-0.0578626,0.17250909,0.04251086,0.009728837,0.026713924,0.07806142,0.06772454,0.19739646,-0.04872824,0.13362797,-0.02339057,-0.043065134,0.000668897,0.06522732,0.051446464,0.0027968097,0.06038816,-0.021458698,-0.10313068,0.010337897,-0.053207483,0.010750539,0.1492875,-0.021969536,-0.0052995705,-0.039828215,-0.031178989,-0.2060028,0.03338583,0.0005930225,-0.075496286,-0.076178834,0.12233027,-0.08875544,-0.048585188,0.008211595,-0.014185544,-0.0036748531,-0.022539899,0.22784773,-0.0019747023,-0.042297225,-0.20277083,-0.08900554,0.02107677,-0.041780967,0.028954897,-0.024454342,0.025694434,-0.09834516,-0.061975,0.06470065,0.0066278297,0.04622287,-0.115649216,0.17965458,-0.015732553,-0.08298148,-0.026835715,-0.032434303,0.13913569,-0.033113852,-0.010007718,-0.005729066,0.13487431,-0.025958234,0.0902388,0.03732077,0.05721864,-0.107557945,-0.081632435,-0.027057001,-0.060382165,0.00039546783,0.124383956,-0.03929026,-0.11666715,-0.08851342,0.035549194,0.0066680475,-0.083892986,-0.07138436,0.12860477,0.03692526,-0.081680015,-0.03989851,-0.1066833,-0.011128786,-0.008391931,0.04225247,0.12920941,0.112045534,0.016027413,-0.0458336,0.04310286,0.0410044,-0.08441815,-0.10310123,0.023690803,-0.023064334,-0.22130485,0.10599945,-0.05166682,0.006790521,0.12724409,0.07545134,-0.16572925,0.00024459997,-0.056200165,-0.08689115,0.012976527,0.2214161,-0.016633797,-0.25797105,-0.083531044,-0.09551109,0.08297865,-0.10397096,0.03577732,-0.0457205,-0.05891175,0.11299506,0.023745095,-0.07198389,0.14450958,0.11145889,0.0944829,-0.11612707,-0.28975418,-0.0432583,0.011071894,0.022934655,0.068011574,-0.09678678,0.19803432,-0.0035428347,0.124470346,-0.010659909,-0.14407179,-0.10950779,0.007108927,0.044523705,0.21860668,0.06031045,-0.02090556,-0.03571227,0.08449906,0.0627521,0.017464796,-0.06649514,0.021756418,0.006830245,0.0066066645,0.06398437,0.13445961,-0.0025646964,0.027494268,-0.09537798,-0.050584257,-0.011529709,-0.24830993,0.055344164,0.12921955,0.11093524,-0.02806066,-0.16345972,0.059436437,-0.10773829,0.17022954,0.1849309,-0.19166647,-0.10454897,0.016278336,-0.12889886,0.017605139,0.055967465,-0.21000911,0.05634894,-0.13714284,-0.17332958,0.3543797,0.05375209,0.17661843,-0.01176663,-0.17846866,-0.2492997,-0.14473598,-0.10090937,0.18790027,0.019210504,-0.038604956,-0.24358244,-0.15004738,0.33022162,-0.19813819,0.03558384,0.19397391,0.19324715,0.3000633,0.20144835,0.27082214,-0.12725292,0.23423985,-0.19770883,0.008618635,-0.037174862,0.12180667,0.22168091,0.010441843,0.06929896,0.106308736,0.1633889,-0.005015619,0.04637611,0.20226793,0.047618452,-0.020294987,-0.09151933,0.090642594,0.17095211,-0.032223884,-0.0703951,0.0703688,0.021850558,0.095401816,0.037597276,0.006135707,0.017819604,0.025793625,-0.01792382,-0.029297365,-0.05139388,-0.033057828,0.07110029,-0.03730082,-0.17776588,0.047600217,-0.073869914,-0.0892167,0.043044627,-0.019518206,0.08303746,0.19285992,-0.08365965,-0.021842806,0.06863179,-0.08524112,0.23416573,-0.16462053,0.0026044298,-0.07669577,0.05179449,0.122858055,0.14272001,-0.06523186,-0.14611252,0.019622233,0.13859655,-0.093623996,-0.012987444,-0.060194332,-0.07434105,0.10618894,0.001027242,0.09534214,0.06728742,0.016150162,0.0040349215,-0.08421813,0.011085838,-0.044304986,0.11532717,-0.044338826,-0.070148595,-0.05081826,-0.041275233,0.0026261262,0.21915562,0.016805347,-0.08972289,-0.07453104,0.005572383,0.17121579,0.022928797,-0.0938939,-0.029259292,0.095065586,-0.031621195,0.03296267,0.023266613,0.027035713,0.0541796,-0.09891432,0.16667643,-0.081550345,0.15791209,-0.20870125,0.10528563,-0.114501625,0.1386706,-0.17958674,0.010116589,0.07664144,0.105414204,0.14719819,-0.065582916,-0.14220254,0.055820763,-0.036744304,-0.1723142,0.062572844,-0.03042319,-0.017816141,0.006055298,0.027314287,-0.016349908,-0.13087402,0.05652246,0.14449377,-0.0110536935,-0.12564567,0.07933526,-0.05511519,0.13823257,0.05489037,0.044112213,0.10045069,0.006719574,0.13899775,-0.14066009,-0.08467826,-0.20930071,-0.059939012,-0.028681006,0.11733591,0.1904175,-0.033395134,-0.058947574,-0.056775767,0.14503835,-0.090979196,-0.06699272,0.10835631,-0.03654884,0.06799796,0.055701107,0.089001045,0.06494462,-0.052298836,-0.21020545,-0.094082795,-0.2022535,-0.100661546,-0.12860246,0.028091567,-0.18820627,0.015912196,-0.0051974594,0.061162565,-0.023964975,-0.17521429,-0.017014997,-0.07807277,-0.04712252,-0.08283343,0.04091852,0.019786641,-0.013245778,0.028260045,0.011085179,-0.048444755,-0.13713655,-0.072412014,-0.017633837,-0.077998005,0.16909891,-0.13885789,-0.17897384,-0.051782515,0.05890408,-0.009454448,0.07396298,0.11306756,0.051644213,-0.18345064,0.05051381,-0.18080316,0.03148347,-0.053009346,0.065439,-0.19168153,-0.14592941,-0.027631717,-0.01397436,0.08973263,-0.10912509,0.055603698,-0.048735462,0.089289196,0.103519216,-0.048222896,-0.078632645,-0.08524564,0.04693897,-0.07540988,0.10663359,-0.12360909,-0.049896676,-0.049012586,0.0965498,-0.03756723,0.007910041,0.04567406,0.012918039,-0.07389806,-0.0063866726,-0.11765541,-0.18626925,-0.11854475,-0.14842963,0.18953511,-0.138316,-0.07106085,-0.10138911,0.08496222,0.24839634,-0.010855684,0.098479375,0.021662075,-0.020628294,0.056637622,-0.019777458,0.08497674,-0.008317211,-0.12416749,-0.03884958,-0.07890183,-0.12525629,-0.1639006,-0.115618534,-0.08058606,-0.10578673,-0.10579814,-0.09048785,-0.06402808,-0.0073320074,-0.14495575,0.08476582,-0.012915051,-0.1265978,-0.012407684,0.28966704,0.18155013,0.08894081,0.14575535,-0.0426203,0.14708029,-0.17420548,0.14914995,0.014959241,-0.05132554,0.072501935,-0.13654043,-0.25917685,-0.06842206,-0.024811186,0.04725532,-0.0700333,0.05781477,-0.045816954,0.101935714,0.0046115094,-0.068490624,-0.07472276,-0.017653156,-0.11879071,0.068893045,-0.14831004,0.033463035,0.3604808,0.23671296,0.030725628,-0.052883107,-0.023302147,-0.1512502,-0.06829504,-0.0123440325,0.13102368,-0.15234588,-0.23085494,0.31422746,0.15557691,-0.0037069852,0.081107214,0.2180938,-0.053667434,0.18670923,0.0012117242,0.008054254,0.2808444,-0.17217647,0.005741119,0.2134387,-0.14349167,0.277059,0.21381557,-0.16147344,0.009823111,-0.027808316,-0.13651207,-0.00012543733,0.25503787,0.04666831,-0.041589867,0.2562824,0.054281723,-0.03915082,0.076223396,-0.25361776,0.0750131,-0.45370987,0.2144627,-0.11882576,0.12288149,-0.05040575,0.025492862,0.035686202,-0.22948432,0.018184667,-0.11979717,-0.09711899,-0.2873154,-0.043074846,0.004683284,0.051895104,-0.005338836,-0.101282515,0.023048371,-0.034112766,-0.07818645,-0.0050169975,0.044790942,0.08392247,-0.07878394,0.066107035,0.061037287,-0.0019712579,0.0072842008,0.008358153,-0.12206545,-0.07883362,0.119187914,-0.061415322,-0.08888493,0.119045444,-0.14921747,0.0030761948,0.08347095,0.0057945927,-0.04915122,0.030985601,-0.13169146,0.017999655,0.047040462,-0.09885719,0.025992172,0.04038432,0.04743525,0.04979374,-0.06860155,-0.08196434,0.07343409,-0.0257159,-0.02556864,0.09231696,-0.043874107,-0.06761638,0.09518852,0.07309877,-0.04289269,-0.025219696,-0.12897207,-0.1337996,0.0165049,-0.13188912,0.052837208,0.04823397,0.020431608,0.04689402,-0.10033172,0.026777381,0.09707806,0.042104375,0.032852445,-0.05832052,0.055538017,-0.08136924,0.02640406,-0.06518508,0.010882517,-0.044676166,-0.038448688,0.057419647,0.06315205,-0.061575845,0.049236543,-0.045171026,-0.06935192,0.014181266,0.09109159,0.008184754,-0.04754986,-0.16335618,0.10445245,0.0055320696,0.12049938,0.0023766449,-0.028973902,-0.32547748,0.04034036,0.11554203,0.008662565,0.08068148,0.24284811,-0.017969899,-0.10290664,-0.09618876,0.08799819,0.07650245,-0.053044457,0.0786197,-0.027411073,-0.20170309,-0.04875517,-0.027324077,-0.026973158,0.14532235,-0.041706827,0.12477738,0.11276558,-0.10225754,0.09671134,0.008969411,-0.07460597,0.12416901,-0.0072827274,0.015646616,-0.027147742,0.052402504,0.03218861,-0.38469586,-0.23291624,-0.014696893,0.008415125,0.12945215,0.13369042,-0.09652551,0.026277553,0.18530023,0.17554863,0.056140453,-0.047703672,0.06380218,-0.011821375,0.04656733,0.01771079,0.06486996,0.09490144,0.010484018,0.04921286,-0.12140012,-0.06501734,0.008996657,-0.047047887,0.06256571,-0.026112726,-0.03767767,-0.012052727,-0.043565694,-0.14093259,-0.030926304,0.14891146,0.025867168,0.14222409,0.067909494,0.012969023,-0.03164703,0.030797902,-0.06417956,0.027757002,-0.009151455,-0.010626635,0.021131031,-0.02088931,-0.024247808,0.0021502972,-0.016361138,0.079363056,-0.060815863,-0.020810613,0.0148909725,0.08222152,0.050236326,-0.047020175,0.026764806,-0.089933775,-0.017894153,-0.009539312,0.09699532,-0.05763424,0.13982652,0.05959921,0.07378833,-0.012455385,0.037188724,-0.0936035,-0.09909286,-0.034234945,-0.0037716846,-0.051941536,0.024902647,-0.0018113536,0.08248007,0.1150108,-0.016407747,0.031038798,0.05389628,-0.03912898,-0.051490862,-0.03319061,0.08409419,0.0062724375,-0.11761187,0.06208912,0.15110175,0.048019446,0.10602284,0.042764597,-0.17692111,-0.023308378,0.12741677,-0.0019689975,-0.08060558,0.033411555,0.10790601,0.037576083,0.086958595,0.008606915,0.15949841,-0.16720168,-0.08739936,0.14530809,0.09200582,0.11226509,-0.0927398,0.019268839,-0.1680196,0.024583496,-0.035721816,0.113153525,0.15781488,-0.31232306,-0.22531465,0.020624166,0.07059817,-0.1588986,-0.029253783,-0.20729269,0.14523019,0.16341595,0.08646082,-0.021306537,0.1026227,0.113909945,-0.0592389,0.0427776,-0.05675263,-0.1654495,0.046679754,0.03308758,0.015509158,-0.047277115,-0.039976124,0.00080843887,0.047922306,0.028745642,0.098401435,0.037833113,-0.029513096,0.021787368,-0.053814005,0.016836777,-0.087372765,-0.01038119,-0.05938618,0.11298014,-0.005816163,0.14725828,-0.13431065,0.13328409,0.087494224,-0.00085955625,-0.07140293,-0.043738935,-0.037618354,0.076443225,-0.111564085,0.16564755,0.073508866,-0.096024305,0.18328603,0.117740214,0.08031601,0.096009985,0.048243377,-0.050178997,0.028630732,0.014121762,0.13912098,0.058775004,0.06386627,0.09516096,-0.094576836,-0.054953344,0.010571391,0.0106605,0.050153222,0.06007341,0.16277501,0.109478556,-0.025437793,0.10112429,0.13054681,-0.051891778,0.14904723,0.03113231,0.077937976,-0.08652888,-0.051381845,-0.124401204,-0.17656377,0.2678465,-0.06605597,0.107361786,-0.055945918,-0.07781794,0.007522235,0.011832153,0.031157626,0.048884153,0.0940079,-0.21450894,-0.053978864,0.08106528,-0.15631285,-0.066155046,-0.0638078,-0.0037359812,0.05483236,-0.08502343,-0.053369906,0.060970616,0.07309832,-0.00040639302,-0.106084295,-0.009809497,-0.10458353,0.11013319,0.0337639,0.07363808,-0.06972722,0.1862455,-0.16244848,0.12756293,0.020563224,-0.06839541,0.017456993,-0.03560568,0.122238256,0.027144816,0.08372218,0.18205474,-0.119256124,-0.18033344,-0.050431903,0.037255283,-0.14007981,0.27943996,-0.027404292,-0.15503007,-0.098534554,-0.058414835,-0.13431072,-0.12864785,-0.1325057,-0.11085012,0.2973158,-0.020602493,-0.061827406,-0.14722948,0.3177386,0.01514258,0.03692648,-0.010588422,-0.03185948,-0.28044724,0.1199893,-0.015711926,0.05828719,0.004525013,-0.25318983,-0.011258973,-0.09282474,-0.06517965,0.3146567,0.13045129,0.044588696,-0.085515976,0.0041224193,0.002482081,0.045389466,-0.17778713,0.09648433,0.26628944,-0.066217095,0.020696132,-0.015532959,-0.005242781,-0.07304971,0.25795317,0.05161221,0.15725423,0.21038301,-0.07959856,0.045629002,-0.1209172,-0.022061933,0.030612273,0.3216644,-0.17315519,0.025146278,-0.11157319,-0.22706212,-0.113554776,-0.19056432,0.18291692,-0.0011229769,0.07856928,-0.16810845,0.19167899,0.09811361,0.14778279,0.18160602,0.06743249,-0.02415257,-0.009869036,-0.13937746,-0.31996468,-0.33703393,-0.033131413,0.05343148,-0.022331545,0.10147841,-0.107256345,-0.06723375,0.16202407,-0.118607074,0.026028965,-0.20690754,-0.051606417,0.22496367,0.30530182,-0.03065292,-0.08573778,-0.13587381,-0.08632994,-0.07934305,0.011544844,-0.0840346,-0.2663273,-0.066268556,0.14495678,-0.038282707,-0.05192072,0.015019374,-0.011402623,-0.02098804,0.067334644,0.015446424,-0.07584305,0.042686716,-0.10035405,0.12757483,0.11538267,-0.06510387,0.04746057,0.06742152,0.06338247,-0.08482423,0.15608928,0.15399699,-0.031875554,-0.08609541,-0.13670114,0.09415141,-0.09641036,-0.051688775,0.078250155,0.12220308,0.077568926,-0.047310073,0.096470505,-0.14009286,0.09000669,-0.08114203,0.042964302,-0.1334644,-0.18532057,-0.10652374,-0.025130479,0.22770469,-0.17965312,-0.11521006,0.043684408,0.03067786,0.03232288,0.1514319,-0.14984435,0.0037185939,-0.012048944,-0.13494098,0.114587575,-0.022361122,-0.05738461,-0.009715071,-0.129127,0.056072406,0.046359397,0.039935462,-0.0923787,-0.029940147,0.0057519213,-0.08430504,-0.15538003,-0.025979795,-0.054311257,-0.058903035,-0.1148076,0.040240407,-0.09959873,0.0052873697,0.06485672,0.07610464,0.16105841,-0.14591229,0.08606294,0.08000896,-0.022906007,-0.15362225,-0.07716232,-0.1186131,0.2004605,-0.006701005,0.027642852,-0.0036629194,-0.18032818,-0.0038271514,-0.02070266,0.13027614,-0.010984387,0.08667661,0.33764088,0.20642218,-0.13358057,-0.15049939,-0.026713252,-0.04567963,-0.02909709,-0.053657662,-0.18767796,0.0997746,-0.051393438,0.10353048,-0.08284094,0.11975988,-0.21916637,0.0005587846,-0.026964039,-0.2459712,0.09688005,0.25587088,0.049295075,0.08758887,-0.00132928,-0.059059665,0.068577744,0.1178614,0.052371223,-0.24530166,-0.39389664,0.014875705,0.06775524,0.2026781,0.06368598,-0.09454746,-0.057147726,0.14216873,0.13665624,0.042855233,-0.11396399,0.040745437,0.071446076,0.0018443262,0.03392949,-0.0883264,0.03990745,-0.04617362,0.121119924,-0.14173448,0.25886288,0.106758446,-0.037898578,-0.18537253,0.042169202,0.03469568,-0.03474458,0.016674519,-0.023451114,-0.042568453,0.15663089,0.051875245,-0.0803325,0.005583356,0.013936269,-0.0038472284,-0.10404008,-0.054778006,0.21341515,-0.04070335,0.1323371,-0.16538605,0.10928404,-0.19306408,0.011011013,-0.044279784,0.007365271,-0.015239102,0.060585782,-0.037706383,-0.19417498,-0.03235675,-0.0597221,0.16246875,-0.2720992,0.15230219,-0.1924104,0.055533417,-0.022753974,-0.14999649,-0.05759123,-0.24194694,0.01059648,-0.0065275603,0.049171705,0.064043246,-0.00022990523,-0.23971097,-0.3080974,0.053289615,-0.047100656,0.017800743,-0.12937352,-0.100630395,-0.05533906,0.0021169668,-0.023785537,-0.022861326,0.001765245,-0.016003018,0.12834795,-0.044458628,0.26567972,0.13658053,0.09593832,0.15264714,-0.03702373,0.042433407,-0.17706574,-0.15010601,-0.0055025187,-0.05271748,0.13718648,-0.118410125,-0.19847023,0.24354957,0.15721236,-0.2026286,0.15398164,0.06633537,0.05407813,0.12520005,0.008723576,0.11072962,0.104848385,-0.008707327,0.028456252,-0.010217812,-0.16857548,0.054757923,0.20720683,-0.111290425,0.070967786,-0.16873538,0.10603187,0.22803827,0.14621326,0.004746941,-0.081104286,0.13951884,0.047438994,0.026188456,-0.11645878,-0.25367895,-0.19426104,-0.25214246,0.23829821,-0.10946973,0.12777129,-0.05140588,0.0636309,0.07667395,-0.21473327,-0.04203258,-0.08162407,-0.109800495,-0.18873727,-0.05885116,0.11817535,-0.020396853,-0.045666285,0.060225505,-0.04432855,0.14344946,-0.112019755,-0.018855516,-0.0025882705,0.109341025,0.2863562,0.13272877,0.102765135,0.02643412,0.056004066,0.09488278,-0.016134344,-0.06538711,0.060363777,-0.20555538,0.07981721,0.37202123,0.2824903,-0.031201983,0.24476975,0.08465302,-0.14097443,0.18114057,0.22249943,-1.2441555e-05,0.18671815,-0.123691864,0.0022798257,0.008319238,-0.026821451,0.18538247,0.279727,-0.0006023104,0.07329321,-0.1452737,-0.13084905,-0.077150576,0.20603928,0.27754584,-0.07735176,0.22235516,0.1017004,-0.11671738,0.02437247,-0.22390638,0.039944705,-0.10421505,0.1723604,0.07177333,0.21041858,-0.09262594,-0.06454262,-0.04751468,-0.11911699,0.036267377,-0.034737635,-0.08784867,-0.2971465,0.035237543,0.10051782,-0.041135795,-0.05306881,0.054753136,0.0011293748,-0.0474314,-0.015684336,-0.008221855,0.106526874,0.16435587,0.13646905,-0.10724874,-0.08417044,-0.03093787,0.047374155,0.19824246,-0.042304322,0.037960716,-0.002814975,0.07936811,0.27135623,0.06839773,-0.0239238,-0.049306158,-0.037921317,-0.05968991,-0.20531513,-0.123344146,0.12651382,-0.01237247,-0.13086605,0.10110673,0.08998639,-0.05634273,0.12685348,-0.13109408,-0.037744533,0.10468351,-0.07815068,0.027244894,0.10628317,-0.08661217,-0.113776445,0.10082193,-0.042225532,-0.14336246,0.0353933,0.09953918,0.016111633,0.11062938,0.012231992,0.18422233,-0.19056243,0.087109685,0.10842944,0.021914475,-0.06814633,-0.21960549,0.029706316,-0.08811472,0.08970811,0.24395467,-0.07717212,0.055601984,-0.073409185,0.14011759,-0.106377065,-0.11254785,0.052023847,-0.02694193,0.10309952,-0.037651997,0.099685535,0.08259335,0.03547365,0.11611768,-0.02258627,0.0444912,-0.07831097,0.09331369,-0.1543702,0.06873008,-0.030265253,0.16712976,0.22982714,-0.04901736,-0.031796966,0.118795715,-0.030618051,-0.08317162,-0.054178733,-0.1744761,0.09292003,-0.12924775,-0.057299815,0.045662425,-0.06831303,0.15160564,0.1252234,-0.050431088,-0.03637943,0.03127965,-0.031267323,0.0065328535,-0.056266036,-0.16862345,0.03131852,0.11495693,0.1894715,0.07469068,0.05977598,0.3382042,0.057165876,0.13801228,0.31370375,-0.0132071115,-0.10761242,0.073480606,0.07592272,-0.010806896,0.012234818,-0.11811799,0.12969066,-0.031768996,0.048551723,0.16376427,-0.104729235,0.011387299,0.039799195,-0.1676299,-0.07010203,0.04513836,0.035632174,0.19222572,-0.12473211,-0.024241915,0.1512992,0.29180413,-0.056056906,0.16133673,-0.11549327,-0.052337565,-0.08481535,0.12521026,-0.13729516,-0.0109096095,-0.106983334,-0.08118032,-0.17765276,-0.053655196,0.14643086,-0.050773807,0.27866003,-0.066678196,-0.06313825,-0.040144462,-0.010714134,-0.027250234,0.054921508,0.10299042,0.12580115,-0.21416269,-0.059078835,0.05909698,-0.035653923,-0.028574714,0.061912198,0.02839042,0.03313953,0.29840627,-0.0033917928,0.05814022,0.06794506,0.07341664,0.086777456,-0.17237906,0.013064913,-0.09562745,-0.013177266,0.19370288,0.18101439,0.059252005,-0.11223541,-0.05723022,0.024506755,0.08636209,0.040107213,-0.10369895,-0.0179984,-0.11648667,0.07064824,-0.05920374,0.06986766,0.03041881,0.07255429,0.008838733,0.023333028,0.010234673,0.12723522,-0.11904876,-0.03629663,0.07163214,0.06000878,-0.029719308,0.1531674,-0.04368736,0.0930638,0.050675508,0.0867621,-0.0157915,0.09963476,0.057679355,0.004058975,0.058273714,0.1355337,0.092304565,0.016457703,0.076728135,-0.0064297304,0.15376996,0.08089572,-0.034444597,-0.0133173615,0.0658321,-0.017712703,0.052982766,-0.0073033744,0.100585155,-0.007626932,-0.044915635,-0.05506046,0.08911213,-0.034260977,-0.070815094,-0.04988772,0.018022558,-0.04249597,0.11558678,0.042832777,-0.017264143,0.0843434,0.17286795,0.13284507,-0.051277664,0.038297325,0.024247585,-0.0012079957,0.037125085,0.0027640413,0.024424253,-0.04512433,-0.08975595,-0.04130279,-0.01761954,-0.11205121,0.0061598932,-0.048573602,0.11791796,-0.119911164,-0.12268597,0.09644644,-0.058490686,0.065053664,-0.09262142,0.12145239,-0.036942277,-0.0049748598,-0.020386407,0.020088628,-0.03829395,0.0018931058,-0.007925583,-0.0576802,0.04507925,-0.16904393,0.008738899,-0.01894836,-0.038685452,0.038592353,-0.039365232,0.13590129,-0.13561678,-0.006034287,0.044941872,-0.1310644,0.09185772,0.02269139,0.3150276,0.17302041,-0.30415106,0.016771052,0.007863336,0.012873377,0.066300206,-0.039329324,-0.048499696,0.20887774,0.11168062,-0.01449287,-0.18711638,-0.2043991,0.04550495,-0.022715833,-0.14934716,-0.109266326,0.01509961,-0.22786063,0.047247306,0.12600361,-0.050241224,-0.10207286,0.076139964,-0.0320243,-0.217726,-0.12155722,0.04176389,-0.009734338,-0.019025963,0.0820954,-0.07211342,0.042124532,-0.015795877,-0.06356946,-0.050768815,0.04089363,-0.046960965,-0.06538742,-0.0009004099,0.11902448,0.09060826,0.07035441,0.128266,0.021669747,-0.043395154,-0.09091887,-0.044142917,-0.013628363,0.03381558,0.2166991,-0.042482644,-0.2299779,-0.1366926,-0.027676383,0.00011782152,-0.062649585,0.024800984,0.08060652,0.13944131,-0.13223244,-0.04372705,0.14573263,-0.05888179,-0.05349555,-0.011177334,-0.041151434,-0.14077991,0.08184514,0.036808588,0.04201552,-0.010377953,-0.07654293,0.04718129,0.10961601,-0.17131352,0.066946276,0.054824177,0.046469625,-0.03463658,0.07161833,-0.095592506,0.062847205,-0.16296476,0.20921397,-0.19064774,-0.11650958,-0.0864482,0.0523972,-0.01923572,0.050336856,-0.11806617,0.022766953,-0.14866167,-0.09958186,-0.018397989,0.074392885,-0.042947073,-0.052576512,-0.04761213,0.10886019,-0.09400012,-0.20587498,0.030042503,0.019047318,-0.11241395,0.051014747,0.018941533,0.08483108,-0.18367513,0.097836144,-0.062746875,0.045380317,0.046814505,-0.0114951935,-0.063333996,-0.018317986,0.05045409,0.11798458,0.02326852,0.05256769,0.036860615,-0.07634904,0.0066154106,0.12918632,0.01417418,0.011767285,-0.056519695,0.007141325,0.06989962,0.057356425,-0.022886766,0.07500575,-0.031834282,-0.03428332,-0.030130338,-0.18061297,-0.09321533,0.11552187,0.11601337,0.05722672,-0.0013447816,0.026357217,-0.012256035,-0.012066779,0.047946595,0.037508335,-0.03919453,0.061285723,-0.030397182,-0.0037101167,-0.054396134,0.044030324,-0.029957276,-0.037593964,-0.00927479,-0.07875779,0.048697375,-0.0042485707,-0.031065349,0.007849993,0.05844913,-0.037481144,-0.039058972,-0.011429537,-0.025676413,-0.004604086,0.062226396,-0.0076888646,-0.17359138,0.09389125,-0.144234,-0.023511939,0.09167096,-0.06288001,-0.10305433,-0.10149636,-0.05220294,0.1299068,-0.059145927,0.19844969,-0.19384362,0.027552009,-0.12935463,-0.19429134,0.1646757,-0.012591329,-0.1520002,-0.12042918,-0.142591,-0.1434647,0.09981709,-0.22506435,0.038812503,0.07215961,-0.21464825,0.015950771,-0.23208973,0.046934105,-0.05637745,0.12724629,-0.012131972,-0.038329918,0.05619722,0.09579921,-0.19128184,0.16883567,0.2498087,-0.046080504,0.08995953,-0.07141366,0.25599334,-0.26152864,-0.028463654,0.06840254,-0.0037030794,0.060455993,0.09152686,-0.038132492,-0.016287731,-0.05131353,0.15657377,-0.016251322,-0.031902753,-0.071729675,0.035501927,-0.09371194,-0.02674589,-0.0007462136,0.17920642,0.07739067,-0.04647911,-0.1367228,0.015389372,-0.10319881,-0.09245741,0.076744996,0.059132133,0.059348736,0.03959951,0.03852365,-0.062971234,0.016073756,-0.009408912,-0.07735539,0.07294632,-0.061813287,-0.025365623,0.081344485,0.03965351,-0.09916856,-0.10703581,-0.0015381695,0.118213095,-0.028831856,0.053897545,0.002314448,-0.06525363,0.10189274,-0.00095006183,0.022359,-0.22187102,-0.083076105,-0.061181087,0.13414514,-0.01199875,0.026855528,0.02722904,-0.00386475,-0.06284554,0.030627746,0.05222499,-0.22581123,-0.037066225,-0.088476375,-0.09265622,0.05294707,0.09016956,0.13881226,-0.008930891,0.0069706296,-0.116618015,-0.029468752,0.04613038,-0.069616,0.10433701,-0.0646322,-0.0794245,0.058136784,-0.032958142,-0.0333937,0.06948614,-0.017241895,0.13061452,0.13554566,-0.026910607,0.09940192,0.04642872,-0.1109776,0.043046173,0.07070991,0.092564605,0.0631716,-0.07276359,0.10702371,-0.032760352,0.22011557,-0.102810465,-0.029663658,-0.104060546,-0.09397378,-0.029460942,-0.02049499,0.06776158,0.016588934,0.05489937,-0.0076144156,-0.0107130995,0.04166042,-0.054614868,-0.03521164,0.19903973,0.05726055,-0.046869,-0.05867765,-0.03909337,0.0721803,0.045951467,0.01822926,0.08780608,-0.13376641,0.043126583,0.17189032,0.079578154,-0.0701706,-0.011013212,0.025951086,0.030182146,0.18759042,-0.0987696,-0.015159449,-0.14133881,-0.0075013987,-0.022514572,-0.107161485,0.19749786,0.057094302,-0.08627931,0.016829666,-0.033119224,0.0035610325,0.03152721,0.07460025,0.06748631,-0.06793312,-0.089362204,0.07928844,0.13640253,-0.13574423,-0.09248456,0.026506111,-0.08471055,0.13065456,-0.07941666,-0.13793486,0.11831993,-0.23316185,0.082659505,-0.015668007,-0.01888957,-0.073227175,-0.12243088,0.15693945,0.028120445,0.013541105,0.095623195,0.032882176,0.006851845,0.040374454,0.03611357,-0.10017135,-0.14207825,-0.07072871,-0.028554205,-0.17699964,-0.021260856,0.0008077739,-0.08987987,-0.046975523,0.15045123,-0.016021507,-0.0522789,-0.04763085,-0.082590915,0.106519446,0.043628264,0.011464943,0.12685695,0.19107792,0.18909828,-0.062396113,-0.016727403,-0.042832788,0.123894915,-0.14754182,-0.074354544,-0.13962623,0.050212886,-0.01615097,-0.11666761,-0.15401302,0.04487726,-0.059395384,0.1000439,0.16023247,-0.030111656,-0.14217827,0.0013374601,-0.03286556,0.005721258,0.035561882,-0.03172813,0.06664192,0.079569206,-0.0010356836,0.20112729,-0.16103673,0.09242216,-0.056288976,0.045038093,-0.014792435,-0.16345406,-0.15816493,0.06130637,-0.06918097,-0.15734719,-0.10381444,-0.0708129,-0.0039507807,0.07086299,0.0678915,-0.020550523,0.047298957,-0.029855974,-0.18365544,-0.021691028,-0.021040063,0.16311343,-0.15698479,-0.04137922,-0.0765393,-0.12784776,0.03289078,0.11438573,0.07283704,-0.024229009,0.0062500522,0.09017399,0.0010544256,-0.26958904,0.11146404,0.06686052,0.13255487,-0.094074585,0.070407316,-0.028127026,0.04326312,0.09533129,0.11654838,0.026930071,-0.15705058,-0.0505807,-0.0179854,0.015670659,-0.08020602,0.020742165,-0.052946024,-0.058809817,-0.023649402,-0.061142843,-0.023901673,0.031114891,-0.050341483,-0.12113972,-0.13844624,-0.09512112,-0.1172186,-0.008065592,-0.035088956,0.089021966,-0.030667,0.08020989,0.059972163,0.102226265,0.06112993,-0.21699771,0.02834218,0.036583405,0.099481136,-0.05818262,-0.116598375,0.054921962,-0.047633313,-0.029038232,-0.012566918,0.12536025,-0.13031775,0.058537565,-0.037910853,0.029796274,0.07325258,0.07969053,0.13739146,-0.09890533,0.085555896,-0.14062716,-0.08339195,0.022811338,-0.11009721,0.1352181,0.08304045,0.018328678,0.036688264,0.0032945292,0.03890913,0.0014497257,-0.023064641,-0.049077127,0.004115513,-0.016392507,0.0624274,0.019466072,0.04079654,-0.061101567,0.01518966,-0.05779505,-0.06178559,-0.112892255,0.05485104,0.011468613,0.015384385,-0.040176235,-0.036711235,-0.0720404,-0.038731936,0.12643883,-0.11423191,-0.004240758,-0.013624264,0.09664606,0.07119846,-0.008287355,0.016262515,-0.016953455,-0.035892874,0.0009930447,-0.06782512,-0.038558077,-0.088039674,-0.092548355,0.0004927848,-0.06901428,0.06884767,0.008924248,0.0046391822,-0.11035275,0.06877891,0.0154753765,0.042968277,0.040617485,0.2157989,-0.055496708,-0.14855498,0.04740649,0.06917947,-0.08409626,-0.10002059,0.08437285,-0.022300115,-0.02687625,0.013593494,0.06827802,-0.05032151,-0.025682067,-0.07944087,0.048239533,0.10747132,-0.1984325,0.045743864,0.14283897,0.10079085,-0.030773304,-0.0532783,0.05577543,-0.07282059,0.05354152,0.01736701,-0.2564778,0.041727807,0.033418022,-0.0004886478,0.046966698,-0.056698177,-0.024129659,-0.0036946842,-0.023488829,0.13466857,0.018332398,0.13284646,-0.02184169,-0.06644117,-0.09824946,-0.07776075,0.037944824,-0.025841534,0.0033879306,-0.065000944,-0.040857438,-0.0048931446,-0.18832333,-0.0669072,0.15550052,-0.07818776,-0.06229219,-0.012374889,-0.06996712,-0.034599062,0.011492678,0.23427986,-0.112694815,-0.037376113,0.048918292,-0.14657119,0.11822846,0.10521392,-0.19801006,-0.024859138,-0.16161962,-0.09538123,-0.018196207,-0.09185367,0.31124318,-0.03564525,-0.047326546,-0.120600514,-0.07155562,0.06976918,0.061185025,0.08569502,-0.08545416,-0.14150493,-0.23005103,0.24794291,-0.14488536,0.1266989,0.09496252,0.26892057,0.16989951,0.15050542,0.20720641,-0.33522415,0.10694682,-0.022453409,-0.089122884,0.02441282,0.16504121,0.04396491,-0.10295785,-0.123258844,0.028984271,0.011399267,0.047692195,0.14468779,0.12722492,-0.08420552,0.016163975,-0.09769109,-0.0131001,-0.1347225,-0.07407937,-0.1477782,0.1304435,0.04267415,-0.12309755,0.07377692,0.03250036,0.04499027,-0.028669376,-0.0940642,0.037012566,0.058298975,-0.08464407,0.011974301,0.0060463264,0.0987891,0.010495229,0.09877381,-0.057848472,0.001294979,-0.05281717,-0.027753582,0.11715143,-0.031479113,-0.02528289,0.06665696,-0.015237079,0.11306162,-0.036090862,0.03883456,-0.07800338,-0.09990384,0.053316377,0.0874846,0.02514718,0.09367602,0.07368687,-0.020373907,0.005612725,0.040189136,0.0098484475,-0.021786427,-0.04672056,-0.03597664,0.02507604,0.049210038,0.19669047,0.05973071,0.0010257555,-0.019735781,0.017204106,0.08587491,-0.008247294,0.051889062,0.07538994,0.13429776,0.06324323,0.101357244,0.047737774,-0.08427159,-0.03602715,-0.10523072,0.089248605,0.0053619035,-0.06407944,-0.038217142,0.082850285,-0.14874484,-0.071637675,0.057485048,-0.115876466,-0.030696021,0.061963424,0.07391749,-0.0070299706,0.071409136,-0.13597734,0.20658305,-0.18968971,-0.059105758,0.035993446,0.042081647,0.09749865,0.037606936,0.08158113,-0.14179963,-0.056182064,0.13333976,-0.17498179,-0.113737755,0.057538968,-0.015008161,-0.045400403,-0.08985851,-0.065193936,-0.049905144,0.10142391,-0.075737715,-0.069081254,0.09693141,-0.18401179,0.055591524,-0.02853721,0.049857505,0.026946224,0.14741968,0.10144917,-0.097959824,0.25631234,-0.1538203,0.1857567,-0.14305517,0.030117355,-0.082506076,0.005329646,0.16978125,0.0018307583,0.0050296905,0.025504386,0.24237764,-0.10350466,0.01365965,0.028960427,-0.02835699,-0.0303084,-0.06801683,0.048791092,-0.012037772,-0.073816136,-0.124947414,-0.2641237,-0.050402373,0.074676804,-0.122135326,-0.10812178,-0.17910749,0.068795435,0.0558912,0.043786358,0.054802034,-0.30930743,0.06823573,0.06466049,-0.059386913,-0.16371174,0.0969388,0.056683198,-0.1224017,-0.011432307,0.03692631,-0.061133873,-0.16141619,-0.19364522,0.025467256,-0.16290973,0.17025909,-0.2200636,-0.13110183,0.115088575,-0.042038824,-0.09324783,-0.045265377,0.00058025925,0.23517475,-0.00833754,0.008111258,-0.01613181,-0.04290724,-0.02452393,0.09429704,-0.15118137,-0.06527493,0.12966888,-0.10340922,0.17751516,0.07293177,0.027919523,0.052691184,-0.16831636,-2.6329799e-05,0.03374664,-0.044638433,0.0047486345,-0.004615186,0.060612302,0.15449855,-0.080615334,0.043714866,-0.02495548,0.028478276,-0.0494871,0.03851199,-0.06796748,-0.1443019,0.024731953,-0.012266735,-0.024425356,-0.06847389,-0.13535075,-0.14864126,0.04023327,0.013132987,-0.0073708254,0.10067034,-0.14431363,0.13488129,0.06095673,0.019624049,0.021250987,-0.019932715,0.15962356,-0.040789958,0.18259785,-0.02809916,-0.037083376,-0.014434824,-0.18819463,-0.11889393,-0.08969159,0.07782655,0.124283195,-0.0135625135,0.003876146,-0.087282956,-0.13205677,-0.04695914,0.04732344,0.24248968,0.026392834,-0.08835637,-0.05259369,0.21024652,0.019600412,0.026706727,-0.1854454,-0.108828776,0.05713693,-0.13675505,0.08564935,0.15177749,-0.008338623,0.08069246,-0.073821194,-0.0047964333,-0.037668325,0.009151055,0.1361576,-0.13714148,0.051913224,0.07979427,0.11371903,0.038170498,0.043546498,0.03884742,-0.050498176,-0.1949816,0.03973471,-0.11714784,-0.20160884,0.093772404,0.112416975,0.12512675,-0.055663515,0.024745023,-0.0107958,0.07142397,-0.0063488353,0.0781748,-0.13846444,-0.18343143,0.14195335,0.016601495,0.060135707,0.028391147,0.035169423,0.07463772,0.15986991,-0.12524827,0.062597476,0.19976556,-0.11019065,0.036390927,0.15519428,-0.021489505,0.14278585,0.1623143,-0.10253611,0.01286059,-0.0059355255,-0.06342806,0.01998375,0.1719898,-0.009504237,0.023166304,0.13104124,0.089791596,0.04431805,0.16305293,-0.09667146,0.10172423,-0.220285,0.15228805,-0.08134714,0.19731997,0.009903459,-0.027766893,0.17346926,-0.10237289,-0.03027541,-0.013101381,-0.08761198,-0.07117476,-0.09401592,0.09473647,-0.05371253,-0.046942133,-0.12396062,-0.03554981,0.108868234,-0.11693971,-0.017078405,0.067564435,0.08346946,0.030098692,0.02489363,0.10791565,-0.059400827,0.058891196,-0.051990032,0.042951573,0.04274081,0.044249468,0.03740272,-0.2009538,0.07727257,-0.095157556,-0.005166374,0.053435244,-0.15346625,0.12236051,-0.07193763,-0.09560203,0.14711775,0.04818498,-0.14673375,0.011650498,0.09787263,0.025408937,0.0070279813,-0.02634147,0.13005762,-0.005402236,0.016377674,-0.09873366,-0.02197291,0.04746918,-0.04970118,0.080790296,0.14470294,-0.07186169,0.006506788,-0.058531556,0.034549266,-0.086297065,-0.13180156,0.04664144,-0.058287688,0.032397833,-0.056199975,-0.09025466,0.04861901,0.049529623,0.0022144585,0.03557382,-0.0907367,0.018506335,0.020256734,-0.037772097,-0.12587044,-0.05772801,-0.025704611,-0.0027128444,0.110880576,0.068277374,-0.04701958,0.08077422,-0.10275496,-0.071795635,0.057748295,0.1524572,0.08227871,0.17616746,-0.0671065,-0.08570208,-0.10951385,-0.07349349,0.0017504188,-0.1329711,-0.2521751,-0.11323427,0.08889453,0.040789012,-0.17660207,0.18898882,-0.023452558,-0.08732502,0.06719394,0.017166223,-0.071504466,-0.02129316,0.0149434,0.18381895,-0.07262472,-0.056952126,0.079074636,-0.02177354,0.20846571,-0.07294951,-0.013440218,-0.021670211,-0.16176522,0.008461764,0.03270079,-0.10789199,0.10002128,0.020897742,0.06787004,-0.0138151925,0.018836632,0.118562885,-0.27478775,0.002938737,-0.08170122,-0.065691225,0.14928602,0.002614281,-0.045543917,0.04290317,-0.007961401,0.011304262,-0.026405185,-0.019687664,-0.032107707,-0.07030894,0.04812378,-0.06257579,0.08703929,0.014618486,0.061368734,0.07529033,-0.28230178,-0.016889459,-0.05807717,-0.1025142,-0.00801671,-0.056981277,0.059795916,0.038790997,0.0200509,-0.097182244,0.021686256,0.10346318,-0.026144076,0.16713664,-0.13911015,0.004056689,0.04401739,0.06396593,0.04047024,0.035498828,0.008377215,-0.028292868,-0.0029072936,0.047250636,-0.08097995,-0.06780351,0.044081658,0.024649432,0.0130419675,0.018898323,-0.062453438,-0.05497766,-0.0140942875,-0.0059060752,0.007624982,0.01998305,0.035646476,0.07219686,-0.023411753,0.07295211,-0.046486516,-0.04046696,0.13063486,-0.04099583,-0.008759765,-0.121318705,-0.018986922,-0.06225579,0.047319267,-0.082003824,-0.04591625,0.10825729,0.004817353,0.10844712,0.015693069,0.07601278,0.09805935,-0.073579386,-0.083105646,-0.010021872,-0.040562555,0.082294315,0.034998156,0.060581714,-0.026223246,0.06527932,0.09821624,-0.091394424,-0.092509896,0.053908024,0.16616105,0.024682634,0.029107071,0.020743065,-0.057410564,0.043803178,0.15744847,-0.17618856,0.34986186,-0.14497586,-0.075646505,0.043859653,-0.07650618,0.028573966,0.010445551,-0.0031155043,-0.14609231,-0.089207605,0.060774118,0.16414012,0.17460172,-0.08686903,0.03755696,0.026159069,0.0037583685,-0.19348787,-0.10982552,-0.06863352,0.20563696,0.13442425,0.19897054,-0.0696932,0.059218988,0.08019417,-0.1215643,0.15599205,0.052103356,-0.124763325,-0.023118569,0.04229493,-0.0014534742,0.07296813,0.045996856,0.026346052,-0.0906234,-0.098202564,0.009986044,0.1369225,0.059956975,0.09006781,-0.10765008,-0.058354672,-0.082191326,-0.106972426,-0.060664658,-0.12454535,0.042720947,0.019560033,-0.039505742,0.07457565,-0.0070025465,0.12022265,-0.09867791,-0.0024891593,-0.09906317,0.020272462,0.01475921,0.059538938,-0.029061917,-0.10742951,0.07152054,-0.08356796,-0.05382299,-0.03663947,-0.047958955,-0.06488309,-0.10280955,0.09104432,0.111738145,0.21077244,0.022914357,0.092551626,0.08439122,0.020605927,-0.11447336,0.010796444,0.021281915,-0.15177049,0.038843956,-0.04422467,0.06956912,-0.008527191,0.12682827,-0.11016188,0.06780061,-0.009429686,-0.006186556,-0.10530293,0.0028841326,-0.06175533,-0.21851256,0.12114913,-0.03676647,-0.024680434,0.028759273,0.041835323,0.02417308,0.01862362,-0.014401592,-0.054936044,-0.05800112,-0.08932211,-0.098649174,0.02271244,-0.023178393,0.0055442676,0.037565727,0.026423914,0.21895055,0.028633766,0.057533707,0.060946397,0.035351224,0.119337395,-0.12037484,-0.05106293,-0.101125695,0.11032809,0.20558801,-0.10833497,0.002161787,-0.123769306,0.012164127,0.1917601,0.0058045574,-0.10528967,0.08641246,-0.09099024,-0.12492624,-0.19264598,-0.19226383,0.06484732,0.014570558,-0.123353265,0.02962988,0.14728895,-0.13341391,0.22027367,-0.04648208,-0.40988716,-0.057422813,-0.04476895,0.015813824,0.017155765,-0.0084804315,-0.13299271,0.12092088,0.060670868,-0.1416528,-0.23281376,0.036495805,-0.041916363,0.0131742945,-0.08657452,0.060816813,-0.15418206,0.12605028,-0.056166343,0.022913598,0.0058385246,-0.15591238,0.087153256,-0.02943228,-0.11073753,0.18736324,-0.04330332,0.014435298,-0.09689302,0.062032763,0.023601847,-0.017224882,-0.11752137,-0.1270943,0.26956302,0.027246403,0.07001498,-0.024674898,-0.07552508,0.0675936,0.053324338,-0.04805068,0.11612435,0.20749758,-0.17039128,-0.025053395,-0.26803154,0.058920853,0.04444729,0.07321926,-0.11896437,0.106187835,-0.28192326,-0.33372957,0.0025246996,-0.26057783,-0.00081016717,-0.009451821,0.026650064,-0.10155726,0.10166887,0.17465885,0.009292332,0.18572986,0.047030848,-0.089704,-0.08900313,-0.05308518,-0.19648115,-0.17491335,0.0030533038,-0.01271992,0.082202114,0.118232474,-0.077186525,0.12797728,0.13298558,-0.06706904,-0.02802678,-0.17407481,0.02814642,0.16264464,0.14649762,-0.07324234,0.045792155,0.07149249,-0.09544947,0.017985996,0.06422571,-0.011402456,-0.33676973,-0.089274146,0.1544936,-0.071795315,-0.06229838,-0.086086914,-0.0059667965,-0.009481089,-0.0667244,-0.07233466,0.051175643,-0.062234227,-0.16684526,0.115867406,0.16778825,-0.17639503,0.09678953,-0.037925843,-0.03475081,0.07814034,0.0023413626,0.10727019,-0.10338012,0.009778101,-0.07797254,0.1330057,-0.058369968,0.05118399,0.04041888,0.12174258,0.16468495,-0.051692568,0.09790121,0.009117312,0.16488564,-0.11280581,-0.006800576,-0.04723569,-0.035580065,0.068309695,-0.038802657,0.19413505,-0.091050915,-0.1201659,0.044546332,-0.012159912,-0.085107766,0.16160505,-0.019726891,0.10933114,-0.0012015968,-0.17365825,0.012176087,-0.0077951443,0.04832439,0.015158676,-0.06722988,-0.057888366,-0.06347499,-0.06607788,-0.011162857,-0.09560775,-0.04094239,0.010718687,0.021997336,-0.06173301,-0.049071237,-0.05858986,-0.05644443,0.028452443,0.058899764,-0.015029341,0.019865124,-0.07229199,0.15718322,-0.19575934,-0.08620384,0.05625238,0.014996894,-0.05508355,-0.10786363,0.031473145,0.05846661,0.03964372,-0.16012838,0.1342862,-0.081841566,-0.0911239,-0.056131743,0.10381014,0.09467392,-0.16133876,0.12939447,0.084259406,-0.15761758,0.0025189747,-0.032247353,-0.0023297362,0.18769464,-0.2080063,-0.018951075,0.0697142,-0.15712392,0.06601783,-0.013007622,0.09685738,-0.110680275,-0.07849239,-0.031553175,-0.17552997,-0.1926423,0.10861276,0.014627414,0.10663007,-0.034924533,-0.013271874,-0.1010763,0.07992104,0.05165634,0.13183813,-0.11162102,-0.03179501,0.053249475,-0.122810125,0.10182088,0.011156943,0.057897415,0.058496572,0.16234647,-0.077147275,-0.15473789,-0.12542023,0.0016782125,0.055499546,-0.067896456,-0.08741168,0.08490905,-0.1104417,0.21703678,-0.12661728,0.01295578,-0.16719323,-0.09717976,-0.06765986,-0.08064012,-0.08888527,-0.12472601,-0.046683084,-0.049337476,-0.018786417,0.10539708,-0.050527565,-0.020666657,-0.053669196,0.07625914,0.004290758,0.016232805,0.02598459,-0.068377346,0.018861823,-0.03185197,-0.09199053,0.007697632,-0.17531489,-0.07507699,0.06393473,-0.009714197,0.045841593,-0.017126791,-0.11394238,-0.15223247,-0.06911604,0.024754899,0.039212316,-0.15178914,0.053177208,-0.07331671,-0.052361768,0.004532434,-0.23980276,-0.16243836,-0.03260593,0.07106175,0.115208484,-0.031273928,0.029271893,-0.069443986,-0.22640358,-0.18334922,0.027977476,0.0031693561,-0.059188712,-0.19357684,-0.04372032,-0.037515633,-0.107495345,0.021027459,-0.046409402,-0.024646008,-0.0148266,-0.017781176,-0.048180155,0.25926447,0.18962915,0.057016406,0.000830148,-0.066083826,-0.0875269,0.007068179,-0.0025756522,0.040038552,-0.07165617,0.1815937,-0.1525479,0.030298995,0.103491925,0.26307064,-0.15434366,0.13292691,0.13754082,0.11727364,0.054255005,-0.021941954,-0.04009524,0.035306662,-0.032167897,-0.035580494,0.05186318,-0.03883525,0.17640369,0.1442803,-0.15335017,-0.07831305,-0.18255383,0.07506993,0.150087,0.19686706,0.093916595,-0.1554691,-0.012495993,0.034422852,0.022984756,-0.030156203,-0.012395803,-0.049692463,0.040941585,0.04186589,-0.13902716,0.11473178,0.0058585103,-0.022037249,0.08791844,-0.055908043,0.018958976,-0.0668681,-0.01658184,-0.066428624,0.046916336,-0.009700585,-0.056299582,0.04064943,0.02924112,0.10874571,0.0684309,-0.010625906,0.038941976,-0.040483505,0.04549435,0.17880417,0.15209438,0.11030712,-0.023101507,-0.06762792,0.104862124,0.010994879,-0.023825794,0.04140443,-0.0078452015,0.012099585,0.22528231,0.14066955,-0.04225652,0.026606342,0.043493133,-0.048920523,0.14269398,0.05683819,0.104871534,0.17747043,0.07233183,0.09410026,0.055584837,-0.11372217,0.24711004,0.21892053,-0.13678288,-0.035118833,-0.1343054,-0.23299633,-0.10415486,0.17634642,0.21519117,-0.082820974,0.18107878,0.07339383,0.0024991583,0.0357241,-0.19017757,-0.11200105,-0.23089023,0.062296297,0.020787634,0.10774538,-0.037571177,-0.0737049,-0.06651063,-0.18536428,0.0042178757,-0.07717664,-0.11746002,-0.17962596,-0.005430665,0.102036916,0.01981588,0.0653853,0.03871856,0.006622171,0.079664566,0.09080353,0.017441677,0.07677429,0.15653479,0.14851779,0.028706998,-0.13831475,0.07280803,-0.027042715,0.07864825,0.004211087,0.037193455,0.14142458,0.027220085,0.049060084,0.081732765,-0.06339365,0.03873842,-0.068990454,0.12023701,-0.07715064,0.055612408,0.12913658,-0.108038604,-0.023525786,-0.029167352,0.09146927,0.06365812,0.07107957,-0.017043918,0.050058555,0.02760531,-0.07923075,0.0814544,0.049832437,0.024900287,0.0043737716,0.12077078,-0.02711577,0.103029355,0.029973622,0.027445722,0.0067691547,0.10234574,-0.02689633,0.06476861,-0.13958192,0.06763644,0.04877156,0.008410829,0.003793995,0.006727183,-0.011394295,0.028279409,-0.035735715,0.011282943,0.111020364,-0.10206052,-0.08015522,0.104896605,0.061371133,-0.07753665,-0.015955107,-0.072269484,0.16048284,-0.10072475,0.19253284,0.10095124,0.04427248,-0.017106589,0.026431257,0.0036311476,0.12297495,-0.009422198,-0.062664814,-0.021285707,-0.14000075,0.10529275,0.23769726,-0.023784865,-0.0014172207,0.08940043,0.015460907,-0.1163484,-0.027491806,-0.1869434,-0.0697226,0.0041785873,-0.052303735,-0.06734614,0.013199098,-0.005772247,-0.013907203,0.02266628,-0.07419908,0.061745357,0.052460488,-0.016552527,-0.15429787,-0.13485049,-0.039352838,0.1132249,-0.020574562,-0.092008464,0.039874885,0.29902527,-0.0060938285,0.019451447,0.06877464,0.02759437,-0.0005190689,0.14421332,-0.0031843951,-0.009204052,-0.10156499,-0.10048485,-0.05110672,0.0018563822,-0.09981317,0.22444382,-0.06805249,-0.10199909,0.15333863,0.017584505,0.053644363,0.05732896,0.0790398,0.04228307,-0.013049611,0.019453507,0.021723809,0.1046467,-0.24305606,0.18281166,-0.123652786,-0.15105627,-0.24787806,0.11987887,-0.06894626,-0.078166865,-0.15428561,-0.023473568,-0.112550125,-0.11301264,0.11875682,0.036424205,0.18491678,-0.118181646,0.010390131,-0.028351154,-0.03696223,0.021000206,0.09351963,-0.020668536,0.13446644,0.0018370709,0.08933664,-0.08172374,0.111676864,-0.10534985,-0.06187448,-0.00023298597,0.10806092,0.18154919,0.11415317,0.010533109,0.025497869,0.100938395,0.07093875,-0.09509705,0.08256312,-0.09082785,-0.14263165,0.22534023,0.028707149,0.058822274,0.0028548585,-0.0720156,0.001042184,-0.00884171,0.16333632,-0.079606995,0.04296704,-0.019578995,0.049080502,-0.023550605,0.1312635,-0.084613934,-0.061895244,0.03684177,0.026104836,-0.07914711,0.0926199,-0.0046390924,-0.0061762775,0.004382729,0.06830971,-0.040721048,0.07724638,0.022800554,0.014737123,0.005618699,-0.023640705,-0.0071431953,0.09485092,-0.05196426,-0.035521887,-0.14915463,0.17172518,0.019299198,0.09561577,0.03405535,0.08248164,0.08142214,0.055336263,-0.12341783,-0.033520285,0.083527535,-0.04559711,-0.03167071,-0.12052622,-0.065462306,0.035635885,0.06648209,0.04981055,0.035008695,-0.03988285,-0.0863176,0.0146710975,-0.081505366,-0.1029056,0.015012649,-0.12391947,-0.050155677,-0.11039263,0.12140158,-0.07713229,0.042234447,0.070230864,0.024749221,-0.15852344,-0.04984724,0.060586434,0.06325449,-0.20447424,0.010155314,-0.08178162,0.09241798,-0.042359345,0.02936696,-0.16067037,0.08284517,-0.08783064,-0.07667299,-0.066303924,0.043906305,0.18841481,-0.06580185,0.0944996,-0.017294712,-0.041600753,0.06211295,-0.084488675,-0.017838169,-0.0899319,-0.0632279,0.113685556,-0.11731972,-0.08374894,-0.08405244,-0.107329264,-0.2502121,0.048732206,-0.03221,0.11997808,-0.05590322,-0.0638991,-0.010328107,-0.19282842,0.1491805,-0.061160058,0.046994008,0.06253896,-0.11549529,-0.042378,-0.1722532,-0.08322824,0.13902418,-0.047287196,-0.0132189775,0.15418294,0.10555853,-0.15719543,-0.120766506,-0.1375759,-0.04237488,-0.039353576,-0.09391869,-0.091279075,0.08786202,-0.031230533,0.06147392,0.016184788,0.04003995,-0.23224936,-0.07699759,-0.029998282,-0.2143426,-0.04609162,-0.096926995,0.048754442,0.011180017,-0.0051384796,-0.06677316,0.00531557,0.016772127,0.06475143,-0.084425665,0.08755444,-0.021998927,0.0034258468,-0.0069730184,0.016755162,-0.09835453,0.026894497,0.21294872,-0.10494363,-0.008628744,0.0028941543,-0.122328565,-0.14587799,0.012277441,0.07471916,-0.0037295232,-0.22151579,-0.0926393,-0.082667805,-0.052976213,-0.013264376,0.059391443,-0.16528605,0.04413148,-0.18605956,-0.048396543,0.106607094,-0.16277115,-0.051747043,0.05502842,-0.1564448,-0.06127858,0.035173096,0.081178166,0.04349083,0.011043274,-0.13424975,-0.080234714,0.00994287,-0.10120045,0.12209248,0.15848559,0.097740814,-0.07916174,0.05174219,-0.07966911,0.04437462,-0.18671891,0.14348854,-0.027874302,-0.14572048,0.011619277,-0.0512315,0.06495853,-0.056385443,0.018581497,-0.062560104,-0.12651305,-0.033647127,0.018715847,-0.048999205,0.0811072,-0.03713714,-0.007864848,0.059094727,-0.06529789,-0.08782914,0.07123589,0.030449562,0.023240203,-0.08265929,0.12869897,0.08894732,-0.27019754,0.14763449,0.021470841,-0.10846535,-0.08846483,-0.003725179,0.18319501,-0.030381622,-0.030427484,-0.14170223,0.050243918,0.13353853,-0.12667252,-0.033438887,-0.042469773,0.13096891,-0.024560958,0.12247513,-0.064960174,0.14203896,-0.04519284,0.20686825,0.0038206023,0.013420581,0.14408363,0.040583324,0.061276056,-0.32710117,-0.040267576,0.05119382,0.09522191,-0.002070729,0.055154614,-0.075542845,0.123969875,-0.012336446,-0.08133919,0.16261557,0.023564884,-0.029320884,0.121429734,0.027495634,-0.022993699,-0.04605739,0.005119118,0.076936364,-0.06445246,-0.15661317,0.048376914,-0.05956445,-0.07119044,0.108755216,-0.19020765,-0.09228043,-0.068279624,-0.076911524,-0.061347503,0.022244252,0.038612034,0.15493426,-0.24936976,-0.033506654,-0.06285877,0.047320765,0.095581174,0.009045352,-0.027203787,-0.15891439,0.044421226,-0.0026287825,0.036876183,0.013525971,-0.09510201,0.009172883,0.018708693,-0.14270122,0.13719653,0.11034958,-0.0994977,-0.14436452,-0.123994775,-0.080090985,0.041135587,-0.14050855,-0.016261382,0.048166685,-0.082175516,-0.053505093,-0.17870785,-0.061480645,0.03571128,0.20362642,0.11748677,-0.21760692,0.065469906,0.08254392,-0.1177769,-0.08377285,0.09177738,-0.057367124,0.10919001,0.089444585,0.08858369,-0.060795184,-0.112412356,-0.029215796,-0.040711798,-0.06909292,0.09884101,-0.039556514,0.008319716,-0.029699914,0.15700918,0.13239792,-0.015383113,0.053838808,-0.05263247,-0.063962825,0.06262572,0.004751736,0.04509713,0.11704696,-0.056133576,-0.15357646,0.10798366,0.021262916,-0.009423271,0.15728387,-0.04675755,0.09452775,0.062935345,0.050752018,0.033282306,-0.004190835,-0.0112700155,0.010522481,0.05337712,0.03375281,-0.0019533737,0.097787455,0.045321085,-0.13506375,0.05235514,0.13960344,0.061878707,-0.008152751,0.01739093,0.058798626,-0.093782894,0.0643532,-0.010688149,-0.02433886,-0.12927632,-0.079576686,0.03856865,0.051365063,0.079299375,-0.014803624,0.02269584,0.04788674,-0.09308624,-0.14854735,0.067582555,-0.092814796,0.014216942,-0.12767269,-0.10900275,0.079829864,0.09093967,0.10895552,-0.022953305,-0.069524616,-0.15680492,-0.07842897,-0.03203917,-0.114494696,0.0035170736,-0.12890983,0.036751054,0.08435742,0.0657164,-0.10712821,-0.07656742,0.046768617,0.06252046,0.118778385,-0.097036146,-0.054912355,0.09612141,-0.038556367,0.10081953,0.05278609,0.0896341,-0.11663707,-0.22178966,0.1421456,-0.07236321,0.17553294,-0.1077297,0.005736149,-0.08504232,0.030561008,-0.024392257,-0.08855123,0.017167857,0.044853635,0.047340922,-0.09025959,-0.005333761,0.10868355,-0.13776936,-0.09689676,0.2193269,0.081258684,-0.08962456,-0.04415599,-0.028608348,-0.033285856,-0.009352592,-0.11604127,-0.007566687,0.04880246,-0.10116252,0.17925669,0.1365436,-0.11012093,-0.18443093,0.11959299,-0.03812568,0.026489774,0.02788647,0.078802526,-0.044743873,0.0014041852,-0.036443103,-0.05924495,0.16340692,0.11812044,0.054486662,-0.092327386,-0.013355177,0.13247883,-0.10036955,-0.06381497,-0.0003182699,-0.07450583,-0.06284222,0.001832658,-0.025720662,-0.05309859,-0.007593479,-0.1011451,-0.23115496,0.019689487,-0.13490485,-0.12518866,0.004349679,-0.07508658,0.04988187,0.04362192,-0.04670608,-0.028400816,0.015663803,0.13270438,-0.04609187,-0.0007818712,0.11857377,0.026909482,-0.01721112,0.051918413,0.10153423,-0.20123076,-0.22395653,-0.13849267,-0.019977638,-0.17248128,-0.05243146,-0.057352815,-0.009925592,-0.043601565,0.21354711,-0.05917716,-0.017564349,0.082389906,-0.12692828,0.031171465,0.10730931,-0.057247028,0.019698637,0.22974561,0.1800667,0.1381581,-0.058587085,-0.053766314,0.11850757,-0.07750348,-0.22294562,-0.084037274,-0.084177494,-0.08634778,-0.15947232,-0.0698835,-0.037089642,0.019634439,-0.01882483,0.06696874,-0.031219691,-0.0037074075,0.047588192,0.041807793,0.04105962,-0.0020075894,0.069591686,0.0091676,-0.09359516,-0.052381847,0.14000587,-0.17506835,-0.022128662,-0.051727448,-0.07253047,-0.012873352,-0.11655059,-0.04213793,0.057728656,-0.121126376,0.060140625,-0.032521635,-0.083101064,0.05282333,0.045890298,0.073696695,-0.050412927,-0.009857245,0.07244786,-0.15854353,0.029437032,0.041453753,0.09083007,-0.0754382,0.008276164,-0.075324744,-0.17303643,-0.055368964,-0.007813847,0.0280094,0.066565365,0.0035248937,0.03971227,0.012660588,-0.17067836,0.19036272,-0.0068126475,-0.034929067,0.032254703,-0.032319143,0.02499814,0.17189863,0.016790424,0.021099016,-0.06870265,-0.12870774,0.050642163,0.01712743,0.03464833,-0.026260138,-0.0595255,-0.10873965,-0.127478,0.0041570542,-0.09421666,-0.084768064,0.06990741,0.014676266,-0.12138858,-0.052097294,-0.04847945,-0.100908004,-0.012273966,-0.10337508,-0.032308638,0.01669816,0.013647802,0.11029233,-0.03907221,0.074702054,-0.04067315,-0.012829111,0.01952345,0.038124934,-0.16190255,-0.034459934,0.16195557,-0.10582653,-0.025123518,0.107132874,0.11175835,-0.13103098,0.14663835,-0.05421129,-0.11085705,0.10077002,-0.11575222,0.019283237,0.12970366,0.10299586,-0.08282349,0.17164856,-0.15939358,0.012990389,-0.011258116,0.0008524948,-0.109374344,0.15163407,0.22527705,-0.07092199,-0.056487225,-0.03583976,0.05155845,0.047386643,-0.17342106,-0.04463409,-0.065576695,0.10351403,-0.013549481,0.24617666,-5.032122e-05,0.04543404,0.012865525,-0.04118455,0.027933192,0.031489875,-0.10549341,-0.08979572,-0.067729495,-0.054141082,0.07596114,0.025118405,-0.027768265,-0.105993345,0.10099051,-0.021743486,-0.07768645,-0.08800881,-0.0034313323,0.007739531,-0.12422853,0.0034827248,-0.10116047,0.060330734,-0.19790576,-0.051669944,-0.061622888,-0.0847308,-0.024461057,-0.062403824,-0.115032405,0.050832223,-0.065618865,0.04496549,-0.04150792,0.016659476,-0.080945425,-0.08380809,-0.0140381735,-0.06069569,0.0067204894,-0.032303993,0.035445128,-0.12282455,-0.10770307,0.019480845,-0.047428932,0.056024756,0.1134736,0.06948612,0.1251317,-0.029839579,-0.21093643,-0.03159855,0.028780222,0.085932784,-0.035633758,-0.04583259,-0.0767246,-0.12556131,-0.08539232,0.07724831,-0.17078485,-0.0943572,0.018872434,-0.035970967,0.046050746,-0.024022825,-0.09878241,-0.10301936,-0.038580798,0.12078694,0.022164633,-0.010556577,-0.0407511,-0.003501353,-0.09675427,-0.06814084,0.06458335,-0.039909817,-0.00262101,-0.08022393,-0.021137504,0.032882676,0.03934617,-0.18381432,0.09180394,-0.10124526,-0.16069368,0.0570939,-0.092163116,-0.057551656,0.004582028,-0.07546476,-0.120664984,0.021556972,-0.0025303185,-0.097051315,-0.0081518255,0.17935051,-0.15756363,-0.1735812,-0.08073294,0.015905488,0.040663972,-0.017500287,0.06498604,-0.0518092,-0.14774317,-0.09175823,-0.0026730616,-0.032262955,0.12759818,-0.01932829,0.01600571,-0.113462344,-0.11047173,0.14566348,-0.19526426,-0.042163502,-0.07426787,0.18335152,0.050427087,0.07443428,0.1632178,-0.12751377,0.013707752,-0.08319469,0.041144017,-0.06563893,0.17188518,0.13644792,-0.07426599,-0.06626889,0.02156953,0.13877045,0.0046338765,0.058144927,-0.013027163,-0.02610194,0.014257007,-0.09882708,-0.10879134,0.008443535,-0.04868569,-0.07365203,0.004545482,0.017168349,-0.016380113,-0.049976356,0.023929697,0.055772107,0.105284005,0.0138484035,-0.02013736,-0.021111673,-0.096444316,0.022810522,0.072113805,0.073983125,0.011321616,0.06307383,-0.03785923,0.081945345,-0.052577157,0.039372865,-0.015259513,-0.035459854,-0.14078292,0.05423761,-0.06886193,0.09585821,0.095374964,0.07824029,-0.17993544,0.053284664,0.007233066,0.12167199,-0.009061832,0.060039397,0.11057028,-0.020055369,0.100489974,0.11013475,0.035776023,-0.05883872,0.031826053,-0.016251601,0.09336146,0.112293646,0.10715919,0.068169884,-0.08562754,0.0035479567,-0.0340625,0.07609944,0.0044539007,-0.021296415,0.0761503,-0.03384849,-0.028052155,0.17012878,-0.026194118,-0.008567701,-0.07150127,0.058146328,0.14464831,0.08453376,0.009535207,-0.04756716,0.0225985,0.07327907,-0.10408703,-0.099717505,0.110688545,-0.13285649,-0.06942585,0.07013371,-0.0154221775,0.0033174935,-0.038769823,0.083066076,-0.11374522,0.13349079,-0.13393039,0.034788538,0.09141271,0.019399606,0.12241427,0.06014651,-0.06962858,0.06052001,0.13197581,-0.08313125,-0.045518726,-0.12287731,0.0016605498,-0.010608322,-0.086153455,-0.013416785,-0.0076476126,0.009038757,0.063284144,-0.008685173,0.062944934,0.040438253,-0.06732489,0.08555911,-0.061320554,-0.032768782,0.020503659,-0.017357571,0.1784845,-0.018635798,0.056293167,-0.19193612,-0.07041522,0.043993935,0.050407577,-0.060680076,-0.030678287,-0.08010124,0.011327657,0.113914944,0.05602581,-0.1678971,0.13107854,-0.08900696,0.07048124,-0.033769205,0.005601559,0.20168611,-0.09176912,0.019355632,-0.05553738,-0.05866501,0.0870735,-0.17445958,-0.16167425,-0.1648557,0.1554131,0.21949165,0.05224756,0.015625216,-0.17019483,0.10920846,0.15922806,-0.08052222,-0.1525289,-0.07374166,0.085496984,-0.012119567,0.12667592,0.07457573,-0.10121686,0.009663228,-0.08661839,0.09286657,-0.14148471,0.17794892,-0.03495151,-0.018682834,0.16945836,-0.018306311,-0.12221743,-0.122887366,-0.059372444,0.010144417,0.14322288,0.08888858,-0.025143526,0.021949364,0.049871843,0.012399975,-0.122382164,-0.09010351,-0.0015533505,-0.053526398,0.076085016,0.13684934,-0.06276183,-0.076093756,-0.22668226,0.06977293,-0.056668263,-0.04251281,-0.069852605,-0.098618545,-0.045911673,0.2646445,-0.16126029,0.014400067,0.07238676,-0.058839552,0.11318434,-0.035242345,0.032529127,-0.18465616,0.07272771,0.16086061,-0.054037943,-0.111478396,-0.13950878,-0.1559395,0.097035356,-0.07315879,0.073383324,0.037641417,-0.10638544,0.085016444,0.13228239,-0.05447819,-0.12157119,-0.10078226,0.12135348,-0.022258911,0.18597917,-0.016468186,-0.018988855,0.038294207,-0.08808981,0.0067147706,-0.0076105413,0.030593392,0.083835594,0.022905277,-0.11867464,0.008211959,-0.07854859,0.019704632,-0.1460679,0.14438143,0.023102945,-0.05062325,0.0445462,0.23205695,0.11685061,0.020048417,-0.054835282,-0.06612921,0.05813957,0.05325854,0.024393903,0.14459996,-0.018691996,-0.06982075,0.026434625,-0.109079674,0.03473293,-0.031370785,0.07384888,-0.14781317,0.012277293,0.057522513,0.14262335,-0.041112844,-0.026035396,-0.006674366,0.027762698,-0.2337331,-0.024758331,-0.02196723,-0.046777062,-0.026883373,-0.028417815,0.044123817,0.061451714,-0.06711883,-0.09179784,-0.02327251,0.06437339,0.02770319,-0.08820748,-0.09700087,0.09606209,0.045652162,0.004379734,0.022815304,0.0012330798,-0.06328362,-0.0030535858,-0.06524707,-0.0018791712,0.021730922,-0.021778002,-0.018701812,0.13306904,-0.0742761,0.08302361,0.21908255,-0.11741311,-0.070085034,-0.060393907,-0.026321957,-0.07132691,0.1381203,-0.09918141,-0.10505581,0.046973754,0.06659512,-0.039158195,0.098516695,-0.09125754,-0.014589967,-0.04192401,0.052876297,-0.027319295,0.004870796,-0.08423891,-0.04786365,0.14231427,-0.022755777,0.033493645,-0.03509818,-0.03466859,-0.0066386415,-0.044562355,0.10592702,0.07944022,0.017143963,-0.0689876,0.06884529,0.057989705,-0.0066454937,-0.05934777,0.019805683,-0.07184312,-0.15285845,0.08230622,0.18981121,-0.03840625,0.07167857,0.054126617,-0.07693205,0.032876935,-0.026003255,0.043212134,-0.16118835,0.050383992,-0.19117647,0.01480361,0.014626252,-0.18951605,-0.02357294,-0.09340674,0.06529763,0.038943917,0.15247719,-0.19223277,0.056848094,0.118334524,0.16215657,0.029671796,-0.09764635,-0.09470584,0.06007472,0.02180075,-0.0038488717,0.017030785,0.025101887,0.073066965,0.00608186,0.10139797,-0.029667087,-0.028367205,-0.016819004,-0.06967165,-0.09007338,-0.091449976,0.06697407,0.042459354,-0.03341144,0.010765721,-0.09639789,-0.0044155894,0.10784914,0.0206864,-0.014986053,0.0062118946,-0.049070217,-0.020318825,0.02016456,-0.15536919,0.030386403,0.080677435,-0.10070679,-0.023422878,0.042754482,0.048468694,0.07478049,-0.030224904,-0.14144127,0.1139727,0.014775841,-0.07200491,-0.010703457,-0.20816293,-0.027544089,-0.09422964,-0.011106411,0.06632178,-0.05983997,-0.19370146,-0.10102227,-0.011126848,-0.079721466,-0.061815213,0.1586185,0.0059209787,-0.20021984,-0.031431932,-0.020601971,0.041472264,0.01461186,0.07702225,0.07695271,-0.2707586,-0.08260015,0.056247447,-0.06317121,0.20668973,0.050398204,0.0059461487,-0.01314676,-0.16142212,0.08376847,0.02094235,-0.13016605,-0.031199176,0.044358585,0.11030271,-0.032727815,0.018545462,0.009762098,-0.24074817,-0.04821456,-0.0071588955,-0.046214875,0.07223926,0.072318114,-0.105416,-0.051737092,0.0077902945,0.07151324,0.0038173166,-0.09060095,-0.030723732,-0.006261383,-0.09928914,-0.08613478,0.08648525,-0.02969733,-0.03923287,-0.020860069,-0.15481515,0.0045737876,-0.0021742368,-0.13471958,0.0821341,-0.008806773,0.04722684,0.036390413,-0.093001686,-0.066189796,-0.08474726,-0.023534631,0.082347244,0.05273766,-0.13494825,-0.06401485,-0.053735353,0.01244251,0.053285073,-0.03289006,0.0057506603,0.048457194,-0.0065658526,0.08380126,-0.040968005,-0.057551194,0.11328806,0.020352919,-0.08185689,0.076423615,0.023422297,-0.04200072,-0.045716863,0.04162828,-0.09899903,-0.14211838,0.006999722,-0.058263913,0.005480836,0.102026165,0.049322452,-0.07711286,0.02252115,-0.08118496,-0.069085516,-0.07624373,-0.03636205,0.05238944,0.04942293,0.021045292,0.00031905493,-0.022201803,-0.13376965,0.045861322,0.013837852,0.07639997,0.16307682,-0.0338712,0.050772656,0.0327603,-0.13881618,0.028546058,-0.03272539,0.041454047,0.00618754,-0.018493813,0.030573003,-0.18420088,-0.12073624,0.011377367,0.052735005,0.10139566,-0.029374786,-0.040090103,-0.0044053444,0.032462385,0.07351843,-0.0052272286,0.15404366,-0.15620315,-0.10618097,0.02279773,-0.11247141,-0.0041645523,0.045642965,0.016721942,-0.0747118,-0.0653305,-0.0080651175,0.021902116,-0.015696356,0.006895112,-0.08503524,-0.03291166,0.16272618,-0.007860533,-0.12952797,-0.04169861,0.03780575,-0.06401691,0.2171615,-0.034511615,0.11438719,0.05993468,0.064957544,0.06380999,0.10439668,-0.04096327,-0.098812565,-0.07923385,0.014426738,-0.097722724,-0.07470012,-0.016679656,0.0014062482,-0.10257044,0.030898001,0.09313137,-0.04298481,-0.04060974,-0.1377884,-0.09418206,0.031363916,-0.019516021,-0.05448429,-0.00035261756,-0.008079934,0.15989001,0.01213523,0.032133464,0.012169322,0.11600169,-0.021947451,0.103727505,-0.1501103,0.0065670316,-0.05631079,0.124624826,-0.10253616,-0.08577581,0.20308097,0.04357384,-0.05401643,0.13960445,0.050628856,-0.0899464,-0.020940982,-0.036131136,0.16218212,0.046340786,-0.05514906,-0.012303447,0.1625912,0.025301984,0.023988545,0.1758922,-0.09808706,-0.0828091,-0.08432127,-0.020664025,0.0057291863,0.06847756,0.0113709895,-0.10738072,-0.014022275,0.015371186,0.14171034,-0.14083698,-0.0973801,-0.08068822,-0.24496195,0.13642351,-0.043404683,0.18686733,-0.056333937,0.0063559865,0.051797297,0.022392238,0.05828418,0.026253473,0.0018131288,-0.19516854,0.014515637,-0.014428552,-0.09925026,-0.048612766,0.024134763,-0.020252189,0.16170844,-0.08428276,0.0010469058,0.0017263512,0.008494941,0.0039799707,-0.08855492,0.1642346,-0.08052219,0.16788675,0.23020637,-0.1687813,0.032948155,-0.024010945,0.1514072,0.061126124,0.024476783,-0.2362328,0.022375278,-0.169076,-0.227573,-0.15434477,-0.22122233,0.16786788,0.091281414,-0.21596105,0.034343857,0.12815316,0.0373753,0.29608503,0.0012127091,-0.1330585,0.053489838,-0.034860764,-0.06961815,-0.020095855,-0.059377216,-0.078408785,-0.011133043,0.12155953,-0.15664163,-0.16104037,0.18671148,-0.04904636,0.063379735,-0.07753569,0.014915185,0.047527067,0.055590224,0.084237225,0.031017318,0.012656049,-0.176348,0.16342142,0.042404246,-0.011615849,0.090224825,-0.048971727,-0.02131815,-0.05974939,-0.09032392,-0.025380488,-0.015014167,-0.1671037,-0.021325978,0.10554988,-0.03330805,-0.036157064,-0.037245203,-0.1002253,0.07092287,-0.024831614,0.053418774,0.25899267,0.2253074,-0.14046378,0.026286589,-0.22639222,0.010265202,-0.07296219,0.00875713,-0.14804053,0.18967488,-0.15842499,-0.19057104,0.01782285,-0.07054728,0.08608617,0.04228087,0.012447518,-0.29529276,-0.042587116,0.2384542,0.11879719,-0.015148117,-0.120227255,0.03738922,-0.08976421,-0.01984791,-0.1417511,-0.23455001,0.029152093,-0.021895045,0.010934301,0.1583112,-0.06266413,0.1769865,0.19826505,-0.017018113,0.076734066,-0.15015592,-0.01911969,0.18157892,0.0873667,0.023427803,-0.01836803,-0.030559964,-0.075293064,-0.04320603,0.00046782877,-0.030106613,-0.02218586,-0.0028914278,-0.012369875,-0.29124373,-0.06306268,-0.10889811,0.024151107,-0.09524658,-0.15482335,0.016499547,-0.04558415,-0.12790711,-0.09165286,0.1563503,0.1177494,-0.043966252,0.032625284,-0.04303694,0.02612589,-0.08350552,0.031144874,-0.003754837,-0.13461126,-0.019135844,0.027816707,0.013327047,0.12747058,-0.04235062,0.08859817,0.15966955,0.049564634,-0.12224142,0.22120042,0.07779635,0.20098998,-0.096828096,0.047208127,-0.019752178,0.045381088,0.08888909,0.009380198,0.035051342,-0.09913464,-0.038029175,0.20739989,-0.12015869,-0.012263565,0.13781722,0.0075845574,0.04408078,0.061920047,-0.17659408,0.08741642,-0.0153817665,0.14820606,0.00053413206,0.009072668,-0.016321182,-0.042097922,0.06064039,-0.12406172,0.025606912,0.05241122,-0.13790971,-0.07462382,-0.013552152,-0.13592066,0.0213469,0.04443713,-0.09897882,-0.08915908,0.032762792,-0.086541995,0.024913812,0.12823938,-0.14720108,-0.024199983,-0.015921934,-0.010008062,-0.057728402,-0.040146366,0.057669897,-0.004432224,-0.10253533,0.07922066,-0.008006869,0.07129527,-0.06798176,0.019544164,0.08122387,0.07023923,-0.10163533,0.05954164,0.06741781,-0.12631719,-0.012957105,0.13603108,0.013241689,0.21317095,-0.2137011,-0.01856387,-0.016799131,-0.15772712,0.106878884,-0.01366713,0.05910663,-0.036658425,-0.068652496,-0.011262469,-0.12831667,0.035737675,0.20159955,0.03491294,0.062811226,0.037796147,0.0417975,-0.08685245,0.13612041,0.08068953,0.08950424,-0.14560263,0.012766634,-0.09832323,-0.20792337,-0.0873817,-0.022536162,-0.039044477,0.068091616,0.09004524,-0.023570975,0.0021763493,-0.054707695,-0.07897681,0.014990694,0.101015404,-0.047231693,0.07378074,0.033964716,0.031647526,-0.050427902,0.13860098,-0.22774626,-0.02089651,0.05378965,-0.1009848,-0.09497383,0.05196072,-0.05402311,-0.04523473,-0.103280045,0.12795605,-0.022743853,-0.14067581,-0.04280317,-0.044549312,-0.078389056,-0.0077036507,-0.18738699,0.07809757,0.17483355,-0.094335034,-0.19530037,0.006960157,-0.061298545,-0.059221808,-0.03178465,0.032520603,-0.049445443,0.056277487,-0.23210989,-0.061973825,0.0006544762,0.0139433,0.005262987,-0.04547749,0.06292067,0.008878618,-0.055310387,-0.091737725,-0.32248092,-0.08706408,-0.14295274,-0.0707422,0.10037963,0.18219738,0.06620113,-0.014678656,-0.20928,-0.15004599,0.031394187,-0.008991084,-0.043806557,-0.20710567,0.044251878,0.077103056,-0.13094844,-0.058611013,0.0702416,0.046433028,-0.081208706,0.007536258,-0.07000546,0.23823036,0.11452908,0.0014136891,0.015391444,-0.05820625,0.033010595,0.014695655,-0.021147946,0.1641355,-0.0590728,0.11227586,-0.12837957,0.13601913,0.07032259,0.023002151,-0.08333163,-0.033652153,0.113857545,0.12050139,-0.094828695,0.024223283,-0.011994783,-0.0384414,-0.13892552,-0.031566773,0.121680945,-0.111682765,0.032201618,0.10183891,-0.04901319,-0.016313598,-0.14059262,0.0060454244,0.09399904,0.15153885,0.10649836,-0.08934572,-0.00045190292,-0.0021033615,0.05207717,-0.1193471,-0.033285853,-0.13452065,-0.051687516,0.08934056,0.04037552,0.103594705,-0.04108734,-0.10409491,0.10132474,-0.06551603,-0.0758564,0.07710805,0.04235147,-0.026507035,-0.08410929,-0.034157,-0.1893126,-0.008136936,0.008445072,0.11109214,0.108271904,-0.060392935,-0.05905262,-0.11216178,0.021226421,0.041324854,0.07946654,0.00012904165,-0.059022784,-0.02307005,0.14571886,0.037727483,-0.09681744,-0.081096284,-0.06820593,-0.05377037,0.24979201,0.066147566,-0.10497744,0.0826339,-0.08768358,-0.094385475,0.009555237,0.060919028,-0.0016023745,0.22831227,-0.017537624,0.08028723,-0.010943618,-0.025850436,0.09326723,0.09498729,-0.1013908,-0.05825262,-0.2197322,-0.08399271,-0.09112366,0.08373647,0.12287816,-0.10052767,0.055817477,0.1364902,-0.16378433,0.076780334,-0.12624083,-0.11874488,-0.024798593,0.09516033,0.0153228,0.11924989,-0.0024178363,0.070952244,-0.11641724,-0.23923786,-0.08496192,-0.101639,-0.019082354,-0.10301384,-0.06875923,0.037270594,0.024305154,-0.06804874,0.061282597,0.103983015,-0.052575555,0.02666433,-0.067605175,0.08885277,0.065817475,0.107419536,-0.108410746,-0.16100512,0.06932823,-0.108452424,0.15770799,0.049154066,-0.0048573487,-0.0016749784,0.0028507125,0.20863312,0.020370526,0.16957915,-0.009062616,-0.03462435,0.060322296,0.00787036,-0.16892928,0.030442087,-0.07745479,-0.09683554,-0.012938652,0.0023268138,-0.0059618014,0.048219267,0.01643249,0.08062793,0.0953613,0.0383447,-0.013675161,0.09192839,-0.04404589,0.14362516,0.15261735,-0.042311218,0.008981093,0.13685171,0.15220691,0.017011482,0.03574747,0.13720357,0.17909737,-0.081117876,0.063596286,0.10530217,0.05145642,0.018525785,-0.13383384,-0.06790383,-0.049238883,-0.098883785,0.1311122,0.05311049,-0.053626303,0.021868322,-0.016020346,-0.048054866,-0.056631982,0.06330074,0.021399599,-0.056896385,-0.060710203,-0.015748382,0.19499534,-0.029885812,-0.012821091,0.054594725,-0.038618054,-0.022024246,-0.07124731,-0.11157141,-0.09125056,-0.13419168,0.19491634,0.2123049,0.09624743,-0.035697836,-0.019961836,0.017413748,-0.062687926,-0.16037484,-0.08429652,0.043700688,0.0008273955,-0.012722976,-0.06044838,0.028660875,0.0881661,0.013824627,-0.003621809,-0.12788427,0.14272787,-0.06667716,0.048741154,-0.15490109,-0.082247734,0.010610964,-0.026385939,0.021649538,-0.03587531,0.15523224,0.1363406,0.07654775,0.03141921,0.071333505,0.050418533,-0.0054006744,0.07391981,0.074262254,-0.0023300871,-0.0138787795,-0.029087469,0.05526777,-0.09490838,0.01403689,0.087100774,-0.12684278,0.028885294,0.076872915,-0.10787119,-0.074248955,-0.04360712,-0.06193021,-0.17594106,-0.03768805,0.044922657,0.08482016,0.09863665,-0.30051056,0.15061116,-0.0997158,-0.1865039,-0.21590598,0.22984178,-0.09036798,-0.0073637282,-0.14825203,-0.05206353,-0.09527535,-0.16453849,0.053978354,0.01921225,0.03257764,-0.15628563,-0.04874885,-0.14826556,-0.10260781,0.03602159,0.2064649,0.06914359,0.15856558,-0.09615715,0.04343015,-0.20161454,0.1106973,-0.0872355,0.02838161,-0.011415107,0.07999731,0.05951807,0.06878327,-0.07075093,-0.036634322,0.12758204,0.111503236,-0.21033703,-0.029333455,0.052647643,-0.12190485,0.07883405,-0.03513929,0.16597149,-0.1381927,-0.07851312,-0.062735856,-0.023773527,0.19377053,0.05116415,-0.06950681,-0.09349757,0.14848109,-0.0740392,0.09948833,-0.106144175,-0.027328677,0.09812014,0.11935542,-0.068150885,-0.009095647,-0.13783255,-0.037237037,-0.020619705,0.02751822,0.000760469,0.028178526,-0.028305857,0.124168254,-0.0058398256,0.014271778,-0.09765974,-0.019696755,0.031152261,-0.1312811,-0.027891342,0.06717545,0.01002121,0.15670107,0.09510549,0.0032720936,0.050082903,0.017409397,0.027444571,-0.037714362,0.018384987,0.015870772,-0.043860786,-0.009030589,-0.07293414,-0.006827735,0.010800291,-0.0053912783,0.07804684,-0.08332019,-0.035721567,-0.06351823,-0.076671146,-0.047801588,-0.027448114,-0.112788916,-0.03584814,-0.0039657066,-0.06518176,0.053896144,-0.013252497,-0.070064455,-0.077696696,-0.14151037,-0.0015418602,0.015992632,-0.010997169,-0.009370347,-0.013522504,-0.12770642,0.011719324,-0.058081444,-0.095226474,-0.029040718,0.05541922,-0.028897315,-0.07944928,0.06227505,-0.06264193,0.13966171,-0.025775444,0.16025905,-0.03994861,-0.054348957,-0.02742248,-0.022357887,-0.14552279,0.0159073,-0.16375266,0.036937047,-0.025753485,-0.07347635,-0.044272147,-0.07485819,-0.12796372,0.017562628,-0.0264844,0.083300985,-0.13602707,0.022611108,-0.012818211,-0.0564993,0.01771007,0.1052113,0.005195738,0.09463946,-0.1809155,0.03282743,-0.20027865,-0.06123592,0.026750948,-0.07816644,0.0428064,0.09757462,-0.08148556,-0.060441528,-0.17351755,-0.1296428,0.028671758,-0.022881746,-0.040164568,-0.095793895,-0.022379316,-0.13904105,0.07073456,-0.046903588,0.038856648,-0.13678996,0.018149614,-0.048883945,-0.075504236,-0.064873636,-0.030498045,0.0023249357,-0.0503535,0.053504813,0.041996695,0.02487561,0.13331945,0.07319884,-0.036784515,0.10293176,-0.013762685,-0.021510132,-0.0021547326,0.0016473935,-0.029596223,-0.03182329,0.11319653,0.015090788,-0.009892666,-0.11913731,-0.14366329,-0.03505125,0.004851788,0.07248946,-0.09206925,-0.08642595,-0.042246558,0.033014152,-0.0890334,0.107097276,-0.020849971,-0.14088847,