-0.35358024,0.06064988,-0.039363395,0.22010241,-0.63760895,0.036929,-0.14757465,-0.30337095,0.0013340088,-0.19400157,-0.04309839,0.25599527,0.20470233,0.026495486,0.29831403,-0.0646938,-0.017380653,-0.41986266,0.20316081,-0.22761492,-0.3568262,-0.31959665,0.067173734,0.0705584,0.18243594,-0.27580646,-0.18325181,-0.20076267,-0.020665227,-0.07610739,0.37995452,0.13361563,0.21144518,-0.18325,0.13547868,-0.26193374,0.06942911,-0.06877891,0.11307348,-0.1887847,-0.017964533,0.0873531,-0.025027428,0.03067361,0.012183406,-0.04959723,0.07049221,-0.122580625,-1.3785317,0.003539749,0.63171095,0.056050755,0.35368368,-1.606586,-0.74277973,-1.1803102,-1.9236509,1.8094327,0.8211684,0.028696842,1.8982177,-0.34799853,0.7292584,-0.94126475,1.5895983,1.3340075,-0.12971966,-0.83788365,-1.1699313,-1.0391247,1.4054456,0.8678549,1.6814727,-1.2082944,-1.6248605,0.5291611,-1.7497165,0.48132795,-1.3111597,0.6266835,0.30150875,-0.24913338,-1.248925,0.5590803,1.0893356,-0.092782594,1.2618182,0.489334,1.0327293,-0.25170827,-1.0065823,0.47542712,-0.16488531,1.047188,0.27908733,-0.95649874,0.010212198,0.035714895,0.07677573,-0.0973138,-0.034242857,-0.15877815,0.14909525,0.13202661,0.0150886495,0.062051408,0.32695198,-0.1544151,0.049721062,0.1283462,0.028037407,-0.011985216,-0.33474544,0.108882785,-0.0025833372,0.09471748,-0.009521243,-0.21608034,-0.43345076,-0.30261078,-0.0983883,0.061545733,-0.26803592,0.28475463,0.28583035,-0.4793436,0.025552968,-0.07491384,-0.064038515,-0.16515455,0.010544648,-0.022554314,-0.32010153,-0.32902858,-0.24862196,0.12984559,-0.073463805,0.15888406,-0.25812298,0.016276913,0.018918997,0.1675062,0.07990466,0.044119377,0.026833307,0.14122662,-0.09293159,-0.49402827,0.019929254,0.24372855,-0.036431003,0.21589711,-0.30695835,-0.0917462,0.11791307,0.07543601,-0.02676972,-0.004602966,0.14161669,-0.30936497,-1.2217404,-0.12937663,0.91882557,0.36731717,0.28491494,-1.5426939,-0.6566961,-1.1186802,-2.1350534,1.7368375,0.5112066,-0.2713679,1.5497586,-0.38994282,0.8290835,-0.72866553,1.6452138,1.522369,0.06680521,-0.41579118,-1.351835,-1.1909748,1.0139861,1.0432515,1.5488899,-1.2861983,-1.6253324,0.36842328,-1.6557672,0.23145957,-1.5829487,0.67336696,-0.18596831,0.10669706,-1.0712326,0.5105115,1.1553447,-0.36130098,0.898811,0.24715503,1.1909722,-0.0057708356,-0.63802916,0.49377108,0.22633186,1.1101387,0.3133178,-1.2677592,0.2437018,0.28661203,0.16000228,-0.07704847,-0.017215261,-0.15828319,-0.117150754,-0.21129258,0.27302766,0.3043981,0.008710466,-0.2568646,0.05814605,-0.20301561,0.027662296,-0.10246424,-0.049712397,0.1939372,0.2640609,-0.12764134,0.52396154,-0.26345417,-0.45279732,-0.2347894,0.15285036,-0.30040225,-0.054884326,0.30005264,0.19685669,0.19845852,-0.018890388,0.27466482,0.028948188,-0.38934714,0.19385786,-0.0645522,0.034229137,-0.21865743,-0.22487766,0.068640485,-0.063608,0.06020331,-0.11820519,-0.11610799,-0.105251595,0.42902133,-0.20526145,0.13213731,-0.32057017,-0.13599117,0.14946246,-0.06473758,-0.045491155,0.15361553,0.020880165,0.2920213,-0.23615089,-0.12768501,0.17536038,-0.06992538,0.0034766796,-0.041467365,0.054101493,-0.54231954,-1.3660259,0.117237926,1.252974,-0.09825213,0.2676496,-1.8077577,-0.42099947,-0.85961336,-2.0283484,1.5745004,0.114108376,0.043461267,1.320113,-0.656126,0.47741145,-0.4785677,1.8306347,1.7419951,0.0012906548,-0.33866674,-1.2490458,-1.3956697,1.35328,0.8882381,1.5520196,-1.1017948,-1.4260665,0.09407392,-1.5932473,0.32550052,-1.5147221,0.88521016,-0.14485964,0.13789207,-1.0840173,0.5946209,1.5003226,-0.23886114,0.9453029,0.34830952,0.66795737,-0.070151,-0.7399352,0.5221564,0.31973895,1.1782897,1.0347234,-1.3909175,0.2741043,0.19633283,0.14408676,0.18109445,-0.08388,-0.221167,-0.050962977,-0.21971749,0.14856812,0.25448444,0.18775405,0.1410141,0.20513794,-0.17855829,-0.14023952,-0.1854253,-0.06230135,0.21656619,0.24668156,0.13286532,0.048494972,0.08495932,-0.05475702,-0.07429775,0.053913433,-0.3547342,0.11019754,0.18693869,-0.13445604,0.3814388,-0.036658015,0.0763008,-0.08864177,-0.39229164,0.27377364,-0.25935468,0.35114413,0.06937526,0.079641886,0.17800961,-0.06064618,-0.056799408,-0.33182448,-0.14711623,-0.07673932,-0.2236432,0.07611037,0.28488475,-0.1765869,-0.0701365,-0.09508538,-0.13349172,0.049902856,0.14460845,-0.116688326,0.38281518,-0.041424647,0.1042748,0.22537586,-0.011627869,-0.07217547,0.05093837,0.16336647,-0.4286058,-1.1998994,-0.18791994,1.596492,-0.17700657,0.106673606,-1.4703932,-0.6441151,-0.61127526,-2.000045,1.4990034,-0.12461967,-0.22503628,1.3883411,-0.4878889,0.74214786,-0.49769723,1.7862179,1.7315525,0.17748266,-0.45748907,-1.6146188,-1.1647975,0.987401,0.916265,1.9071103,-1.2553595,-1.5431504,0.31499434,-1.4671711,0.35418218,-1.8770021,0.6309741,-0.21184346,0.35636288,-0.6516407,0.69322735,1.7776281,-0.37019607,0.7766301,-0.32525784,0.7059124,-0.18844543,-0.60168976,0.59564036,0.43445152,1.2878661,1.0587964,-1.4002305,0.09720943,-0.050197843,-0.1992155,0.079212,0.10335037,0.14145364,0.040225063,0.004749759,0.063399985,0.25813642,0.33331618,-0.1682686,0.27282274,-0.0035620502,0.14425696,0.098004125,0.18347158,-0.033277795,0.17442822,0.07897977,-0.036836866,0.036285497,0.14433841,0.17721824,-0.21392116,-0.044447012,0.094662786,0.37787315,0.2074417,0.15330267,0.06398581,0.03430396,0.0064836442,-0.3632728,0.3081392,0.06856082,0.25555387,-0.052400023,0.16657777,-0.111767136,0.10388729,0.07984122,-0.13329454,0.0077318847,0.027387297,-0.4704893,0.2610255,0.06156444,0.008846563,0.19471106,-0.03985096,-0.46475473,-0.031644702,0.19989614,0.12173185,-0.18870348,0.045608465,-0.05334554,0.16823713,0.04994816,-0.15060975,-0.17982,0.26100984,0.060479626,-1.2713925,0.108669825,1.9550816,-0.37869847,-0.31254843,-1.6608748,-0.6013018,-0.23827867,-2.0303566,0.99716586,-0.1719923,-0.17553782,1.4145379,-0.6153689,0.30330864,-0.060535237,2.0462782,1.8706297,0.05333816,-0.29515135,-1.5582625,-1.3850516,1.4099776,1.0015961,1.9347819,-1.1019394,-1.2428862,0.062331315,-1.2699264,0.39730054,-1.9658934,0.64878887,-0.34029323,0.6799898,-0.6989131,0.7101859,1.701295,-0.33023345,0.62670183,-0.122720644,0.95971274,0.09759926,-0.16632816,0.9706216,0.2777621,1.5514357,1.4213289,-1.3984989,-0.121333316,-0.038436804,0.06601014,0.065879814,-0.16782154,0.044702105,-0.1047973,0.06325976,-0.083047725,0.18050086,0.0044383216,-0.1864775,0.23456128,0.14413948,-0.12338992,-0.004512286