0.18020353,0.0020164286,-0.36464006,-0.26009393,0.25784075,-0.1555338,-0.17370154,-0.31146252,-0.22915305,-0.12746204,-0.066244595,-0.11870116,-0.43349987,-0.1395776,0.20750582,0.15467498,0.14283895,-0.30518252,0.09482312,-0.23065266,-0.08651398,0.12959701,-0.26740718,0.34465545,0.19964966,0.11993444,-0.077427536,0.09335036,0.004654323,-0.1073054,-0.014919311,-0.02466148,0.066576324,0.0015901375,-0.2284655,-0.046163827,-0.060045425,-0.085903786,0.080659315,0.12876004,-0.03484236,-0.065885365,0.17322865,-0.0025973031,-0.20861313,-0.44860464,0.112192914,-0.018794889,0.13610142,-0.27492034,-0.076577924,-0.3987632,0.071014464,0.15595572,0.09515598,0.010823027,0.25590938,0.08872721,0.13513468,0.06635132,-0.010687028,-0.067310095,0.1136787,-0.066834,-0.09251211,0.06409489,-0.09180552,0.2328946,0.13779029,0.03810833,0.037303187,-0.16094127,0.080541216,-0.36694926,0.189001,-0.23870787,0.17719704,-0.1577257,-0.12701844,-0.19645889,-0.20739765,-0.010204813,-0.005505469,0.06880537,-0.25070328,-0.07358942,0.14494905,-0.22626962,0.059732653,0.025111126,-0.08990569,-0.09007599,0.014752512,-0.03586476,0.114630535,0.05115943,-0.16886374,0.066745624,-0.0033929343,0.15611726,-0.18615429,0.015783664,-0.020554353,-0.12882224,0.009472553,0.06889141,0.13154648,-0.1558315,-0.2293408,-0.11028051,-0.16585264,0.043743495,-0.024395289,-0.25127816,-0.06038064,0.10713835,0.1390694,-0.09528541,-0.22482853,0.09328442,0.014591883,-0.029662427,0.19234583,0.0020093708,-0.07672587,-0.13510273,-0.05710412,0.11982922,0.31454262,0.13601477,0.16079172,0.18285935,-0.034648173,0.11186598,-0.3267481,0.027890008,-0.06826705,0.07541465,-0.2799387,0.5445909,0.0893468,0.08746317,0.15281104,0.034300618,-0.06396201,0.075120635,-0.18039429,-0.058854636,0.11497657,0.18427637,0.11282832,0.01866066,-0.20256813,0.2820328,-0.061852053,-0.13632406,-0.38931897,-0.30473912,0.046235666,0.17266561,-0.017626315,-0.021367012,-0.07793762,-0.12631351,0.2938307,0.043096084,-0.24659027,0.014042312,-0.11103232,0.21802984,0.05433071,0.14105533,-0.21866915,-0.03748157,0.022691261,0.05808563,0.13414596,-0.01544385,-0.1555272,-0.13548025,-0.0439905,0.09773796,0.12919454,-0.18724161,0.14439653,0.21866907,0.013772432,0.06557522,-0.07748258,0.10724038,0.27936232,0.09297857,0.072024986,0.10816692,-0.13596834,0.18336514,0.25073403,-0.040675156,-0.22443192,-0.1823346,-0.13272794,-0.00022369734,0.024787184,0.14118949,-0.072015114,-0.020181596,0.14971167,0.12216654,-0.041619822,-0.13441886,0.14288066,-0.29251146,-0.2078267,0.2093799,0.18998271,0.24313463,0.16144593,-0.078479275,0.16426422,-0.19897024,-0.06530299,-0.15757886,0.13208695,0.063733555,0.095788226,-0.06762803,-0.102556705,-0.059538346,0.21593705,0.10106592,-0.13714403,-0.25865805,-0.15262678,0.013498823,-0.017495386,0.43552482,-0.12743819,0.19200487,0.16443276,0.10236588,0.0901416,0.21270606,-0.2142827,-0.07894764,-0.23750398,0.0780759,0.028604396,-0.08859194,0.36087975,0.2073569,-0.065893345,0.02210782,0.20366564,-0.033804007,-0.0132603645,-0.085359104,0.07021357,-0.16295645,0.027997447,-0.33551854,0.07837193,-0.2068776,0.13910185,0.097832195,0.23118666,0.031034278,-0.15619399,-0.51210064,0.01564552,-0.19228126,0.1752506,0.15750504,0.34838155,-0.6224373,-0.086206295,-0.018672982,-0.19524008,0.24494512,-0.24755396,0.18187742,0.16804124,0.14637643,-0.35915607,0.09712481,0.23837093,-0.21239856,-0.16832468,-0.11129724,-0.10128713,0.28873098,0.032034423,-0.007752468,-0.13482295,0.16968918,-0.045769062,0.22901426,0.014429011,0.045891166,0.2327048,-0.23141734,-0.32644248,-0.008893095,-0.10183921,-0.042179022,-0.2548586,0.15111494,0.39332658,-0.024532497,0.19560483,-0.08856714,0.008833856,0.19267549,0.18634084,-0.3974905,-0.04433984,-0.23218364,-0.17645778,0.13846093,0.06412739,0.011854492,-0.20771916,0.15108617,-0.15351392,-0.0070521664,-0.032026675,-0.017574191,-0.013173829,-0.066054076,-0.096748516,0.105804086,0.12260306,0.04815696,-0.2508746,-0.17754923,-0.19882615,0.042130597,0.038521744,0.10274666,0.1908565,-0.37588078,0.29072544,-0.12623788,0.020023545,-0.013319268,-0.076107025,-0.14778697,-0.05820586,-0.21831025,-0.37878835,0.05415077,0.18636449,0.16182907,-0.17993174,-0.017366534,-0.19580746,0.0040698466,-0.04951827,0.093134366,-0.08499348,-0.09499828,0.07352323,0.019730499,0.032116044,0.2012417,-0.03050664,-0.3380361,-0.026038326,-0.3745238,0.07725563,-0.11332153,-0.11150668,-0.2136293,-0.038462523,0.097137906,0.14258435,0.1180234,0.023226017,-0.03652026,0.051086918,0.08617772,0.20858379,-0.113485925,0.15170081,-0.02699358,-0.1010308,0.24693725,0.03315397,0.20418684,-0.25237152,0.0990597,-0.028248662,0.23835993,0.055979617,-0.17878832,0.23204638,-0.096217826,-0.065060005,-0.23379941,-0.08952939,0.0022726709,-0.09925142,-0.17151517,0.2729827,0.03811148,0.19167216,-0.23766102,0.06645088,0.19823292,-0.048435632,-0.073492885,0.04474618,-0.25587267,-0.26034513,0.08793277,0.11697686,0.0056353635,0.16290744,0.16508895,0.2554745,0.04689551,-0.26390636,-0.008384791,-0.10996949,0.15591617,0.025378376,0.06360333,-0.15117739,-0.10389919,0.017276814,-0.16212822,0.22296144,-0.3085843,-0.024229305,-0.36529195,-0.106169954,0.1856503,-0.26746374,0.06725094,-0.012327585,0.11336951,-0.16210774,0.19402362,0.028598187,-0.08212037,-0.018253477,-0.40570542,-0.07076369,0.30528668,-0.0070927404,-0.09848271,-0.085628055,0.011055418,-0.13506734,0.26077983,0.018226437,0.120726,-0.118183814,-0.05964055,0.058736347,-0.04103622,0.038173646,-0.07030476,-0.12697834,-0.053087916,-0.19827478,0.14906071,-0.08981999,-0.18343596,-0.22933668,-0.115290254,0.2225062,0.179991,-0.14796571,0.19950302,0.05625592,0.04935306,-0.096076004,-0.08073937,0.11591456,0.031677082,-0.058349296,0.101099,0.04847791,0.1522194,-0.1577559,0.18996201,-0.23622309,-0.059110604,-0.05394042,0.0414129,-0.14057706,-0.24515878,0.018918607,-0.14309056,0.050582938,-0.15282054,0.19763279,-0.32311246,-0.4144431,0.29547846,0.023880765,0.07815965,-0.28338715,-0.17670418,0.13362487,-0.12189942,-0.24415663,0.28397864,0.22222582,0.012091652,-0.06591785,0.10345995,0.015474467,-0.008855325,-0.09118131,-0.2919005,0.33069342,-0.18038452,-0.07707144,-0.08940505,-0.024347058,-0.2579928,0.068793684,0.0180906,-0.1645251,-0.029650621,0.049153488,0.15325497,0.14715861,-0.22953972,0.14533243,-0.3377068,0.052359566,0.29987943,-0.27866232,0.3347908,0.042462304,-0.036707547,-0.020045586,0.13361262,0.22406206,-0.22383474,-0.18743698,0.008451114,0.075539686,-0.21748352,-0.24586195,0.12753043,-0.16799024,0.058271162,0.110076055,0.14618878,0.014230129,0.1467415,0.027616797,-0.05157934,-0.14553572,-0.24423306,-0.057886083,0.120710246,0.14937563,-0.292948,-0.13513282,-0.3714,0.021731008,-0.04934691,-0.14069359,0.054298848,0.19236907,0.03189427,-0.055986382,-0.021015022,0.1319665,-0.10657894,-0.019222077,-0.057219476,-0.029337358,-0.03201203,0.09321124,0.13642146,0.06199137,0.11171246,0.13862668,-0.15805922,0.051131494,-0.40843132,0.008313964,-0.07180911,0.13109633,-0.24130963,0.0883316,-0.086626835,-0.2251962,-0.075662754,0.006061388,0.20325214,-0.12848552,-0.12764837,-0.0075841136,-0.056366004,0.10406685,-0.06801248,-0.09995969,-0.0065761707,0.10173117,0.20351514,-0.035823148,-0.01858835,-0.047660615,0.0028064493,0.087443985,0.07947834,-0.17008625,-0.059781592,0.12942016,0.0036822765,0.027209727,-0.033246133,0.117908314,0.11715534,-0.295051,0.092700146,-0.0897164,-0.11199252,0.031599868,-0.13779321,0.11408187,0.22054298,-0.014899131,-0.091848224,-0.32847083,0.10660517,0.013530199,-0.06061401,0.070897095,0.05303676,0.019168798,-0.1389537,0.028684227,0.08705357,0.14163731,0.118724965,0.039307438,0.15974273,-0.34846568,0.1381177,-0.14595164,0.2293309,0.12370303,-0.05988322,-0.16690235,0.42668635,0.22071758,0.16283141,0.14191087,-0.13678874,-0.16159365,0.07639805,-0.12038939,-0.31826288,0.0048329635,-0.030933233,0.06422509,0.2603243,-0.16882376,0.26047897,-0.3606055,-0.013207291,-0.46784842,-0.070834875,0.20494696,0.2587508,0.03007714,-0.03949813,-0.106101796,-0.21351795,-0.037791606,0.12342804,-0.12584218,0.006095726,0.038023025,0.2625031,-0.11605481,0.19598144,-0.030325323,0.09150876,-0.14094326,0.18020412,0.09187989,-0.13229813,-0.16800798,-0.0103164725,-0.049149472,0.026234536,-0.15127964,-0.30295134,0.20787437,0.18335201,-0.11382935,0.055201802,0.12920001,0.09831393,0.121048756,-0.035229575,0.25369513,0.040886357,0.017451549,0.05752239,0.22271155,-0.13365637,0.07387019,-0.117461674,-0.16301237,0.019398535,-0.051428072,0.13103163,-0.0024645005,0.19271928,0.12058102,0.029865798,-0.039006133,-0.037573755,0.25528687,-0.35311428,-0.19676615,0.0076401317,-0.013984815,0.09391616,0.124431774,0.08128383,0.06512472,0.13855076,-0.046600223,-0.14687745,-0.008620164,-0.0075934,-0.043719254,-0.2264471,-0.13844284,-0.017547881,0.09054068,0.051906306,-0.34635726,-0.21840487,-0.15154798,0.14635873,0.18078724,0.1245135,-0.1613842,0.12565403,0.10154131,0.11773723,-0.15066622,0.061111014,0.05326481,-0.009873118,-0.214287,0.16692549,-0.12613359,0.14366244,0.37873703,0.101146,-0.15843976,0.016103098,0.27109003,-0.09454744,-0.1437555,-0.14555134,0.14363654,-0.0127305705,-0.14039038,-0.2510656,-0.06624283,-0.13863842,0.19455212,0.09055747,0.1929918,-0.19457777,-0.038931783,-0.22662853,-0.031725194,-0.36003718,0.28980985,0.13061494,0.3235557,-0.5753757,-0.19125357,-0.13697428,-0.10525849,0.1529526,-0.261123,0.13219851,0.090828985,0.18219778,-0.07306557,-0.021714833,0.26027444,-0.21928269,0.03277287,0.041692283,-0.15837234,0.18307489,0.039411105,0.10778758,-0.09594583,0.20000267,0.06709371,0.0006188134,0.0935451,-0.12968224,0.060244385,-0.16908465,-0.035373576,0.24265695,-0.072762094,0.04140166,-0.20079464,0.031199666,0.2764913,-0.103472196,0.20015153,-0.10945585,0.023775954,0.14328623,0.058532402,-0.30334613,-0.01219825,-0.16992266,-0.17966399,0.30848745,-0.11856175,-0.14142327,-0.11491768,0.15918301,-0.0841368,-0.03381058,-0.17593704,0.17516933,-0.088178515,0.13246213,-0.11560396,0.16235313,-0.073191956,-0.0059661544,-0.2184425,0.02050212,-0.035969276,0.059322543,-0.039772075,0.05448199,0.20922723,-0.21609433,0.16319726,-0.06013012,0.014472104,0.07263505,0.02007929,-0.061007585,-0.047018606,-0.14310098,-0.1947323,0.16963768,0.06645479,0.025158968,0.0008108711,0.01770609,-0.1532306,0.19928767,-0.11230168,0.1238919,0.04792737,0.1589271,0.09853826,0.012366042,0.15242939,0.14289409,0.008117863,-0.2223823,-0.013246438,-0.39539218,0.061717138,-0.15664692,0.07359678,-0.29704314,-0.25201777,-0.025320869,0.15314522,0.0211723,0.123869695,0.14394318,0.06953855,0.10253046,0.12474737,-0.18894754,0.050593805,-0.012451771,-0.24117823,0.0026574545,-0.09683466,0.13347642,-0.18462399,0.042896636,0.19265342,0.09072709,-0.04314176,0.07441013,0.256546,0.0361998,-0.08166628,-0.18175322,0.049139783,-0.013198853,-0.18705428,-0.14230205,0.20521903,0.18238622,0.027300732,-0.28910756,-0.05214097,0.21472761,-0.10677492,-0.14956874,-0.026479747,-0.23452564,-0.26648623,-0.064764574,-0.043531694,0.19540657,0.19494021,0.08467681,0.09746272,0.14131674,-0.22962572,-0.0011229607,-0.074726775,-0.056189623,0.07982523,0.07509309,-0.31646815,-0.04951423,-0.01677278,-0.092493,0.20258166,-0.27389374,0.08292851,-0.21373335,-0.08970473,0.09671219,-0.23803902,0.099574,0.06707503,0.11388696,-0.22650893,0.24837972,-0.04926748,-0.055264954,-0.16021056,-0.10609738,-0.022554833,0.25429904,-0.024890017,0.1459907,0.06334817,0.0009137368,-0.19371438,0.0821809,0.08677097,-0.04685664,-0.16184792,-0.12919252,0.09153515,-0.036758624,0.20962751,0.11802585,-0.054501373,-0.07728211,-0.26290777,-0.0072963513,0.022348674,-0.00012710225,-0.21768552,0.07076279,0.14575376,-0.019065848,-0.21009,0.2097133,-0.08905538,0.10505162,0.14510047,-0.038991075,0.20018265,0.020696037,-0.040555645,-0.021387052,-0.06673956,-0.032789804,-0.034397602,0.023965778,-0.19485766,-0.15627493,0.11063289,0.18337925,0.061891027,-0.06330444,0.0043954635,-0.0026667588,0.044469602,-0.20340726,-0.013414797,-0.20125324,-0.15038243,0.25099576,0.04467979,0.2098482,-0.36578387,-0.12578665,0.087557286,-0.0153282825,-0.45368484,0.23066401,0.07290255,0.06806129,-0.06894616,0.03867472,-0.089173734,0.06241598,-0.14587638,-0.20402776,0.07915741,-0.06618302,0.15465291,0.021264747,-0.2130311,-0.1710221,0.12684628,-0.2273992,-0.10085227,0.08930596,0.19403999,0.03189599,0.14250338,-0.3675319,0.071202606,-0.2187931,0.009496943,0.13723128,-0.1192618,0.06404807,0.058070082,0.017345905,-0.2565511,-0.015934926,0.115946375,-0.04788532,-0.10018839,-0.15158337,0.048724145,-0.16845572,-0.13035429,0.11335084,-0.06047274,0.045612164,0.20447165,0.035729516,-0.10630346,0.06421903,0.037004765,0.10178806,-0.04878307,-0.34009296,0.06470831,-0.00094603404,0.14471604,-0.22466712,0.0016735559,-0.2530183,-0.10522879,0.0147601655,0.079127595,0.16003996,0.027067972,-0.040587686,-0.056536213,0.0724334,-0.02113646,-0.0977631,0.008012502,-0.09946539,-0.06505402,0.05015074,-0.07894975,0.12139179,0.100529626,0.030375626,-0.07460753,0.047766447,0.05008417,-0.32762235,-0.06646653,-0.31726676,0.072465494,0.032133687,-0.10434153,-0.22553967,-0.06922919,0.12006963,-0.01928115,0.0023310608,-0.0899461,-0.035305664,-0.1481936,0.026011357,0.19191629,0.02318827,-0.15310703,-0.015040032,-0.08849151,0.14913191,0.043351084,-0.057004135,-0.16051902,0.12638287,-0.035262927,0.036154658,-0.26761687,0.031355575,0.019857828,0.07586045,0.07166516,-0.06121627,-0.0068920744,-0.037151154,-0.17650893,-0.05549576,-0.040749792,-0.16927622,-0.11384623,0.050274678,0.09371174,0.21829525,0.08751941,-0.02187532,-0.15386072,0.19333768,-0.2479776,-0.08993217,0.28285497,0.109736145,0.0830588,-0.19023216,-0.094526686,0.108043,0.31303108,0.22350019,0.2669874,0.2241347,-0.6208818,0.11840054,-0.12100021,0.14129207,0.12726226,0.030074857,-0.32771903,0.0743842,0.32322282,0.18406692,0.21998316,-0.25614956,-0.1582311,-0.0401264,0.17751706,-0.3032661,-0.19249299,0.07056715,0.12463203,0.04644377,-0.088070095,0.19988456,-0.44929254,0.07112096,-0.30556127,0.043032188,-0.030185424,0.26148063,-0.10349747,-0.035960175,-0.07497827,-0.31907454,-0.20476456,0.04236819,-0.24279514,-0.04237858,0.12546408,0.24820253,-0.2799987,0.08729081,0.0056919665,0.09039991,0.0029737456,0.030883254,-0.034792192,-0.033424478,-0.0032628297,0.07619968,0.08475396,0.08785017,0.040536348,-0.282055,0.23969266,0.18883179,-0.16204025,0.059244785,-0.015456272,-0.013840765,0.11700324,0.18548614,-0.019533725,0.029430829,-0.069587596,-0.10783652,-0.022092948,-0.21200092,0.118761696,0.028122509,-0.2456132,0.016049655,-0.06641245,-0.08460785,0.09545079,0.19149846,0.17116062,0.0996584,-0.10479706,0.09710659,0.03724182,-0.33194196,-0.22920473,0.17094226,-0.05286581,0.009096822,0.1583553,0.107221656,-0.24308123,0.07507732,0.037699673,-0.1784066,-0.20672736,0.012235205,0.051545803,-0.13913201,-0.07270027,-0.2843949,0.18066104,0.03809401,-0.14272626,-0.049737327,-0.16821541,0.10599065,-0.09599564,0.07914393,-0.15851595,0.20912674,0.12593405,-0.05490034,0.067875184,0.05327716,0.024011647,0.089076504,-0.024777694,0.10979026,-0.053970315,-0.12688129,0.25494584,0.10639884,-0.21028064,-0.034293823,0.26424706,0.08935163,-0.200494,-0.07615525,-0.025818106,-0.13859613,-0.0764336,-0.22961074,-0.026562417,-0.099724695,0.10055226,-0.075779244,0.2760069,-0.20197736,-0.020008236,-0.09137434,0.18052356,-0.396402,0.19249919,-0.1120962,0.19024855,-0.62834847,-0.08518021,0.07955959,-0.012172874,0.10869887,-0.064437024,-0.02889561,-0.03193873,0.19538404,-0.14817926,0.0752146,0.15517083,-0.2142285,-0.044986565,-0.056008674,0.04366622,0.002346875,0.07698456,-0.123065494,-0.071594514,-0.02915522,-0.044998933,0.24782784,-0.1547502,-0.19450308,0.16132423,-0.2760267,-0.23626488,0.072804116,-0.07356803,-0.06538798,-0.1940293,0.05664387,0.0932338,0.0277312,0.075029194,-0.036367405,0.04841927,0.16818613,0.08315314,-0.110517025,-0.10142164,4.3657463e-05,-0.123380885,0.16861215,-0.28104028,-0.14635558,-0.28876945,0.14808787,-0.09610358,-0.04651706,0.0034824992,0.19406986,0.07260614,-0.0960242,0.009195142,0.13176651,-0.13843647,-0.0048401617,-0.12958786,0.08124885,0.123497136,0.13639556,-0.07822222,0.07671001,0.08488568,-0.1921041,0.1708915,0.004946368,0.08320399,0.09530574,-0.06261892,-0.069108866,0.0884124,0.003984068,-0.22301953,-0.07107915,-0.020998405,-0.078562714,-0.2490536,-0.08929479,0.05496078,0.07258437,-0.1327678,0.076120324,-0.12039408,0.073309235,0.05245384,0.18580183,-0.036909413,0.06461834,-0.07245862,-0.36650893,-0.02149673,-0.30518344,0.067942046,-0.12030142,0.031368148,-0.12163665,-0.27391282,-0.19624345,0.0030216754,-0.1939891,0.15294836,0.0026305984,0.043220572,0.0143485665,0.13305238,-0.24151622,0.031288456,-0.10572739,-0.22724369,0.08266735,0.05091689,0.10648033,-0.10400161,0.078769214,0.004639104,0.010481387,0.02765014,0.03492642,-0.0022138124,-0.07067426,-0.06419509,-0.14105988,-0.007192,-0.20251699,-0.12606052,0.0035306038,0.19532855,0.17960171,-0.07659719,-0.2835512,0.15577014,0.17833248,-0.18575257,-0.038621377,0.21848682,-0.077042736,-0.15974343,-0.02169335,0.15191597,0.061387435,0.15849434,0.17707929,0.17869458,0.07786039,-0.25139153,-0.12934797,0.04290924,-0.02963866,0.18555559,-0.11316391,-0.3997594,0.11115532,0.015696496,-0.051024772,0.21008247,-0.16385339,0.07748873,-0.14936829,0.11562055,0.14010426,-0.029459573,0.0034390285,0.09172979,-0.10888894,-0.2995469,0.12536928,-0.026426107,0.029606113,-0.13805914,-0.084345594,0.0233904,0.14681128,-0.018034503,0.27489066,0.0770368,0.062309667,-0.054441582,0.18969612,0.14697665,-0.06542388,8.2907725e-05,-0.11076832,-0.017164245,-0.27557132,0.11101394,-0.0019828537,-0.024291176,-0.08026127,-0.20730844,0.05707638,0.0651963,-0.2788647,0.0073833778,-0.047147438,0.16049938,-0.08258081,-0.014940762,-0.0154050905,-0.01639104,-0.1177305,0.16985893,-0.019648226,0.05348982,0.12881777,-0.05541551,0.032102775,0.042463347,0.026649995,0.11303346,0.006864207,-0.1263502,-0.052823327,0.06838504,-0.005162931,0.12547165,0.2341361,0.023637254,0.012778513,-0.12425586,-0.08950159,0.119253404,-0.17160687,-0.084586695,0.10573631,0.1805046,0.028911352,-0.4404456,-0.07183094,-0.069814265,-0.114909396,-0.46585205,0.053110093,0.09701779,-0.07332992,-0.016620623,-0.0849623,0.069900475,0.08892976,-0.11873682,-0.31449702,0.08991486,-0.09908695,0.10126833,-0.069781095,-0.15945432,-0.35163411,0.08837643,-0.3021772,-0.17119108,0.034425713,0.09926534,0.16194174,0.13828647,-0.33544368,0.058789004,-0.317531,-0.12488865,0.26755854,-0.19882537,0.022833124,0.07840602,-0.025962783,-0.4844698,0.12496258,0.16776414,0.033223588,-0.3062288,-0.25910026,-0.1394105,-0.04631019,-0.16078982,0.11581412,-0.049406,-0.09489163,0.10094598,-0.23150302,-0.17020561,-0.0052489634,-0.16766453,0.18832314,-0.14274009,-0.1308533,-0.039150458,0.12533261,0.0984084,-0.17678642,0.061582852,0.025666643,-0.030295711,0.10235613,-0.10611826,0.12899211,-0.43975076,-0.08759349,0.102968104,0.0030756674,-0.009344793,-0.0880941,-0.09248589,-0.119409904,0.02419276,-0.06850252,0.15636493,-0.12896237,0.16163306,0.12308087,0.05139763,0.16702522,0.08864879,-0.14231151,0.116762534,-0.37620747,0.030773912,-0.010389613,0.014574143,-0.0626284,0.038645282,-0.06982993,0.04387283,-0.1093483,-0.13344215,-0.058990654,-0.024101663,-0.14059292,0.15890908,-0.087141626,0.052546866,0.022444317,-0.107397355,0.13779882,-0.017479796,-0.041326955,-0.018715575,-0.09941768,0.112387136,0.15865819,-0.21363957,0.02611164,0.11933266,-0.08484737,-0.039828647,0.053829737,-0.059111666,-0.04040435,-0.19767796,0.16557668,-0.11601519,-0.14915973,0.08029604,0.014655626,0.033417735,0.14007746,-0.07962531,-0.12491526,-0.26754794,0.12001423,-0.18197505,0.078632146,0.12221529,-0.015614691,-0.08064434,-0.05452891,0.09276587,0.12527299,0.11135863,0.2911423,0.23427635,0.0854589,-0.8625501,0.19658428,0.02046696,0.4294973,0.28226876,0.077118956,-0.3960658,0.0133735975,0.23475057,0.20488858,0.16652247,-0.2422928,-0.049841918,0.082076445,0.076886296,-0.47454113,-0.16531453,-0.09243292,0.33211192,0.08811954,-0.36105332,0.012026546,-0.17292082,0.08600806,-0.3429649,0.18085676,0.09630694,0.17433402,-0.03091585,0.0731662,0.037617728,-0.3465123,-0.4000097,0.15775497,-0.17440882,0.039160654,0.053131327,0.29492795,-0.11709914,0.165245,0.17569217,0.22875957,-0.16019937,0.0069560157,0.08273741,0.113329425,-0.07268887,-0.13371679,-0.045031156,-0.03299687,0.031011006,-0.14799859,-0.025795296,0.11625147,-0.1618153,0.012858016,-0.039091576,-0.07735672,-0.000706741,0.04727975,-0.09313231,0.13570698,0.062065657,-0.18621972,-0.16235517,-0.11099652,-0.0031395098,0.22652216,-0.048968367,-0.08370503,-0.060148183,-0.08143237,0.22296046,-0.017227547,-0.062904805,0.09718114,0.07547628,0.115320146,0.040484484,-0.39117903,-0.24284881,-0.0107802795,0.16753899,-0.05382808,0.10134702,-0.0048608747,-0.24352285,-0.07228705,-0.011808026,-0.035874948,-0.17522173,0.038447253,0.067030996,-0.013520727,0.033560757,-0.095889315,-0.06235091,-0.057164,0.21952407,0.10036166,-0.13823102,0.19368167,0.1617213,-0.30730462,-0.113451205,-0.06756752,0.035156693,-0.0013213627,0.011594169,0.17015457,-0.12623788,-0.46217936,-0.10163678,0.10285899,0.004111896,-0.00736318,0.11511253,-0.02396012,-0.36336285,0.06299248,0.11615948,-0.16144182,-0.3099757,-0.072418235,-0.07666144,-0.10465128,-0.32166466,-0.3254303,-0.10431772,-0.29029113,-0.018110283,0.025577562,0.25235316,-0.31544673,0.00907035,-0.14498663,0.3102762,-0.2983913,0.12155661,0.00804631,0.2752738,-0.6169448,0.06445046,-0.058816083,-0.16324125,0.2181611,-0.1976436,0.106875464,-0.18661174,0.2631234,-0.28692374,0.16514091,0.1127754,-0.14740755,-0.015128902,-0.18698668,0.0984329,0.1252291,0.18396956,-0.06906527,-0.14391042,0.096717484,-0.019084178,-0.08922096,-0.082513876,-0.09001332,0.14943768,-0.37061724,-0.21118878,-0.026379753,-0.0373642,-0.009313916,-0.12863848,0.020607643,0.13083598,0.020076115,0.18573491,-0.19967508,0.119244404,-0.09280265,-0.09332932,-0.09653941,-0.24013634,0.15683524,-0.19188324,0.2057776,-0.26360282,0.08168998,0.07353247,0.07646275,-0.055771004,0.09271204,-0.045271505,0.11240492,-0.071654536,-0.103089646,-0.100012384,0.12451726,-0.15099628,0.18169057,0.12330708,0.043228325,0.016281066,0.2014352,0.08210604,-0.031171892,0.20921038,-0.04905434,0.20373517,-0.2270724,-0.10680651,-0.2090035,-0.09521996,0.059073307,0.060048956,0.03904989,-0.05356809,0.095005,-0.114701696,-0.036126476,-0.020975854,-0.16412053,0.013616756,0.24498409,0.0608568,-0.018014695,0.09609642,-0.13104157,-0.15328656,0.042004727,-0.012961389,0.05582298,0.06426115,-0.35749227,0.03468407,-0.3017786,0.033256743,-0.09137702,-0.012749186,-0.18754816,-0.07218546,0.0052718893,0.028415775,-0.12212348,0.1991748,0.09056835,0.11888474,0.026278822,-0.09201914,0.018953662,0.13013701,-0.06916043,-0.055084083,0.107302755,0.21158382,0.009926525,-0.046926603,-0.0657658,-0.056934174,-0.09453355,-0.15272108,-0.06342369,0.06245129,0.1332577,0.103421405,-0.050053805,-0.08100809,-0.13348916,-0.23361185,0.033409555,0.19827971,0.037016947,0.022224199,-0.18410066,0.11677836,-0.1170932,-0.110161334,0.037025996,0.1296162,-0.034031782,-0.009278692,-0.13200486,0.12215028,-0.09808083,0.15199213,-0.00359663,-0.12163625,0.26107112,-0.095705524,-0.20980065,0.16480969,0.23467565,0.13482009,-0.09057499,-0.20080997,0.19914787,-0.057096742,-0.017768191,0.25337628,-0.1324599,0.12586398,-0.024496881,-0.0977794,0.12761426,-0.06367227,-0.03191375,-0.05727782,0.12649722,-0.26767015,0.053213373,0.1078781,0.11906895,-0.23697084,-0.116955645,-0.05385274,0.11076662,-0.051011205,0.20437314,0.021616371,0.14150687,-0.11585139,0.13511428,0.17997828,-0.048484325,-0.0024419227,-0.017929131,-0.027623838,-0.31775835,0.24860913,-0.06271825,-0.010113695,0.022453768,-0.06743703,0.056181487,0.008321975,-0.18972202,-0.16097787,-0.10378712,-0.04457948,-0.049342975,-0.15881391,-0.0047494746,-0.08601318,0.22457008,0.035962418,0.001746085,0.21352434,0.027947329,0.1185487,-0.0767492,-0.11360803,-0.052965112,0.060272474,-0.03777185,-0.00733069,0.22020622,0.15658043,0.15006222,-0.033806715,0.24888037,-0.15827028,0.02290337,0.01866889,-0.12442061,-0.05945279,-0.3729772,-0.0738066,0.20312718,0.2191918,-0.08358517,-0.34354046,-0.11221614,-0.103806056,-0.072710425,-0.3419022,0.07374569,0.10241489,0.097549185,0.023888277,-0.19868128,0.05942242,0.0050970977,0.081995584,-0.014157692,-0.2032646,-0.19405255,-0.0024647282,-0.1268456,0.065192685,-0.18255192,0.085677125,-0.0025043515,0.032938786,-0.30853721,-0.085361056,0.16898653,0.062794834,-0.3938112,-0.25369686,-0.35375583,-0.094309576,0.35158616,0.041636445,-0.00944091,-0.09541405,0.21511282,-0.5988257,0.11638769,0.26317275,0.085284814,-0.36751074,-0.23395298,0.095235,-0.13803907,0.015814448,-0.12834065,0.06631975,-0.013882998,0.20746742,-0.2505816,-0.20859075,-0.11463708,-0.038179945,0.24964042,-0.017045094,-0.08025452,0.14582095,0.16732644,0.14143439,-0.23962024,0.03339589,-0.13780504,0.00031738647,-0.023279972,0.03595633,-0.024082176,-0.37140027,0.06875251,-0.036719892,0.043348096,0.068123415,0.13532248,-0.16170219,-0.15941201,-0.021651823,-0.17124416,0.21777844,-0.14071994,0.25539044,0.10152593,-0.039279345,0.032454073,-0.083437234,-0.11076284,-0.026817746,-0.2674182,0.10475079,-0.17545125,-0.14473212,-0.0026492174,-0.13717827,0.09632513,-0.021072477,0.072534926,-0.018429397,0.14505537,0.091332726,-0.1982112,0.22461456,0.10283508,-0.052573983,-0.1356995,-0.050105866,-0.09187327,0.09225149,0.024013868,-0.12743378,0.08414183,0.030176543,0.024689203,-0.11438821,-0.19804336,-0.016050432,-0.19097713,0.10781489,-0.18074657,0.044254687,0.006840062,-0.25693187,0.1892031,-0.110286236,-0.0802091,0.027701724,-0.08225831,0.10135102,0.28958896,-0.023124082,-0.27042845,-0.17074336,0.07497884,-0.23955669,0.051807098,0.23753713,-0.05056109,-0.06347378,0.12233996,0.11976775,0.08585109,0.30435294,0.3161208,0.40371025,0.18764484,-0.7240353,0.015336,0.11403051,0.10505192,0.31653088,0.058069054,-0.5513999,-0.19167916,0.08039948,0.05189636,0.25929132,0.027871719,0.025839096,0.20915511,-0.08871251,-0.5972024,-0.061900817,-0.23153573,0.08546737,-0.15632999,-0.5195437,0.14827757,-0.5210012,0.04628902,-0.12053446,0.042032428,-0.104341514,0.15718584,0.002229833,0.04367451,0.13949814,-0.058161978,-0.2309214,-0.055759948,-0.27127752,-0.031275373,0.1387982,0.24383372,0.0098980805,0.25958565,-0.030494664,0.21388704,-0.19657668,0.10435993,-0.14809747,0.19019015,-0.119132474,-0.15135852,0.13868628,0.06332498,-0.09992685,-0.23935722,-0.2647557,0.015294071,0.040586803,-0.2244828,0.20677811,-0.019730715,-0.15049048,0.108519316,0.06696242,-0.12153383,0.05365915,0.02470045,-0.16391677,-0.03324773,0.030013943,-0.10940532,0.11961586,-0.021219915,-0.07086538,-0.062311653,-0.00072436564,0.1400181,0.04083572,-0.12242243,-0.07570083,0.11934613,-0.18755366,-0.56219524,-0.17064892,0.2011583,0.13923717,-0.03168462,-0.15052928,0.014861368,-0.21902081,-0.07799976,0.11312155,-0.11302969,-0.34909102,-0.019297022,-0.07334297,0.12547831,0.085299656,-0.07678125,-0.008708166,0.0024648423,0.25010544,-0.06603613,0.14582703,-0.069644496,0.17282687,-0.5737014,-0.20543464,0.07453354,-0.12789162,0.13273469,-0.00820833,-0.00938323,-0.10076845,-0.31280652,0.051177412,0.09335576,-0.010344198,-0.10446398,0.11117216,0.22093722,-0.08230036,-0.06818793,0.08764751,-0.0492049,-0.17237519,-0.04129332,0.14266981,0.06440933,0.097280055,-0.0030628098,-0.16036606,-0.24593464,0.11628852,0.02441956,-0.010676275,-0.17968094,-0.0061377366,-0.24334806,0.18066218,-0.24240083,-0.010834413,0.12751858,0.18830606,-0.58870727,-0.11364756,0.11014784,0.063815586,0.24302194,-0.32684344,-0.04525898,-0.2744275,0.13887641,-0.25264758,-0.021909393,0.12776907,-0.11432139,0.0118180895,-0.10046806,-0.017294472,0.03027093,-0.14193887,0.23205584,-0.035369407,0.090846285,-0.014701561,-0.04065427,-0.20577434,-0.09322045,-0.017382056,-0.35727578,-0.27404517,0.07227686,-0.07844951,0.024133902,-0.08575242,0.1902384,0.080473006,-0.06585219,0.024255088,-0.06789479,-0.024940118,0.057834156,-0.09694549,-0.28066012,-0.29745987,0.1358021,-0.013514011,0.23779969,-0.28444558,-0.21979076,0.038321625,-0.037964597,-0.052141484,-0.084841944,-0.082070455,-0.120620735,0.07284026,-0.13861728,-0.113639325,0.06231071,0.019267784,0.14210531,0.1320527,-0.060342964,-0.14063612,0.20221199,0.041662283,-0.07814877,0.017993415,-0.0097796535,0.13017122,-0.03166587,-0.002403771,-0.19108917,-0.19229445,-0.039546233,-0.07602184,-0.08263555,0.07777439,0.040817507,-0.1211603,-0.108882114,-0.13598002,-0.03504935,0.053104386,-0.10323638,0.09298122,-0.023783704,-0.053990636,-0.07111134,-0.18642795,-0.044856794,0.059991263,-0.017081311,0.036692947,-0.023024762,-0.100258425,-0.1988721,0.20673354,-0.102875516,-0.011031828,-0.24274601,-0.03869626,0.008818642,0.14046054,-0.10337796,0.06522377,-0.031939525,0.18089688,-0.00863393,0.03612318,-0.018423919,-0.06476693,-0.1219366,-0.09717434,-0.03634355,0.06977418,-0.023354715,0.082188696,-0.07404972,0.01432434,-0.13125724,-0.10632871,-0.054019425,0.07348534,-0.059761554,0.08902065,0.16767776,-0.069610104,0.0632946,-0.15402594,0.019177139,-0.04654467,0.21196589,0.06133873,-0.24871106,0.008024865,0.09164926,-0.04012783,-0.053338166,0.15163547,-0.032716766,-0.2528297,0.05665214,-0.022285005,0.08347826,0.15951283,0.10441507,0.338188,-0.3267396,0.074875884,-0.13717163,-0.020663273,0.12846152,0.17524914,-0.12706634,-0.3228433,-0.060862888,0.12792559,-0.042896386,0.18087588,0.09977653,0.16936159,-0.02592514,0.016601322,0.06369143,-0.08160726,-0.11919315,0.04548327,0.015495743,-0.37338883,0.057518166,0.076872654,0.03052992,-0.08640906,-0.07394378,0.09357624,0.15261814,-0.08989395,0.12413483,0.09201417,0.2279936,-0.105350494,0.0625766,0.1411629,0.15653296,0.030131126,-0.032555036,-0.035292428,-0.35235798,0.008610062,-0.07841031,-0.026194964,-0.1407068,-0.09433514,0.08481841,0.08073859,-0.22732061,0.057423484,-0.12433245,0.16544224,-0.17509323,-0.22019097,-0.05054211,-0.075522155,0.13507648,0.09228041,-0.014705099,0.17284898,-0.1794274,0.20467094,-0.08722873,0.051138215,-0.14487447,0.121977985,-0.19320756,-0.2250492,0.10103452,-0.090164565,0.038035184,0.21476705,-0.1191913,-0.006571074,-0.10160501,-0.25279835,0.026688043,0.096742176,-0.21431103,0.056724418,0.19501644,0.16092691,-0.15780017,-0.3613704,-0.058369603,0.046728272,-0.16996707,-0.40399045,0.03413214,0.09503281,0.24866965,0.023056155,0.0727899,0.018885117,-0.051381886,-0.27077532,-0.011601197,-0.30655688,-0.33957914,0.017920218,0.0422798,-0.027445782,-0.18018378,-0.091315955,-0.076864175,0.04359674,-0.22313279,0.09407468,0.2688665,0.09470013,-0.21448149,-0.22496168,-0.20058542,0.058500733,0.2806917,0.074774295,-0.08450251,-0.07938759,0.252145,-0.45301107,-0.10251053,0.28583112,-0.0545495,-0.18791933,-0.2986313,-0.010219179,0.01096352,-0.18510364,-0.2681172,0.18922761,-0.1758333,0.15740049,0.035018425,-0.008734365,-0.0075771017,-0.08620193,0.26669583,-0.059599914,0.03632478,-0.016551629,0.118388936,0.25488386,-0.19074139,-0.083141506,-0.19957756,0.019462736,0.08614725,0.04489129,0.027673183,-0.55168146,-0.086168386,0.24513564,-0.087292396,0.0681618,0.26993328,-0.17805779,-0.0022083025,0.020287795,-0.11171687,0.15485151,-0.19144492,0.027332,0.030542707,-0.021738907,-0.15614647,0.032114685,0.0194054,-0.044742938,-0.4414662,0.046391178,0.063392706,0.024923261,-0.10807656,0.030667482,0.07529913,0.021162076,-0.093892895,-0.019647721,0.16724518,0.028857619,-0.18052486,0.08175182,-0.06085184,0.0127512645,-0.18123163,-0.046975557,-0.08078323,0.1050616,0.024792293,0.03219568,0.11893994,-0.04819765,0.057058416,-0.24948177,-0.19595669,0.0720994,-0.19423589,-0.09700581,0.02116501,-0.20374154,0.16065353,-0.051161323,0.056994755,-0.056419592,0.044987362,0.034231983,-0.15080006,0.026704183,0.17182282,0.11269524,-0.24631436,-0.33464316,0.16979833,-0.23189846,-0.069509,0.21333621,-0.032025326,0.041677795,0.045586016,0.09938709,0.14265989,0.16506621,0.14841227,0.35339144,-0.015605602,-0.5911239,0.022116302,0.015002526,0.2972844,0.31774998,-0.17934199,-0.2236012,-0.102385566,-0.019259281,0.16373062,0.21570928,-0.26389986,-0.030320164,0.055872638,0.009024567,-0.4352907,-0.07925442,-0.18195997,0.19330665,-0.05511108,-0.6792345,-0.016394412,-0.4547688,0.064409606,-0.18129759,-0.07783706,-0.16865702,0.072482795,0.078085326,-0.049971193,0.21488422,-0.008969208,-0.28035125,0.078347914,-0.20917603,-0.08007804,0.048774704,0.17055053,-0.023955667,0.100266516,0.21519464,0.27669924,-0.24788858,-0.11382917,-0.15878102,0.13761173,-0.15401489,-0.11549939,0.1697061,-0.062256094,0.044780973,-0.39004946,-0.31542537,0.09442286,0.012036813,-0.17858553,0.27245885,-0.04347077,-0.12221315,-0.13939092,-0.15170759,0.09724807,-0.11783121,0.22299868,-0.31986222,-0.13494924,0.22445764,-0.146304,0.06617884,-0.060168475,-0.023347681,-0.004266654,0.023462802,0.0602178,0.1564576,-0.033580277,-0.13870975,-0.08832944,-0.10951731,-0.44053394,-0.24253954,0.21798085,0.15637322,0.14022453,-0.07515616,0.16874392,-0.19972867,-0.14110819,0.083765596,-0.2295589,-0.28008717,-0.034538906,-0.124295615,-0.058301166,-0.17099173,0.23325478,-0.071418546,-0.09848545,0.06839452,-0.2007337,-0.034549396,-0.09405796,0.189239,-0.41760156,-0.021097181,0.08634863,0.062453043,-0.062275216,0.18522543,0.0022401463,-0.008713096,-0.15071712,-0.013649611,0.088976644,-0.008052111,-0.20901269,0.08196717,0.098583475,-0.2158816,-0.023329426,0.2742244,-0.0724742,-0.17027536,-0.1343778,0.07229178,0.048439734,-0.15396367,-0.19362816,-0.26081038,-0.31803566,0.25737056,0.12204293,0.09084626,-0.24845584,-0.03828114,-0.14305557,0.40958637,-0.28166765,0.18262626,0.04693735,0.37350532,-0.5810436,-0.08610631,-0.07349149,-0.10478832,-0.0355602,-0.25713012,0.037450235,-0.19589806,0.17438625,-0.18548502,0.13490476,0.06683121,-0.077148825,0.20133142,0.049209528,0.017548768,0.14223213,0.08792607,0.34847444,-0.034791686,0.08051652,-0.073210545,-0.038066696,-0.11923353,-0.22011715,-0.05262962,-0.3320631,-0.3457898,0.13178378,0.0044020857,0.05677276,-0.1616797,0.088681534,-0.032052804,-0.17713141,0.017637571,-0.2011434,0.1704764,-0.025388509,-0.017554183,-0.25293618,-0.21237014,0.26804307,0.05106062,-0.02008055,-0.30478615,-0.15220182,-0.22054735,0.05428894,-0.11890619,0.0584953,0.011572112,-0.043777056,-0.19613633,0.04441562,0.0420234,0.09317076,0.035349082,0.04550622,0.1442909,0.15442832,-0.169398,0.015987653,-0.024168633,0.12620677,0.19378993,-0.12911347,0.13202366,0.015140937,-0.100184835,-0.046506476,-0.28337824,-0.080321796,-0.041642364,0.106877334,-0.024734098,0.12930694,-0.14582254,-0.16763233,-0.17550735,0.01218179,0.076075286,-0.09637382,0.13872457,-0.017704781,-0.0685355,0.015541606,-0.0123306345,-0.06398908,0.052653976,0.12204645,0.15915053,-0.11649633,-0.0069158305,-0.04656382,0.15454945,-0.15374525,-0.062094297,-0.062408153,-0.0989224,-0.01070723,0.07837635,-0.13101856,-0.058895994,-0.1637641,0.23379676,0.019141987,0.18151397,-0.020090887,-0.008420714,-0.13338868,-0.1960926,0.03150046,0.17535791,-0.052069314,0.18626942,0.07502688,-0.1047057,-0.12509309,0.07570103,0.042558666,-0.12678988,-0.04348922,0.0011377336,0.032812584,0.14503579,0.05965296,-0.23120187,0.05694333,-0.0775696,0.13142455,-0.07704461,-0.06727666,0.051613327,0.08516127,-0.105361216,-0.1689677,0.19361982,-0.0123057375,-0.19127412,0.07397874,-0.03515993,0.15713614,0.1951873,-0.055452354,-0.12997772,-0.13098587,-0.027184313,-0.34653115,0.1711064,0.061210684,0.18255088,-0.06932175,-0.38915685,0.08241687,0.20067579,-0.0107332,0.3070522,0.14335258,0.23697066,-0.04846598,-0.19308229,-0.07402351,-0.24450773,-0.061348047,-0.05529637,-0.09366613,-0.43100274,0.0974883,0.28252852,-0.06503859,-0.24052061,0.026223017,-0.048656855,-0.048161402,-0.072594225,0.15041086,0.04924663,-0.066189796,-0.0768143,0.049027316,0.11634665,0.11355044,0.016316865,0.013637692,-0.16219498,-0.40220225,0.23738375,0.03140432,0.04169812,-0.17299809,0.04343101,0.12678772,-0.0471508,-0.41257682,-0.10086445,-0.3039803,0.013941255,0.05820923,-0.03936091,-0.068826206,-0.10284368,0.25304332,-0.03994133,-0.12956886,0.07172554,-0.11066876,0.12152804,-0.050161432,0.030308653,-0.056781214,0.13236667,-0.12654372,-0.17355694,-0.06739257,-0.015780117,-0.087190464,0.21083161,-0.24911407,-0.15035377,0.021727953,-0.2557624,0.061891895,-0.036871027,-0.16001436,-0.06392008,0.03743854,0.1372369,0.005025629,-0.2803923,-0.05555437,-0.0124152275,0.015866887,-0.41928276,-0.14039862,0.06638726,0.18042916,0.038750447,-0.0675557,0.18845052,0.089860186,-0.15834126,0.2475844,-0.11860385,-0.3304935,0.48317543,0.17584082,0.09972083,-0.352022,0.09084826,-0.24145532,0.029797068,-0.08406707,0.21278004,0.26199734,0.15791896,-0.29210123,-0.27306816,-0.2775473,0.08173688,0.18358114,-0.068960905,0.07763643,-0.21862435,0.33779466,-0.51209044,-0.021798357,0.15582947,0.042942844,-0.10733459,-0.04423408,0.018369135,-0.17518373,-0.3710363,-0.062237658,0.1732529,-0.14950486,0.060785726,0.17934176,0.2035571,-0.024059301,-0.007725659,0.034738876,0.042889077,-0.038862076,0.0312717,0.1130833,0.10789569,0.07656022,0.116209805,-0.068327434,-0.07469015,0.17858091,-0.04635927,-0.055146,-0.54425764,-0.0720467,0.26171154,0.16969119,0.12166536,0.19518992,-0.05766189,-0.23847166,-0.08763996,-0.32584682,0.14275448,0.004664847,0.14544725,0.01333744,-0.0649183,-0.20916778,0.06412957,-0.07770735,-0.101396486,-0.16780809,-0.048611168,-0.02819261,-0.17482534,0.059603713,-0.27548176,0.030983046,-0.20902927,0.06155633,0.066741936,0.13270935,0.018667925,-0.25429216,0.17121913,-0.04456347,-0.10943113,0.043486267,0.022235295,-0.01014833,0.14965416,0.07754145,-0.106883384,0.041327853,-0.03348679,-0.12721817,-0.16603567,-0.3102655,0.22706378,0.01910425,0.22712244,-0.05342808,-0.3141587,0.15766305,0.06643449,0.13312757,-0.124457374,0.25990006,-0.0386418,0.057662476,-0.0892591,0.124564104,0.060750764,-0.115855224,-0.42660475,0.21137136,-0.3210623,-0.105630636,0.2930377,0.112002656,-0.0970562,0.04548912,-0.039574318,0.26589254,0.40606204,0.040098447,0.4361863,0.13185926,-0.40744635,-0.042219207,-0.01547,0.12306886,0.28412393,0.030618947,-0.10155579,-0.099483155,0.20796858,0.20996404,0.3126792,-0.29917908,0.037549485,0.07645757,-0.0331797,-0.31616175,-0.033224273,0.13322702,0.03632199,0.120476775,-0.5790646,0.25065762,-0.15582721,0.22708915,-0.061947294,-0.011953277,-0.25615206,-0.028667778,0.21901372,0.18879916,0.1602782,-0.078908615,0.0366381,-0.023510452,-0.07425648,0.21666151,0.021337193,0.21494976,0.11241432,0.21296947,0.116146654,0.23437563,-0.17878403,-0.07443446,-0.005643087,0.08127269,-0.043934137,-0.28998193,0.27492335,-0.11358996,-0.02057352,-0.29742217,-0.5063206,0.33315933,-0.110409744,0.018788243,0.13496435,-0.12608342,-0.13892204,-0.0014319917,0.24153325,-0.16047125,-0.07172551,0.11377377,-0.008105273,-0.21508229,0.18312442,0.27364668,-0.03739917,-0.27605608,-0.0055580563,0.0814876,0.12239225,0.13404977,0.08963289,-0.16532806,0.22231656,-0.054305144,-0.070948355,-0.4257719,-0.35040137,0.16371164,0.14298828,-0.08152424,-0.07370576,0.32435918,-0.21047382,-0.12911782,0.054101817,-0.07778977,-0.3899336,-0.023926916,0.12499642,0.06852273,-0.19165277,-0.01942891,0.011768433,-0.06982079,0.121674076,-0.2870989,-0.26343673,0.09486001,0.06483616,-0.12482875,-0.13701616,0.08724303,-0.045209855,-0.22907245,0.20874466,-0.03055837,-0.14089385,-0.37542978,-0.12919503,0.06474688,0.049946524,-0.28052416,-0.034174055,0.22795619,-0.35979706,0.057324294,0.19574055,-0.14162841,-0.04023149,-0.1314787,0.16757788,-0.05478145,-0.09625265,0.0045132646,-0.2610961,-0.19950476,0.1842295,0.18899807,0.3055348,0.032863535,-0.16328442,-0.0567826,0.2360827,-0.3593473,0.15407273,0.22275734,0.38552332,-0.5203281,-0.17502385,-0.12835124,-0.09470177,0.059584435,-0.36897272,0.16955255,-0.3835572,0.25700617,-0.28238955,-0.017677749,0.01721304,0.0005547483,0.16590662,0.04492492,-0.03826174,0.01064872,-0.029006941,0.20792742,0.23383558,0.140412,-0.06097883,-0.15683475,-0.21338779,-0.22976069,0.14716768,-0.14618443,-0.18386386,0.13023275,0.021434475,-0.18524244,0.039590716,0.017462535,0.06729825,-0.04342776,0.06638488,0.0089909285,0.110545695,0.17681916,-0.038426206,-0.22005919,-0.5555034,0.29679805,0.18312001,0.027377926,-0.2502867,0.06950471,-0.1787924,0.055967007,-0.12632398,-0.13909358,0.14785217,-0.08341617,-0.25036147,-0.011177328,-0.20455031,0.07726807,0.16035189,0.017296476,0.25783208,0.03424277,0.109560564,0.13378571,0.00081706163,0.06124745,0.11898296,-0.06563555,0.19104727,-0.09226063,0.104189366,-0.35760868,-0.3260282,-0.08386947,0.22770946,0.08257718,-0.007033507,-0.1246199,-0.21020332,-0.33260182,-0.21761456,-0.31229797,-0.118096724,-0.2785737,0.1892029,-0.2290862,-0.04583943,0.017570036,0.20472772,-0.05521559,-0.06398997,0.0058859624,0.29014617,0.049989667,0.045271568,-0.06416485,0.15849678,-0.08590032,0.07919799,-0.10585593,-0.012199349,0.039996356,-0.11432718,-0.2406196,-0.27975404,-0.06752323,0.17254476,0.0030751748,-0.032756105,0.24651003,-0.033980187,-0.21726331,-0.032016646,-0.0905222,-0.13364606,-0.1710566,0.17965904,-0.077593245,-0.07558681,-0.15580225,0.00022752109,-0.08159899,-0.32995877,-0.07880696,-0.024539486,-0.001329564,0.10126507,0.08735186,-0.18951115,0.24528249,0.045158077,0.21965086,-0.110983156,0.118411414,0.012541489,0.06893771,-0.004948025,-0.32854614,0.046334013,0.1387165,-0.21565706,0.058961313,0.03352817,0.053797364,0.012620051,-0.124253996,0.04000249,-0.02541794,-0.04204514,-0.16807298,0.19982193,0.13977684,0.33825144,-0.071432926,-0.37299275,0.009735856,0.14393795,0.01611275,0.38619566,0.19502515,-0.011464034,-0.044895396,-0.10293434,0.056733914,-0.015798492,0.10470733,-0.023614176,0.016208362,-0.29614004,-0.046481885,0.22687256,-0.05874519,-0.2629702,-0.03705471,0.01586732,0.12748204,-0.04740342,0.06034621,0.124696985,-0.1888292,-0.09679477,-0.009821415,-0.32082388,0.02441015,-0.1852522,-0.1396155,-0.047435295,-0.29433435,0.058701593,-0.052206066,-0.14114356,-0.081730805,0.00029539535,0.13695416,-0.10750736,-0.22587141,0.15179764,-0.150383,0.14557989,-0.4076383,-0.105081074,0.17162302,-0.07536334,0.34399885,-0.11718209,-0.19605409,0.012219823,-0.22103289,0.24819548,-0.3584585,0.026327163,0.13794628,0.013106229,-0.21535599,-0.036613237,-0.09839381,0.12137579,0.09599415,0.13938661,-0.21042429,-0.141875,-0.16674142,-0.19821954,0.045892786,0.18125503,-0.10674383,-0.1571645,0.060474493,0.0867604,-0.22793233,-0.4026604,-0.11901099,0.089873284,-0.047990058,-0.43102753,-0.23116158,0.12760922,0.1665991,-0.024020066,0.1808772