-0.15380964,-0.077650554,-0.079326026,0.20043956,-0.02297757,-0.3102291,0.0024565812,-0.117548116,-0.01920864,0.26708695,0.096679,0.14146377,-0.15058711,-0.068674535,0.0345741,0.16538616,-0.14524487,0.3020496,-0.110779695,-0.06535257,-0.108881086,0.022826042,-0.09950656,0.09103984,0.06280203,-0.052276228,0.17078483,0.009202892,0.086072735,0.34801874,0.085807055,-0.33334556,-0.03930105,-0.21572301,0.053952876,-0.062422093,0.013222599,-0.0026505596,0.06955184,-0.07374609,0.012261753,-0.35735178,0.11163268,-0.053773846,0.021605605,0.20838639,0.18841131,-0.16194515,0.12785646,0.056003895,0.052487526,-0.045331307,-0.051479023,0.3327563,0.040392634,-0.14751047,0.12662272,-0.1927007,0.1377133,0.1278457,-0.11938709,0.3386558,0.08424145,0.06630617,-0.2347407,-0.06007437,0.02015844,0.1289045,0.04088556,0.16171865,-0.05206734,-0.023595313,-0.07700754,0.29054213,-0.20638889,-0.06576509,-0.1401692,0.06824619,0.22621416,-0.24771662,0.11983364,-0.06990099,-0.094444595,0.19408566,-0.23840642,-0.11607004,0.06924245,0.46707118,0.052152198,-0.21071264,-0.18444903,-0.09043457,-0.008255177,0.13962531,-0.02129772,0.08241336,0.026792299,0.016398927,-0.053912215,0.017827723,-0.015754435,0.23064291,-0.103637405,0.061995666,-0.03478632,0.30122307,0.14565104,-0.039478697,0.0028897864,0.16656137,-0.25096923,0.07722574,-0.021694193,0.12919213,0.08387708,-0.10738726,0.3487335,-0.08994844,-0.04903965,-0.05875671,-0.085462295,-0.14829671,0.0150486715,0.14797871,-0.06004054,0.0689535,-0.06612128,-0.05072346,0.03149865,0.10583374,-0.16035451,0.004157309,0.27182078,0.1429539,-0.14972633,0.06231561,-0.07697918,0.09877168,0.0021303021,0.21983035,-0.2085624,-0.028053388,0.15610398,-0.10455664,-0.040341638,-0.030780312,-0.07491505,0.24432312,0.051319513,0.016530164,0.008961092,0.019109147,0.10011584,0.040498834,-0.16654713,-0.06842077,-0.14931716,0.08618422,0.111871555,0.10000161,0.04359219,0.07199144,0.0027640332,0.19525982,0.010848585,0.090103276,-0.06861048,-0.087156504,-0.035920154,0.160447,-0.082783975,0.029733388,0.03907265,0.0044420725,-0.12346332,0.1308865,-0.2337158,0.07436403,-0.03847221,0.1170009,-0.061044667,-0.015747674,-0.08248489,0.12387494,0.021401238,0.09802445,0.065223254,-0.11633986,-0.1890847,-0.008265651,0.12647371,0.028777428,-0.16429558,0.0785169,0.00754321,-0.072890244,0.26800445,0.008261291,0.26701024,0.14996402,0.034107454,-0.008405566,0.015585664,0.003863664,-0.15498745,0.03014139,-0.023712782,-0.25926736,0.13321239,-0.07817066,-0.12502278,-0.09661219,-0.048733905,-0.013579119,0.083436474,0.1651461,0.06473356,0.0005866882,-0.27404302,0.16576721,0.04301785,-0.08479082,0.103427075,-0.08901891,0.2161865,0.12458834,-0.08739008,0.09516736,-0.06801803,-0.12157643,0.040718593,0.02993648,-0.06812599,0.014630928,-0.018117616,-0.0144004915,0.17535144,-0.05739248,-0.23615299,-0.048096858,-0.1567918,0.23317787,-0.14635183,0.11274217,0.21875997,0.004004822,-0.06565135,-0.21444166,-0.039892215,0.053670578,0.39268705,0.114791274,0.05530252,0.01095055,0.052281156,0.1082277,0.044320624,-0.25836056,-0.2162844,-0.025391022,-0.034489386,-0.05734831,0.2722067,-0.18327639,-0.063447356,0.14217505,-0.16014038,0.028740995,-0.18172655,-0.33288276,-0.31140855,-0.122820884,-0.21647342,-0.08708691,-0.099409245,-0.09408235,0.099776685,-0.10455328,-0.25575137,-0.0397466,-0.15181558,0.30751663,-0.031213265,-0.10839768,0.14528956,-0.06268737,-0.13241984,0.013119073,0.015244654,-0.18626423,-0.123664334,-0.0001599892,-0.040249277,-0.3495391,0.2768996,0.010004509,-0.04638752,-0.32030213,-0.09534429,-0.056062236,0.2320342,0.0030897013,0.016082322,-0.017886417,0.01238093,-0.16159771,-0.082304746,0.43045864,-0.11684806,-0.0076886015,0.19985065,-0.15916944,0.08352953,-0.1614495,0.16531648,-0.16807896,-0.24471001,0.052189995,0.013326755,0.12807593,0.14107661,0.12845191,-0.06165735,0.1477544,-0.029509407,-0.015430226,-0.014220589,-0.0035998062,0.048982523,-0.054884475,-0.031361137,-0.015574579,-0.14062443,0.0046920264,-0.01797074,0.028551627,0.01521421,0.09259928,0.085461654,-0.12103465,-0.08583256,0.0013102347,0.032394323,-0.12128712,0.21267797,0.02686413,-0.18671188,0.06969332,0.045925777,0.032951552,0.008046504,0.25452393,0.07851518,-0.10751619,0.124579124,-0.09507984,-0.06357616,-0.14878324,0.0627508,-0.08458368,-0.027337022,-0.14327319,-0.085855715,-0.03141204,-0.1606959,0.1596425,0.060704812,0.19669819,0.067297705,-0.011835333,-0.12715217,0.2165922,0.0084133055,-0.1706752,-0.22509962,-0.14707647,0.07838153,-0.090911634,-0.17026281,0.10892197,0.21089958,-0.12937135,-0.18236905,0.15854608,0.0074151517,0.07344045,-0.041390657,0.01908944,0.0981955,-0.026991285,-0.015505842,0.053218164,-0.10712014,0.015082711,0.056947965,-0.0395148,-0.028743265,0.012634868,0.044379827,0.08864504,0.067373894,-0.0073571317,0.02213712,0.0790294,-0.038403176,-0.033395767,0.13886333,0.15533401,0.07906674,0.0038265793,-0.13613842,0.06081564,-0.024440212,0.07116421,0.18281226,-0.043093663,0.24079615,-0.004407761,-0.0013665226,0.03626129,0.042549353,-0.13840508,0.12822536,-0.017347861,-0.06959825,0.013164814,-0.16868815,-0.030494174,0.21631825,0.058768407,-0.0706989,-0.05254831,-0.35982713,0.16412772,-0.05691272,0.020290053,0.15703365,-0.016337063,-0.031409856,-0.024710754,0.053424317,0.04275838,-0.07142847,-0.010323574,0.07877555,-0.07370554,-0.047319237,0.11819491,0.020499833,0.014261511,0.1586147,0.09498824,-0.05235841,0.053221047,0.11506669,0.14813304,0.07744015,0.044594515,-0.13337632,-0.085964456,-0.25139263,0.050766397,0.12566483,-0.12680838,0.08031373,0.07219046,-0.031216796,0.17359295,-0.24660741,0.019241408,-0.014269294,0.29978535,0.27420035,-0.1114625,-0.16209114,-0.018628404,0.04021241,-0.0037253005,-0.08746571,0.014496002,-0.038263917,0.11209688,0.15262988,-0.09973046,0.040015325,0.08590043,-0.14861655,-0.017888762,-0.011667753,0.22415201,-0.0030564198,0.017831486,0.07302602,0.041768342,-0.20279793,0.2081353,-0.027292328,0.17251499,-0.08479474,0.11584283,0.20964125,0.037120488,-0.24827892,-0.15333796,0.01369545,-0.035654865,-0.015443904,0.23437718,0.032950208,-0.121401414,0.014406516,0.009974411,-0.0018438813,0.10958612,-0.19653553,-0.018076826,0.15550031,0.0829356,-0.096780986,0.12775064,0.06664453,-0.052703403,0.14812565,-0.038830478,-0.07663982,-0.040576067,-0.11303647,0.13833384,0.014145278,-0.007683478,-0.12806682,0.07397944,0.13156527,0.029469592,0.14099003,0.07566037,-0.097128995,0.12929383,-0.049203772,-0.0016876361,0.046310633,0.0028239118,0.090586185,-0.0027100781,0.043563034,0.012168544,-0.06501717,0.20787506,0.035273906,-0.088633426,0.053682975,-0.09308372,-0.06058036,-0.015499212,0.050948024,-0.06985468,0.083734296,0.050268285,-0.0006785445,-0.04953855,-0.2350966,0.08804643,-0.039501138,-0.07045546,0.12537166,-0.026941078,-0.10465659,0.1939106,-0.06271679,0.027911078,0.053620007,-0.21826339,0.19678712,-0.102361195,0.08765027,-0.021998575,0.14641692,-0.17754373,-0.09625554,-0.055271167,-0.10119376,-0.05912301,0.074550964,-0.020548385,0.059012484,-0.10865846,0.13714081,-0.22431356,0.11615639,0.012046985,-0.42953873,0.014210764,0.081703596,-0.0063722637,0.05414092,0.02017641,0.24176864,0.013986081,-0.10592458,-0.08922998,0.080378935,0.049733922,-0.1500434,0.14158687,0.102178,-0.0431322,0.09502332,-0.05410091,0.086721696,-0.06143578,0.05320332,0.121050246,0.03974338,-0.26887763,0.16543321,-0.020529006,-0.009161516,-0.02544906,-0.04777823,-0.00071183743,0.08895196,-0.07338115,-0.15731613,0.23071223,0.035097,0.021175824,-0.06152731,0.1427059,-0.09126957,-0.14075676,0.00642358,0.16173536,-0.045709495,0.13590485,-0.14347807,0.11593239,0.14396292,-0.19916908,-0.28963816,0.10841187,-0.08897246,-0.07881768,0.18189421,-0.1847916,-0.06463575,0.31860793,0.33412695,-0.109651126,0.00021709946,0.053778645,-0.15669899,-0.004191185,0.1307142,0.17084523,0.37145892,-0.33486792,0.35928288,-0.19482702,0.042274818,-0.15710106,-0.17367595,-0.13167252,-0.16067645,0.14934774,-0.07029606,-0.12983252,-0.3007487,0.007837401,-0.2919853,-0.11914231,-0.15087406,0.084930636,0.17446586,0.14964141,-0.1435093,-0.07051472,0.009124845,0.1870213,0.07662153,0.01838726,-0.14390972,0.25429234,0.10707119,0.047560986,0.15878032,-0.06132626,-0.29486063,-0.00925386,-0.07307024,0.16701551,-0.14379907,-0.06655555,0.15018472,-0.17480746,0.12333477,-0.11285652,-0.091451764,0.06519661,0.3090358,-0.03688047,-0.20838019,-0.24189709,-0.26801196,-0.021772286,-0.015789155,0.13939106,-0.0016029454,0.14403544,-0.17559968,0.20144308,-0.03637579,0.09332194,-0.039141554,-0.04470354,0.18278593,-0.110699356,-0.12373484,-0.060356222,-0.05227518,0.121233776,-0.052488383,-0.052502632,-0.016135134,-0.08286346,0.029265257,0.03551822,-0.09431305,-0.07704484,-0.06663809,-0.087900154,-0.03309699,0.25738737,0.17991397,0.10019629,0.1987652,0.10182602,-0.016647806,0.16489507,-0.12333167,0.23088108,-0.10395893,0.072197415,-0.13101536,-0.096637264,-0.016251735,-0.024375143,0.057737987,-0.022387244,-0.2166768,0.2958028,-0.21749416,0.03541047,-0.063521296,-0.08261072,0.05383199,-0.12254892,0.060135096,0.17427555,-0.15499385,0.28071645,-0.10157243,0.1652709,-0.2681509,0.02983823,0.04967302,0.056373376,0.08011909,0.1928999,0.01155484,-0.029278655,-0.14895682,0.12305357,0.052961744,0.07493733,-0.08285663,0.04048048,0.03139367,-0.17970692,-0.0052351207,-0.17734098,-0.048173323,-0.03578808,-0.16509235,0.042470604,-0.1334483,0.10990631,0.23248744,0.051503588,0.2600217,-0.073167674,0.09562129,-0.15996966,0.01811384,0.17599823,0.023197953,0.045679826,-0.19465302,-0.11226171,0.072632395,0.06401095,0.06747863,-0.117613375,-0.013762214,0.087005205,0.0037220214,-0.17754121,-0.054576617,-0.030243758,0.09630062,-0.07869772,-0.22667338,-0.09578693,0.12946767,-0.024885233,0.011225941,0.19293162,-0.20824862,-0.14059389,-0.033210658,0.14733516,-0.030401967,-0.04435315,-0.011049595,-0.22973052,-0.01439764,-0.014955531,0.059167437,-0.21383244,0.14223652,-0.22790456,-0.12966953,0.14874916,-0.020899417,0.11853855,-0.10504759,0.24374972,0.22357357,-0.24593155,-0.101985544,0.053443104,0.05044119,-0.057924964,-0.066567115,0.05411711,-0.064530246,0.0315581,-0.022552203,-0.00034995153,-0.13381511,0.27337167,0.23939028,0.019380208,-0.058805156,-0.036300734,-0.018557549,0.09425292,0.23298731,-0.13460128,0.06834542,0.18636051,-0.008583084,0.11167559,0.15774135,-0.114063226,0.12574296,-0.29090327,0.15495238,-0.15537995,-0.005540414,-0.07060955,-0.022395171,-0.04953384,0.17063738,-0.21069887,0.00069203717,-0.004719369,0.06572217,-0.005951606,0.20098472,0.16857818,0.23846042,-0.029760385,0.08522793,-0.021702068,-0.10163513,0.034892835,-0.043520465,-0.22940993,0.062431186,-0.29442507,-0.0583136,0.15203927,0.10020207,0.078209855,-0.009069504,-0.07342654,0.10752271,0.06244639,-0.14514323,0.34649333,0.08768333,-0.10308282,-0.081327066,-0.09945368,-0.097071856,0.08289869,0.07797983,0.04910828,-0.0067306818,0.10076286,-0.14522147,0.21778518,-0.10230295,0.124334656,-0.036614053,-0.13345604,0.073709674,-0.0053497413,0.25244635,0.0710972,0.1504542,0.015027761,0.11624217,0.04333447,0.07911365,0.09680022,0.2662482,-0.22057411,-0.006174998,-0.24322313,0.1752012,-0.09655517,-0.07809745,-0.009064182,0.013263371,0.0517792,-0.028684726,-0.27367458,-0.13174987,0.021273829,-0.05138818,-0.036824986,0.267149,-0.034598183,-0.055316456,0.08399514,-0.1587026,-0.08672754,0.16699018,-0.001685523,-0.01892219,-0.12967643,0.17351212,-0.0989057,-0.12171614,0.050100543,0.19028054,0.12695022,0.14593998,0.0027628725,0.07192258,-0.119099855,0.08713352,5.139352e-05,-0.08022828,0.069398195,0.096304975,0.014678398,-0.006389524,0.09707718,-0.119665556,0.05250655,0.11534089,-0.017642265,0.016561007,0.043167323,-0.019228742,0.12067516,0.087797284,0.12765968,0.072795935,0.023323994,-0.12372852,0.07785007,0.060895193,0.07627856,0.06282395,-0.11880651,0.21639343,0.106439844,-0.13965307,-0.13096872,0.1026977,0.005982052,0.042797748,-0.041321684,-0.071099535,-0.0057007377,0.12267969,0.025401482,-0.11144807,0.030896809,0.092939295,-0.012943962,0.004154739,-0.025614353,0.019495884,-0.07222412,0.18892495,-0.0050436263,0.20605509,0.040663224,0.0029489072,0.018758662,0.20600614,-0.046513934,-0.03996078,-0.09472465,0.113805085,0.083843835,-0.009105116,0.032976713,0.02018929,0.0026482674,0.054846484,0.034009453,0.048743967,0.19134143,-0.2859291,-0.08518135,-0.032939408,-0.022814993,-0.04889602,-0.12625997,0.25460747,-0.06410769,0.23264362,0.019204803,-0.27845326,0.4516383,-0.009744133,0.12654047,0.03647344,0.089582495,0.2787226,-0.037583973,0.05786445,-0.2314975,-0.018900523,0.23778322,0.22124398,-0.09536802,0.15637404,-0.124939285,0.026250776,-0.24070844,-0.20571858,-0.07313484,0.2683077,0.02054656,-0.08573198,-0.009703874,0.1362315,0.06067751,0.048345357,-0.2715674,-0.08706851,-0.0005172014,0.13403052,-0.0995298,0.2725367,-0.1433436,-0.08772448,-0.08025482,-0.02973956,0.017436603,-0.28602332,0.06959317,0.20982473,0.25819135,0.25920004,-0.087103605,-0.16915053,-0.21098642,0.016334388,0.023301803,-0.09710971,-0.025590565,-0.0021057518,0.07632211,-0.15096305,0.06960085,-0.05222573,-0.06669164,-0.16418436,0.03536195,-0.07122245,-0.06478815,0.15637793,-0.28025985,-0.19909376,-0.13661334,-0.19429721,0.013377878,-0.14295858,0.07142387,0.1740503,-0.024509262,-0.014067626,0.020791912,-0.050412055,-0.19456798,0.036647502,-0.055338494,-0.12778525,0.19400994,0.054621663,0.23282474,0.11303316,0.41101715,-0.09016407,-0.17378773,0.029662864,0.041355655,0.019942317,-0.20988412,0.02646811,-0.09284358,0.110530436,-0.20360953,-0.15264225,-0.057025556,0.02786904,0.15024982,0.1091444,0.23287387,0.07008526,0.0830712,0.18012784,0.09513918,-0.18929479,-0.07765229,-0.15182523,-0.10496341,-0.026588142,0.05662295,-0.042337086,0.18188776,-0.01350997,0.040792648,0.01946758,0.35206512,-0.1472818,-0.06722311,0.052729566,-0.13575174,0.06347596,0.201582,0.16211438,0.04757553,-0.08727365,0.4560498,-0.24530661,-0.16243088,-0.083656915,0.19807881,0.33415306,-0.3281399,0.24275751,-0.18116464,0.012228375,0.27513385,-0.3156399,-0.037271235,-0.009456946,0.5047557,0.06869712,-0.20824802,-0.097073205,-0.079990886,-0.23012052,0.060453992,-0.07063325,0.177813,0.12601802,0.24988672,-0.2199265,-0.023853865,-0.09288361,0.32502532,-0.17866896,0.03708656,0.033372372,0.3391413,0.20926493,-0.054674257,-0.04123454,0.034434002,-0.29380354,0.1711208,-0.11657544,-0.0056226314,0.12863436,0.03571213,0.37303677,-0.08616103,0.083902255,-0.046499625,-0.09413523,0.056060955,0.22441381,0.0072105215,-0.31695518,0.037222013,-0.05134196,0.06721041,0.093181856,0.102512725,-0.028140375,0.044329938,0.20021504,0.11636612,0.15529867,0.13590243,0.03508992,-0.4193645,0.15858781,0.2706572,0.30009815,-0.09429686,-0.20972596,-0.0039699073,0.3048221,0.09528926,-0.16748068,0.012773594,0.4099234,0.09002982,0.11770225,-0.19654012,0.0036592202,0.31477162,-0.19935896,-0.038416896,0.04197237,-0.3697256,0.23251018,-0.054896787,-0.03545255,0.048334263,0.14015569,0.052485608,0.0370245,-0.29213133,0.32297093,-0.0040062093,-0.07260782,-0.0596153,0.009421058,-0.03303003,0.21968102,-0.023924561,0.13136993,-0.17194404,0.020157816,0.062817775,-0.22174294,0.015205601,-0.16279595,-0.19323447,-0.047289133,0.14500318,-0.22074156,0.2692541,-0.3071843,-0.16729608,0.108995155,-0.30052462,-0.062086485,-0.0899259,-0.0931266,-0.1714841,0.14625818,-0.14504166,-0.014928519,0.46185613,0.17537573,-0.01517526,0.0047016493,0.29957578,-0.20512542,-0.031563237,0.15168904,0.35336944,0.28994012,-0.35040107,0.30093175,-0.18110994,0.04561544,0.068562225,-0.17942052,-0.13415281,0.06566569,0.16780193,-0.1352542,-0.06392127,-0.08355804,-0.23232874,-0.3506993,-0.059917558,-0.17539307,0.22722654,0.0038134223,0.25508392,-0.078151375,0.21620993,-0.060106594,0.15017007,-0.09001889,-0.10506026,-0.11434513,0.48851848,0.31961104,-0.0797404,-0.11865617,-0.05098967,-0.35038945,0.1052797,-0.04364752,-0.044969052,0.16436026,-0.1352183,0.3068141,-0.2641768,0.019108739,0.04605067,-0.20179982,0.21929221,0.19256529,-0.1579579,-0.12654108,-0.06126728,-0.099597305,-0.16496256,0.1672014,0.100031435,0.16274521,0.2335249,-0.10075837,-0.21434638,0.1620629,0.06535898,-0.07789075,-0.04125455,-0.12701909,0.21013378,0.21096104,0.06515313,-0.06515726,0.15254952,0.06821686,0.2596214,0.036310893,-0.06670513,0.10904719,-0.045786787,0.021821517,-0.16979176,0.028216299,0.1681413,0.31426153,-0.02404583,0.15702118,-0.008717756,0.099118195,-0.38007548,-0.10670973,-0.11620164,0.37242058,-0.19152299,-0.0471415,-0.01576095,-0.008048168,0.054245096,0.060238004,-0.3060853,-0.05802317,-0.06440354,-0.10885916,-0.10780703,0.43279278,-0.13857919,0.29266295,-0.06252461,-0.1676277,0.14502193,-0.12909836,0.14191085,0.17247981,0.021620428,0.34151983,-0.16771469,-0.20617576,0.059334643,0.13198225,0.24692935,0.074473,0.033450548,0.0047299373,0.04720455,-0.061887104,0.085315496,-0.07331239,-0.25404942,-0.0028101676,0.24622977,0.023576148,-0.05096478,-0.050819185,-0.0828031,-0.31264746,-0.11011182,-0.10250152,0.029613074,-0.21646324,0.06958369,0.0002644325,-0.11727564,-0.16081734,0.035784207,0.010796129,-0.08624203,0.11505872,-0.06387439,-0.23278755,0.10616594,-0.023318361,0.2682869,0.040283363,0.29658458,-0.009162525,-0.32387152,0.23106101,-0.09636092,0.011200629,-0.17708184,0.041053593,0.059342,1.5338392e-05,-0.40196675,-0.25402084,-0.090577915,-0.07889594,0.19407034,0.22940065,0.34370378,0.23805693,0.14392522,-0.10092845,0.28672537,-0.07169169,-0.006076127,-0.16945392,-0.26392758,0.16606623,-0.13006674,-0.08173318,0.35197327,0.109411955,0.0589392,0.06250743,0.27265885,-0.1702493,-0.06977672,0.17987011,-0.046189766,0.024037581,0.2945712,0.037427403,0.12240959,-0.053690292,0.07499733,-0.05744195,0.0034512673,0.08896169,0.10694274,0.31128338,-0.09074988,0.2984395,-0.16521616,-0.13613051,-0.08051392,-0.1523276,-0.0400806,0.080849275,0.30923158,-0.122751795,-0.09266512,-0.11145465,0.011605323,0.0024092908,-0.00013607666,-0.022310195,0.038701896,-0.024688287,0.16890073,-0.15563804,0.12269254,0.04562431,0.180136,0.06619648,0.018625153,-0.1750667,0.26942652,0.15311004,-0.09150806,0.12244124,0.008465851,-0.3103098,-0.06127082,-0.32775536,0.09404619,-0.0010227265,-0.15416315,0.205453,-0.08804396,-0.022774188,-0.12391699,-0.35752192,-0.0036936568,0.16345002,-0.07628528,-0.25877702,-0.006942347,-0.017710732,0.053064577,0.06410071,-0.015046454,-0.2370867,0.07449654,0.16411735,-0.0772418,-0.07491904,-0.09665352,-0.055886753,0.19313222,-0.0564699,0.24450715,-0.13937567,-0.23155454,-0.166819,0.22081025,-0.18171121,0.037780914,-0.24722531,-0.23436467,0.043422647,-0.12875637,0.060398623,0.13193445,0.06817465,-0.004571732,-0.04346195,-0.13039805,0.34929734,0.119618855,0.027472269,-0.15851372,-0.26216486,-0.118003406,-0.06820069,-0.055385534,-0.065782115,-0.13595308,0.1509739,-0.03322934,0.023044165,-0.05042349,0.16984926,-0.01135517,0.0069200066,0.09348317,0.08951152,-0.07779006,0.11368865,-0.0895497,-0.17653625,0.063997425,0.071895346,0.08820068,-0.16852115,0.104630746,0.1871777,-0.012019898,-0.12412651,-0.014505672,-0.08802029,0.17257707,0.2416076,0.07977099,0.0775177,0.11730437,0.01426413,0.38448116,-0.27778584,-0.28265303,0.06005149,0.09579343,0.05164187,-0.045883715,0.08717479,-0.048295207,-0.030118493,-0.0049317214,-0.16879074,0.3074195,-0.107653864,0.33224404,-0.07147434,-0.014186957,-0.052569225,-0.033767387,-0.042241808,-0.12995966,0.20048028,-0.027571077,0.14809823,-0.084199026,0.21589874,0.16471542,0.021718016,-0.050572254,-0.043651845,-0.16691716,0.16650839,-0.18824352,-0.046752334,0.017824048,0.071244955,-0.0018414548,-0.018808084,-0.4023676,-0.19818209,0.013053121,-0.004661281,0.055059306,0.25939906,0.10096402,0.203389,0.012402413,-0.21624288,0.14005135,-0.12571195,0.11056099,0.08896782,-0.011888555,0.24430716,-0.1854695,-0.3428508,0.17588173,0.21961927,0.13764568,0.08679346,0.13842861,0.027393961,-0.12840296,-0.040605813,0.087163866,-0.16830689,-0.17673357,-0.010597336,-0.082066745,-0.06809915,0.024491709,-0.02647974,-0.03192904,-0.08181651,0.12151918,0.15827945,-0.030481864,-0.026343048,0.2270618,-0.13716328,-0.10257195,-0.31522894,0.0074340147,0.060338005,0.02099693,0.2323999,-0.15994217,-0.14671178,0.028978013,0.18239947,0.24422379,-0.012207557,0.004268551,0.0650372,-0.1191366,0.17254914,-0.23270729,-0.051320087,0.18358694,0.0073741404,-0.016823566,0.03323625,-0.07115688,-0.13770568,0.03895817,-0.10587619,0.011874421,0.15773432,-0.040218744,0.13535823,-0.090803556,0.015534917,0.22023515,0.16195254,0.011103801,-0.10661139,-0.15716864,0.23237136,-0.121982016,-0.13695568,0.31348836,0.03234387,0.085303485,-0.16689591,-0.05381602,0.08201508,0.02205765,0.036911935,0.08045163,-0.13794129,-0.017690409,0.036445413,0.044779662,0.043315124,-0.16096501,0.059114043,0.012140424,0.11363474,0.057496477,-0.09492735,0.18500069,0.0644786,0.19849758,-0.11655146,0.07575489,0.22231579,-0.055674516,0.05640561,-0.23836331,-0.04500688,0.22512957,0.12749888,-0.010527861,-0.037479416,-0.0651452,0.029501213,-0.19284622,-0.09112993,0.027706271,0.11050786,-0.1400091,-0.047818054,-0.065942004,0.08722216,0.04309937,-0.032536283,-0.20133582,-0.011538019,-0.06264893,0.22141159,-0.1755438,0.16796347,-0.15836875,0.07195818,0.069907635,-0.32476735,-0.03608804,-0.2220632,0.023335252,0.0983137,0.15524654,-0.010749963,0.015372951,-0.17485476,-0.13736315,-0.032538116,-0.10623196,-0.023822706,-0.080928,0.29585412,-0.064880036,-0.028931698,0.33074746,-0.071431555,-0.11294579,0.109332465,0.0023736164,-0.034387767,-0.054115057,0.01605576,-0.060835503,0.18286863,-0.0657617,-0.21074717,0.27050483,0.16197169,0.19295762,0.11451463,0.03762305,0.30393705,0.045512978,-0.20671402,-0.23058447,0.09339869,0.11872796,0.2979942,0.17305908,0.07686354,-0.017866326,0.18183427,-0.19842783,0.029820414,-0.14746174,0.2884224,-0.16742562,-0.029859943,-0.092367545,0.15416822,-0.10722454,0.16282488,-0.31178144,0.07859318,-0.03641129,0.038024988,-0.20220034,0.40983826,-0.04233808,0.33931535,-0.03785787,-0.14973979,-0.017491898,-0.42224038,-0.0077268337,0.27305955,0.16784294,0.21391374,-0.17799886,-0.109638914,-0.14345625,0.0812533,-0.086323045,-0.11112208,-0.030036196,-0.05294568,0.008641651,-0.004694251,-0.18382663,0.11543788,0.038428146,0.077653036,0.42439336,-0.08192636,-0.006682951,0.055422843,0.09066294,0.087500386,-0.05687366,0.0263791,-0.1308075,0.19967422,-0.12875544,0.20180117,0.30542797,0.096675396,0.027834136,0.012184723,-0.0024479295,-0.02095605,0.09928275,-0.12554795,0.006627788,-0.16936873,-0.23895097,-0.13946977,0.12912706,0.09468349,0.08197546,-0.018812759,0.21705005,-0.053809445,-0.15832753,0.041941717,0.04668416,0.094115324,0.042701915,-0.07853343,-0.02282866,0.027236126,-0.22652136,-0.23068953,0.08344156,0.09615053,0.053512055,-0.007865562,0.2430303,-0.11699874,-0.054682292,-0.019130534,-0.071304806,-0.10209976,0.2120938,0.13478364,-0.10530945,-0.048616897,-0.17270578,-0.036458086,0.07699683,0.09098596,0.08394533,-0.16282661,0.04901768,-0.09013388,0.17954047,-0.09087339,0.18896168,-0.055931244,-0.06095981,-0.046038438,-0.18385215,-0.09479856,0.022947155,0.014828802,-0.060541265,-0.011213322,0.13575114,0.23999172,0.31484947,0.007746907,0.040022828,0.06574901,-0.012626981,0.15173502,0.062609985,-0.043379847,0.03621264,0.27888033,-0.011162163,0.071749784,0.1574596,-0.001089106,0.010420986,0.15675144,0.011887543,-0.05861189,-0.107556425,0.0025607343,-0.0897926,0.25817505,0.01752519,-0.10626302,0.01116335,-0.0031599535,-0.061703347,0.073722556,0.4252293,0.041353475,-0.02268496,0.19103721,0.016002532,-0.012542713,-0.09862412,0.06218871,-0.029759102,0.07007598,-0.12772006,0.0422869,0.102468036,-0.040252753,-0.029997025,-0.079695426,0.14910384,-0.0006830364,0.16547045,-0.04966385,0.034432814,0.003998392,0.0998191,0.012566199,0.036801204,0.00018321014,-0.11607073,0.07511411,-0.03753176,-0.14004998,0.013297702,0.11680351,0.0039786906,0.096551366,-0.03417003,-0.015507001,-0.018489204,-0.228147,0.026432341,0.062487315,0.10212855,-0.03525626,-0.04899986,0.03356431,-0.0048035877,0.0726113,-0.018861622,0.14772254,0.07387528,0.17880127,0.2398263,-0.041599788,0.014457394,-0.035471044,0.13039212,0.021167012,0.036245633,-0.045307927,0.12386089,-0.09660927,0.041649513,-0.07135295,0.042882454,-0.096839376,0.09951857,-0.12580991,0.09077091,0.0934863,0.05225822,-0.05487461,0.07655412,-0.0922314,0.025228208,-0.058077086,0.08161581,-0.13706172,0.032651134,0.10105116,0.034226686,-0.0740486,0.060700484,-0.046620667,-0.0015026182,-0.03133262,0.19193691,-0.088284016,-0.14415428,0.003070235,0.03420645,0.039775383,0.0018867468,-0.04044515,-0.0072993264,-0.17154072,0.016809303,-0.078355215,0.09737369,0.090617776,0.20974487,-0.2569181,-0.15521258,-0.076200746,0.02989446,-0.012459299,0.07687138,-0.025446186,-0.12887058,0.17631418,-0.015843034,0.07666452,0.031709656,0.0576561,-0.20005362,0.068650424,0.0017282563,0.18756393,0.0112936115,-0.06694135,0.061571676,-0.112457626,-0.10578294,-0.08256612,-0.16703129,0.04453429,-0.016435198,-0.07871164,0.18655406,0.11422763,-0.26718056,0.21392782,-0.020513238,0.060976356,-0.0249334,0.037930697,0.321684,-0.043806978,-0.14498685,0.07890684,-0.23314987,-0.08645831,0.012790458,-0.008030935,0.2605663,0.14900649,0.012125016,-0.12166455,0.10459009,-0.0779827,0.11494464,0.100773394,-0.05798128,0.092999786,0.07790036,-0.10667277,0.20955741,-0.1213262,-0.0140858535,-0.10422336,0.13872395,0.22328457,-0.2497862,0.019850707,0.17034718,-0.04245717,0.13678566,-0.15032172,-0.07801736,0.159812,0.29290098,0.1419747,-0.08157556,-0.06817503,-0.16387606,0.08541002,0.20773025,-0.08472025,-0.004334678,0.15380035,-0.040125452,0.084410444,-0.18326762,0.0288676,0.13563314,-0.0824388,-0.119738646,-0.110570796,0.18509586,0.054113258,-0.116861925,-0.03113905,0.14464022,-0.05937713,0.100084476,0.020324279,0.20608737,0.06553252,0.12343206,0.22529139,0.058504704,-0.12531495,-0.082001515,0.045627177,-0.07642437,0.1982173,0.20866719,-0.11400718,0.15350085,0.07774163,-0.1563288,-0.18851452,0.04233589,-0.1706556,0.00088868436,0.36191314,0.11938709,-0.14960879,-0.09572125,-0.040210668,0.15420826,0.16544868,0.24580684,-0.50002927,-0.09279491,-0.030031856,0.009765146,-0.17323247,0.036358215,-0.18277481,-0.12093552,-0.04759876,-0.08181014,-0.17243896,0.22800577,-0.09700756,-0.2574269,-0.07444348,-0.021282818,-0.16229028,0.11876254,0.097872585,0.22960222,0.023765182,-0.07539709,-0.32057604,0.31918874,-0.03785223,0.018283572,-0.03141097,-0.051891178,-0.08857764,0.11985626,0.027205858,-0.062185355,0.087328434,0.15025525,-0.15036511,0.010400013,-0.3645617,0.078609906,-0.1105771,0.17168838,0.27308485,0.20305476,-0.3368578,0.052711967,-0.12769876,0.1522988,0.13345519,-0.23928389,-0.10763964,-0.04354458,0.20368437,0.08076669,-0.24899845,-0.066805355,-0.07328231,-0.17111379,0.13045648,0.14937185,0.2995091,-0.00078859215,-0.027052624,0.17980823,-0.084541425,0.0038587118,-0.11225162,-0.022498451,-0.013296364,-0.23292796,0.20282075,0.001269256,-0.01238438,-0.046464887,-0.019951202,0.04729986,-0.031837516,0.23030503,0.16081072,0.009926104,-0.12707137,0.07148255,0.03164829,0.035890676,0.0001568199,-0.055685367,0.19105022,0.059636448,-0.119223855,0.0051201335,-0.09051445,0.025281997,-0.03230827,-0.026930062,-0.10941919,0.12951565,0.07240132,-0.06669355,0.14083992,0.14173666,-0.23841886,0.08456327,-0.07130783,0.22987755,-0.07434429,-0.07828273,0.048925735,-0.08174047,-0.017381936,-0.0663532,-0.08613072,0.1546394,0.24331006,0.025252175,-0.20057848,-0.04631985,0.008079463,0.046118047,0.04989156,-0.039503157,-0.2749945,-0.1423895,0.006996097,-0.104787886,0.21835068,0.10556444,0.017969212,0.18665189,0.027313272,0.13853402,-0.20574746,-0.3080081,-0.26199737,-0.015020512,-0.36646038,0.16678287,-0.18795446,-0.08916691,0.11460209,0.056533616,-0.27593112,-0.037905674,-0.14029293,0.406221,-0.12939988,-0.20991224,0.29467928,0.117965065,-0.21362002,-0.053536464,-0.049196694,-0.2021267,-0.0030601076,-0.08699423,0.0044059325,-0.261169,0.22672302,-0.011389828,-0.12495508,-0.24669985,0.02289731,0.092461295,0.22277544,-0.082232274,0.11180325,-0.008170986,0.037637427,-0.13190979,-0.005811606,0.25583875,0.06983767,0.13305938,0.2596267,-0.13082187,0.19245706,-0.025524018,0.16080017,-0.09211292,-0.24752006,0.10124715,0.21771558,0.23711607,-0.06196451,0.10893429,-0.1322705,0.14728771,0.0043654563,0.00033293746,-0.120710805,-0.06958118,-0.060385946,-0.066197656,0.10295915,-0.056328718,-0.10676204,-0.06722008,0.0020878594,-0.038917575,-0.02723155,-0.00453071,0.05376019,-0.076723345,-0.06911915,-0.12367705,-0.065673634,-0.086280055,-0.04078251,-0.047831006,-0.17315736,0.21967937,0.1111559,0.1264549,0.12341636,0.15780325,0.07781821,-0.07535103,-0.09580163,0.008023891,0.077397585,0.026174977,-0.04606783,0.043572284,0.04165991,-0.1633701,-0.0019518256,-0.017020883,-0.0056285625,0.118301414,-0.048408747,0.17397846,0.014227328,-0.052393034,-0.068388864,0.05959571,0.03916379,0.023126602,-0.09745073,-0.19414799,0.027199136,-0.074717276,-0.0052439314,0.10234651,0.046715025,-0.030154023,0.051275764,0.14547239,-0.12828654,-0.11282762,-0.010270413,-0.09781101,-0.039100885,-0.116922855,0.03953695,0.107464775,-0.04421618,0.004570839,0.09834234,0.057058882,-0.005883612,-0.025808338,-0.07417491,0.041414045,0.15209499,0.06924964,0.11238987,0.14255452,0.07710011,0.03424507,0.085645415,0.06986764,0.06947162,0.076246716,-0.039694592,-0.014172058,0.017812438,0.067281865,0.025991732,0.026975743,0.11127725,0.070366725,0.04898996,-0.076849915,-0.04585095,0.04955417,0.20526533,0.007515376,0.029848786,0.03704305,-0.08526826,0.048085563,0.11424792,0.058689013,-0.035899706,-0.071797386,-0.05179172,0.119353175,-0.08733093,0.027656283,-0.06831217,-0.11251251,0.04153378,-0.010076654,-0.09241359,0.067038074,-0.019167481,-0.038478494,-0.12392806,-0.021417394,-0.012319978,-0.020304712,0.09622332,0.21921189,0.13866562,-0.055432193,0.18502118,0.13182394,0.08721883,0.19591491,0.031001277,-0.001474668,0.030852534,-0.028580863,0.035385504,0.19001755,0.10372392,-0.08554593,0.13553178,0.036904056,0.12642476,-0.03376831,-0.049164843,0.016789045,0.03070923,-0.018737203,0.065215014,0.02004097,0.04611624,0.028712014,0.097297795,-0.011832679,0.121366754,0.017375512,0.15872853,0.19390833,0.0656493,0.10875787,0.081613764,-0.008042322,0.0031882368,-0.001091037,-0.029994912,0.18607943,-0.23160358,-0.041105848,-0.048310563,-0.017982068,0.03960601,0.22365595,0.09429115,0.06324132,0.06900361,0.21384645,-0.010030932,0.015732044,-0.024344213,-0.09573679,0.08945183,0.14512631,0.04795052,0.1946272,0.072473496,-0.047299515,-0.05263042,0.13564448,0.09536463,0.032539364,-0.15072216,-0.012291141,-0.005023019,0.21548446,-0.1533299,0.074856564,-0.042093147,-0.0047298865,0.26804027,-0.0040230774,-0.093691185,-0.121251024,-0.10763538,0.3121931,-0.051450215,-0.003335953,-0.014012566,0.021539032,0.22352202,-0.06303515,-0.050137848,-0.026578512,-0.060585696,-0.0019283439,0.01774757,0.1042312,0.1091707,0.0055200057,0.117606066,0.12782273,-0.15589657,0.10625795,-0.051243737,0.26238483,0.04803525,-0.069289885,-0.033324696,0.0012586572,0.18404864,-0.07246979,0.03703586,0.017821074,0.009079052,0.14038879,0.04396967,0.13737844,-0.30469683,-0.0024276562,-0.008064424,-0.1683207,-0.11870809,0.03130909,-0.06402966,0.35945734,-0.19253643,0.16770194,-0.059217222,-0.27639002,0.073234566,-0.13395971,0.063985534,0.071697965,0.03052929,-0.06143748,-0.11844782,0.08674876,-0.15471481,0.14024138,0.050093938,0.10759423,-0.03802221,-0.087601095,0.07816949,-0.13357146,-0.00029793187,-0.07719856,-0.10864339,-0.0073835608,-0.03601571,-0.07720996,0.09695954,-0.0108241495,-0.034482114,0.021889105,-0.035376146,-0.1420515,0.07026478,0.014615898,-0.117300406,0.2035899,-0.03359449,0.027702712,0.1849045,-0.05332516,-0.08097586,0.08100963,-0.04755636,-0.0030535,0.03135088,-0.11608488,0.15093283,0.020719416,-0.002599034,0.11856816,-0.02862415,-0.016326237,-0.069936655,0.012386628,-0.15080029,0.039833646,0.004077876,0.04293771,-0.098511174,-0.0732987,-0.18634011,-0.05260984,0.060325846,-0.067555,-0.06441856,0.16499352,-0.23235434,0.036839418,0.0044031376,-0.14067538,-0.14479636,-0.05249287,-0.06523253,-0.082987234,0.1315643,-0.045685414,-0.032964837,0.118359655,0.23884226,-0.11110953,-0.063106045,0.0018521121,-0.11072765,0.08077647,0.089321405,0.120126374,0.11499646,-0.22581965,0.17647034,-0.14874852,0.018386498,0.009243193,-0.108920366,-0.09110339,-0.0033637453,0.062530376,-0.114326425,0.041993674,-0.17066912,-0.050950512,-0.15737693,-0.16654626,-0.11201116,-0.04915224,0.12390589,0.1015595,-0.13484351,-0.039684266,-0.060926594,0.09577693,0.03271421,-0.0706526,0.075163774,0.16256183,0.09497212,0.0123442765,0.05687572,-0.081113614,-0.1154842,-0.14463185,0.09670041,-0.07698604,-0.08087639,0.113827676,0.06912176,-0.19990726,0.07622279,-0.0580939,-0.046189364,-0.06858961,0.17108573,-0.08055488,-0.20963791,-0.16930048,-0.10681011,-0.052479815,0.022321895,0.070816,-0.08875486,-7.14919e-05,-0.060481865,0.17315462,-0.1903397,0.09071784,0.00819236,0.00902304,0.015117355,-0.21109442,-0.1357153,0.10829372,-0.062336043,0.15836687,-0.031468797,-0.090760216,-0.04413023,-0.102484785,-0.062218145,-0.10351544,-0.20686209,0.036475286,-0.030620841,-0.17570348,-0.063049704,0.19222419,0.010222419,0.02307414,0.15151243,0.09139592,-0.1099389,0.1334503,-0.09248954,0.12668459,0.05657141,0.096910685,-0.2482894,-0.0034876366,0.06044512,0.107698955,-0.11283394,-0.019556157,-0.2510928,0.09982509,-0.12687324,0.12411511,-0.22439966,-0.076389626,0.039281953,-0.058081653,-0.0922983,0.15213613,-0.23683591,0.083662726,-0.23651978,0.20949924,-0.19011,-0.040006462,0.0664946,0.07393769,0.026349947,0.103075005,-0.018975269,0.024377884,-0.27462575,-0.058708362,-0.014584505,0.09325084,0.021854404,0.06796731,-0.009732084,-0.15817598,0.0459105,-0.05856646,-0.21311198,-0.011641562,-0.15499114,-0.042928018,-0.032220323,0.00090666517,0.10642776,-0.060872085,0.10498518,-0.083042346,0.07762396,-0.17016704,-0.13718228,0.18012775,-0.005146276,0.09306662,-0.08298148,-0.07048605,0.06721917,0.19782254,0.0780696,0.009932806,-0.21193978,0.11118559,0.063454285,-0.22502592,0.01461048,0.041292436,0.18299454,-0.06867787,-0.0474378,-0.014001675,0.23609638,-0.062047344,-0.10675791,0.14482209,-0.27944347,-0.06917163,-0.0650773,0.028011391,-0.009394494,-0.03862074,-0.057990145,-0.14426231,-0.15329164,0.21613617,0.044524163,-0.1672633,0.015282018,-0.16906671,-0.11850203,0.07066049,-0.13319625,0.027059479,-0.22140354,0.13027385,0.16681783,-0.21503976,-0.051880438,-0.19874865,-0.024165245,-0.024380501,0.01499243,-0.029038077,0.02818745,0.04117598,-0.18130752,0.009134896,-0.17935881,0.15323767,0.24980673,-0.07589312,0.07964747,-0.031909812,0.09068229,0.039963767,0.16604497,-0.116248354,0.056565493,0.1407909,-0.07699226,0.074592225,0.2182198,-0.028386302,0.028209597,-0.20887268,0.106105514,-0.26612508,-0.04122112,-0.22991836,0.043684535,-0.09491414,0.1724597,-0.1346972,0.16894907,0.065771274,0.24766752,-0.035089303,0.04764002,0.09703749,0.20291953,-0.024496911,-0.035960212,-0.10039619,-0.04295274,-0.14327958,0.1652032,-0.045751445,0.055652972,-0.22622237,0.0049895593,0.020631403,0.018783623,-0.057283618,-0.2502519,-0.16101387,0.09851993,0.034873907,0.010311966,0.060072094,-0.054788567,-0.253945,-0.020265505,0.013758106,0.047337342,0.023303771,0.0389651,0.1050315,0.037428617,-0.06454082,-0.10903907,0.022697708,-0.023868073,0.25007516,-0.008001757,-0.0020276033,0.096901394,0.045621302,-0.0048495443,0.026994381,0.20353408,0.23000534,0.09082558,-0.014310373,0.007820131,0.14509076,0.13647425,-0.22911836,-0.031732563,-0.10219833,0.14065075,-0.07620907,-0.07413776,-0.016998129,0.015198478,-0.078281164,-0.08888219,-0.15963556,0.02442719,-0.057021417,0.08752311,0.05268695,0.18716839,-0.04063954,0.07120318,0.022107856,-0.030671958,0.08792129,0.055986516,0.17118669,0.07650575,0.04575926,0.17908518,-0.1478578,0.013262302,0.044726405,0.01072762,0.15283327,0.14757934,-0.064258255,0.09691455,-0.028428579,0.038374014,0.016622758,0.039964933,0.06893943,0.15764685,0.08850317,-0.008526719,0.01859001,-0.12833597,0.09848448,0.15267634,0.033962667,-0.07662081,0.013461931,0.14260994,0.09238505,-0.09684773,0.027631678,-0.024046473,-0.052908577,-0.15128285,0.02291987,0.027670244,-0.026189819,0.080766104,-0.19828619,0.031808853,-0.033462524,-0.15172349,0.017631518,0.09136939,-0.017213076,0.12785783,-0.0041613276,-0.03906543,-0.026854534,0.041416265,0.024845013,0.04421679,0.113576084,0.13941193,-0.09862773,0.09625982,-0.17834376,0.026238682,-0.036728226,0.19288188,-0.026412254,0.23303314,0.07847428,-0.0642956,0.07943305,0.09673604,-0.032603193,0.16323908,0.030130528,0.04081675,0.087507665,-0.035168547,0.09967432,0.07018966,0.011190343,0.06836016,0.052158717,-0.017114257,0.04453918,-0.11422673,0.044020995,0.069580846,-0.048345383,-0.040760122,-0.1427304,0.3070807,-0.1511863,0.05754297,-0.04541228,-0.076431446,0.26462397,-0.057848107,0.12606472,0.041897014,-0.02922783,0.1522525,-0.011400069,0.06539405,-0.14346643,-0.14047225,0.20906243,0.20998558,-0.1011363,0.052730933,-0.0036998186,0.067623965,-0.11105488,-0.18286088,-0.05211728,0.16419089,0.08053366,-0.05800728,-0.0089251185,0.21420215,-0.0036910234,0.007822113,-0.20415072,-0.07343861,-0.021811351,-0.076064296,0.0030155415,0.17592642,-0.0756042,-0.11844387,0.028335707,-0.012432738,-0.020881608,-0.13228957,0.07045659,0.07698639,0.22379057,0.07062682,0.09096014,-0.3038171,-0.2436895,0.10369217,8.49436e-06,0.107594974,0.17385003,0.03288215,-0.009911664,0.07131942,0.18907535,-0.18593992,0.0071601574,-0.06630205,-0.013810159,0.08347813,0.024103705,0.19011244,0.009188828,-0.02993492,-0.14981622,-0.030311082,0.12420917,-0.14776532,-0.055341758,0.18762495,-0.12234425,-0.046374846,0.02211204,-0.07575697,-0.016143199,0.082795344,-0.18003798,-0.12685272,0.20505908,0.11282103,0.07768333,0.032170292,0.2968861,0.03024921,-0.13300955,-0.17162491,0.06399612,0.07231393,-0.1341404,-0.031475656,-0.032111682,0.10500871,-0.06176911,0.025792677,0.03126202,-0.15051797,0.13916482,0.042547494,0.1316853,0.1096608,-0.025518702,-0.015397374,-0.013802483,-0.19528975,-0.07818337,0.0084131425,-0.026539847,-0.10846767,0.08365807,-0.041697904,0.06682563,0.0043292088,0.013018168,-0.0027130248,0.3534549,-0.15445997,-0.14332734,0.04676035,-0.039065838,0.026185514,0.06530662,0.04363925,0.019960886,-0.06311201,0.28822273,-0.114228606,-0.021409305,-0.05963663,0.09248278,0.29393294,-0.24277927,0.112028986,0.05401515,0.009453955,0.259758,-0.15867653,0.054598894,0.015159203,0.1779975,0.09996339,0.026629176,-0.09604801,-0.012588179,-0.13116834,0.028983792,0.042393822,0.08817205,0.14490896,0.10796696,-0.057123546,0.023613304,-0.03893334,0.22227274,-0.048075005,-0.099745706,-0.008040985,0.122051686,0.024499064,-0.012729249,0.07807181,-0.0486525,-0.07346809,0.03240639,0.10518194,0.093852155,0.101179,-0.0058631236,0.06290971,-0.1579097,0.11772881,-0.11748836,0.06056378,0.017339164,0.07023689,0.17862329,-0.19147189,-0.06471612,-0.034350153,-0.06471186,-0.0479996,-0.019672336,-0.18220767,-0.011982692,-0.007363259,0.09109871,0.20569868,0.0003869719,0.049088232,-0.18653312,-0.040393062,0.19856878,0.14313968,-0.079507105,0.0009370006,-0.03604926,0.21650904,0.12865579,-0.20892404,-0.0099160485,0.17069027,-0.047562275,0.08966816,-0.025080927,0.04252991,0.13880241,-0.03530355,0.063118674,-0.04027634,-0.16631658,0.14561169,-0.140976,0.047643397,-0.09267323,0.05098178,0.15352985,0.04144355,-0.002448405,0.32503513,-0.10404828,-0.12861174,0.07616184,0.059855815,-0.024826886,0.2794597,-0.08870986,0.012244556,-0.185434,0.047914173,0.07800764,0.07321736,0.051984336,0.008001803,-0.11020898,-0.025220197,0.0024777357,-0.3406533,0.16607907,-0.06516313,-0.09520875,0.029993547,-0.08191463,-0.043160476,0.036558498,-0.021001408,-0.056355704,0.1372723,0.023936946,0.03799203,0.25303143,0.1072679,-0.05570188,0.004943169,-0.05464082,-0.07069779,-0.1845164,0.18290815,0.1261804,0.1392425,-0.112120956,0.19939916,-0.15070449,-0.066987514,0.114761315,-0.0605277,0.027447369,0.06235155,0.14201517,-0.013246233,-0.123389386,0.01759779,0.01476751,-0.32440683,-0.055344902,-0.1528286,0.025222959,-0.0138038,0.20667857,-0.048187636,0.082888916,-0.056335207,0.14223103,-0.09457334,-0.061432797,-0.04896382,0.18952912,0.10343727,-0.04618464,-0.0055763046,-0.027789088,-0.20850891,0.004040971,0.062257424,0.0097279325,-0.04094401,-0.036619186,0.16281416,-0.20403339,-0.01361329,0.115148656,-0.04968525,0.076969944,0.08667549,-0.13753965,-0.061482158,-0.1211443,-0.14566135,-0.11444924,0.15773652,0.07919196,0.15988329,0.12371852,-0.123215795,-0.20266472,0.13100475,0.008982494,-0.05929496,0.004930147,-0.018160414,0.23833238,0.040374845,-0.07819684,0.017099073,0.08565523,0.08649065,0.18836074,-0.13392864,0.016657356,-0.03255908,-0.07197151,-0.027676247,0.051363125,0.065691836,0.119561866,0.21901356,-0.087364644,-0.012418294,0.06383238,-0.072629124,-0.1927042,-0.030712616,-0.11170685,0.31664893,-0.17638123,-0.007687232,0.038805377,0.018915411,-0.01656832,-0.03997065,-0.08683309,0.024975512,0.024880344,0.0074802674,-0.03995496,0.17331403,-0.11269809,0.21884446,0.0009008234,-0.21425433,0.0620825,-0.056644242,0.16647784,0.11719518,0.054167524,0.29637477,-0.023690375,-0.23473375,0.051178772,-0.10683068,0.08506351,0.10296923,0.10658999,0.064739615,0.08746896,-0.06969773,0.13014628,-0.08013904,-0.16112877,-0.0740347,0.15565515,-0.07442606,-0.096909516,-0.07389869,-0.07008421,-0.17649764,-0.1579686,-0.077199355,0.016059287,-0.19610053,-0.039854873,-0.13443749,-0.21671598,-0.0709816,-0.06743528,-0.011411486,-0.19484235,0.12183243,-0.08935392,-0.1565127,0.008066914,0.031444296,0.1354388,-0.009143769,0.21795924,-0.02589493,-0.18082568,-0.0615875,-0.015823262,0.06992336,-0.012747547,-0.014348726,0.016894596,-0.046223722,-0.2143723,-0.22192197,0.05473032,-0.0048019276,0.13072915,0.097992554,0.15569623,-0.010412014,0.09453228,-0.12095434,0.11285596,0.027213782,-0.04029661,-0.18016139,-0.10246834,-0.06208106,-0.010166003,-0.03987442,0.18033153,0.10323384,0.19334042,0.046993002,0.254546,-0.18584204,-0.054075338,-0.009604727,-0.007760526,0.012249061,0.06062616,-0.03808634,0.046374507,0.04283634,0.08468212,0.027888767,-0.016992293,-0.06925661,0.016197097,0.20370577,-0.063668504,0.13740075,-0.01499222,-0.013245706,0.005841509,-0.0789731,0.010736382,0.05867497,0.31888646,-0.06712197,-0.18760666,-0.10929117,0.12540843,0.029547079,0.0035095462,0.08751061,0.08481499,0.02495357,0.22985111,-0.07972424,0.028515609,0.010671971,0.05184956,-0.07103456,0.019623602,-0.011944016,0.08050933,0.0425286,-0.06772362,0.18867396,0.0009147353,-0.3048459,0.026501544,-0.08999118,0.18345065,0.030601371,-0.037429187,0.05038781,-0.15451342,-0.13004206,-0.025872078,-0.36348864,0.038139485,0.13415645,-0.09065202,-0.1891168,-0.040502712,0.019928938,-0.033449132,-0.010888297,0.06572766,-0.07479299,-0.00800512,0.14178747,-0.060819563,-0.03432671,-0.07233857,-0.11557953,0.060290586,-0.15493906,0.2183636,0.19727105,-0.008657042,0.0109561095,0.14812596,-0.0027388558,0.095338814,-0.049844597,-0.2160998,0.06291329,-0.015516563,-0.06599394,0.11782654,-0.13360417,0.19975607,0.04833086,-0.16395451,0.12221846,0.107900314,0.0039258497,0.019701459,-0.047574144,-0.03615344,-0.07129601,-0.12482211,-0.07880252,-0.1097395,0.20861906,0.06843835,0.011233942,-0.06698602,0.23233072,-0.090047106,0.09499945,0.017809898,0.11201307,-0.10138627,0.09805023,-0.13929626,-0.01696455,-0.022159804,-0.06153807,0.032203566,0.074700974,0.12764348,0.23544215,0.0506001,-0.08702512,-0.17963019,-0.028877327,0.066561185,0.21969102,-0.00926159,0.023532817,0.036599126,-0.009562162,0.22443344,-0.1208395,-0.21903536,-0.052695602,0.098164834,0.01242712,-0.14335932,-0.015814247,-0.008819851,0.0018888763,0.094571136,-0.17879486,0.14509708,0.0026973162,0.13913229,0.014047744,-0.047199804,0.030941052,0.035436735,0.06651383,-0.090051785,0.20536444,0.083891824,0.19434202,-0.013600788,-0.005621101,0.0040709837,0.08107442,0.004202621,0.015000826,-0.06182299,0.12231898,-0.15744415,-0.02037616,-0.12483882,0.09004807,-0.0043128384,-0.022462733,-0.2674581,0.016343284,-0.005432757,0.003961206,-0.082814924,0.18469954,-0.02911657,0.19542125,0.07259552,-0.32739693,0.110867165,-0.09432402,0.16471173,0.048661646,-0.04372523,0.20614591,-0.064950824,-0.25299296,0.10962456,0.065894045,0.04332498,0.038712133,0.027946567,0.013317347,0.023331596,-0.24749523,-0.16905902,-0.01742113,-0.2615867,-0.107358225,-0.03571375,0.02868453,0.073356204,-0.13285892,0.0036440343,-0.1387775,0.014567715,0.17585126,0.007785262,-0.085001335,0.11153927,-0.08249379,0.039550643,-0.12497169,0.03683581,0.12334442,0.16863562,0.21873601,-0.087522,-0.15469304,0.09132574,0.05831408,0.34390885,0.01570239,-0.037042405,-0.0043365755,-0.1223228,0.13860992,-0.21321355,-0.019304493,0.16331603,-0.12910801,-0.03683983,0.10204444,-0.23947003,-0.18152241,-0.021065451,-0.096786715,-0.019640451,0.11099423,0.055919252,0.14164011,-0.04517835,0.053485278,0.001535953,0.14394651,-0.06360729,-0.0017710001,-0.18226628,0.22408614,-0.15550889,-0.15746802,0.22498266,-0.0016678291,0.13383935,-0.0160808,0.029169643,0.055818737,-0.060912926,0.014871958,0.1319244,-0.14522448,-0.115180865,0.09389066,-0.03420517,-0.091466114,-0.2524744,0.088132806,0.06559212,0.11689244,0.0026420818,-0.19401768,0.2523358,0.04427022,0.18811378,-0.12402225,-0.12074944,0.16124044,-0.0917187,0.12149239,-0.2220093,0.13871492,0.1855856,0.105521545,0.028131194,-0.06708037,-0.06217774,0.20012695,-0.2066267,-0.049673446,-0.077235855,0.3006034,-0.13705139,0.065287456,-0.09230629,0.063855015,0.020895233,0.031170234,-0.1833106,-0.030348055,-0.05883903,0.20847408,0.01024237,0.2835561,-0.059413955,-0.04682216,0.040788617,-0.28412428,0.018650327,-0.2380205,-0.059033956,0.048556466,0.1698805,0.19308332,0.054677527,-0.1850843,-0.056188636,0.062096134,-0.063867465,0.052681535,-0.13950871,0.08944433,-0.063577674,-0.08446885,0.09916766,-0.11319353,-0.20318647,0.007406141,-0.14267467,0.0054038903,-0.061882094,0.19005068,0.07666993,0.10650957,-0.12323524,-0.16429086,0.26811975,-0.042056505,0.26392636,0.0052248435,0.04913987,0.27220443,0.015839465,-0.08343544,-0.21743916,-0.11542018,0.1326707,0.35771552,0.13045448,0.0011588577,-0.13307379,-0.04621979,-0.15375216,-0.0779584,-0.11325559,0.2577696,-0.1068096,-0.07225038,-0.062698774,0.06289424,0.009103622,0.11995644,-0.25592813,0.09696399,0.010928901,-0.04298766,-0.13617496,0.2120442,-0.120609835,0.292954,-0.11945966,-0.23451677,-0.069968045,-0.19809996,0.047955114,0.19894011,0.21848248,0.30344835,-0.22918896,-0.039079946,-0.116631836,0.052895185,-0.17803748,-0.06022152,-0.0154197635,0.004418446,-0.11053504,0.14473534,-0.07889442,0.13286039,0.058160014,0.039463688,0.119583406,-0.0156231215,-0.066159956,0.04766896,0.111786984,0.054132093,0.046726495,-0.021469606,-0.13728279,0.068228595,-0.07779353,0.008753852,0.12955073,0.11141896,-0.06428268,0.04048026,-0.113380544,-0.15380497,0.022980094,-0.0142459525,-0.0047291145,-0.20020637,-0.068991065,-0.15706557,0.04202365,0.04627517,0.13768858,-0.0772495,0.07459269,-0.0838028,-0.085146606,0.16344026,0.038699016,0.10447652,0.07284682,0.031850718,-0.028974527,0.06741487,-0.27364483,-0.2204872,0.07783375,0.03650084,-0.04914179,-0.02034199,0.14318192,-0.04848129,-0.10404656,0.07363434,0.06914601,-0.13830993,0.3112271,0.15126629,-0.19092327,-0.065358415,-0.20552272,-0.06100911,-0.051515013,0.10824024,-0.044813655,-0.17368205,0.009040212,0.011084307,-0.07024148,-0.073647454,0.14560474,-0.037105154,-0.21001886,0.052543834,-0.21821196,-0.09198261,0.02150089,-0.15778631,0.0015177077,-0.14529714,-0.0050240923,0.2583576,0.36718234,0.12353698,-0.09750358,-0.05881184,0.0054199714,0.21162595,0.14168717,0.055957448,0.09207379,0.1054119,0.066871636,0.10579312,0.0022170932,0.04696768,0.030807495,0.023583965,-0.05559524,-0.08200377,-0.061147284,-0.055028766,-0.06536881,0.24717796,-0.095200256,-0.19929582,-0.07216964,-0.13317281,0.015755035,-0.008407141,0.24447319,0.14314428,-0.12513496,0.015091548,-0.055138595,-0.060019374,-0.19285592,0.088540025,0.14786796,0.05917871,-0.16570719,-0.13545857,-0.03412243,0.024717135,-0.09604284,-0.17693241,0.01000058,-0.009885193,0.08805696,-0.08241809,0.15205313,-0.017712925,0.11430584,-0.096871085,0.055848606,0.046645314,0.10139137,0.011517085,-0.082236394,-0.07422425,0.04726344,0.054548074,-0.034598634,-0.025162557,0.039847262,-0.021081122,0.041817147,-0.11844607,-0.00894387,-0.052341457,0.14830488,0.14227663,-0.11771862,0.056204066,0.09185093,0.048297007,0.14706051,-0.033949587,0.020693919,0.1674851,0.05831656,-0.08453196,0.073112965,-0.014946406,-0.044767983,0.053965848,-0.0037830768,0.047083776,-0.017557995,0.11139734,-0.08663865,-0.0039880998,0.12423449,0.0013704264,0.028869525,0.032028507,-0.016949818,0.19564006,-0.040263083,-0.02408433,0.14782503,-0.084782414,0.05461856,-0.109542035,-0.048757747,0.06096352,0.03997053,0.037639137,-0.034107443,-0.07532208,-0.0878832,-0.09665623,0.082599655,-0.065061346,0.051218905,-0.008075611,-0.18316977,-0.09696308,0.04187735,0.038935788,0.08388084,-0.034580752,0.116551004,-0.16948444,0.14856449,0.01605332,0.05866071,0.029906744,0.21269442,-0.07876558,-0.06370155,-0.13031837,0.0016048556,0.20612976,0.079516076,0.13017051,-0.20685843,-0.021798607,0.054573588,0.07990454,0.08670454,0.10388613,-0.020053064,0.21630268,-0.09293306,0.013890353,-0.025362141,-0.09591644,0.017669108,0.019098686,0.040607557,-0.05132434,-0.29725638,-0.06335488,-0.029675571,-0.044512723,0.0356254,0.027123328,-0.10823581,0.15590377,0.034600873,-0.029428234,-0.0641465,0.039345358,0.0710231,-0.05067343,-0.008112635,0.051671233,-0.057619493,0.0861302,0.0403772,0.12570132,0.033623062,-0.016611474,0.022448879,0.003634534,-0.042420335,-0.049585637,0.109544225,-0.026024258,0.032381423,0.017447142,0.010848056,0.048008207,0.069165446,-0.11722048,0.007714116,0.0036000097,0.104802825,0.1827928,-0.13607511,0.040365107,0.025710024,0.030917728,0.14504719,-0.1081973,-0.06319503,0.069067135,0.18903199,0.08316971,-0.17486133,-0.103728406,-0.17323597,0.04881588,0.12934059,-0.07575226,-0.008970314,0.078373834,-0.11084908,0.05732258,0.018104816,-0.0072391587,0.13214745,-0.026863558,-0.009901001,-0.0045907716,0.08065989,0.110858865,-0.082925975,-0.10495283,0.013900128,-0.08569571,0.082903594,-0.0056027398,0.16964234,0.029938843,0.069767974,0.12761658,-0.002549728,-0.09184942,-0.17980577,0.00664746,-0.05396819,0.044892836,0.18970542,-0.10990539,0.13639396,0.057588555,-0.07233504,-0.14565444,0.09703151,-0.003024544,-0.15134509,0.13226776,0.07659724,0.00097327627,-0.095317885,-0.048650395,0.20348582,0.17895691,0.20740153,-0.2954287,0.1277119,0.075450845,0.012299698,-0.012478079,-0.06745142,-0.10953432,-0.036749955,-0.110587664,-0.021115266,-0.14279424,0.19726285,-0.116750635,-0.0764734,-0.13665454,0.0036730166,0.030679297,0.059567288,-0.038542077,0.13616058,0.121070206,0.09599026,-0.090100735,0.30073953,-0.025395434,0.050300624,-0.15565473,-0.035094324,-0.013604139,0.035880093,0.0538678,0.0029036452,-0.06624851,0.1072115,-0.0724147,0.04005015,-0.096947126,-0.03605039,0.037935905,0.02361737,0.221089,-0.053487934,-0.21434559,-0.020432826,-0.07475756,0.19903652,-0.004946498,-0.16802457,0.00838411,0.05676479,0.1273373,0.10182591,-0.22698401,-0.122949585,-0.053853095,-0.013159727,0.07540552,0.17130929,0.033959642,0.040282752,0.039216086,0.092298,-0.16378002,0.23102519,-0.033050388,-0.060961403,0.23987938,-0.09118595,0.25431883,0.13513131,-0.009711261,0.06540307,-0.0345006,0.08450197,-0.05680369,0.020937845,0.03342896,-0.112671845,-0.07285901,0.035703033,0.20661774,0.023316475,-0.012919818,-0.063155115,0.101358384,0.107678935,-0.15078677,-0.021664033,0.011856123,0.20963654,-0.048607886,-0.055593494,-0.014976733,0.13650966,0.11297745,-0.0916751,0.1417838,0.05410959,-0.16358827,0.0692084,-0.07554604,0.055624776,0.015193579,-0.023561956,-0.03539287,0.001640954,-0.043472428,-0.047379926,-0.08967614,0.130914,0.29920697,0.007676551,-0.17287745,-0.035476606,0.015791407,-0.0722837,0.018091885,-0.11733624,-0.056487337,-0.28489655,0.107775055,-0.08560252,0.14520174,0.05299801,-0.013949451,0.16857933,0.014377983,0.106334925,-0.09181144,-0.32374683,-0.2818753,-0.13190828,-0.3558185,0.082905464,-0.057437863,-0.049630623,0.1535887,-0.100093715,-0.2236758,-0.09688186,-0.113259315,0.4027305,-0.08367264,-0.062246747,0.1973388,0.11982447,-0.15443844,-0.04634341,-0.1116921,-0.13639455,-0.045108125,-0.011715897,-0.06115006,-0.2547279,0.23183233,-0.022486726,-0.07086128,-0.14676906,0.0665164,-0.09400325,0.21638899,-0.15826543,0.032004483,0.06704375,0.119379364,-0.079746455,-0.025503393,0.25258142,-0.009241026,0.008854728,0.29526034,-0.05199395,0.069847435,-0.08768418,-0.03050259,-0.048724756,-0.24242389,0.05357854,0.088837355,0.20780568,-0.06543536,0.035146546,-0.02545743,0.20228612,-0.061134834,-0.16362964,-0.017753094,-0.044083484,-0.09953574,0.035688788,0.055267237,-0.007238241,-0.026558252,0.018825937,-0.016952297,0.028431522,0.078312494,0.09487914,0.018559052,-0.116039544,-0.16846989,0.028570717,0.016472265,0.051953074,0.08954385,-0.023200471,-0.04339116,0.011451984,0.06707525,0.037966564,0.1401681,0.1307496,0.09004889,-0.19041958,0.11715995,-0.07597414,-0.047612604,-0.120113045,0.0039675143,0.06480095,0.04561927,0.064968474,-0.08503427,0.0011868909,-0.07404933,0.05564874,0.05746833,0.11423978,0.024691628,-0.038093045,0.05046858,0.08809413,0.026788771,-0.13882874,-0.1628989,-0.1494719,0.03409291,0.025837561,-0.11487797,0.11182723,0.041399363,0.029572496,-0.07845225,0.11045892,-0.11871869,-0.1676663,-0.080909945,-0.21741514,-0.053514257,0.051200863,0.122666426,0.07852562,0.021446401,0.18575597,-0.06021481,0.03151066,0.05877853,-0.13394092,-0.03170512,0.12232407,-0.04862682,-0.0049156193,-0.0461659,0.09003539,0.083458684,0.0004250516,-0.050138272,-0.0044343406,0.08355088,0.16891345,0.022514042,-0.09965113,-0.07102341,0.04911411,-0.0641046,-0.058635294,-0.06318034,0.06743406,-0.043830946,-0.036791787,0.009498965,0.050280035,0.12950224,-0.057614055,-0.032297105,0.029530287,-0.01716812,-0.060490597,0.14757413,0.056406166,0.0042751273,-0.1770134,-0.1473584,-0.17221116,-0.02714588,0.0952629,-0.13354048,0.015655367,0.14692101,0.114012465,-0.03318639,0.026804784,-0.053561956,-0.19714294,-0.21633776,0.03151254,0.04344603,-0.03549468,-0.04527213,0.06706764,0.08657675,-0.018233674,0.1281885,-0.07225294,0.06630641,0.10566839,-0.12477665,-0.102033414,-0.084111996,0.037584923,-0.08856618,0.058380283,0.13808164,-0.08243564,0.044496104,0.014981624,0.046888664,0.1957699,-0.03965156,-0.076117784,0.15172248,-0.04615744,0.11037893,0.06471651,-0.022405155,0.03816059,0.029902222,-0.096177824,-0.06675784,0.19469243,0.11290034,0.03530608,0.15511324,0.044604514,-0.09283784,0.028462933,-0.05057211,0.009505218,0.10319692,-0.038234923,-0.24302888,0.02809906,-0.022098089,0.04113074,0.0041576014,0.1722954,0.016167507,0.005143432,0.026473751,0.120922044,0.033335302,-0.065394536,-0.048104748,-0.0924292,0.095283076,-0.055767152,0.10052139,0.18202323,0.18846211,-0.01658102,-0.06805997,-0.09321679,0.00096701423,0.074577264,-0.06357258,-0.13980432,-0.025430754,0.12901522,-0.2160449,0.087097965,-0.04478358,0.08004118,0.2089003,0.092047386,0.035698317,-0.10949551,-0.15318997,0.20286387,-0.018116202,-0.094471104,0.045553386,-0.06450562,0.1124981,-0.043963756,-0.022167105,-0.05957981,-0.10211606,0.09106428,0.016478004,0.07387146,0.05428578,-0.008148414,-0.019646125,0.035284143,-0.13002405,0.16473362,-0.21541777,0.1978331,0.0025139577,-0.06097777,0.028660713,-0.060155466,0.14516829,0.03637877,0.0029976326,0.009615724,0.03857564,0.08311926,-0.077630036,-0.017133655,-0.33705795,0.02547753,0.020070985,-0.088538446,-0.08424036,0.02643401,-0.17450514,0.26007903,-0.21208967,0.19691661,0.08943523,-0.27760565,0.0972449,-0.11958284,0.056850627,0.13912374,-0.012097508,-0.03573313,-0.034670863,0.292337,-0.23293485,-0.06274092,-0.038047094,0.07586231,0.017162276,-0.17604055,-0.0032188129,-0.20417978,0.08275026,-0.07897012,-0.21540165,0.09810829,-0.062441427,0.06346463,0.065141425,-0.06924841,0.0518467,0.007500472,-0.019069195,-0.1284797,0.09410839,0.02256225,-0.13975717,0.08907958,-0.08311087,0.17932747,0.24575247,-0.073723786,-0.02123311,-0.029587949,0.06364057,-0.05476921,0.005452979,-0.17166893,0.092052005,-0.106924534,-0.024189776,0.063890845,-0.042469785,-0.094372965,-0.025601992,0.034721132,-0.09102283,0.14928061,-0.20771983,-0.06973288,-0.006617932,0.022435118,-0.085408054,-0.042398106,0.032848075,-0.052879483,-0.11186097,0.03657131,-0.16078658,0.24480675,0.12928437,-0.12625673,-0.11373829,-0.037817698,-0.011592783,-0.08743415,0.084905125,-0.21296793,-0.006874829,0.11685692,0.2200132,0.097215824,-0.10146994,-0.07512662,-0.05965011,0.13049254,0.18795554,0.015685918,0.103202105,-0.028751194,0.20193343,-0.032883786,-0.009464192,-0.01356248,0.062999055,-0.011940432,0.01991016,0.016434703,-0.032111697,0.09523244,-0.08637033,-0.0639908,-0.20227143,-0.27650806,-0.15077034,-0.017134832,0.1316422,0.01866184,-0.049849186,-0.09843608,0.0768334,0.06537152,0.09486791,-0.09306629,-0.082331136,-0.011643424,-0.049196936,-0.06540895,0.08721423,-0.118185185,0.024485767,-0.00020701138,0.16330998,-0.09953526,-0.048386626,0.18144518,0.07416744,-0.071583994,0.21723652,0.057191253,-0.11065171,0.04349001,0.074681066,-0.010630523,-0.08500611,-0.18839283,-0.02408599,-0.08113764,-0.06990459,-0.011656312,-0.17359714,0.10905967,-0.07478048,0.08270927,-0.23077731,0.0027102255,-0.04110765,0.047417536,0.11998712,-0.05246851,-0.15749848,0.0046341196,0.010141754,0.09326792,-0.15020064,-0.0947741,-0.09604024,-0.049992926,0.06500401,-0.036172334,-0.100055285,0.16385047,-0.061968464,-0.16447276,0.048716243,0.1649479,0.13483542,0.05898458,0.10323313,0.03195115,-0.044899814,0.015040468,-0.15010025,0.15754138,-0.09266982,-0.012295787,-0.14649315,-0.023446413,0.031760573,0.098587796,0.04748725,-0.027403183,-0.10882614,0.06678981,-0.07619726,0.089184225,-0.24879275,0.05963736,-0.063874856,-0.023650697,-0.08430838,-0.09340559,-0.08432178,-0.118547246,-0.00632286,0.21427982,-0.11275634,-0.013384337,0.023081966,-0.09634879,0.052797712,0.114090696,-0.15464552,0.0048955185,0.12030532,-0.1705135,-0.057154637,0.2138083,0.1785548,0.0027878527,0.010493184,-0.12018793,0.08394793,-0.04108019,-0.14637657,0.010980544,-0.2861783,-0.08341131,-0.053587127,-0.20655614,0.1362224,-0.15823768,0.20664725,-0.10875962,0.010651495,-0.14462224,-0.16185233,0.3037082,-0.047953296,0.05615649,-0.11082065,-0.27352855,-0.1255517,0.08639955,0.044758756,0.06017242,-0.049046464,0.14531992,0.079266965,-0.21851718,0.075777724,0.01288402,0.059364643,0.02226578,-0.17267151,0.025658133,0.19321452,-0.25634462,-0.18793574,0.019968381,-0.2536742,-0.020303207,-0.078664586,-0.048530817,-0.029826198,-0.09938014,0.10583987,0.09845071,-0.15966022,0.12894614,0.1059769,-0.31311712,-0.06705074,-0.304786,-0.03042388,-0.042964105,-0.016524268,-0.10973933,-0.28338137,0.14834654,0.11244981,-0.10759646,-0.13819754,-0.14445275,0.01553938,0.022248732,0.1731224,-0.18960313,0.038914006,0.024479615,-0.027913244,0.023158578,-0.12879983,0.03871178,0.3039789,-0.058265798,0.06226416,-0.021978129,0.124592066,0.09607457,0.019920008,-0.15924802,0.0028604013,0.16407494,-0.10386464,-0.038845345,0.01945892,-0.015512607,0.11152391,-0.18178245,0.005689071,-0.19516297,-0.009564384,-0.04053229,0.027759327,-0.06188049,0.2490419,-0.023311513,0.15495661,0.03103397,0.044708025,0.0014690115,0.066962816,0.0689578,0.11880182,0.030998368,-0.089434154,-0.24856488,0.071089484,-0.11120079,0.19648917,0.1089461,-0.13071975,-0.063677974,0.018828265,0.15425488,0.18511479,-0.047741618,-0.17586334,-0.062940545,-0.0018405016,0.2207111,-0.06555853,0.03278157,0.015445985,-0.060451355,-0.18309112,0.13663918,-0.12996656,0.014543263,0.03487458,0.026626885,-0.06209349,-0.07885452,-0.17635094,0.16164485,-0.037770912,0.37293196,0.040353235,0.10558586,-0.06701424,0.057649903,0.0747742,0.16899106,0.018223172,0.13884349,-0.08395884,0.037018415,0.12374683,0.111502826,0.16349743,-0.06664471,0.03603441,-0.06963945,-0.042697027,0.029883435,0.011485151,-0.0546988,-0.007959091,0.008253516,0.04968403,-0.0966719,0.012592387,-0.01566945,0.072642244,0.031243453,0.025661794,-0.054632623,0.097463496,-0.04424947,-0.19262189,-0.010637788,0.045866102,0.1211043,-0.03421063,-0.038454086,0.13453381,-0.07412297,0.06420187,0.079216436,0.08087219,0.06275163,0.065474376,0.055595327,-6.287459e-05,-0.036252532,0.08519926,0.06053108,0.012117645,0.13925353,0.12449468,0.046061598,-0.10019226,0.044369567,-0.1860123,0.050841793,0.17259589,-0.10166193,-0.024460372,-0.024723416,0.13518302,0.0693833,-0.059584223,0.11386818,-0.103789955,-0.036968485,0.026208596,0.08313882,-0.015499165,-0.0491442,0.09069468,-0.15654436,0.05833004,0.005785613,-0.12398386,0.06290087,-0.035542812,0.10876341,0.035786342,-0.13121209,-0.015115443,-0.04432267,-0.09487428,-0.0016962602,-0.07168863,0.1375238,0.031171774,-0.016136823,-0.040758256,-0.22645721,-0.0256908,0.10539995,0.1294726,-0.091979556,0.09816781,-0.0021063942,0.121580236,0.013522601,0.04213012,0.0785412,0.0650382,-0.06503435,0.05781285,-0.026313804,-0.038594697,0.09576678,-0.00965994,0.02846138,0.15490817,0.069612384,0.022739429,0.11796933,-0.0970898,0.07154232,-0.013971708,0.041799244,-0.004913803,-0.19434999,0.19244544,-0.050214354,0.20186463,0.07883109,-0.08777051,0.25479326,0.08832023,0.0048126085,0.057469677,0.12587881,0.24030252,-0.05928581,0.008931093,-0.101176955,-0.006793613,0.15562753,0.13985355,0.0036334898,-0.07278189,-0.018712703,0.07178213,0.03769845,-0.14818665,0.008989347,0.16121228,-0.025240527,-0.11324976,-0.12274671,0.01344828,0.021037493,0.08435576,-0.1077737,0.00914818,-0.06526053,-0.08735942,-0.015238277,0.11118568,0.0002194421,-0.11432453,-0.010091504,0.0034562922,-0.026584676,-0.08886597,-0.09722971,-0.038405813,0.25103852,0.06552457,0.016547581,-0.254903,-0.14531867,0.061221376,-0.14820951,0.11730656,0.124021135,0.055390418,0.062134087,-0.118163295,0.033042286,-0.1929742,-0.008663683,-0.041335996,-0.19701627,-0.006647,-0.07009391,0.22332416,-0.01654218,0.027763106,-0.033835094,0.031248907,0.14330032,-0.06976459,-0.06043799,0.16387485,-0.05451147,0.01778219,-0.081484325,-0.0141032785,-0.13647631,-0.012719493,-0.2596468,0.01922401,0.22141702,0.14736545,0.17106198,0.025005216,0.23567672,0.03541179,-0.14344735,-0.0907417,0.15396841,-0.044166468,-0.103417195,-0.035773166,-0.0902671,0.068402626,-0.06011162,0.10193588,0.02969392,-0.077726714,0.20254304,0.02694978,0.036631934,-0.013675493,-0.008522661,-0.016505016,-0.008974922,-0.164564,-0.08502442,-0.069324866,0.12182261,0.000779476,0.08021296,-0.010273822,0.025095128,0.098644115,0.07022421,-0.12978733,0.1722239,-0.1413022,-0.05406922,0.066148475,-0.017346468,0.033428244,-0.0334331,0.049667083,0.07094675,-0.07746889,0.28014913,-0.02792982,0.055579137,-0.036109056,0.13242441,0.2046958,-0.21333331,0.06936309,-0.022452218,0.14626653,0.058374774,-0.14734761,-0.03425558,0.05123929,0.26394963,0.016544305,-0.09374925,0.023258602,-0.021588592,-0.100045614,0.1239284,-0.016395789,0.018622609,0.13823521,-0.040609527,-0.029004335,0.03858452,-0.06575951,0.1571556,0.05316961,-0.057989046,-0.02816618,0.14533079,0.0028108535,0.03224763,0.0063511734,-0.17871557,-0.098468065,0.10358553,-0.05093283,-0.04973094,0.13386513,0.0871513,0.06535494,-0.13246635,0.06948309,-0.15571426,0.014523574,0.0088646365,0.108733125,0.058653016,-0.038300656,0.036518067,-0.1074219,-0.012833881,-0.21330838,-0.117507674,-0.1641948,0.071623676,0.08169431,0.083145715,0.0059596794,-0.002995885,-0.0073692924,0.097219855,-0.09989111,0.06895124,0.026516937,-0.13489336,-0.0041429503,0.014763804,-0.055992123,-0.033771586,-0.04611921,0.0827268,0.010360883,0.053257436,0.008427271,0.15298489,0.014514662,0.012492036,-0.12078059,-0.0003503758,0.12564757,0.090754,-0.024523078,-0.040156547,0.11833216,-0.0595372,-0.022473533,-0.09293898,0.007541854,0.11376144,0.114178024,-0.07734309,0.011092789,0.084748276,0.23294348,-0.054422013,0.20015,0.10453591,-0.036087275,-0.09798555,0.05497112,0.10394547,0.20994157,-0.065808125,0.06777328,0.0417274,0.009479739,-0.03443118,-0.3643181,-0.039002478,0.046064004,-0.03634545,-0.11919908,0.007959573,-0.04669709,-0.011232792,-0.14891575,-0.110647626,0.076510996,-0.078014255,0.10303726,0.06888929,0.0253506,0.096629746,-0.11748085,0.05467852,-0.051548675,-0.011131709,0.15419073,0.07924682,0.1050374,-0.008693732,0.13679977,-0.115581036,-0.12879646,0.07638532,0.04000172,-0.011672567,-0.0048617595,0.039898627,-0.008575766,-0.055171765,0.060577832,-0.049864784,-0.14303082,0.0016089306,-0.111344084,0.05163563,0.111995585,0.12112836,-0.026941638,-0.024586348,-0.085650526,0.0056397375,-0.016975017,-0.031294417,0.013237551,0.03954215,0.13928041,0.060568266,-0.05914345,-0.036030848,-0.10799019,-0.031505175,0.08446665,-0.013102765,0.010395024,-0.034899022,0.0795403,-0.027701119,0.04610203,-0.11089019,-0.19102244,0.03549939,0.10076992,-0.0009591785,-0.103716105,-0.05007057,-0.00425619,-0.000828026,-0.04123888,-0.024644988,-0.026243795,-0.0706168,-0.15246622,-0.1358504,0.1328941,-0.032912463,-0.08289794,-0.006883313,-0.05240939,0.20688613,0.0215987,-0.10706759,-0.030480271,0.06333032,0.06863063,0.12919557,-0.04466119,-0.03993039,-0.10691168,-0.021205563,-0.097032465,-0.03842455,0.05453129,0.059804656,0.0682125,0.038456332,0.11971283,0.032361593,0.032206587,-0.11410958,-0.033759084,-0.020453643,0.16651489,-0.084070325,-0.08575993,-0.011470679,-0.09137671,-0.09418123,0.062243223,-0.014635389,0.05957736,-0.08631339,0.076705255,-0.16830696,0.069805995,-0.064909466,0.18746181,0.07339098,-0.12857701,0.18209288,-0.073922925,0.017136486,0.015252867,0.016153835,0.17537832,-0.014088397,-0.07143646,0.15416199,-0.06751765,0.045927428,0.023865368,0.12573846,0.061775934,-0.031662203,0.002746297,0.07301547,-0.05943534,-0.057756707,0.029438665,0.056878906,-0.041079286,-0.10210705,0.09353688,-0.021029085,-0.25619552,-0.09739606,0.06883345,-0.07825662,-0.18906407,-0.0032061096,-0.09330779,-0.1742681,-0.011835326,-0.0060361195,-0.063188,-0.104108915,0.13593306,-0.036896985,-0.2389896,0.04858643,0.03926633,-0.03618165,0.0057517546,0.03717059,-0.027224552,-0.1108315,0.050993968,-0.041904993,-0.027306037,-0.08516586,-0.043424606,0.05500672,0.021728322,-0.17879178,-0.12661928,-0.085228965,-0.053109266,0.12775266,0.054721452,-0.022476971,0.043285858,0.024292704,-0.13082097,0.08550602,0.0072299163,-0.019182097,-0.08671825,-0.05725534,-0.016266434,0.06293538,-0.11539396,0.15223882,-0.015454739,0.012633299,0.054752674,0.05582655,-0.03475172,0.11346564,0.001605394,-0.19926268,0.109472126,0.045878246,-0.0393614,0.15128642,-0.06132722,-0.102119595,-0.08504918,-0.015204058,0.05640246,-0.072018504,0.013082993,-0.10360789,0.31436035,0.03541884,-0.06549187,0.11942836,-0.11186909,-0.11229082,-0.026255999,0.16412972,-0.046719503,-0.058010425,-0.12156926,0.0040128333,-0.0015866522,-0.031772725,0.15898164,0.04486244,0.16705516,0.1426532,-0.07434723,0.054673932,-0.082762495,-0.0066052126,0.1361696,-0.017811554,-0.12178631,0.03849178,-0.020274587,-0.046899848,0.1304339,0.026370235,-0.12278364,0.022349957,-0.1539901,0.060210735,-0.05537065,-0.06767233,0.044736832,-0.08417071,-0.16698475,-0.040069714,-0.26612276,0.09572334,0.14711656,0.0022074962,-0.047646735,-0.14747089,-0.052288823,0.030957785,-0.019805234,-0.0026950883,-0.07436156,0.031509258,-0.0030912585,-0.027586285,0.04696765,-0.11004847,-0.106783114,0.09646349,-0.030261505,0.009629383,0.20810965,-0.17762198,0.028325554,0.13941054,0.090210296,0.019716019,0.06821529,-0.015169315,0.15972702,0.03689708,-0.04247229,0.034438193,-0.26414353,0.08864318,0.18262152,-0.06104437,0.14579909,0.1538733,0.022523846,-0.041662775,-0.12383676,0.018437987,-0.013871624,-0.07107566,0.033032335,0.019351026,0.09491821,0.0760791,0.13267145,0.068920314,0.17584513,0.07204432,-0.019579355,-0.020152353,0.017443273,0.021292154,0.05023361,-0.024647456,-0.06487207,0.09863193,-0.044524085,-0.025380876,0.04248542,0.070099406,0.09152709,0.09932807,0.022755876,-0.073965915,-0.16089414,-0.010188961,0.14407341,0.0075655477,0.13875245,0.004264425,0.0055980952,0.09827583,0.03295281,-0.07517344,0.062024686,-0.023071093,0.025743801,-0.026091408,0.04983273,0.028403115,-0.016716128,0.047317576,-0.110626474,0.065910414,0.0023056697,0.14603353,0.028814366,0.058159348,0.02994786,-0.04127502,-0.009132008,-0.14797314,0.13191806,0.11696164,0.12540787,0.0093752835,-0.032134198,0.10584995,0.10832094,-0.078803256,-0.054147743,0.013558675,-0.016260276,-0.08611444,0.05959985,-0.1064808,0.052373633,0.02777502,0.059934735,-0.23970345,-0.09976919,0.042819962,-0.029835636,0.0019581702,0.12933798,0.079509035,0.07448568,0.07308472,-0.26615697,0.13848779,-0.14049512,0.14024036,0.06871195,-0.028700529,0.13031058,0.013033864,-0.16550416,-0.025215797,0.020138605,-0.0024994176,0.021367252,0.03191371,0.009692583,-0.051857352,-0.07868388,-0.31648237,-0.122477904,-0.2369901,-0.071000606,0.031994555,0.005023944,-0.0030490449,-0.050801948,0.064307146,-0.014729773,-0.092775084,-0.008970643,-0.051908024,-0.101680845,-0.025481444,-0.1196373,0.008370711,-0.04450945,0.0480445,0.09556842,-0.0013769651,0.22180738,0.0008926824,-0.033773042,0.051666662,0.1142952,0.03326798,-0.01058187,-0.037907004,0.028449975,-0.15339959,0.09384044,-0.17017855,0.04108222,-0.034823462,-0.16255103,0.03675657,-0.0027066134,-0.31965095,-0.10113809,0.013352245,-0.1458444,-0.08440614,0.13903633,-0.065945886,0.1621205,-0.024921596,0.041982893,0.0060636587,0.13168873,0.07624969,0.027788661,-0.25081915,0.19594,-0.16806558,0.049842898,0.14856291,-0.061308615,0.14278534,-0.15636744,-0.13135976,0.046805616,0.09817549,-0.064022295,0.1180496,0.0036796927,0.03509586,-0.06595701,0.07584118,-0.109668404,-0.13216004,-0.04378501,0.024264261,0.14411806,0.11587322,-0.12128899,0.15944992,0.06556691,0.17752554,0.060441036,-0.023478745,0.11768266,-0.010333582,0.13066827,-0.043300405,-0.009216752,0.068141066,0.08500266,-0.04171322,-0.0077857804,-0.06694817,0.16661526,-0.27829307,-0.04472766,-0.020296847,0.07112674,-0.046737198,-0.038875382,0.024716547,0.068545476,-0.012876544,-0.024093,-0.19116336,-0.009972441,-0.016133416,0.06342264,0.064733334,0.07160425,-0.016056284,0.008224007,-0.0023947002,-0.19052567,-0.010020366,-0.06549771,0.046990875,-0.073784195,0.038871102,0.021562247,-0.012416678,-0.050845988,-0.023561789,0.21724452,0.057941537,0.05579778,-0.13868763,0.14589283,-0.084054515,-0.03871199,-0.026327176,-0.090182886,-0.063704945,0.044866167,-0.06187384,-0.083770104,0.043237742,0.08377551,-0.006288134,0.20742892,-0.039950643,-0.1753184,0.084247984,0.044760928,0.0043624053,0.10570677,0.060204502,0.12242853,-0.021686565,-0.06430916,-0.15869951,0.068835184,0.10275818,0.15845063,0.017226689,-0.066225536,0.0099577475,0.029687667,-0.26540762,-0.09297299,-0.099850476,0.078829125,-0.16283736,-0.07566097,-0.12710577,0.069568984,-0.08395939,0.15398219,-0.045364585,0.06246951,-0.12149594,0.03747738,0.06376683,0.16441977,-0.1468723,0.03519734,0.008360417,-0.02113043,0.032856315,-0.072684914,-0.06599028,0.092095725,0.19241856,0.066182815,-0.1741507,-0.041933887,-0.022210479,-0.043189,-0.09385524,0.020746384,-0.035153653,-0.21739367,-0.0770518,-0.03333545,-0.095740214,-0.0099193575,0.108157136,0.10580389,-0.08464288,0.041311298,0.03516696,0.03407267,0.06843136,0.02764762,0.027552832,-0.025422113,-0.20755844,0.08092954,-0.09660055,-0.09040532,0.04589978,-0.015341255,-0.0416524,-0.036750097,-0.058076594,-0.17626087,-0.0581202,-0.07337835,-0.025451249,-0.33019355,0.0036016204,-0.080850534,-0.0014578875,0.14900433,0.11519838,-0.11315715,0.07938552,0.03321287,0.1224414,-0.041412342,-0.14025985,-0.02075136,0.23080932,0.17797555,0.07350225,0.1454878,-0.18909562,-0.2418032,0.1145772,0.02847839,-0.061940003,0.008645,-0.06687267,0.050874125,-0.17578374,0.016266858,0.12452846,-0.22868626,0.10426014,0.19178875,-0.15833946,-0.075163394,-0.16809945,-0.02656369,-0.026269322,0.06885037,-0.15511814,-0.11599945,0.046706624,0.010893517,-0.103893355,0.055228498,0.035539575,0.060676757,-0.24347642,-0.08850282,-0.16724703,-0.019971142,0.04474408,-0.09559313,0.008706688,-0.1484761,-0.07667132,0.18186086,0.23664652,0.11802531,-0.0012970879,0.03682223,-0.038698584,0.18774529,0.085566975,0.019476002,-0.015261302,0.12659809,-0.12073468,0.06792257,0.024700357,0.0749037,-0.1231711,0.119890265,-0.10111003,-0.024304422,-0.09871147,0.030825881,-0.08863716,0.14415827,-0.05790217,-0.07325193,-0.08876036,-0.12007672,-0.072291814,0.028852627,0.06101374,0.094834834,-0.056213032,0.010598589,0.019761378,-0.021497848,-0.12771977,0.043030825,0.14587022,0.05727069,-0.03684054,-0.011852194,-0.083319895,-0.011612275,-0.06642128,-0.015859218,-0.08269923,0.12281607,0.08792629,-0.14676413,0.093355775,0.17289506,0.010006059,-0.14960203,0.071692266,0.03904085,0.061543614,0.0528203,-0.121975124,-0.15754013,-0.006180039,-0.03616971,-0.08370566,0.0033223755,-0.05676751,-0.002301362,0.060751174,-0.05480384,0.023670137,-0.008137843,0.10323806,0.080682375,-0.07860653,8.088177e-05,0.034261324,0.16513789,0.051960588,0.14859518,0.018381258,0.16494255,0.0648997,-0.1468032,0.09046005,-0.058547843,0.031776212,0.072447315,0.05957683,0.008632032,0.0866887,-0.008624317,-0.079620734,0.07457549,0.011923208,-0.009086394,0.06636897,0.07802628,0.10319667,0.110890746,-0.032575626,0.06681454,-0.045239266,-0.18120657,0.079074435,-0.033799633,0.093604185,0.073975585,-0.056032572,0.053075466,0.013374968,-0.07525241,0.04694754,-0.13728411,0.031278837,0.10184702,-0.07434561,-0.008547058,-0.089672536,-0.039485518,0.083385736,0.05930881,-0.025227401,0.07779629,0.07302555,0.07458672,0.0009761647,0.1083784,0.035054002,0.052920062,-0.023307204,-0.10626141,-0.10125713,-0.0047138007,0.05963139,0.011370041,-0.04274775,-0.08682635,-0.06346966,0.07883105,-0.119774796,-0.06772315,-0.0615722,-0.059699453,-0.09353997,0.10862717,0.026182277,-0.03552314,-0.09827103,-0.012621662,0.017365115,-0.10398198,-0.08328143,-0.097015806,-0.19496235,-0.016199358,0.04959382,-0.019319234,0.024051776,0.0972905,-0.21546543,0.24548626,0.06466492,-0.12015377,0.027413154,0.06951747,0.14934242,0.031821694,0.010040117,0.22749873,0.013873736,0.18711275,-0.030003967,0.05059868,-0.05433396,-0.09216473,0.0012210129,0.0016438965,0.032078262,0.09752325,0.097805694,-0.06283288,-0.018619793,0.016585251,0.08009709,-0.107468516,0.030136963,0.013013955,0.11700251,-0.09025255,0.06095075,0.038998935,-0.1944042,0.16831972,0.05889091,-0.052317016,0.14949733,-0.08141836,-0.09298675,-0.028216705,0.07053507,0.03778923,0.0132563105,0.040025655,-0.091630474,-0.062206488,-0.031099843,-0.044838402,-0.0131753,-0.031117667,-0.09801906,0.050994057,-0.0659135,0.06913053,0.0033815498,-0.012356511,-0.06250286,-0.017634643,0.06524628,0.0014420963,-0.03930371,-0.004374803,-0.062105566,-0.030911366,-0.035678227,-0.068062976,0.070919916,0.1225797,0.047803763,0.101017,-0.01476241,0.10099804,-0.0001759048,0.014750081,-0.028568398,0.04527138,0.048229363,-0.12733847,0.037579205,0.0110161835,-0.14478786,-0.13898273,0.08942948,-0.24480768,-0.18550311,0.3207609,0.10959904,-0.037941474,-0.06035968,0.037111085,0.0007468653,0.119697355,0.21746896,-0.28089136,-0.03874787,0.099302895,0.03195122,0.07992745,0.0011194412,0.061139718,-0.156544,-0.0988609,-0.009730595,0.016773174,0.22353566,-0.104631044,-0.10526389,-0.16127597,0.13168842,-0.046045635,0.0071596196,0.04593549,0.1858059,0.15379754,0.20598133,-0.20239082,0.25832906,-0.05234171,-0.02613656,-0.019948445,-0.06748083,-0.008722662,0.011729024,-0.061125714,0.040385406,0.0020398025,0.13189517,-0.26140296,0.05855008,-0.11639519,0.114554,-0.10839947,-0.15402739,0.049792293,0.023975477,-0.21680048,0.086797945,-0.08035864,0.13403153,0.10871708,-0.16521023,-0.050403196,-0.10799483,0.03924391,-0.009779359,-0.019584272,0.15298618,-0.072614744,-0.14592125,0.021957874,0.059336033,0.1959992,0.1357818,-0.08910105,0.15628187,-0.009720477,0.22103697,-0.08336685,-0.002196545,0.036631793,-0.086803414,0.14068067,0.14398755,-0.018769454,-0.11778955,-0.12575372,0.031599496,0.07550357,0.04983184,0.049042385,-0.049301106,0.020347878,0.02345649,0.19284701,0.058842476,0.07009034,0.03399053,0.12481399,0.2616215,-0.029740917,0.115217514,-0.042375617,0.106095895,0.022568224,0.042622518,-0.017971292,0.08348302,-0.1430191,0.0010193982,0.03742339,0.25053492,-0.026120443,-0.055288732,0.09342261,0.054098643,0.03916357,0.15462476,0.057127085,0.039954778,-0.10756255,-0.14708014,-0.056982484,0.080337256,0.19997923,0.19485979,-0.13359669,0.081253156,0.09135507,0.07275882,0.09607493,-0.020679101,0.057870768,-0.0848402,0.0026609353,-0.15577698,0.10869441,0.0491233,0.031577058,-0.038496383,-0.038757607,0.1625135,0.13628113,-0.20464127,-0.2933902,-0.007894843,-0.12474707,0.25270215,-0.09385161,-0.07970359,-0.046598174,0.044866752,-0.16920748,-0.09682152,-0.050166756,0.41002214,0.016775955,-0.08448407,0.13531579,0.08723407,-0.20333433,0.054427233,-0.0033321455,-0.11598676,0.15386935,-0.092409655,0.06267245,-0.20597005,0.1194435,-0.081689596,-0.092466146,-0.112462796,-0.08189345,0.057021815,0.058616385,0.07128171,0.039057598,-0.06794618,0.070563935,-0.20055254,-0.22897297,0.38081437,0.04472228,-0.041401494,0.23893511,-0.08506218,0.2420836,-0.071526185,-0.05191465,0.111400664,-0.16283084,0.06618117,-0.042625897,0.16313274,0.0949805,0.10607958,0.11092948,0.05326803,-0.1832416,-0.030741856,-0.0063992976,0.013158034,-0.0318622,-0.07491313,0.1674028,0.041368768,0.035440646,0.08909208,0.04109188,0.09184763,0.1404468,0.072998695,0.028478123,-0.1532779,-0.1944404,-0.0783576,-0.06745286,-0.054562066,0.09031245,-0.07828372,-0.02944215,0.0710314,0.041460432,-0.058559854,0.07565307,0.0043932283,-0.025728233,-0.037833795,0.04107929,-0.031137226,0.031004462,-0.062232472,-0.05946593,-0.076389216,-0.09775344,0.16753107,-0.24698934,0.05547054,-0.08992043,0.06746582,0.078481816,0.010149074,-0.18479535,-0.0713757,0.0028746384,0.05147337,-0.09996505,-0.07680388,-0.0047530294,0.0129779745,-0.052114047,0.060668994,-0.04902984,0.1698538,-0.006627704,-0.047368668,-0.0347775,0.07897882,0.03395598,-0.029169053,-0.0644442,-0.07785634,0.0015006785,-0.015301683,-0.0045729997,0.07882416,-0.0326575,0.068218865,0.07852427,-0.03167749,-0.002916996,-0.052091077,-0.0060287905,0.07396953,-0.06248792,-0.044766124,-0.10522028,0.004678111,-0.0031720712,-0.038317207,-0.012842539,0.0546662,-0.09218886,0.14605947,0.07872864,-0.054623563,0.09877876,0.041564144,0.05108306,0.015865898,-0.10145557,0.012671941,0.0055183503,-0.086677134,0.005800032,0.08702772,0.020279964,0.065911196,-0.019463187,-0.03838832,-0.08396043,0.026279863,0.03891391,-0.0015605837,0.15714054,0.035124507,0.0017043395,-0.13192812,0.11364225,0.0025325664,0.07016212,0.009534986,0.10030315,0.096812904,0.08862628,0.090126,0.005873271,-0.09470175,-0.08151882,0.045686055,0.047666002,0.09575873,-0.026422597,0.026048329,0.10441319,-0.017449543,0.02567636,0.024629094,0.10817206,0.17922017,-0.1168875,-0.081480466,-0.04878014,-0.13238148,-0.039687723,0.08861057,0.19028924,-0.08727669,0.046140753,0.06554241,0.27983266,0.2523302,-0.053047184,-0.036056653,0.13231395,-0.032952696,0.1357439,0.005789052,-0.11839593,0.17152034,0.038304262,-0.10914659,0.083066806,0.14281978,0.2583466,0.110048644,-0.03388491,0.033034652,0.04360001,0.11371024,0.064712115,-0.004128475,0.19414209,-0.0011336901,-0.23028886,0.022277277,0.073129974,0.061291467,-0.11787605,0.24652615,-0.0712758,-0.0467826,0.0413029,0.08247053,-0.094076596,-0.09444023,0.11113574,-0.046162248,-0.02732355,-0.0614857,0.19022189,0.13356666,0.017537368,-0.0041719764,-0.14338207,-0.047285166,0.069032095,0.08195483,-0.019856703,0.03353378,-0.14341232,0.070275284,-0.15558432,-0.034430973,0.01542456,-0.019950807,0.18564622,-0.016436929,0.074770786,-0.07319373,-0.10342054,0.10375757,-0.03210124,-0.119289264,0.07211796,-0.1048107,0.0900401,0.05787979,-0.066666566,-0.09007815,-0.1736597,0.007548176,0.067854375,0.119684905,0.20912337,-0.12767024,-0.038308803,0.11534533,-0.05907333,0.06453184,-0.15196031,0.0823657,-0.046565045,0.04133586,-0.008751677,-0.0275616,0.056237534,-0.029973444,-0.08093523,-0.003514359,0.045602486,-0.0008956628,-0.005571333,0.016682738,-0.14158426,0.053836286,-0.0656221,-0.023121584,-0.100352064,0.09065558,0.005959376,0.11097036,-0.17298509,0.113578886,0.06232869,-0.05700117,-0.03460714,-0.041340433,-0.047799822,0.0056723882,0.030230181,0.04820093,-0.0065022702,0.22059828,-0.15891275,0.050763145,-0.052405573,0.09272959,0.034668256,-0.07048557,-0.05982885,-0.13946809,0.054066867,0.11679005,-0.15830308,0.09197109,0.011562463,0.08762612,0.048084404,-0.020069966,-0.036085643,-0.024698712,0.08226186,-0.007631595,0.07201001,-0.14093547,0.028574858,0.14360671,0.09522237,-0.0034729757,0.17828247,0.06107773,0.041748494,0.007935324,0.15628141,0.03010118,0.021183997,-0.20254004,0.10083344,0.005978021,0.07060469,0.13720593,0.0835347,-0.029646292,-0.09584973,0.083122514,-0.00015541993,0.11033337,-0.1866075,-0.09281898,-0.072982185,-0.04080829,-0.08735055,0.050476633,-0.04491431,-0.06746479,-0.12977362,0.023957929,-0.09091989,0.1082119,0.05827581,-0.08281274,-0.024601638,0.029114928,0.010166723,-0.0628982,0.064187266,-0.11171969,0.0881765,-0.06323478,0.24934883,0.11701536,-0.009570824,-0.0851783,0.006875993,0.08813061,0.036097884,0.09387514,-0.02284224,-0.18910207,0.050120022,-0.07254257,0.06840938,0.014489389,0.10843116,0.011188311,0.0111035695,-0.081472374,0.0027480735,0.21861832,0.059445024,0.042893887,0.047322445,-0.0612931,-0.18068433,-0.05279699,0.13999814,-0.1377578,-0.0904316,-0.12527737,-0.07012864,0.037516505,0.09331064,-0.0982821,0.07298205,-0.03705075,0.06611759,-0.06329377,0.0339452,-0.249488,0.13876139,0.030596785,0.1299866,0.008522944,0.00964694,0.19049342,0.034890845,-0.1464851,0.19290917,-0.017961847,-0.021196797,-0.1557958,0.08593519,-0.018305108,-0.14138816,-0.070593484,0.010259885,-0.031652257,-0.057782877,-0.27010995,-0.08643966,0.0761002,0.18354808,0.070968606,-0.20065615,-0.19151302,0.060198203,0.11065971,0.08487233,-0.15383735,0.0024443916,-0.08430822,-0.13350402,0.01630777,-0.0722215,0.07004928,-0.08364849,-0.11033242,0.14397818,0.045299042,0.041450765,-0.008229587,0.056480803,0.010143112,0.0067208125,0.017282333,0.0048089856,-0.1356661,0.17938484,-0.05570779,0.14014713,-0.13921261,-0.0073771924,0.09292585,0.05303039,-0.21298283,0.092718706,-0.07607392,0.068374895,-0.075033806,0.19081327,-0.08561618,0.1472249,-0.05583409,-0.023041949,-0.05425674,-0.16284005,0.11857068,-0.0954152,-0.08347123,-0.0040372824,-0.027936844,0.025167342,-0.071053214,-0.0934004,0.09051238,-0.106238745,-0.025479643,0.03745595,-0.17109424,-0.24460697,-0.059214182,-0.12735032,-0.037849378,-0.036084305,-0.12751906,-0.049564153,0.07161191,-0.0062430515,-0.19205211,-0.025794553,-0.027692765,0.20889895,-0.014286026,-0.043962304,-0.1285897,-0.15334283,-0.046735816,-0.14767437,-0.07387535,0.08269002,-0.018377077,0.23914154,-0.017156709,-0.091695465,-0.06637785,-0.017647633,0.16695781,-0.09251551,-0.02880905,0.023931665,-0.077738464,-0.21013124,0.14488252,0.041792735,0.011147537,-0.0040894155,0.13500799,-0.019722348,-0.16066672,0.00971461,-0.003312084,0.064510085,0.16718829,-0.13582735,-0.03213615,0.093655676,-0.18986216,-0.1315669,0.21516109,-0.18879028,-0.14248516,-0.16007894,0.14481597,-0.103457175,-0.06911857,-0.026583027,0.10379194,0.014407736,0.04591615,0.06621469,-0.15486763,-0.13450697,-0.32666165,-0.0026510432,-0.025355285,-0.058094937,-0.031983335,-0.0009739427,-0.035437007,0.088339575,-0.13896805,-0.04908811,-0.180945,-0.04083292,0.037787843,0.22899361,-0.06386615,-0.085003935,0.16498291,-0.0027213385,0.0039083045,-0.040208835,0.14634691,0.07637906,-0.2617192,-0.021292504,-0.024378562,0.079376034,-0.027796024,0.09749091,-0.10437229,-0.14850497,0.21992682,-0.09331599,-0.058837537,0.19685534,0.031353775,0.2765793,-0.24968489,0.12883197,-0.034928497,0.06610972,0.062163137,-0.019761767,-0.033916917,-0.07577468,-0.20311101,-0.09717137,-0.079670824,0.18715188,0.12749633,0.030235814,-0.08498657,-0.089891195,0.21988809,-0.24271035,0.031077081,0.0007428007,-0.08182709,-0.006389513,-0.035031978,0.01280385,-0.09210986,0.024780583,0.105883345,0.20052513,-0.0066709584,-0.04377735,-0.1331346,0.08787982,0.18054746,0.07089253,0.0410064,0.16205397,-0.047542647,-0.092415586,0.07095878,-0.12561406,-0.058772862,0.002414745,0.11599569,-0.0701774,0.01595709,-0.0019599616,0.078016594,0.0013512125,0.0077314014,-0.1008189,-0.0062073856,0.056596022,-0.0009439879,0.18403459,0.036825873,-0.067973815,0.11973958,0.1082126,0.036932837,-0.0925053,-0.07834905,0.05067487,0.0010220425,0.09842083,0.03776641,0.13136786,0.09745345,0.048504487,0.05869893,0.0860063,0.029675815,-0.1315349,-0.0046687545,-0.14700359,-0.026866337,-0.04750174,0.0030031642,-0.015353616,-0.06566434,-0.007531889,0.06736776,-0.063835256,0.036726065,0.0452146,-0.012068745,-0.054128498,0.032927245,0.18908148,0.042949986,-0.04803735,-0.05340286,0.21042225,0.0054971008,0.14700891,-0.04150002,0.031711955,-0.028574564,0.039135087,-0.026909245,-0.17396379,0.048449058,-0.019983806,0.062518455,0.036455728,-0.047811564,-0.23580149,0.002952226,0.19762388,-0.100608684,0.008948539,0.014758828,0.13110524,0.012883224,0.01401484,0.108746186,0.06809749,-0.089507796,-0.18916363,-0.04540185,-0.034500506,0.07999586,-0.057244547,-0.08381333,-0.06481712,0.0591396,-0.014793237,0.020005155,-0.011741028,0.17383157,-0.019128986,-0.13758469,-0.08391066,-0.063428745,-0.10615495,-0.06967972,-0.1096487,0.06394737,0.1707289,-0.00017821968,0.01720431,-0.08649792,0.12177423,0.10481717,0.14937969,-0.14504813,0.059182025,-0.05364383,-0.009300462,-0.02187486,0.034136914,0.1283693,0.027920065,-0.052641265,0.017979635,-0.014978791,-0.10962986,0.075120434,0.03910548,-0.04115292,0.121192686,0.0471666,-0.098975666,-0.04730327,-0.18396576,0.016945267,-0.16140531,0.033370804,-0.046720423,-0.12239236,0.07850412,-0.20942567,0.020453377,-0.0023525492,0.03369052,0.2662026,-0.0041520214,0.09912123,0.087732755,0.08630633,0.223501,-0.017967418,-0.055245914,-0.08575738,0.06007954,0.13169785,0.055091288,0.06313853,-0.013917728,0.00687365,0.045212198,-0.03368257,-0.11267766,0.03623588,0.04585724,0.045144044,-0.021968303,0.040016294,0.057806417,0.015492822,0.11312986,-0.12923902,-0.0064449105,-0.093108505,-0.056855798,0.02514111,0.14320539,-0.01771012,-0.3197688,-0.005927239,0.0014219517,0.04971166,-0.06578882,-0.063291825,0.011657709,0.08363356,0.11939939,-0.054879595,-0.1517196,-0.159836,0.11237097,-0.06274994,0.10515485,0.10614864,0.16620465,0.009017583,-0.011098231,-0.037640125,-0.12579139,-0.09877346,-0.11534284,0.00462623,0.043517563,-0.1331703,0.09463675,-0.011691577,-0.14749691,-0.0953343,-0.124225326,0.026632667,-0.12212569,-0.06586261,-0.032683462,-0.15326808,0.048755586,0.067369476,0.005413394,-0.14038017,-0.040277734,-0.19477229,-0.12780797,0.22194843,0.270998,0.116807014,0.016494486,0.15096277,-0.005967986,-0.16130774,0.08711922,0.22768266,-0.054902054,-0.12076624,-0.09376389,-0.08851162,0.041385077,-0.05346711,-0.04573202,0.013260189,-0.14831011,0.22878033,-0.028357534,0.0702967,-0.09886682,0.015119721,0.06965217,0.07344575,-0.10562254,-0.046418805,-0.14115357,0.08177202,0.025028808,0.14539248,-0.044953544,0.059056904,0.14156927,0.038223833,0.12463437,0.22459555,-0.12380275,-0.050728053,0.094786525,-0.11123994,0.071704835,-0.030182421,0.10458493,-0.008430876,0.040216647,0.09683734,0.05927827,-0.07780655,-0.0301929,0.06295901,0.11794757,-0.10680053,-0.046767015,-0.047591645,0.06882689,0.052131344,-0.13644877,0.0054183663,0.0715703,0.0949452,0.053236075,-0.020839086,-0.08888961,-0.071235836,-0.11118067,0.03228716,-0.11731607,0.07766458,0.077705875,0.00672882,-0.10818663,0.06926812,0.039826524,0.14947072,-0.15963657,-0.08026655,0.018770618,0.0061815553,-0.024238503,0.060368404,-0.08136721,-0.15452932,-0.061142124,0.06943531,0.0008618879,0.065898344,0.08368884,-0.023104545,0.08273842,0.07847621,0.03568923,-0.12149898,-0.0009966493,-0.02971188,0.1301909,0.07182764,-0.043723907,0.0182359,0.06474061,0.06746408,-0.18529731,-0.15811728,-0.12417323,0.10135128,0.0021634214,-0.06019749,0.07838959,-0.02773024,-0.031444985,0.08761056,-0.10126971,0.08288601,-0.13018277,-0.16994244,-0.069745675,0.05877802,-0.10545998,-0.031104084,-0.29021332,-0.042502068,0.03589741,0.016664853,-0.010965756,0.10540515,0.037904136,0.004951525,-0.04506035,-0.022800958,0.18186237,0.022232175,0.069825575,-0.14951591,0.11579043,-0.085418165,-0.019913692,-0.010991284,-0.059356783,-0.0683876,0.18041946,-0.052251086,-0.04996608,-0.036233846,0.22718868,0.020837765,0.22437291,0.01803463,-0.04888613,-0.06575894,0.087525755,0.062437925,0.02987947,-0.013848902,-0.004974026,0.055699922,-0.12869437,0.13103011,-0.29956743,-0.007916396,-0.15911369,0.06422159,-0.056638736,0.03059489,-0.07678934,0.060939398,-0.090581186,0.000709917,0.018909557,-0.031880703,-0.005156165,0.07675326,0.090356074,0.006704054,-0.059366148,-0.042671703,0.10254468,-0.14441544,0.12778258,0.07393326,0.06814069,0.07314454,0.07096049,0.039670795,0.052542575,0.054604534,0.020723434,-0.10177998,-0.059685525,0.018601943,-0.08719715,0.06558282,0.06892507,0.06474458,-0.06869433,-0.04973226,-0.014029083,-0.031719558,0.004538825,0.15499504,-0.12767398,-0.044268582,0.06513108,-0.010466397,0.024094071,0.013597616,0.03940013,-0.084167026,-0.0017292768,-0.005941266,0.048038073,-0.09741925,0.12562233,-0.0064040753,-0.025167612,0.07797726,-0.033602692,-0.046670265,-0.054527514,-0.12564754,0.107177325,-0.0076019205,-0.17458864,0.076052964,-0.042240366,-0.11983396,-0.10033316,0.059944022,0.017707165,0.09708998,0.000368228,-0.082620695,0.10441899,-0.03923696,-0.041351445,-0.086136006,0.11315663,0.028384462,-0.102956325,-0.06398541,-0.05400305,0.12274736,0.13622577,-0.09020815,0.03356242,-0.044834122,0.08451558,0.006854286,-0.098908216,0.04087346,-0.049157023,-0.059864525,-0.06498735,-0.06828235,0.0010962869,0.18224296,-0.037740782,-0.10008906,0.05112103,-0.11549366,-0.066874556,-0.048021473,-0.042763706,-0.009224855,0.031346884,-0.034040276,0.03827121,-0.0067652483,0.004415287,-0.010950532,-0.10243254,0.017265465,-0.08406755,0.046080645,0.013339274,-0.09274369,0.07958024,-0.09666268,0.14702208,-0.04499674,0.011186349,0.07918591,0.021278968,0.07776629,0.15120913,-0.10364092,-0.026497122,0.05906,-0.097145036,0.0729449,-0.0056035277,0.10365166,-0.044017565,-0.01624564,0.094757654,-0.06812647,0.14795594,-0.004897424,-0.088187635,-0.08966412,0.11527639,-0.0015139482,0.031712968,-0.11121031,-0.00046439606,0.11275622,-0.16418724,-0.122036986,-0.119627126,-0.0016888982,-0.168767,-0.0049666646,-0.097326785,-0.25211108,0.0823343,0.02462428,0.03045111,-0.10105964,-0.042433444,-0.029499605,-0.11566416,-0.1197243,0.07645287,-0.10427093,-0.045423392,0.060176995,-0.08351184,-0.09793619,0.11038889,0.07596767,-0.07618058,-0.11967569,0.0048267674,-0.0033664114,-0.067665145,-0.22566718,-0.39444545,0.044635884,0.01811261,0.085452974,-0.0008493254,-0.105707064,-0.12757921,0.06794477,-0.13897446,0.13269478,0.09981264,-0.08118367,-0.05151471,0.016547155,-0.017911794,0.041120306,0.013704441,0.02125715,-0.07377141,0.07977652,0.22730899,0.03936377,0.03571006,0.055567723,-0.10815535,-0.12888911,0.030523077,0.008078844,0.021104876,0.07039185,0.032744765,0.09955597,-0.018930662,0.0038616145,-0.06613262,0.023275908,0.016819552,-0.093191534,0.11573019,0.083893806,0.0014382966,0.19206268,-0.055850394,-0.12384594,0.011512046,0.07391043,0.01895769,0.017077511,-0.1393543,0.06436578,0.016428191,-0.08348869,-0.06264128,0.067141205,0.08646376,0.14292529,-0.08750754,0.07849573,0.011747744,0.023569781,0.013149757,-0.039282985,-0.07214041,0.02555434,-0.011742362,-0.054421827,0.07151646,0.097585574,-0.119210154,0.055788323,0.054758225,0.10046538,0.037965816,0.04435384,0.009886515,-0.091417745,-0.05848556,-0.021363966,-0.05792342,0.046760496,0.096969336,0.07999555,-0.05379738,-0.11164962,-0.097140245,-0.10447952,0.013854879,-0.09315763,-0.04386085,-0.00014227343,0.07223378,-0.10378616,0.18618453,0.018650332,0.0063223485,0.114656456,-0.14313018,0.06366984,0.08646688,-0.18154596,-0.002617392,0.03389511,0.08015717,-0.03317413,-0.035344258,-0.03169785,0.21067137,-0.107796416,-0.16058947,-0.009952099,-0.11874204,0.17782658,0.1004798,-0.04582512,0.18390827,0.09182506,0.01520779,0.046965405,-0.10044791,0.0729667,-0.02282763,-0.056850377,-0.040401097,-0.14173692,0.1459506,-0.0150984945,0.096060306,0.0010844645,-0.002463072,-0.012395792,0.14281048,-0.040950727,0.02994495,0.07550885,-0.051722508,-0.040196527,-0.1498298,0.14019763,-0.0073791356,0.012274487,0.059628762,0.0877747,0.15621266,0.10750864,0.017893955,-0.0894192,-0.2507196,0.1006491,0.16604272,0.004176191,0.01802122,0.01406969,-0.020981004,0.21971802,-0.00273872,-0.13365726,-0.048827842,-0.0077463402,-0.11060887,0.052741617,-0.05697508,-0.00908098,0.013822626,-0.014936831,-0.18734543,0.13034807,-0.14955069,-0.042717423,-0.010830413,0.08307334,0.048530344,0.069072865,0.09104371,0.09171326,0.18874519,0.08875892,0.037032925,-0.061779063,-0.11239189,-0.006024827,0.06714901,-0.018689021,0.021505332,-0.08630688,0.006415168,0.01278996,-0.092499204,-0.012963601,0.10624501,0.073694624,0.0038341312,-0.04237392,0.073777854,-0.017258232,0.013602414,0.02221099,0.10647942,-0.040160395,-0.07565449,0.04601013,-0.14378986,0.06494762,0.060794596,0.12744254,0.10446174,0.050058417,0.08498046,-0.10685843,-0.016555889,0.13279223,0.06725206,0.01113822,0.060989488,0.0692916,-0.025554072,-0.1322066,0.07419167,-0.22692811,-0.069578744,-0.1952797,-0.07720664,-0.07075373,-0.029659128,0.013853485,0.0035017792,0.042833053,-0.010384138,0.015432085,0.020401048,-0.054718845,-0.16531605,-0.022734826,0.027055023,-0.037591703,0.013136103,-0.06149252,0.24184859,0.042577494,0.09826174,-0.06238698,-0.18069759,-0.0072440556,0.11296248,-0.013884612,-0.10856905,-0.064182945,0.023008687,-0.22620724,0.10425203,-0.08234687,-0.015952872,0.08359417,-0.13886125,-0.008366592,-0.01409979,-0.20878561,-0.2660685,0.07351398,-0.08939727,0.010266565,-0.04914891,0.029516581,0.19065495,-0.053652547,-0.07109817,-0.053604994,-0.038915522,0.055919472,0.050803743,-0.14527227,0.02845176,-0.16774312,0.058777984,0.07205897,-0.02173269,0.047388487,0.010769415,-0.026342355,-0.005010612,0.042231504,-0.16530335,0.03987243,-0.09271917,0.07951484,-0.12147756,0.1345876,-0.062023032,-0.010686494,0.14706087,-0.09479178,0.018698769,0.014563518,0.045638192,0.15076959,0.051535696,0.04080034,0.01766147,-0.052567124,0.042149104,-0.0023585893,0.026278771,-0.051556963,0.03985376,-0.08113613,0.10392868,0.016875349,0.0036693828,-0.014815215,-0.051033176,-0.18888262,-0.0974389,0.077941634,0.16570131,0.06119136,-0.02350015,-0.07785088,0.08545393,0.007183213,0.04134592,-0.021786634,-0.001849,-0.11004685,-0.060105428,0.041386914,-0.029753499,-0.05465048,-0.064642936,0.11278218,-0.05194451,-0.042867344,-0.0063287667,0.034440942,-0.10945714,0.15800239,-0.03963927,-0.071602285,0.0243942,-0.06402432,0.1298066,-0.013821075,-0.025133379,-0.067714676,0.048282377,0.019298917,0.015957747,0.023999877,-0.028291054,-0.08128134,0.0001141309,0.051206842,-0.03274549,-0.06485843,0.16702065,-0.086810015,0.1681693,-0.014202299,0.025458276,0.006172114,0.24150914,0.08615111,0.051096365,0.05835937,0.1721012,-0.027563917,-0.09052659,-0.10154286,0.041166183,0.0633015,0.15595773,0.14876789,-0.06019668,-0.09348097,-0.03390219,-0.11831986,0.14158875,0.012810803,0.066615455,0.026801981,0.0150747495,0.017241908,0.13797294,0.058413167,0.09490604,0.042940177,0.072681874,0.020397903,-0.01131521,-0.1715538,-0.015262399,-0.15082517,-0.011914354,0.03864342,-0.058607843,-0.025716668,-0.18516147,0.059272528,0.07749444,0.0485131,0.0015777837,-0.016530002,0.06008062,0.016665505,0.061538786,-0.08764806,-0.012132532,0.048173834,-0.029919004,-0.15219745,-0.061866272,-0.04886836,0.07165143,0.0022420145,0.10023104,-0.15235226,0.056399863,0.04701038,0.12925594,0.018121999,0.065671004,-0.09395888,-0.04372998,-0.08591604,-0.069046915,-0.018349966,-0.06877323,0.0037670962,0.11970159,-0.10588814,-0.03518379,-0.133098,-0.041514553,0.1102216,-0.1516719,0.1561353,-0.092710346,0.003380545,-0.11364073,0.033910226,0.040484004,0.027891457,0.022252748,0.09064951,-0.085991174,0.08448121,-0.006039906,-0.029492797,0.016296366,0.17244181,0.1501348,0.036717683,0.19674611,-0.11931539,0.054224465,0.07910965,0.05058705,0.078088984,-0.037631642,0.011253394,0.084090285,-0.10191184,-0.034031976,0.058963295,-0.06280496,-0.0058686566,0.15854745,-0.06444464,-0.12252722,-0.016444763,-0.09644005,0.0066529247,0.10996715,-0.028321864,-0.2979476,0.005574102,0.054729216,0.049799513,0.08486832,-0.022962762,0.015417121,-0.022218704,-0.13605729,-0.06849127,0.14874512,-0.02993853,0.04431893,-0.008200214,-0.18323544,-0.17223665,0.08667996,0.08325179,0.060755137,-0.0068305847,0.029233463,-0.046298206,0.15234584,0.17133869,-0.045188934,-0.0070433565,-0.11323501,-0.10234156,0.008438498,-0.010463182,0.0015302395,-0.11872878,0.19103613,-0.0037565895,-0.043937653,-0.03397561,0.035712592,0.063878156,0.14042117,0.061465062,0.042398367,0.014868545,-0.112198874,-0.064515665,0.06889418,0.07743989,0.06447501,-0.20587936,0.067472495,0.0312375,-0.02670071,-0.14270517,0.066882856,-0.009854509,0.042843353,-0.022439528,0.10281107,0.03233736,-0.025364043,-0.09949625,-0.034617454,-0.053195354,-0.026648657,0.08639788,0.017482277,0.10428128,-0.011495565,-0.041550174,0.059617274,0.06777362,-0.034547396,-0.040412195,0.085604705,-0.026235623,-0.1250614,-0.020237247,-0.026178379,-0.027690716,0.004529795,-0.06936197,-0.017320031,-0.11035049,-0.04938395,-0.075198196,0.15715116,-0.008014931,0.08140142,0.0071902853,-0.03537546,0.24819079,0.11480406,0.07173311,0.11557138,0.11168866,0.08427636,0.1204878,0.02761359,0.088628285,-0.09317334,-0.06774289,0.033713955,-0.044013843,0.043571968,0.02052335,-0.02609561,0.026833504,0.04640082,0.024965802,-0.05952398,0.11861504,-0.018817944,0.067957066,0.060487736,0.005753504,-0.04761574,-0.039469227,-0.09473248,-0.04799287,-0.070373744,0.115664154,0.24105954,0.06322802,0.00986271,0.003226029,-0.068992466,-0.012441544,-0.03726575,0.12643465,-0.0008427539,-0.08389285,0.027048443,-0.023332743,-0.087926626,0.07398778,-0.018029787,-0.023693683,0.042890903,0.059957612,-0.11749736,0.124678366,0.1653728,0.053247947,0.11016333,-0.02434865,-0.042238593,0.020133013,-0.10291111,0.05860913,0.09801205,-0.03700251,-0.018478675,-0.15075898,0.085566,-0.00340885,0.030024413,-0.15658262,-0.10155378,-0.121405594,0.15536462,0.09439969,-0.01969007,-0.0029797982,-0.086169265,0.18939261,-0.06970292,0.045941398,-0.05224827,-0.27544838,0.040851254,-0.06644771,-0.0588174,0.0029031178,0.1519931,-0.039286137,0.17580582,-0.023254208,-0.16693299,-0.054982603,-0.06736387,0.12257333,-0.003066223,-0.007390167,0.21024293,-0.09497221,0.10653416,-0.08724438,0.086628534,0.06577778,0.02736728,-0.0031459627,-0.03977003,0.0013166403,0.09350697,0.09696544,-0.17020121,-0.0062625515,0.062666036,-0.076261394,-0.10598286,0.10738031,-0.106463805,0.018607542,0.032225497,0.092386015,0.034771338,-0.10945626,0.067161836,0.006478282,0.13496456,-0.016785804,-0.07406584,-0.07743226,0.0047462992,0.01921682,0.029015765,-0.049623106,-0.025783854,0.034931723,-0.036154836,-0.053384222,-0.05413885,0.08813451,0.076909736,0.07842159,0.0386081,-0.13570085,-0.08659908,0.01752898,-0.1123279,-0.05781387,-0.029942974,0.12638733,-0.035289865,-0.07146846,-0.12645486,-0.033234555,-0.066991694,0.031794064,0.031156365,-0.04841628,0.15783636,-0.047257908,-0.022288527,-0.06273548,0.080952,0.030305382,0.06899268,-0.030019747,0.060761098,0.11977172,-0.11779678,0.032675523,0.015960803,-0.02091977,-0.10581419,0.13601668,-0.28757668,-0.16918553,0.18443976,-0.034296025,-0.11700044,-0.09597777,-0.07445855,0.16004989,0.25249103,0.016847974,-0.21929975,0.09722574,0.022876818,-0.06826189,-0.13926326,0.088372685,0.015718592,-0.0671646,-0.085675254,0.04741946,0.074276775,0.17567623,-0.15238465,-0.087911025,-0.16310187,0.08012982,0.0019243504,0.108353995,-0.06354853,0.15147679,0.08377445,0.120973594,-0.16309744,0.22769988,-0.048472274,0.102438025,0.041884474,0.026533674,-0.048875105,-0.003552578,0.0012056021,0.036509484,0.050909393,0.24170627,-0.1675131,0.05590889,-0.07727922,-0.03968557,-0.03470178,-0.24189016,0.2384016,0.09261126,-0.10399446,0.08428821,-0.109311335,0.1371239,0.13894084,-0.036785353,0.031566165,-0.04552762,0.18599641,-0.005878502,-0.11598088,-0.05510633,0.045977872,0.05340097,0.15631044,0.10314686,0.16156088,0.019998142,-0.08746697,0.22940683,0.0844742,0.20791787,-0.250903,0.065462895,0.082434595,0.012651399,0.06451799,0.037384987,0.13379773,-0.0758449,-0.27627367,-0.055652685,-0.045617815,0.039833512,0.09098315,-0.053897265,-0.07357834,-0.067823246,0.18647853,0.10688899,0.10392389,0.07796812,0.20926125,0.1452216,-0.044449605,0.10512333,-0.048793342,0.15742558,0.044457093,-0.11828919,0.11309269,0.094630055,0.1418597,0.06295588,0.1303651,-0.008911236,-0.14293137,0.13081542,