0.15703256,-0.38192222,0.22897206,0.15539245,-0.4776808,0.110478915,-0.53362083,-0.61267936,0.13607587,0.23585951,-0.32156694,0.035887595,0.15860084,0.21832472,0.14947668,0.21265648,0.21952665,-0.5060933,-0.49648002,-0.30496213,0.24069962,-0.7317071,-0.1672233,-0.5153657,-0.55312294,-0.76600665,-0.24258068,0.44262114,-0.3449642,0.016472764,0.19125631,-0.26015726,-0.42366555,0.13304041,-0.43406525,-0.965066,0.14639834,0.15196027,0.05519172,0.06052786,0.13876401,0.13699187,-0.013317378,-0.44123682,-0.0957626,-0.4064004,0.38023233,0.078337714,0.3085509,-0.41769573,0.079252556,0.2720617,-0.3296771,0.23826244,0.22082877,0.074892566,-0.2409878,0.30754218,0.17175402,-0.6092645,-0.19746439,-0.45088282,0.2262135,0.26248387,-0.5083094,-0.45509276,-0.2049156,0.16811901,-0.4500294,-0.63525134,-0.32512847,0.27987188,0.31859317,0.25316912,0.13674286,-0.24566585,0.2275855,-0.07413642,0.2665169,0.30157074,0.037076678,-0.4643837,0.16466181,-0.45199364,-0.51924706,-0.12650745,0.30950993,-0.52902627,0.10099973,-0.18749882,-0.13757144,-0.037191056,-0.14784975,-0.09927517,0.118675746,-0.0974705,0.25109652,-0.14707059,-0.23068129,-0.40224427,0.0422034,-0.58657026,-0.40214756,0.2831991,-0.31364584,0.22721374,0.19594957,0.24134172,-0.34493226,0.26266465,0.14450863,0.20388316,-0.034832858,0.24382004,-0.33697274,-0.58168143,-0.51468426,-0.39365417,-0.48971465,-0.3614249,0.22885086,-0.4848498,-0.4834171,0.08357333,-0.22171295,0.2091643,0.25844002,0.2167173,0.09429303,-0.44918743,-0.15128541,0.10945283,0.29284686,-0.24307072,0.37568823,-0.5729745,-0.07880589,0.26148632,0.2040613,0.1292324,0.20829765,-0.5649563,-0.1315185,0.19829099,-0.5581262,-0.2795195,-0.01803301,0.19494753,0.18673271,-0.4935848,0.2467161,0.24613613,-0.41819322,-0.59941745,-0.48336267,-0.024099967,-0.11855613,-0.3829761,0.18441197,0.16712904,-0.19162717,0.2390025,0.25220856,-0.5909526,-0.3913354,0.20293698,-0.56288636,-0.5287319,0.17167336,0.2118446,0.17704913,0.1917018,-0.16619264,-0.73230547,-0.4483926,-0.39138994,0.15842482,0.26789436,0.30311188,-0.31249142,-0.18304136,0.24444748,-0.31059784,0.25954154,0.18667199,-0.42964408,-0.5573287,0.26171443,0.3093172,-0.17772682,-0.24991089,-0.40031284,-0.16114955,-0.5218858,0.16113137,-0.37412205,0.27668226,-0.49581435,0.18928231,0.14907533,-0.42251682,0.20501406,-0.51425415,-0.3190274,-0.35339975,-0.24342132,0.2073375,-0.5521142,0.22457081,0.18349196,0.23639789,0.2221657,-0.2633397,-0.23857896,-0.21252102,-0.40071586,-0.28443104,0.2184647,0.20834054,-0.19351962,0.2571856,-0.29959467,0.1863285,0.13901539,-0.46484765,-0.2656785,0.12584753,0.009940046,-0.5280922,-0.59649605,0.16717546,0.081418835,0.18886484,-0.25688016,-0.21619907,0.19645287,-0.08506425,-0.27182004,0.07272314,-0.19973494,-0.14245203,-0.13487798,0.23410727,-0.33741686,-0.21079832,-0.35237235,0.21996598,0.1509502,-0.36664048,0.15082265,-0.40716863,-0.6373448,-0.5753627,-0.20662907,0.2729424,0.22936688,-0.5609915,0.2460135,-0.5286041,-0.09420066,0.23748754,0.2378327,0.26978517,-0.113266066,0.1700953,0.24632952,-0.4362906,-0.20433667,-0.1053873,-0.37179893,-0.2509056,0.19710861,0.17424446,0.22106038,-0.7449403,0.17615512,-0.04824974,0.2944133,-0.4260475,-0.34361756,0.1899962,0.23005003,-0.6090092,-0.32412413,0.2563578,0.045746643,0.21640836,-0.5301478,-0.45856553,0.15535226,0.20560154,0.24603483,0.24948516,-0.1854221,0.13404813,-0.5143665,-0.14229895,0.1803934,0.2758479,-0.50009483,0.24680808,-0.047165092,-0.7169491,-0.43100217,0.21238329,-0.05287248,-0.29809377,0.25670174,-0.15320282,0.14687507,-0.31949645,0.11418503,-0.2933499,-0.14919484,0.1997192,-0.26607567,-0.18468282,0.0016234553,-0.31518558,-0.1490344,0.10765558,-0.7235928,0.06476863,0.0738915,-0.7347844,0.08077667,-0.29099447,0.026888859,0.06964654,0.112312704,0.20967399,0.33358577,-0.46326214,0.36231437,0.24683166,-0.46084127,-0.117061265,0.25483403,-0.38003975,0.018553866,-0.4759069,-0.45587242,-0.17796867,0.2463359,0.18805869,-0.35765585,-0.46342197,-0.72257626,-0.27914345,0.19642003,0.22950928,0.20681453,-0.3840286,-0.13889053,-0.22380395,-0.099254414,-0.25786322,-0.19239846,-0.29059625,0.53855926,-0.18286636,-0.5395951,0.40551683,-0.25454226,0.23737684,0.30301434,0.18941806,0.1326127,0.13733178,-0.4556675,-0.16742212,0.118117444,-0.57620734,-0.77184045,0.2582766,-0.61832607,-0.2679842,-0.47570664,-0.20822181,0.25604692,0.12394619,0.25112733,-0.35004207,0.32450724,-0.6144254,-0.3671639,0.03666714,0.3045151,0.33600625,-0.0285866,-0.44791284,-0.49694413,0.2073091,-0.36589012,-0.27883637,0.3101454,0.18828326,0.18117262,0.05199316,0.19758463,-0.18265189,0.060558625,0.08779761,-0.27268034,-0.11215688,0.02832052,0.045474883,-0.5301439,-0.45071465,-0.39407676,-0.3064141,0.28195077,0.28511846,-0.072687544,0.227468,0.26683033,-0.4278784,-0.6451034,0.19564912,-0.20853561,-0.37878945,-0.3667633,-0.44348985,-0.2311799,0.25284418,0.2173515,-0.33022934,-0.6000405,0.23332429,-0.13923791,-0.1925387,0.18113956,-0.15353063,-0.1280679,-0.11710224,0.08193242,-0.11663397,-0.04427813,-0.27395922,0.2271117,0.2219351,0.22812878,-0.63613886,0.24737662,-0.31140396,-0.44430423,0.10581346,-0.33694685,0.20975098,-0.26202562,0.27810457,-0.26580313,-0.3331276,0.3205148,-0.26807818,-0.2782593,-0.47733775,-0.47791305,0.20868924,0.27516708,-0.17819554,-0.5114906,0.21285713,-0.038624138,0.18786734,-0.16712211,0.25942266,-0.31867787,0.27838844,0.28494167,0.29962975,-0.4780286,0.13601083,0.1707074,-0.024675483,-0.15035363,0.080782056,-0.14452718,-0.12990887,-0.05066996,-0.12869811,0.14302555,0.0034636082,-0.14932846,-0.054470595,0.26123708,-0.21830544,-0.3064164,-0.42063951,-0.6307594,0.18716909,0.07043901,-0.49900752,0.0047831973,0.20810461,-0.21608259,-0.4000563,-0.47521183,0.21420307,0.2742671,-0.18383116,-0.4073542,-0.06053314,0.06632552,0.16552347,-0.45211446,0.19444335,-0.63370085,-0.5310181,-0.005575567,0.15062083,0.22439155,0.19749296,-0.4378914,-0.28073645,0.08361639,0.013218531,0.11855464,0.15995106,0.1723252,0.16334572,-0.27058837,-0.6890325,-0.53532344,-0.18205978,0.17691238,0.21077815,0.18578455,0.38954544,-0.30531198,-0.42217514,-0.28974405,-0.3020524,-0.36544344,-0.54026735,-0.26637578,0.11446508,0.23623961,-0.024034787,-0.091639705,0.27445883,0.012031417,-0.12253334,0.09028125,0.10426685,-0.09884291,0.23279399,-0.13852763,0.19604637,-0.17766392,-0.113900885,-0.22900762,-0.16650678,0.08252584,-0.32241732,0.026244583,0.13664828,-0.09805811,0.2416675,-0.5308289,-0.26330265,-0.44039518,-0.38678902,0.07162196,-0.27464715,-0.4236466,0.21808462,0.26234227,0.26142016,-0.19674031,0.27047423,0.19274044,-0.23014718,-0.23662235,0.36148596,-0.34710732,0.25047642,-0.4680054,-0.24786116,0.26498884,0.26190814,0.31506085,0.12515643,-0.32785457,-0.4310427,-0.68807936,0.090197,0.0705043,0.07308576,0.0849014,-0.435189,-0.47232178,-0.48735192,-0.80787516,0.16717824,0.1489631,-0.6159299,-0.31344494,-0.4431219,0.13958526,0.21092369,-0.3794419,0.1811286,-0.5399241,0.1556443,0.21375956,-0.42474887,0.24028125,0.23191153,-0.035440378,-0.3021556,-0.42456383,-0.14281814,0.14250542,-0.25844303,-0.33009455,0.10944372,-0.5704299,-0.18838578,-0.5114268,0.141362,0.14248767,0.15856075,-0.31774625,-0.4991079,0.26834732,-0.7634568,-0.3562958,-0.44703844,0.32297897,0.25755072,0.0064814445,-0.03988292,0.07503893,0.32009017,-0.13412115,-0.36710954,0.28567883,-0.43716288,0.2096235,-0.3766932,-0.32871655,-0.36185795,-0.47257498,0.051110156,0.0032093471,0.07492909,-0.218501,0.24746867,-0.6171886,0.1620288,-0.66201836,-0.23881471,-0.20536363,-0.43655398,-0.4360696,0.21585494,0.20861557,0.17567174,-0.32771122,0.24457929,-0.45340136,-0.35030448,0.26825562,0.23555887,0.22129105,-0.2514945,0.15388657,-0.40024677,-0.65344286,-0.6200516,-0.32903606,-0.6336947,-0.7197,0.13801369,0.19201653,0.19012666,0.20563525,-0.46692416,0.13115677,0.04920939,-0.32322395,-0.37902313,-0.5818323,0.2266509,0.090956874,0.2299591,0.21372151,0.2141886,-0.5539889,-0.4791027,0.20070705,-0.19165727,-0.22237884,-0.16619323,-0.7055904,0.3286365,-0.38149765,-0.681945,0.19152008,-0.1512074,-0.553258,0.14858,0.36884174