0.18703541,-0.18007138,-0.18673187,-0.22531252,-0.095883526,0.06546904,-0.12890323,-0.013571061,-0.02589114,-0.24609323,0.121842794,0.23267575,0.13986237,0.21230716,-0.28194898,-0.17209862,0.19002451,0.27581567,-0.17886844,-0.14846627,-0.043835055,0.092372335,-0.023704054,0.083333045,0.0029658545,0.043796778,-0.1704323,0.1570279,-0.16608259,-0.141988,-0.26826876,0.18287371,0.2859894,-0.24329868,0.20131913,-0.15209652,0.23422344,-0.026224166,-0.22912297,0.0692133,0.050347038,0.31368172,0.24833307,-0.035678286,-0.1677211,-0.27585298,0.027551,-0.104063034,-0.066640034,-0.11680308,0.34441355,-0.37946513,0.06096504,-0.092499904,-0.3937908,-0.10172989,-0.18209292,0.04354577,0.32757166,0.17769659,-0.22574383,-0.2561814,-0.1706765,-0.1728436,-0.0625713,-0.18372682,-0.21180092,0.2126819,0.1236254,-0.039162334,0.121748686,0.45873317,0.28457034,-0.16179489,0.17980763,0.021538453,-0.051430244,-0.024554454,0.2379596,0.2010463,-0.18610822,-0.08814647,0.022805577,-0.17101581,-0.03121438,-0.09753838,-0.07213164,-0.2011593,0.25564775,-0.07526055,-0.06559227,-0.1312817,0.32642365,0.218109,-0.16801345,0.122782685,0.052922722,-0.14731534,-0.02816813,0.23825952,0.2775299,-0.16985089,0.02930442,-0.12395075,-0.15614638,-0.10768255,0.21510182,0.10793657,-0.05600992,0.03198555,0.20388323,0.22112489,0.27632624,0.04694753,-0.03026278,-0.13789305,-0.21105967,0.2940571,-0.19926997,-0.21261998,-0.0063711335,0.07786914,0.22843832,-0.17829202,0.29413888,0.10867258,-0.2776252,0.02258946,0.17665592,0.1655863,-0.2982076,0.17027979,0.18040763,0.15626545,-0.12724829,0.06761257,0.05364966,0.0042662863,0.023121787,0.1789167,0.13059197,-0.07239525,-0.09254023,0.22399941,0.11042086,-0.20193495,0.21394743,-0.23927067,-0.18217286,-0.047028072,-0.10330612,-0.026578309,-0.33137026,-0.11686871,0.17816466,-0.106491536,0.18589498,-0.097230464,0.017067641,-0.2682538,0.03531092,-0.34625402,0.14422202,-0.08023674,-0.024554053,-0.042005163,-0.16983016,-0.118832104,-0.45948505,-0.22699003,-0.0049696458,0.032340206,-0.3301505,-0.1696084,-0.39432827,0.022046015,-0.4324573,-0.26883584,-0.24575016,-0.032103624,0.14680952,-0.4105194,0.21587525,0.3996203,-0.12638003,-0.081868865,-0.020799208,-0.31814566,-0.01181992,0.17332232,0.34063464,-0.03345904,-0.17475675,-0.25480482,-0.028489674,-0.0016006452,-0.085477576,-0.090962864,0.15009464,-0.1561555,-0.0098351855,-0.18001695,0.14338261,-0.10897819,0.13916917,-0.007117272,0.19391477,-0.14911573,0.23152517,-0.22192533,0.037859306,0.1638729,-0.0890776,0.13509375,-0.0013101489,0.21109508,-0.030967208,-0.028199352,0.26019123,0.038297515,0.1405673,-0.025835324,0.24399193,0.17236395,0.124021925,-0.10568047,-0.026414407,0.038647924,0.051134583,0.2670001,-0.041579697,-0.3251828,0.064433604,0.14302026,-0.14070357,0.055456676,0.15500306,0.0862031,0.026920825,0.058956698,-0.10773271,0.25828764,-0.11758036,-0.031692434,0.10775108,-0.12035961,0.24802735,-0.04381313,-0.10783012,-0.086818226,0.1397726,0.11303574,-0.16130151,0.07236444,0.08442482,0.17764793,0.20750886,-0.29012805,-0.05140889,-0.18790281,0.20550999,0.050336998,0.10766061,0.2498587,-0.05524326,0.069970176,0.23647955,-0.21580137,-0.12105571,-0.17157425,0.011713002,-0.18619066,0.25558954,-0.29651034,0.0258028,-0.42866787,-0.018735379,0.18206024,-0.4117726,-0.008764928,-0.16071598,-0.08434156,0.33736098,-0.1567686,0.078716785,-0.12405052,-0.16416417,-0.30543372,-0.32357648,0.034899294,0.07804283,0.11039663,0.28651044,0.024458483,0.25049332,0.4070555,0.049145028,-0.14199163,0.03140078,-0.19702777,-0.116665915,-0.065650456,0.21533512,-0.013892418,0.09550425,0.0251135,0.25066894,0.084783375,-0.20871978,-0.1756749,0.106935546,-0.19236012,0.069591746,-0.28567782,-0.18268733,-0.10706566,0.28909782,0.3664937,0.2492275,0.048279095,0.18724158,0.18333873,-0.05123571,0.14749072,0.2632676,-0.07341463,0.07816268,-0.0061088065,0.039365422,0.015414294,0.15984382,0.12951519,0.13183796,0.2674174,0.233868,-0.024354413,0.2203889,0.17572369,0.19017708,0.17692196,-0.10816073,0.18011004,0.09480155,-0.25158906,0.21947476,-0.09143023,-0.18332475,-0.21594772,0.20080246,0.14975351,-0.16247796,-0.066942066,-0.008169591,0.20152211,-0.29531965,0.11291312,0.024879958,-0.0068909684,0.036231395,0.094565086,0.18822628,0.12411564,-0.13120238,0.18162647,0.04202706,-0.21798998,0.13718152,-0.06798414,0.01834874,-0.070078015,-0.19727336,0.17266233,0.1582998,-0.14075145,-0.12418959,0.09778206,-0.24552736,0.20646055,0.25619438,0.19731437,0.002697205,-0.23947307,-0.1324711,-0.30413726,0.22370772,-0.14270633,0.0868542,-0.02887355,-0.1788166,0.08538081,-0.29980534,-0.17946398,-0.4396163,-0.19540644,0.20840324,0.088525705,-0.003719071,-0.12847406,-0.30462086,0.02876962,-0.05944463,0.010143309,0.16685164,0.111223765,0.15617934,-0.26818526,0.21299304,0.24569185,-0.13185681,0.045434833,-0.0022864921,0.05186995,-0.017952763,0.053177398,0.090519115,0.06207449,-0.104464725,0.18880188,-0.11654508,-0.2973945,0.088401005,-0.14802252,0.08742128,-0.06411785,-0.047896173,-0.02242033,0.23225132,-0.2941302,0.17615351,0.32050607,-0.019771358,0.0029609855,0.19928037,-0.0687727,0.22828785,-0.10494554,0.26236635,0.15119627,0.25855228,-0.14011982,-0.0043947324,0.07368954,-0.16169392,0.064206265,-0.11487322,0.280267,0.14201112,0.12049078,-0.029504003,-0.11695491,0.034666073,-0.28420103,-0.17219365,0.032707125,-0.20205109,-0.078534015,-0.28163433,0.099077724,-0.045501962,-0.14261533,-0.17323194,-0.15243457,0.19771792,-0.079804845,0.13156998,0.19810082,-0.36176145,-0.009663755,-0.09596506,0.22230434,-0.07475258,-0.034204658,0.10852288,-0.057151098,0.19926995,0.17228827,0.036716387,0.14704038,-0.022568299,0.010982039,-0.09696735,0.04766822,-0.10883047,0.17631297,-0.090746686,0.082129106,-0.061956774,0.07182345,-0.21856964,-0.019241236,0.114408694,0.10313715,-0.28062695,-0.26789656,-0.3044622,-0.053555485,0.24464405,0.004795487,0.20181973,-0.38870147,-0.17190064,-0.010974411,-0.42815852,0.012231698,-0.30181533,-0.07164184,0.025074014,0.13162568,-0.24603932,-0.09666259,-0.39147446,0.07966635,-0.16787837,-0.092260554,-0.23202492,0.050264437,0.31974354,-0.3423485,0.1976938,0.3309861,0.11384535,-0.12303719,0.13415547,-0.356275,-0.09824581,-0.14431904,0.31649834,-0.065019384,0.000657712,0.11026085,-0.09053071,0.006106733,-0.23372847,-0.05994019,0.027378041,-0.20556884,-0.14836825,-0.1448001,0.19796774,-0.1447189,0.035096686,0.11564775,0.15588284,-0.20144472,-0.13939776,-0.041422877,0.2278668,-0.019390058,0.1292702,0.23761076,0.06956726,-0.07372505,-0.18988717,-0.058176123,0.09935336,-0.04221554,0.08092032,-0.09257444,-0.15988135,-0.1751006