-0.18782884,0.25907344,-0.11903243,-0.09928379,0.06062685,0.101730496,0.14793979,0.08595636,0.11205279,0.08792176,-0.18924962,0.13143696,0.25607818,0.111903094,0.13864157,0.0527715,-0.055184904,0.007433981,0.042725157,-0.14799926,-0.14431804,-0.15864071,-0.15510058,0.35894608,-0.056565817,0.15908025,-0.10697783,0.048261408,0.1660642,-0.1623764,0.22736093,0.095827214,0.310102,-0.15647915,0.102711365,-0.08524245,-0.28960413,0.042122338,0.1211783,0.18673383,-0.13088605,-0.016061313,-0.10666748,-0.31223238,0.17590846,0.13017936,-0.060246326,-0.37160188,0.10021494,-0.0063718497,0.030155137,-0.3669751,-0.033402536,0.17403418,0.124508694,0.09054727,0.11878647,-0.039957926,-7.984538e-06,-0.23011225,-0.15394545,-0.11139605,-0.16217625,-0.035078272,0.13502105,-0.13435149,-0.29108697,0.37423006,0.11208218,-0.066606104,0.13290896,0.3696607,0.26266196,-0.017940776,-0.007592328,0.10347161,-0.3054637,0.058685806,-0.035620335,0.4025568,-0.19263303,0.2413724,0.05823796,-0.04696715,0.0024170305,0.17516893,0.38951445,0.089152515,0.029007787,-0.04759081,0.10275675,0.11485166,0.008199656,0.10633182,0.028425163,-0.090643294,0.04546864,0.118965074,0.15772878,0.26043367,-0.18833631,0.19031699,0.09415438,-0.100161076,0.256975,0.13215771,0.2577031,0.03821212,0.087569535,0.07876239,-0.11023258,-0.016127901,-0.1143466,-0.106954046,-0.15649484,-0.28846523,-0.013354464,-0.041681137,-0.112998985,-0.11002479,0.29012752,-0.048109617,0.18266246,0.04957489,0.28784084,0.20031773,-0.01312691,-0.048870925,-0.023341328,-0.11453893,-0.20746222,0.02789527,0.04205755,-0.10704387,-0.28105563,0.25132576,-0.27412146,0.056549627,-0.24045317,0.1327789,0.08333954,0.12716037,-0.022328394,0.17087424,0.31453735,-0.218218,0.12675293,-0.074580096,-0.25789922,-0.17881815,0.242553,0.14803903,-0.25965422,-0.05714365,0.18368553,-0.04567018,0.051790364,0.16994852,0.17639096,-0.03340594,-0.0766326,-0.070091724,-0.25902256,-0.14433993,-0.1900771,0.020327182,0.2617389,0.063127294,-0.049078077,-0.050607525,-0.033983454,-0.5076554,0.22127865,0.008405317,-0.17558007,-0.05224189,0.03826832,-0.06802396,-0.14021641,0.046690498,0.23860785,-0.2566753,-0.13075806,0.34737247,-0.008049602,-0.12105904,-0.053374443,0.34330097,-0.451443,0.2735678,0.29116523,0.36352468,0.110707015,0.26745212,-0.27347964,-0.34380397,0.095088474,0.32930773,-0.05754503,0.07750981,-0.10638775,0.116237484,0.2604416,0.031534385,0.068162106,-0.1721133,-0.029886229,-0.23890825,-0.18430649,-0.09981452,-0.14986745,-0.015725672,-0.10263409,0.14115135,0.15119234,-0.09749576,-0.036226038,0.05290437,0.17379199,0.052614916,0.012555064,-0.0591279,-0.17661369,0.05972184,-0.19822909,0.23232307,-0.15832396,-0.20975952,0.0924525,-0.010440391,-0.14252456,-0.05912326,-0.041620154,-0.053101443,-0.09786053,-0.21140799,0.26126203,0.27171296,0.043372612,-0.047780074,0.24381514,0.23646957,0.22317964,-0.15072629,-0.035849694,0.2321062,-0.32082263,-0.30264324,-0.09754669,-0.033382736,0.03914023,-0.06150884,0.2620992,0.07138626,0.0022641392,-0.20028205,0.21002807,-0.31669715,0.024015287,0.18287635,-0.39009982,0.024603132,0.1776628,-0.012568444,-0.20790629,0.13337715,0.060270116,-0.12900023,0.1206978,-0.072094515,0.23323506,-0.18669276,-0.17226772,0.025761385,-0.1501282,-0.47628322,-0.4368198,0.02408302,-0.01883279,-0.15942973,0.36346546,0.051739622,-0.031234654,-0.27258134,0.0045217676,-0.0362053,-0.117605634,0.080660425,0.21803883,-0.25148913,-0.20347391,0.20605612,0.02432668,-0.23140506,0.32002681,0.13373406,-0.114590466,-0.06718059,-0.09971022,0.21476182,-0.114322335,-0.036649663,0.17823541,0.12138501,0.10211535,0.23585899,-0.18855982,-0.083336376,0.28986442,0.2317845,0.07978951,-0.14241914,0.19424085,-0.0035914755,0.027115956,-0.2800278,-0.122006804,-0.027318202,0.19846323,-0.013425376,0.11149177,0.21086258,0.21186246,-0.10486844,-0.12599282,0.2751176,-0.16871244,0.06432704,-0.016244795,0.18711166,0.14293875,0.2516345,0.06196692,0.17337976,0.0328999,-0.18183924,-0.13153693,-0.039061196,-0.09386417,0.03499345,0.033158515,0.10614668,0.13691363,0.07053399,0.12331033,0.050887223,0.2805931,-0.21983287,0.14260766,0.19345224,0.016248796,0.03556594,0.14647147,-0.068191476,-0.020232381,-0.05153148,0.11003008,0.12565401,-0.0029618596,-0.36241874,0.10385257,0.22989884,-0.20691015,0.0791013,-0.099515416,-0.15893342,0.23757273,-0.027898734,0.18022257,-0.03757863,0.22116098,-0.12115799,-0.27390847,0.11487191,0.0948606,-0.16133274,0.07350076,0.15351242,-0.074635744,-0.0034213925,0.19275402,0.23418358,0.17652474,0.2686225,0.19142835,0.19716649,-0.18543619,-0.014787194,-0.36507,-0.011051015,-0.14611928,0.006787329,-0.011443426,0.40784287,0.19999877,-0.09612411,0.091440625,0.02316241,0.0564379,-0.16310005,0.37419665,0.08375926,-0.17520258,0.36894098,0.13510734,-0.30468678,0.14638214,0.3385823,-0.116952375,-0.1593391,-0.0016218945,0.22984125,-0.078103386,0.29148832,0.21156856,0.49861133,0.18807186,0.12573075,-0.21221879,-0.25664195,0.2736194,0.10475524,0.33489427,0.20518011,0.17216569,0.13216442,0.038071275,-0.16900103,0.12303786,0.08653933,0.067663625,-0.33937865,-0.18847868,-0.12800366,0.27555436,-0.076683424,0.058645606,-0.019118717,0.060692072,-0.14966212,-0.033457182,0.283064,0.009089977,-0.1402555,-0.06226224,-0.039176017,-0.17425816,0.058510635,-0.2215258,0.020715738,0.1260456,0.0069195437,-0.0286891,0.07598056,0.26106638,0.039963912,0.27422768,0.20994827,-0.02184118,-0.26328242,0.0894557,-0.24938998,0.02804012,-0.00811838,-0.031787,0.20024702,0.29291534,0.28658563,0.2296964,0.2578782,-0.23084107,-0.009781688,-0.08840491,-0.00071182253,-0.17452426,-0.14081685,0.23660721,-0.1457803,-0.116132565,-0.041718516,-0.1330903,-0.21460734,0.26685238,-0.026780967,-0.019124568,-0.11215374,-0.048616003,-0.051708672,-0.041329946,0.20959315,-0.14744872,-0.13629286,0.20827924,-0.20029971,0.15297364,0.31206417,0.01772954,0.22894236,0.01792834,-0.10594587,-0.32787514,-0.03508489,0.06580023,0.19894359,0.29484743,0.34748337,0.30849883,-0.3314379,0.13066536,0.087482706,0.08961369,-0.08583896,0.3865868,-0.21497317,0.03250437,0.36439347,-0.13523036,-0.054573525,0.11756036,0.13698815,0.3058144,-0.037653297,-0.07130082,0.3417322,-0.28252015,0.0062215826,-0.0061369487,0.23976824,-0.18260501,0.30048904,-0.07540974,-0.0844577,0.08975416,0.14463848,0.10841601,-0.09775631,0.10577289,0.14772852,0.3205391,-0.15655841,0.039085507,-0.17228106,0.32778725,-0.019978175,-0.08421836,0.26802823,0.09457331,0.13463809,-0.0910436,0.2564658,0.112141065,0.15182103,-0.10603397,0.1027582,0.008727227,0.16163103,-0.19905996,-0.123485,-0.17744875,-0.09521367