0.07976415,-0.108707994,0.13436261,-0.011700129,-0.034842722,-0.0759542,-0.0010007324,0.02581832,-0.09063807,-0.10203512,0.09820565,-0.024430756,-0.032223005,-0.0047520823,-0.12883541,0.16143411,0.006452594,-0.008003967,-0.16902333,0.07888373,-0.13133742,-0.026970409,-0.021768557,-0.0681953,0.1122274,0.16061333,0.091833085,-0.12423143,0.15686361,0.049058378,-0.12279132,0.07741586,0.086838104,-0.1600332,-0.019009907,-0.011130908,-0.055714164,-0.029216874,-0.02570747,0.022742158,0.10588196,-0.12379466,-0.030280072,-0.04383729,0.10976272,0.068110764,-0.032796815,-0.12963168,-0.05296824,0.15050174,-0.015736928,-0.119690515,-0.036308948,0.1069196,-0.0786987,0.045038007,-0.054845095,-0.009412672,-0.117479675,0.09010393,-0.040090133,-0.09409856,0.13527273,0.005141946,-0.09227946,-0.13733925,0.10157424,-0.0019387814,-0.05607572,0.13603494,-0.080057204,0.075712636,0.07662168,0.03546959,0.11007814,0.06266437,0.11764961,0.10562202,-0.06608367,-0.002014451,0.13473642,-0.054958504,0.027037013,0.01954929,0.123194404,0.057876952,-0.047308624,-0.17071086,0.08309106,0.15074928,-0.0045261835,0.06200214,-0.09321059,-0.1488609,-0.07841807,0.0666459,0.10641507,-0.083138056,0.0016915896,0.068527326,-0.15825799,-0.017194116,0.1464307,-0.096863,-0.1632276,0.026457462,-0.14595756,-0.06667919,-0.019576628,0.050948497,0.1701055,-0.11766193,0.100439385,0.1116973,0.10779605,0.09879155,-0.0027390216,-0.039754592,0.052084643,-0.10626912,-0.09600668,0.08978059,-0.012866208,0.1690814,0.038642913,-0.034782287,0.039045416,-0.084114164,-0.02400425,0.108926095,0.014816414,-0.06381334,-0.093327634,-0.11363404,0.048456404,-0.10734881,-0.10223761,0.075469375,0.0627657,0.091199346,0.034967195,-0.04872908,0.004571834,-0.0863932,0.057445567,0.07174921,0.006228318,-0.037314,-0.06447048,-0.055396967,-0.07570226,-0.09976344,0.007988118,-0.07024318,-0.046142533,-0.14879307,-0.009437017,-0.07599026,0.03307634,0.0074645737,-0.051540844,-0.10757677,0.101231106,0.025394456,0.0885949,0.09132086,0.1562204,0.015993502,0.064239904,-0.057801303,0.08384231,0.096107565,-0.13947114,0.104485966,0.03819707,0.05514584,-0.051754974,-0.030915672,0.012204137,0.07547132,0.038609535,-0.071958855,-0.10284184,0.07906015,0.04464661,0.0623124,-0.1172483,0.1618661,0.0192468,-0.11266224,0.10597657,0.06626211,0.09705453,0.1447706,-0.11196415,0.008519471,-0.15159258,0.07271396,0.06841,-0.03635896,-0.057673886,0.052630268,-0.0014593693,-0.12615076,0.07473772,0.08467089,0.09260099,0.064004146,-0.1046161,0.08960142,-0.013320965,0.01716401,0.069957696,-0.071246035,0.023804836,0.06801143,0.076375514,0.04509153,0.043777898,-0.09505818,0.04737243,0.025443925,0.0048704473,-0.06305632,-0.07673113,0.089875974,0.10619385,0.0036118154,-0.055024344,-0.035623547,-0.032519773,0.13344994,0.15935661,0.1959177,-0.14234029,0.012956864,0.037547283,-0.056570403,-0.10197908,-0.14086936,0.15071057,0.13867049,-0.06334472,0.06263663,0.09833389,0.0059195794,-0.122200705,-0.16551678,-0.14802891,0.037297513,0.03318292,-0.07141248,-0.063472316,-0.15191466,0.13147229,0.0820349,-0.105442375,0.14171636,-0.0514085,-0.0565554,-0.096705,-0.048563935,-0.0959699,0.15452993,-0.07382248,-0.055958577,-0.0439634,0.18316723,0.08828363,-0.13751481,-0.16553964,0.05244958,-0.03669484,0.109701514,-0.031279165,0.12871376,0.07511778,-0.009268917,0.09190292,0.21587567,0.10386829,-0.1242809,-0.03756833,0.1455668,-0.082178086,0.003139445,-0.036492407,-0.035790298,0.02722646,0.053420972,0.15672481,0.06423587,-0.030917749,0.1558699,-0.08230845,0.18789272,0.10405032,-0.061844975,-0.09247586,-0.04976389,-0.07000766,0.03622222,-0.023931889,-0.045295864,-0.11991299,0.1554298,0.013058955,0.13449448,-0.01973063,0.099244565,0.046900418,0.19899465,0.11986065,-0.02825292,0.013923909,-0.09102482,0.1453873,-0.093123905,-0.069200575,0.0059025967,0.1443149,0.12979506,0.019838987,-0.00050779915,0.061988577,0.15908007,0.096836224,0.0059646848,-0.032740094,0.14628917,-0.1299505,0.11497721,0.11253203,0.049841505,-0.13162434,-0.07173824,-0.13581763,-0.035822377,0.0660942,-0.10289429,-0.044123635,0.11008042,0.10078082,-0.05279764,0.06939167,0.074613266,0.007038479,-0.14050405,0.16026843,-0.07243642,0.013308547,-0.07104478,-0.036253516,-0.11720453,-0.014045767,-0.063708,0.14929873,-0.018046193,-0.07522855,-0.09472665,-0.08824771,0.04731422,-0.037920214,0.09254823,0.17503454,-6.0542472e-05,0.12797841,0.10160555,-0.07817341,-0.002336093,0.06399413,-0.049205154,-0.060506523,-0.076817736,-0.043819204,0.11108068,0.10850088,-0.07249074,0.043452088,0.070636325,0.16492817,-0.077863626,0.1352084,-0.098278545,-0.0317166,0.060172252,0.03239608,-0.11808246,0.106067285,-0.04838802,-0.031041773,0.1047483,-0.023544498,-0.15252429,0.052896462,-0.09793669,0.14557116,-0.10111831,-0.039942313,0.11071988,-0.16282372,-0.14660932,0.08905346,0.0794864,-0.12623893,0.08440175,-0.07396408,0.08468279,-0.11973901,0.01088424,-0.021389907,0.039366055,0.086703375,0.07280093,0.06011109,0.14059916,-0.049194794,0.13698088,-0.15003431,-0.0426205,0.045861453,-0.03622186,-0.07326512,0.08761809,-0.07531369,-0.10513334,0.065016605,0.045478005,-0.051700864,0.0315172,0.094372205,0.1698758,0.051123664,-0.032307975,0.001999756,0.1260272,-0.13021307,-0.09823334,0.1736844,0.035011705,-0.11600242,-0.04027147,0.1072975,0.18545435,-0.026633928,0.16642565,-0.028233156,-0.03478045,-0.08714284,0.18722285,0.059992358,-0.05496334,-0.16861337,0.009559887,-0.12646307,-0.111301795,-0.043497737,0.18108281,-0.06916546,0.0012521053,0.013446987,0.1600142,0.15754497,0.05191136,0.13947657,-0.10024813,0.12197474,-0.0801954,-0.123921074,0.114861436,0.15126158,-0.0037793138,0.0036619669,0.09544898,0.061457604,-0.11501281,-0.035774034,-0.032978557,-0.05076351,-0.16872707,-0.12381711,-0.03159064,0.084796295,0.020806463,-0.0706141,0.10797666,-0.030348899,0.052198626,0.025682729,0.021476327,-0.1282545,0.031524226,-0.051224373,-0.06062646,0.113159515,0.1123951,0.0553656,-0.05417106,0.085316405,0.13990383,0.1610456,-0.053469185,-0.083098024,-0.04324275,-0.0886248,-0.06971959,-0.09261156,-0.033540554,-0.15053293,-0.048575245,0.039284986,-0.022966724,-0.024029626,0.03781902,-0.008186323,0.0735642,0.10688814,-0.10928983,0.048976652,-0.103671364,-0.14903104,-0.13669713,0.046324924,-0.012284302,0.13164257,0.14227624,-0.054866873,0.050565206,0.04103074,-0.028675374,-0.1073488,-0.06403483,-0.08516483,0.13659625,-0.044228803,0.14979753,-0.024208026,0.08087682,0.016606975,0.028558265,0.07695909,0.053843975,-0.08023683,-0.036485728,0.08908168,-0.10267484,-0.09815811,0.008511401,-0.07350034,-0.04039263,-0.04253332,-0.080297455,-0.059924897,0.12901734,-0.012078918,-0.022150544,0.096709706,-0.054132566,0.06970704,0.03930467,0.12707742,0.13204575,0.110307686,0.061196264,-0.087101616,0.00015845889,-0.10715363,0.074365444,0.083759576,0.022415064,-0.011685451,-0.0709934,0.0788384,0.12376058,0.20270336,-0.051942777,0.121896006,-0.11653703,-0.008271698,-0.14230947,0.15089421,0.15045068,0.07471465,-0.14858687,-0.009707922,-0.016798519,-0.08276215,-0.08884798,0.06882293,0.09622353,-0.050103124,0.032773953,-0.029833222,0.0061651743,0.061398797,0.04156636,0.05283614,0.09682361,0.11321542,-0.06794586,-0.13970646,0.08448379,0.103019945,-0.010880331,-0.11111298,0.08590165,-0.041069314,-0.086640894,0.05459099,0.009413192,0.028673086,0.049528744,0.022599986,0.06005191,-0.06975937,0.11093702,0.11321423,-0.08473941,0.10783349,-0.08547123,0.13759698,0.12437324,-0.11133077,-0.10192667,0.06348194,-0.06328113,-0.009656869,0.03689797,-0.087183915,-0.15399192,0.110788226,-0.10204704,-0.021616913,-0.12583391,-0.101853795,0.114723876,-0.07999934,0.17458998,0.021282317,-0.0629973,0.21725944,-0.024107423,-0.10051359,0.014913656,-0.15506418,-0.059896186,0.037436772,0.005279191,0.07840106,0.09208535,-0.031180896,-0.021009486,0.0862422,-0.048097286,0.102598906,0.005072219,-0.00700799,0.102606565,0.024147984,-0.08574294,-0.101167165,-0.08554634,-0.037556577,0.007963405,0.06547456,0.014698235,0.073988274,-0.0595052,-0.035248883,0.07890867,0.012747752,-0.028952356,-0.033588942,-0.09702377,-0.08600098,0.017521672,0.06835761,-0.1428683,-0.05067854,-0.036239833,-0.08331426,0.0014937562,-0.026601484,0.04286076,-0.062947124,0.009931554,0.034284614,0.00957335,0.060799904,0.07282781,-0.054724626,-0.1046908,-0.024862796,0.09769294,0.089137614,-0.12039813,-0.026804477,0.18115033,-0.014318084,0.053118434,0.07038569,-0.14285652,0.059753373,0.05679722,0.17378312,-0.12144613,-0.17132464,-0.02302948,-0.1300235,-0.007493753,0.02389982,0.023179742,0.09724298,0.07397279,-0.14836846,0.035210952,0.0033403912,0.043626983,-0.03872736,-0.040178526,0.07284079,0.06611199,-0.11967681,-0.086983845,-0.17323193,-0.1970052,0.03923835,0.1019994,0.035891768,-0.109424725,-0.023632122,-0.099249266,0.040758327,0.04545284,0.075728215,-0.009905768,0.13879794,-0.12313103,-0.07348397,0.084266715,0.113184646,-0.10086715,-0.09977546,-0.11429115,0.11187324,0.14349978,0.07787571,-0.11055714,-0.010943887,-0.13333043,-0.14620198,-0.08608699,-0.0075193066,0.11007624,0.067762434,-0.15872121,0.095990956,-0.09212963,0.10070669,-0.06475234,-0.08637876,-0.08096864,0.08236811,0.08693149,-0.033062756,-0.15446764,0.016404865,-0.112350464,-0.1308225,0.11925975,0.04333057,-0.017171055,-0.1705923,-0.037579224,0.10532333,0.17801024,-0.006742182,0.08224288,0.028745415,0.22467609,0.110716484,-0.049975403,-0.027182354,-0.012212307,0.13620037,-0.08627438,0.14720531,0.01257903,-0.005224772,0.06631084,0.02533894,0.06656418,-0.12978841,0.044713195,0.051778346,0.029050961,-0.0982716,0.1854064,0.016511993,0.13437933,0.044254463,0.18188897,0.18121368,-0.13233894,-0.091047615,-0.02881189,-0.05582071,0.10424683,0.059864048,0.05053787,0.15075532,-0.019826874,-0.08305999,0.0859008,0.030915892,-0.03759081,0.10392405,0.045288168,-0.03206663,0.050021157,-0.001049599,0.036962695,-0.10523201,-0.044199638,0.084390454,0.008125842,0.059574615,-0.01538171,-0.05055774,-0.06350748,-0.06320277,0.023657456,0.13975045,-0.020210994,0.16832252,0.005309424,-0.034076545,0.10609637,-0.030598423,-0.14719006,-0.05984761,0.1456697,-0.11763174,-0.045684237,-0.06892081,0.11735822,-0.045713585,-0.03801243,0.020562736,-0.0913626,-0.09438874,-0.055979215,0.119754516,-0.041832447,-0.04822814,-0.06499539,-0.10122528,0.051991414,-0.060433034,0.063404314,-0.035706893,0.062854,0.054135557,-0.041527268,0.09052314,0.0965388,0.13773662,0.013515438,0.0027570277,-0.07091959,-0.07777132,-0.013026154,-0.07526442,-0.11510615,0.117706515,0.02703375,-0.046407025,-0.052192453,0.11628198,0.086423285,-0.123494096,0.12381982,-0.0064698095,-0.040835574,0.021703279,-0.018658062,-0.111681096,0.06033418,0.15635625,-0.058096673,0.039321776,-0.03290412,0.004942175,0.07944493,0.19449088,-0.020179816,-0.10494738,-0.06187502,0.056918446,-0.065155655,0.121086486,0.06570936,0.18574928,0.109592766,0.114727974,-0.086826034,0.121489815,0.031723157,-0.017510246,-0.048228536,-0.05478542,-0.024453986,-0.053428423,-0.0653924,0.008302993,0.1369429,0.021492513,0.06265493,-0.014944799,0.14121923,0.10376549,0.025555637,-0.09406534,0.056211673,-0.08482266,-0.08049303,-0.041328825,0.13109523,-0.014764549,-0.033332117,-0.11434175,0.025293224,-0.076650605,0.12242559,0.14998883,-0.021554483,0.029370649,0.095799714,-0.07753348,0.14547645,-0.0076232417,0.13626967,0.058842335,0.10160518,-0.034149732,-0.06721454,0.092531286,0.0065096053,-0.04580145,-0.02148487,0.03283351,-0.09738892,0.09251532,-0.02614594,-0.13447735,-0.06080046,-0.16635625,0.0026821066,-0.09393322,-0.075457804,0.17558937,0.13782558,0.024802156,-0.13895212,-0.16840445,-0.013271997,-0.038808107,0.13489656,-0.012364852,0.12497346,-0.11847059,0.16065805,0.08614775,-0.06976337,0.11298822,-0.09274853,0.020507768,0.03192115,0.12554182,0.10704359,-0.014163382,-0.15130216,0.015426635,-0.035185162,0.077600345,-0.021994038,0.12763809,-0.14673555,-0.09314538,-0.053929087,-0.04754973,-0.16280282,0.074127465,0.054984834,-0.10693773,0.029810132,0.060723845,0.018673455,-0.085706465,0.14124078,0.1003562,0.08574684,-0.12324566,-0.12907119,0.08490623,0.12526205,0.16405009,0.051852863,-0.074313544,0.121764064,0.1275754,-0.001997653,-0.03035308,-0.1569894,0.023398528,0.10651454,-0.05637198,-0.0945309,0.026373077,0.00878219,-0.0711654,0.066763304,0.08131871,-0.04106978,0.03807905,0.03676256,0.14009489,-0.016704267,0.15637891,0.100543335,0.14285553,0.05047511,0.039916243,-0.0031637545,0.08782563,-0.10670125,-0.04785774,-0.10677197,0.12629603,0.050726563,-0.12372179,0.051150244,-0.04621818,-0.08406735,0.061684024,0.025309006,0.019725725,0.09596582,-0.03862209,0.1682274,0.13192245,0.12747614,0.10418326,-0.048380468,-0.047528453,-0.04423852,0.01487257,-0.20127784,-0.023167584,0.114563346,-0.11648239,0.12011448,-0.019701703,0.11965675,0.14024018,-0.07710491,-0.14434518,0.016573712,0.053377688,-0.0693412,-0.11663182,-0.0924066,0.009845793,0.13657057,0.105583556,0.1273267,0.02294033,-0.0049478984,0.027054863,0.09873837,-0.07337633,0.103170455,-0.09106415,-0.1328301,-0.13065305,-0.14661807,0.08475864,-0.17559892,-0.024356823,-0.08762905,-0.141564,-0.12127318,0.09206227,0.12656245,0.053543948,-0.017997334,0.07291653,0.055199545,-0.15049277,-0.08560175,0.10896521,0.067458056,0.08081213,-0.09956259,0.15391119,-0.044216324,-0.040447995,-0.12743475,0.020233227,0.10368211,0.029858358,-0.014359905,0.051643245,-0.019434169,0.044740226,-0.08989386,-0.13857642,0.12562308,-0.043856975,-0.075188,0.09202634,-0.05040823,-0.006886504,-0.09702317,0.028243205,0.027598536,0.07963702,0.07765605,0.011326767,-0.11317081,-0.10208934,0.07817744,0.14815728,0.08754907,0.01742596,-0.077020526,-0.0924237,0.09309838,0.0041364455,0.0017528478,-0.10122016,-0.08944892,-0.07870082,0.017442591,0.1117,-0.15152739,0.018382037,0.045469414,0.13165475,0.009885927,0.12842365,-0.004087957,0.1579497,0.062969655,-0.06988832,0.1388382,-0.12762865,0.008574075,0.032413803,0.066379316,0.048138894,0.017955665,0.06700631,-0.039785493,-0.016779646,0.12211392,0.12472225,-0.019471152,-0.024217838,0.041668206,0.019745817,-0.019689912,-0.07683986,0.02362871,0.1437073,-0.13294816,0.11113513,0.057421546,0.069130786,0.04783721,0.12659866,0.11286521,0.058383446,-0.019925633,-0.0632541,-0.07721917,-0.071894474,0.048577655,0.017280865,-0.082249,0.15772298,0.09358716,-0.14325598,-0.08715785,0.10851517,0.044853374,-0.056480743,0.05855893,0.09503051,0.063550934,-0.105615005,0.10436841,0.015107161,-0.011911661,-0.065760784,-0.033971377,0.11163977,0.11031018,0.05305845,-0.027001986,0.09274431,-0.027178273,0.096181266,-0.018827604,-0.109786436,-0.05131308,0.06585073,-0.091640905,-0.16140735,-0.040244564,0.046951268,-0.09270951,-0.06865064,0.1415811,0.019210191,0.09100626,0.097966924,0.13332792,0.062279474,0.10777994,-0.07696267,0.024312345,-0.054825447,-0.1004582,-0.072981015,0.08454509,-0.052794408,-0.11347836,0.1110504,0.06293745,0.09593749,-0.10413226,0.10916138,-0.064969465,-0.07548294,0.1309166,-0.012116183,0.018069545,0.0900288,-0.14783281,-0.10927647,-0.13909462,0.08850484,-0.06929098,-0.07700376,0.0691451,0.060365997,0.021649601,0.06328904,0.08081733,0.06194184,0.0029909054,0.14853454,-0.022241296,-0.0020483052,0.018159969,0.1222618,-0.13374269,0.03835422,0.013846428,-0.05122101,-0.021957124,0.07838229,-0.13777985,-0.0170614,0.10067137,0.12891436,0.066089824,0.011872309,0.032032084,0.09095289,0.038338844,0.018333592,-0.1689051,-0.093178704,0.093070336,0.067787744,0.025824966,0.11293819,-0.1409693,0.0024916874,0.10299751,-0.034446348,-0.08702976,-0.07225215,-0.05979289,0.07815502,0.02879347,0.09243461,0.015949469,0.05355861,0.10009141,-0.082796924,0.22546811,0.0016570219,-0.06361303,-0.053103056,-0.014750602,0.076366454,0.008731932,0.16455893,0.09878767,-0.15643226,0.105960816,-0.0018189733,-0.10556857,-0.09231492,0.03294748,0.08553048,-0.08058887,-0.032591093,-0.094163835,-0.15096395,-0.029816724,0.005043675,-0.15379697,-0.18146972,0.024877002,0.1155848,0.04176228,-0.0037793014,-0.03007465,0.15078624,0.22345825,0.09598267,0.1449602,0.055225253,0.014172216,0.042536393,-0.03701488,0.09264521,0.031135017,0.04512499,0.14193155,-0.04510173,-0.020379389,0.09941098,0.10470893,0.039505776,0.07190263,-0.0078023784,-0.12769544,0.11129023,0.1029976,0.12955849,0.09211211,-0.03245681,-0.11680566,-0.12317699,0.13794902,0.08420139,-0.07061395,0.10682852,-0.07138628,0.14416379,-0.058176655,0.12815802,0.04491763,-0.053950872,0.17334335,0.047952026,0.060412873,0.025602456,0.030195074,-0.08610299,0.07145202,0.08414146,0.11572686,-0.04849501,0.096950024,-0.03251593,-0.09958151,-0.017225752,0.08688312,-0.005158109,0.03747802,0.04863758,-0.0141915055,-0.019834302,0.06306393,0.09886159,0.06735996,0.09267067,-0.013306124,-0.11241373,-0.05122269,-0.075240694,0.1156781,-0.10361066,-0.12492392,0.14089702,0.05272302,-0.09187343,0.15761572,0.113098316,-0.0016147993,0.07151665,-0.012477887,-0.002423288,0.119173065,-0.12513235,-0.117425114,0.027461173,0.10851265,0.16077316,0.15618454,0.059954032,-0.03212282,0.08671876,-0.020500569,-0.015808957,0.12430193,0.013260312,0.16350873,0.0044823494,-0.10254939,-0.115266,-0.07889659,0.070756145,0.1701265,-0.006345926,-0.008769582,-0.106653385,-0.021099793,0.075268686,-0.03171648,-0.08515087,-0.04919883,0.081659645,0.14166506,-0.18269365,0.084972374,0.11001668,-0.011170758,0.022138633,-0.054666307,0.002318241,0.118042,-0.04574227,0.14548919,0.07240692,0.08039166,0.10669182,0.025492884,-0.027239615,0.008470701,-0.049705822,-0.059679944,0.0073089977,0.14184445,-0.07727524,0.01255477,0.09409109,0.09107031,-0.16613899,-0.12193345,-0.09552048,-0.07774227,-0.16757393,0.14535496,0.011359009,0.15402195,0.09735597,0.05811495,-0.0776452,-0.06357674,-0.09108289,-0.045871984,-0.10369349,-0.0067756595,-0.022576803,0.11415882,-0.041573934,-0.014652061,-0.12882577,-0.016057331,-0.06525296,0.026328612,-0.07666706,-0.026146991,-0.09943009,0.014946368,0.09468405,0.030554393,0.17762385,-0.02711693,-0.060957536,-0.0037543373,0.09026424,-0.098404,-0.105896875,0.021019666,0.09508034,0.06919248,-0.03753385,-0.05521929,-0.10693343,0.15552261,-0.13797043,-0.11215605,0.014593101,-0.009358537,0.1149734,0.0077497726,-0.14382905,0.03842847,-0.11804355,-0.09281348,-0.018772854,0.04382185,0.035069853,0.062438913,0.06901895,0.07880403,-0.18957442,0.09214115,-0.0959725,0.02985044,0.0125243105,-0.07616455,0.028605117,0.057777334,0.054605566,-0.008162538,0.08041131,0.079927854,-0.1101293,-0.05655463,0.061022513,0.024934378,0.010306189,0.015222922,0.13956378,0.06559128,-0.065188155,-0.11114069,0.07425322,0.00031538872,0.063493535,0.05143907,0.036054127,0.15828529,-0.09603607,-0.013389062,-0.06339728,0.009998543,-0.0776782,0.12342426,-0.038818296,-0.14788325,0.08242507,0.024618655,-0.09586271,0.023429265,0.053437777,0.12092246,-0.1252854,-0.11321508,-0.09805387,-0.1741608,-0.10165614,0.07021418,0.08211255,-0.045591824,0.09537421,0.07862355,-0.106160454,0.029694382,-0.03426994,0.15411703,-0.10302895,-0.1393684,-0.115648024,0.03796927,0.14074671,0.05896849,-0.01828454,-0.10874691,0.04812656,0.10510982,-0.057674035,0.110985,-0.077107005,0.053505097,-0.010000974,-0.06613557,-0.10810092,-0.10355748,0.08119378,-0.07605059,-0.05249616,0.10904046,0.10692834,0.10072373,0.1567629,-0.052437186,0.13980816,0.044843055,0.11302864,0.14891383,0.0633263,0.054514587,-0.026150314,-0.099708885,0.033286184,-0.089087285,0.111930035,-0.1318044,-0.012525624,-0.07483443,0.09759011,-0.0087506585,-0.10023464,-0.023003792,-0.08264579,0.1117382,-0.021361135,0.019523405,0.08729273,0.11336603,-0.022322875,0.0753998,-0.033262953,-0.017364364,-0.048203006,-0.023411443,-0.0434311,-0.14519036,-0.012042297,-0.08295406,-0.06727143,-0.08406844,-0.019965962,0.11322436,-0.06822182,-0.071795136,-0.1518158,-0.084773324,0.09912716,0.10080894,0.010905531,0.09341651,-0.026270768,-0.13710655,0.028874723,-0.0024411716,0.07194248,-0.13185449,-0.06286655,0.15246914,-0.08228668,0.040119592,-0.0695821,0.06580466,0.008674458,0.11440476,0.07225271,0.027183855,-0.12601507,0.065628126,-0.061469298,-0.10017169,-0.10065877,0.13810949,-0.016087312,0.055063188,0.009395849,0.15021487,-0.07155979,-0.026632018,-0.056996293,-0.032720767,-0.07991889,-0.07088598,0.12509221,-0.19825469,0.0023789455,0.030170165,0.105607115,-0.007846468,0.051731687,0.055595297,0.123568535,0.149753,0.044221967,0.18451282,0.088310905,-0.0020071934,0.15150583,0.14551583,0.17953391,-0.08625436,-0.081107035,0.013292089,-0.010398707,0.014023751,-0.06502504,-0.16479203,0.12184366,0.0716083,-0.060621988,0.122522056,0.041587744,-0.012904527,-0.071041584,0.13665824,-0.009564487,-0.09806091,-0.114364795,-0.12007523,0.087319985,-0.11350269,0.07153375,-0.07858582,-0.15389685,0.13042524,-0.06185508,-0.08968084,-0.08430554,-0.052570302,0.031404544,0.07629852,-0.15609786,-0.04260143,0.0659607,0.08356074,-0.1428951,-0.05211259,0.028960513,0.1592372,-0.16132857,-0.118685,-0.022742126,-0.015898155,0.10469783,0.016794994,0.10676584,-0.009684782,-0.04514023,-0.084757395,0.14713117,-0.06648365,0.04075005,-0.18715638,0.09543479,0.07957884,0.04410923,0.009863826,0.00082059327,-0.11883103,-0.06380332,-0.06490944,-0.12905926,-0.07171152,-0.044088285,0.13426897,-0.050750636,0.06743739,0.17894666,0.036663063,0.20170072,-0.008751561,-0.10181413,-0.045225583,0.112081215,-0.0213817,0.049094778,-0.0019682113,-0.021607794,-0.19061764,-0.12428553,0.15003185,0.034684762,-0.08553687,0.1138012,-0.04622939,-0.06379279,0.06678021,0.08602787,-0.09914299,0.041608755,0.10197755,-0.00846332,-0.04242254,0.09604595,-0.12589307,-0.06078256,-0.0024557344,-0.15956794,-0.019142363,0.07792445,-0.044166993,-0.043753054,-0.02547756,-0.023757754,-0.09392955,-0.09961876,-0.07486306,-0.08845223,0.0011456816,0.19060533,-0.014701076,-0.08847338,0.08228497,-0.08640772,0.16537814,0.16533759,-0.1351867,-0.059144855,0.037865482,-0.1464487,-0.047290966,0.008521291,-0.15758778,-0.08625051,-0.024207814,-0.10004677,-0.019266244,0.02971234,-0.0037296622,-0.16774441,-0.05204757,0.2073845,-0.05134439,-0.083169125,-0.010419452,0.1417892,0.017264437,-0.10966391,0.059884537,0.06677418,0.0808013,0.14868405,0.1173902,0.06444509,0.018495692,0.0027545674,-0.0081219785,-0.12074343,0.12943691,-0.014552675,0.14354292,0.15407683,-0.054810688,-0.11304238,-0.08143831,0.0021845903,0.027997943,0.06369716,0.047610525,0.08822768,0.082049765,-0.0090158405,-0.11182676,0.101944275,0.11164105,-0.08394331,0.07189253,-0.06997897,0.12148585,-0.033129007,0.059671197,0.09697516,0.015792731,-0.105042346,-0.11882516,0.15859428,0.11272198,-0.07236163,-0.13346912,-0.056084044,-0.08175583,0.14215879,0.03564011,-0.013818987,0.021951076,-0.086769626,0.10690206,-0.04656777,0.014134643,-0.030751007,0.16467795,-0.04026682,-0.079707325,0.08195074,0.047931876,-0.066636294,0.040505752,0.122670434,0.07942683,-0.14059258,-0.03397472,0.0061544203,-0.05465779,0.10584344,-0.06613922,0.09928389,-0.09045835,-0.025187287,0.0007047007,-0.073839225,-0.14163262,-0.07953543,0.057696942,0.15226339,0.085757405,0.072524376,-0.008177169,0.06602374,0.0038773841,-0.037287124,-0.048158117,-0.015528933,-0.13768826,0.12753579,0.056227464,0.030680392,-0.083433054,-0.16423337,-0.11508034,0.15388535,-0.028223934,0.07545854,0.04651074,0.119851075,-0.048020642,-0.113705315,0.13432978,-0.14308147,0.111627415,0.014740698,0.1689973,-0.01682191,0.07772971,-0.01904204,0.066100456,-0.059089847,0.03356504,-0.1317994,-0.0018144972,-0.102533765,-0.12775828,-0.12063885,0.035388745,0.007153764,-0.13268435,0.021206135,0.05078125,0.16481206,0.13214886,0.0036391953,-0.009899112,0.13304828,0.106420495,0.020116767,-0.06706619,0.017639361,0.08719172,0.028248165,0.06334615,-0.118611395,-0.061669894,0.044625394,0.018717159,-0.10035613,0.08222745,-0.015272424,0.008346041,-0.13516936,0.025729395,0.043088496,0.00025945366,0.046980567,0.15030244,0.103440255,-0.028591726,0.10342398,-0.07321299,-0.13798924,0.0300499,0.089178085,-0.024986066,0.06800058,-0.0132144485,0.13562512,-0.12954956,-0.013700425,-0.014271385,-0.07569919,0.10399477,0.084526405,-0.1590059,-0.10446699,-0.037962954,-0.12095798,0.08182703,0.18824509,-0.0344873,-0.1527664,-0.12041052,0.11008679,0.1132545,0.020593947,0.047921967,-0.11008211,0.017148992,0.037261233,-0.11254657,-0.13616362,0.11777504,-0.07788873,-0.015201881,0.037045095,0.036539696,-0.002639158,-0.0016526566,-0.12929618,0.119626395,-0.017105123,-0.057370007,0.03762578,-0.10414747,-0.05304262,0.12806335,0.08521647,0.097906366,-0.12790662,-0.11242242,-0.09065558,0.13107792,0.072469905,0.05081646,0.02693401,-0.1567019,-0.05640998,0.010518164,0.042391162,-0.07261199,-0.0091875,0.08950104,0.040078063,-0.00260497,0.14936547,0.028587362,0.096780784,-0.04197539,0.049846806,-0.14985521,0.10015527,0.010075966,-0.03402791,-0.12932521,0.091197,0.14555572,-0.13688263,0.10802474,-0.11611201,0.008816032,0.17946826,-0.14205228,-0.108643584,-0.105518535,-0.052606154,0.076751925,-0.10861018,-0.059205715,0.023247521,-0.0078392085,0.11343365,0.10192471,-0.14846599,-0.077782534,-0.008383418,0.040243633,-0.06317543,-0.13196528,-0.11538735,-0.013624092,0.06206393,-0.0072130812,-0.18214042,-0.019846272,-0.09888925,0.0044041835,0.009701552,0.0026649588,0.047624953,0.1098325,-0.016196785,0.014774725,-0.10836326,0.1064514,-0.16794589,0.030589331,-0.046522535,0.091692045,-0.09938598,0.06709374,0.03361283,-0.05280915,0.060879383,-0.09500038,-0.041274246,-0.1016688,-0.047346104,0.09733563,0.05126878,0.17450452,0.044641037,-0.122393735,0.05295596,0.0029949083,-0.007028214,0.019437276,0.040535048,-0.102363326,0.11669443,0.026197087,0.06626475,-0.09231941,0.08842241,0.021301525,-0.03782068,-0.040832393,-0.020050084,-0.13793314,-0.032807983,-0.04882364,0.08276075,-0.09303622,0.1214586,-0.14867935,-0.11220024,0.12265044,0.10041149,0.11048938,-0.045841422,-0.13124672,-0.10643973,-0.14436671,-0.019905189,0.054465175,0.007510256,0.12370915,-0.026569407,0.10144519,0.16057718,0.18457614,0.14105088,0.04365211,0.11965653,-0.05094795,-0.029063387,0.11329852,-0.178071,0.08780419,0.09169635,0.13458392,0.12597175,0.006673822,0.0028398146,-0.074615166,-0.17245881,-0.028824214,0.060739476,-0.055372283,0.10449692,0.19102739,-0.010732849,-0.044918876,-0.06742439,4.640213e-06,0.08868681,0.16707805,-0.11362868,-0.026918735,0.11765984,0.14962538,0.108525105,0.021001285,-0.1280422,0.041635778,-0.10512012,0.037250884,-0.04212021,-0.07893456,0.018262943,-0.11271195,0.15073502,-0.0052010636,-0.03729003,-0.017522912,0.11144615,0.07649641,0.10901144,0.14736384,-0.12340159,0.055792734,0.023089051,-0.035220128,0.07733337,0.12021489,0.07353563,-0.11458819,0.052617867,-0.10847941,0.08897848,-0.048377596,0.06363871,0.12383544,0.005450736,-0.057515807,0.13928299,0.15340972,-0.028178427,0.023201844,-0.055656895,0.08391523,-0.08387552,-0.0079481825,0.068763286,-0.08403936,0.094390735,-0.01811082,-0.13163932,-0.12522206,0.021528125,-0.014671382,0.15088238,-0.12657227,-0.06974051,0.0013028203,-0.11992568,-0.014375248,-0.12430041,-0.19963191,-0.043102168,-0.09457022,0.15643498,0.0065971594,-0.0033282114,-0.08401614,0.06413856,0.1449816,-0.11133254,-0.046567686,0.09669527,-0.10568124,0.0853339,0.031403452,-0.17966013,0.09975708,0.017781945,0.12258026,-0.05081753,-0.20870349,-0.023134299,0.0405218,0.0011975281,0.021217603,0.10999103,-0.11288783,0.05304885,0.07554312,-0.04535936,0.103267595,-0.076777,-0.024729785,0.09856025,-0.0841468,0.10012265,0.053282678,-0.08135795,0.039237175,-0.063703835,-0.026612267,0.09819779,-0.21004738,0.02590806,0.040937822,0.11974052,-0.25979012,0.03026095,0.14620145,0.045868345,0.06317611,-0.07767402,0.042726114,0.1319526,0.18537316,-0.041516677,0.02459519,-0.09252869,-0.06490538,-0.0076121385,-0.008173148,0.036731724,-0.011268703,0.03097071,-0.22430046,-0.12702489,0.04025315,-0.06337273,-0.081885226,0.0014580698,-0.05597077,0.12724604,0.052362062,0.059601728,-0.058841094,0.090730265,0.108431034,0.15990306,0.2327441,0.10560933,0.15851294,-0.0033838837,0.00836497,0.068548635,-0.012289404,-0.028562024,0.10721436,-0.15363273,0.031665273,0.031233078,-0.03148082,0.03537264,0.080234535,0.12764432,0.06356372,0.069124535,0.22644229,0.09923027,0.11818652,0.12230235,-0.08097033,0.0069919717,0.113495566,-0.069424324,-0.1482543,0.15057665,-0.025321666,0.126776,0.05686118,0.05319895,-0.0646264,0.18754844,0.08000506,0.080917574,0.06699087,0.20073414,0.12846828,0.02494449,0.23237936,0.0880646,0.09607947,-0.09283684,0.057046287,0.061605487,0.14407115,-0.04831508,-0.058756724,0.0207444,0.16389285,-0.123626664,0.015223272,-0.0650467,0.091952965,0.11817295,-0.013642627,-0.1281128,0.13737205,-0.10279877,0.11104013,-0.087981105,-0.08559313,-0.045925144,-0.13993603,-0.050981805,0.10524739,0.05056548,-0.14744583,0.16298689,0.054217804,0.053957835,-0.015501675,0.09776023,0.11448043,-0.14937586,0.15114929,0.15059307,0.0513869,-0.09384756,0.1501526,-0.034853913,-0.18378416,0.13189793,0.079013355,0.044696387,0.036899067,-0.16503167,-0.048906684,0.11920847,0.069371216,0.14414316,-0.02965607,-0.021652853,0.13788389,-0.08583563,0.00279352,-0.007995372,0.12545098,-0.08569552,0.041845307,0.021461777,0.06803307,0.09183346,-0.11074946,0.10085756,-0.035439912,-0.010578275,-0.022519711,0.081628084,-0.14589795,0.027913434,-0.07269578,0.015893333,0.09169036,-0.07414896,-0.09101959,-0.05901371,0.09202449,0.13885921,-0.16634488,0.10538254,-0.09739103,-0.058751065,-0.03755377,-0.070544094,-0.025301654,0.0051694443,0.10334629,-0.16048022,-0.098018184,0.029876597,-0.06537328,0.06762887,-0.07951666,-0.11063507,-0.0505181,0.02651054,0.09585071,0.098576404,-0.12976983,-0.15788004,-0.041141734,-0.018729508,0.14880876,-0.011698498,-0.103346236,-0.08125661,-0.052911483,-0.012964244,0.0173519,-0.055603344,-0.13890937,-0.10912847,0.14861222,0.0692398,0.15978621,-0.033028424,0.0387841,0.084449746,0.12983254,-0.028353194,-0.081933275,-0.11613891,0.061871976,0.0007461506,-0.16025515,0.07642239,-0.20423341,-0.059595495,0.0005959524,0.027571633,-0.10329064,0.09523661,0.17661276,-0.1629478,0.040794253,-0.13268703,-0.037527375,-0.09745423,-0.016398435,-0.034963854,0.1977179,0.14226764,0.022356056,0.14814036,-0.030115917,-0.01548923,-0.11233403,-0.12389156,-0.11843365,0.10434171,0.02700151,0.007521234,-0.08476143,0.16986403,0.111361995,-0.12529778,-0.124135666,0.10944905,0.04340397,-0.036890376,-0.049240556,0.015683971,0.11149405,0.009732236,0.012419582,0.051940177,0.17224379,-0.066487245,-0.20035817,-0.086077005,-0.033108767,-0.14699022,0.12291459,0.07188954,0.048619736,-0.10421871,0.101737656,0.013858947,0.108137734,0.0655251,-0.00571777,0.02194464,-0.016853161,0.05826885,-0.027794888,-0.0679941,-0.0010508919,-0.10189183,-0.13924383,-0.091021776,0.052336033,-0.087338455,0.1141517,0.07713483,0.102836855,0.12055848,0.07362281,-0.015966682,0.02713606,0.16499518,-0.13023853,0.11394156,-0.12685053,-0.006352112,-0.11946796,-0.12506053,-0.01859796,0.002846542,-0.1327184,-0.10823714,0.03316638,-0.004719561,-0.14281267,-0.03262832,-0.054520685,0.14283663,-0.08019288,-0.05645847,0.045144904,0.097344644,0.0040494576,-0.066446654,0.104510576,-0.08719208,0.08381677,-0.09645006,0.11738414,-0.063867554,-0.025598781,-0.082715794,0.16640264,-0.004012047,-0.16767445,0.0073210658,-0.027576912,-0.14161828,-0.13424817,0.022882555,0.06495263,-0.14224878,-0.13760403,0.039526664,-0.08128681,0.008338186,0.04525426,0.010519583,-0.0076009072,0.0025800867,0.101219125,0.10204413,-0.070077464,0.017151698,-0.09223001,0.079475865,0.12801191,-0.09508867,0.13226165,-0.028842933,-0.015351227,-0.15341662,-0.07852766,0.05169126,-0.031481083,0.1111179,0.032948684,-0.07316267,-0.004347545,0.06447715,0.16407382,0.14289875,-0.013869066,-0.06754524,-0.042107053,0.062253512,0.078401834,0.10754662,-0.023047922,0.13067797,-0.14598495,-0.1527967,0.1657191,-0.037268125,0.07312239,-0.013076591,0.16243343,-0.045288455,0.12923206,0.14151005,0.06822811,-0.12566464,0.02047835,-0.113836475,0.06433351,-0.012387467,-0.0033510053,-0.14148022,-0.0815856,0.08232562,0.09918566,0.026962826,-0.023954146,-0.06741916,-0.09205011,-0.024591962,-0.09903191,0.09584476,-0.089632116,-0.010507612,0.14789148,-0.029072393,-0.06792208,0.01679935,-0.03387047,0.06739531,0.00068745774,-0.07723646,0.015100141,0.016135128,-0.06087087,-0.016852126,-0.047635168,0.018256538,-0.06893845,-0.026863806,-0.06259645,0.013468582,0.0070733787,0.04832891,-0.09785533,-0.121570356,0.06640917,-0.13635057,-0.10773627,-0.076379456,0.050085764,-0.12436165,-0.0175934,0.13798465,-0.053157154,-0.16877012,-0.025961282,-0.028808655,-0.098659694,0.053965777,-0.18779887,0.085119024,-0.062010236,0.0812784,0.117088936,0.041753575,-0.0027326252,-0.09052721,0.003198598,-0.060797684,-0.021769643,0.09704052,-0.08090196,-0.04946213,-0.0735547,0.08219317,-0.03429105,0.1295233,-0.08634189,-0.14316142,-0.09131189,0.077087015,-0.13079935,-0.07540744,-0.022593858,-0.09737774,0.16014706,0.09861251,0.06284833,-0.03468623,-0.00323571,0.06508264,0.015017664,0.08727421,-0.009642041,-0.11336707,-0.034785293,0.036271203,0.08597258,-0.16546853,0.06673712,-0.08186858,0.13678645,0.00072468753,-0.03576212,-0.04538199,-0.1041365,0.015180374,0.048809342,-0.0537504,0.16585714,0.0070368587,0.04750345,0.05604744,-0.062601455,0.15496077,0.119828746,0.027620545,-0.14386474,0.068024896,0.02833189,-0.045123834,0.1360744,-0.17523961,0.080634356,0.17016304,0.11133694,0.013656431,-0.21405151,0.027156036,-0.013573704,-0.06482628,-0.04375492,-0.081658036,-0.00850824,0.07170218,-0.072057806,-0.08417138,0.0342073,0.013958218,0.14238298,-0.0018452175,-0.112215094,0.12921874,-0.023009498,0.033858158,0.05510292,0.06724679,0.010478243,0.03803777,-0.15663357,-0.052656434,-0.09823295,-0.048745777,-0.12599558,0.11033661,0.06055209,0.16125987,-0.024056818,0.0999374,-0.13643157,0.10853685,-0.0006466508,0.12755875,-0.08131475,0.0733077,0.0060545113,0.04416272,-0.13279828,-0.14451958,0.09891873,0.06211013,-0.15414566,-0.059754085,-0.025409192,0.028092777,-0.028243676,0.13063262,-0.032827485,-0.031195698,0.059439335,-0.027462395,-0.11753352,-0.115038596,0.024441121,-0.02250292,0.030460544,0.03245324,0.21869716,-0.1160911,0.1114223,0.028640807,-0.0069447025,-0.14220665,0.22479826,0.046853703,0.04345362,0.04580243,0.0064737564,0.06507454,0.054926682,-0.044915836,-0.12697765,-0.11825365,0.06338192,0.022852875,-0.061250307,0.20536456,-0.107289284,0.09755004,-0.10319193,0.016914502,-0.075434946,-0.11633216,-0.09700744,-0.10942474,-0.01014056,-0.06386431,0.011383064,0.13288699,0.013185273,-0.04126734,0.13863139,-0.06611249,0.04299093,0.089791864,0.20713158,0.047672946,-0.13720004,-0.038413487,-0.12633187,-0.02606028,0.14548087,0.16312645,-0.16700618,-0.04226868,0.1476367,-0.14569777,0.042907245,0.15222935,-0.16753678,0.0752211,0.09212772,-0.0114705395,0.11346452,0.008690764,-0.062524796,0.12581712,-0.09974094,0.03603801,-0.17981532,0.104171075,0.068985194,0.16595437,-0.014799273,0.04144859,0.095877476,-0.13446666,-0.13298434,-0.011100438,-0.11159146,-0.07269613,0.048502196,0.04934165,0.058868896,-0.038306415,0.061797105,0.0038707128,-0.13850962,0.097644806,-0.031963043,0.07379503,-0.09253274,-0.16132252,-0.05053123,-0.030309027,-0.047594193,0.057241723,0.036099277,0.08466318,-0.04883249,-0.0597862,-0.027196571,0.032841414,-0.14509466,0.025480242,0.10943287,-0.082576536,-0.123749495,0.12030959,0.07418262,-0.13812707,-0.05282227,0.19250217,-0.041481685,-0.11858759,-0.032571234,-0.10102863,-0.1440251,0.035127062,-0.023430312,0.08512297,-0.04553541,-0.07640096,-0.06931564,-0.06911607,-0.19694225,0.057564307,-0.047308825,0.13043639,-0.068032406,0.09696993,0.08714649,0.048201397,0.08934025,-0.08766142,0.13523431,-0.120088175,0.12053152,-0.1015797,-0.026144503,0.013359809,0.07418263,-0.101982675,-0.06655412,0.14857227,-0.032727998,0.06196604,0.0069313333,-0.12754434,0.089838035,0.00028352486,-0.0007664489,0.12887539,-0.0010092137,-0.038584165,-0.07660607,0.056920625,-0.12446809,0.0052398937,-0.012023389,0.087274306,0.080178216,-0.096792445,-0.10770247,0.024551973,0.21221805,-0.17116871,0.02395572,-0.15948674,-0.021370033,-0.19688219,0.043056875,-0.10006011,0.03819281,-0.012903693,0.038467508,-0.09048014,0.07778588,-0.08223321,0.18327138,-0.11077074,0.14058317,-0.19355753,0.017346052,0.04238579,0.10819405,-0.015974032,-0.060605466,0.11616063,0.08211704,0.16259928,0.13268459,0.05484001,-0.0008568465,-0.11329231,-0.074734904,0.03661592,0.031383228,-0.025789924,0.08183672,-0.05467544,0.038300496,0.074661866,-0.06512036,-0.0759318,0.16971713,0.0896989,0.12373558,-0.054607123,0.119082816,-0.118084125,0.033558495,-0.099294916,0.10161888,-0.030888965,-0.091479264,-0.001601506,0.008771383,0.019470917,0.07249614,0.1285053,-0.10042454,-0.031037565,0.023974575,-0.023005214,-0.002322527,0.08573732,0.018894995,0.048747476,0.11599392,-0.07725752,0.013236614,-0.11863159,0.13841376,0.029702885,-0.1514951,-0.09076074,0.025500564,-0.06796869,0.16279253,-0.07522626,-0.064268574,0.1097611,0.09323647,0.14209719,-0.059235744,0.11210453,0.1066592,-0.11155838,-0.0013748604,-0.106113665,0.08503898,-0.12695889,0.022996042,-0.017294068,0.11766333,-0.082034975,-0.05412352,0.11189753,-0.043180544,0.06691114,0.04414212,0.16377637,-0.12422115,0.09946758,-0.05569425,0.13691254,-0.020210767,0.07753052,-0.08257572,-0.111757174,-0.019149931,-0.08103142,0.16032185,-0.053951833,0.086093925,0.019627968,-0.0033869543,0.02245449,0.08053213,-0.044147994,-0.018475212,0.028201552,0.03543277,0.0627021,-0.047287654,-0.15805884,-0.067129225,0.06418237,0.01738803,0.08724231,0.047758225,0.06661233,0.057274908,0.040058743,0.090403534,0.02704186,-3.240895e-05,0.061288454,-0.0043147537,-0.044949185,-0.092907384,0.10208537,0.040620085,0.09562346,0.010881415,-0.12532322,-0.08723354,-0.05388367,-0.14147277,0.04805298,0.22836904,0.024101123,-0.02167329,0.12011517,0.024379596,-0.051453058,-0.15984692,0.16725358,-0.07586338,0.0016318625,-0.031701576,-0.15358779,0.056005765,-0.03139358,-0.14737853,-0.07307529,0.12610604,-0.05533704,-0.116638444,0.03944468,0.19808312,-0.09764118,0.05095341,0.119152576,-0.13558297,0.0592765,-0.0960099,0.08386831,0.14924282,0.023157066,-0.054936387,-0.009904041,-0.11438098,0.0641363,0.11606822,-0.078428805,0.18171616,0.17214225,0.083225414,0.050881702,-0.0715212,0.06002474,-0.033847485,0.12476075,0.03443603,0.12862493,0.10440778,0.020463264,0.043300267,0.10515634,0.07757949,-0.0910841,-0.13491614,-0.054583043,-0.046202194,-0.11064002,-0.053733744,-0.10190031,-0.048307844,0.14099778,0.05228023,0.020339023,-0.020054948,-0.004483912,0.11628047,-0.10489362,0.03959835,0.110257424,-0.038162753,0.030198311,-0.051366176,0.08869786,0.18287863,0.12102117,0.10968376,0.04742089,-0.04904079,0.06494991,0.047777664,0.114235535,-0.07894023,0.0880032,-0.10602747,0.0067261294,0.0027918948,0.16556396,-0.06961048,-0.08973192,0.028901711,-0.036543507,0.15955164,-0.09599339,0.10393708,0.04880095,0.13734339,0.11014981,-0.14243694,0.14234447,-0.16881192,0.10918629,-0.07185728,-0.06290987,-0.10144435,-0.028230326,0.06986041,-0.025964102,0.13176478,0.077690735,0.08942114,0.06674928,-0.01991841,-0.09273486,0.0893094,0.14746764,-0.09100763,-0.046120416,0.11759764,0.074066244,0.1015198,0.031072104,-0.022347247,-0.14513998,0.045693982,0.16664228,0.15082437,-0.21756805,0.058068007,-0.17133301,-0.107583344,0.095405385,0.071083464,-0.08695998,0.022694664,0.18994336,-0.11547084,-0.06718019,-0.019738326,-0.009691172,-0.063992664,-0.16413239,0.008374953,0.16190101,0.19410989,-0.11551082,0.055492043,0.04421236,-0.08173268,-0.0725494,-0.06449002,0.004698021,-0.08316464,-0.086013794,0.012862898,-0.0018294235,-0.043343827,-0.051995367,0.055158604,0.078157485,-0.04985097,-0.11893972,0.08819783,-0.09576811,0.060293507,0.18600243,0.0961017,-0.023264918,0.06689409,-0.02242946,-0.11426668,0.16367604,-0.17870238,0.20085505,-0.11597126,0.12611017,0.034640722,0.14058153,0.023895476,-0.09772527,0.01612545,0.10537063,-0.14646554,-0.06181501,0.016320078,-0.08947929,-0.116866834,0.17020456,0.05800997,0.08751863,-0.046190407,-0.14377666,-0.10826537,-0.15762131,0.038457036,-0.20550184,0.16112956,-0.07640843,0.05983737,-0.07045114,0.0012095303,0.016046546,0.07915244,-0.07099272,-0.06587243,0.0115048215,0.044815376,0.13216355,0.24215107,-0.043868247,0.2139235,0.040026948,0.044179797,0.10511557,-0.04738466,0.073077634,0.0701341,-0.02510714,-0.048816755,-0.106376804,-0.14713861,0.055436846,0.05799297,0.14261608,-0.11578675,-0.118835635,-0.053862825,0.03630521,0.16100426,0.19389926,-0.03278984,-0.15666853,0.037632696,0.028014006,-0.07401432,-0.1349262,0.037961572,0.06823761,-0.10923598,0.06277002,-0.18870959,0.08305441,0.18935244,-0.05057833,0.0541138,0.1057046,-0.08232447,0.051846918,-0.07672594,-0.10488097,-0.025808914,0.03184616,-0.14649828,-0.12032461,0.13756925,-0.024690485,0.09053938,0.1503733,-0.081849605,0.04206229,0.0990338,0.03132745,-0.14078769,-0.05664613,-0.040478513,-0.033174317,0.07576089,-0.044379476,-0.03663832,0.06212359,0.052418895,-0.13536066,-0.19209677,0.0633317,-0.049447756,0.038117677,-0.014849202,0.16336857,-0.003807444,0.10644671,-0.11748736,-0.078488484,-0.09533552,-0.13789551,0.11347353,0.13843505,-0.045987587,0.088423476,0.08370194,0.047430538,-0.078859575,-0.09421152,0.07929023,-0.043237075,0.009625104,-0.14029112,-0.1091588,-0.061525363,-0.04626161,0.118724205,0.046268716,0.0971459,0.15249799,0.036604702,0.070606604,0.012081365,-0.083287075,-0.033955667,0.069105126,-0.06887949,-0.14996785,-0.098700196,-0.04220398,0.086097516,0.022283994,0.20203276,-0.037431255,-0.09228819,0.0022279476,-0.03690092,0.04436855,0.16527987,-0.15327908,0.020818515,-0.09564063,0.11216819,0.12303985,-0.049482327,-0.17123973,0.06076376,0.022268288,0.011892522,0.005530243,0.037154704,-0.07987238,0.10390063,0.08160081,-0.041127007,0.076709375,-0.037467267,-0.08795944,-0.09871846,-0.030065874,0.07420148,-0.08050602,-0.117864296,-0.12642291,-0.05769197,-0.12068347,-0.18744127,0.07826346,0.0842387,-0.029501602,-6.062563e-05,0.010484498,0.09761255,-0.081852175,0.11060887,0.009101216,0.20196865,0.013260803,-0.11402502,-0.12637836,0.06244321,-0.062485043,-0.21437427,0.06125429,0.047237225,-0.030406361,-0.15989092,-0.07235725,-0.088775106,-0.05319048,-0.013048522,-0.09243645,-0.04833465,-0.10978794,-0.013820179,-0.05017738,-0.13029423,-0.0036674833,0.081990704,0.03581549,-0.12960634,-0.082594916,-0.07868369,-0.029043056,-0.032445665,-0.14158246,-0.13344407,-0.006420179,0.1556602,-0.0852006,0.14440775,0.04594701,-0.084379226,-0.08516771,-0.10678947,0.105030686,0.1494258,0.011392268,-0.02959198,0.043985203,0.16493362,0.096844874,-0.124721885,-0.10947294,-0.01900439,-0.15294874,-0.00556881,-0.03250069,0.019842573,-0.10797138,0.055197015,0.14126843,0.07204452,0.14459476,0.03601535,0.06584313,-0.10565065,-0.04874969,0.15286809,-0.13527517,-0.083904296,-0.14042798,-0.030618256,-0.14291187,-0.09817794,0.03690845,-0.10978162,0.025933167,0.02482331,0.2208927,0.026174478,0.06510665,0.04944823,0.028144905,-0.029325975,-0.19279993,0.0840277,-0.095760435,0.041991994,0.20232376,-0.06464411,0.058011938