0.13155629,-0.075410314,-0.0373947,0.124978766,-0.073391326,-0.1800162,-0.09398143,0.1446483,-0.0030502395,-0.14050767,0.13778405,-0.08535141,0.07880257,0.19654693,0.06839015,-0.054263182,-0.18584087,0.033893373,-0.16070575,0.026912697,-0.087783754,-0.08454766,-0.102770105,-0.09129246,-0.016680392,0.025382524,-0.044146977,0.16802739,-0.095961265,0.14103054,-0.1688303,0.11879748,-0.15048912,-0.0486084,0.006033987,0.086400084,0.16500925,0.14432184,0.16729467,0.15998922,-0.054577526,0.06094084,0.079902954,0.042650174,-0.0057634786,-0.036709163,-0.0773204,0.0417988,0.105917186,0.12504505,0.19359057,-0.063539356,-0.03847654,0.12201687,0.07133807,-0.010437469,0.027483309,0.054692607,-0.045100726,-0.148453,-0.019823795,0.091782935,-0.08114789,0.13662045,-0.024201723,-0.107330225,0.0033709577,0.092988916,0.01535243,-0.18702787,-0.1294879,0.071195714,0.09096748,0.100067526,0.15205,-0.10479757,-0.07306166,-0.00052780745,-0.014731912,-0.0036659972,-0.113171734,0.120442025,-0.1446481,-0.020496078,0.096089914,-0.016819138,-0.100018926,0.013260218,0.10036151,0.08659337,-0.007180888,-0.034914892,-0.006450873,-0.040994257,-0.07399998,-0.022468353,-0.07093796,0.11403643,-0.11789751,0.047232706,-0.050188016,-0.013347505,-0.114859186,0.038877856,0.117789894,-0.0012451663,0.026383733,0.12110274,0.1397883,-0.050208993,0.08391747,-0.082031325,-0.015204763,-0.08379497,-0.06389938,0.019261606,-0.15930438,0.039763886,-0.04193706,-0.16738622,-0.058794126,-0.09772179,0.040508717,-0.053139344,0.08157306,-0.11652211,-0.08073571,-0.04632255,-0.09180363,0.11729887,-0.034385156,-0.11256715,0.0058772424,0.098971836,0.05339501,0.035298802,0.10464619,0.0020169863,0.08134246,-0.18497607,-0.13364398,0.1345708,-0.17310825,0.09472057,0.0354195,-0.10084294,0.030358862,-0.09723775,-0.13361615,-0.14797981,0.033589,-0.10585798,-0.008036114,-0.04563859,0.11053284,-0.058654625,-0.02729436,0.16315192,-0.06365738,0.060141146,-0.15893088,-0.1041632,0.08690117,0.09420884,-0.09406673,0.08315154,-0.006775695,-0.035007164,-0.007916318,-0.1026788,0.007816651,-0.1527964,0.089575924,-0.0061599137,-0.057641916,0.067207895,0.0010198199,0.16527356,0.011738658,0.1296391,0.04066132,0.117065296,0.06481553,-0.11066983,-0.085543506,-0.055729885,0.010661308,-0.12763584,0.15410407,0.06025532,0.039774153,-0.013443818,0.036791444,-0.064684115,-0.029311141,-0.009505591,0.048243664,-0.03164665,0.069418564,-0.017309688,0.09826064,-0.037881795,-0.047272153,0.030638777,0.09156449,-0.08631894,-0.037020743,-0.0065230285,0.056066927,0.09390285,-0.062145174,0.07288025,0.15362623,0.11839818,-0.09077829,-0.103654355,-0.07862882,0.15127322,0.12920204,0.08176297,-0.011561416,-0.05057601,0.091549225,0.0578583,-0.13300762,0.009226596,-0.12049636,0.035380267,-0.041324172,0.18042889,0.062232897,-0.03677452,0.17800947,0.1878457,-0.059541505,0.021195794,-0.08570184,0.088669494,0.03745491,0.0031310949,-0.0035938567,-0.111816995,0.0710639,0.14094333,0.0020340479,-0.049210567,-0.13710235,0.069917426,-0.04889848,-0.057720087,0.08592139,-0.046491437,-0.11540019,-0.08933905,-0.03150821,-0.071498826,0.06851849,0.0035812485,0.08256461,-0.0077625215,-0.10584194,0.12264175,0.08521745,-0.006274126,-0.046521425,0.081546135,0.1298212,0.05403449,-0.124178015,-0.09611992,-0.01212418,0.07751592,0.13379349,-0.056004077,0.04918399,-0.19789805,0.040504534,-0.0067702867,-0.023518216,0.16740963,0.15602803,0.1507461,0.15978177,-0.09216789,0.05566032,0.113515146,0.06322387,0.12209259,0.123414524,0.0012328431,0.053408362,-0.0048800968,-0.18196107,-0.14600542,-0.115103275,-0.03658975,0.051475324,-0.12815292,0.11497828,-0.1520394,0.072951324,0.065527745,0.12562399,0.100918986,-0.014926576,0.07200544,-0.033399895,-0.10004851,-0.026748348,-0.052567475,-0.028206177,0.055108342,0.11009669,0.046472695,0.07179234,0.038690183,-0.0914936,-0.060888883,0.095389664,0.07680256,-0.060759276,0.12876149,0.0028564949,-0.06920425,0.034900002,-0.0801186,0.06695941,-0.05669799,0.0062553296,-0.06689591,0.050352786,-0.052212685,0.16634944,-0.03528135,-0.057751063,-0.018771624,0.049271427,0.15094666,-0.0791916,-0.13621308,-0.12026374,0.05018026,0.03155161,0.16990167,0.057958554,0.14660612,0.06411239,0.004892575,-0.031984687,0.024331426,0.10417425,0.16153726,-0.0166626,0.098241165,-0.06289684,0.07383276,0.111532785,0.11807482,0.092437156,0.07451016,0.08610345,0.16542855,-0.039845046,0.003535339,0.10770094,-0.083355635,0.12728694,0.0923486,-0.11316177,0.037777416,-0.06461561,-0.04156038,0.075370826,0.044695247,-0.12585992,-0.0734375,-0.0057161786,-0.061312135,-0.05962526,-0.17247054,0.11349175,-0.068426564,-0.01396982,-0.06361707,-0.07975166,-0.07587902,0.10715711,-0.111606345,-0.01522512,-0.103063755,0.13346504,-0.02676853,0.04050264,-0.05642326,-0.099295616,-0.060302626,0.0745055,-0.0916506,-0.049921762,0.115544505,0.11132248,0.09488796,0.078463174,0.054335374,0.16104816,-0.09277731,-0.002080033,-0.11404916,-0.05902888,0.040813968,0.13554041,0.044896115,-0.079264425,-0.10195588,-0.07534453,0.090220116,0.1325525,0.10617009,0.033494603,0.08684748,0.11055206,0.08655779,0.04127049,0.06424043,0.061542273,0.007431101,0.06975497,-0.04519742,0.03385581,-0.08339828,-0.11336517,-0.10677455,0.040869527,-0.10250283,0.10718987,-0.041454233,-0.06592339,-0.069103144,0.021528779,0.19995227,0.0772569,0.072023086,0.08980763,0.050455686,-0.14903398,-0.14809282,-0.022150232,-0.0048029097,0.11873557,0.03904655,-0.15667954,0.08128859,0.12106477,-0.08900431,0.030479563,0.07815213,0.038854368,0.013870678,-0.0944056,0.04521652,-0.03816995,-0.077827685,-0.063583486,-0.049352035,0.19355713,-0.11133009,-0.0182712,-0.043280635,-0.067166775,-0.011984907,-0.23231262,0.022316182,-0.036028642,-0.08135152,-0.1145224,-0.08568072,-0.15671559,0.06443377,0.043156702,0.23275657,0.21371152,0.02550107,-0.15777248,0.0436264,-0.046457913,0.1074633,0.1870951,-0.06962261,0.044344515,0.16837622,-0.11127452,0.01722544,0.12237157,0.05788774,-0.020985683,0.072539724,-0.11659847,-0.077832356,0.17295362,0.050961185,-0.05963781,-0.15558599,-0.060030192,0.045878053,0.24329409,-0.01655225,-0.051472295,-0.0615141,-0.1903595,0.21750867,0.02335915,0.21004884,-0.051764682,0.015474614,-0.12531465,-0.0068933032,-0.17651123,0.06939784,-0.0358109,-0.13428034,-0.07380611,0.058479417,-0.028199464,0.150682,0.1073795,0.019137273,0.11033221,-0.18187384,-0.119074635,0.09403675,0.048099417,0.06422616,-0.007552123,-0.12400012,-0.10156907,-0.0029973623,0.18154287,0.11480167,-0.1405878,-0.052576177,0.047670785,-0.068305835,0.08675472,0.15000376,-0.02851444,-0.005193072,-0.12592456,0.012566493,0.11595716,0.13149948,-0.050121468,0.055769607,0.123475194,0.11650255,0.12619822,-0.1329363,-0.044445265,0.024505146,-0.064248756,0.18150793,-0.113354936,0.04134107,-0.07649932,0.11222094,-0.08615614,-0.11614759,0.08770646,-0.10822775,-0.01119387,0.04703547,0.03595074,0.121079385,0.14657995,0.12004705,-0.095926,-0.07742843,0.104095824,0.0064369645,0.15014638,0.115201674,0.012156224,-0.09388751,0.08915186,-0.020029353,-0.011671728,-0.012146565,-0.03188386,0.19840997,-0.04200061,0.096841596,-0.015318158,0.060138162,0.071269944,0.035364464,0.03998029,0.15821446,0.15988699,-0.043561097,-0.15628928,0.051751334,-0.024118034,-0.16002148,-0.1018075,-0.097707525,-0.10959587,0.14171964,-0.14406872,-0.01930281,0.19491103,0.015252915,0.009325019,-0.064346924,0.07913784,-0.1535435,-0.05447649,0.07261973,0.1461609,0.0037230782,0.084195636,0.234121,0.062235225,0.11329841,0.12727813,0.10856434,0.09453137,0.049515817,-0.09415207,0.09060923,0.010509615,0.092077404,-0.15079078,0.18054211,0.048515357,-0.12994762,0.010764358,-0.068063706,-0.03930472,-0.024990398,0.024970341,0.009874658,-0.11331705,-0.045490947,-0.1347182,-0.025970286,0.033732075,-0.098717205,0.17451511,0.036142733,0.20085976,0.025159406,0.06907972,-0.07461924,-0.05714999,-0.06921109,-0.23912995,0.06857931,-0.066960186,-0.14568867,0.13712372,-0.004180093,0.064219564,-0.08049346,0.115274474,0.030433891,0.11855224,-0.08608081,0.06996824,-0.15517123,-0.047113996,0.05146048,-0.16694641,-0.0826986,-0.05217501,0.076401524,0.030172145,-0.022286845,-0.15240438,-0.114329025,0.046222158,0.051690973,0.096976824,-0.15316512,0.014205755,-0.09521137,-0.08350351,-0.0837738,0.104117535,-0.040558074,0.0377843,-0.0029282703,0.009237508,0.0650335,-0.11547065,0.038551245,0.14801796,-0.027726533,0.085340776,0.021249477,0.036478873,0.08754295,-0.021491233,0.048163503,-0.10270459,-0.0059019052,0.10088198,-0.065454245,0.032464597,0.10096796,0.026990687,0.057077605,0.10752468,0.091078036,0.038809955,-0.10100599,0.02159391,-0.011133175,0.083083436,0.036948282,0.016594747,-0.04937398,0.010394415,0.064636014,-0.09508988,-0.11891753,0.03968246,0.1148089,0.07617173,0.031208014,0.09351399,0.02909481,0.10045024,0.13711359,-0.042927813,0.06977534,-0.17177448,0.13074239,0.06878828,0.12864822,-0.16984151,-0.04843147,0.20815645,0.10675332,-0.048792038,-0.037129827,0.16855472,0.04553168,0.025629058,0.106458396,0.13471256,-0.10621145,-0.18987532,-0.02188596,-0.06690572,-0.1172257,-0.0088746715,-0.09167709,-0.15547478,0.0057140742,-0.06616591,0.32065666,0.017958272,-0.071038626,0.11764026,0.061090212,-0.18129079,-0.12424305,0.1501833,0.20719287,-0.09275291,0.08472626,-0.036011066,-0.023344755,0.11329398,0.032682147,0.04844987,0.11966639,0.108032405,-0.119213454,-0.06496234,-0.12166248,-0.12624168,-0.16994011,-0.12444484,0.084519655,0.1467804,0.07875589,-0.06633037,-0.14610484,0.040850446,0.07344767,0.096549325,0.1406953,0.050733283,0.048904255,-0.018019024,0.07186265,-0.10764494,-0.09599086,-0.14042477,0.06911174,-0.11046726,0.037946764,-0.0005623466,-0.023108382,-0.13344882,-0.04311707,0.09216769,-0.061305705,-0.056402057,-0.14260598,0.14776114,-0.0415319,0.09565392,0.15418428,0.09294757,0.15305635,0.026704282,0.123410724,0.1366133,0.010093779,0.0018052786,0.03578244,0.073446035,0.0069907317,0.055052426,0.022192666,0.09424642,-0.019884244,0.16974889,-0.00012903541,-0.17510962,0.006487913,-0.035988647,-0.039045624,-0.09265929,0.08746795,0.0026591055,-0.12344745,-0.14237903,-0.06851171,0.059864968,-0.102787726,-0.040832367,0.08253719,-0.0031934665,0.12303818,-0.05770517,0.084392905,-0.00070091337,0.08947497,-0.06738563,0.11171558,-0.008066851,0.12864237,0.08527079,-0.006671725,0.10420334,-0.08492381,0.0623605,-0.013745564,0.039446194,0.06198039,-0.14365058,-0.108125426,0.20176558,0.14890216,-0.07325458,-0.09382134,0.13630098,-0.0019387973,-0.0016682672,-0.056059897,0.025466643,0.111298144,0.06683809,-0.10766341,0.11359738,-0.098477565,0.0020699706,0.0071561662,0.073151976,-0.07733558,-0.08242767,0.15742761,-0.083449766,0.0047987914,-0.12066015,0.021360442,0.069466665,-0.11060841,-0.04436684,-0.1412268,0.0061884127,-0.079638585,0.2580316,-0.04683643,0.003607999,-0.002970776,0.06656103,0.033265993,-0.1421323,-0.18596631,0.14120688,0.02969755,-0.04390296,-0.028136926,-0.10878883,-0.09384008,-0.071738005,0.0460464,-0.0058589713,0.05494088,0.15070078,-0.052995782,0.0008661429,0.014615091,0.07602066,0.012002923,0.101680756,-0.04763271,-0.12035061,-0.035769273,0.08828003,0.104225814,0.011662905,0.023934381,0.049526718,0.09861776,0.07836973,0.05031147,-0.12717079,0.07104232,-0.09123733,0.15473722,0.08330775,-0.01741996,0.041769456,0.13926306,-0.047687057,-0.08295638,0.07853903,0.08999968,0.018873379,-0.05518945,-0.03866033,0.0651185,-0.049359713,-0.06001373,0.028370462,0.14902304,0.10067652,0.07308458,0.038598273,0.09977564,-0.07196604,0.040379,-0.10615099,-0.10152103,0.09171097,0.029418372,0.0040628216,-0.077443935,-0.087709405,0.07279982,-0.04546535,0.12842771,0.06340967,0.12843548,-0.11073541,0.035737548,0.049205616,-0.14099379,-0.0767177,-0.06542176,-0.1653562,-0.11905913,0.11373885,0.0308568,0.22300833,0.0063579413,-0.0675421,0.0536615,-0.21269244,-0.091160566,0.16996561,0.15089293,0.00062010693,0.042847645,-0.052320667,0.19109274,-0.055376492,0.19891454,0.19023368,0.25886443,-0.21163964,-0.10813588,0.2122679,0.099866815,0.13853109,0.10883312,0.0063450383,0.22055909,-0.010055881,0.17753544,-0.16069931,0.117810436,0.11986772,0.101741865,-0.08696963,-0.122208394,0.12408356,-0.14247192,-0.15312569,-0.15738349,-0.14921883,0.11661287,0.19973813,-0.08801131,-0.14032993,-0.191399,-0.0528387,0.22772363,-0.066962406,0.13293944,0.20449123,-0.08356724,-0.0061401045,-0.055774286,-0.1447878,0.0016801158,0.046471428,0.055083822,0.026183711,0.107565045,-0.09308285,0.039265037,0.021113263,-0.048915137,0.01889835,-0.19994675,0.04790882,0.15304753,0.19015305,0.020571034,0.0072691487,-0.020728016,-0.17233378,0.017891383,0.17946582,-0.024346733,-0.04975442,0.15027182,0.013555406,0.12828189,-0.043464422,0.024754774,0.11559073,0.059820276,-0.070895836,-0.0662355,-0.014036495,0.14836715,-0.13101518,0.08198199,-0.12586677,-0.06862636,0.03172301,0.049433187,0.08616884,-0.00959955,-0.12487828,0.06369437,-0.109190464,0.067559235,-0.1132908,0.04583426,-0.1528408,-0.079977304,0.20169298,-0.010153246,0.09700713,-0.029036913,0.05627685,0.03282216,0.06254091,0.1272574,0.14158486,-0.092929296,0.14742497,-0.026691172,0.15777941,0.12090891,-0.013906903,0.021521969,0.03880094,-0.041001994,-0.08591049,0.13828656,0.08566343,0.043890342,-0.033917908,-0.07396925,-0.09908946,-0.05201322,-0.14157528,0.17287816,0.018881727,0.044977617,-0.1046501,0.067208454,-0.038479522,0.1395166,0.026052136,-0.16495928,-0.13077658,0.07489037,0.07262924,-0.12330023,-0.04602129,0.14259472,0.07244809,0.073226854,-0.081153445,-0.063731514,-0.047213737,0.024106918,0.12855837,0.08177851,0.1679149,0.047893155,-0.016357198,0.042306922,0.12959984,0.103665784,0.028488357,-0.13308047,0.058884833,-0.038309824,-0.07104077,0.14991099,-0.057757,0.04718463,-0.164585,0.045112275,0.15184702,-0.08999318,-0.032879703,-0.073790684,-0.025714055,-0.047430538,0.21169719,0.09135306,-0.017527139,0.16761361,-0.11488904,0.16907986,0.16027208,-0.1646582,0.08733831,0.060801093,0.11355965,0.07871055,-0.12495702,-0.10537985,0.1842682,0.02621417,0.028732901,0.13693237,-0.011143023,-0.09463914,-0.14252532,-0.010311516,0.04868075,-0.13656653,0.083320655,-0.003430469,-0.037322484,0.03751794,-0.15401885,-0.10816414,-0.019498825,0.055187304,-0.08633955,0.042827483,0.08685859,-0.02939278,-0.06901322,0.05218798,-0.1137526,-0.12297016,-0.005419276,-0.057699744,-0.054268867,0.103642896,0.07280246,0.01447041,0.06312529,0.14123031,0.086288214,-0.055356253,0.040278565,-0.09297836,0.043607876,0.085541,0.009382132,0.12970854,-0.06701542,0.17583965,0.08217381,0.040209766,-0.08850407,-0.034697454,-0.07045028,-0.13582267,-0.087516576,-0.0786202,-0.002934599,-0.14654548,-0.080556765,-0.101290084,-0.091873296,0.125593,-0.00918154,0.09892142,-0.124313116,0.15525942,0.092795946,0.019572897,-0.111440964,-0.06239322,-0.010080617,-0.088066086,-0.025337039,-0.10823402,-0.09050107,0.018631821,-0.03372414,0.12383297,0.054915383,-0.107315786,0.06962276,-0.02882589,0.09251082,-0.06698249,-0.13400786,-0.16034752,0.181802,-0.07051046,0.111270584,0.06104705,-0.1330668,-0.014582492,-0.03453686,0.036191355,-0.009579194,-0.08318755,0.06341596,0.020365333,-0.06690582,-0.048444428,-0.12445156,-0.10180849,0.07718636,-0.061457552,0.043986507,0.034837563,-0.15121993,-0.09905213,-0.13795823,0.07874546,-0.17373386,-0.023288595,0.16747414,-0.015827239,0.08275904,0.026885288,0.07101915,0.11374393,0.0208373,0.073498614,-0.038354732,0.15141249,0.090772286,0.06629584,0.032142993,0.06380577,-0.120483495,0.105638444,0.045955982,-0.0964736,-0.108839616,8.069357e-05,0.011970956,0.061731562,-0.0082089435,-0.031046377,0.14478564,-0.018945454,-0.03274085,-0.15945597,-0.000421714,0.12138307,0.16749658,0.113761246,-0.04450061,0.123582795,0.1662621,-0.12411867,0.017301226,-0.061452985,-0.056821834,-0.15437807,0.11396574,-0.022091953,0.17313172,0.024635442,-0.13644283,0.06105487,0.040679827,0.00077017106,0.07257391,0.049541883,0.047127508,0.065549254,-0.14488363,-0.05801891,0.13535695,0.16483134,0.06655618,-0.022333482,-0.01083816,0.036281656,-0.122010194,-0.04919157,0.10243658,0.096946605,0.06952244,-0.0031689336,-0.12092961,0.008667232,0.05388202,-0.037634313,0.12332968,-0.11595184,0.005708421,0.16600475,0.065916106,-0.073620535,0.12018231,0.0342138,0.12970786,-0.0341777,0.09879898,-0.14520206,0.051576592,0.13182169,0.09536741,0.011723418,0.057684734,0.07763298,0.0100239655,0.0381177,0.083120316,0.09730919,-0.10427282,0.068213515,-0.00674386,0.12182379,-0.09595269,0.04076937,-0.027089054,-0.010119286,-0.06459002,-0.06592807,0.0048988285,-0.072575234,-0.035836264,-0.020866398,0.04059086,-0.103777856,0.0518504,0.033968356,0.09901809,0.038231134,0.047302086,0.12310367,-0.09056653,-0.22723673,0.037427314,0.045548078,0.10337421,-0.111791514,-0.09892124,0.0988535,0.022008637,0.06358823,-0.12000306,0.04805988,-0.11976523,0.03161386,-0.07467308,0.019624833,0.037992917,-0.062436797,-0.08528289,0.065099366,0.100832,0.07842336,0.09094325,-0.12688838,0.078188986,0.1345933,-0.023044188,0.09609389,0.024130676,-0.06195281,-0.048974745,0.10965483,-0.16185692,0.02449254,0.05537459,-0.06420881,0.06236311,0.17151263,-0.042946022,-0.14105783,0.06526565,-0.07361529,0.10807418,0.018713383,0.098634794,-0.1728593,-0.0969392,0.0024783488,-0.051957604,0.02867807,-0.03372667,-0.023387078,-0.06006285,0.060866185,0.045274217,0.05140304,-0.12821333,-0.12336981,0.13604596,-0.0041788616,-0.09235918,-0.12504175,0.1216837,0.08263205,-0.12611796,0.119502746,-0.04254059,-0.13836382,-0.009336899,0.103554405,0.11471197,-0.15428165,0.07457017,-0.09510346,0.14776249,0.02694615,0.00048419836,0.020132897,-0.13028294,0.15737699,0.044295307,0.0533175,-0.060499564,-0.0040760925,-0.16760236,-0.016559297,0.14185883,-0.072437175,-0.14301403,-0.06378326,0.09175263,0.09515411,0.20708367,-0.016485194,0.083458245,0.058142062,-0.045681003,0.0077230628,-0.10921086,-0.058382917,-0.05103801,-0.031045146,0.048947982,-0.06884382,0.13600133,-0.073712535,0.00876076,-0.17180775,-0.18175834,-0.0015792652,0.007579534,0.10199982,-0.04833085,0.07415031,-0.11244195,-0.03161526,0.07046901,0.0867169,0.17581743,-0.017330015,0.08328709,0.006704574,-0.06192096,-0.026579227,0.24765408,-0.013544003,0.0050383876,0.024541613,-0.049104996,-0.043272525,-0.056177296,-0.19062437,0.042451274,-0.122163795,-0.015958034,-0.07660813,-0.11649944,-0.15028536,-0.029520595,-0.032342836,-0.06752888,-0.101888105,0.12777036,0.032065388,0.016445512,0.0051500537,0.03136885,0.17981735,-0.0021864793,-0.061180834,0.12365591,0.0370958,0.050533146,-0.00679593,0.07416712,0.12447128,0.13202155,0.004547351,-0.02734035,0.17088094,0.022198973,0.10109009,-0.047080472,0.03750399,-0.05496213,-0.11171976,-0.08482454,0.117913015,-0.09545715,-0.0022262214,0.06679514,0.1113005,-0.111079454,-0.11698035,0.09901105,0.0016570325,0.027213184,0.085642874,0.09962458,0.009289998,0.012024537,0.12161516,0.041054223,0.028895805,-0.111292586,-0.06989275,-0.08099369,0.043437142,-0.056923743,0.15252066,-0.029075442,0.08867536,-0.03397475,0.035587378,-0.003519242,0.09286401,0.00018960619,0.09332746,-0.09297825,-0.033664454,-0.1496,-0.11957339,-0.16625744,-0.10569276,0.039604448,-0.024057338,-0.063451245,-0.09310814,0.08186884,-0.009162109,0.015670147,-0.04855599,0.037060834,-0.10378013,0.017144714,-0.0816084,-0.062081933,0.12834756,0.09912577,0.13688639,0.025933046,-0.04583242,0.055923607,-0.08513936,0.094340004,-0.14624141,-0.0111755,0.022332301,0.13526738,-0.0055621834,0.083427876,0.0039813146,0.0017383251,-0.03319726,0.028439537,-0.02108299,-0.0077817356,0.19115482,-0.037307538,-0.009042803,0.08193201,0.0023715163,0.10054092,0.13733023,-0.06126386,0.111968234,0.15122606,-0.08589749,-0.03174777,-0.09293587,0.0012098557,-0.07716289,-0.0899336,0.0012710737,0.13408032,-0.022538174,0.09918169,-0.100788936,0.12437146,-0.06418863,0.08117848,-0.09596143,-0.15351465,0.06910796,-0.026268024,-0.13522372,-0.12263883,0.0996517,-0.20585513,0.097197264,0.046686515,0.088091,-0.15332069,0.047630504,-0.013952238,0.12887831,0.13769434,-0.08802454,0.047150426,0.0730298,-0.08680402,0.08729918,-0.04843588,-0.083857775,-0.02107195,0.1258358,-0.048891447,-0.048939023,-0.020887751,0.081256755,0.11005728,0.17890999,0.008755369,0.16442622,-0.0029462357,-0.15628055,-0.08631164,-0.043886345,-0.07854454,-0.031004615,0.058817178,-0.10555762,0.050248675,-0.07085331,-0.048908707,0.120502755,-0.031532895,0.085580714,0.0686198,0.08036147,-0.013349898,0.12618364,0.16638847,0.14192101,0.047269266,-0.09666361,0.048039608,0.062911846,0.048515208,-0.14844254,0.03719018,0.09492724,-0.096195005,0.07010006,0.06701824,0.10499039,-0.030102087,-0.00885322,0.011777075,-0.13847876,-0.040428754,-0.024570331,-0.027367761,0.09142113,-0.112639464,-0.09604644,-0.042655475,-0.04105878,0.07320254,0.0010897167,-0.037382875,0.060749345,-0.086973086,0.050723914,0.055384725,0.04904629,0.01241663,0.09401016,0.004872003,-0.1623945,-0.04774585,0.04780606,0.016093148,-0.10395761,-0.0840897,-0.16435203,-0.019533675,-0.04352985,0.120562926,0.074984774,0.065347016,0.0626424,0.13789389,0.15796897,-0.03715411,-0.14462222,-0.046393506,0.16585815,-0.028204205,-0.061591215,0.029408788,0.065267205,-0.2152787,0.100603625,0.05104939,0.14626685,-0.022206593,0.025494734,0.110906646,0.05325008,0.1422659,-0.0068459725,-0.052901607,0.16102494,0.021027645,0.10329144,-0.13924238,-0.11254335,-0.09665702,-0.01150476,-0.11585997,0.111119226,0.13453792,0.079299994,-0.0706551,-0.10620903,-0.054732084,0.2723918,0.07368633,0.0523322,-0.03274944,0.018340575,-0.050724752,0.03678285,-0.037903734,0.00027996843,0.15533835,0.14898072,0.077298306,0.045099054,0.13104193,-0.13674884,0.08956622,0.09482631,-0.093389936,0.017083187,0.053380407,-0.0116987685,0.044075232,-0.11418581,0.027104273,0.09166702,-0.060206722,-0.04216426,-0.003908768,-0.09954909,-0.051602248,0.09170923,0.19943418,-0.14267805,-0.019962613,-0.100651726,0.0028400698,-0.06749512,0.050382078,0.072949395,-0.021564722,-0.18635195,0.08914824,-0.11262073,0.0025805046,-0.07622499,-0.087923236,-0.12864622,0.08405181,-0.102735855,0.11317096,-0.02081818,0.11009885,-0.12841211,-0.041875508,0.030383082,0.10797548,-0.041592434,-0.06361029,-0.05990089,-0.049704924,0.013254658,0.109655656,-0.023800166,0.005149514,0.18892555,-0.026873235,0.013263408,0.06692516,0.11080287,-0.07592313,-0.042904273,-0.11789885,-0.039276946,0.13138774,0.07134422,0.03419972,-0.06786773,-0.07318082,0.034802552,-0.112280354,0.10640417,-0.036741532,0.13202137,0.12515073,0.15565486,-0.11701605,-0.1317129,-0.061278693,0.12725054,0.11435101,-0.09797335,-0.009354444,0.10117384,0.019805672,0.0792842,0.035330057,-0.16593783,0.08539625,0.17782734,0.00945212,0.10322788,0.14221948,-0.01032545,0.12562731,-0.14435138,-0.100658566,-0.06201686,-0.08923716,0.0025799673,0.06271736,-0.015238245,-0.110461384,0.016207816,0.068173625,0.09179224,0.14502312,-0.06891328,0.2271351,-0.014972115,0.17185616,0.116888255,0.12390153,-0.069985904,-0.13813637,0.12385056,-0.17193617,0.10873287,-0.1423405,0.07719018,-0.11199109,-0.009341017,-0.15218507,-0.13862994,-0.117138796,-0.092002764,-0.09172512,0.07179826,0.08683623,0.10655046,0.016962854,0.064720616,-0.14171891,-0.08823855,-0.13343525,0.014303656,0.09850583,0.10998539,0.099655926,0.047216777,-0.056506768,-0.097256094,-0.11963637,0.13217542,0.103135295,-0.12582703,0.05985255,0.10794783,0.057117082,0.09968986,0.011801615,0.1029985,0.064231984,-0.12099748,0.14960368,0.037297145,0.12386511,-0.08893118,0.10327617,-0.06751322,0.017533919,0.07612992,0.11277374,-0.023805989,0.012185413,-0.028210623,0.101331964,-0.10864888,0.11076299,0.18174429,0.04496935,0.18671632,-0.060190767,-0.14720133,0.008868749,0.011313155,-0.02216228,-0.02156854,0.0969399,0.13303845,-0.06479598,0.12350207,0.07052409,-0.1541061,-0.054157652,0.022561044,0.057737563,-0.02191105,0.02204043,-0.21716644,0.062050555,0.0047703343,0.05895937,0.017556543,0.027311875,-0.010548876,0.05785271,-0.1025019,0.17148924,0.12586412,0.0085227145,0.019588431,-0.15737405,0.07704333,-0.16739781,0.03253348,-0.07623727,0.045060292,0.118101984,0.061839197,0.0863551,-0.014372481,0.11995414,-0.16779459,-0.005436518,3.3940974e-05,0.003389536,-0.007728542,0.056750406,-0.04871378,-0.07849822,0.13099127,-0.24335773,0.20727944,0.18053669,0.11431619,-0.031549737,-0.036339857,-0.09290212,-0.11808138,0.19724345,0.07984054,-0.032520503,-0.06877881,-0.10978098,0.12557831,0.17837916,0.045782566,0.0125901755,-0.10615119,0.1402327,-0.09256478,0.05205211,-0.056962144,-0.06223975,-0.16782083,-0.08555282,0.17069936,0.16759211,0.030762315,-0.028769674,-0.029390419,-0.15533902,0.06509117,0.11636006,0.061442614,0.01252625,0.031402808,-0.09968315,0.006934388,0.09720796,-0.07237405,0.1651633,-0.055033624,0.074268736,0.069256194,0.0672935,0.07195632,-0.05395737,0.066371664,-0.0079713315,-0.20607057,-0.09868045,0.18669164,-0.14527515,-0.03916703,0.058311004,0.022521552,0.028363511,-0.09866602,0.16166478,0.07301274,-0.021928538,0.0962415,0.09624718,0.10524121,-0.16552214,0.124000974,-0.054335047,-0.1258467,-0.04310102,-0.10022284,-0.103009164,-0.058940236,0.097143166,0.006383068,-0.058996644,-0.10997694,-0.0323186,0.08488374,0.11454285,0.13533011,-0.06346678,0.080313794,-0.0944723,0.047966108,-0.058676615,-0.11192032,-0.09780166,-0.0055434154,0.15230124,0.1195809,-0.13113783,-0.1041324,-0.011241378,-0.037876006,0.0364156,0.122864805,-0.03782938,-0.104269505,-0.11129049,0.13716269,0.040031824,-0.07903828,-0.03470943,0.06657909,-0.015715094,0.002748559,-0.1512161,-0.11904302,0.040833168,-0.050915375,0.03805806,0.026362507,0.13090897,-0.031748306,-0.06730033,0.10434065,-0.06968137,0.13832419,0.10389679,-0.10133395,0.07491764,-0.06575297,0.11151516,-0.05148651,-0.045461185,0.13177013,-0.012291026,-0.06347946,0.085102215,-0.12933512,0.12312383,-0.084410734,-0.0806888,-0.16158128,-0.078003295,0.03164994,-0.007984727,-0.07732383,0.21131873,-0.11936245,0.03880254,-0.16819088,0.0002133238,0.0778206,-0.03450146,0.014808201,0.07919978,0.06686324,0.04318892,-0.047148045,-0.04243191,-0.04859582,-0.21250479,-0.13815664,0.12044956,-0.041501824,-0.104300424,-0.110464685,0.14157979,0.05588687,-0.057322536,0.014867453,-0.12610704,-0.16570474,0.05140551,0.00833593,-0.084837385,-0.04939745,-0.04383062,0.060887557,0.025444346,0.032104634,-0.039940055,-0.0018392581,0.1751085,-0.035258688,-0.03713046,0.1358311,0.07945505,-0.07326398,-0.10690144,-0.106543444,-0.0146571845,-0.06515054,0.009141154,0.08074483,-0.07795087,-0.06983183,-0.015447224,-0.12052261,-0.028958548,0.046147123,-0.10907964,-0.13976407,0.07938546,0.0038459806,0.12475082,-0.04976261,-0.024639927,0.13758688,-0.037934512,0.075828575,-0.09742584,-0.1491238,-0.045287307,-0.013292721,0.103511505,0.07483096,0.145606,0.11933049,-0.09459504,-0.024677996,0.015423207,0.016117278,-0.008226826,0.117101,0.14351717,0.046688013,-0.06400823,0.0015793539,0.0017318117,-0.13573952,0.09150289,0.1274538,0.08398197,-0.05227226,-0.07766071,0.008872588,0.11138384,0.050295807,0.13832664,-0.04127245,0.07024065,-0.05557614,-0.061230823,-0.11975893,-0.09585904,0.06718228,-0.028348457,-0.058097992,-0.12306161,-0.1312941,-0.08413794,0.03659569,-0.061215065,0.08229486,0.11153621,-0.08283207,0.00039702072,0.11023774,0.103669114,0.09741033,0.005083655,0.16645525,-0.014544148,-0.12929024,0.011578407,0.15674624,-0.11248601,0.02316607,0.054099515,-0.21800265,0.03924871,0.090951934,0.045143083,0.10687654,-0.09349202,-0.0025835943,-0.13054495,-0.019342119,0.06424614,-0.19394149,-0.08782642,0.012370425,0.065243475,0.003585292,-0.06537472,-0.1120817,-0.0065477383,-0.12698615,0.08367803,0.23203632,-0.019885642,0.23494817,0.071733885,-0.08966072,-0.09373401,0.03318935,0.1255412,0.13236377,-0.14566633,0.10322982,0.11390366,0.06690677,0.027236566,-0.05332763,-0.03892863,0.1376293,-0.10642018,0.08473658,-0.054030698,-0.03010028,-0.09978345,-0.09486869,0.12676802,-0.13125743,-0.120367825,0.092791446,0.009786387,0.041886024,-0.057142127,-0.06053254,0.1767919,0.122026786,-0.017917704,0.06303818,0.01592682,-0.042647704,0.13407402,-0.16540422,-0.03798482,-0.20735261,0.07684253,-0.010429759,0.113997824,0.033695117,0.05796015,-0.014207364,-0.12263282,-0.12789473,-0.17042199,-0.13676697,0.009240063,0.1390759,0.035739213,0.040090095,0.053915817,0.009245528,-0.07585559,-0.07671218,0.05054769,-0.13162784,0.121307515,0.12533064,0.018261638,-0.04932033,-0.08075982,-0.12885228,-0.04383398,0.010662512,0.01638303,0.06335894,0.080454625,-0.035327166,0.036517352,-0.03640804,-0.06401785,-0.114375286,0.14447509,-0.006372255,0.053862523,-0.043089278,0.03772206,0.14389043,-0.018913388,-0.03218534,0.114249,0.09171401,-0.039703853,-0.02252691,-0.11008154,0.098146416,0.13267279,0.10482828,0.1039942,0.024380872,0.004063471,0.020345904,-0.074819505,0.18250915,-0.03389513,0.034564614,0.07116956,-0.04785984,0.17038484,0.102571614,0.10177288,0.03881498,-0.09273394,-0.10672062,-0.005448355,-0.067650214,-0.09683467,0.011575033,0.11365464,0.089501485,0.12532508,0.09611608,0.17326628,0.04225558,0.17842878,-0.066279784,0.03861678,-0.108353324,0.021804752,0.07574907,-0.003866052,-0.046426754,-0.027033346,-0.0675085,-0.011822191,0.085482255,-0.1567393,-0.026983274,0.1161949,0.019747686,0.032023635,-0.07488022,0.09724317,0.07596569,-0.08744275,0.1281027,-0.009905095,0.041078992,-0.11586805,-0.027242001,0.1306087,-0.10312467,0.028875882,0.14113541,-0.07441505,-0.1327659,0.071930446,0.038607582,0.025367133,0.06816537,0.14549904,0.13451068,0.17605999,-0.021006156,-0.09689753,0.0030069489,-0.1733169,-0.15742911,-0.08869781,0.044250898,-0.056057297,0.0069068335,0.0065632574,-0.10115994,-0.032781746,0.033698905,-0.08798735,0.14249389,0.175601,0.020692142,-0.04343532,0.06168761,-0.0054684747,0.13026825,0.10266531,0.14404227,-0.14476894,-0.10055161,-0.110277764,-0.109495595,-0.044949777,0.014623734,0.14735803,-0.045786303,0.087728694,0.043153033,-0.09403489,0.011678703,-0.08322902,-0.11598403,0.13880771,-0.014063213,0.07000441,-0.12012328,0.17765053,0.027373075,0.15559539,0.023290768,-0.17430483,0.0082347905,0.07777904,-0.025250006,0.1876809,0.031311974,0.015313807,0.09709922,-0.034188945,-0.041709866,0.0621315,-0.18433651,-0.024623193,-0.18271671,-0.054599363,-0.10036518,-0.03145913,0.015569605,0.016072417,-0.08940189,0.021315513,-0.026152821,-0.096446894,0.09305305,-0.03209902,0.03258121,0.022941755,-0.023099877,0.07468785,0.22316824,-0.051851794,0.08351471,-0.015771765,-0.05068332,0.035109054,-0.007563645,0.21521996,0.08450705,-0.14384125,0.08275716,-0.1300087,0.1314865,-0.04242215,0.15476188,-0.086493835,-0.046013273,0.1239825,-0.12653807,0.15217713,-0.040670294,-0.06409379,-0.10263468,-0.12727425,0.10655734,0.22670476,0.07608036,-0.15942588,-0.12437335,-0.14058036,0.030461958,-0.019668004,-0.043849684,0.0992669,0.061936516,-0.09465259,-0.09826696,0.013667154,-0.13752939,-0.025029812,0.033626728,0.047455814,-0.12247673,-0.11674532,0.06691539,0.13136299,-0.038277138,0.045175813,-0.10393144,0.055191744,0.0048153005,0.07474396,0.0651597,0.12606625,-0.011179767,-0.11235706,-0.054079402,0.104247704,0.077169985,-0.15192863,0.1517975,0.05450599,-0.022544038,0.07427575,-0.017249558,0.015610484,-0.063212045,-0.07953411,-0.1484045,0.0725929,0.1483451,-0.082810305,0.23513745,-0.037873045,-0.11678141,0.043376867,-0.117542215,-0.0023392674,0.024411015,-0.0688534,0.09884046,-0.123148374,0.07298288,0.070860825,-0.01337708,-0.12471706,-0.032643124,-0.036956187,-0.037868682,-0.0655877,-0.044309616,0.08840325,0.014478424,0.13868873,0.12326839,-0.067037135,0.005970325,0.1069489,0.101491526,0.06397455,0.046074074,-0.018721074,0.0966631,0.07741304,-0.057069167,0.10069215,0.07800164,0.05683111,0.08399116,0.09318402,0.14107525,0.054034237,-0.11244502,0.02458615,0.025836611,-0.08433967,-0.09278952,0.0014977475,-0.0432003,-0.12814131,-0.106450155,0.024878575,-0.060907774,-0.00049002137,0.10867945,-0.011384621,-0.10448313,0.06469109,0.036485914,0.1054406,0.020489052,0.084748596,-0.00442359,-0.08526447,0.17086579,-0.20264225,-0.051369946,0.17427549,0.17017762,-0.1292827,0.049577434,0.057010256,0.0041496297,-0.021199629,-0.104922734,-0.10108857,0.121795274,-0.10155113,-0.050643794,-0.1923291,-0.014974839,0.04868979,0.028273847,0.11541394,0.120094374,-0.05376879,-0.06609332,-0.026010608,0.08761285,0.09692438,-0.0032385665,0.0066967425,-0.15139066,0.05149689,0.0197497,-0.11558897,-0.19245431,0.011072578,0.28343943,0.13932818,-0.089212544,-0.07521305,-0.015505645,-0.033227917,0.14836527,-0.21322481,0.09344741,-0.15068908,0.012172543,0.023913248,-0.08379041,0.09227298,-0.12778972,-0.14112714,0.06283002,0.07083467,0.058947045,-0.016686372,-0.03615284,-0.074876934,0.18612278,-0.056842037,0.040845476,-0.105794914,0.11155539,-0.050032344,0.046925556,-0.17907406,0.038200527,-0.111767106,0.03064384,-0.12698059,0.0051644337,0.1536317,-0.029040102,-0.008628907,0.15290664,0.055531584,-0.030404843,-0.029790081,0.10596554,-0.026686594,0.07022743,-0.03663844,0.004662485,-0.05693282,-0.109966904,0.022429828,0.034969244,-0.089840904,-0.009556897,0.09352612,-0.012490615,-0.04648569,-0.13863836,-0.12541425,0.043637455,-0.0057887575,-0.056315936,0.013328002,0.068945296,0.060852136,-0.13759874,-0.07475156,-0.1027956,-0.087362625,0.061031107,-0.118494816,-0.106047705,0.11192036,-0.14230205,0.05213075,-0.17178777,0.16735893,0.14125189,0.033897623,0.004013512,0.050841775,-0.004984942,0.15465689,0.17847659,0.10431168,0.16423313,-0.016878102,0.10785016,-0.06759544,-0.03468527,-0.13437064,0.17698197,-0.14616205,-0.067276336,0.026996916,0.0068111997,0.042677116,-0.030954128,-0.054536685,0.07112262,0.01279669,-0.0051211556,-0.06506996,-0.06366662,-0.17313479,-0.21924391,-0.072641134,0.13520013,0.033531144,-0.12212658,-0.11852577,0.060238924,0.060659595,0.29725927,0.04241254,0.23643623,-0.0067490563,-0.14291777,0.09538547,-0.064830944,0.031602122,0.11937635,0.012962252,-0.09836883,-0.016535835,0.01938273,-0.113361575,-0.14176369,-0.07196417,-0.0024470647,0.08799094,0.13547154,0.03221716,0.041370943,0.0012895592,0.15515426,-0.15480047,-0.11345463,0.05688363,-0.0070648864,0.019908814,-0.08404076,-0.04840527,-0.09287208,0.00142637,0.07162841,0.024685314,0.089416355,0.13264634,0.011364672,-0.027530357,-0.11875684,0.028531201,-0.16440928,0.010248757,-0.026748491,0.119693615,0.1643818,0.011047813,-0.030297434,-0.03928105,-0.17883743,-0.15042315,-0.15942068,-0.045696717,0.081389286,-0.023471361,0.0037397759,-0.038363047,-0.03692082,0.07590747,-0.08608648,-0.015531881,-0.060409967,0.014219825,0.002872586,-0.035309922,-0.05664352,0.0827501,-0.13119836,-0.0036356924,0.06583771,0.0877432,-0.103158556,-0.0735731,0.01738147,0.016211089,-0.025986794,0.0010981871,-0.13870116,0.119741194,0.0107633695,-0.11658386,-0.12103425,-0.015550947,0.13890982,-0.09433961,-0.12110804,0.01808865,-0.0076097017,0.13205595,0.008649787,0.13496113,-0.037348256,-0.003729866,0.011227645,-0.08168105,0.0625446,0.03507057,-0.08243763,0.06677457,0.18813688,0.093248546,0.026008667,0.13117371,0.08329506,-0.08514528,0.090906635,-0.056983937,0.032709174,-0.15668418,-0.17659603,0.011884808,-0.10908748,-0.06731999,0.14587949,-0.0058497414,0.08668715,0.04440045,0.020823352,0.03931848,0.10354553,0.02641078,-0.033130128,-0.14733961,-0.059158318,-0.09797059,-0.03777196,0.038737126,0.05381758,-0.0055753035,0.12782049,-0.03581944,-0.09626455,-0.064543314,-0.20410813,0.124133036,0.12532087,-0.11483702,0.07929982,0.03864848,-0.03540711,0.15009136,0.046160344,-0.052220885,0.08258364,-0.07999339,-0.11139515,0.11323924,0.09147369,0.05972402,-0.12585922,-0.20060311,0.018818028,-0.12732445,0.1497859,-0.11773624,0.06347423,-0.09146566,0.15286557,0.049506184,0.12948565,-0.0069356617,-0.07245977,-0.15024115,-0.18057826,0.11769467,-0.044780213,-0.044276357,0.084030114,-0.107331544,-0.11560646,0.060267374,0.042744942,-0.054638825,0.12001132,0.10355664,0.042838335,-0.029694118,-0.02337423,0.068284534,-0.03838485,-0.06056032,-0.060211286,0.075589284,-0.0026035942,0.116803564,-0.03546841,0.06529174,-0.14854948,0.108193815,-0.052354414,0.13903697,-0.026034635,-0.027787758,-0.04002459,0.027011842,-0.0626431,-0.031376,-0.10602444,0.017636938,-0.07407419,-0.058780793,-0.006422636,-0.00670271,0.037836764,0.060743228,0.12017611,0.047175683,-0.0732705,0.09532009,-0.20507248,0.009998738,0.022760263,-0.110975474,0.2022181,-0.09638621,0.0069544245,-0.085060485,0.04545871,-0.009460714,-0.13485017,0.068992995,-0.07170475,0.15512964,-0.12995571,-0.013847516,0.0014376412,0.01665988,-0.10735593,-0.15057322,-0.016983105,-0.018843578,-0.12622045,-0.012659975,0.15313469,-0.18034454,0.15506282,-0.18606168,-0.01972955,0.043438453,-0.09940327,-0.0859972,0.14559607,-0.123178266,0.12983993,-0.05943422,0.21234252,0.013120747,0.19324581,-0.15609032,-0.037182055,-0.09522398,-0.15579778,-0.09863651,0.0015240724,-0.044191476,-0.07329285,0.014823539,0.06374171,0.08758083,-0.15207143,-0.19805232,0.0417721,0.026410574,0.10880773,-0.034705095,0.104442336,-0.118219376,-0.11184826,-0.022874864,0.030170593,-0.014682249,0.09842377,0.101440504,-0.22780786,-0.105950646,0.049061973,-0.10079014,-0.020677334,0.0070784297,-0.11251018,-0.09336457,-0.19193682,-0.0857547,-0.030511266,-0.11460153,0.047356963,0.04727763,-0.053140644,-0.08522981,-0.055874668,0.09545333,0.04464842,-0.14261974,0.13425235,-0.05904511,0.014526867,-0.11013605,-0.026533991,-0.05997605,-0.1300135,0.062242962,-0.18131097,-0.0073475786,0.12899375,0.11875372,0.06974613,-0.015322577,-0.075891145,0.10147911,0.06345496,-0.05217008,0.04377927,0.07222743,0.19801421,0.08418923,0.05422985,-0.047399703,-0.09004738,-0.047006696,0.020676963,0.16963446,-0.15278485,-0.12432391,-0.11962943,0.047205243,-0.02049713,-0.073122494,0.13793102,0.009270442,-0.13444154,0.1539557,-0.03803573,0.07674506,0.03548888,0.14761984,0.063494764,-0.0537906,-0.22275594,-0.09672373,-0.1334885,-0.029763067,-0.061748497,0.0117553,0.00683908,-0.051036235,-0.01880263,0.07374729,0.068186045,-0.05777687,-0.09574514,-0.011776348,0.036739293,0.09731571,-0.0922607,0.1312736,0.08030966,-0.08671089,-0.07589511,0.062241584,-0.13290645,0.05459504,-0.14364456,-0.05330226,0.06484835,-0.20355281,-0.01859314,-0.053158022,0.10494834,0.015192087,-0.071845725,0.12296012,-0.040524233,0.0042810636,-0.0595861,0.054920554,-0.045389697,0.15901816,0.003059713,-0.033281595,0.066610955,-0.118358165,-0.09710049,-0.19219321,0.11291394,-0.107617795,0.17153567,0.023438586,-0.064503044,-0.118271194,-0.018936865,0.14724313,-0.15570873,-0.030579384,0.11133651,0.07607917,-0.1190445,-0.04526788,-0.060069248,-0.11902889,-0.10031461,-0.11536832,0.16183111,0.17586136,0.09897536,0.0655067,-0.015911091,0.14075913,0.006415572,-0.18696518,-0.07935507,-0.08437486,0.05309543,-0.09685577,-0.13319424,0.15807942,-0.08318693,-0.031208301,-0.15321895,-0.034689642,-0.034796596,0.033582274,-0.15062839,-0.15741257,-0.041898,0.04976969,0.06514183,-0.14844826,0.07913331,-0.046636898,0.07297959,-0.06948098,-0.06951139,0.025797283,-0.04873191,-0.16084664,-0.11236472,0.11947363,-0.087560914,0.013779779,-0.08758673,0.07471353,0.12512435,-0.1304611,0.07134347,0.052098174,0.0590273,0.0047031413,0.14520358,-0.0027651598,-0.09176371,0.026494415,-0.033537447,0.026293306,-0.021203017,0.15312374,0.033900432,0.14085425,-0.0443837,-0.10685063,-0.07314467,-0.09803687,-0.12440382,0.057402175,-0.13783166,0.11564628,-0.19051395,-0.17877325,0.15119952,-0.06456534,-0.120072514,0.051625215,0.018709458,0.03876839,-0.05363168,0.15297943,-0.15474002,0.11875028,0.1059956,0.13092193,0.08127809,-0.0060181017,0.17912236,-0.05190233,0.1094606,0.14961353,0.020945292,-0.04569804,-0.1065905,-0.05491666,0.13414872,0.09861217,-0.056215886,0.05725827,-0.06106917,-0.08285037,0.18094665,-0.0051504755,0.08031391,-0.14782716,0.011428496,0.05794441,0.0027446663,-0.08096687,0.1283065,0.058856755,-0.11074022,0.075341165,-0.06588672,-0.08349674,0.079272486,-0.0076563302,0.12761383,-0.016803028,0.13182625,0.11002975,-0.00075925747,0.06455092,-0.100137316,0.046047058,-0.06865769,-0.004842522,0.10352668,-0.11526051,0.087655365,0.025109079,0.04559344,-0.0926771,-0.09350641,0.0031385128,0.01955831,-0.14669158,0.0428254,-0.008341485,-0.088252924,-0.12953621,-0.05970967,-0.033759378,0.15426315,0.17119679,0.097284555,0.038046703,-0.15760839,0.028455082,0.038874514,0.09387211,-0.090726934,0.025105683,0.1720089,0.19301195,0.14463922,-0.09477734,-0.036029764,0.07834657,0.039873987,-0.070213616,0.11127737,0.07968759,0.04798857,0.08980544,0.17254542,-0.15500875,-0.1107176,0.05234993,-0.052829675,0.062450442,0.04123316,0.05327236,0.1546649,0.108975634,0.0075561954,-0.07076368,-0.09292767,-0.09625467,0.12412329,0.117095515,0.121800326,0.030478317,-0.087098725,-0.05282281,-0.17620285,-0.11734089,0.051410794,0.032104798,0.0170821,0.079119794,0.077372395,-0.11863535,-0.13529763,-0.0038175758,-0.13054529,0.056892853,-0.12347721,0.07232597,0.045178518,-0.15699649,-0.039997574,-0.027299104,-0.12555648,-0.11288555,0.10135634,-0.10041263,-0.035659533,0.13147566,0.116733976,-0.0114420075,0.03614945,0.1098338,-0.079428434,0.19197069,-0.046034563,-0.08068061,-0.026303697,-0.03615952,0.11820888,-0.0032183004,0.12627771,0.09284145,-0.11370923,0.10184216,-0.13063468,0.0083725015,-0.025663668,0.021179508,-0.07229696,-0.10626396,0.17639877,-0.06383066,-0.073495165,0.054173104,0.057677962,0.021481777,-0.045929465,0.01659395,0.07668181,-0.0048259557,0.09394362,-0.060391415,-0.04748096,-0.10602662,-0.051279914,-0.1666109,-0.11073218,-0.025888054,-0.18377107,-0.23383208,0.049920723,0.043706108,0.05315854,0.051351998,-0.022124408,-0.13986652,-0.04239986,0.14891618,0.12688024,0.08678658,0.17696491,-0.13258496,-0.16693293,-0.07813886,-0.02627757,-0.005738861,0.107247904,-0.044632442,-0.087009415,0.011366166,-0.07923899,-0.041484576,-0.17383775,-0.096032485,0.09093441,-0.038473547,-0.09303884,0.041507486,-0.030299759,-0.08221706,-0.022182064,0.09611295,0.058824103,0.05945291,-0.024311217,0.019218123,0.015715761,-0.06298247,0.039584205,0.04699263,0.045242306,0.075349584,0.16320616,-0.06426526,-0.23962629,-0.17330977,0.10061383,0.08772771,0.10151882,-0.06374079,0.035049926,-0.06586805,-0.1284193,0.09788612,0.04354331,0.11053468,-0.05511272,0.11049433,0.0029539801,0.14923191,0.018593173,0.053690076,0.0109257,-0.06598521,0.0643329,-0.122438475,0.06538758,0.20544338,0.042942975,-0.0030635109,-0.15516159,0.00017878853,0.071832545,-0.060786147,0.114696376,-0.019073857,0.05016773,-0.12354503,0.024657732,-0.0680234,0.15575127,-0.15999107,0.14422236,-0.24286278,-0.084278025,0.09622666,-0.11819549,-0.08450003,-0.011682192,0.20159526,0.03956175,-0.2135012,-0.16122754,0.051833104,-0.016748222,-0.17920612,0.060269132,-0.24244313,0.046541765,-0.015912218,0.16599822,-0.12204593,-0.12011575,-0.015084593,-0.0064073848,0.07259878,0.18502216,0.04302722,0.17434026,0.12726654,0.27328736,0.034106642,0.12620755,-0.034200188,0.19117662,-0.11668478,-0.066397406,0.08776771,-0.11768953,0.17280278,-0.002253794,0.07120173,-0.10946734,0.09414814,-0.048084937,0.18798116,-0.021775719,-0.11938509,-0.061632536,-0.05194789,0.09705557,-0.041852284,-0.005617585