-0.035675958,0.058314167,-0.05413966,0.0095898155,-0.005497316,-0.023674116,-0.04784666,-0.044651378,-0.041783866,0.032872673,-0.07303537,-0.072679915,0.09224232,0.08507233,-0.07185344,0.00062593084,0.046821684,0.082401484,0.050901886,0.040002726,0.031447303,0.056521565,-0.057278167,0.05853252,-0.042820103,0.02032673,-0.07410696,0.046974864,-0.005200578,0.0052827285,-0.034008957,-0.05520472,-0.03691418,-0.06630075,0.045742825,0.0553497,-0.00991286,-0.06621909,-0.08642495,0.060505047,0.04554971,0.011563639,-0.030981284,-0.05726513,0.030778129,-0.050637543,0.06274688,0.022292994,-0.07400646,0.04550658,0.10603398,0.05283423,0.037911635,0.011772897,-0.06829648,-0.03213473,0.02864788,-0.056264896,-0.00931431,0.019495675,-0.011222204,0.09485315,-0.031406097,0.05350555,-0.0070253178,0.019192036,-0.08551443,-0.001486766,-0.007961876,0.055051014,-0.0636987,-0.091773555,0.071138896,-0.051559195,0.037963055,0.002217179,0.05305993,-0.038715933,0.055168547,-0.09847036,0.048171006,0.075431466,0.035185255,-0.066397585,0.01545048,-0.05920001,-0.03290268,0.099638976,-0.09701484,0.025915397,-0.05719914,-0.057632066,-0.0041423514,-0.002438099,-0.007546006,0.04753068,0.023543725,-0.03581219,-0.06476705,-0.060195,-0.044055976,0.03680211,-0.07835182,-0.082994856,-0.0070971716,-0.109934464,0.030900117,-0.022543337,0.10762172,0.05340854,0.006098005,0.0065582297,0.034464903,0.057526365,0.11022681,0.09295477,-0.029308748,0.04416204,-0.037498984,-0.01889747,-0.04013403,-0.0069393944,0.00800119,-0.078968585,0.050326373,-0.047942456,0.084724076,0.05793064,0.0427099,0.0147983255,0.06313683,0.021074252,-0.0044758352,0.05051323,0.0542147,-0.07398439,-0.021546805,-0.012048518,0.02854228,0.016623637,-0.100387804,-0.020313047,-0.035667464,-0.08215148,0.044044383,0.040025167,-0.008209308,-0.02612938,0.029760063,-0.0002681451,0.11676584,0.03021447,-0.0028903587,0.041156325,-0.023272732,0.039835557,-0.0395807,-0.000217982,0.0016828263,-0.013717451,-0.045165468,-0.052217938,-0.03652471,-0.08022516,0.023663608,0.042857073,-0.0659608,-0.009861549,-0.050191578,0.00014435897,0.04048634,-0.032513518,0.009704377,-0.0305417,-0.010682821,0.095367886,-0.03526474,-0.042110167,-0.03896249,0.061330438,0.0009992332,-0.013122374,-0.05680286,-0.049936045,-0.12903638,0.07985173,0.07518324,-0.04302958,-0.022120452,-0.013150702,-0.036216598,-0.039217856,0.040386863,0.021761946,0.039136946,-0.00820951,-0.059612237,0.03964394,0.08032634,-0.038554326,0.01818913,0.099173464,-0.011821215,-0.0795413,-0.022127425,0.010912133,-0.018677086,-0.03333212,0.012880538,0.017188793,0.06790672,0.015381955,-0.016498197,0.011246003,-0.05633816,-0.041486025,0.06862909,-0.07159723,-0.024776308,-0.00033870694,-0.046110693,0.0645687,0.00733554,-0.046639446,0.016377985,-0.058148302,0.10045029,-0.04891839,-0.026915183,0.00077786203,-0.017117,0.05034025,0.05495246,-0.055039123,0.020916782,0.0058275135,0.020089159,-0.08342434,-0.037765272,-0.041326094,0.011690439,0.033559155,0.06670031,-0.019380031,0.016567653,-0.039914694,-0.036207363,0.058053415,-0.066796325,-0.01668018,0.031326413,0.08112875,-0.014882864,-0.017327674,-0.03640104,0.059989948,-0.008299108,0.075721845,-0.0060072322,-0.062449995,-0.056685116,-0.06710736,0.092587516,0.024779616,0.012513295,0.08092694,-0.018534515,0.06753878,0.032712676,-0.03622122,0.03225946,-0.02704831,0.08002777,0.040116765,-0.025336977,-0.031062674,0.054352578,-0.06530579,0.0026220053,-0.007936867,0.037939973,0.019627918,-0.01926538,0.012921051,-0.0638327,0.05058126,0.01749542,0.0564068,0.060440674,-0.0636942,-0.011615823,-0.0153913,-0.045663666,0.02429378,0.018625347,-0.052163005,-0.06758106,0.03669376,-0.0062580276,-0.022263916,-0.028209032,0.014393919,0.013400643,-0.007369634,-0.005059088,0.04720305,-0.035072353,-0.052996587,0.054911565,0.06498243,-0.012904139,0.014016266,-0.02861377,0.028661016,-0.021793727,0.09070111,-0.0743355,-0.0013385399,0.023168065,-0.027733264,-0.053811282,-0.020161083,0.026732005,0.03959062,-0.043091334,0.04301463,0.018899962,0.04086684,0.03419584,0.020717518,-0.07117381,0.022189489,-0.034095358,0.000702096,0.0027683012,0.0499458,0.03704445,-0.0067356327,-0.004374245,-0.010908085,-0.058433607,-0.01519221,-0.013631642,-0.017358998,0.06496765,0.09061746,0.043015383,0.0065654414,0.02278646,0.030162113,0.01674699,0.03612778,-0.0523283,0.051396273,-0.025207633,0.013413069,0.022125183,-0.06936373,-0.05823771,0.025493734,0.033350483,0.0015976867,0.011736626,-0.015632434,0.018823372,-0.008071149,-0.04547713,0.013130276,-0.028890384,-0.03694112,-0.038071252,0.028653128,-0.042606026,0.008453757,-0.036105577,-0.08334238,-0.026536219,-0.035569116,0.0009120474,-0.055158455,-0.057271708,-0.07800493,0.013967033,0.03235857,-0.027821345,-0.030950662,-0.048243325,0.011711453,-0.09055343,-0.0031524007,0.043084268,0.04826816,0.022713684,0.05013883,0.051022172,-0.013073956,0.0013580065,-0.05035502,-0.054562114,-0.044178206,-0.009593706,0.017154433,-0.035828654,0.03073787,-0.050681587,0.00727175,-0.013834402,-0.047057174,0.073044516,0.021022398,0.033321008,-0.05326868,0.023505341,0.04854582,-0.012470733,0.04857403,-0.029943107,0.046895143,0.0013741816,-0.06864294,-0.031716026,-0.00023651529,0.030708127,0.053873386,-0.03361667,-0.001967285,-0.037714317,-0.0071257646,0.013800692,0.0648971,0.036048327,0.020268736,0.044610485,0.06891672,0.06505429,0.026676247,0.043540094,0.05473413,-0.05278252,0.06766341,-0.071506985,0.0606297,-0.020048385,0.0405083,0.060278177,0.0005587869,-0.022603545,0.004601341,0.03947876,0.057216074,-0.08048636,-0.06763017,-0.092557244,0.04160516,-0.011688522,-0.010508114,-0.051836524,-0.10659944,-0.039739773,0.015054178,-0.0035510613,-0.0526106,-0.071255066,0.028838059,-0.03688604,-0.03619273,-0.048192054,0.0063374043,0.008323042,-0.053414464,-0.12833214,0.021667756,-0.007221463,0.008385557,-0.018038657,0.0018673812,0.022127742,0.0038027794,-0.019114016,0.020028923,-0.11863153,-0.0023685375,0.0043954113,-0.038056664,-0.07543269,-0.008811547,-0.07914399,0.0623474,0.05601439,0.042053644,-0.07683633,0.05820928,0.0037644054,-0.026504053,0.0367925,-0.06640048,-0.0011849107,-0.106935084,0.022980256,0.070167035,0.0018219582,0.030030774,-0.0138083035,0.0007091807,-0.02989101,-0.08715693,0.059900273,-0.07909995,0.0041028303,-0.10769657,-0.060690634,0.111645296,-0.09734303,-0.061320335,-0.011252456,0.030929388,0.0054508736,-0.031767376,-0.034988705,0.05318784,0.0009490347,-0.10107036,0.051206574,-0.057614412,0.05553131,-0.07149963,-0.045019567,0.09519864,0.097331636,-0.036672737,0.00625034,-0.014075915,0.026374822,-0.050242033,-0.10809261,0.050200194,-0.021619482,0.001735682,-0.049603727,0.020898735,0.05095919,-0.11814432,0.00083191146,-0.075004555,-0.120397605,-0.053446993,-0.015670022,-0.002839798,-0.046759013,0.02505089,-0.09170532,-0.0030093691,-0.015272952,0.011028239,-0.031065296,0.0027167662,0.025903095,-0.09249609,-0.022212295,-0.033710744,-0.115560055,-0.018595332,-0.11214193,0.058392413,0.0050401343,-0.06352967,0.009533543,0.0061791837,0.009699698,-0.03438946,0.05568864,-0.08735138,0.0073358295,0.01768558,0.11510526,-0.008862529,-0.03944498,-0.015569716,-0.001536872,-0.047164146,0.008723224,0.009083256,-0.053533513,-0.0134185385,-0.03385582,-0.07320796,-0.07539581,-0.08324501,-0.023430612,0.04709548,-0.07299176,-0.07714736,0.021831503,0.032687858,0.04180514,-0.024170486,-0.013347122,-0.0011030851,-0.12582433,0.120918065,-0.065865174,0.02385284,0.034926485,0.0133066,-0.0068558045,-0.0048452113,0.0336578,-0.059431773,-0.104343414,-0.063163206,0.010898407,0.030097062,-0.042856824,0.0571251,0.056679707,0.022794224,-0.015918568,-0.06348515,-0.008293703,0.06652739,0.115557835,-0.0031657831,0.03364007,-0.07352843,0.025023747,-0.058857374,0.00045113591,0.038034875,-0.008038981,0.0258033,-0.006993243,-0.06450682,-0.0017490966,-0.10038612,0.038419683,-0.06271997,0.02631934,-0.0332334,0.09517546,-0.04867847,-0.051680714,0.014834882,0.04418159,-0.06342019,0.022740232,0.012878883,0.018729422,0.037986968,0.12366435,-0.019877765,0.053380117,0.037341107,0.005547534,-0.00911317,0.012657932,0.05148229,0.008575669,0.04570799,0.021372216,-0.05266594,0.039442595,-0.026346138,0.030585,-0.082188345,0.05298864,0.012185928,-0.023124576,-0.010974664,-0.060496762,-0.065104656,0.014668171,-0.045676824,-0.034393217,0.06543949,-0.00034113275,-0.07105209,0.072590314,0.03775551,0.04771012,0.042633325,0.059734337,0.012239103,-0.016202131,0.00029863906,-0.10469629,-0.049576364,-0.03590204,0.009341032,-0.0110252295,0.041185025,-0.034663938,-0.09493308,0.03687915,-0.07059022,0.082029544,-0.06312743,0.0016112222,0.08841857,-0.023901092,0.056857437,-0.05582266,-0.013610334,-0.012131055,0.0023419992,-0.04379779,0.06525923,-0.07646889,-0.03625407,-0.10067279,-0.0007850826,-0.08125097,-0.09281587,0.052085508,-0.045180354,0.04808672,0.059619293,-0.02664718,0.015324526,-0.06837875,-0.05718145,-0.064896666,0.08241284,-0.037286058,-0.059206586,-0.060647637,-0.07177642,0.060634963,-0.028387152,-0.014255577,-0.020004237,0.09500545,-0.014695802,0.0023597642,0.02331428,0.059631977,-0.07977761,-0.013497605,-0.013642956,0.029749194,-0.0758751,-0.05203553,0.01720006,-0.014130435,-0.02394655,-0.039718788,0.019108003,-0.06408641,-0.07419892,-0.0044261953,0.024490487,0.058442008,-0.008888418,0.04825841,-0.010807744,0.07330452,0.028481703,0.072626844,-0.004273079,0.084634066,0.026187489,-0.04916787,0.058450155,0.057849042,0.0033143035,0.0020211414,-0.049485248,-0.041283112,0.06225898,-0.014884979,-0.050991792,-0.09764573,-0.039895352,0.08671237,0.015060976,-0.12232637,-0.034927562,-0.045148656,-0.09258522,0.01527027,-0.055686533,0.06446959,0.104090035,0.026759293,0.032873347,0.006764915,-0.028939914,-0.044703998,0.03917441,-0.08517929,-0.044868354,-0.12606578,0.08778914,-0.073128656,-0.11917188,-0.061041985,-0.14829442,-0.017638288,-0.07192803,-0.015955197,-0.019831058,-0.0073500434,0.0062088394,-0.08349982,-0.0051855203,-0.05435782,-0.031017585,0.008190642,-0.029867543,0.12592283,-0.0065515987,-0.03396174,0.014871911,0.027466603,0.0052390215,0.09523897,0.053404223,-0.05474609,0.0056818994,0.0040322677,0.032190796,-0.0018709619,0.045571025,-0.06724018,-0.10925435,0.01146761,-0.14857376,-0.046864696,0.031547233,-0.051248588,-0.036539987,-0.013348202,0.071719795,-0.007515716,-0.03648832,0.009124427,0.008197997,0.0016736353,-0.04675348,0.019366723,-0.084514886,0.04130221,-0.05128238,-0.06097675,0.062443677,-0.04576074,0.079610586,-0.0057683624,-0.06028663,0.0030621404,-0.048246123,0.0046292176,-0.05022257,-0.0064139897,0.028468313,0.06153767,0.07228981,0.04421217,0.066084355,-0.04093557,-0.038432125,-0.07416155,-0.076694,0.008393712,0.022459246,0.021104954,0.027572868,-0.03191535,-0.030761182,0.063593015,0.0036069287,0.020721538,-0.03181586,-0.0034111696,-0.013105438,-0.048179593,-0.06749212,-0.0018202625,-0.06172908,-0.045678053,0.047897775,0.026069641,0.0032395956,0.0046679196,0.032126755,-0.009062364,-0.010681397,-0.07450738,-0.016356463,0.018510401,0.016161349,0.024537636,-0.01922382,-0.06772317,-0.08222173,0.07451203,-0.009974626,-0.09031653,0.08435781,0.053798467,0.015454773,0.07522164,0.07292119,0.02760079,-0.043280322,-0.0679995,0.067123376,-0.06477296,-0.03986727,0.045308303,-0.022993265,0.003015819,0.01751914,-0.06112283,0.08632559,0.08501493,0.05850148,0.060808066,0.023693971,-0.06695673,-0.03309967,-0.018529423,-0.052117035,-0.0051971036,0.014626825,-0.06698045,-0.027692564,0.012081844,-0.06187438,-0.02346131,-0.03447983,0.043847296,-0.07422559,-0.042130396,0.0780658,0.052814838,-0.06174029,-0.026219115,0.071298786,-0.06053021,-0.016864643,0.03427769,-0.020428834,-0.060478922,-0.06688592,0.040872473,0.057501227,0.01749496,0.015732875,-0.025835942,0.06985743,-0.011481112,0.0040336214,0.003431312,-0.09478807,0.0083367955,0.005416207,-0.065568715,-0.07069544,0.054889664,0.09724953,0.004968318,-0.035816733,0.056850433,-0.07988657,-0.029561432,-0.055968083,0.07303459,-0.040589437,-0.05854836,0.11333217,-0.020974647,0.060253326,-0.053312432,-0.047971472,0.0414378,0.02957228,0.0069478964,0.030709036,-0.009552928,-0.04602948,-0.016311282,-0.055317875,0.06855079,0.0192491,-3.772408e-05,0.004670485,0.08499259,0.02780158,0.0566644,0.06069249,0.046783105,0.054548655,0.03662615,-0.012402387,0.099946484,-0.061099757,-0.05336986,-0.006283894,0.06473148,-0.015231318,-0.026319705,-0.030709544,-0.010324569,-0.047016278,-0.046697978,0.054955326,0.061366778,0.032208063,-0.06086522,0.011035763,0.06436208,0.02385415,0.07593251,-0.025589604,-0.022014512,0.030291686,-0.084054366,0.055386193,0.021903237,-0.011373991,0.041303545,0.05074229,-0.06568018,0.0069353315,-0.020534962,-0.008604374,-0.03736059,0.06271833,0.013703937,0.019983545,-0.0028781109,-0.007524354,-0.04858003,-0.035100687,0.058349114,-0.040436033,0.0060612783,0.04375064,-0.10218749,-0.04109329,0.025024744,-0.031578153,0.004393475,-0.056921765,-0.05442244,0.010177227,0.015950266,0.042820122,-0.06691809,-0.1117772,-0.081221655,0.03417487,-0.028473279,-0.024999944,0.074932165,0.05397125,0.011476114,-0.029498333,-0.008214556,-0.036607683,-0.074341156,0.010151099,-0.074607044,-0.04560902,0.0018311667,-0.018305048,0.020923233,0.053306296,0.089071445,0.036724158,-0.009917736,0.017013459,-0.105882585,0.05929956,-0.026318049,0.029469477,-0.0299742,-0.0147679085,-0.035974346,-0.0030683773,-0.0021369674,-0.08728578,-0.008905608,0.044533513,0.032628376,0.06918033,0.04876692,-0.013535726,-0.016593495,-0.037677728,-0.080231234,-0.06813925,-0.05882195,-0.006309785,-0.004766446,-0.09176647,-0.0447188,0.017877087,-0.020752361,0.026103305,0.002176735,0.07234669,-0.02118188,0.006775193,-0.06903358,0.01547666,0.03812057,-0.036472354,-0.053594086,-0.019242166,-0.006824844,-0.009481577,-0.009976205,-0.05355082,-0.038011033,-0.052706935,-0.020976892,0.037145104,-0.052204806,0.059805654,0.02764755,-0.066995084,0.006176134,-0.02965941,-0.025356969,-0.029900622,-0.00011859067,-0.07827521,-0.041064437,0.016386626,0.01807579,0.03859321,0.11402271,-0.07296989,-0.0066707474,0.047201995,-0.026682071,-0.021852192,0.1196325,0.053382024,0.038526434,0.011150153,-0.05561734,-0.063824944,0.023589555,-0.087328106,-0.05572468,0.027093722,-0.006514183,-0.0062718857,0.033237346,0.059198137,-0.018537065,-0.05185764,-0.06709111,0.06623297,0.080182284,-0.02114766,-0.11162861,0.07103087,-0.038602065,-0.115050904,0.021535315,0.011627958,-0.050100964,-0.057977423,0.0316914,0.032179467,0.049506094,0.07109324,-0.06544729,0.01960253,-0.06343811,0.01385649,-0.08874061,0.07510426,-0.048359275,-0.100742154,-0.023779213,-0.011796165,-0.022699153,-0.0038786044,-0.078485034,0.04924116,0.027854621,0.051838573,0.056517288,-0.050392177,0.0070365984,-0.03486058,-0.00010127807,0.06449568,-0.07595248,-0.062266354,-0.09133427,-0.0009735882,0.1070999,-0.012919324,-0.027729068,-0.046301506,-0.026526177,-0.0036826874,0.041619577,0.08174783,0.012783664,0.06244794,0.042340163,-0.053321034,0.039914608,-0.038698148,0.0044430876,-0.05840436,0.034096282,0.021353375,-0.07608606,-0.051802572,-0.026624959,-0.02885192,-0.017973164,-0.0661064,-0.05363204,-0.069913626,0.05057074,0.0064485646,0.067959845,0.03663296,-0.010161683,0.08343912,-0.111875385,-0.10437013,-0.0276627,0.0454753,0.01516616,-0.07842794,0.07664518,0.06537257,0.052348148,-0.04236054,-0.07699894,-0.08580288,-0.018892465,0.008041289,0.081171215,-0.043918468,-0.00491528,0.0020161604,0.022755008,0.031692896,-0.01988278,0.041746713,-0.06197596,0.006609872,-0.029183462,-0.03658742,0.039920315,0.07372686,0.072641626,-0.03781677,-0.11489066,-0.0754118,0.02617658,0.040094756,-0.09915648,-0.00074296235,0.029764017,0.017023984,0.06646931,-0.06387717,-0.06473948,0.039672602,-0.02015046,-0.03651024,-0.07305954,-0.05272726,-0.068927936,-0.03805166,-0.05095627,-0.015896969,-0.015372283,-0.029548503,0.0078019085,0.0026278025,-0.042284105,0.011479743,-0.06406662,0.046627067,-0.01127081,0.021132026,0.07544075,0.0026738343,-0.014675625,0.01444121,-0.10525634,-0.08096691,-0.014221578,-0.046416085,0.07550803,0.03082871,-0.050456874,-0.07131269,-0.04977905,0.04127693,0.022717593,-0.04041312,-0.075188205,0.07645694,0.007589585,-0.0037324175,-0.05022814,-0.08265925,-0.026099734,0.03869148,-0.1198161,0.027086979,-0.03016497,0.0086984085,-0.04259609,0.025896885,-0.13495266,-0.02745536,-0.066411495,0.032231458,-0.031866804,-0.030185292,-0.022420539,-0.0815813,-0.032698493,0.016348282,-0.097702846,-0.0693585,0.054791167,-0.012231093,0.067140505,0.019370513,-0.050922167,-0.05743043,0.017831266,0.13619158,0.0040405993,0.04065726,-0.012394112,0.07220181,-0.016262306,-0.031229889,0.05702672,-0.03789832,0.053974133,-0.016715663,-0.05124203,0.02780778,0.04790177,-0.023263587,0.08479733,0.011293755,-0.03076695,0.122997224,-0.013988676,-0.015221805,0.11222289,-0.02675198,-0.008013606,-0.031101082,0.033830885,0.05669543,-0.053385314,-0.010301223,0.057074245,-0.07860913,0.017918788,0.14132413,0.11000585,0.060075738,-0.018633982,-0.07545374,-0.0035442142,0.013552847,-0.022107592,-0.010829063,0.028570542,-0.07856993,-0.078613706,-0.0662927,0.020184375,1.298777e-05,-0.0885923,-0.080158256,-0.01975368,-0.07670073,-0.12730211,-0.05244485,-0.024772046,-0.007113172,-0.10197892,0.024694476,0.03865733,0.052091535,0.043602668,-0.07639378,0.0067147473,-0.0035753646,-0.104943715,0.016088964,0.03738051,-0.03656125,-0.014270883,-0.011689213,0.035193164,-0.020923538,0.08002909,-0.06855973,0.021295615,0.0038657847,-0.047338232,-0.072377235,-0.005915731,-0.101081856,-0.039972458,-0.07887347,-0.05638372,0.032466024,0.044859707,0.009049947,0.014230808,-0.068578124,0.07666409,0.023723815,0.02727526,-0.07686101,-0.091210015,0.010976119,-0.017558193,0.014749317,-0.06933632,-0.020478308,0.105805986,-0.051157203,-0.036813714,0.038155857,0.060244933,-0.059038356,-0.016650237,-0.0022982578,-0.00899493,0.017038826,-0.020455925,-0.051381122,-0.018688902,-0.06593469,0.0014388545,-0.13002816,0.049903747,-0.047560044,-0.018908165,0.043268837,-0.07235773,-0.005004684,-0.05072239,-0.1253698,-0.0868765,0.10215251,-0.014884275,-0.013374507,-0.023823317,-0.08891616,-0.026435917,-0.09469002,0.038006064,-0.0027469818,-0.07128242,-0.10865781,0.0074502868,-0.09612633,-0.08221314,0.053765547,-0.092398055,0.033432405,0.029601322,0.031758897,-0.08318339,0.047744013,-0.039568745,-0.014608692,-0.0028453842,0.01837849,-0.047229197,-0.034076575,0.021955771,0.052006245,-0.0973095,-0.013286597,0.0330075,-0.012272533,-0.0038721783,-0.025500646,0.017634666,-0.012004522,0.0470075,-0.025998356,0.030088298,-0.03164951,-0.072092645,-0.009031862,-0.007098879,-0.04611596,-0.07447582,0.04334354,0.085177794,-0.06445569,-0.029197805,-0.046778183,0.034705643,0.026734134,-0.036840625,0.013488592,-0.006571979,0.06038862,0.038619455,-0.012815615,0.053382155,0.06888594,-0.05055861,-0.0011518575,0.03610312,-0.032690313,0.034952357,0.038750205,-0.018978458,-0.01604166,0.04416009,-0.026254639,0.034424193,0.07169952,-0.04890394,0.005631503,0.062025752,0.04551337,-0.030706327,0.027926648,0.013653861,0.0014926959,-0.064916946,-0.015018616,-0.04840954,-0.0561359,-0.038952105,0.012756189,0.012290445,0.033312716,-0.028359087,-0.039574713,0.026354214,0.032705918,0.037552796,-0.054304786,0.038251683,-0.0035863419,-0.015821908,0.036538225,0.045295313,0.0075824778,0.009456911,0.066065535,0.05368828,-0.046750683,-0.023963658,0.05434698,0.051860116,-0.015096172,0.028833864,-0.04414177,-0.0057279216,0.049047768,-0.005794009,-0.033457395,-0.08597675,0.0071331337,0.02577883,0.040488616,-0.09450484,0.034826837,-0.014493966,-0.0357294,-0.020765282,-0.09621304,-0.016187979,-0.010227919,0.08707492,-0.0054297852,-0.0077769333,-0.036775224,-0.011292674,-0.022402925,-0.03259254,0.06526598,0.060397666,-0.05762898,0.06612882,0.020138832,-0.02352362,0.06600608,0.07654618,0.030718746,-0.061439335,-0.06322846,-0.099380784,-0.033723116,-0.0008433652,-0.10056873,0.027191946,0.036815867,-0.0137191005,0.14052759,-0.037055295,-0.0485882,0.048903003,-0.10636249,-0.044232946,0.008502371,-0.035783097,-0.0062049553,-0.019612199,0.00061524624,0.10473521,0.04292106,-0.020208778,0.09414962,0.11276862,0.0018515592,-0.051435705,0.0030390054,0.043813106,-0.018825365,0.043702215,0.011669754,-0.030200671,-0.046980955,0.03137957,-0.0693503,0.036156528,0.018368155,-0.12742414,-0.096947044,-0.060576603,-0.021934722,-0.004622959,-0.06915054,-0.07539519,-0.006316965,-0.048507746,-0.058251888,0.06007234,-0.010443771,-0.0013178068,0.039729044,-0.0006676998,-0.061930034,-0.16778743,0.09681877,0.03957551,0.116866,0.028974451,0.02483156,0.016703336,0.05585683,-0.054578878,0.08796715,-0.026419394,0.04103556,-0.040144634,-0.00064112665,-0.06252415,-0.056394976,0.019029347,0.006704942,0.05441297,-0.0066914833,0.020064674,0.060378425,-0.019481117,-0.073117495,-0.014469468,0.0035069587,0.04208361,0.039886553,-0.0027901155,-0.03701334,8.7195e-05,-0.005769773,-0.056070086,0.058700852,-0.044458058,-0.08083024,0.014793984,-0.0380525,0.009781148,0.01598699,0.0036708212,-0.03191768,-0.08157496,0.055813126,-0.03130048,-0.029761974,-0.0014572825,-0.081142366,0.0006007914,-0.0786473,0.041307364,0.025917597,-0.019340808,-0.094945766,0.008067283,-0.043291803,-0.016497094,-0.055209182,0.05260092,0.018595146,0.07445893,-0.020883983,-0.035012506,-0.006150074,-0.08260412,-0.016677188,-0.013321982,0.045377307,-0.043159265,-0.016056536,-0.021977216,-0.03407929,0.04390416,0.005470739,-0.06238243,-0.05446619,0.008587094,0.041531377,0.041350674,0.08774984,0.03391612,-0.011164707,-0.07415444,0.062098544,0.047324855,0.06525675,0.107786946,0.065587714,0.01509298,-0.045410026,-0.03834274,-0.052371204,-0.036203817,0.03261217,0.05528602,0.07964044,-0.059126724,0.09272117,0.01661423,-0.025114914,0.043246962,-0.04316088,0.061800744,-0.12018615,-0.080309115,0.04452063,0.045527637,0.031075807,-0.060730208,-0.005950166,0.0010008211,0.047275856,-0.100809634,-0.069029465,0.06534045,0.024020106,-0.0011223963,-0.076575875,-0.04438043,0.054866392,-0.08476117,-0.021294309,-0.07535644,0.073770575,0.10907431,0.015568132,0.10480695,-0.015580858,0.041808017,0.12794933,-0.0053395918,-0.035021693,-0.016957916,0.022580996,0.0016481506,-0.012898142,-0.053464774,0.07375424,-0.04716814,0.06258303,0.018822316,0.005925119,-0.046089407,0.033297054,0.0028720852,0.05180289,-0.07407936,0.13821557,-0.051329304,-0.04371422,0.01404993,0.008523105,-0.026377391,-0.012414276,0.0102633275,0.00089436024,-0.02837914,-0.019317238,-0.018491352,0.033878148,-0.015555317,0.048334807,0.06636171,0.043406714,0.045172676,0.038489267,0.0006982243,-0.08276166,-0.0910299,-0.07085037,-0.014493583,-0.071526535,-0.045437403,-0.0037298058,-0.07448303,0.038200587,-0.05116562,0.035607338,0.02338895,0.056907516,0.023028672,-0.051031064,0.009604414,-0.03379153,-0.075561054,0.014589633,-0.016908092,0.028020255,0.04989567,-0.025003782,0.048141137,-0.0012163939,-0.034281787,0.09203696,0.10838919,0.045673832,-0.022452146,0.028233515,-0.0075686616,-0.019962529,-0.033817492,-0.04638542,0.012541461,0.040516503,0.024718381,-0.05538854,-0.050960068,-0.045533355,0.053386368,0.095635064,-0.047073603,-0.059824813,0.0010875635,0.013478428,0.03341702,0.03532988,0.016862134,0.08272747,0.053784646,0.011164664,-0.03922917,0.023025787,-0.012770247,-0.004133135,0.062021196,0.08646211,-0.0023209862,-0.026071329,-0.06189203,0.011580403,0.0071591665,0.02398497,0.022329433,0.04047619,0.09068672,0.02483714,-0.018316751,0.015004623,-0.0653135,-0.033270292,-0.034259576,0.0002760884,-0.025427308,-0.047613215,0.014473146,0.064798616,0.051416952,-0.03052243,-0.055174142,0.071674004,0.069409214,-0.029595148,-0.030601528,-0.031727817,-0.029023139,0.07001779,-0.008187803,-0.010901075,0.07931739,0.059298005,0.04581266,0.02510148,0.04793304,-0.0036004467,-0.13119435,-0.019762656,-0.050365772,-0.07308008,-0.056243856,-0.011922076,-0.03562526,-0.01067358,-0.007889232,-0.0065321736,-0.07924991,0.024831088,0.04429396,0.100153185,-0.047694806,0.031564835,-0.07957073,0.032731142,-0.021065272,-0.052945774,0.05705042,0.0013908745,0.008095608,-0.017863708,0.049146187,-0.019757383,-0.076475926,-0.039741028,-0.06458915,-0.0637561,-0.024281085,-0.046265688,-0.078012295,0.0723158,-0.028366566,-0.06529301,0.0065198913,0.06214057,0.051529188,-0.021749515,0.038840696,0.002462288,-0.017173434,0.021035174,0.022035623,0.06116584,-0.02169581,0.039298203,0.0033168418,-0.027952626,0.080984205,-0.023165734,0.05291584,0.08574438,0.015143631,0.016544815,-0.039743576,-0.077485986,0.03569677,-0.063052885,-0.010398297,-0.07551416,-0.045268387,0.07660162,-0.06022058,0.07861088,-0.019593246,0.058217015,-0.009158767,0.016747903,-0.019119833,0.041726645,-0.052342568,0.03124611,0.0002476275,0.07739045,0.01246736,0.03479339,-0.0027827623,-0.0140862465,0.022551311,-0.02078269,-0.06580479,0.045480743,-0.0008871172,-0.037673734,0.035606723,-0.014629446,0.03512655,0.07465338,-0.068804696,0.035168335,0.062275745,0.04294468,-0.050133377,0.015368016,-0.08612958,0.0021660281,0.08312398,-0.012470622,-0.07099458,-0.07527664,0.008112971,-0.018938502,-0.010379785,-0.06284769,-0.022009974,-0.029086187,0.01786503,0.03545736,0.028645948,0.06157372,0.027869267,0.042653807,0.023434408,0.015904156,0.027044905,0.04106291,0.0067722695,0.010942352,-0.09768037,0.05358215,0.083580844,0.00012848817,0.027743034,0.01908744,-0.038858585,0.10248586,-0.030006176,0.07265739,0.0013059472,-0.04667679,0.014391991,0.052493006,-0.05831036,-0.066491984,0.01946384,0.061520796,-0.0053867814,0.02557254,-0.056042302,0.04175232,0.026303835,-0.054678544,-0.06557007,0.025389394,-0.024499832,-0.055965282,0.045835815,0.06693638,-0.041271113,0.08111225,0.028962098,-0.02851995,0.10888652,-0.07580904,-0.068273425,-0.06647835,0.026420452,-0.053848322,0.014704869,-0.0099049015,0.042874638,0.03756494,-0.020803966,0.022113157,-0.074211426,-0.04976563,-6.8715555e-05,-0.008200536,0.07339209,0.006086789,0.072050124,0.027130377,-0.028066823,0.013251304,-0.081230305,-0.05190995,0.043297287,0.056802984,-0.036712267,-0.018305715,-0.025329506,-0.073022746,0.0035951105,0.074057765,0.04722539,-0.03750726,-0.007110005,0.053026572,-0.022663176,-0.059118573,0.07967121,0.011589537,-0.012076034,-0.010060137,0.010591235,0.060902163,-0.004833931,-0.0075897435,0.030417304,0.013572889,-0.0438632,0.047555808,-0.029861376,-0.034838278,-0.0058965385,0.050782464,0.025129706,0.018757716,-0.022804916,-0.052615058,-0.03945707,0.06404957,-0.049489886,0.02665289,-0.04442403,0.013529903,0.07237441,-0.09426388,0.05420303,-0.093108565,0.057352584,0.024113277,0.018981583,0.041598752,0.00022750245,0.05916863,0.0023359477,0.0015965528,-0.012958199,0.056410074,-0.043650467,-0.04605836,-0.017867075,-0.035931032,0.08043947,-0.08731539,-0.07824746,0.06467194,-0.06225548,-0.007133014,0.101849556,0.012357678,0.04676065,0.010668549,-0.0030722881,-0.10812264,-0.005479045,-0.048641305,0.021104552,0.052988615,0.04294988,-0.0625987,0.038712427,-0.032613978,-0.06426019,0.05478204,0.0033833878,0.02224654,-0.0021553794,-0.0017165018,0.06769488,0.018765355,-0.063341945,0.07684893,-0.065452844,-0.021147672,0.0062716557,-0.07656282,0.06346352,-0.092700176,0.007246228,0.05872637,0.026254479,0.011460833,0.0020667338,-0.036113698,-0.016858652,-0.052887417,-0.075223416,0.11666088,0.056978643,0.028876746,0.04489317,0.039654035,-0.009340105,0.00013249146,0.023768902,-0.05373926,0.057184003,0.03383076,0.037601933,-0.029647486,0.019428963,-0.066871695,-0.051296547,-0.028973112,0.041502148,0.061106812,0.059121415,-0.028528124,-0.020504449,0.00074294413,-0.011778044,0.072392315,0.01620968,-0.051841084,0.027983738,-0.08225962,0.034733575,-0.0136622805,-0.06488477,0.002371198,-0.03413345,-0.016728912,-0.021871187,0.017149657,0.0056572976,0.0833155,0.022416547,0.0024773225,-0.05279252,-0.04649487,-0.06052393,0.04493666,0.025468921,-0.111143686,-0.08737742,-0.041039478,0.047634844,0.03858335,-0.064399645,0.0403685,-0.06585168,-0.0046192957,0.07093382,0.07322961,0.0446057,0.0489806,-0.017427936,-0.022010745,-0.03482034,0.027257295,-0.037900947,-0.08183113,-0.04850708,0.02121939,-0.01141203,0.01092136,-0.064828634,-0.0035403096,0.0006166011,-0.053095017,0.01326157,-0.02274157,-0.040976316,0.033519503,-0.016632736,-0.006946081,-0.045539733,0.06809701,-0.048781868,-0.017471604,0.040312313,0.0024567829,0.054034725,0.01050433,-0.041235115,0.062386163,0.11612539,0.048102323,-0.028562073,-0.033476103,0.02036092,0.071594514,-0.011631618,0.016931433,-0.028434748,0.054116238,-0.051406074,0.10385073,0.0963703,0.023963857,0.060855925,0.05663513,0.026852367,-0.040602647,0.06997975,-0.01532132,0.032884497,-0.030100424,-0.038179755,-0.010466807,0.029080398,0.01855153,-0.054368366,-0.048458185,-0.080366105,-0.022476075,0.062511384,-0.041476298,0.037288517,0.002634026,0.0814744,-0.05851319,-0.024344958,0.0326868,0.065296285,0.043396004,0.0042457064,-0.057060834,0.0039260993,0.037016492,-0.044969335,-0.05759037,0.065847754,-0.02325933,0.01654378,-0.06845701,0.036496356,0.010305365,0.008471835,-0.04614249,0.040209103,0.032779805,-0.077935986,-0.045138046,0.033591345,0.01855821,-0.0059247497,-0.06379808,0.060395192,0.028933173,0.08827479,-0.028277842,0.07659387,0.05555622,-0.05396904,0.04526976,-0.118943594,-0.004234721,-0.06369793,0.0065172305,-0.059651,0.07511479,0.030470053,-0.051727016,0.045667354,0.04597709,-0.09133817,-0.01796083,-0.061586276,-0.050590754,-0.054120146,-0.013104531,0.023367371,0.054339536,0.013636239,0.06321399,-0.045149643,0.0044238726,0.051404655,-0.0073935385,0.032245632,0.043721188,-0.045590393,-0.04351412,0.028311599,0.04466461,-0.045961536,-0.060946483,-0.007965074,0.051905915,0.09374765,0.0066560307,-0.037295092,0.050737854,0.08041372,0.011049708,0.022273645,0.059937574,-0.0046739234,0.007964457,-0.057349596,-0.05628209,-0.08513353,-0.075898126,0.05567342,-0.025718188,-0.02020957,-0.02511627,-0.10129793,-0.07186878,0.0029176094,0.038752098,-0.08045308,-0.0509582,-0.03728407,-0.049305923,0.06936882,-0.0675369,-0.0050642984,-0.031064065,-0.10910644,-0.044200156,0.06697102,0.021330312,-0.07401436,0.035491955,-0.059932053,0.009335344,-0.062270153,-0.039327588,-0.029304264,0.02116507,0.08849239,0.051271543,0.086637706,-0.025180269,-0.06370342,0.07626987,-0.02077277,-0.039825514,0.014529648,-0.004589273,-0.102650166,0.024770897,-0.052637115,0.03624651,-0.050638154,-0.043905206,0.081876114,0.021172594,-0.059401035,-0.022171816,-0.010267523,-0.077725366,0.0073620756,0.08157311,-0.027355729,-0.024001649,0.05234975,-0.026746405,0.01570091,-0.039273445,0.0123509355,-0.01914127,-0.057760928,-0.025928669,0.07957619,-0.045619313,0.044711247,0.004081395,-0.05774605,0.024921618,0.061559938,0.05214938,-0.06520616,-0.037385743,0.034430623,0.020617435,-0.044082623,-0.044039063,-0.048616655,0.0839506,0.024419468,0.056098938,-0.037351802,-0.047002718,0.03885972,-0.008874986,-0.06988499,-0.005485458,0.021457283,0.009677938,-0.06497455,0.019958714,0.0046174997,-0.01774017,-0.05862841,-0.07045489,-0.09762571,0.038390744,0.017062211,-0.09765143,0.047704358,0.026654273,-0.066490084,0.04250489,0.023100225,-0.015474817,-0.010261593,-0.06996744,0.07634358,-0.06669209,-0.026896015,0.05794377,-0.03373687,0.02403986,0.035574574,-0.030787041,-0.0004497714,-0.0028933699,0.016475964,0.0024119853,-0.11880241,0.037047423,-0.046913803,0.022618627,-0.039434772,-0.068777494,-0.060840596,0.080644354,0.050370805,-0.07958889,0.012614565,0.013834112,-0.0046985736,-0.007990721,-0.028866498,0.04079958,-0.046992827,0.062570885,0.014163738,-0.05801845,0.11089215,-0.045538347,-0.07334245,0.007628964,0.05943459,0.014182106,-0.044121705,-0.00282924,0.047297508,-0.021947075,-0.053921543,-0.012583114,0.025038788,0.041350886,-0.04095635,0.062455773,-0.10020786,-0.030246845,-0.06561622,0.06292158,-0.058242396,0.025840638,0.039688196,-0.048140172,-0.048569504,-0.047824323,-0.03572387,-0.08713656,-0.0040689083,0.027763177,0.12605888,-0.005142081,-0.043245215,-0.067073174,-0.031832237,-0.05910726,-0.106854275,-0.032988247,0.020787284,-0.00021958718,0.05438127,-0.03057071,0.0054295966,-0.010902909,-0.06955399,-0.03526628,-5.9788457e-05,-0.054427896,0.016706657,0.03562379,0.0098263165,-0.0054031424,0.04899821,-0.04295833,0.008661429,0.040423244,0.0442373,0.04551652,-0.07950386,-0.0120779695,0.15940163,0.024336573,-0.023774894,-0.087891564,-0.06752252,-0.01847589,-0.09140601,-0.030775575,0.09704937,-0.01697307,-0.029895388,0.064600356,0.13712622,-0.029547594,0.032905467,0.011543716,0.09475138,0.08504459,0.011699029,0.011910941,0.01736603,-0.01715228,0.026345836,0.0419968,-0.008377624,-0.020246565,-0.044316184,-0.007398303,-0.033985183,0.016423553,-0.028479792,-0.06784614,-0.02427271,-0.118847676,0.0829443,0.042625546,-0.06304594,0.018454678,-0.011233028,0.034627076,-0.088055804,-0.02235988,-0.002799551,-0.010764456,-0.017661717,-0.09761422,-0.07133544,0.06171886,0.104400605,-0.04861804,-0.007845057,0.04148337,-0.07296753,0.05272416,0.019325104,0.008071063,0.020960525,0.06550619,-0.047532216,0.041426778,-0.037712105,0.054624666,-0.0060107596,-0.08319314,0.015022501,-0.07647223,0.0059572784,-0.049308013,0.059356436,-0.037435878,0.074748434,0.04290779,-0.06277361,-0.08215519,0.024697928,0.02432368,0.11266548,-0.035841793,0.009599909,0.035932068,0.07415944,-0.033576347,0.010896273,0.0352476,0.02054649,0.043806348,-0.06495647,0.03295575,0.010579639,0.0060052555,0.009848399,0.056060914,0.0027687773,0.033437695,-0.069283545,-0.00010987051,0.12836182,0.026208697,0.06758824,-0.05016363,0.021446206,-0.05469928,-0.05591775,-0.017031515,0.022576928,-0.01672861,-0.057503,0.028473418,-0.01553937,0.017387593,-0.05281529,0.020575982,0.0672717,-0.050209843,-0.04323489,0.07109549,-0.052903317,-0.04092669,0.017287798,0.005573379,0.0024695708,0.0025025136,-0.07200564,0.03662454,-0.07879409,-0.05875776,-0.02224092,-0.024220938,-0.05900501,0.0034512524,0.003501908,0.0075441264,-0.08745693,-0.046002317,0.0054429695,-0.040897865,0.010022562,0.034599163,-0.05562703,-0.0055817305,0.08198274,0.03298181,0.06567481,-0.073940456,0.003973748,-0.005033521,-0.07683137,0.042525478,-0.0020697056,0.058434088,0.031203859,-0.018031225,0.015131752,-0.069779344,0.056380253,-0.07108042,-0.05390137,-0.046185732,0.012365568,-0.029333003,-0.08788322,-0.07573117,-0.041732382,-0.05631906,0.053595092,-0.07252907,-0.000944955,-0.028527051,0.041247424,0.018826276,0.022913191,0.03235956,0.0054290537,0.015744872,-0.016787028,-0.04310407,-0.053776335,-0.06399294,0.027116528,0.014641404,-0.013949437,-0.02824857,0.011551564,-0.06226526,-0.034699436,0.059192363,0.07814428,-0.02339029,-0.055072878,0.06393836,0.054312862,-0.013370153,0.010373557,-0.025180066,-0.071411036,0.05440186,0.03732231,-0.0002974998,0.0010168339,0.02303029,0.0726153,0.0052057016,-0.046998538,-0.022636807,0.08714563,0.014375066,-0.055024542,-0.08562957,0.044868186,-0.008574449,0.047267556,-0.062269647,-0.035626117,-0.051692847,-0.017503731,0.05082196,-0.1567395,-0.030513221,-0.03595691,-0.0031149595,-0.03537053,0.04668303,0.0516334,0.022257373,-0.058706943,-0.03364066,0.08763794,0.021136263,0.044806287,-0.01391362,-0.051881123,0.042200938,-0.048143525,0.049804658,0.024905108,-0.014480315,-0.055772968,-0.013861695,0.040251654,-0.0046372158,0.05720293,-0.06261434,-0.0018073705,0.008770536,0.020612638,-0.056948744,-0.044830486,-0.010516936,0.07474996,0.012634719,-0.00028247922,0.0041794255,-0.018331086,-0.06246707,-0.010955616,-0.039956305,0.09094686,-0.060572077,0.06632072,-0.05427004,-0.042401697,0.03719735,-0.034788,-0.084994435,-0.03379787,-0.13053922,-0.06345597,-0.082001366,-0.0045017865,-0.07192884,0.051738784,-0.031833567,0.04245604,-0.05605926,0.0007489078,0.07022887,0.005411775,0.01356001,0.0083894115,0.030814549,-0.0059702457,0.020592064,-0.041067857,0.044274326,-0.05548422,0.03940679,-0.04427373,0.066153206,0.06546763,0.008699299,-0.023277786,0.025522748,0.05660518,0.06604628,-0.049208935,-0.07070558,0.042826757,0.00962562,-0.06691908,0.050014947,0.068743624,-0.044337228,-0.004373245,-0.017718082,0.08305123,-0.034143414,0.0006811487,-0.0790905,-0.02911045,0.062108997,0.018796742,-0.017633446,0.0023686744,0.050643295,-0.05944857,-0.0732682,0.032460995,-0.032662798,-0.060092922,-0.03245596,-0.049903054,-0.036276318,-0.029691858,-0.036112,-0.051548425,-0.018742327,0.031408142,0.0128364265,0.03568625,-0.035725355,-0.018142581,0.03195435,-0.036257654,-0.039183743,0.025208184,0.021355474,-0.036472537,0.040263854,-0.10116858,0.03216117,0.042119768,-0.021960566,-0.06842042,0.047752216,0.04917741,-0.060340177,-0.061151948,-0.04571039,-0.024153061,-0.09125334,0.057346456,-0.058052663,-0.05873192,-0.046766046,0.045743257,0.01241248,-0.031269096,-0.023368815,0.070380256,0.028511828,-0.08326496,-0.019260883,0.0211464,-0.036873452,-0.05739486,0.054360464,-0.03466456,-0.08619199,-0.033729367,-0.02460579,0.058599673,-0.020081943,-0.012360981,0.025761023,-0.020274263,0.0004992388,-0.014043506,-0.059709977,0.10447028,0.042504456,0.05089619,-0.023585046,0.02682051,0.056781393,-0.029908923,0.03104623,-0.057359368,0.056734785,0.052748147,0.05313819,0.039722677,0.030984452,-0.05983596,0.00052843156,-0.010190686,-0.07609878,-0.045071427,0.033896085,-0.05252279,0.023888163,-0.08688202,-0.014600489,0.070701934,0.041579515,0.016123557,-0.058324613,-0.08555045,-0.04580258,0.00862361,0.007946268,-0.03312272,-0.012146269,-0.043238625,0.005231673,0.002161601,-0.004444205,0.05602505,0.063074626,-0.00057440554,-0.024414923,0.061856158,0.06876814,0.07774962,0.04885249,0.11638132,-0.069641806,-0.022805983,0.08567884,-0.0024660532,-0.05282162,0.028005872,-0.0064955615,-0.037697453,-0.009156924,0.061200384,-0.021896701,0.09868478,0.063425004,0.058086447,-0.01162249,-0.050771803,0.025135348,-0.03621118,0.063749604,-0.064850524,0.011040148,-0.027849238,0.028407326,-0.00093845977,0.011094262,-0.0105531495,0.052608024,0.031794548,0.076582365,0.004702244,-0.015406077,0.032390393,0.034957297,-0.01120643,-0.027078599,-0.04285949,0.0658933,0.06549424,0.03144159,0.03832563,-0.037127767,-0.021558972,0.016754486,0.040302996,-0.0398803,0.04850866,0.025083072,-0.07108033,-0.026110139,-0.09767939,-0.05091538,-0.023241222,-0.07820372,0.034363795,-0.0019975263,-0.14548466,-0.033092175,-0.039803628,-0.027757412,0.019623125,-0.025893176,0.015465718,0.006413755,-0.04963627,0.058688033,-0.07765011,-0.020464519,-0.07778974,-0.039041877,0.01895816,-0.04301019,0.013978009,-0.015111895,0.032852374,0.02159875,0.010586484,0.013752494,-0.05485687,0.0687664,-0.025654241,-0.0038754975,0.08027698,-0.041181028,-0.027263865,0.03546451,-0.02305103,0.06227102,-0.026863072,0.025954654,-0.07410742,-0.07829028,0.07582891,0.043837573,-0.019984875,0.06906706,-0.040841762,-0.059106935,-0.071489625,-0.10059822,0.0021040074,0.0559487,-0.021753,-0.037951127,0.084559865,0.059542477,-0.054589804,0.068675295,-0.06598647,0.03461172,0.017501092,-0.06295122,0.034728102,-0.07029574,-0.010484179,0.04946818,0.06268071,-0.032663245,-0.08082475,-0.0048478665,-0.043566003,0.031151075,0.038905803,0.006844189,-0.02071338,-0.0618215,-0.0061309566,0.04374706,-0.015455013,-0.0054470403,-0.057771653,-0.0811504,-0.071504086,-0.056065466,0.062296793,-0.041963857,0.034149416,-0.03947522,-0.044275872,-0.051881813,0.01196687,-0.047121767,0.0038370655,0.043071233,0.054081287,-0.034654345,0.033922356,0.011505337,-0.05733233,-0.053609457,0.05704664,-0.016135357,0.047071017,0.04064306,-0.055724476,-0.0054524103,0.017576111,0.048150934,0.07274829,0.066396624,0.02914298,-0.056373805,0.031578824,-0.007073951,-0.05453566,0.009655996,0.05420947,-0.022447327,0.052327316,-0.00729435,0.006724421,0.047888394,0.076168664,-0.013803779,-0.07000709,-0.06868364,-0.0017996478,0.0120951235,-0.0015245817,-0.00484979,-0.0171642,-0.039895717,0.0050870143,0.00673525,0.012216748,-0.049775675,-0.07274271,-0.012367201,-0.039132796,-0.059440214,-0.066141486,-0.03390316,-0.0740877,0.07130171,0.031160465,-0.053739563,-0.00988046,-0.036963608,0.011894761,0.07876485,-0.036476936,-0.08797254,-0.049261324,0.049949918,-0.04964046,0.013520647,0.02928744,-0.080720246,0.004289196,0.04235808,0.007622187,0.026613655,0.06192974,0.033870343,0.050705455,0.036545623,0.02017322,-0.010884712,0.073214754,-0.015541693,0.024425587,0.065105796,0.04891034,0.07478208,0.046442952,-0.04677639,0.060082674,0.045639556,0.047970902,0.07143744,0.05573295,0.00922302,0.039739095,0.03672235,0.020911526,0.033275038,0.101751104,0.005384743,-0.06299286,0.047652867,0.027323619,-0.0007456563,0.061670486,-0.034302562,0.04042857,0.11384185,-0.007669958,0.009716308,0.031262767,-0.026280737,0.017965224,-0.05246435,0.08187917,-0.005566448,0.06280241,-0.02937003,-0.033337392,-0.028936587,0.068899594,0.03943471,0.088650554,-0.008026992,0.03733093,-0.06342054,-0.07026222,0.09842186,-0.04313651,-0.0376433,-0.048233785,-0.05079843,-0.020892663,-0.01336356,0.08635108,-0.005606942,-0.039291054,0.064836726,-0.07357953,-0.055206634,0.025227247,0.0123379715,0.04469085,-0.04219202,0.09107539,0.059136126,-0.064418696,0.00948404,0.01330789,-0.051410798,0.05957129,0.01878363,-0.0481473,-0.024866084,-0.021826632,-0.0022150525,0.014819145,-0.0050418447,-0.08599007,0.029175447,0.024639321,0.08432995,-0.004810628,0.0544301,-0.035034344,-0.048593834,-0.0055297622,-0.080719106,-0.067215055,-0.07475779,0.031767815,0.024372261,-0.030237028,-0.055292197,-0.011441191,0.014873576,0.027023816,0.083458565,0.019392317,-0.06631337,-0.035027076,0.044553608,-0.0746375,-0.012253745,-0.063822,0.061013784,0.020557394,-0.022427635,-0.05455198,0.03995375,0.04293209,-0.058064476,0.026144298,-0.010432792,-0.06650333,0.04652119,-0.019105962,-0.10847114,-0.017568609,0.042861328,0.0286637,0.054788373,0.06369321,0.04150465,-0.030339688,-0.05833031,0.093520574,-0.060197696,0.005075088,-0.044254612,0.0059418506,0.05613366,0.096356966,0.07559195,0.022740096,0.055978496,-0.090833135,-0.0024150615,-0.03409937,-0.047811512,-0.011751875,0.036659583,0.108922236,0.03019817,-0.05089263,-0.013258749,0.037957557,0.01156885,-0.011580527,-0.052913323,-0.05932251,0.019650906,-0.027943783,-0.1013492,0.01339461,0.02776069,0.049902715,0.08745089,0.1257977,0.09559572,0.024880283,0.046548676,0.06246595,-0.057692237,0.009467075,-0.022287428,0.012921189,-0.03995754,-0.01601694,0.055968035,0.07565532,-0.00420407,-0.04411469,-0.06973522,0.07462474,0.012117617,-0.037903596,0.052531537,0.048225474,0.0027858978,-0.064718366,-0.020161085,-0.010693184,-0.06513314,0.05818117,-0.0046892827,-0.020853056,-0.057857405,-0.0032804995,0.008472666,-0.023461426,0.009412603,-0.0020690567,-0.047632217,0.039132223,0.011202461,0.110188834,-0.09943744,0.08483597,-0.012240503,0.05838544,0.02293437,-0.011531406,-0.03947718,-0.04150206,0.04914338,0.011028436,0.07839014,0.08858451,-0.013376443,0.023102993,-0.00181686,0.00039179088,0.06229292,-0.037540648,-0.0544216,0.059678875,-0.100916065,0.040583722,0.009413419,-0.048975606,0.021903941,-0.011746635,0.0019919418,-0.03247768,-0.050129596,0.003702588,0.014914788,0.051490504,0.0222184,0.021133594,-0.0037081488,-0.014676165,-0.051848296,0.015880119,-0.044215903,0.051402427,-0.011135008,-0.039109293,-0.045349754,-0.07295517,0.03364983,-0.07239479,-0.018766522,-0.010511337,-0.010156581,0.027889755,0.025226746,-0.1003719,-0.0054020653,0.061904106,-0.06294082,-0.049413178,0.027328284,0.049709104,0.1008223,-0.08102277,-0.068513885,0.029004565,0.021210756,-0.026951091,-0.057229593,-0.014666174,-0.06124308,0.039323553,0.04468609,0.010980269,-0.103327714,-0.050030854,-0.07459947,-0.06826316,-0.02480311,-0.054806806,0.0790403,0.00575339,-0.0012150016,-0.08929456,-0.051489804,-0.034298662,-0.024103388,-0.063842855,-0.07176996,-0.07750471,-0.02314281,-0.101828665,-0.10495679,-0.09026644,-0.017095849,-0.09021207,-0.03694896,0.020532826,0.0304503,0.034674827,-0.068917185,-0.019367214,-0.039911814,-0.031477228,-0.034137394,0.009395375,-0.04820711,-0.028069766,-0.08307865,0.020277284,0.050596617,-0.11349876,0.011224423,-0.00837032,0.04911581,0.06912735,0.06461778,-0.05024118,-0.07207536,-0.03394864,0.030236611,0.0014678208,-0.05377699,0.07429939,0.027108518,-0.08342455,-0.06286261,-0.052023236,-0.043764777,0.04330824,0.011966233,0.0042188554,0.07510747,0.032848917,-0.020763325,-0.0332677,-0.0056861835,0.050562005,-0.020244358,-0.014231224,-0.02694871,-0.0018147983,0.08147977,0.047553837,-0.016326116,0.013987308,0.036038823,0.0873433,-0.015028778,-0.085487835,-0.110714674,0.027763272,-0.04147313,-0.055133246,0.045599815,-0.024846407,-0.06717319,0.0062839016,-0.024262648,-0.0001835355,-0.0391716,-0.060386635,0.06197462,0.00063083426,-0.016378948,-0.027652493,-0.01881073,-0.029707348,-0.03612414,0.024618348,-0.02727388,-0.02278444,-0.046558965,-0.034932397,0.03310754,-0.028961502,0.01581927,0.019745482,-0.0782147,-0.014793229,0.023448907,-0.07176131,-0.0743277,-0.04503557,-0.00016994278,-0.09413112,0.029130833,-0.018513136,-0.00035713098,-0.03454368,0.048977062,0.038892344,0.06472012,0.12070496,-0.030537067,-0.036624182,-0.051266663,0.0014259567,-0.05715891,-0.09391021,0.02547096,0.06787439,-0.06356562,-0.03168746,0.017865391,-0.033796705,0.013507121,0.02801113,0.017047305,-0.06279032,-0.031572178,-0.07377568,-0.047657702,-0.042794354,-0.024456087,0.06817687,-0.07500803,0.008925945,0.056349248,-0.073074095,-0.07722339,0.04915028,-0.10385318,0.026965292,-0.01769935,-0.013709954,0.04650944,-0.0001520293,-0.023560585,0.041697517,-0.04450405,0.012427622,0.017320806,0.04242021,-0.04637058,-0.031417284,0.052225962,0.050782446,0.0016340564,-0.02940035,-0.053613774,0.021328593,-0.04620667,0.022970047,0.011427565,0.03707552,0.040331304,-0.081010886,0.0037459005,-0.074034415,0.025223315,0.045461558,-0.019026203,0.028338574,0.041466113,0.030926287,0.046191093,0.067392506,-0.010447084,0.00072960695,0.0042925263,-0.03193266,-0.02173201,-0.051318917,-0.018949179,0.050643124,0.022942364,-0.0050502867,-0.0065970663,0.010426112,0.049811848,0.024900358,-0.0012722521,-0.030177347,0.06470929,0.044340473,0.023151314,-0.029275889,0.020860778,-0.03817993,0.033436976,0.041770294,-0.0066668415,0.018585928,0.060691677,0.072323285,-0.036103263,-0.0010320893,0.03401984,-0.052686032,0.01947077,-0.03447724,-0.022827918,-0.043405436,0.04163127,-0.013117133,0.048519704,-0.016351176,-0.055170406,0.02051168,0.016123494,0.054064732,0.027374625,-0.1177795,-0.012836244,-0.046015974,-0.070641555,0.012111058,0.012875029,0.029233344,0.025265861,-0.0257221,-0.024882851,0.045699988,0.06224699,-0.037536833,-0.014497344,-0.06260053,0.013123869,-0.049599122,0.007208085,0.08991419,-0.054693058,0.055332616,-0.008773847,-0.068460956,-0.03385264,0.048124276,0.017684294,0.059087295,0.008213796,-0.053771798,0.02839578,0.06792301,-0.047379896,-0.0033907723,0.013299519,-0.054391053,-0.05961376,-0.04187839,-0.062885575,0.023845557,0.011971928,-0.077173375,0.036457308,-0.053584076,0.04524564,0.05499198,0.07477021,-0.04158999,-0.0116655985,0.06388849,-0.002312447,0.029537361,-0.07176866,-0.015187278,0.045443147,0.05165775,-0.08513861,-0.017573114,-0.051875643,-0.0023495876,0.019638835,-0.011912963,-0.058385137,0.061653074,-0.0719931,-0.039918963,-0.01358498,-0.11318565,-0.05540673,-0.0032692505,-0.06960488,-0.086063206,0.056073986,0.11876151,0.114502236,-0.0528854,0.056268923,-0.0075068166,-0.0015567614,0.010384523,-0.076909535,-0.07890488,-0.039760824,0.06338642,0.09161593,0.015103612,-0.06398112,0.061706286,0.027956164,0.05853994,0.0029139111,0.103362456,0.08196041,-0.049060933,0.038487963,0.074318856,0.019874478,0.021950986,-0.012878678,-0.07533235,0.01955471,-0.07691653,0.04993847,0.004246156,0.018197166,0.05507168,-0.023119517,-0.037876103,0.08230444,-0.13001624,-0.03802927,0.035851087,-0.090146184,-0.011270801,0.07911023,0.051918674,0.011208057,0.013317244,-0.0058602765,0.057886746,-0.11648264,0.0063024214,0.06922569,-0.0007265931,-0.0026935062,-0.00020873072,-0.053503904,0.08475276,-0.033694964,-0.03131751,0.028305054,-0.053947598,-0.052876256,-0.052853074,-0.025838785,-0.07510587,-0.015529288,-0.13375305,-0.026128035,0.017856043,0.057024322,-0.06293526,-0.037326317,-0.021622114,-0.035424214,0.043969125,-0.052234497,-0.04217466,0.034298386,0.08808301,0.033050984,0.008719544,0.016664457,-0.08437014,0.1449531,0.056923695,0.074974895,0.054061055,0.032120056,-0.0013230529,0.058448408,-0.07524962,0.051181268,-0.026039004,-0.0275224,-0.03578744,-0.014763768,0.027895821,0.045138545,0.061862703,0.07529937,-0.04052444,0.04150003,-0.027276816,0.018449022,0.03486096,0.011938002,0.064764686,0.08238291,-0.040786114,-0.028247863,0.014758884,-0.03227136,0.069478825,-0.05134833,-0.024413222,-0.007886554,-0.016893743,0.046864673,-0.0044175037,0.08011299,6.0645078e-05,0.026161876,0.04737363,-0.05316691,-0.012984587,-0.0030169322,-0.056163587,0.032582644,-0.00836004,-0.007180765,-0.06703318,-0.084279634,0.01629263,0.03304579,0.02748651,-0.04374155,-0.06943345,0.039234754,0.088520564,0.07091978,-0.0017829919,-0.04483039,-0.05920055,-0.031306338,-0.04044971,-0.020092728,-0.028466044,0.07699153,0.08461517,-0.016721072,-0.019851126,-0.0040593725,-0.026017448,-0.040046636,-0.07433913,0.003836528,0.043675445,0.05558011,-0.082908995,-0.060639717,0.033374526,-0.05687101,-0.0154496515,-0.10603992,0.019998962,-0.087468214,-0.017725814,-0.04858034,-0.04753654,-0.0653589,-0.07472403,0.089804456,-0.0027447825,0.056798115,0.060914237,0.05623403,-0.037178077,0.013913286,-0.02197277,-0.058201373,-0.08578134,-0.03508057,0.015758103,0.00018318763,-0.07539795,-0.06714885,0.009907147,-0.014086108,-0.009717813,0.027975842,-0.021612246,-0.036809046,-0.03541901,-0.054192223,-0.042352393,-0.0024178636,-0.009373838,0.05785725,0.045846906,-0.03867384,0.04637284,0.0036092056,-0.033658072,0.07920811,0.14085798,0.016575804,-0.08200464,0.0021408258,-0.006142014,-0.02864458,-0.04487726,-0.0043265997,-0.023248566,-0.0037915423,0.07271263,0.06456651,0.018271783,0.012944937,0.037891146,0.0099219205,0.07727075,0.04600723,-0.048092853,-0.016368715,-0.05783765,0.045268066,0.08467586,0.062744394,0.00839293,0.1308161,-0.05607069,-0.054424394,-0.02185236,-0.0059105707,-0.03620499,-0.018967893,-0.044476267,-0.057910122,0.08685482,-0.032192543,0.07680886,-0.03708864,0.0435253,0.03898112,0.0094114635,0.024505686,-0.059249215,0.019712219,0.0393025,8.741302e-05,-0.01703528,-0.003304515,-0.058675647,-0.011562534,-0.077626,0.041541364,-0.066000596,0.035106227,0.06832992,0.029989261,0.04410414,-0.07275923,-0.056440767,0.014869588,-0.01233428,-0.046269853,0.018556805,-0.020511497,0.010860385,-0.108345516,0.0966798,0.0483758,0.026508175,-0.08729837,-0.030630143,0.024131052,-0.039149944,0.056313258,-0.037127454,0.007912291,-0.07325141,0.06108485,0.029497609,-0.033060256,-0.08699619,-0.06758238,0.05137705,0.030316,0.04921216,-0.022392016,0.0014302845,-0.032410845,0.042045545,-0.045294505,0.047119506,0.011070147,0.023611689,6.1263505e-05,-0.047130987,0.009145687,0.0015512406,0.067919925,0.058220945,-0.056937784,-0.04630007,0.05710666,0.005293967,0.048150472,0.022525666,0.008353135,-0.06385627,-0.054744106,-0.029476982,0.054071963,0.045868002,-0.065485485,-0.00094019243,-0.046603482,0.010827671,-0.00266533,-0.10131643,0.060341235,-0.07548896,-0.08842506,-0.040127516,-0.028369928,0.05596138,0.044091135,0.049124856,-0.028608171,0.02031569,0.07445476,0.04993317,0.023080412,-0.0033921127,0.00044034907,-0.07598871,0.03586422,0.017245794,0.04607082,0.071600996,-0.054013044,-0.023453247,-0.0037237378,0.053446434,-0.042172235,0.030678593,0.029940132,-0.03630954,-0.022822995,-0.057420097,0.04694613,-0.072139464,0.03173677,0.07050611,-0.09849933,-0.055680193,0.07870077,-0.033596054,-0.07924689,0.07933023,-0.08601562,-0.09824676,-0.08150031,0.030389726,0.0054426016,-0.03655673,0.0597086,-0.01679824,0.03018657,-0.012581667,-0.030978823,0.024616128,-0.09408855,-0.021576623,0.04478735,0.06794819,-0.054216113,0.0113920765,-0.04979503,0.0148144765,0.028268777,0.058647033,-0.020525867,-0.057922244,0.0064991964,-0.05150569,-0.0609153,-0.027738228,0.04260187,-0.048989493,-0.0049870578,-0.09660574,0.02955033,-0.023797404,-0.036579147,-0.004147943,-0.065039285,0.0054759523,-0.05562724,0.048630413,-0.07222893,0.06022435,0.008363714,0.042194426,-0.029746637,0.04246824,-0.09554796,-0.032699585,-0.017783219,-0.06195458,-0.017743021,-0.03865121,-0.0034460283,-0.061973844,-0.07614044,0.05750241,-0.002551018,-0.074930444,0.05724854,-0.003313072,0.00753302,-0.03648431,0.033487476,-0.056541335,-0.09241799,0.10661741,-0.061471008,-0.05698686,0.02116222,-0.06785034,0.014835006,0.044850647,0.008159671,0.058785047,0.04409584,0.04239154,-0.035641428,-0.043191884,0.041413713,0.030977353,0.0065850364,-0.014998192,0.06138552,0.059443418,-0.067386724,-0.01674268,-0.023302654,-0.03443492,-0.07731867,-0.018914143,0.011707396,-0.07906708,-0.059204593,-0.06379456,-0.08477891,0.08770049,-0.094493136,-0.026216937,-0.0024770128,0.0075251805,0.06431854,-0.04189329,0.06667966,0.006871267,-0.01486407,-0.07436651,-0.022836005,0.06619177,0.092528164,-0.027732376,0.04670949,-0.009446368,-0.028163703,-0.036102563,0.04205069,-0.05270759,-0.03316858,0.015102704,0.018578697,-0.010068721,-0.09243198,-0.077509865,-0.0062151086,0.014656124,-0.013601752,-0.08937514,-0.030416137,-0.025322417,-0.056482878,0.043865036,0.053709824,-0.029008765,-0.0397043,-0.052878544,-0.057558335,0.0017652172,0.061310906,0.05406952,-0.032237258,0.047310736,0.01941446,0.012944171,-0.03595362,-0.024065856,0.0687446,-0.031878285,-0.0048813596,-0.02500339,-0.07003574,-0.016355153,-0.043179106,0.0051252604,0.043444525,0.0070134043,0.04154189,0.014885602,-0.0686443,-0.040665057,-0.009232444,-0.046405,-0.0076466682,-0.0785199,-0.006150206,0.12044386,0.004345821,0.077686206,0.02198393,0.009011653,0.06576999,-0.004643967,0.053327456,0.066126615,0.03832944,0.040429093,-0.025442315,-0.007845216,-0.0219944,0.024302062,0.08477593,-0.041117445,-0.055452622,-0.0841911,0.045913987,-0.034543995,-0.022265814,0.0021219885,0.015662402,-0.012799669,-0.045760248,0.012911564,0.05033214,-0.008827772,-0.01858598,0.017564567,0.043473188,-0.05935316,-0.024889022,0.051232606,0.012301549,0.008478059,-0.028615471,0.013608374,0.055523288,0.0054157698,0.032959543,0.016620107,0.03876448,0.016580919,-0.010760956,-0.0034836284,0.001303741,0.08887267,0.05982919,0.041445598,0.00296125,0.06054753,-0.05187905,0.040317256,-0.013634408,-0.005418242,0.028188588,0.015295576,-0.016332755,0.0015834087,-0.083787695,-0.026404498,0.0037056976,-0.01055287,-0.013382158,-0.05195584,0.034669947,0.0065974165,-0.0055288193,-0.13794065,-0.08442638,0.04474944,-0.03755125,0.029126093,0.11737856,-0.048226926,-0.0141854165,-0.05093347,0.069953695,0.013192476,-0.0071610515,-0.09708207,-0.06491794,0.009374283,0.028787889,0.09604784,-0.0030064934,-0.00019394606,0.087894306,-0.13865775,-0.0030246188,0.0007101155,-0.071564674,0.01827282,0.065300316,0.018810948,0.017084435,0.017858643,0.043577638,-0.08039491,0.03801528,0.059094697,0.0236033,0.000719739,-0.023658205,-0.05268614,-0.06404112,0.0084063765,-0.074847944,-0.002977547,0.0003612257,0.06098041,-0.039193787,-0.04711471,-0.030833468,-0.013194303,0.0104789855,0.047128577,0.0080453735,-0.010107477,0.05433301,-0.04735905,-0.04674389,0.1007519,-0.036514908,-0.0005497017,-0.0126028005,-0.030586166,-0.06320403,0.039064858,0.024434466,-0.0019202308,0.02840462,-0.13261002,0.04322482,0.10274693,0.09581612,-0.057400763,-0.03287819,0.05222748,0.08608846,0.0019652005,-0.042977873,-0.02717894,0.053667974,-0.052979145,-0.04246789,-0.017089643,-0.009489633,-0.009530461,0.11323615,-0.0056638643,-0.048607625,0.04885574,0.10380302,-0.06959652,0.008558511,-0.0033519855,-0.024671106,0.078044705,-0.011948049,0.016986402,0.03911512,0.030417884,0.12015329,0.03741294,-0.034272686,0.032464772,-0.056690134,0.014923836,0.051979054,0.054964837,0.00075163593,-0.024283577,-0.044284683,-0.033545136,-0.020920845,0.031338982,0.043647073,0.0703107,0.019049812,-0.06329065,0.05795179,0.048431356,-0.07954668,0.093779154,-0.011751722,0.040061817,-0.024622686,0.043856896,0.0025435083,0.03431696,-0.041395288,-0.04040164,0.014774367,-0.027923858,0.10116039,-0.06343367,-0.010514886,0.03744806,0.041991364,-0.04040878,0.02782705,0.06385189,-0.005631767,-0.018355388,-0.006902188,-0.003153779,-0.08082684,0.03595366,0.028234616,0.0024969107,0.009813356,0.007929183,-0.039733965,0.054387573,-0.019840088,-0.06436526,0.06171763,0.02346405,-0.063126594,-0.009822057,0.030918304,0.06425822,-0.042004317,0.040382642,-0.02168352,-0.09696266,-0.03398438,-0.04538727,-0.03219514,0.014627037,-0.02094819,-0.058287445,-0.08378031,-0.013727398,-0.06825124,0.007299358,-0.0070735114,0.03350621,0.039516985,-0.04982685,0.02762369,0.026824024,0.04107837,-0.020907955,0.064290464,0.06573568,-0.008642618,0.036466636,0.02692551,0.010977656,-0.048084643,-0.08840996,-0.039945103,0.009542165,0.058036365,-0.041520353,0.06667007,-0.008958214,-0.020070087,0.08145358,-0.027761716,-0.041406833,-0.011699337,-0.043473076,-0.0117794825,-0.07538881,0.07201383,0.011405554,-0.05064147,-0.06499639,-0.031200241,0.04634543,0.06764455,-0.078445666,0.07075854,-0.031377275,-0.046670653,-0.04546769,0.028461112,-0.003692817,0.062537424,0.01769951,-0.012007393,-0.025304975,0.07363409,0.065965116,-0.058290098,-0.03236238,-0.005800835,0.023588814,0.09326065,-0.048425112,0.004763255,-0.028205015,0.034494992,-0.05691737,0.025996275,-0.011426168,-0.088487916,-0.12588024,-0.073682554,-0.08488997,0.008074823,-0.024386043,0.059669245,-0.013006841,0.0651767,0.017713308,-0.020003486,0.10436639,0.050061006,0.052687358,-0.049760696,0.018124156,-0.0619515,-0.071810804,-0.094527364,0.015747212,0.056837015,-0.029010158,0.03804568,-0.037395515,-0.1031431,0.12003866,-0.10271508,0.06374339,-0.08772589,0.055661112,-0.07506264,0.055157017,-0.08376631,0.09896711,0.041270517,-0.068219125,-0.031213008,0.0540836,-0.01919451,-0.113987476,0.026793538,0.048073985,-0.0061856653,-0.0019882729,0.049204234,-0.020662563,-0.03998546,0.03627217,-0.042243805,0.054705724,0.046748437,-0.083631404,0.029627787,-0.028764006,-0.009570014,-0.089399785,-0.031859186,0.038111385,0.06943432,0.079366826,-0.11185476,-0.06336941,-0.08044484,0.08166773,-0.023727588,-0.056598797,0.009534634,-0.057751693,0.026655592,-0.07118424,-0.038618363,0.032120656,-0.062060542,-0.114877135,0.035401132,0.0047538355,-0.035304476,0.065087005,-0.09662258,-0.014808371,-0.051450364,-0.04050232,-0.024426078,0.01658512,0.07514844,0.036187783,0.06090446,-0.043261558,-0.04805953,0.010658069,-0.04825919,0.0018512245,-0.020867126,-0.00649146,-0.040272932,0.016849658,-0.11767246,-0.029180972,-0.014276761,-0.015192102,0.07390752,-0.00010677724,-0.0356859,0.04419996,0.079752564,0.037592586,0.059030637,0.039380446,-0.00042285686,0.0365429,-0.014494506,-0.005747427,-0.064849265,0.028670808,-0.054553896,-0.045182955,-0.044387445,0.054802086,-0.038868465,0.056149267,0.025004264,-0.017687703,0.03955658,0.084701575,0.024204142,0.0035787155,-0.03845289,-0.029938772,0.033588152,-0.03167337,-0.07779709,-0.08778699,0.058638543,0.027155492,0.004207416,-0.050117996,-0.04936332,0.04923709,0.026899336,-0.0011518208,0.011411868,0.024954082,0.03463822,-0.058794156,0.0059195785,0.008908767,-0.051730733,0.06370469,-0.05695314,0.008387662,-0.032858316,-0.08233989,-0.02691685,-0.054685254,-0.03288003,0.014488103,-0.036829807,-0.012122903,0.011880241,0.06952355,0.06590902,-0.013419643,-0.04366521,0.038603228,-0.0062083323,-0.032254737,-0.02927133,-0.015138523,0.025706224,0.01540368,-0.04029806,-0.043843284,0.07353496,0.018596407,0.06484132,0.02945568,-0.0016624721,-0.060705595,0.019013602,-0.0029395397,0.01554373,0.04634824,0.04276738,-0.013914336,0.016107403,-0.061217096,-0.07318813,-0.04565611,-0.0048682066,-0.015150291,-0.018946026,-0.008508715,-0.054017164,-0.004860545,-0.0008144354,-0.01642476,0.037701983,-0.03657735,-0.04223075,-0.02143125,-0.03605644,-0.051497076,-0.02628277,-0.04638493,-0.037506238,0.05138206,0.05113191,0.018399315,0.012017667,-0.029838867,0.0448742,0.014016814,-0.04551511,0.112586915,0.13648303,0.027427321,0.020610644,-0.08708836,-0.00951827,0.03633613,0.016922425,0.020997416,-0.04595227,0.0835118,0.04481735,0.105067745,-0.08495415,-0.0032744606,-0.06437267,-0.026154345,-0.024551313,-0.06925335,0.028334098,0.024254749,-0.05084108,-0.0068718567,-0.074641116,-0.023134876,0.04768077,-0.020652967,-0.09224652,0.025983771,0.0072887377,-0.0812582,0.058205202,-0.05990299,0.010529383,0.02472101,0.044711012,-0.038698774,0.056487832,0.08432314,-0.1189858,-0.04185487,-0.025806516,0.007325766,-0.05978677,-0.06450357,0.04948496,-0.11214379,0.019865105,0.07359318,0.053044714,0.041346587,0.008077097,-0.10674938,-0.038106866,-0.024594624,0.013207674,-0.002720219,-0.007917964,-0.036449444,0.10300004,0.013171867,0.078380585,0.056503158,-0.05305388,-0.07842499,-0.08000346,-0.0413596,0.012093213,0.050002024,-0.051360365,-0.11832258,-0.015857026,0.018523421,-0.00321002,-0.10424384,-0.06264351,0.04500661,-0.063364,-0.057956308,0.019416185,0.003876637,-0.06451298,-0.04442337,-0.063841894,-0.04037307,-0.04208359,-0.079086475,-0.016316054,0.061039597,-0.05338487,0.04483389,-0.047108795,0.047080208,-0.043551542,-0.037514236,-0.040023997,0.037355825,-0.056308236,-0.07618492,-0.038591072,0.060490385,0.043448947,-0.0020007647,-0.013039709,0.008105002,0.01992302,-0.04772525,-0.086177446,0.0094180815,-0.064021304,0.037924528,0.042640593,-0.026432179,0.071175955,-0.010833321,0.04054696,0.0133439135,0.03377302,-0.058857944,-0.0010374036,0.054191265,0.052170217,0.056880083,0.031045433,-0.06839505,-0.08167648,-0.0068549495,-0.031168822,-0.04398654,0.06225438,-0.043077167,0.014078716,0.005886736,-0.048522506,-0.011186931,-0.031306174,0.030404693,0.029359173,0.034142982,-0.010293487,-0.04853218,0.06842351,0.0035327994,-0.059054445,-0.036253687,-0.0052926242,0.049988437,-0.07244359,0.03886546,-0.08226248,-0.054008864,-0.03466521,-0.07031247,0.057506908,-0.038749333,-0.028990423,-0.071457,-0.05118036,0.0706046,0.0117158545,0.06012834,0.055365272,0.05378706,0.029482538,0.08571531,-0.119442664,-0.024246536,-0.08281851,0.046502996,-0.03426991,-0.033040933,-0.009453503,-0.001958796,0.010218246,0.05281741,-0.051921923,0.03146548,0.04512716,0.0031484095,-0.03539535,0.030538844,-0.009880397,0.021264924,-0.0022476607,0.004333885,0.00354118,-0.041237947,0.002312862,0.026815135,-0.05795832,0.057116315,-0.06476283,0.031724248,0.030862184,-0.04450377,-0.040673967,0.02599863,0.01031299,0.00925668,0.040488962,-0.07714376,0.04971046,-0.010196129,0.080144756,-0.06984146,-0.012359605,-0.03925635,-0.03205745,0.07352733,-0.03303633,-0.032134958,-0.10002858,0.02798427,0.029428583,-0.012426868,-0.007371442,-0.06565071,0.05249744,-0.060988568,-0.03496764,-0.026378067,0.05526625,-0.014309961,-0.015087627,0.0012174664,-0.053138465,0.09953089,-0.037005004,0.08491947,-0.017327538,0.025434889,-0.062540874,0.010784149,0.039677624,0.010281068,0.017234573,0.024693044,-0.0290471,0.07968756,-0.03147156,-0.069631495,0.03504236,-0.007112226,0.058933966,-0.014847842,-0.0633741,0.0013938969,-0.0086528305,-0.014688055,-0.0642309,0.0077764136,-0.057849515,0.033821765,-0.007628663,-0.0032781966,0.04479862,0.036610838,0.03680944,-0.05752496,-0.0011803323,-0.03500981,-0.025469162,0.076553345,-0.038794547,-0.012617271,-0.0004646991,-0.016926277,0.00801568,0.026071468,-0.014114333,-0.0076389615,-0.014323793,0.042294458,-0.0682374,-0.021784607,-0.016366404,0.005193028,-0.06563158,0.06723103,-0.008092813,-0.036292333,0.018625628,-0.07825226,-0.024575617,-0.009979034,0.011149473,-0.055684876,-0.051883083,0.014651453,0.05266691,-0.09466396,-0.011243026,-0.047810264,-0.08080284,0.05080577,-0.07182785,0.056460798,-0.05736351,0.0112955235,0.005029142,-0.04993589,0.013921427,0.010203804,-0.06113573,-0.01775299,0.009618935,0.021126054,-0.056198865,-0.05529423,-0.04977114,-0.005362046,-0.015566009,0.010051205,-0.07235694,-0.009182011,-0.05660221,-0.012631335,-0.07302829,-0.044532552,0.020128021,0.021716792,-0.0032433849,-0.023669455,-0.09084543,0.013767985,0.0492744,-0.04751534,-0.08350157,0.04492168,0.0055407486,0.08697857,-0.037656166,-0.011066017,0.014276506,-0.05987228,0.05834914,0.066903606,0.0018232837,0.03580828,0.009493153,0.015251476,-0.04756119,0.00856933,0.012266801,-0.0010730813,-0.013090451,-0.08561537,-0.07248967,-0.054662965,0.044042386,-0.032937195,0.028687783,-0.0042815204,0.053398237,-0.012464222,0.0043153446,0.009849201,0.01652709,0.04341757,0.059164435,-0.07028283,0.010302249,0.03470259,0.018865572,-0.0033889036,-0.0733176,0.068947054,-0.023422021,-0.017502999,-0.060738795,0.049547117,-0.0055105193,-0.05239361,0.06708619,-0.07255142,0.012925615,0.048347924,0.049267393,-0.06704,-0.007083714,-0.0220179,0.006549489,0.084985584,0.04065419,0.014083644,-0.024374012,0.04154868,-0.0066601224,-0.04927614,0.011227428,0.022165207,-0.049367405,-0.05540037,-0.02681684,-0.006260955,0.011694372,0.024500545,0.034255538,0.03236935,-0.071543396,-0.023422234,0.0025772452,-0.13442998,-0.06622475,-0.017017925,-0.08084972,-0.071027584,-0.02222395,-0.0974665,0.018200452,0.028804729,-0.028665634,-0.04465186,0.040610958,-0.0023565514,-0.07066032,-0.05482744,0.01542043,-0.06197714,0.055578932,-0.07404737,0.05004544,0.09951499,0.029056383,-0.047742404,0.005672185,0.05351421,-0.044755362,0.027289882,-0.04382456,0.029621214,-0.035097167,-0.048417125,-0.076326214,0.026456324,0.054130908,0.015270907,-0.038658045,-0.03481931,-0.013500285,-0.028643982,0.037706755,-0.027385486,0.013930756,0.0051113367,0.047089357,0.042966206,-0.041548032,-0.0016222805,0.014130137,0.011281454,-0.06707892,-0.028333485,-0.008619147,-0.07293073,-0.0357311,0.046785526,-0.04262193,0.036988232,0.0038738556,0.021099638,0.05069708,0.07890428,-0.04696344,-0.005741691,-0.03521822,0.010061233,0.024844352,0.1382429,0.083133176,0.00041150302,-0.055759918,-0.056310467,-0.09814533,0.0077619357,-0.08392145,-0.05466095,-0.04891754,0.06819337,0.06966716,0.038165573,-0.0071646334,-0.03391697,-0.0095238555,-0.02802926,0.06610555,0.08723986,-0.018253902,0.049436204,0.010382608,0.042484444,0.08515992,-0.08999394,0.05757951,0.029709708,-0.057069983,0.00938263,-0.035503794,0.033826195,-0.039340694,-0.05244234,-0.0019950743,-0.012209444,-0.025124134,-0.02377071,-0.0329212,-0.035703674,0.05699313,0.048314296,-0.038681835,0.023010377,-0.047266677,-0.064368874,-0.023350395,-0.059656963,0.01881862,-0.068809964,-0.056279924,0.042175133,-0.030644167,0.029506527,0.022871405,-0.10250888,-0.063671105,-0.05404871,0.060471453,-0.09607629,-0.001809901,-0.082002744,0.011613473,-0.030335948,-0.06223655,-0.014876802,-0.08265115,-0.0066848025,-0.023995647,-0.08678811,0.0014671308,0.05741572,0.04177611,0.033637814,0.017555945,-0.037197847,-0.019761503,0.083558574,0.031327963,0.04344715,-0.058056854,-0.034322917,0.030407947,0.07857313,0.045681447,0.012020381,-0.038331896,-0.0072270217,-0.012806618,-0.04192885,-0.011713768,0.029362533,0.050245814,-0.008365675,-0.080770105,-0.0034487974,-0.05832363,-0.024810068,0.072468475,0.04145655,0.04765162,0.049810052,-0.015136494,0.08377871,-0.07879407,-0.028882153,-0.083948694,-0.013091697,-0.090573736,-0.016243815,-0.044392407,-0.027226878,0.014382821,-0.012797908,0.057329655,0.10429518,0.008384526,-0.024547761,0.08336485,-0.009357722,0.06143661,0.055139277,-0.012995636,-0.047704175,-0.028751493,0.050037235,0.013543397,-0.060466815,-0.023968043,-0.044357188,0.006131901,0.048292954,-0.042976096,-0.09647357,-0.05147882,0.11449209,0.044379618,0.082218386,-0.066867955,-0.071586035,-0.049050312,-0.10623786,0.049237777,-0.031617146,-0.0021837475,-0.06771028,0.120449685,0.042413242,-0.00043865028,0.061123107,-0.036016684,0.011295531,-0.08748048,0.016394485,-0.024557414,-0.013659727,-0.0026797007,-0.0017061366,-0.056532644,0.015672052,0.025923697,-0.05036122,0.0011094814,0.08964682,-0.07797726,0.017412934,-0.0934716,-0.02015282,-0.0024725494,-0.11814992,-0.03739617,-0.077582635,0.01609271,0.030195704,-0.03827125,0.08666851,0.024266055,-0.044214513,0.0005508753,0.09223427,-0.019687911,-0.07166673,-0.003956408,-0.035805695,-0.009380648,-0.00031900068,-0.072742514,-0.0030675072,-0.057805467,-0.10309359,0.029520072,-0.12118232,0.0504266,-0.04640346,-0.12879811,-0.0014509037,-0.036877118,-0.034431893,-0.089377336,0.0008276875,0.043562442,0.034861807,-0.040018152,0.0027164342,-0.033648595,-0.007512151,0.031827662,-0.014393486,0.005862173,-0.04363902,0.059395544,0.06577278,0.031057045,0.015037092,-0.08530982,-0.02751531,-0.09226035,-0.047374167,-0.0044993646,-0.09907821,-0.0021207193,-0.031135855,0.002339438,-0.010170443,0.018411206,-0.05564867,-0.03139557,0.056314286,-0.06976696,0.0069927163,0.0069420272,0.030094935,0.041121278,0.005286268,-0.08904284,-0.03977339,-0.01333325,0.012140315,-0.008197725,-0.04773675,-0.028160196,-0.035075806,0.03462935,0.014778426,-0.035546467,-0.033120338,-0.068235606,-0.036070086,-0.067451715,-0.039946232,-0.04603012,-0.08013949,0.043128315,0.03532786,-0.008682653,-0.07300245,0.068127386,-0.038050115,-0.058727406,-0.03824895,-0.06418453,-0.10344748,-0.08320989,0.016099965,-0.00044123063,-0.0037107582,-0.027864888,0.064451195,0.014523134,0.04875609,-0.041179877,-0.065060765,0.0019818076,0.004114736,-0.06543733,-0.00933842,-0.036435954,0.054997273,0.006673767,-0.0922043,0.037031192,-0.08342166,0.0018632124,0.05796296,-0.05901801,0.07127891,-0.057627685,-0.0132307885,-0.039940458,-0.045865633,0.030451953,-0.019122086,-0.037317276,-0.05545773,-0.031114912,0.015866844,-0.039692413,-0.023557799,-0.014625156,0.030475987,0.01929534,-0.07712132,0.013203565,0.06859929,0.05948067,0.018448818,0.01837538,0.056448225,0.025898619,-0.03567421,-0.04183313,0.04203672,0.08271417,-0.065924056,0.0048882663,-0.006350876,0.058020312,-0.012748006,0.030268246,0.056321446,-0.08199517,0.040213242,0.072982945,-0.06553639,-0.026367247,0.0035953717,-0.029246032,-0.029340787,-0.06433955,0.058399618,-0.05533792,0.054802444,0.059560068,0.06023942,0.00800631,0.05169764,-0.016330946,0.03205605,-0.018188016,-0.0019121708,0.010028988,0.014579847,0.037138704,0.032638796,-0.07799765,-0.077242784,0.006950606,0.056685634,-0.04497449,0.0069418806,-0.016393403,-0.03336267,0.046900783,-0.031532623,-0.06896515,-0.078909226,-0.02839542,-0.05060692,-0.06795123,-0.007921645,-0.029407963,-0.021651749,-0.051826775,0.016995344,-0.013425866,0.050928734,-0.023489365,-0.011245038,-0.013359146,0.0045767813,0.043773867,0.056279335,0.04486418,-0.05376645,0.029613651,0.096602604,0.08787834,-0.037211042,-0.029576,0.04022779,-0.025214426,0.04841939,0.04999247,-0.051355507,-0.10197421,0.01445051,0.0032554474,0.0071616545,0.0426625,-0.04600642,0.015912041,-0.056998823,-0.051762346,0.032137245,0.0028127749,0.011926013,-0.018642794,-0.0025724054,0.022922635,-0.053969257,0.067697436,-0.08157367,0.0043190485,-0.066236556,-0.051871017,-0.018974554,0.07326226,-0.020202486,-0.025860397,-0.056489058,0.021027578,-0.03375596,0.0011171817,0.04744158,-0.025378484,0.05708465,-0.061389636,0.046050806,-0.017016856,-0.10476615,-0.06719129,0.032511383,-0.050271705,0.047386367,0.048723027,0.002240708,-0.024183596,0.018547319,0.03580578,0.05058241,0.047843438,-0.060648188,0.048518613,-0.087375574,0.058906727,0.06768227,-0.031290572,-0.003920053,0.04850366,0.13934891,0.05352944,-0.0021642097,0.07736468,-0.04329542,0.03912255,0.03282307,-0.066391096,-0.007216217,0.05866159,-0.036494877,-0.07520133,-0.060003962,0.055000562,-0.0034631966,0.053188697,-0.057681635,-0.076290846,0.031862225,0.05831474,-0.026548585,0.009609788,0.01985118,0.038768865,-0.079198025,-0.04846763,-0.016058927,0.04452278,0.035575595,0.043748997,-0.06978758,-0.041048996,-0.026091695,0.0491415,-0.068441175,-0.012888067,0.030991858,0.035481732,-0.069483034,0.058934156,-0.057687085,0.0445609,0.045473337,-0.04477445,0.087635845,-0.042683173,0.010560129,-0.07392157,-0.02573365,0.06705384,-0.083129026,-0.056509666,-0.057653792,0.041096184,-0.02635118,-0.003853497,0.012529552,-0.039426845,0.0706986,0.00956055,0.03801119,0.008113499,0.025578704,0.024792692,0.005709679,-0.07971686,0.0036142438,-0.029373728,-0.11228607,-0.047984604,0.01149381,-0.04132743,-0.10689128,0.11397207,-0.053621266,-0.07795699,0.007958687,-0.062622815,-0.046803698,0.066666536,-0.039030276,0.12408168,0.1531507,0.032888263,0.017823966,0.010743093,0.028624699,0.04699764,-0.063117914,-0.066661544,0.058387883,-0.09595456,0.01538028,-0.04159057,-0.04294312,-0.107736774,-0.07879963,-0.09613872,-0.08614714,-0.033699177,-0.073705785,0.021349614,0.059449397,-0.11319788,0.019785663,-0.066818565,0.13388573,0.051288486,-0.08760165,-0.017058633,-0.04425699,0.0062149395,0.08373044,-0.13973077,-0.06483341,-0.062135,0.0744516,0.018985298,-0.044446398,-0.055195425,-0.0008327101,-0.031625215,0.060827766,0.033925574,0.066210404,0.0028881175,0.009476755,-0.08583856,0.06481866,0.08523205,0.016837634,-0.011734723,0.04276225,-0.060819957,0.044044603,-0.07364227,0.024788326,-0.028952237,0.067220084,0.032243248,0.035531223,0.025757017,-0.082599565,0.06321957,0.096196,0.0030684033,-0.0467823,-0.037491817,-0.024533773,-0.0071035996,-0.028809097,-0.07169759,0.0013765716,-0.04024248,-0.026494248,0.047593433,0.0932139,-0.07769746,-0.01263738,0.056681063,0.10339246,-0.03722745,-0.05635723,-0.033227276,-0.06511942,0.008658066,0.06392884,0.0139541635,-0.08271416,-0.029257424,-0.030659098,-0.05601434,-0.065837696,-0.070906855,0.029460402,0.018028492,-0.014856161,0.02755803,0.020328736,0.036460202,-0.0032612626,0.066927515,0.11500018,-0.008644141,-0.016877443,-0.031810664,-0.037338722,0.04206082,0.099417895,0.012081994,-0.01476902,-0.06221356,-0.031005165,0.06633208,0.044460744,-0.04583749,-0.004439796,0.024963722,-0.03981579,-0.059796788,-0.055253886,0.029403744,-0.029079832,0.08398343,0.05027938,0.09388654,-0.011788071,0.006742357,-0.04225912,0.0037645241,-0.054451026,-0.040057532,-0.0779662,-0.040794045,0.02652076,0.010990733,-0.022978505,0.019671533,-0.013970853,0.019492814,0.007717671,-0.015404083,0.036481548,0.11640849,0.08605711,0.057254873,0.03966649,-0.0731711,0.015640393,0.00765137,-0.0043352856,-0.048129544,-0.0119440155,-0.0011923022,-0.044140656,0.01679688,-0.06591556,-0.016950076,-0.0596374,0.01635793,0.0068860585,0.079222,-0.0023683324,-0.022114968,0.078329384,-0.08615052,-0.026989564,0.06720046,0.029576553,-0.043986436,-0.07786534,-0.044561133,0.07291493,-0.015107011,0.031954154,-0.0114771975,-0.008375948,-0.058152467,-0.08221653,0.05838594,-0.03449516,0.008644819,-0.021205803,-0.043130867,0.07586955,0.013594027,-0.10515755,-0.07038295,0.05471282,-0.020008154,-0.052984457,0.0018123296,0.0051179775,-0.019699398,-0.019250127,0.0049265297,0.0065463455,0.054189608,0.08566817,-0.06976729,-0.011869287,0.052600946,0.04876919,-0.12931105,0.03000754,0.10960903,-0.01895179,0.03284632,0.017979974,0.03344611,-0.06742942,0.010760785,0.040259503,-0.044956718,-0.010726921,-0.0037494544,0.08906278,0.064018965,-0.024365207,0.08770606,-0.0679707,0.055081747,0.10325071,0.025096232,0.048729938,-0.026280781,-0.036724493,0.022758856,0.09794273,0.020841338,0.024241503,0.06412486,0.047538582,-0.053314403,-0.07836364,-0.09382985,0.04600653,0.014214349,-0.049798638,0.076739304,-0.019886607,0.05861727,0.013152354,0.04259579,-0.058509618,0.0060513546,-0.10308045,-0.041294172,0.028409574,0.033490542,0.012619293,0.011248605,0.05506043,-0.011953008,-0.018990137,-0.03056182,0.025492914,0.09067533,-0.031042201,0.009856582,0.008022518,-0.0750344,0.060918316,-0.07700305,0.07754287,-0.07235482,0.103465095,0.046816442,-0.06455209,0.06066533,0.021871973,-0.029343197,-0.05599135,0.040385455,-0.06053761,0.015509946,0.06921516,0.055490147,-0.019154506,0.033901405,-0.063248694,-0.021269986,0.0021246106,-0.06106516,0.021842193,-0.022744203,0.023440648,0.06792858,-0.06973119,0.035680242,-0.04241368,0.036908254,-0.02328306,-0.078316614,0.037182722,0.037812643,-0.008984966,0.027180152,0.034761757,0.0026557925,0.034046948,-0.0026260633,-0.0486436,-0.049447585,0.037656862,0.009205618,0.073116854,-0.027487198,-0.016631467,-0.035485454,-0.05510909,-0.051263034,0.01143274,-0.12607023,-0.09966755,-0.027929552,0.030174883,-0.037485346,-0.02432201,-0.06802859,0.0028596697,-0.02047477,0.01519246,0.071129605,-0.070081,-0.07513733,-0.04459325,-0.058827773,-0.012874873,-0.04038795,-0.003159769,-0.048869006,0.05176461,-0.014574605,-0.07865797,0.05078564,-0.009390679,-0.056284655,0.042282887,-0.046729397,0.00700899,-0.050618235,0.023161897,0.06758513,0.038029876,0.05816314,-0.07452264,0.038445845,0.0051313816,-0.028247705,0.018293153,-0.050977305,0.084935345,-0.011542646,-0.040606238,-0.05328423,-0.022547953,0.00072181824,-0.021071227,0.112145826,0.049728632,-0.026147274,0.0152492,0.00535009,0.07195744,0.08743239,0.019692825,-0.016200345,0.08092843,0.021458378,0.099674195,0.004491256,0.004356074,-0.052737214,0.034253597,-0.06533605,-0.12764032,0.012737832,0.025046617,-0.019012213,0.05372017,0.004563808,0.023459105,0.03974271,0.0364336,-0.008371648,-0.06778647,0.083943084,-0.051044017,-0.017912807,-0.021416733,0.00068566634,-0.06642092,0.04068208,0.015469424,0.040304936,0.017296331,0.010499701,-0.0463907,-0.06886568,0.051527087,0.04405996,-0.09155125,0.053105853,-0.058388155,-0.034342736,-0.018902212,-0.027947849,0.025125278,-0.068813086,-0.047318548,-0.031565987,-0.015892206,-0.041199394,-0.0429635,-0.029538533,-0.036162097,0.08220405,-0.09237204,0.0019360004,-0.013940247,0.05567398,-0.009983149,-0.042479225,-0.036023956,-0.10009598,0.003720976,0.06079162,0.05694969,-0.082491554,-0.024171822,-0.07695663,0.04343336,0.06194756,-0.099497244,-0.012433294,-0.09204753,-0.011874571,0.008209324,-0.05863518,-0.053514443,0.0034189094,-0.0130306175,-0.025864322,-0.058229983,0.0445587,-0.097168095,-0.09418558,-0.048835166,0.047331102,0.04902896,-0.024729846,0.005199096,-0.03963315,0.006920084,-0.06501828,0.0063326596,0.015014497,-0.03964864,0.04103691,0.06237433,-0.04445779,0.014153963,-0.028312473,-0.018548377,-0.03750234,0.04475006,0.021574667,-0.03031096,0.012683114,0.06496665,-0.009967436,0.03497249,0.02260917,0.016148375,0.01903819,-0.097217485,-0.015251529,0.036849245,-0.020370996,0.01653746,-0.07869137,-0.03935959,0.05683032,0.0075147543,-0.019382585,-0.044157766,0.056601245,0.057576023,-0.06755597,0.018594496,0.069721565,-0.041741695,0.051701188,-0.00850226,0.059130143,0.052526977,0.09639474,0.0151392175,0.095285624,-0.022436704,0.0020734945,-0.06491631,0.00197531,0.034912642,0.018342383,-0.043874316,0.09280807,-0.059430648,-0.0016871713,-0.0020796857,0.074073255,-0.059933536,-0.090983905,-0.050937533,-0.06744165,-0.057725396,-0.00990937,-0.00076634134,-0.026997052,0.00044452868,0.076832846,0.029413119,0.04340957,0.042357836,-0.03800401,-0.0038369908,-0.0006790252,0.0024369075,-0.026103197,-0.04186223,-0.015207537,0.0055296975,-0.007424546,-0.030144943,0.009851193,0.039318003,0.012868312,0.01782817,-0.027123304,-0.033541124,-0.00031484396,0.013299838,-0.093482085,0.008175878,0.024244023,-0.057467043,0.019158538,0.038300328,-0.038219824,-0.027637178,0.0644625,-0.046725735,-0.05339668,0.04127412,-0.037945658,0.016393175,0.042786274,-0.06650532,0.084598154,0.035269693,0.025880117,-0.02998608,-0.047727857,-0.032134227,-0.0038507432,-0.016608426,0.05549816,0.055408265,-0.039395284,-0.0125309685,0.099100806,-0.07289623,0.043063816,-0.047474127,-0.07102447,-0.052772645,-0.06394205,0.0113898255,0.011906284,-0.025068918,-0.07261798,-0.05544455,-0.0631172,-0.010623887,-0.0035074118,0.016952127,0.034157727,-0.0087979995,0.03362322,0.017275352,0.02634951,0.0519876,0.038246643,0.05824171,-0.059319533,0.0937671,-0.065341294,-0.069322616,0.018067904,-0.059467595,-0.029746635,-0.050777577,-0.03792901,-0.053147215,-0.08008028,0.08561729,-0.063761376,0.05218892,-0.1068391,0.07082618,-0.00621751,0.07518932,-0.026536293,0.016980635,-0.039625958,-0.07285584,0.023700012,-0.069478415,-0.03799904,0.023205418,0.049938284,-0.061199613,0.044072922,-0.02306719,-0.008258234,0.020533878,0.0048040655,-0.03481381,-0.047951903,-0.116630256,0.05724889,-0.028516,-0.09317194,0.037044052,-0.068269856,-0.07123683,0.019778868,-0.02230534,-0.07511445,-0.009359864,0.03331284,0.115829006,-0.012525223,0.058724124,-0.064641505,-0.015808435,0.023254076,-0.067205176,-0.094745755,-0.015686834,-0.009252819,0.023491241,0.011848751,-0.016228875,0.028328609,-0.0076498818,-0.00870067,0.005943759,0.05745179,0.0030177142,0.048323024,0.04870324,-0.068480805,0.021350844,0.0012687685,0.07211696,0.057171054,-0.07143829,-0.009329896,-0.06903333,-0.059537463,0.048526935,-0.0061780885,-0.033166118,-0.024669014,0.019982781,-0.007381646,0.042442173,-0.07916965,0.0887725,-0.009297861,-0.11275074,0.06486005,0.043597635,0.019169446,-0.006504312,-0.050007313,0.06934089,0.11620325,-0.046052698,-0.0024861011,0.011329531,-0.03356079,-0.018033601,0.051892877,-0.016331825,-0.058532648,0.032078747,0.034240555,-0.000626944,0.032079775,-0.01542493,0.07797728,-0.07001134,-0.051219027,0.07718938,0.03861688,0.024537379,0.03846349,-0.047256213,0.013223585,0.090305775,0.0018995891,0.014644737,-0.054387186,-0.046224695,-0.060162973,-0.07428335,-0.008869721,-0.027648069,0.016701514,0.009643352,-0.00946771,-0.04495899,-0.013179941,-0.072536334,0.012789949,0.012554693,-0.050142333,0.05904938,-0.020897206,-0.09863014,-0.08535126,0.030984292,-0.0069930837,0.05649559,0.024402484,0.063387744,-0.048764985,0.086508684,0.031028425,0.06468242,0.026824329,0.038504455,0.033086948,-0.101372026,-0.019631697,-0.028049834,0.06291847,0.018394552,0.093233444,0.013975642,0.036956567,0.041793607,0.024173142,-0.03931804,-0.013945506,-0.08201354,-0.07326483,-0.043699045,0.042812034,-0.009457019,0.024176257,-0.037809566,-0.008329684,-0.035505492,-0.0188526,-0.0719324,0.06130026,-0.04887629,-0.030280378,0.048347436,0.0241494,-0.012137862,0.005180348,-0.040027212,0.07162037,-0.050363094,-0.022314651,0.02502025,-0.0073553747,0.037221696,0.043536082,-0.09204873,-0.03432792,-0.011563152,0.0127978055,0.06932053,-0.0040177214,0.047584128,0.032021742,-0.059168547,0.027803287,0.0055842246,0.016657254,0.020462006,0.034819562,-0.05571094,-0.04144891,-0.042230193,0.014019159,-0.03935992,0.016010974,-0.033273,0.025786713,-0.03209866,0.029633755,0.0006872628,0.028215392,0.009948322,0.07532498,-0.0005207992,-0.015205018,0.031953547,-0.00095128507,-0.06786622,0.059906702,0.050046522,0.039478604,-0.018183436,0.010547791,-0.12190832,0.028434724,-0.12247169,0.045794424,0.085165046,-0.1468733,-0.037241615,-0.012997007,0.025207348,0.008015509,-0.04158601,-0.03033371,0.04581186,0.002049256,0.036439095,0.048822984,0.0023790353,0.031220391,-0.032344177,0.09360324,-0.027397525,-0.008106291,0.06166216,-0.048736654,-0.0029222297,-0.07668054,0.011132813,-0.06131837,-0.08074909,-0.049527407,-0.048561763,0.029154591,-0.028578691,-0.07445624,-0.012349916,-0.05765622,0.0253718,1.4504698e-05,-0.015125048,0.051030375,-0.05560653,-0.0020914169,-0.0014625909,-0.015303542,-0.06744019,-0.16753449,0.0072573633,0.06120656,-0.033682562,0.004540275,0.08371074,-0.118139096,-0.061108805,0.0031641254,-0.0056249676,0.016003245,0.03728503,-0.10562277,0.054016676,-0.037230253,0.032358833,0.06933635,-0.058867965,0.029387334,0.028597374,0.0028125122,-0.12524748,-0.102003805,-0.011875306,0.018049395,-0.0060639493,0.036766917,0.00221392,-0.00097271166,0.0067341854,0.014622828,0.034650426,-0.013459381,0.021087589,0.062657505,0.026714318,0.012646827,-0.018868076,-0.03802586,0.04712773,-0.044440124,0.03362826,0.02052312,-0.070688605,0.04312127,0.037459116,-0.03569521,-0.12774158,0.037228864,-0.021950806,0.07325993,-0.074956425,0.089850925,-0.00070318626,-0.081397325,-0.09479907,-0.050472617,0.059594642,0.014094452,-0.05801161,-0.071513385,0.063614175,-0.040375296,0.017643536,-0.072522186,0.08333732,0.051286962,0.016737834,0.015107355,-0.08266039,-0.084888764,-0.0097008925,-0.07270644,0.11405819,-0.045945905,0.021193387,-0.09771422,-0.06653364,0.04235096,0.04463379,0.049532987,0.0854038,0.022225387,0.0714764,0.015631586,0.0018236644,-0.0434005,-0.024595173,0.022364035,-0.02735614,0.05593081,0.052689116,0.07030137,-0.013263347,-0.0536621,-0.040180583,-0.034364633,-0.0614809,-0.06830948,0.004581675,-0.030697174,-0.03542434,-0.0008861338,-0.0009218668,0.009191191,0.033193246,0.0040360815,-0.032921817,0.018233575,0.022180993,-0.09078137,0.06272087,0.014986346,-0.071190774,-0.020539137,-0.021706395,-0.040798582,0.04936986,-0.048354026,0.008505791,-0.01370086,-0.053200677,-0.009143163,0.025930779,-0.0005096005,0.03735443,-0.019799361,0.0817747,0.04629272,-0.021413501,-0.010911531,-0.0001909396,-0.00811071,-0.04476688,0.021206282,-0.12842792,0.0074184844,-0.09038318,0.0673909,-0.0465505,0.028968861,0.0026821299,-0.035664935,-0.0021186743,0.06670475,-0.023997163,-0.05246369,0.045694757,-0.023136437,0.04635593,-0.0027791094,-0.09278428,-0.06283238,-0.008695038,0.049289852,-0.052103672,-0.03438304,-0.037283506,0.08294072,0.018544722,0.021899661,0.026642174,-0.030227643,0.015903931,0.0041571176,0.017733607,-0.07803346,0.044829093,0.009512666,-0.058269255,-0.05683918,-0.027332729,-0.060650956,0.0082548885,-0.011606051,0.058082446,0.043799043,0.004756149,0.0022349677,-0.0017203675,-0.0015832472,0.093875304,-0.04544827,0.011908859,0.0050030043,-0.096087776,0.014073962,-0.029628998,-0.034965508,0.11565078,-0.10462208,-0.0032220804,-0.05139166,0.07717855,0.06239532,-0.062625214,0.018123183,-0.014883177,-0.07745937,-0.114097565,0.06145616,-0.022265673,-0.03221718,-0.00039503892,-0.057030864,0.06247836,0.05193977,0.049701724,0.039674357,0.0030691528,-0.060898542,-0.020222217,-0.062609635,-0.14743301,0.050477628,-0.039540403,-0.08428854,-0.009343684,0.026462408,0.043250494,-0.06085289,-0.07818545,-0.0063176528,0.06964351,0.052461665,0.039615463,-0.029226083,-0.0035530948,0.040475447,-0.02849307,-0.0013712499,0.10327846,-0.0050714277,0.07663991,-0.08957975,-0.0076946225,-0.074477606,0.10722124,-0.032853037,0.008411082,0.00074718223,0.003086826,-0.0651194,-0.0234204,0.0066706697,0.063436456,-0.054346114,-0.0985065,0.010454467,-0.050858658,0.040038638,-0.07095473,-0.09157965,0.08684201,-0.018549548,0.013288176,0.024992175,0.030763505,-0.020919686,0.007276028,0.031963777,-0.07579241,-0.14500627,-0.025044689,0.02293312,0.06413487,0.0474227,-0.00094854087,-0.04791955,0.059227604,0.0025533384,-0.057280976,-0.023337875,0.014337385,-0.042051822,-0.037182458,-0.07450552,0.020929713,0.020008639,-0.03800743,0.012832447,0.004402342,-0.0022794907,-0.0006738388,-0.010396998,-0.059748285,-0.010585714,-0.030262275,-0.0106252665,-0.008447911,-0.0577745,0.021847008,-0.01346426,-0.013392311,-0.0068552913,-0.038072336,-0.048129868,-0.015820805,0.03823329,0.053367667,-0.069463626,-0.021452596,0.044645764,-0.010507026,0.06502626,-0.007946672,-0.068640165,0.02592557,-0.02470921,-0.05254315,-0.08540787,-0.028491503,0.08590077,-0.0054036244,-0.026060415,0.00818688,-0.030385729,0.098973185,0.070025906,0.018148417,0.002845309,-0.004241119,0.007295709,-0.033150893,0.08182404,0.011023855,0.018514583,0.0057014367,-0.040300302,0.017545577,0.0612738,0.068103924,0.016052848,-0.025215194,-0.042517032,0.012277915,0.021693684,0.056144815,-0.005533004,0.053017844,0.049032725,-0.010441454,-0.0024965291,-0.06709133,0.041184727,-0.0589651,-0.0568718,0.058784544,-0.026320832,-0.09483828,0.03656004,-0.076106876,0.030663626,0.035181254,0.034229014,0.009564541,0.027695315,-0.0018318939,0.028872298,-0.043729,-0.00020639907,-0.022424592,-0.027407484,-0.034115117,0.054113947,0.04163936,-0.029645769,-0.039837237,0.0057601584,-0.0014636967,-0.053279284,0.027554298,9.733654e-05,0.047544397,-0.081982374,-0.056787938,0.03853238,0.034022078,0.034910638,0.06979348,-0.022620201,-0.042891655,-0.023003353,0.027995344,-0.044425208,0.09513438,0.06493447,0.09044286,0.046446357,0.015721278,0.048480857,0.028832035,-0.07574567,0.013590124,-0.0518108,-0.03248532,0.041068308,-0.05052293,0.013743094,-0.06880601,0.053375002,-0.060801968,0.0059866756,-0.05645017,0.06365994,0.07192966,-0.08760663,-0.0186132,-0.006348119,-0.060694303,0.05047128,0.02459641,0.031806234,-0.09358697,0.00074135466,0.0266992,-0.06414585,0.025247311,0.03546665,0.06623437,0.02287497,0.10185761,0.034654383,-0.022471657,-0.04507117,-0.018765723,0.06163804,-0.073575474,0.021847913,-0.008862484,0.032031976,0.0099707795,0.055529024,0.01929341,0.03491107,0.030860014,-0.028820079,0.04071953,-0.055737734,-0.07309087,-0.022104034,-0.07442893,0.028876225,0.050479237,-0.045526925,0.05587561,-0.057854507,0.024942644,0.049340125,-0.0031326164,0.046061076,0.054343913,0.037156787,0.02106805,0.097314715,-0.10298815,-0.059546992,-0.0062364778,0.048200656,0.01797098,-0.008268056,-0.061819136,-0.011567472,0.022117632,-0.026580032,-0.043495957,0.020232331,0.06311892,0.05864808,-0.05366785,0.019058838,0.0106439665,-0.07310383,-0.06178214,0.020456618,0.017696278,-0.04980342,-0.08070503,0.07390832,0.0074503105,0.051838648,0.0049684527,-0.07472361,-0.040238757,-0.0013970274,-0.06364244,0.03224452,-0.0037569127,-0.08234372,0.04579559,0.0025346081,-0.07081183,-0.06284302,0.0116574485,-0.0015180234,0.020453645,0.0010450144,-0.030978397,-0.028475313,-0.042754006,0.028534755,-0.04711974,-0.08098025,-0.058827065,-0.014665791,0.016592143,-0.020546136,-0.03543838,-0.085933596,0.0007590627,-0.028841129,-0.095021024,-0.100380085,-0.04075334,0.06499645,0.04067678,-0.043750055,0.035469707,-0.055280816,0.03620659,-0.0185271,0.03660142,0.023348942,0.027626036,0.030801348,0.023894595,-0.038804226,-0.040880434,0.100934446,-0.058930304,0.013202394,-0.047838658,-0.050326288,0.06869132,0.026248744,-0.034640513,0.0034928082,0.018320119,-0.06508932,-0.015493463,-0.058060255,0.019496193,-0.08745702,-0.012002156,0.01551877,0.058662236,-0.06631867,0.050943498,0.015598779,0.021823503,0.043478653,-0.06676814,-0.023655534,-0.043617386,0.028792182,-0.078555085,0.07872232,0.04465427,-0.046096593,0.01607328,0.048303273,0.08529167,-0.00048745458,-0.0508717,-0.039289415,-0.027132977,-0.04114839,-0.022632273,-0.018858207,-0.010974624,-0.06517346,0.069038026,0.060653113,-0.056244086,0.017473657,-0.039879706,-0.029826596,0.09718499,0.10150828,0.0007780945,0.07201274,0.0064828494,-0.022955487,0.011711538,-0.086940214,0.07303324,0.012165326,-0.038130686,-0.003592828,-0.037315886,0.0035374158,0.05601452,-0.07041201,0.007960122,-0.033894353,-0.002369668,-0.056673363,-0.033392884,0.0072311657,0.091030836,-0.08556002,0.065469004,-0.0704271,0.027589886,-0.04812964,0.060941454,-0.018871985,-0.035903513,0.001655746,0.022772158,-0.0066276644,0.0016108047,0.047372043,-0.0074006105,-0.031651657,0.041578617,0.04983268,-0.018684402,0.00052604836,-0.02000785,-0.052859407,0.06848549,-0.06475025,-0.06931736,0.06373117,-0.02920508,-0.0138214175,0.07210187,0.029093584,-0.07094383,0.04253033,-0.0480591,-0.08723048,-0.049158655,-0.030732837,0.09584777,0.03763313,-0.07640269,0.047805652,0.0705532,-0.015723404,-0.029122189,-0.008352603,0.07397044,-0.037833206,0.03485255,0.00013304899,-0.057189416,-0.02818168,-0.06211044,-0.00931904,-0.07315275,-0.046246365,-0.02385242,0.03711772,-0.08894753,-0.05789009,0.08675292,-0.014702734,0.013956789,-0.016528081,-0.050588727,-0.02850607,0.02614202,0.036120526,-0.058807388,0.067850545,0.00513467,0.009595426,0.02758904,-0.07116938,-0.018547688,-0.012051284,0.00818741,-0.059763595,0.034445345,0.011685696,0.031286817,0.018432166,0.06674785,0.029662004,0.052724283,0.06916485,-0.019512422,0.004361157,-0.033696916,0.02644281,-0.0066025457,0.057436183,-0.030026779,-0.0013851743,0.009344459,-0.028447933,-0.002860091,0.027009713,-0.10271125,-0.0019314078,0.0017666843,-0.011044147,-0.022324752,-0.06494453,-0.15394531,0.0814336,0.008636623,0.031132245,0.0074695805,-0.008598554,0.034255635,-0.058210004,0.0479835,-0.047211602,-0.09235622,-0.043645326,-0.036776476,-0.0065679457,-0.0016805977,0.020556686,-0.05526717,0.079211436,0.068219736,-0.036618374,-0.014852097,0.05026388,-0.06962459,0.009664342,0.036447994,-0.055723645,0.09679449,-0.013780599,0.019225337,-0.011619024,-0.09948847,-0.016601618,-0.0316791,0.04883546,-0.022525784,0.044999987,-0.03022437,-0.036778625,0.056437764,0.035499725,-0.042196862,-0.0073841154,0.0016239815,0.05986887,0.0488238,-0.009355086,0.057784706,-0.03557357,0.0583887,-0.049839932,-0.109694116,0.031998865,0.026186397,-0.0153478645,0.05586476,0.0012256309,-0.07856386,-0.016358558,0.030621048,-0.013545296,0.04003126,0.030045833,-0.065996,0.035625592,-0.01322686,0.047667854,-0.11007352,0.05600179,-0.037394445,-0.08702095,0.08572411,0.038215127,0.09179441,0.042264204,0.017324286,0.06683487,-0.026076382,-0.034970578,0.01992961,0.04693896,0.012014757,0.033262786,-0.045126826,0.058065925,0.04301274,-0.05503423,-0.01670804,0.035217293,-0.087616354,-0.041205913,-0.03130024,-0.028201696,-0.0033227315,-0.017782321,-0.023035748,-0.068537235,0.08946356,0.051810585,0.042817067,0.063184954,-0.013536011,0.024147443,0.0297996,0.02587295,0.008949915,-0.009372486,0.016714659,0.048655752,0.026588323,-0.06915734,-0.043439813,-0.08758699,0.0277141,-0.041558992,-0.08774671,0.055756234,-0.013533257,-0.008685914,0.025434772,0.000391167,-0.015029746,0.01750427,0.0017649898,0.03629631,-0.039211985,0.026000304,-0.027687851,-0.02331849,-0.057777178,-0.06423212,-0.05099692,-0.011534595,-0.031312704,-0.011502542,0.002412541,-0.059841737,-0.0035943817,-0.021672508,-0.011161712,0.05175258,-0.029310277,0.07134674,-0.044911016,0.0002906688,0.08025637,-0.033812992,-0.019354088,-0.04702008,0.022386657,-0.05909767,-0.098617785,0.030863084,-0.07637132,0.04804605,-0.028702823,-0.015022024,-0.04445327,0.02471653,0.04520606,-0.0745932,-0.072899625,-0.0053524673,-0.08305265,-0.044365812,-0.018038249,0.018752232,-0.013617894,-0.047715176,0.026602443,-0.029353408,-0.032768402,-0.013926856,0.04001007,-0.0024080852,0.012867802,-0.030720191,-0.044197205,-0.046158366,0.009330734,0.036339782,-0.040732577,-0.027228232,-0.043842234,0.081011795,0.057535794,0.06226486,-0.0976711,-0.034700766,0.0022056275,-0.007602421,-0.0069354083,-0.012741681,0.012576106,0.07874638,0.004215889,-0.014262019,-0.10446991,-0.02838987,-0.019510096,-0.020543998,0.07252858,-0.008395148,0.05222511,0.085073255,-0.0156209925,0.03796921,0.016472742,-0.036518794,-0.08807748,0.033679876,-0.06723286,0.053893123,-0.060700618,0.0057607293,-0.09511872,0.0120087415,-0.041975778,-0.03278128,-0.00024698058,0.01186788,0.023162633,-0.012122151,0.012579062,-0.004887293,0.096222565,0.055143196,0.011050502,-0.05215483,-0.021384882,-0.025183633,-0.027060065,-0.034357745,-0.059769575,-0.103588745,0.054097533,0.010458098,0.029441737,-0.0089625,0.0019931248,-0.025192535,-0.039931186,0.090628445,-0.12767382,-0.06661942,0.023241423,-0.03728405,-0.0130027095,-0.045505416,-0.022913089,-0.042519122,0.011809276,-0.04135187,-0.018750422,0.055738788,-0.10101947,-0.02010333,-0.015170667,0.06247801,-0.075025715,0.02743229,0.022704126,-0.036404267,0.068967775,-0.009011115,0.055443846,-0.06594916,-0.054830033,0.093941234,0.052896492,-0.049784016,-0.024137702,0.024095247,-0.04093815,-0.010066158,-0.028157262,0.03509063,-0.08145251,-0.07524702,0.014845675,0.042064205,-0.024426568,0.0025988924,-0.04765467,0.033436053,0.00793611,0.0076037017,0.012011316,-0.03499598,-0.0844648,0.045111,0.04750426,0.043219388,-0.075155176,0.0150460275,-0.022947172,0.06303162,-0.008254649,0.036655232,-0.08755226,0.0025324312,-0.0715033,0.066634975,0.03303053,0.018660482,-0.07493259,0.031308208,-0.036035378,0.019164797,0.042683184,-0.003918,0.05666183,-0.05767041,-0.025601344,0.028942015,0.015139233,0.048087712,-0.00092272763,0.015976533,-0.017562766,0.018951742,0.043515984,-0.025763312,-0.043411173,-0.06655272,0.058822747,0.10850111,0.03080337,-0.009335302,-0.009895759,-0.049310245,0.018670088,-0.07402232,0.051120434,0.012859725,0.06026243,-0.04188826,0.07871477,0.06322621,-0.047767706,-0.039724648,-0.052224245,0.038948435,0.024070792,-0.0034144637,0.0800719,-0.047783323,0.029904226,0.050003316,0.06809057,-0.05740003,-0.10878648,-0.04847145,-0.04240739,-0.09862479,0.065379016,-0.007364986,-0.0049625174,0.054705963,-0.08865352,-0.033315968,0.06901995,0.014922128,-0.03813592,0.03659431,-0.055930957,-0.025978275,-0.043727983,0.03484459,0.009948829,-0.05308149,-0.06838264,-0.00049969787,0.07918482,-0.0042219767,0.020966215,-0.033567637,-0.0047116824,-0.05295029,-0.064190395,0.02951827,-0.10463859,0.08034844,0.0017430799,0.06062439,0.034615334,0.0019659845,-0.09751095,0.016837051,0.0013596518,0.0674471,-0.006179439,0.04011957,-0.052885897,-2.0663603e-05,0.042295985,0.010667234,-0.0011360219,-0.05231997,-0.001464742,0.08744675,0.101724185,-0.004373284,-0.032592997,0.04500203,0.012722291,-0.081549935,-0.042458072,0.04146668,-0.05713236,-0.028264787,-0.015694607,-0.0029608815,-0.026287463,0.048630312,0.03314199,0.01099988,0.021309514,0.056344002,0.0019808859,0.0738628,-0.038735043,-0.017902521,0.07723357,-0.05360927,-0.0015553789,0.051961012,0.002363459,-0.063650675,-0.0215852,-0.043922372,-0.030023659,-0.049084768,-0.01160439,-0.036446445,0.0014185525,0.0587651,-0.024168717,-0.031755384,-0.008041274,-0.049995426,-0.029008456,0.005783388,-0.025676006,-0.02531361,0.04448505,0.0018244503,0.018265003,-0.081872836,0.09113406,0.06977953,-0.06465746,-0.023942083,-0.0166974,-0.0491037,0.0066806506,0.077289194,-0.014710382,0.03447528,-0.0068824813,-0.0056772754,0.024213133,-0.031974517,0.068565525,-0.0117455395,-0.020351106,0.05409208,0.024327852,0.0070628263,-0.036591552,-0.0020075263,0.04445025,-0.034631744,-0.038471896,-0.011551518,-0.005171232,-0.105781086,0.046242125,0.009420113,-0.05848438,-0.030023143,-0.06106014,0.025887636,-0.019014172,-0.041911222,-0.038304932,0.05524456,-0.005796728,0.050118938,-0.051443737,-0.08071367,-0.0033250498,-0.00038115965,-0.020412466,-0.06302658,-0.058600735,0.009970593,-0.014737479,-0.027212864,-0.058306754,0.04583814,-0.04664392,0.03417312,0.016680023,0.016727375,-0.00042065606,0.049545214,0.091645606,0.060378388,0.05389114,-0.076841176,-0.12097932,-0.011836681,0.035714053,-0.03731135,-0.14799586,-0.1318615,0.031354092,-0.019433461,0.022026738,-0.060508084,0.069464505,-0.0904664,-0.037986275,0.073055245,-0.034918334,0.06255354,-0.0046906294,-0.0564975,0.07444604,0.07784335,-0.018784154,-0.04738259,-0.078183234,0.06833483,0.0006518201,0.028506413,0.0034061424,-0.005177407,-0.059641197,0.0052511115,0.018994845,-0.017337257,-0.103790075,0.055921722,0.03498336,-0.00592938,0.121160544,0.0104311565,-0.0011123337,-0.030025411,-0.08837421,0.036309954,0.03788066,-0.09152706,-0.006966397,0.06610292,0.011727108,-0.08015954,0.033132613,0.06472579,-0.05097278,-0.09062894,0.029734362,-0.03783997,-0.027053343,0.0021855095,0.0070172944,0.008860794,-0.029988661,-0.01958447,-0.023360051,-0.012054866,-0.008064076,-0.03661316,-0.02844655,0.0061362926,0.036174305,0.0020790803,-0.014714907,-0.07165167,0.03601677,0.068520814,0.048293654,-0.017458173,0.06268793,-0.08278515,-0.045810778,0.07261932,0.110763825,0.111861624,-0.010564721,-0.007980189,0.07780867,0.108817495,-0.0033266456,-0.018297063,0.08665193,0.012963388,0.053030226,-0.065678224,0.031557757,0.032951176,0.035336938,0.108648114,0.018851655,0.03271314,-0.11426351,0.0025530364,0.06203948,-0.009006429,-0.006156003,0.043129258,0.008377744,-0.04051154,0.036127202,-0.06266974,-0.019466368,-0.0262657,-0.014608563,0.0034773615,-0.006997856,0.05784035,0.01429913,0.012072117,0.028095135,0.047678445,-0.012123281,-0.0002685721,-0.05680867,0.047222532,-0.07575597,0.03610462,0.0064252154,-0.06375375,0.06491916,-0.091539234,-0.073104225,-0.03045274,0.037737455,-0.05842512,-0.10429668,0.06539988,-0.03266884,0.027499724,0.0507982,-0.029314911,0.07729718,-0.05223677,0.04735302,0.031966906,-0.029975144,0.041522127,-0.06770558,0.09872056,-0.0745719,-0.058892805,-0.08226883,0.0404228,-0.036351714,0.008585729,-0.010231384,0.06521113,-0.095052704,-0.0061098933,-0.03308423,-0.043927435,-0.055269323,-0.08897504,-0.052076887,-0.008793235,-0.04875912,-0.09185104,-0.056352623,-0.083195694,-0.112755515,0.0745268,-0.021012597,0.046703532,-0.009641687,-0.052976586,0.02097641,0.062612906,0.014322686,0.0019746583,0.013507945,0.092714295,-0.023021862,-0.048122913,-0.07767317,-0.047208298,-0.031697933,-0.050619103,0.028922679,0.0057101473,-0.05297152,-0.10476072,-0.00085941947,-0.05687959,-0.03750814,0.087846324,0.04320962,-0.081027694,-0.032215003,-0.014110691,-0.03110418,-0.08506992,-0.004860161,-0.0064332285,0.0448598,0.04280775,0.07902355,0.12076478,0.036928203,0.051226087,-0.023962785,0.032947477,0.00019665489,0.05639102,0.057235047,0.060563862,-0.008253619,0.0889647,-0.02050566,0.036314107,-0.0476169,0.044537615,-0.026087614,-0.035355028,0.0024190494,0.07504264,0.03191012,-0.009898398,-0.05798976,-0.008270276,-0.011096317,0.06402087,0.01845927,-0.0037335618,-0.006759309,-0.029709268,-0.0577111,-0.07596296,-0.01353676,0.055339817,0.025425166,-0.034236312,0.034170926,0.032448217,-0.015047905,0.039843705,0.057372965,-0.069558054,-0.07494554,0.012383728,0.051050253,-0.06391592,-0.051338553,-0.033119492,-0.04297824,0.038089484,-0.049270995,0.0075259362,-0.03865525,0.009352359,