-0.16843003,-0.31909087,0.1197997,-0.027251948,0.10410239,-0.32561404,0.050082687,-0.015367871,0.24410778,-0.17164811,0.18396345,-0.055392697,0.2442571,-0.19200167,-0.3867111,0.16248253,-0.33710393,-0.026749855,0.107104234,-0.2562533,0.11242648,0.20480484,0.089054555,0.21135241,-0.08205549,-0.39370647,-0.11531766,-0.08262866,-0.33058724,0.20933577,-0.21271375,0.26565158,0.005739183,-0.21578752,-0.30440292,0.31099153,-0.13576256,-0.09760861,0.013580173,0.17239518,-0.3643545,-0.1627098,0.19223069,-0.23529571,0.27236623,-0.003857955,0.141679,-0.26555485,0.31847084,-0.1712219,0.12665947,0.06773384,-0.15934755,-0.3020712,-0.027202891,0.08568627,0.17573568,0.28340283,-0.17671056,-0.3984246,0.19580413,-0.24612287,0.24606381,0.31691307,0.22092995,-0.2253337,-0.054092802,-0.27850404,-0.29294392,0.22503258,0.0665515,0.018553626,0.06737638,-0.13590574,0.19746539,-0.09153021,0.16785263,-0.20230916,0.09570002,-0.28825876,-0.010663307,0.11020333,0.24153192,-0.18881121,-0.18204953,0.099418215,-0.010949973,0.30827942,0.10633539,-0.31611627,-0.34914872,-0.03436998,-0.2737654,-0.005201826,0.1815751,0.03674411,-0.24232474,0.17939943,-0.2090082,-0.004277606,-0.016071523,0.14875148,0.037695505,-0.014009407,-0.22698665,-0.2483726,0.1750303,-0.25281268,-0.06885007,0.103809565,0.107887805,-0.16980469,-0.24201716,-0.1096249,-0.020330505,0.08392686,0.100981295,-0.2183269,-0.31376508,-0.024174025,-0.33560136,0.2198615,0.099540345,0.14604041,0.2325822,-0.06035083,0.23362488,-0.32669324,-0.2364596,0.25389114,0.19398329,0.115844205,-0.13663734,0.084942676,0.23216873,0.20277306,-0.29314256,0.32877785,0.29074383,-0.26649636,0.009247807,-0.2234773,0.20002581,-0.14761798,0.14119865,0.14260276,0.28948492,-0.18115631,0.12656441,0.101731926,0.2565669,-0.33457732,-0.19419643,0.16696772,-0.1119038,-0.35421854,-0.08750258,-0.15261395,0.24458948,0.19343151,0.16740286,-0.0013238379,-0.17607234,-0.14014986,0.30579755,-0.16429663,-0.13712414,-0.10391069,-0.28124005,0.2643915,0.2930212,-0.0842878,0.21397895,0.15088704,0.19314021,0.19730392,-0.047116484,-0.26950914,-0.046803944,-0.27415904,0.013056255,0.1551863,0.008147987,0.027762465,-0.2690311,-0.0531033,-0.4063208,-0.106542096,-0.08186476,0.08074784,-0.34805226,-0.12626614,-0.1719194,-0.13100973,-0.25566062,0.3040359,-0.26740068,0.0974577,-0.03963759,-0.20066136,0.21600743,-0.21957609,-0.28617826,-0.022870608,0.28711975,-0.28236923,-0.2184315,-0.26083893,-0.18453494,-0.29504848,0.0032375804,0.10349447,0.06381227,-0.19404648,0.34735414,0.09646451,0.19403324,0.1501462,-0.19347426,-0.069359936,0.2583597,-0.23967235,0.031901035,0.04616737,0.25719792,-0.108544335,0.13070767,0.12547566,-0.1202246,0.19031373,-0.17348932,-0.04369248,-0.0038957489,0.23899122,0.19679868,-0.11149069,0.075717546,0.19347234,0.021098737,-0.037161577,0.074095994,-0.119679764,0.206127,0.14814915,-0.22834416,-0.1408357,0.055826835,0.2605868,0.08198533,0.13875689,-0.15133762,0.022060571,0.16756083,0.2861905,-0.19156112,0.1622158,-0.34973782,-0.09920493,-0.36588606,-0.21567598,0.053649276,0.10971172,0.10770962,0.23893557,0.21032049,-0.24493286,-0.3701943,-0.050852053,-0.0042047575,0.19840209,-0.2214211,0.20605636,-0.33119246,-0.3062302,0.29747972,0.0018025141,0.05947276,-0.20887393,0.24315156,-0.20350823,-0.27200365,-0.15198871,0.049518265,-0.26653618,0.00015286943,-0.21252003,0.083281405,-0.25297955,-0.35077554,0.10637545,-0.05632271,-0.19174519,-0.1120058,0.25132656,0.093145326,-0.19812037,-0.07523514,0.25809237,0.09718879,-0.32811797,0.14240824,0.24241059,0.19763409,0.1552441,-0.18803163,-0.11454001,-0.2860779,-0.28525186,-0.25784335,-0.40803865,0.0685574,-0.18860961,-0.100928366,0.032832783,0.078269154,0.01836576,-0.30171958,-0.05458133,0.05654813,-0.15813372,-0.26036194,0.108541325,0.29827872,0.032971922,-0.034205507,-0.18285838,-0.2727943,0.23437667,-0.38468435,-0.27713922,-0.14419152,0.19514278,-0.008330996,-0.12163191,-0.24480705,0.014082306,-0.19924068,-0.103647664,0.0073380102,0.12072336,-0.35124657,-0.030392973,-0.20774943,-0.06518929,0.12610589,0.062367536,-0.3687915,-0.33631566,-0.20184726,0.11665013,0.058852553,-0.13829282,0.06788472,-0.26337725,-0.08068749,-0.054257788,0.16321684,-0.10621901,-0.044258706,-0.072045,0.27219772,0.06450371,-0.1539945,0.07359369,-0.08294672,-0.23175794,0.052858036,-0.19787048,-0.25912333,0.04254456,-0.1536496,-0.2502729,-0.2686618,0.09868694,-0.15923317,-0.21607496,-0.091821514,0.18201496,-0.13307035,-0.11360661,-0.103005305,-0.10095826,-0.092358746,0.19672994,0.23626226,-0.1336852,-0.1562258,-0.122143224,-0.06638155,0.074907176,0.23370042,-0.05271208,0.20684871,-0.079947725,-0.32097185,0.2249368,0.008281912,-0.014049383,-0.2631404,-0.30568212,-0.07607771,0.18790291,-0.2790992,0.13501014,0.16442874,0.22218762,-0.009270802,-0.06543233,-0.17256728,0.19860378,-0.16297515,-0.1584376,0.0153606115,0.2099909,0.15742774,-0.30358136,0.04034111,-0.28868112,-0.03465858,0.2965814,-0.049192708,-0.29562408,-0.28514737,0.12791617,-0.2931864,-0.24143825,-0.10422688,0.050321884,0.26610467,0.18102884,0.03868851,0.17683527,0.28258452,-0.15612228,0.060818575,0.09748221,-0.2523578,-0.27584392,-0.073850326,0.24146391,-0.16715099,0.23805772,-0.06102827,0.044275474,-0.0917962,-0.10920333,0.2271963,0.12566586,-0.31045234,0.29485342,-0.058920063,0.28549218,-0.19056688,0.15821612,0.1953225,0.17875274,0.21278831,0.26596197,0.27025154,-0.068043254,-0.1213901,-0.15974364,0.13180658,0.12785533,0.32147288,0.0947422,-0.2708813,-0.22395442,0.12165071,0.18334183,0.07639295,-0.04969006,-0.27061054,-0.3802083,-0.27798852,0.03002332,-0.18331566,0.25133035,-0.048425227,0.051632095,-0.3569329,0.027867988,0.1345124,0.08568153,0.19233899,0.10437958,0.21902193,-0.27378553,0.212443,0.16774079,0.067302525,-0.0077934284,0.24324858,0.15691806,0.14566673,-0.27316034,0.14279343,-0.08983076,-0.23984084,-0.18132016,0.08806718,-0.041180775,0.0650415,0.15981312,-0.27821705,0.2236005,0.190089,0.03767229,0.262909,-0.2066363,0.08003091,0.09993315,-0.24342902,-0.29593557,0.3009425,0.102497995,-0.27960277,-0.25096676,-0.30058485,-0.24478965,-0.20444845,-0.24402636,0.2830435,-0.18472262,0.09680246,-0.2663314,0.21352161,-0.18970123,0.29613072,0.086024426,-0.30127567,-0.2836728,0.11720424,0.011655216,0.11647986,-0.36129406,-0.097312324,0.050405767,-0.112670735,-0.27256444,-0.27618837,-0.049878895,-0.0997301,-0.22491898,-0.038550857,0.29548883,0.32697937,0.02525625,-0.07810999,0.2596087,0.045029324,-0.07782219,0.16560951,-0.4033232,0.10567727,0.09788948,0.13456346,-0.17632233,-0.10705549,0.1903154,-0.05571653,-0.2758394,0.24315548,0.09653239,0.094166115,-0.2506262,-0.35815838,0.069541104,0.15593196,0.24167903,-0.21183732,-0.10605496,-0.3906788,-0.15286215,0.13488863,0.012425602