-0.015069606,-0.14593263,0.011481314,0.100000285,0.17203017,0.31630158,-0.18571495,0.07856142,-0.26446438,-0.23126072,0.27657476,-0.042817775,-0.11115955,-0.19129328,-0.03869165,-0.0058223046,-0.013986996,-0.123849586,-0.18803652,-0.30660447,0.070063256,-0.019833602,-0.16098702,-0.09703797,-0.26534012,0.20184082,0.25865912,-0.06951853,-0.047111854,-0.12076918,0.13734908,-0.08202763,-0.038187336,-0.11990973,-0.20068745,-0.066281624,0.09936952,-0.14602353,-0.23342879,0.063435875,0.33048016,-0.20798282,-0.27081767,-0.04026125,0.24454747,-0.26939744,0.13168594,0.0485382,0.14469129,0.20419568,0.2014333,-0.04433314,0.114570655,0.2812153,-0.09375054,0.2833363,0.23304535,0.24903622,-0.10031759,-0.2949001,-0.10930831,-0.3349521,-0.18513064,0.14193876,-0.40297392,0.055409063,-0.3458127,0.24999209,0.15194884,0.20084058,0.046962015,0.1739824,0.20503968,0.06386555,0.09853958,-0.28302172,0.03915703,0.11915035,0.0050307536,-0.29713824,0.08456363,-0.03932731,0.07000519,0.054717712,0.05169941,-0.3490865,-0.16259037,-0.28275117,0.0888351,0.042290352,-0.084732905,-0.19749172,0.05147924,0.26939842,-0.07373923,0.23316085,0.23003088,-0.13148856,0.24006054,-0.18588567,0.022233026,-0.3619469,-0.27497315,-0.304735,0.15227614,-0.023842737,-0.11010483,0.029411165,-0.18239954,-0.18795031,0.11978662,-0.1750723,0.279068,-0.27571625,0.07195201,0.12832727,0.18440749,-0.30217648,0.0791676,-0.010862505,-0.023241367,0.21602374,-0.2481383,-0.03017396,0.20188282,0.2209801,0.10970372,-0.19167063,-0.23514736,-0.295785,0.082585655,0.20995428,0.02344822,-0.33800656,0.15972452,-0.09040183,-0.31215706,-0.0173059,-0.22306393,0.085265264,-0.0015056083,0.28680533,-0.3535996,-0.065282784,0.034365013,-0.13791274,0.046556424,0.24080539,-0.18777168,-0.097463384,0.27329186,-0.37964508,0.17951465,0.27202007,-0.22984709,-0.11461807,0.05703435,0.118323095,-0.33897996,-0.11946748,0.11603032,0.14888866,-0.080161706,0.01655843,-0.18471003,-0.27624807,-0.057120547,-0.15565932,-0.07186878,-0.05061624,-0.20330927,-0.019793436,0.092583865,0.16134062,0.09371569,0.019500084,-0.17612115,-0.06986152,-0.017424949,-0.028115047,-0.14786728,0.20161027,0.12489803,-0.24964152,-0.029970244,0.029370433,0.22609687,0.3169623,-0.09925627,0.22206694,-0.23950443,0.21636131,0.15269765,-0.11647535,-0.27988365,-0.273577,-0.06579734,-0.24316166,0.29419908,-0.42090034,0.13951723,0.1958343,-0.011731792,0.29732087,-0.1830759,0.17820881,0.19263628,0.10100396,0.15560137,0.08499537,0.19162004,0.18619874,-0.09451181,-0.31581888,0.06100495,-0.16488424,-0.36806628,0.029314876,0.21185409,-0.028032187,-0.18832554,0.14674126,0.2240086,0.26345852,0.15405248,0.2119656,-0.2974967,-0.18653396,0.04327241,-0.03877857,0.23851407,-0.0034961791,-0.21524759,0.09310516,0.29500523,-0.03399011,-0.10676411,0.11685383,-0.105059005,0.3342994,-0.2899851,-0.108826414,-0.22088778,0.23885301,0.31525978,0.2692626,-0.053413182,-0.34024724,0.04311061,-0.016650343,-0.076319635,-0.24971935,0.024215115,-0.21399891,0.080817394,-0.07028129,-0.23166728,-0.16182105,-0.13001701,-0.23751104,-0.14718586,0.19486631,0.096119225,0.15581001,0.19765735,-0.12414014,-0.31839764,-0.20072608,0.08686525,0.1807844,-0.3032064,-0.34377494,-0.10110541,0.05981421,-0.14278883,0.110032216,-0.16561003,-0.30265775,0.11914895,-0.059775427,0.29471803,0.25094625,-0.19758774,-0.34638977,-0.05594363,-0.17937715,-0.22397092,-0.40361765,-0.12633966,-0.06743693,0.254256,0.28345,-0.19110137,-0.25951892,-0.34752852,-0.07877776,-0.011232653,0.23365754,0.20481335,0.19373801,-0.064359345,0.11523171,-0.2302092,0.2908632,-0.05796015,0.056469116,0.28394672,-0.14962645,-0.25935823,0.3263346,-0.06697266,-0.09384158,-0.15611139,0.19625567,-0.26451758,0.25627467,0.26808044,-0.05523443,0.021442272,0.03735397,-0.1830532,-0.15206821,0.17648649,0.14575301,-0.04464999,-0.26217526,0.17743894,0.0921668,0.2628879,-0.12099598,0.11818609,0.27912137,-0.11107111,-0.05210573,-0.35008124,0.20214498,-0.08604867,0.29014024,-0.1235902,-0.21699472,0.30974844,-0.2715834,0.15671168,-0.11147886,0.2544469,-0.14561486,-0.30752853,-0.30688637,0.11869635,0.14980155,0.026504805,-0.11280453,0.24461915,0.20908011,0.22385824,-0.17470965,0.07880076,-0.029748777,-0.061493315,0.22930893,-0.15429091,0.019081526,0.22318399,-0.042896695,0.18482353,-0.16241065,0.33598638,0.12261027,0.22704308,-0.04612916,0.101164296,0.22177292,0.13924733,-0.01718237,-0.21071163,0.30899155,-0.2504655,-0.08672724,-0.26355577,0.04836305,0.10453153,-0.31160834,0.32811266,0.18395603,-0.21334316,-0.07825181,-0.38784733,0.17786291,-0.15040497,-0.062787846,-0.00073276804,-0.27965435,0.18465249,-0.09623861,-0.27529186,0.18049373,0.21518782,0.23464729,0.17249359,0.16865692,0.20515035,-0.30110455,-0.10476374,0.2240081,0.10863207,0.18627974,-0.1166057,0.30601797,-0.13389406,0.05239571,-0.058217485,0.00518677,0.19552898,-0.2639529,0.10914745,-0.029106317,0.1715759,0.24235094,-0.17696127,-0.06807636,0.27300942,-0.043445908,-0.18638863,0.23076579,-0.31939748,-0.04200437,-0.36285153,0.2605476,0.1258137,-0.11154431,0.10556899,0.16109498,0.028744293,-0.32071868,0.24031323,0.11658762,-0.33220068,-0.09198664,-0.28047287,0.11772331,0.31855,0.09823247,-0.25930867,0.24265392,0.0033707623,-0.20177676,-0.09948573,-0.25653458,0.18319808,0.19089459,-0.0111280475,0.16779384,-0.12812686,0.061361615,-0.040059447,-0.052210618,0.07977506,0.18630055,0.117776334,0.20986453,0.27485514,-0.21018127,0.19899762,0.20323412,-0.34880444,0.087555274,0.1320769,-0.22391495,-0.16114049,0.034487456,-0.40193325,0.0014550296,-0.04127972,0.066387385,-0.040101137,-0.023223473,-0.10552137,-0.36991522,0.1392908,-0.13291648,-0.21163464,-0.093048275,-0.21622467,-0.08908818,0.17905797,-0.18933628,0.24867523,0.1749366,-0.07778316,-0.27330777,0.12143648,0.08922003,0.32224303,-0.23575076,-0.19066505,-0.054535586,0.30008045,0.21390705,0.093949504,-0.3316036,-0.19249305,-0.21654479,-0.20302822,-0.08441289,-0.059247203,-0.29579088,-0.0853064,-0.2567833,0.35350287,-0.091991834,-0.1661977,-0.14508039,-0.26023608,0.06593511,0.08132122,-0.15477692,-0.1941027,-0.02397738,0.24016573,0.12328059,-0.2078223,-0.08677623,0.18507174,0.19702013,-0.19115353,0.0858706,-0.11922413,0.033403102,0.21696171,0.021848384,-0.36614445,-0.18743148,-0.4247105,-0.10143094,0.06930231,-0.14249463,0.18604594,0.19238856,0.119315796,0.15311652,0.02251946,-0.03509118,0.04845295,-0.2903752,-0.1441624,-0.2913452,-0.21180567,0.11337226,0.17263453,0.054392405,0.16643745,0.19686621,0.25974384,-0.24898148,-0.4076233,-0.19587143,-0.24481589,-0.12264701,0.11903901,-0.043627914,-0.28279465,0.29155415,0.01500328,-0.042208973,0.17915767,-0.30845365,-0.025361508,-0.10470185,-0.027894666,-0.33971307,-0.28090307,-0.05203095,-0.053609993,0.22320506,0.22764525,-0.10326816