0.016217342,-0.38644952,0.3519896,0.09755619,0.06123626,-0.15780689,-0.481305,-0.21853536,-0.5122845,-0.27826515,0.12649792,-0.26543555,0.18915455,0.2502287,0.05673792,-0.2592927,-0.036302958,0.007273025,-0.2342396,0.030945722,0.1557581,-0.3584139,-0.48515934,0.01068447,0.14337358,-0.14749995,0.30255663,0.2630423,-0.371667,-0.1912827,0.20765568,-0.558032,0.132697,-0.12627399,-0.04844143,0.2500051,-0.1711408,0.23671462,0.29900682,-0.46909875,0.009642325,-0.47909272,-0.05058294,-0.37512723,0.24824862,0.14681785,-0.4190952,0.14764969,-0.24266991,0.3143286,0.25578287,-0.36558557,0.23331712,0.28881806,-0.20405562,-0.2277182,-0.11783507,-0.113900684,0.052530754,-0.14425293,-0.17322157,-0.46588832,0.054202903,-0.054238718,-0.14103644,-0.33359587,0.03838344,0.23650032,0.123174176,-0.18652095,0.19143203,-0.40229443,-0.26202813,-0.3424913,-0.19434549,0.22569638,0.17469475,0.06431829,-0.13657013,-0.12204619,0.057663176,0.08992939,-0.5841421,0.07609768,0.043643866,0.08059385,0.049676433,-0.19050263,0.011994023,0.013546755,-0.15978846,-0.28710008,0.26059905,-0.4066978,-0.4276022,-0.35077024,-0.17771862,-0.32015884,-0.07104235,0.28027487,-0.2437327,0.23487806,0.26197475,0.28383592,-0.14245267,-0.4801125,-0.37763926,0.021644032,-0.39363062,-0.42648208,-0.23032008,-0.60964453,-0.2404492,0.0743598,-0.20775492,0.33469382,0.27826938,-0.16053872,0.24550907,0.23020041,-0.28742546,0.32113075,0.05758565,0.3118532,0.31738293,-0.12957603,-0.35383576,0.104931295,-0.020248763,-0.368882,0.12905665,-0.22186936,-0.57148254,0.13662767,-0.33271053,-0.4543146,0.13020007,0.045571808,0.019206868,-0.53957,-0.17370735,0.21080287,-0.11496364,-0.10348652,-0.042563785,-0.23998669,0.033726733,0.15976457,-0.23598228,-0.27349195,-0.22140726,-0.06196559,0.0037154676,0.14178205,-0.019041345,-0.27528334,0.05276427,0.004720709,-0.104663104,-0.29297602,0.32521015,-0.33278176,-0.14266028,0.15308926,-0.008799784,-0.20315117,0.29118943,-0.13048136,-0.37296227,-0.2594223,-0.3682033,0.24849549,0.24435924,-0.32353133,-0.44520983,-0.1052263,-0.14546168,-0.44706783,-0.08783766,0.2978864,0.1327723,-0.35390165,0.11436459,-0.4115091,-0.4186496,0.2016894,0.1521292,-0.1642241,-0.08522192,-0.15865126,0.1869144,0.09901985,0.17247967,0.16819906,0.2368384,-0.030662099,-0.024454823,-0.29119223,-0.23156133,-0.20301443,0.17809278,-0.21395972,0.2373135,-0.01149419,-0.34557638,0.16867049,-0.5008997,0.25552973,0.28837147,0.0795664,-0.30197817,-0.3430173,-0.16181813,-0.062567286,-0.25994977,-0.47365966,0.14377305,0.20488754,0.11846409,-0.3996903,0.11480236,-0.48139775,0.15114823,-0.055836815,-0.17700973,0.17503405,-0.04822286,-0.3459475,-0.03770405,0.15318234,-0.39150518,-0.08595693,-0.04271316,-0.16985591,-0.12099447,-0.30835664,-0.2647945,0.3597811,0.21609206,0.23527926,0.24610758,0.15191801,-0.3127923,-0.20044729,0.25176373,0.24923259,0.23493178,0.21043372,0.15798289,-0.50497395,-0.28569773,0.058980104,-0.50907665,0.20771657,0.1846975,0.08158526,-0.4412517,0.1268667,0.17097312,-0.51566786,-0.28166944,0.26544017,-0.062198244,0.23087464,-0.4059563,-0.2936839,-0.4372369,-0.39270929,-0.12392518,0.25384545,0.24746157,-0.13374129,0.07116896,-0.24096827,-0.11176784,0.24241632,-0.19786265,0.19805782,-0.41756302,-0.061659403,0.22191769,-0.34296936,0.03292312,0.02865669,0.13128293,-0.2501296,-0.37348405,0.22332603,0.19655417,0.23230943,0.16926618,-0.1172618,0.12705189,0.22838561,-0.43084198,0.31891304,-0.3045853,-0.1291911,-0.14201702,0.34179303,0.16901572,0.23338105,-0.35795486,0.09924998,0.08545818,-0.40743756,-0.19182101,-0.27028033,0.18656208,0.26144674,-0.4428486,0.28277525,-0.4158634,-0.2651752,-0.2501086,-0.044607643,-0.15654631,0.17910326,-0.10368845,0.31484646,-0.35447544,0.16715416,-0.27334812,-0.3955436,0.27309597,0.24123994,0.2336757,-0.14990741,0.19008976,-0.10489681,-0.20114198,-0.26218143,0.23269588,-0.30485573,0.19220962,0.024926871,-0.33432356,0.22276384,0.20660585,0.24160738,-0.24808483,0.15311463,0.10631109,-0.40619776,-0.20501836,-0.18590242,-0.42870924,-0.027560266,0.15249297,0.1552656,-0.4448176,0.13900493,-0.42680842,-0.23514491,-0.17524114,-0.49144867,-0.17095076,0.17198604,0.17321473,-0.11454153,-0.07282709,-0.10391464,-0.045285832,0.25398952,0.14024293,0.086978756,0.24275658,-0.25671762,-0.35030472,-0.29549247,-0.21101888,-0.26924008,0.14387155,-0.17016467,-0.0019849078,-0.011810274,-0.06436992,0.0017213508,-0.0898276,-0.14551622,-0.22172825,-0.19477344,0.19899209,0.09663577,0.15236227,0.048727453,-0.12158618,-0.19980173,0.02604443,0.25056332,0.22631022,0.2580407,0.24075674,-0.124756545,0.19978303,-0.33760303,-0.26190147,-0.5492461,-0.19489768,0.26007378,0.12761286,0.13747752,-0.08572194,-0.24076132,0.15326676,0.16450198,0.12694055,-0.33781362,-0.06792019,-0.34821555,0.2638379,0.21757334,0.110420726,-0.10623386,0.15970017,0.10409341,-0.26734242,0.06720733,0.05939421,-0.1742559,0.022494031,-0.33161062,-0.19879241,-0.111969635,0.26106593,0.26444793,0.2668587,-0.21529199,-0.36332384,-0.32900238,0.20902082,0.2762494,0.301503,-0.36326945,-0.17678376,0.13046905,0.17042576,-0.2511001,0.27945352,-0.036909495,-0.45320737,0.18653663,0.12557887,-0.28629804,0.17427994,-0.40307114,0.19379893,-0.19067971,0.08309369,0.06744224,-0.42853308,0.14543726,-0.1751283,0.01964927,0.26206753,0.23925367,0.22230591,-0.19456722,0.1753009,-0.5133194,-0.1273062,-0.41715288,0.4967919,-0.0052147238,-0.20401248,-0.3372231,-0.20034446,-0.19406356,-0.36112127,-0.118489444,0.3034944,-0.31779382,0.16071108,0.24664238,0.0006063954,0.23480752,-0.43237302,-0.19912402,-0.34989953,0.18510036,0.2180416,-0.13705918,-0.38477772,0.23554176,-0.15880705,0.1898352,-0.070785604,-0.437649,-0.28312004,-0.36907256,-0.08204401,-0.4800446,-0.33618954,0.30112636,-0.35171217,-0.37723613,0.26950058,0.054872043,-0.17944239,-0.28200763,0.3008845,-0.43529212,0.29832488,-0.41990188,0.014765504,0.07236738,-0.14470284,0.3078691,-0.18189979,-0.04463626,-0.36466086,-0.4993775,-0.51177835,-0.43631005,0.16117872,0.16006762,0.16073377,-0.0053806663,-0.3619109,-0.31759974,0.10690624,-0.50921226,-0.2639572,-0.4922965,-0.12159578,0.15428562,0.1713476,0.2152008,0.18782268,-0.3168388,0.23081924,-0.1711531,0.17247058,0.2383998,0.23353776,-0.043509718,0.26083496,0.2662968,0.27127016,-0.51338243,0.14493024,0.19384333,0.16868156,0.19717285,0.13511333,-0.42675406,-0.51588464,-0.07282124,0.18517335,0.1824434,0.25312755,0.1179155,0.22153205,0.27961683,-0.4469579,0.061549284,-0.37788406,0.016146291,0.2609528,-0.44313613,0.010176166,-0.17028323,0.26974446,-0.35881862,0.26850435,-0.2979354,-0.22959857,-0.010032725,0.24045292,0.25521585,-0.25371745,-0.09460715,-0.18805991,-0.12502106,-0.015156605,0.30920097,-0.3950906,0.33130914,0.2919312,-0.17182478,-0.26625308,0.07906851,0.06268717,0.10142907,-0.13625643,-0.32812876,-0.55831134,0.02108633,-0.43402356,-0.16181558,0.20547748,0.21135244,-0.17245246,0.2269534,0.10432754,-0.52612156,0.12737449,0.20607771,-0.11461978,-0.2551446,-0.21737744,-0.0027967233,-0.05126367,-0.19868515,-0.06504235,-0.013212287,-0.0036775016,-0.018766038,0.2226359,-0.11615026,-0.15348108,0.25648803,0.008235139,-0.08206587,0.11137932,-0.13970307,0.18322486,0.11636329,0.011070907,0.22551313,0.25418863,0.21761553,-0.14295015,0.26824832,-0.0987422,-0.46423528,0.10964134,-0.14788428,0.2371949,-0.1648088,-0.102077425,-0.3091986,-0.17797269,0.0066756927,0.262531,0.24397069,0.23044424,-0.17820375,-0.24729785,-0.43903834