-0.18634918,0.003340026,0.06594014,0.07633358,-0.09816977,-0.034677166,-0.1181608,-0.02611925,-0.038413983,0.16282651,-0.0063678515,0.09847013,-0.0914193,0.2161695,-0.06741694,-0.14395979,0.11673192,-0.11737939,-0.07287878,0.06938954,-0.0713443,0.19702591,-0.12764703,-0.15471347,0.0460423,-0.0073066363,0.14653194,-0.0414918,0.08568634,0.052314013,-0.20132414,0.13063662,-0.026076945,0.040447593,-0.14307718,0.058325622,-0.03306958,0.04036009,-0.13715427,-0.09920145,0.15208308,-0.024546271,0.01424973,-0.12914449,-0.10764413,-0.12706335,-0.10753481,-0.10909545,0.12377371,-0.050044265,0.057552025,-0.04075242,-0.016233835,-0.105401374,0.05765874,-0.12918365,-0.1002918,0.11381176,0.022198757,0.10848028,0.12718824,-0.017992204,0.086474955,-0.056324773,0.13086122,0.053481095,0.08438598,0.09311177,-0.1172309,0.016673623,-0.1471601,0.10830512,0.02079844,0.18358961,-0.06724925,0.12256026,-0.07837872,-0.04256074,-0.02296718,0.032264348,0.06862112,-0.08453046,-0.07662894,0.16527185,0.06649465,-0.114101686,-0.07275504,0.021094583,0.13923912,-0.07171162,0.061549164,0.06520608,0.12585104,-0.10173113,-0.039924253,-0.04721996,0.07522119,-0.11385156,0.108326055,-0.15689272,0.024909386,-0.10113319,-0.034555838,-0.083426476,0.10562525,-0.019957751,0.02715045,0.099346176,0.11796243,0.011688238,-0.10827928,-0.036512807,-0.14882976,0.15231213,0.1242171,-0.035968423,-0.09054034,0.052154437,-0.13038461,-0.10834219,-0.05551251,0.06124272,-0.06683288,-0.14613907,0.033635482,0.05236482,0.06752463,0.10196266,0.11145388,-0.080138974,0.059517056,0.06248918,0.034518346,0.06423615,0.15618053,0.11298293,0.15546463,0.030648667,0.09422063,0.0010702624,0.15508941,-0.024343237,0.12646158,0.12142985,0.066357344,-0.1499267,0.09885967,-0.107183754,0.034404233,-0.118963726,-0.07266409,0.044228796,-0.10876656,0.037181552,0.13263178,-0.15651715,0.040670875,0.016505476,0.05151279,0.04696332,-0.014369292,-0.1304134,0.040603574,-0.14635903,0.15455206,-0.0569896,0.09434029,0.049968507,-0.076645866,-0.12436691,0.03327828,0.14808409,-0.14137697,-0.032832053,0.038280685,0.0068494333,0.042451806,-0.14363554,0.062254626,-0.025792588,0.116526954,-0.12941782,0.059156276,0.034074023,-0.06341012,-0.118665256,0.0037553837,0.04414969,0.13229394,0.11861354,-0.09628666,0.1954383,0.17076054,0.06886949,-0.10794563,0.06049484,0.011591443,0.059838977,-0.11999309,-0.13398328,-0.033206556,-0.09308671,-0.036059864,-0.07661532,0.088118486,-0.023461046,-0.16407196,-0.12980984,-0.04335069,-0.04323464,0.15128323,0.02010373,-0.047460232,0.03662362,0.13474391,-0.13656995,-0.022284027,0.08787761,-0.16256873,-0.06267095,-0.055408657,-0.014790087,-0.10659238,-0.12248898,-0.11747158,-0.11903893,0.09117637,-0.13374463,-0.054808546,0.17623621,0.023569731,0.11282713,0.14378181,0.10994993,0.1564493,-0.13871652,0.043955512,-0.09058737,0.109717384,0.12499259,-0.12417617,-0.07513684,0.0439381,-0.1327517,0.14364448,0.10223745,0.059184954,0.07733043,0.046654843,-0.095915094,0.039180536,-0.05166227,0.10110435,-0.16365333,-0.097243726,-0.062388916,-0.12829043,0.0041244878,0.12936756,0.059274156,-0.12340585,-0.034435697,0.00897741,-0.09568648,-0.07705248,0.06609161,-0.08597164,0.123100355,-0.022888985,0.16047828,-0.018279258,-0.07000101,0.16653351,0.056473948,0.08967216,0.2066808,-0.08966879,0.11363185,0.171994,0.13663463,0.20138298,0.1305235,0.021780018,-0.10842987,-0.039717816,0.05417061,0.10599276,-0.07632089,-0.15712151,0.02371424,0.12551734,0.05131677,0.054021813,-0.1395048,-0.048232708,0.037084207,0.15508261,-0.04377995,0.019255683,-0.03343386,-0.071432784,0.19385386,-0.04720414,0.1261162,0.049137533,0.13267179,-0.065703705,-0.11343458,0.16484855,0.14377668,0.15839584,0.11739417,0.008201947,0.08584812,-0.016051877,0.12800485,-0.12554418,-0.07127848,-0.1112052,0.0773961,0.1676242,-0.022919843,0.1408171,0.046298355,-0.094627194,0.055819787,0.15844171,-0.05371539,0.09649452,0.13863023,0.11294631,0.17759317,-0.041091748,0.1427752,-0.09103034,-0.18519114,0.17184328,0.10565452,-0.19115897,-0.06416146,0.083349496,0.116510905,-0.10635863,-0.13854843,0.059465203,-0.036135077,0.030589482,0.061875805,0.031913243,0.1486256,-0.026261244,-0.009924,-0.10470344,-0.040574547,-0.13010994,0.0375682,-0.066180885,0.11847506,-0.15886003,0.11406998,-0.03822587,0.08996447,0.031601753,-0.115359716,-0.0742025,0.15856189,0.10459276,-0.063408144,0.14260347,-0.12457605,0.07966217,0.09373616,-0.057351273,0.097915456,-0.0043453868,0.06379717,0.117834605,0.08377061,0.09593614,0.058094844,-0.06990329,0.13109918,-0.20194364,0.18619755,0.05812281,0.079650365,-0.11908334,0.09706688,0.026162157,0.08001361,0.12716287,-0.14423445,-0.067086734,0.106778316,0.11612066,-0.021829112,-0.15706736,-0.034502756,0.05036389,0.13429908,-0.061858803,0.15202194,-0.11756161,0.04255559,-0.0007876268,0.116104424,0.05651724,-0.029755997,-0.083623655,-0.1526973,-0.15278399,0.09898859,-0.07614647,-0.10019792,-0.20680639,-0.106192805,0.055032775,-0.060905807,0.042220138,-0.056886572,0.06481285,0.106207244,0.06728645,-0.16180608,0.07602082,-0.10607432,0.021495348,0.043603778,0.06959407,0.15073724,0.006098132,0.041470334,-0.11203985,-0.06291293,0.023784835,0.1795922,-0.108710155,0.034380395,-0.076552026,-0.019463224,0.19117704,-0.029521223,0.02928091,-0.1281121,0.05762649,0.128934,-0.07282788,-0.12810746,0.15824215,0.07817177,-0.12699482,0.049072348,-0.06694354,-0.10098171,0.0731194,-0.05046306,-0.015707344,-0.023092192,-0.09150754,-0.102914676,-0.004742119,-0.06376868,0.11879941,-0.02706716,0.103981644,-0.0381327,0.00464066,0.008110478,0.06862289,-0.14456263,-0.030706033,-0.11496535,0.1549061,-0.024725761,-0.10431683,-0.116424166,0.00059271493,-0.08298702,-0.03308096,0.011115777,-0.03657741,0.13996322,0.10743796,-0.112238094,0.10301475,0.10720369,-0.07257724,0.046516247,-0.09976906,-0.046508063,0.13490492,-0.11017841,-0.10813607,0.121637546,0.096519716,-0.16521291,0.07395447,0.08147556,-0.017536292,-0.13729003,-0.068512626,-0.1366773,-0.0017529748,-0.028322149,-0.08115165,0.06530528,-0.13437256,0.1493501,-0.07968085,0.008900554,0.05970211,-0.09162004,-0.09473018,-0.14352706,0.053926885,-0.095699206,0.06017558,0.07903734,0.05206656,0.0004183537,0.1259437,0.1251453,-0.17433615,-0.08226149,0.019820767,-0.041992854,0.038341798,0.011195106,0.088567525,0.16242519,-0.0035724284,0.11801354,-0.11195117,0.12292396,-0.021276623,-0.08323227,0.20267834,-0.13366282,0.07942299,0.0010545794,-0.14635113,0.039065275,0.041742835,0.05544776,0.092387244,-0.12649491,-0.15166222,0.052192234,0.12667869,0.027940797,0.045578938,-0.05093161,0.1538999,-0.054525256,0.16828826,0.10416911,0.12870026,-0.12864262,-0.14165579,-0.02998669,-0.1397379,0.0096616205,0.050155524,-0.12152357,0.13038762,-0.13388029,-0.122176796,0.10738079,0.12217271,0.006103927,0.04091992,-0.004282507,-0.03730605,-0.08649279,-0.15696865,0.11773141,0.15306069,0.0853911,0.14038476,0.04321133,-0.046609547,-0.07447942,-0.105251335,-0.062214386,-0.12517287,0.16500315,-0.11469352,0.13828239,-0.18765043,0.18165033,-0.054596934,-0.1003069,0.09307056,-0.027589386,-0.04941284,0.10232382,0.10798969,0.18504825,0.16853574,-0.17602532,-0.0414562,0.010790785,-0.07038873,-0.089657195,-0.0131207155,0.08340555,-0.05458515,0.040462233,0.15764861,0.12912959,0.104609154,0.10174981,-0.038597103,-0.11373181,0.15724307,0.13306679,-0.09666158,0.028097408,0.0640134,-0.03377833,0.10772458,0.05503433,0.13018167,0.1418417,-0.08567137,0.08108842,-0.14828901,-0.073471226,0.13592184,-0.07122643,-0.14038871,0.124806754,0.027289115,-0.08120734,0.11587126,-0.10901683,0.09338727,-0.0421917,-0.045435578,-0.085511826,0.12234652,0.14171952,0.060205642,0.14889869,0.10015449,0.0011155832,0.09389522,-0.079632275,-0.13195066,-0.03426807,-0.11422053,0.1596131,0.04496837,0.07831709,-0.1319914,0.14210996,-0.109317,0.06821309,0.12734982,0.145594,0.12938209,-0.1056763,-0.045320775,0.066702046,0.048084065,0.06138008,0.04334314,0.014761024,0.08614282,0.07341136,0.16011067,-0.055257604,0.07916677,-0.001200467,-0.030705975,-0.10841766,0.12538713,-0.07533996,0.10548706,0.12107602,-0.14715509,0.002346239,-0.0821261,0.0152087035,-0.14530197,0.08779034,0.02421649,-0.07081694,0.039358944,0.1318308,0.14920822,-0.12637587,0.069774896,0.013824148,0.13192733,0.060889542,-0.14012305,0.1434748,0.029373705,-0.062353186,0.11985979,0.053916384,-0.11404051,-0.016801799,-0.11857428,0.07734253,0.023196032,-0.108410254,0.11407685,-0.06664713,0.017756475,0.098182105,0.13313936,0.039069235,-0.051576156,0.13383284,0.10654857,0.025306113,0.12723748,-0.087362975,-0.11744865,-0.007830398,-0.0479032,-0.045929156,-0.06630331,0.077162474,0.113147214,0.12476689,0.0582056,-0.054317113,-0.053742826,0.025787868,-0.14565733,-0.15539533,0.021481542,-0.066294916,-0.033711012,0.095814124,-0.07658256,0.07062259,-0.13232554,0.08581419,-0.13626994,-0.122252166,0.05815188,0.1252887,0.0030357856,0.07332536,0.09091103,0.172603,-0.15004158,0.11477992,0.088581525,-0.017158333,-0.0024634716,-0.050034087,-0.14712596,0.06612553,0.00046783724,0.040384077,-0.022036865,0.12566154,-0.09863649,0.04246247,0.059886456,0.17400385,-0.116578445,-0.08358172,0.17724824,0.025525264,0.045468345,-0.06766858,-0.13403402,0.17013372,-0.12755568,0.05550619,0.10094567,0.02654717,0.13886125,0.047437273,0.0002146965,-0.031069333,-0.093297586,-0.13808554,-0.08556125,0.0043158852,-0.021095641,-0.035877194,-0.014516533,0.10177201,0.14846674,0.0391597,0.16067758,0.08873083,-0.019694602,0.12481115,0.13716404,0.14015333,-0.018001722,-0.1258282,-0.0015384672,-0.02104966,0.14171414,-0.023562167,0.14749904,0.08973299,-0.12735488,-0.02506471,0.07218693,0.14534387,0.1138526,0.017314317,-0.06429022,0.08263496,-0.108583875,-0.14945394,-0.002068393,-0.04967219,-0.17955182,-0.0314606,0.105382495,0.1998963,0.012536465,-0.12280075,-0.00016388338,0.10575909,0.115152985,0.07691573,-0.14663546,-0.07932691,0.11278619,0.11879343,0.08740858,-0.05011072,-0.032914296,-0.11901926,0.07290555,0.007802456,-0.118459135,0.17423072,-0.066012695,0.026744042,-0.09508725,0.20165083,-0.16729346,-0.09167192,-0.117790334,0.12527713,0.05363912,-0.15199365,-0.0068975035,0.14672807,0.15528843,0.04346214,0.05815274,-0.0126202395,-0.010778353,-0.010705586,0.014477773,-0.05454339,-0.06248367,-0.075847596,0.15814799,0.08357776,0.053104933,0.09801045,0.03757314,-0.098832205,0.07227488,-0.048695665,-0.09049558,0.067896105,0.105057746,-0.030710274,0.0996471,0.098078825,-0.012991526,0.18840812,-0.098051436,-0.020656751,-0.0459983,0.003666216,0.0952153,-0.15172066,0.035609696,0.108402394,-0.051896688,0.12924209,-0.085954964,-0.12236074,-0.037691407,0.12345163,-0.16464168,-0.009307421,0.170883,0.054563325,-0.033738684,-0.11380548,0.10714579,-0.15971084,-0.13305934,0.00040546214,-0.12175782,0.010000409,-0.023251802,-0.0049675833,0.12980251,-0.01564251,-0.052935395,-0.0775838,0.055889156,0.060288217,-0.010602306,-0.15135704,0.09409969,0.060636945,0.1377177,0.044150524,-0.097323485,-0.01797933,-0.06543329,0.085470065,0.056272194,-0.028601559,0.09946504,-0.09342635,-0.050931096,-0.034866434,-0.122024626,-0.13756499,0.08080573,0.012186694,0.005432263,-0.14555697,0.1042699,0.09704738,0.0423559,0.027483977,0.13586494,-0.11446568,0.078021586,-0.043926824,-0.13259771,0.108417615,-0.14164375,0.12636238,0.06602476,-0.08002878,0.039121103,0.038193353,0.13487549,-0.03942506,0.11910533,0.1167812,0.030007923,-0.02940872,0.041456256,0.03779289,-0.1318886,-0.11257791,-0.13126537,-0.15655012,-0.123793565,-0.08112046,0.11988613,-0.052048992,-0.02692704,0.005203784,-0.11277951,-0.11871106,0.034844115,-0.03472159,0.005219305,-0.05779185,0.022898644,0.06685924,0.044706434,0.13269576,-0.13751017,-0.037953462,0.052480817,-0.0012923724,-0.07431399,-0.08575185,0.17931245,-0.09728674,0.015019807,0.022791,-0.08552082,0.0049257213,-0.120512016,0.14540763,0.07274691,0.11798808,0.019606916,0.060610373,-0.08610673,0.14586452,0.12793879,-0.045447133,0.0994081,-0.08813536,-0.12791619,0.0056235967,0.0008413071,-0.025354402,0.2133943,-0.16755077,0.104711786,0.027657302,-0.11985251,0.052082438,0.108280614,-0.023491811,-0.024379713,-0.15547988,-0.11249326,0.088376306,0.14191797,-0.12880765,0.09987037,-0.050556526,0.12970985,-0.12796114,-0.06565145,-0.023788532,-0.13489486,0.107892916,-0.07061185,0.1551528,0.07214168,0.060995497,-0.07308029,0.16904555,0.06008384,0.024862044,0.08996655,-0.05686736,0.07315745,0.10412043,-0.070786014,-0.009267677,-0.056357462,0.16030705,0.011618689,-0.09261521,0.06969415,0.13899328,-0.101885356,-0.09622068,-0.08715759,0.1818043,0.118913345,-0.027175626,-0.04987249,-0.07676577,0.02311651,-0.1336017,-0.026699385,-0.15497023,-0.06160581,-0.020669168,-0.10966189,-0.0065954044,0.07132555,0.009814833,-0.020269437,-0.022961857,-0.091360316,0.10155264,0.120552234,-0.1305657,-0.043900765,-0.1231685,0.11371639,-0.07873724,-0.01278133,-0.09049595,0.12757276,0.04277799,0.12341217,-0.041773044,0.013033401,-0.002778312,-0.08687427,0.01090529,0.09311056,0.079851635,0.09625423,0.12061774,-0.059964556,-0.1572871,-0.06886846,-0.001233452,0.07646613,0.14551988,0.11606386,0.14836416,0.076196305,0.12921996,0.10550335,-0.009888324,-0.056664467,-0.042352818,0.06389029,0.0683751,-0.04550291,0.06379486,0.13682033,-0.114155434,0.049811136,-0.04042194,0.14504094,-0.057280418,0.13565548,0.013214221,0.15057662,0.023162594,0.20534328,-0.12021377,0.061081633,-0.13642003,0.07742533,-0.047600158,0.1304381,0.14234559,-0.06377656,0.022165023,-0.12859039,-0.0147644635,-0.09662515,-0.037624784,-0.11315795,-0.012605359,-0.1549926,-0.12842697,0.028732408,0.14727098,0.01659736,-0.06759104,0.12190223,0.034107964,-0.050515164,-0.0045248233,-0.020113545,-0.110948265,-0.036314085,-0.0228963,0.054971494,0.1254248,-0.10323782,-0.07784484,-0.09217883,-0.056244414,0.030579546,0.12083178,-0.05019971,-0.07985967,0.12937418,0.010206882,-0.10137092,0.14598896,-0.13119233,-0.13963386,0.1510603,-0.056572877,0.04442202,0.12372898,0.004691721,0.02505532,0.035538305,0.1398368,-0.09279058,0.12164722,-0.13939975,0.14853492,-0.13993233,0.013861107,-0.16162892,-0.021460751,-0.047440317,-0.108249284,-0.035252187,-0.028338091,0.056586973,-0.035960883,-0.037703313,-0.09259299,-0.05249203,0.095073454,0.14961778,-0.0756311,-0.12171339,0.014882891,0.034108695,-0.093889385,0.11950766,0.21312073,-0.023418816,-0.13569893,-0.08202864,0.05803923,-0.098513,0.13646528,0.060402315,-0.048255168,-0.14781788,-0.045469474,0.042340633,-0.13273516,-0.105034776,-0.10333772,0.14111105,-0.060582366,-0.09137969,0.10916516,-0.13982369,-0.096412644,0.11164738,0.10120385,-0.025549123,-0.026027938,0.07161608,-0.08558184,-0.16158593,0.010030812,0.086752266,-0.08044327,0.15653263,0.03279979,-0.06835001,0.0986209,-0.09167017,0.017479625,-0.07733784,-0.14597419,0.13734716,-0.1495209,0.044206988,-0.0124423485,-0.1366184,0.0423307,0.08259521,0.14247185,-0.0024689015,-0.016168172,0.10422276,-0.038818017,0.043906182,0.06551264,0.11314624,0.12222732,-0.041324995,0.18359359,-0.013251954,0.15423271,0.095753655,0.054646287,0.059345923,0.05987247,0.056939796,-0.04482617,-0.009860534,-0.16558786,0.13078777,0.11786644,-0.013355673,-0.025947126,-0.08220386,-0.08307275,0.034788903,0.10081742,-0.100889996,-0.1441246,-0.13018659,-0.020672208,-0.13037631,0.10224192,0.0069087925,-0.15187703,-0.121396296,0.07161885,-0.0070052515,0.014754091,0.0011847875,-0.120142415,-0.05280911,-0.06433056,-0.030963544,0.11722536,0.0666487,-0.09381541,-0.06664249,0.01317401,-0.002553629,-0.11536196,-0.05146534,-0.06139632,0.11872462,-0.100847736,0.1529698,-0.02511441,0.12758502,-0.029577432,0.1710993,0.11929727,-0.1328462,-0.063368686,-0.10202621,0.060185455,0.11440596,-0.17277154,-0.11473176,0.0918154,-0.17126746,-0.15703115,0.09065946,-0.09519403,0.1565092,-0.07152028,-0.13092533,-0.0777719,-0.03783637,0.0106376,-0.03584194,0.07678874,-0.055567466,0.12683447,0.12329871,-0.05981102,-0.032300312,0.066651344,-0.012002604,0.008387301,0.041062023,0.06504091,-0.02165267,-0.114745885,-0.012051609,-0.019551197,-0.11120244,0.01982172,0.008477157,0.038101386,0.0164581,0.06960106,-0.14677463,-0.04406237,-0.08549513,0.11315727,-0.11459488,-0.124639824,-0.009662618,-0.06501403,-0.10221724,0.106372185,0.10034364,0.0036737002,0.059894975,-0.14601727,-0.014299241,-0.075937636,-0.02654353,0.027697088,0.1231331,0.14098826,-0.11622534,-0.02146398,0.027119195,-0.0065733735,-0.1466534,0.0542202,-0.16255973,-0.058945056,0.16051413,-0.17510764,-0.035311483,0.10327053,0.110528715,0.065605305,-0.09099065,-0.11409435,-0.05333332,-0.115951546,0.122930266,-0.14753118,-0.14351098,0.048463058,0.02198378,0.05854974,0.019670347,-0.03182458,0.016499275,-0.115269825,0.0062754513,-0.05720132,-0.10199877,-0.09340089,-0.13619448,-0.04906603,0.044819705,-0.0016984735,-0.029072702,0.053983267,0.00859147,0.07363704,-0.13444339,0.12080627,-0.03460673,0.08965679,-0.0786782,-0.081117876,0.03402893,-0.052482188,0.1280603,0.0119223865,-0.11836295,-0.08951822,-0.020052288,-0.17287834,0.080124,0.044955805,0.08925096,0.03795709,0.15268712,-0.12540978,0.14369257,0.029782189,-0.065527834,0.1561319,-0.08673318,-0.13829751,-0.06806752,0.11181852,-0.13962275,-0.075757004,-0.058985315,0.13986295,0.06692953,0.056859512,-0.11598046,-0.0068753464,0.057006244,-0.12631202,-0.013927128,-0.08930653,0.011535565,-0.058281396,-0.051212143,-0.12522753,0.08299497,0.07775949,-0.033367656,0.12745337,-0.16748331,0.08235201,-0.130231,0.13868451,0.012104391,0.080001354,-0.008735105,-0.06428834,0.022966856,-0.083541386,-0.019758243,0.015446817,-0.010546361,0.04167067,-0.13725848,0.032412387,-0.081400014,-0.006800844,-0.13819192,0.1141645,0.015306,0.11118847,-0.10067463,0.08839011,-0.053410888,0.1522646,0.048826374,-0.03853741,-0.025890987,-0.020846723,0.041232012,0.040178385,-0.12097901,0.08834603,0.07157028,-0.05058999,-0.06080771,0.14579418,0.13814785,-0.014693247,0.02851253,0.031093169,-0.0696999,0.049574204,0.071975596,-0.16565844,0.122023664,0.13348837,0.0025172974,-0.15105967,0.11498572,0.06629659,0.026077589,-0.10295495,-0.008136329,-0.122668885,-0.08593925,0.0048465068,0.0065085916,0.08621887,-0.038638193,-0.07551185,-0.16479102,-0.059341103,0.17546567,-0.025665816,0.101342574,0.19510289,-0.07554641,0.096309274,0.06295451,0.018847905,0.036151737,0.12215726,0.03950007,0.0032442699,0.06212106,0.038481407,0.061299644,0.06253228,-0.015467755,0.05994325,0.11589424,0.011349344,-0.13835011,-0.0151177915,0.06397982,-0.13276158,0.08230092,-0.13992131,0.051185198,0.1054485,0.061596274,-0.016156925,-0.14450808,0.14505863,0.0045399335,0.11181059,0.012955882,-0.07421546,-0.052688774,0.18604894,0.0018531318,-0.12210694,0.0015357151,-0.17878991,0.08174647,0.036760386,0.06047941,-0.044342227,-0.13831063,-0.11777223,-0.07436126,-0.00022764837,0.15928435,-0.08897907,-0.01081544,0.09934453,0.14291921,0.08466196,0.12691195,0.1493214,-0.1494135,-0.12960288,0.15959159,-0.13339774,-0.07440185,-0.031504624,-0.030710993,-0.07046579,-0.12493492,-0.06881105,-0.051938858,-0.024327073,-0.0229587,0.09689904,0.122520536,0.049180347,0.07656082,0.07861662,0.11750879,-0.082784146,-0.0626331,-0.12941846,0.051458176,0.0740467,0.09615366,0.04148787,0.020530537,0.11998427,-0.06799731,0.014657398,0.03275218,-0.0023519052,0.1538353,-0.08290333,-0.029370654,-0.10130512,-0.18568671,0.05356066,0.10114768,-0.1274337,0.0329795,-0.15655397,-0.1971539,-0.114587225,0.18512642,-0.0026048876,0.18336849,-0.009466516,0.10701717,0.11945786,0.060290955,-0.1280709,-0.12983276,-0.020540094,-0.09502001,-0.001712577,-0.031401396,0.1357806,-0.014026904,0.0350327,-0.0009889365,-0.07000346,0.039973773,-0.023538966,-0.10509537,-0.039392184,0.110152215,0.09647222,0.1301935,-0.08461993,-0.06723105,0.01270491,-0.10404893,-0.087814994,-0.05366531,-0.028669262,-0.035614632,0.13852231,-0.0831074,0.08339141,-0.028926138,-0.077140324,-0.12249691,0.094286084,-0.018913863,-0.01488256,-0.08994579,0.0465327,-0.046871882,0.13321304,0.04660466,-0.07443777,-0.054848596,-0.027776863,-0.13609956,-0.057067636,-0.014670982,0.03241426,0.16066653,-0.098486185,0.031706773,-0.055708826,0.11594084,0.13077106,0.13766442,0.12256364,-0.008914139,-0.15056431,-0.011543323,0.016437558,-0.059859872,-0.019876266,-0.029000785,0.13216054,0.048190594,0.07038567,0.15672924,-0.12842257,0.09388793,-0.16563526,-0.01859183,0.123218186,0.106826544,-0.113136634,0.13412242,0.10895107,0.17117625,0.12805478,0.15738031,-0.026638364,0.020552384,0.027663011,-0.10697387,0.22298281,-0.053856045,0.031196827,-0.06000986,-0.024367578,-0.03977355,-0.06890663,-7.553256e-05,0.03211882,0.080694005,-0.0737702,-0.17102359,-0.01598954,-0.027399618,-0.06486543,-0.061503287,-0.048612177,-0.10984302,-0.03566955,-0.14078383,0.046315104,0.1319226,0.069078654,-0.030310385,-0.06476939,-0.15353514,-0.043347478,-0.013009303,-0.13759737,-0.055625036,0.16121921,-0.03133723,-0.118970476,0.13858753,0.008441437,-0.15767306,-0.07556335,0.10980108,0.15216489,-0.10592543,-0.11694974,0.110228844,-0.020308208,0.05715594,0.09892182,0.020108705,0.07652688,-0.046247132,-0.004655394,-0.02342521,0.12199742,-0.11105937,0.08847189,0.098439,-0.08508817,-0.038332146,-0.13840032,0.095839985,0.06523852,0.109635666,0.010888894,0.09146629,-0.14753439,0.14945869,0.0794496,0.051128436,0.06351263,0.1534133,-0.10977331,0.11361705,-0.039030533,-0.1384651,-0.09016611,-0.0219688,-0.030534694,0.021134986,0.1325814,-0.020729333,0.06938328,-0.066421196,-0.0070938496,-0.14194755,-0.146479,0.043878336,-0.016407663,0.0205972,-0.114224404,0.107653104,-0.035865158,0.12596339,-0.017129391,-0.031773757,0.065840125,-0.12739208,0.059458416,0.12283287,0.1968204,0.07209938,0.11396816,0.043411933,0.07409699,0.09264854,0.13153481,-0.007808135,0.060086843,0.06358015,0.0760396,0.17633146,-0.095197774,-0.16246761,-0.1296899,-0.13655591,-0.13675155,0.034722354,0.015700426,-0.0636629,-0.10981357,0.09471318,-0.07063495,0.0073778047,0.065910235,-0.0740797,0.052538928,-0.020315092,0.13615327,-0.09695615,0.06938351,0.021534277,0.088147186,0.11455075,0.03424994,0.09218013,0.0005594047,0.006718464,0.004442993,-0.060539708,0.016106538,0.14924705,-0.1879368,0.14210579,-0.17856342,-0.029606001,-0.077059016,0.005894829,0.18108682,-0.1594721,0.09251819,-0.07508498,0.03756847,0.08189176,0.070627786,-0.047274493,0.12315739,-0.108781405,0.09871461,-0.018340273,0.21325573,-0.041627485,0.053565457,0.04077567,0.13878618,-0.1491678,-0.057138193,0.10122999,0.09648619,0.05755949,0.16213822,0.18732269,-0.063483745,0.17622074,0.023265552,0.10311291,-0.044366818,-0.06998545,-0.1402909,0.080018766,0.021983262,-0.0029343916,-0.12538603,0.07240603,0.09295875,-0.092323475,-0.09530691,-0.14207399,-0.018723242,0.07381371,-0.046667345,-0.056239743,0.1517611,0.05762664,0.03572318,0.010288072,0.112004206,-0.045215275,0.06931864,0.052838642,-0.036425028,0.09848241,0.14078751,-0.10056116,0.1933049,-0.07176978,-0.08456988,0.1374343,-0.13218687,-0.066990115,-0.06925338,-0.010507783,-0.13678773,0.0631334,0.06314856,-0.14886494,-0.094572715,-0.0136171505,-0.03994288,-0.033625964,-0.13448153,-0.046225194,-0.17680004,0.009795704,0.14056647,0.035251003,0.085446335,0.14859107,0.067924626,-0.12347934,-0.008501747,0.093152545,0.09282162,0.13186358,0.109721504,-0.07633524,0.124410525,-0.14283286,0.10241021,0.046729837,0.062603414,-0.04508953,0.062169973,0.14633551,-0.07865794,-0.16158304,0.020412246,-0.07733619,0.035483554,-0.14198297,-0.013593321,0.035792153,-0.044842664,0.047312662,0.055008143,-0.1038094,-0.10865292,0.12595646,-0.15102613,-0.09721512,-0.08486001,0.07816648,0.10795611,-0.11517064,-0.055961985,-0.046587802,0.025823772,-0.10787877,0.025394944,-0.006337683,0.07198807,-0.07301495,-0.04156579,-0.06717808,-0.1639129,0.11876821,-0.17297886,0.15975368,0.11675741,-0.017596675,0.03619959,-0.0801033,0.112138554,0.09612495,0.059018046,-0.044301637,-0.14150982,-0.16028151,-0.09480939,-0.11192116,0.076697625,0.027537294,0.15358588,0.011994558,0.0075481227,0.128405,-0.15005736,0.11678199,0.014541673,0.12767228,-0.011998743,-0.13158451,-0.0952399,0.008270542,-0.05554159,-0.13969252,-0.123156056,0.06785253,0.13963315,-0.044845108,0.08403947,0.06655261,0.137321,0.07088296,-0.07230164,0.07215775,0.037502974,-0.058476396,-0.020159895,-0.081771754,-0.06773641,-0.11232873,0.022295306,-0.13107038,0.03452168,0.024037115,-0.093910344,0.031055646,-0.05286443,-0.05377769,-0.13884285,-0.100329824,-0.10576741,0.09583013,-0.037581526,-0.031909242,-0.05243655,-0.0073793787,0.03511576,-0.1606635,0.027704615,-0.15837574,-0.06450529,0.030926634,-0.0009654183,-0.080755904,-0.02847212,-0.118896104,0.024716113,-0.09739345,-0.0617977,0.12550072,0.12342745,-0.13296908,-0.13669217,-0.001983611,-0.09036687,0.09560329,-0.11665416,0.092984006,-0.045262996,-0.09767554,-0.010246083,-0.093141496,0.12706314,0.014920656,-0.027173512,-0.077166624,-0.13091892,0.040815264,0.12764257,0.13267459,0.14524807,0.08155295,0.08379884,0.14271788,0.13387254,-0.09223538,0.026083525,-0.15085493,0.06634362,-0.1428541,0.06837052,-0.0047403667,-0.14525385,-0.12229137,0.1203584,-0.035993543,-0.03831187,-0.042522974,-0.05951537,-0.10932684,0.14080858,-0.086360425,-0.003349049,0.060392395,0.09729617,-0.120995365,0.09636565,-0.147507,-0.137839,0.10744953,-0.00038741372,-0.016292527,-0.011484725,-0.12789209,-0.02370595,-0.07503003,-0.14555554,-0.15469387,0.045059722,-0.024373569,0.07719223,0.13528146,-0.034558117,0.03041336,0.02220335,-0.032985516,0.10053099,0.06974298,-0.022649724,-0.10094555,0.101581,0.15403739,0.08610243,0.012386074,0.11727832,0.18859985,-0.11458019,0.19519584,-0.09125575,0.15624106,0.08987122,-0.081892125,-0.086037554,-0.06646054,0.09763301,-0.14623247,-0.10264927,-0.14955983,0.015662117,-0.1522458,0.11801689,0.13787761,-0.084818445,0.11571367,0.05646143,0.0014686087,0.0021115502,0.106635794,-0.066233896,-0.061954673,0.091606215,0.035467215,0.024205798,0.086147964,-0.07862617,-0.041332997,0.11269982,0.045027547,-0.096133195,-0.06537172,-0.12878732,-0.094451316,0.009875807,-0.11109424,0.11196167,-0.04227907,0.1081638,0.14652815,0.017470416,-0.11145121,0.010866771,0.091356784,0.09590862,0.11960169,-0.021865387,-0.16639617,0.116535716,-0.06492977,-0.06724764,-0.055179805,-0.027865624,-0.049538862,-0.12644777,0.022829166,0.09140846,0.11276118,-0.16310015,0.13741554,-0.06900379,-0.13702525,0.019919027,-0.070718765,0.1486919,0.07202413,0.07157476,0.12738365,-0.13085033,0.040924735,-0.03872737,-0.13961154,0.06800493,0.13748647,0.12695663,0.06800444,0.07054126,0.063664846,0.100274764,0.037946545,0.021143125,-0.13577102,0.14801301,-0.06123378,-0.09958233,-0.08082217,-0.05129696,-0.11277601,-0.060155004,-0.08336462,-0.007170935,0.046258464,-0.081169814,0.0026507983,0.093777895,-0.10413267,0.08689474,-0.08467574,0.030791894,-0.14281665,-0.00247011,0.13583718,0.0150458915,0.07494398,0.11528136,-0.04657377,0.019916842,-0.038754225,0.03289858,0.05712513,0.13268404,0.1287109,-0.07981771,0.16091722,-0.03678677,0.10374843,-0.041206174,-0.053916138,-0.09793012,0.033707224,-0.031764396,0.11177408,0.13480183,-0.038644444,0.16820137,-0.14261205,0.07178146,0.1544738,0.09420984,-0.04324374,-0.028268535,0.047258005,0.11985172,-0.10077581,0.09266887,-0.1521312,0.08574241,0.11004096,0.007976996,0.059774674,-0.091560386,0.0055898516,0.045048185,0.026122438,-0.15193467,-0.12515709,-0.02271825,-0.098218255,-0.12102518,0.15220469,-0.00037376,0.13325495,-0.09295765,0.09987976,-0.12767671,0.09348419,-0.06361434,0.0593257,0.021691695,0.072523944,-0.092338175,0.100609265,0.098946914,-0.0048961574,0.056487348,0.07737618,0.043220125,0.02364173,-0.16323215,-0.15387678,-0.008440167,0.016935986,-0.119020864,0.07028543,-0.13276753,-0.11845858,0.042290486,0.15391679,-0.09194878,-0.112857535,0.11356549,0.08938539,0.19856086,-0.056161582,-0.013780745,-0.027296389,-0.14031538,-0.14345431,0.12844086,-0.051719196,-0.094083466,0.11069182,0.031198785,0.051219143,-0.06182698,-0.125331,-0.039233174,0.06113472,0.06507544,0.11360151,-0.13660493,0.033963993,-0.05906253,-0.15512848,-0.013697713,-0.041383382,0.106899194,-0.01600496,-0.07965968,-0.12697381,0.19534583,-0.18623635,-0.008686031,0.085888855,-0.057820313,-0.06632702,0.016340084,-0.108446576,-0.15597323,-0.046233334,-0.11103618,-0.053320665,0.16063873,0.13298783,-0.15084429,0.15933059,-0.0130801005,-0.07089692,-0.11453026,0.16464229,-0.11988375,-0.029540863,0.12712026,0.017935595,0.085329734,0.062525675,-0.1180729,-0.03601049,0.12124937,-0.07226825,0.119445935,0.08371114,0.14131619,0.005664696,-0.11421004,-0.04151378,0.022931414,0.15202633,0.11870431,-0.0012679921,-0.090508565,-0.15211672,0.058989905,0.19930446,0.13276424,0.0601067,0.0652765,0.15811096,-0.048775233,0.1546755,0.06696502,-0.057996936,-0.11378276,-0.07436897,-0.122069925,-0.04601947,-0.004970219,0.0023655298,-0.047178388,-0.10915222,0.08117881,0.043234535,-0.13580273,-0.015168895,-0.031264704,-0.06338298,0.07833791,-0.09733716,0.1490008,-0.03030587,-0.009288075,0.09140037,0.049335018,0.03290988,-0.1325578,-0.004667395,-0.0714582,0.014717188,0.14517836,-0.10731076,0.054374155,-0.12098145,0.023781557,-0.085419685,0.04554764,-0.14826757,0.21382442,0.08942409,0.11260531,-0.07006279,-0.042676218,-0.08638743,-0.011627635,0.06593832,0.0022105535,-0.12175723,-0.03187069,0.10017208,0.13703498,0.11779613,0.17461751,-0.051351383,-0.05948987,-0.16511008,0.04224618,-0.154538,-0.038883936,-0.014105847,0.1360752,-0.00084698363,0.15069234,0.10372382,-0.16132948,-0.064809635,-0.106413625,-0.03348339,0.0048526074,0.15301673,0.18962498,0.114761606,0.0554583,0.054574426,-0.18239127,-0.112579495,-0.09653256,0.03711446,-0.107650824,-0.09862933,0.028368376,0.0836101,-0.06301104,0.077988945,0.055952568,0.14528118,-0.012201663,0.04974669,-0.15463327,0.066029154,-0.0580508,0.14766668,0.06136134,-0.031179989,-0.14605688,0.06799941,0.025182758,0.03272505,-0.014189724,-0.014830479,-0.055796396,0.13050814,0.048694268,-0.105612345,0.09969139,-0.041754864,0.050220355,-0.080126055,0.017395496,0.034801114,0.08470289,-0.06940804,0.11432804,-0.09722933,0.17691395,-0.14852571,0.13695079,0.05378812,0.0972406,-0.07007073,0.0324123,-0.035297424,0.046690926,0.17529239,0.10112997,0.14956297,0.055804856,-0.08330211,-0.13939324,-0.080725566,0.017710626,-0.13246784,0.16177426,0.04371128,0.14392458,0.026152214,-0.05805627,-0.12635498,-0.014408114,0.05480606,-0.01643876,-0.05541821,0.03499242,0.12140346,0.04160908,0.1646785,-0.0995282,-0.005691427,0.1062848,0.03693768,-0.031253412,-0.08638738,0.040865634,-0.103731826,0.12712376,-0.030325634,0.12392428,0.08591331,-0.043166593,-0.010318009,0.05923957,-0.049574316,-0.12298264,0.11751555,-0.14968687,-0.05120147,0.15207317