0.019728051,0.04559974,-0.020240678,0.027701287,-0.01732079,-0.052997556,0.055459507,-0.041109167,0.06445763,0.0076987594,-0.004754197,-0.01487031,-0.020166859,-0.016338818,0.04342979,0.008906198,-0.00026494858,-0.0076383282,0.0041605816,0.04269507,0.054754265,-0.041026153,0.035226807,0.02005716,-0.013719615,-0.019124083,-0.026104946,0.021730639,0.00022975433,0.026749905,-0.037721608,0.040130068,-0.004525713,-0.04354379,0.004169246,-0.005848564,0.012995543,-0.021335065,-0.040115025,0.0027191613,0.014678394,-0.044291914,-0.04057864,0.054566074,-0.051631313,0.035755698,0.021412095,-0.036078714,0.05462138,0.028859977,-0.036932215,-0.03780079,0.08641628,0.018474994,0.013520723,0.029798988,0.09692429,-0.025777299,-0.031449813,0.013341259,-0.010115389,-0.03137113,0.030252902,0.02969135,-0.04879719,0.016505431,-0.019441027,-0.044662464,-0.023685683,-0.060432676,-0.04899769,-0.050853673,0.010454439,-0.015680166,-0.044753455,0.031982664,-0.031091025,-0.0012785505,-0.02214967,-0.011369691,-0.0067718364,0.031272016,-0.008280092,-0.024057696,-0.04389488,0.022081321,-0.022233667,-0.048868757,0.008270582,0.044217687,-0.027014,-0.003518031,-0.036278825,0.0025083995,0.015497554,0.023077764,0.031190937,0.026644468,-0.037047237,-0.050741788,-0.019614821,-0.033645354,0.042347047,-0.034378234,0.01644931,0.0045950874,0.03061234,-0.01193678,0.031243563,-0.031195605,-0.008643224,0.016716644,-0.02536708,0.036207918,-0.004996848,0.03189212,0.01901891,0.03959182,0.048706304,-0.033080176,-0.010382185,0.04529711,-0.022225967,0.014321203,0.0135380225,0.011088371,-0.042268015,0.0402376,-0.024992075,0.03358094,0.020352922,0.027703434,0.028767038,0.030021237,0.015363458,-0.030792879,0.021155361,-0.013307814,-0.034774397,-0.00097416056,-0.025842695,-0.03671603,-0.02530234,0.037382275,0.0050121415,0.03334418,-0.0450887,-0.016265566,-0.002250952,-0.026946068,-0.033975393,0.048384722,-0.0103696585,-0.012129474,0.041814096,0.030517245,-0.028124467,-0.023165226,-0.020398356,-0.02488123,0.013217691,0.037619237,-0.004898211,-0.022612039,-0.020135857,-0.011610023,0.006936741,0.03381647,0.019883428,-0.013077825,-0.0018235419,-0.012228693,-0.019237967,-0.0063659297,0.033847008,-0.027996497,0.034660988,-0.018848589,0.013424877,0.020032771,-0.009247153,-0.021395544,0.04933622,0.009101593,0.015858822,0.012491049,-0.010035941,-0.004802596,-0.038777612,0.00030745857,-0.063584484,0.024372503,-0.039466016,0.031881545,-0.01888506,-0.03201272,-0.03313489,-0.056550413,0.027147066,-0.025443176,-0.037756484,0.011255816,-0.04733742,-0.038621116,-0.03748371,-0.0090693245,-0.039114878,-0.010869114,0.01454717,-0.03899462,-0.0010917792,0.006300133,0.017344069,0.02879542,-0.042718276,0.04962619,-0.00015798892,0.035571072,0.036342304,-0.035350278,-0.002942234,-0.02841295,0.012770445,-0.0300854,0.0234933,0.037795957,0.014329996,-0.008651067,-0.051001653,0.012606788,-0.006306247,0.05405476,-0.034123167,-0.0011630617,0.014576305,-0.03421605,-0.010998372,0.010754417,-0.00858723,0.007173951,0.04496186,-0.022429273,-0.041723996,0.017082078,0.023207936,-0.026801389,-0.025009125,0.04263451,-0.019573146,-0.0036147854,0.012341429,-0.019339329,-0.02369605,0.03406169,0.013807271,0.018477965,-0.00042351254,0.039724447,0.004231684,-0.05557991,0.023061074,0.0016034093,0.0175511,-0.00020377913,-0.022246363,-0.031966224,0.04111901,-0.008206895,0.007585961,-0.038667597,0.039089374,0.018584473,-0.034283675,0.014223275,0.042355977,0.018508874,0.042502675,0.030506788,-0.018183295,-0.041711044,-0.03968128,-0.042540506,-0.052925535,0.032825805,0.0064964266,0.02207969,0.034132734,-0.0027038725,-0.051718183,-0.014992991,-0.043582823,-0.052312545,0.033928715,0.0058058836,0.024086565,0.0011723402,0.041803837,0.022240551,-0.04838453,0.025011761,0.017846482,0.019398456,0.014180754,-0.05720838,0.03762914,-0.052509468,0.003137283,-0.0040965746,0.033505883,-0.07484365,0.06031077,-0.05188821,0.018482335,-0.0073945513,-0.04345574,0.010587408,-0.0032914192,0.0060833413,-0.021211231,-0.015755657,0.023572816,0.011172822,0.0112424465,0.0013181932,-0.011528081,0.005283341,0.034270957,-0.043586507,0.065185815,0.013818506,0.017718978,0.028246656,-0.020379726,-0.009051845,-0.029324343,-0.01212469,0.0075193844,-0.053045344,-0.007940345,-0.008561298,0.056730643,-0.048515014,0.009623394,-0.04407952,0.03315121,0.00020474195,-0.0038575267,0.029692002,-0.027685381,0.00399376,-0.029052785,-0.019138591,0.013522792,-0.002506204,0.06483136,0.03910365,0.023058843,-0.010278934,-0.019433185,0.032624893,0.009506856,-0.020185206,0.032710463,-0.0067172716,0.026936842,-0.024963778,0.03530974,-0.04363876,-0.01803109,0.06295351,-0.051656567,0.0070616375,0.020479005,-0.028481606,0.039330248,-0.022809697,0.037815537,0.048506025,0.033725288,-0.041924443,0.00876428,0.00060347206,0.02568044,0.03972685,0.030475406,-0.0500038,0.024816055,0.02518552,-0.014393158,0.0151536465,0.003246778,0.0004046931,0.03335196,0.0033639164,-0.0013449397,0.018002534,0.0023852799,-0.0072542187,-0.019836465,-0.050586667,-0.03752597,-0.016823752,0.034949504,-0.0022891345,-0.04515339,0.016858853,-0.01905137,-0.043974187,-0.0014703997,0.03141414,-0.0059601087,0.016433546,-0.021561367,0.0040359823,-0.013340349,-0.006375893,0.015055486,0.023405539,0.048261497,0.027437756,0.02412079,-0.04616718,-0.047615126,-0.00939164,0.024801843,0.027764402,0.010341792,-0.04663508,0.019071348,-0.0073760636,-0.047955442,0.005100474,0.002567661,-0.022469746,-0.034873888,-0.010786319,-0.021048335,-0.008849883,0.028392363,0.024584277,-0.01668595,0.034829892,0.03631588,0.014204701,0.0382433,0.01662321,-0.00020907141,0.044444837,0.011490716,-0.0074559115,0.0076276422,0.023664871,-0.023456499,-0.04144154,0.0010295289,-0.035196517,0.009990929,0.016845603,0.014318634,-0.052809555,-0.0078607695,0.017341964,0.030236535,0.0010305569,0.041942,-0.05017136,-0.03294516,0.018530201,0.04927222,-0.038271815,0.020259358,-0.036659792,-0.031251818,0.0353476,-0.051506117,-0.01110109,0.027368294,-0.02436552,-0.030233676,-0.0024836776,0.011622943,-0.02542587,0.050089225,-0.0012604631,0.016325083,0.0020375939,-0.014540071,-0.013795108,0.010536072,0.024757963,0.0023219406,-0.0559544,0.02299167,0.028765226,0.030527553,-0.0018103556,-0.051349234,-0.033159528,0.013810176,-0.022708628,0.030797474,0.0102691585,-0.029872201,0.020898303,0.050205316,0.01462513,-0.036617484,-0.039616443,-0.046369314,-0.042447254,-0.009264058,-0.0573027,-7.3105206e-05,0.009605195,-0.004552372,-0.0037017795,0.025888737,-0.050758053,0.019658241,0.043930754,-0.032623824,0.02209219,0.022555742,-0.018411238,0.017083457,-0.028991833,0.017535226,-0.019266268,0.054206207,0.0064869225,-0.012912213,0.0038454805,0.06097367,0.029881353,-0.010351093,-0.027409898,-0.011012256,-0.024456693,0.033743553,0.031715643,-0.010225581,0.035526443,0.057470914,0.028861288,-0.048971415,-0.03382411,0.011730329,-0.04080274,0.034976326,-0.049681477,-0.03755584,-0.0879514,-0.021344323,0.023870144,0.031858876,-0.05983954,0.045589533,-0.0091496,0.0008217042,-0.012506606,0.042819653,-0.017444978,0.046244662,-0.071169995,-0.0012289089,0.022033827,0.031795587,-0.019626217,0.03140388,-0.0013225527,-0.048530467,-0.033898797,-0.015698258,-0.04709296,0.044661544,-0.052289814,0.006159473,-0.030965565,-0.03313578,-0.045012966,-0.02811606,-0.018333143,0.059235934,-0.05544508,0.03185819,-0.047180295,-0.016984671,0.028685745,-0.024278337,-0.046224482,-0.00044461375,-0.01441738,-0.010363869,-0.041508712,0.035678484,0.03129632,0.04367793,-0.006927673,-0.03905392,-0.0005508541,0.03878686,-0.025278864,0.035860818,0.012728825,0.010722174,-0.019726437,0.015413728,-0.015551743,0.019695016,-0.01151083,0.0081092855,-0.05179919,0.00013623982,0.015838966,-0.015659107,0.028129773,-0.053792596,0.04101459,0.026159588,-0.011421018,-0.0033548581,-0.0021056747,0.004268652,0.003670453,0.052308664,0.056707453,-0.0038209334,0.0027007507,0.0014190776,0.023387734,0.010935257,0.035847202,0.0011714615,-0.012658504,0.0063506053,-0.05108767,-0.0389254,0.038977824,-0.010427824,-0.032208227,-0.004086646,0.03294977,-0.004598271,0.03171687,0.008766208,0.045771968,0.029775651,-0.02858359,0.017540265,-0.026973369,-0.04158898,-0.009385181,-0.018774804,0.046381373,0.036325205,-0.00093807734,-0.00022443576,0.0059003457,-0.011283598,0.022939388,0.02678008,-0.05523387,-0.037228838,0.0051619415,0.0113261845,-0.010131039,0.029821506,0.038311724,0.0053648357,-0.023762008,0.03409873,0.037032563,-0.031823378,-0.0060891435,-0.0137645,-0.020304803,0.03179076,0.029082354,-0.012002751,0.042825703,0.017494688,0.0065899026,-0.002718272,-0.03735466,-0.019418724,0.0042319354,0.005950924,-0.005797553,-0.003679664,-0.017111847,-0.040952604,0.005569243,0.07133562,-0.034981195,0.06781736,-0.039764162,0.014713797,0.0397775,0.0038156714,0.037829105,-0.003782846,0.0074636852,-0.00033105136,0.03378718,-0.010519962,0.034606047,-0.011622875,0.03999516,0.003532622,-0.039715882,-0.033552635,-0.046809234,0.024090687,0.014635639,0.011057161,-0.031444706,-0.00016426103,-0.0453845,0.011968434,-0.033552304,-0.055200078,-0.02733239,0.03396677,0.028730078,0.0762715,0.04311658,0.0064143664,-0.04222824,-0.054427594,0.03921916,-0.04814148,-0.042900726,-0.047216956,-0.0100199925,-0.03907244,0.033598978,-0.048125308,0.042147983,0.032969955,-0.0063151345,-0.021296462,0.019447114,0.027877036,0.038053684,-0.04965211,0.017985262,-0.030391647,0.048587576,0.06686302,-0.030977853,0.00582601,0.020232504,0.0006844084,0.059114724,0.03296962,0.08001664,-0.043958366,0.091630384,-0.02093603,-0.017124828,0.07163819,0.04896919,-0.047717348,0.032410603,-0.040203907,-0.013162445,-0.041863687,0.015065653,0.037975173,0.013631169,-0.048379418,-0.028438233,0.03811628,-0.0074658906,0.001179167,-0.03621933,0.03831738,0.033096578,-0.025660068,0.024031766,-0.038344678,-0.032487053,0.014432414,-0.055337876,-0.04178447,-0.031016938,0.0038217343,-0.013013725,0.014003634,0.011267105,-0.031284414,-0.023066852,0.035790596,-0.04432054,-0.057068277,-0.002576618,-0.03310247,0.009948097,0.03248836,-0.013379944,-0.030429972,0.019012237,0.009008255,0.03341833,-0.01613176,0.019941432,-0.03474547,0.013685825,-0.0093709035,0.014021721,-0.04119471,-0.04930699,0.05171852,0.01661027,0.01660343,-0.04211652,0.041022934,0.032606695,-0.0016337486,-0.022271194,0.05130294,-0.053719886,-0.00502301,0.0038543954,0.035519477,0.023074517,-0.004076562,0.027935538,-0.008446827,-0.027484393,-0.055159546,0.038557954,0.02770227,0.029552212,-0.006086072,-0.022901528,0.028321799,0.0878105,-0.027145138,0.03825796,-0.020738095,-0.021897659,-0.03425043,-0.028665885,0.03225381,0.008144341,-0.0031662714,0.050760504,-0.04422041,0.025687078,0.022119211,-0.019708209,0.041319385,-0.0047930777,-0.045693547,-0.010912521,-0.007943396,-0.034753792,0.012711547,-0.0050114426,0.010099799,-0.019925192,0.0470373,-0.032319896,-0.023517014,0.022892645,0.0058993767,0.028048674,0.019940795,-0.012368452,-0.04533982,0.06408572,-0.03758236,-0.043291353,-0.043955572,-0.012133426,0.009858734,-0.03409317,0.014036826,0.05907982,0.007158653,-0.03837303,-0.020468049,0.042251423,0.014956748,0.051637903,-0.032559782,0.047817055,0.013432714,0.011543203,-0.04936475,-0.02397257,0.037590835,-0.037571564,0.0029839624,-0.030344594,-0.023256293,0.01847906,0.00187001,0.0068866243,0.008869115,-0.024646977,0.021358076,-0.025370682,0.047970816,0.013474282,-0.008030532,-0.04181082,0.05787311,-0.003627529,-0.0473669,-0.023692127,0.04068794,0.019611798,0.010746858,-0.028707368,0.01390458,-0.04846009,-0.024371369,0.031511877,-0.013363195,-0.019424723,-0.033710927,0.011766555,0.013209934,0.044973884,-0.008810758,0.0047112056,0.023348019,-0.048860487,0.053824913,-0.038786493,0.040877223,-0.03814385,-0.02513859,-0.02315529,-0.0102596525,-0.036816783,-0.0133753065,-0.035361756,-0.028548785,0.06308252,-0.0053942665,-0.0165932,-0.059797663,0.039202593,-0.03433143,-0.0029680156,-0.056589413,0.025562717,0.01460952,0.0080056,0.03764182,-0.031082068,-0.02417534,-0.0036564097,-0.0419407,-0.0034310475,-0.00070898357,-0.054675166,-0.009970965,-0.010336965,-0.03465336,-0.053676635,-0.04097661,-0.04894398,0.012365696,-0.021846836,0.021289492,-0.023143204,0.023117224,0.0028181463,-0.00810341,-0.029043822,0.012296517,-0.04712305,0.039147817,-0.037390213,0.005310482,-0.035208013,0.01413556,-0.016087798,-0.03335454,0.04041221,-0.05529105,-0.006373707,-0.046143778,0.0062323725,-0.0016212822,-0.049185384,0.0042335927,-0.010711473,-0.02695969,-0.027520398,-0.020885095,0.03310968,-0.009198334,-0.020333422,-0.049667913,-0.017887926,-0.012951484,0.036259435,-0.031380866,0.010471394,-0.03132598,0.033601772,-0.026831193,0.01261048,0.038118724,0.039688583,0.032448467,0.005044388,-0.008375333,0.016707556,-0.038275983,-0.0028337534,0.01109663,-0.024487987,-0.0102161,-0.043745797,0.01069969,-0.047735102,0.031924702,-0.008314282,-0.059023526,-0.01059627,-0.01454725,0.02308499,0.012659263,0.013004173,0.030604511,-0.002184914,0.031773403,0.011850815,-0.055272076,-0.045995247,-0.022433212,-0.030635895,0.050884206,-0.044232138,0.039076995,-0.037196584,-0.019629546,0.04753743,0.027746955,-0.032418422,0.0019108799,-0.05309251,-0.018144649,0.014457207,0.012767086,-0.009359747,0.0042417217,-0.026758682,-0.03186169,0.045312252,-0.010816642,-0.017450498,0.046598963,-0.041488864,0.03850852,0.04450647,0.031602982,0.07083782,-0.020127065,-0.036311835,-0.039327722,-0.03381363,0.07600814,0.0043455423,0.052089103,0.04707342,-0.017263206,0.07353561,0.03594986,-0.0074299187,-0.024133006,-0.034269195,0.031496055,-0.008368762,-0.014629409,0.001729413,0.026187863,0.031087164,-0.022842018,-0.006578611,-0.029797496,0.026294386,0.039542686,0.022509534,0.044442285,-0.042893205,0.016334325,0.03264214,0.0051748413,-0.03066455,0.026779365,-0.034690592,-0.0293324,0.023960998,-0.0130581185,-0.012045201,-0.01308073,-0.0008580809,-0.011387158,-0.043113578,-0.015540583,0.020836594,0.02089181,0.037518412,-0.004100825,0.023792285,0.012847185,0.04429355,-0.020952765,0.029211095,0.019119024,0.022784095,-0.0018843812,-0.047420986,0.019505726,-0.05273518,0.028768124,0.047784757,-0.02227845,0.039981667,0.022371264,0.023458289,0.037156682,0.028442245,-0.074504256,0.025384221,-0.024713513,-0.02824773,0.04832652,-0.048517853,-0.002342533,-0.032468744,0.035748873,-0.036591817,-0.0019065274,-0.086968794,0.039266683,-0.024046406,0.046619248,-0.029338295,-0.03490806,0.019786019,-0.019437386,0.03795043,-0.034234922,0.00525379,0.010072496,-0.015214102,0.0057344995,-0.05613896,0.00048921246,0.02972572,0.028847188,0.012936601,0.033538822,-0.025253015,-0.031220444,0.04072558,-0.0052579097,-0.04468792,0.051306423,0.021272665,0.020359391,-0.024986714,-0.037088588,0.0329986,0.032144,-0.01996896,-0.02132024,0.028937524,-0.02398027,-0.00042120367,0.035215903,-0.021770531,-0.00096540886,-0.05200309,0.015292244,0.041850664,-0.047831092,0.057224553,0.028694099,-0.016482016,-0.0357106,0.034636844,0.037508346,-0.0061318385,0.017261785,0.019916708,-0.021054022,0.018960796,0.030994065,-0.04852531,-0.048711754,-0.03378662,-0.03648246,0.027865736,-0.02410179,-0.06661872,0.010307519,0.009063355,0.08025712,0.043601844,-0.01980883,0.045728635,0.0026854705,-0.02735191,0.045840774,0.03484925,-0.048593596,0.016150227,0.040855456,0.021172203,-0.031666536,0.021745909,0.038715865,0.009646612,-0.05126378,-0.010455755,0.0017307121,-0.029264836,0.04149841,0.01568933,-0.0052554426,-0.030918524,-0.033274923,0.0037747796,0.024495054,-0.026308017,-0.027636426,-0.03243355,0.003223615,-0.022976741,-0.016107846,0.009765155,0.030264786,-0.021845076,0.01884813,-0.005381204,0.033887666,0.030138895,0.0023107668,-0.008632709,0.0199648,0.05089755,0.0141879255,-0.005387055,-0.022096287,0.0072037764,-0.036430284,0.022613386,0.012394245,0.021266324,0.03428912,0.012600252,0.062926024,-0.0017373128,0.057568204,-0.03717772,-0.029809786,0.0044727065,0.028940912,0.026291583,0.007755427,-0.0072194296,0.017382914,0.010923712,-0.027326643,0.07133788,0.04298846,0.03022207,0.02061424,0.011199885,0.0028241312,-0.038318433,-0.037575208,0.021351043,0.01162601,0.04113317,-0.040414184,-0.039675556,0.008081753,-0.044443026,0.0013536712,0.041808847,0.042328175,0.010926584,0.03043679,0.040962014,0.0042247353,0.01644925,0.013107367,0.024891697,-0.04714865,0.036904734,0.07229415,-0.026584174,0.0010840617,-0.038572077,0.024796281,-0.03493967,-0.027956272,0.02194529,-0.00094808,-0.014669683,0.0065316046,0.0503917,-0.0070433146,0.03937132,-0.025877178,0.031056147,0.024889845,0.02302121,0.0154023925,0.021102218,0.020638917,0.013809402,0.046661604,0.038342047,-0.02906687,-0.030445632,0.014637715,0.015620538,0.015719926,0.021746913,0.014994144,-0.042419717,-0.031542137,0.015808037,-0.026932355,-0.01152521,-0.041903708,-0.038829844,-0.023921112,0.02540766,0.011185091,-0.052768763,0.02621067,0.008750254,-0.040701076,0.030006094,-0.032046247,-0.032935694,0.02711231,0.0530332,0.0110537745,-0.038817078,0.020762015,-0.010684524,-0.031418048,-0.03470183,0.041922558,0.02645406,0.01218273,0.04465358,-0.013305393,-0.044675052,0.029701494,0.021900365,-0.016440185,0.028911985,0.039421428,-0.027967753,-0.0011580683,-0.013576124,-0.016056959,-0.009845996,0.013080986,0.010502371,0.06790603,-0.020746183,0.010204183,0.046183918,0.020766623,0.016659731,-0.023553496,-0.026305843,-0.0516893,0.06625892,-0.01308043,0.014377763,-0.034687363,-0.043677475,0.0541648,-0.046602104,-0.024383912,0.08785051,0.035635836,-0.02619623,-0.019323321,-0.047274385,0.042634662,0.010737787,-0.05618019,-0.034532413,-0.013509933,0.029389411,-0.0044406992,-0.046383824,0.013081004,-0.015101346,-0.013023335,-0.013834006,-0.01547217,-0.0378616,0.033977713,-0.013640827,0.017606068,0.022651786,0.023993084,0.035417728,0.053000707,0.0344206,0.0023016334,-0.024249155,0.029750166,-0.011673811,0.049230427,-0.006185968,-0.021441475,-0.03401292,-0.001273346,-0.036709726,0.06508308,0.028800238,-0.022695884,0.04198553,-0.023314485,-0.007959075,-0.04970004,0.042688016,-0.051428583,-0.03422903,-0.014077362,0.012913109,-0.028298412,-0.020144904,-0.012455357,0.023081359,0.039406173,0.011786121,-0.029792724,0.016154123,0.021345451,-0.020558132,0.03349956,0.051577713,0.00258152,0.030480288,0.01925536,0.044860076,-0.041836146,0.024657784,-0.04841773,-0.02574439,-0.0052687908,-0.025673417,-0.008997694,-0.057450607,-0.018364854,-0.012176991,0.050502345,0.009329639,0.041433427,-0.0042607323,0.024468843,-0.016402096,-0.043707166,-0.050577514,0.046707567,0.020280983,-0.0035955322,-0.058202665,0.006135566,-0.044812623,-0.009789462,0.010895913,-0.04538744,-0.030417224,-0.016439617,-0.013719694,0.029943667,-0.0019117967,0.01811841,0.027604029,-0.030703211,-0.0053340616,0.00800673,-0.009819978,-0.0029643064,0.03695249,-0.037850678,0.021341618,-0.032560233,0.012944408,0.014881764,0.010302566,0.008588971,0.01676224,-0.027382683,-0.017792886,-0.04194972,-0.01736507,-0.0105397,0.040418856,-0.014044939,0.01113196,0.023443568,-0.037712973,0.019289808,0.0155652305,0.05302618,0.053092893,-0.019818593,0.012871858,-0.0051318337,-0.0021164857,-0.02853496,-0.078110315,0.0021753632,-0.016113624,0.06377885,-0.037971746,0.026927957,0.016045328,0.018417414,0.028623447,-0.02040733,0.02782599,-0.054160792,-0.057381745,-0.04523342,-0.030037105,-0.008291144,-0.024435354,-0.037510704,-0.04848934,-0.037434883,-0.026973378,0.024403144,-0.046544924,-0.05308825,-0.017949717,0.004186959,-0.00027682097,0.05635092,0.037055463,0.021391924,-0.0503705,-0.026115138,0.04678425,0.073057204,0.0014701188,-0.02902362,0.024851514,-0.00878335,-0.017470919,0.02265053,0.014520175,0.013181454,-0.032764703,0.009505448,-0.040510986,0.018306334,0.025474334,-0.019826587,-0.05329836,-0.025467124,0.03188402,0.024364349,0.017731296,0.018443579,0.041714128,0.02835709,0.04099939,0.010449638,0.050072297,0.0046853335,0.072640024,-0.06067065,-0.005985017,0.001192797,-0.013057009,-0.04561609,-0.016432682,-0.04145049,-0.012746782,-0.009773813,0.00752414,-0.014148401,-0.034020558,0.047518723,0.0427371,-0.004231126,0.007220495,-0.025788993,-0.014138178,-0.03902491,-0.029853689,-0.03973252,-0.048842486,-0.021860909,-0.054626297,-0.008487577,-0.0330806,-0.05115469,-0.037451155,0.0052243015,-0.010240493,-0.015269037,-0.036667727,-0.027948085,0.009729939,0.038763024,-0.024242122,0.023737649,0.0032515558,0.011706144,-0.017925285,0.02075749,-0.043182604,-0.012861552,-0.017463814,0.002697966,0.030724317,0.024591304,-0.012268917,0.025107298,0.0040890016,0.033207767,0.009239081,-0.013171016,-0.017729426,-0.035330128,0.05540356,-0.020617077,0.028145956,0.04012249,0.0208993,-0.0145599,0.00041160034,-0.015071866,-0.05337601,-0.03148507,-0.02918962,-0.046972897,-0.01626998,0.025276266,-0.026843078,-0.0010051411,0.012477103,-0.047137506,-0.0044235415,0.016116833,0.020291148,0.019652352,0.025224444,-0.024567166,-0.0045869052,0.024022484,-0.044363264,-0.025738735,-0.044394456,-0.039826933,-0.009522204,-0.02715192,-0.010525163,-0.020800343,-0.025415737,0.017009921,-0.03338735,-0.035079777,0.039228037,0.01447587,-0.03102752,0.0015236255,-0.0313616,-0.0043417215,0.0036432776,0.034348432,0.009346273,-0.025077693,-0.028648289,-0.017601432,-0.01468901,0.029085299,0.03681135,0.03679963,-0.0010321215,0.0046716006,-0.04298994,-0.03669524,-0.03484034,-0.03250692,-0.03773559,-0.00053990184,-0.0248691,-0.0040165484,0.025564548,-0.02889332,0.0063523203,0.026520625,-0.021684192,0.03915629,0.0249151,0.008193953,0.041471347,0.022783682,-0.004578173,-0.049020402,0.04522005,0.04083858,0.04653634,0.010768561,0.02475513,-0.0120781725,0.019348087,0.018521588,-0.01634318,0.038989954,0.044779174,0.017993324,0.044049174,0.026353203,-0.047968764,-0.030314103,-0.022036865,0.009929389,0.016646871,0.025893545,0.016549284,0.036654472,0.03374744,0.005875801,0.007259199,0.0421577,-0.013850884,0.023066618,-0.03290602,-0.0035600984,0.007429072,0.044310354,0.020557575,-0.0113047,0.020658987,0.01819077,-0.04098722,-0.042896725,-0.015887931,0.028891599,-0.01846436,0.043156482,-0.032829158,0.019636484,-0.012252844,-0.03348579,-0.03971654,0.041895907,-0.049106225,0.031364128,-0.044677783,0.013078968,0.03930178,0.0024426815,-0.022309173,-0.013780473,-0.045595158,0.029938843,0.057273164,0.011999477,-0.008654493,-0.037333544,0.005360754,0.037129257,0.052192632,0.08441206,-0.042067695,0.00092455454,-0.003164011,-0.08940509,0.019482266,0.03234491,-0.019711424,-0.017279122,0.0134461755,-0.023438469,-0.050175667,-0.026965259,-0.04039517,0.0052875616,0.027099274,0.018075917,0.0147204455,-0.0074552945,0.00325307,0.03254655,-0.034372285,-0.016694337,-0.025261503,-0.0077347816,0.03048203,0.019095605,0.050819058,0.015726494,0.04212239,-0.029092103,0.0037636468,-0.006981599,-0.04804373,0.017370092,0.03314542,0.0293412,0.0045372024,0.01892547,0.049277637,0.009084509,-0.047015194,0.016081883,0.00532684,0.017400019,-0.02720509,0.063123144,0.04645091,-0.03630933,0.04016593,0.001355848,0.01045832,0.03152069,-0.041158646,-0.07258549,0.04104694,0.008581777,0.061963886,-0.022885561,-0.065693386,0.08483474,0.0027568426,0.018138954,-0.017399473,0.05278581,0.0063742218,0.014960126,-0.04184634,-0.033914734,0.024782632,-0.025018306,-0.04748194,0.01838039,-0.014077358,-0.0033314317,-0.024921088,-0.023304945,-0.002823297,-0.037292656,0.020631837,-0.006142251,0.040385727,0.059062187,-0.006150985,0.007170155,0.035002988,-0.014886621,-0.053928386,-0.00568836,0.042016104,0.012250482,0.050049324,0.012484141,0.024151506,0.03219113,0.010484046,0.029031582,-0.00015862996,0.04202788,0.013189744,-0.0050467737,-0.022972528,0.021804376,0.042939533,0.032047782,0.0054355897,0.0070398776,0.049801115,-0.033411957,0.030638218,0.0075169248,-0.01175255,0.020253418,-0.009916704,-0.05138456,0.065588616,-0.047745198,0.036833744,-0.07511381,0.014545273,-0.021496758,-0.039485116,0.015671842,0.025487762,-0.05086486,0.052819345,-0.028469376,0.016626148,-0.06932848,0.024343882,0.02174217,0.027239302,0.038607426,0.051518116,-0.01375627,0.036815424,-0.017531922,-0.05950259,0.03436549,-0.024556365,0.0272479,-0.01893315,0.049454574,0.04310518,-0.033324294,-0.027338974,0.034276757,-0.019522598,-0.025525138,0.019811321,-0.023369113,0.008153893,0.04376584,-0.010211837,0.034450337,0.046622578,-0.041393206,-0.042525433,0.0120794065,0.0391525,0.025007255,-0.038869258,0.03369834,-0.02630567,0.033295732,0.004188612,-0.038284738,-0.0038439073,0.00981145,0.018410292,-0.022277463,-0.0232179,0.024367299,0.03147155,0.06051067,0.016209979,-0.00396521,0.021710243,-0.031139484,-0.03218662,0.024598885,0.010146327,0.06240407,-0.049252834,0.051435784,-0.0021174303,-0.016052658,-0.006218199,0.05064377,0.038404144,0.021857355,0.0052532624,0.0053965887,-0.030491732,-0.025527835,-0.031560168,-0.013521775,-0.008898819,-0.0047211573,-0.036688652,-0.02059425,0.029926408,0.04584042,0.010287497,0.06242095,0.02135134,-0.04453729,-0.019548764,-0.048893657,0.08624257,0.029494703,0.020756634,0.0008756435,0.040604055,-0.0030116744,-0.000867374,0.03147305,0.03233987,-0.04447456,-0.00022514228,0.040559288,0.02981075,-0.03365895,-0.022949478,0.022286696,-0.0053530596,0.036828008,-0.011185877,-0.03827462,-0.036526375,-0.041470584,-0.02895725,-0.04994051,0.028981378,0.011672598,-0.020343503,-0.019206006,0.03285111,-0.021754451,0.0165616,0.01662705,0.0036615394,-0.039924182,-0.03533359,0.03243712,-0.05443402,0.029652165,-0.035515558,0.004945661,-0.09138575,0.022615107,-0.018376471,-0.009748275,0.030748243,0.03270969,-0.026643163,-0.03544862,-0.023739854,0.030420583,0.020280298,0.013490747,0.02730201,0.011806329,-0.013907732,0.043367494,-0.048791084,-0.026860882,0.022262564,-0.019869674,-0.032501258,-0.0013651138,0.03021109,0.006223536,-0.045970034,0.016994068,-0.030908817,-0.024364619,-0.011023894,0.00045378134,0.014469463,-0.029286714,-0.03156903,0.033557422,-0.047083627,-0.041357324,-0.04621054,-0.0010152054,0.042435475,0.02766103,0.046059858,0.010323984,-0.010069422,-0.0077432767,0.011394914,-0.0351352,0.03938328,-0.013633924,0.005504761,0.020977665,-0.011453233,-0.044320635,0.010853477,0.023333436,-0.045448333,0.024747089,0.025244806,-0.049822308,-0.010477892,-0.04966605,0.046294626,-0.04924901,-0.0061865197,0.040634453,0.03767719,0.051180605,0.030303976,-0.055345234,-0.034387372,0.037219267,0.052373953,-0.013455935,-0.01731715,-0.03915799,-0.041325055,0.011426155,-0.02579263,-0.016572261,0.016291928,-0.018064382,0.028157441,-0.04614806,-0.034709338,0.011099143,0.009867616,0.019105194,-0.017869465,-0.010997892,-0.047683585,0.049291313,-0.033875894,0.014077935,0.02518,-0.052526165,0.01397785,0.013722146,0.014750018,-0.035584573,0.016136473,-0.0138877025,-0.0044874228,-0.022566587,-0.03495357,-0.03663735,-0.046296336,-0.048789326,-0.02903947,-0.05542522,-0.047358785,-0.03961026,-0.047781184,0.030001866,0.029250994,-0.031929325,-0.035404872,-0.03659818,-0.01121026,-0.03178981,0.041172575,-0.033463687,0.02060564,-0.023469433,0.012811421,0.011767203,-0.024698095,-0.016257426,0.033028755,0.041222103,-0.029892914,0.0037567723,0.032455266,-0.043228198,0.027430713,-0.020046443,-0.0313265,-0.03825218,0.03679054,0.029002896,-0.029886765,0.01176639,-0.012918703,-0.01582844,0.00037496947,-0.04899601,-0.049682032,0.030186497,0.036526296,0.0025726468,-0.040668685,0.037291385,-0.0062008696,0.02170655,-0.054332852,-0.035256367,-0.024789328,-0.0049232035,0.03583884,-0.00016702212,0.0051517487,0.006794403,-0.016115304,-0.015098132,-0.046317756,0.038190417,0.012001786,-0.013463189,-0.002154603,0.020581473,0.0447613,-0.024423087,0.018860001,-0.039342962,-0.03501997,-0.028575301,0.032516155,0.009291733,0.041269038,-0.009998383,-0.02548762,0.03536648,0.0154685015,-0.03843214,-0.00959301,0.019702608,-0.03356445,-0.006953188,0.018953709,-0.024476442,-0.025447473,0.031814788,-0.00958625,0.02690648,0.034984212,0.017797843,-0.0250295,0.042379268,0.024211723,0.020322958,-0.0016747195,0.01742362,-0.054021575,-0.0035947182,0.03443323,-0.0075757564,0.01533626,0.043308664,-0.0414152,-0.009052634,0.040231038,-0.06819752,-0.03015001,0.0038985487,-0.023822304,-0.00043643266,-0.01848591,-0.04151627,-0.009867766,0.0072749676,-0.05499498,-0.030262258,0.015098374,-0.019890646,0.010000082,0.04636241,-0.0054394044,0.025264237,0.03637249,-0.04641237,-0.027285546,-0.04942007,-0.052861106,0.023363631,0.04231335,0.046108343,-0.048171256,0.0010944236,0.02971455,0.013465069,0.0020854506,0.033695318,-0.017246071,-0.0532251,-0.024938008,-0.02640376,-0.041589994,-0.026960518,-0.04892955,-0.05905477,7.106364e-05,-0.028458342,0.0074950815,0.035129882,0.027055014,-0.005100018,0.019978195,0.022440158,0.0008839128,-0.017138671,-0.002958635,0.039781,0.021487009,0.034464005,-0.0015025544,0.054214373,-0.0045802984,0.066774726,-0.01700186,0.026909633,0.019003501,0.045328297,-0.0035655089,0.027320273,0.040741857,-0.0796058,-0.0013400181,0.031957053,-0.05471119,-0.023871306,-0.036579616,-0.02546694,-0.049260553,-0.008104691,0.033502102,0.038984377,-0.009977291,0.04014142,-0.020065416,0.04869868,0.008935683,-0.024193428,-0.02449624,-0.051033184,-0.024447938,0.020519732,-0.007207219,0.023020184,-0.0034706567,0.022463355,0.0222774,0.017343055,0.01693533,0.034472156,-0.012536651,-0.03194859,0.015544798,-0.0116943205,0.0067478665,-0.012225071,0.020428445,-0.009556906,-0.0103145735,0.0028281403,0.00047518313,0.028391397,0.0072896006,0.0115825385,-0.0073442957,-0.026148427,-0.03626313,-0.0021702554,-0.044911705,-0.03784731,-0.0501399,0.0009232271,-0.030139865,0.01784622,0.012274091,0.060181428,-0.039131485,0.048857287,0.028786896,0.043019187,0.0061355587,0.009036524,0.01736447,0.02058778,0.033846743,-0.021580031,-0.0032047061,-0.0605237,0.015291246,0.03754604,0.029421808,-0.013574157,-0.07556648,0.031209385,-0.031651948,0.032279804,-0.015135633,0.038672123,0.029455021,-0.005286655,0.041973054,-0.032206103,0.038325794,-0.054096658,0.016955962,0.011350771,-0.023130186,0.049112823,-0.050437495,-0.009937525,-0.03392398,0.021116702,0.048466686,0.013081212,-0.0058681583,-0.03734254,-0.03856856,0.045493808,0.03324622,-0.010475162,0.045660548,-0.0041839425,-0.017155534,0.02671424,0.008571419,-0.008053258,0.055331044,-0.028201291,-0.0010458162,-0.021929294,0.020757202,-0.019556763,-0.0035987094,0.06658187,0.03471107,-0.026389446,0.030551357,0.022810878,-0.012243264,0.08919927,0.004467321,-0.033558857,0.042119488,0.036127053,0.0057721264,0.009021405,-0.02518249,-0.022908144,-0.03293889,-0.010560709,0.034210395,0.02274689,0.0071160123,0.011994012,0.031348363,0.025600115,0.04651381,0.012844913,0.04096049,0.05480895,0.0023929265,-0.011828044,-0.028737243,-0.00711709,0.0275514,0.028075628,0.05017641,-0.055663925,0.034382883,0.041659582,-0.03323587,-0.03883053,0.024917018,-0.024863075,0.009020646,0.03476456,-0.019893048,-0.020795614,0.028641878,-0.05515181,0.04169843,-0.02860507,-0.031170106,0.03356453,-0.009683442,-0.009077764,-0.043388184,-0.05132686,-0.040643305,0.032285243,-0.0288487,0.05098213,0.007518732,0.0059074857,0.015179072,-0.015855871,0.014973728,-0.016162882,-0.027380312,-0.014272073,-0.028775863,-0.028246032,0.055445537,0.06374033,0.044758327,-0.04478508,-0.009404113,-0.07677713,0.045742776,-0.05265191,0.021064417,-0.045013037,-0.028292919,-0.019621182,-0.004721141,-0.012285916,-0.023285685,0.026762519,-0.03417213,0.012111522,-0.0701228,-0.022773748,-0.050782528,-0.0018878295,-0.008419003,-0.040948182,-0.052332666,-0.021709576,0.034376647,-0.044808503,-0.032964986,0.040540658,-0.030850291,-0.0008273691,-0.01702453,0.05260239,-0.026378004,0.003974346,0.0006838888,-0.04549279,0.0044016317,-0.048368167,0.03433086,-0.04952361,0.031561423,0.0063465545,-0.020726606,0.009418181,-0.025146082,-0.044191483,-0.0064872615,-0.00958506,0.037206423,0.022489006,0.022392884,0.0052110665,-0.008925546,0.024954751,-0.006381007,0.025679888,-0.052561536,-0.0078153405,0.009110812,-0.04524598,-0.008554998,-0.012922347,0.002008344,0.033681925,0.04733227,0.0101370765,-0.04019674,-0.040268235,-0.039897162,-0.026177337,-0.0422892,-0.03718107,-0.04870025,-0.061914966,-0.0045805667,0.01628822,0.037736405,-0.000937514,-0.015926693,0.049161065,-0.07199822,0.071824364,-0.0020949994,-0.021435548,0.01843794,-0.037525162,0.015650967,-0.0021649585,-0.012802483,0.042627346,-0.020989116,-0.0004673419,0.0332363,0.033582967,-0.0047178636,0.00066383794,-0.054818608,-0.027114144,0.039394695,-0.014962129,0.037354242,-0.029353589,-0.03446244,0.031196699,0.03382342,-0.007591682,0.0131484,-0.0089270575,0.04585005,0.027879938,0.001444459,-0.030968126,0.04571637,0.0046111788,0.025806163,0.041426666,0.034780655,-0.024656206,0.06433843,-0.020724073,-0.047698967,0.01658151,0.050363973,0.012219043,-0.02929435,0.022780102,0.003736042,0.029015105,-0.0011837932,0.038209677,0.04266508,0.04141749,0.00820832,0.003263411,-0.034135677,-0.022468315,-0.002272691,-0.019957159,0.04401027,-0.04626618,-0.04896957,-0.026881026,0.04038843,-0.0403644,0.01124677,-0.017737024,-0.050139856,0.055399656,0.0027618022,-0.037885487,-0.021105526,0.022195037,-0.0105216345,0.022699937,0.030052286,-0.034809127,0.028446952,0.041059572,5.7227924e-05,-0.012430483,0.020268016,-0.027123986,-0.0045787836,0.016167736,0.03402428,-0.031879593,-0.020152884,-0.043342188,0.011078997,0.038026813,0.0378172,-0.0010142833,-0.028924355,0.032071818,0.022574965,-0.05554667,0.0012351815,-0.041996114,-0.03701285,0.008540122,0.037808493,-0.00970341,-0.02319802,0.012213398,-0.01767183,0.01645561,0.027612219,-0.04146254,0.0087319,-0.01717541,-0.068186864,0.033447586,-0.00073541293,0.015993942,0.013185898,0.055393137,-0.0017523057,0.03806819,0.023259,0.016308317,0.027814725,-0.052757896,-0.0031849227,-0.04473995,-0.04487071,0.013168594,-0.00921835,-0.0017528422,-0.013479368,0.0100533785,-0.0088392235,0.025652885,-0.051569402,-0.014726636,0.015771898,-0.010618292,-0.032052282,0.030934636,0.0426993,0.03870601,-0.031205457,0.03934416,0.020226689,0.045295604,0.020640377,0.0057653366,-0.040329605,0.037232894,-0.019353965,0.011884741,-0.05386114,-0.044340942,-0.0009516575,0.024737649,-0.0006981016,0.0043819877,0.04561391,-0.014927864,0.026323745,-0.02259108,0.011807311,-0.004200815,-0.029472472,-0.017056983,-0.00462371,0.023993928,-0.025191454,0.019915627,0.023393232,-0.014341427,-0.03697652,-0.044624653,-0.026047174,-0.05209092,-0.010749863,0.030772418,0.035128172,0.014083376,0.042236652,-0.037659407,0.014044563,-0.015653908,-0.025652064,0.03958064,-0.00095429126,-0.004185173,0.041679762,-0.002980109,-0.02855619,-0.0218659,-0.047101825,-0.00969641,-0.055186518,-0.033223532,-0.014135692,-0.017463952,0.022618337,-0.026094027,-0.0014367674,-0.018413045,0.011238573,0.036467098,-0.017512284,-0.023702944,-0.021815218,-0.027177207,-0.016031133,-0.010913991,0.025694609,0.025883922,0.03029671,-0.01325348,-0.009780448,-0.010636305,0.030153848,0.0042352905,0.016498577,-0.015843797,0.014814525,-0.028198086,0.05882389,-0.013803856,0.0024880674,0.012928355,0.0082350345,-0.014918666,-0.03142744,-0.0010904615,0.0015614536,0.01681157,0.042065635,0.036945246,0.06746503,-0.0007702762,0.03528705,-0.0052790116,0.008470803,0.024748307,-0.017127369,-0.023503738,-0.01638898,0.027597869,-0.00011687742,-0.01870773,0.016545968,0.03757118,0.026887335,0.038838923,-0.0121739535,-0.05185801,-0.04536548,0.015527682,0.0072107986,-0.02447002,-0.009327366,-0.005703128,-0.0011575044,0.0014970135,-0.03799068,-0.015160931,0.012836609,-0.049449995,0.041821282,0.029722717,-0.035674907,0.012301259,-0.03357058,-0.042325195,-0.002870087,-0.025535196,-0.03435003,-0.00972482,-0.04254183,-0.023139156,0.046561364,0.034521386,-0.026560621,-0.030134495,-0.01651978,-0.046445325,-0.0077545717,0.030352142,0.0046562147,-0.04237778,0.007831639,0.00852213,-0.0187036,0.029670842,-0.022889055,0.004346081,0.0022738832,-0.03594887,0.031332675,-0.0051912107,-0.002019185,-0.004058034,-0.030518895,-0.016057445,-0.05483582,0.012611645,-0.044892382,0.013166119,-0.028635744,-0.012568827,0.023527728,0.05710694,0.03169514,-0.001509522,0.03037958,-0.0032677623,-0.046452865,0.042682387,-0.029891834,0.0006043953,0.040910494,0.02490519,0.010721959,-0.023583537,0.01193604,0.0020898117,0.03365766,0.050927624,-0.051641088,0.027955227,0.020485442,0.028599417,0.04405625,-0.008504571,-0.042527113,-0.008981907,-0.03063264,-0.026390817,-0.052298907,-0.011381798,-0.017360996,0.011054229,0.03535315,0.026700052,0.014965306,0.0058449283,-0.01891502,0.00055522815,-0.048277143,0.03662692,-0.01198075,0.07393518,-0.0260339,0.00024156645,0.021068774,-0.01668763,-0.03407303,0.031663053,-0.0250299,-0.055422004,-0.01079763,0.040025942,-0.054764498,0.008890757,0.018127806,-0.058919407,-0.028873174,-0.012659638,0.03089482,0.04756863,-0.048007213,-0.047245085,-0.078617916,0.013192656,-0.0069103045,0.018288683,0.045038596,-0.018912207,0.05073521,-0.015496153,-0.052439176,-0.022364518,0.011634037,-0.03364248,0.035434462,-0.010291379,-0.007024251,0.042278055,-0.027423501,0.01288059,-0.009250051,-0.031195913,-0.013517317,-0.028814452,0.04037526,-0.041916605,-0.04324961,0.048968803,-0.011363806,-0.02577237,-0.045333732,-0.027631782,0.010599228,-0.019798525,0.04202209,0.060295764,-0.031448275,0.033384174,0.044636842,0.04171547,0.005876381,-0.012197012,0.019574206,0.030712238,-0.042549375,-0.012765322,-0.050778024,0.040613603,0.009504677,0.06652792,0.009595342,0.0066219033,-0.016776763,-0.041477527,0.034579124,0.0057429955,-0.04528677,0.019086538,-0.0060083405,0.008969912,0.020478029,0.04717131,-0.049316905,0.07731175,0.060677405,-0.020840297,0.0018943205,0.06427823,-0.034041733,0.048544507,-0.022741938,-0.052186795,0.011301479,0.0043240483,0.04187539,0.0037381093,0.04534765,-0.016991701,0.015982782,-0.03572956,0.013372431,0.01284143,-0.054065283,-0.04905889,0.029350594,-0.018792385,0.040905863,0.019965734,0.006262543,0.015695477,-0.026303196,-0.019751241,0.03046446,-0.03276452,0.03286442,0.03818819,0.008211405,0.039595466,-0.04417422,-0.0067617847,-0.053720348,-0.05249772,0.0019891919,0.02120234,-0.03497091,-0.0021986023,0.022670778,0.028045213,-0.014666225,-0.027322365,-0.016983386,-0.028691221,0.035627253,0.008720028,0.031692993,-0.033998523,-0.0041844985,0.005336254,0.008035374,-0.038308844,-0.052340157,-0.026234124,-0.003973237,-0.044812743,0.025334712,0.0151732275,0.028341793,0.011073833,-0.0062036663,0.014872526,-0.0073716417,-0.039275806,-0.033185534,-0.013051899,-0.0043149176,-0.03057088,-0.027572216,0.042639177,-0.053456686,-0.018940954,-0.004683759,-0.05661541,-0.046145942,-0.043103598,-0.03889293,0.010962518,0.021993296,-0.029835936,-0.04792095,-0.028726207,0.031582568,-0.04144134,-0.04661039,-0.043026537,0.011787822,0.006974319,0.0399931,0.010695889,-0.014712384,-0.02545775,0.02897702,-0.054833803,-0.043449398,0.012003963,-0.036945105,0.010000611,0.002342664,0.02324265,-0.037526406,-0.037805762,0.015594492,-0.025968079,-0.01137649,0.026111426,0.025970647,0.01597311,-0.026757535,0.052149728,-0.029193101,-0.055398718,-0.013324776,0.031527415,-0.005636181,-0.0013796189,0.030184887,0.040673684,-0.039087486,-0.02821566,0.03633101,0.028443506,-0.041448414,0.04659457,0.034969434,-0.021315254,-0.03476988,0.007404229,0.027763857,-0.028269555,-0.021987844,0.014154857,0.03929418,-0.030324781,-0.0064132256,-0.017417865,0.026058862,-0.045771006,0.038491182,0.03600707,-0.01941956,-0.0054606833,0.03926181,0.028916705,-0.035800707,-0.008494877,-0.03714562,-0.046834093,-0.017753582,-0.021009073,0.00073960976,-0.081841074,-0.050987985,-0.04440948,0.0046591065,-0.033935998,0.021289626,0.010674027,-0.03727381,-0.009822835,-0.02419361,0.03381288,-0.001603879,-0.012649372,0.028514888,0.023078073,-0.037115518,-0.037087195,0.014061693,-0.021393284,0.025394142,0.041611243,-0.02388076,0.03653607,0.04297361,0.018934924,0.029904073,-0.027292976,-0.04018628,0.0063729538,0.010425117,-0.057617866,0.00500706,0.01762032,0.06025574,0.028899956,-0.04474139,-0.012882088,-0.03338464,0.00017307326,0.05754162,0.017800363,-0.0246657,-0.053668078,0.041249894,-0.03413097,0.022932945,0.0011438165,0.012207538,-0.014596275,0.0206191,0.039169468,0.011530054,-0.011112273,-0.037995007,0.0100136055,-0.025523605,-0.033748224,-0.020760262,0.00022830899,-0.043544587,-0.01941153,0.03991121,-0.013512811,0.011334691,0.021393148,0.0021999048,-0.024694921,-0.040790923,-0.048395317,-0.00045914142,0.018328927,0.028541582,-0.031013388,-0.041541323,0.037503727,0.0041746222,-0.056130894,-0.003066156,-0.043481816,0.036360804,0.030532612,0.008479579,-0.017908975,0.020934654,0.013114342,0.03120868,-0.060733307,-0.009497594,0.015373215,0.025074901,-0.0029625322,-0.020581339,-0.02431607,0.014860195,0.027218817,0.014172221,-0.043827366,-0.02390821,0.028549008,-0.06651527,-0.026545903,-0.0065815286,-0.0018585436,-0.0055642314,0.03511881,-0.019850219,-0.0058516352,-0.019456139,-0.019135311,0.030068563,-0.023406943,-0.018775877,-0.023789348,-0.008144781,-0.053734034,-0.016189957,-0.045429822,-0.05478572,-0.049594704,0.028574513,-0.043106116,-0.005248419,-0.032657728,-0.026679866,-0.01961539,0.025562761,0.038409874,-0.005059938,0.03068202,0.02948466,-0.007698465,0.014638608,0.025054662,-0.01917146,0.002084258,-0.05321869,0.028258422,0.039877515,-0.0070562307,0.026690878,-0.017589672,0.030483019,0.0054767015,0.009925068,-0.0091554625,-0.03347578,-0.031012354,-0.010256686,-0.042492736,0.049989983,-0.014915325,-0.047397457,-0.036648203,-0.043859713,-0.044936545,-0.03272702,3.4062325e-06,-0.033176478,0.014263906,-0.02173711,-0.018285818,0.014987685,-0.009015452,0.012571508,0.049371395,0.048759244,-0.0015952361,0.010644338,0.054455258,-0.0029633704,-0.03899259,-0.048548073,-0.058814842,0.00058455684,0.030284017,0.026188225,-0.003509482,-0.05579332,0.0007129836,-0.04131443,0.011105162,-0.04486688,0.013739733,-0.024624562,0.03840175,-0.03473998,0.061495066,-0.020366006,0.0544639,-0.047745395,-0.007904448,-0.028959965,0.06771982,0.04323553,-0.023312941,0.026650032,0.0033625732,-0.056714177,-0.037173945,0.00911559,0.05029218,-0.032328587,-0.05018463,-0.03755586,-0.025111841,-0.040187158,-0.02319075,-0.03893112,-0.03215097,-0.027722463,0.036078736,-0.020844707,-0.05058541,-0.036737185,0.019171152,-0.00893297,-0.05504771,0.019177973,-0.03395806,-0.030733734,0.012902897,-0.0035731234,0.017654581,-0.01592714,0.028739404,-0.05394573,0.038148586,-0.03703811,0.0040816544,-0.031614605,-0.032582775,-0.055354964,-0.0059078,-0.03129789,-0.037813358,-0.013269493,-0.009496199,0.045769285,0.03514691,-0.02661924,-0.008848692,0.0406068,-0.04616388,0.015531863,0.006069819,0.03406729,0.026951846,-0.024571294,0.008775029,-0.01456061,0.012148886,-0.044814374,0.056755986,-0.034094192,-0.012273582,-0.02398612,-0.012401427,-0.04569661,-0.044253506,-0.04055059,-0.020067742,-0.015485204,-0.021721656,0.02982745,0.0024280788,-0.05649547,0.0016476413,-0.022910949,-0.01534843,-0.037880808,-0.006461406,0.0325533,-0.04468285,0.011542858,0.059358515,0.0032405166,-0.052429885,0.024041751,0.01653511,0.00722132,-0.009811097,-0.0052774474,-0.004766378,0.05648551,-0.011626044,-0.052109014,-0.031303816,0.014299905,-0.011242467,-0.053140704,-0.0066586058,-0.024826048,0.013134037,0.03204821,-0.029216861,0.023390215,-0.01824511,-0.030166566,0.030602343,0.031557087,-0.04347756,-0.0006877447,0.033174302,-0.048019696,0.030970557,0.035346314,-0.046376545,-0.025571378,0.050840948,0.018443841,0.037312526,-0.03875355,-0.03551376,-0.07321154,0.06005357,0.028091492,-0.011655198,0.022147123,0.045474295,0.020264907,0.026361808,0.03368987,-0.006928343,0.0050213095,0.016723333,-0.049475096,0.031517506,-0.02655959,-0.0065994654,0.019970838,-0.016448451,-0.03800566,0.0077662133,-0.0028993115,-0.03141498,0.017525349,-0.017975172,-0.027284158,-0.003836681,-0.01843999,0.024336165,0.020563457,0.060712073,-0.0345226,-0.052648745,0.0031458759,-0.034344543,0.012539843,0.0027371559,-0.034084745,0.016779503,-0.018048713,0.026325725,0.016200572,-0.026705453,-0.06738291,0.013083518,0.005513844,0.023075294,0.019057084,0.033851292,-0.0016682874,0.01745325,-0.04820857,-0.029515995,-0.025874516,-0.05123901,-0.031196538,-0.0313342,0.035854746,-0.017289463,0.008085991,0.025775447,-0.0051460927,-0.03156289,-0.014612683,0.008470084,0.0043716286,-0.041367296,0.006344559,0.0023392106,-0.048003018,-0.02216149,-0.023869462,0.0014143661,-0.035056993,-0.038855616,-0.04674682,0.01364275,0.023272624,0.041416727,0.027339462,0.020066043,0.041273557,-0.045633767,-0.037306063,-0.037857622,0.026935052,-0.046757735,-0.03724123,0.006505191,0.040450405,0.017612284,-0.027417341,-0.031618163,0.004441494,-0.014509877,-0.051813502,0.038466092,-0.02780642,0.028771607,0.009038323,0.006151137,-0.016589688,0.03494727,0.02267434,-0.008332273,-0.008074189,0.03460773,-0.06246763,0.015339969,-0.0024481316,0.035164863,-0.0696039,0.031024631,-0.00046906434,-0.013951362,0.0078080534,0.014594007,-0.013025613,0.042407006,-0.045937102,-0.04149165,-0.034030907,-0.068390556,0.032086514,-0.021616556,0.012984043,-0.035192344,0.031633824,-0.029867917,-0.050397918,0.0034288655,0.0026195112,-0.027970152,-0.046743773,0.00048718852,0.0029576663,0.01989565,-0.015020243,0.029883143,0.038190924,-0.01178719,-0.054661416,-0.00986572,-0.038515624,0.040357564,0.019473102,-0.026714453,-0.008351646,0.03216932,0.044037435,-0.05157271,-0.047486134,-0.037120663,0.007641822,0.050255705,-0.027034495,0.010166797,-0.047263823,0.00865887,-0.053801287,-0.017372545,-0.025620062,0.014337556,-0.01629117,0.008689689,-0.039657727,-0.032336958,0.04663738,0.005304501,0.027811104,-0.0010990435,0.04583851,-0.024762286,0.020753914,0.03298154,-0.060086876,-0.019675815,0.012372638,0.026963409,-0.039673124,-0.03329543,0.044155695,0.034123264,-0.02849209,0.04821055,-0.0034814943,-0.04080051,-0.00722537,-0.025416097,-0.019919343,0.014416509,-0.007111987,-0.051299952,-0.049867097,-0.031383265,0.030567942,-0.02954297,-0.03879385,-0.028863413,-0.018741498,-0.046450946,0.009505164,-0.030990968,-0.04009288,-0.029573426,-0.0055723405,0.013267361,-0.016071936,0.0040790015,0.01905563,-0.039002206,-0.035872146,0.02327532,0.017198559,0.011623252,-0.014063859,-0.0011154462,0.018158248,-0.045175266,-0.045623884,0.00660017,0.032714833,-0.017578514,0.027870374,-0.00093661784,-0.0011261366,0.0029446175,0.030457621,0.033673614,-0.018554265,-0.044168904,0.024367083,0.008828565,0.065839335,-0.014870444,-0.03357676,-0.0061211954,0.023117345,0.034545798,-0.053621843,0.016258707,-0.0041574086,-0.03433293,-0.04418773,-0.011133781,-0.022622844,0.026629463,-0.021024102,0.012763517,-0.02696942,-0.059527718,0.038847655,0.023408474,-0.04110627,-0.0011418536,-0.021102116,0.0120278625,-0.011131863,0.021876326,-0.011736809,0.014862483,0.048871856,0.011120235,-0.012525917,0.0006166294,0.03193201,0.04288771,0.025132932,-0.032852214,-0.005608922,-0.015109903,-0.0020003216,0.018681403,0.0058257105,-0.0020827446,0.009810396,-0.0027719398,-0.0037750006,-0.013504005,0.004915213,0.00020833763,-0.017069347,-0.027882174,-0.0029989157,0.0034209276,-0.011713337,0.024746645,-0.013529491,-0.02110944,0.041057598,0.04362923,0.047152065,0.020255854,-0.031614415,0.025508888,-0.0062104743,-0.021702541,0.014992611,-0.018880999,-0.04640866,-0.014142998,0.034373384,-0.022855207,0.050594587,0.036862385,-0.03516932,0.0389652,-0.0045899856,-0.006136009,0.050646912,0.03296453,0.0021720566,-0.017578036,0.033353172,0.009863423,-0.056332402,0.03894737,0.03011803,0.036706712,0.028615326,-0.021514062,-0.05275236,-0.012369521,-0.01198492,-0.007871066,-0.02836044,-0.0040419567,-0.05078192,0.014043122,-0.017727382,-0.034830935,0.007903814,-0.041980237,-0.03747432,-0.028291564,-0.051976334,0.035757557,-0.024125163,-0.017730188,0.02531175,0.04403161,0.034828473,0.044813856,-0.024060333,0.0044775414,-0.02607734,0.041642338,0.034956902,-0.0059780204,0.0047270292,0.019146305,0.01939853,0.032673657,0.015673067,0.022562949,0.023809774,-0.041806284,0.022858176,-0.0035666581,-0.048517734,-0.022764731,-0.005449451,0.028882716,-0.030587757,-0.053923853,-0.0065959785,0.04191259,-0.039711323,-0.06161525,0.058373768,0.013907955,-0.010604325,-0.06991711,-0.0024986835,0.0022895625,-0.032158226,-0.015205107,-0.0059370683,0.044222888,-0.044373814,-0.015316976,-0.0034151387,-0.005132315,0.015606408,-0.016575523,-0.050200593,0.038354434,0.01781476,0.040915433,-0.046440203,0.039301556,0.009713404,0.019593725,0.014799496,0.021657314,0.014922109,-0.017101346,0.011661388,0.0024903044,0.03632862,-0.020343928,-0.03383576,-0.019244809,0.0063294764,-0.033512175,-0.0023604892,-0.052278575,0.02011097,0.009851179,0.037757646,0.005846037,-0.03835449,-0.049716428,0.014035949,-0.042532895,-0.040406346,-0.0022217194,0.036436956,-0.024707893,0.0044787787,0.016145363,-0.047599267,-0.0020716893,0.040347658,-0.022400621,0.0529478,0.002578189,-0.015279063,0.053652987,0.01790662,-0.011867898,-0.038050555,0.04177743,-0.030222164,-0.037275657,0.035383865,-0.03087317,0.05169349,0.004509056,-0.040320568,-0.036802795,0.004911575,-0.023820505,0.024687868,-0.024536692,0.0004218556,-0.010229472,-0.04508393,-0.048778705,-0.051154234,-0.0010430702,0.016940286,0.011265562,-0.03319288,0.013246823,0.0023745093,-0.06607287,0.0029018966,-0.06099584,0.024080286,0.013598901,0.030945748,-0.0030700408,-0.04174243,0.060004473,0.017184954,0.020902088,-0.02021942,0.009475891,0.0017095916,-0.04841672,0.03237832,-0.038827594,-0.03344482,0.0052230214,-0.028840795,0.0006193782,-0.0056941747,-0.031580716,0.04477754,-0.0003817006,-0.024592485,-0.024876466,-0.052969992,0.012284871,0.0027086772,0.0004178288,0.0019564,-0.01011394,-0.033220097,-0.00092060136,-0.06433159,-0.02265604,-0.015788281,0.02099594,0.016047722,0.0032731388,-0.021555329,-0.05352222,-0.0032067846,-0.06668452,-0.029084543,0.018164903,-0.03399666,-0.0029940861,-0.00032167078,-0.010246309,0.041492846,0.009563358,-0.015818145,-0.0132589415,0.022504438,0.04104289,0.03378804,0.016056754,0.021819305,-0.023566287,0.027242806,0.021661062,-0.051373504,-0.010174069,0.017046511,0.011089781,-0.04152502,-0.039535087,-0.038055874,-0.039869014,-0.041637823,0.025666242,-0.045136657,-0.009233497,-0.02959998,0.0427841,0.005681291,0.011389505,0.0050096675,0.045849394,-0.013877664,0.05461651,-0.021434847,-0.044983372,0.03275258,-0.03859649,0.047160197,0.042213317,-0.03736122,0.00581016,0.01812435,-0.016269209,-0.008228712,0.098755054,-0.020684898,-0.0018409805,0.08309529,-0.042743754,-0.04032479,0.021089481,0.022158327,0.029533293,0.036087446,0.0104506835,0.030686865,0.027330687,-0.03298547,0.028376376,0.000666163,0.047809105,-0.048565283,0.028660608,-0.0030195937,0.038461734,0.01950835,0.03261567,-0.014564852,0.009526528,0.0040914253,0.03779064,0.01537613,-0.056216627,-0.053879622,-0.024765065,-0.011512945,0.009977097,0.042233672,0.010942913,-0.040966805,0.0043304972,0.037444312,0.019850897,-0.04417319,0.011087825,0.0030475298,-0.004767405,-0.03507861,-0.041156165,-0.039820854,0.022838945,0.039156016,-0.022890465,-0.050791014,0.0083486885,-0.041585222,0.06325176,-0.036714483,0.028428627,0.01974514,-0.049843952,-0.01811931,0.017204445,-0.022241507,0.028012685,0.05997376,-0.008091778,-0.0029906482,0.05269419,-0.05291673,-0.055027775,-0.045344543,-0.00058401335,-0.007454666,-0.032835558,-0.024687616,0.00010980293,-0.013521083,0.003152582,0.054700162,0.02474561,0.016971659,0.045071203,0.009132252,-0.010565725,0.008558986,-0.010749423,0.029156461,0.010357303,0.0319843,-0.001569303,0.0020943955,0.04572304,-0.020911966,0.0372699,-0.029187756,0.046283804,0.01177674,0.030606821,0.009418182,-0.0417199,0.014715428,-0.011071408,0.007536058,-0.02414603,0.007151005,-0.0040514627,-0.023809554,0.023182355,-0.0022186318,0.032566674,-0.019744605,0.032501,-0.048525646,-0.024192967,0.03524257,0.0030151918,-0.023866845,0.025258925,-0.027383834,0.03711097,0.0055031627,0.018505922,-0.049494926,0.012496219,-0.039838072,0.025017008,-0.025700508,-0.046349492,-0.06533478,0.024466863,-0.03161349,-0.01179248,0.04267661,0.047309395,-0.043220203,-0.034546737,0.005155546,-0.051134918,-0.022466,0.017582972,-0.034172572,-0.035526734,-0.023087686,-0.014783466,0.019899813,0.020541571,0.015197786,-0.01827682,0.0035526492,0.005120553,-0.027831094,-0.013316683,0.016001813,-0.024036303,0.040014826,0.023468524,-0.023137426,-0.044714637,-0.04855382,-0.015601148,-0.0050294437,-0.008132302,0.022470687,0.023846567,-0.04929165,0.04798003,0.014751677,0.011609423,-0.02984041,-0.026874043,-0.006187397,0.028443677,0.013745072,-0.0014716547,-0.034555476,-0.029054439,0.038633652,0.008641094,0.004596304,-0.037024323,0.040779337,0.02208988,0.02601676,0.04408033,0.011200744,-0.02574733,0.015141013,0.0009882853,0.0017425932,-0.034337614,-0.026317868,-0.021408038,-0.050733067,-0.016501298,0.042544853,-0.027892614,0.0014722549,-0.026352428,-0.029216992,-0.024002338,-0.030059211,-0.0046701264,0.021497766,-0.04213614,-0.00786629,0.050906453,0.015844716,0.035581175,-0.015799431,-0.05818501,0.053521488,-0.025377585,-0.022680035,-0.04831249,-0.048254676,-0.032135542,0.026933346,0.023646686,0.02440827,-0.052842256,-0.032790247,0.038246967,-0.03790103,0.036319043,-0.0016715628,-0.011538356,0.002319917,4.288374e-05,0.024662092,-0.023070099,-0.009809138,-0.0066627297,-0.049209733,0.041296836,-0.004364662,-0.037564427,-8.445145e-05,0.00885448,-0.0076083727,0.005825314,-0.007478103,0.0024466075,-0.02830149,-0.025675513,-0.0031336793,0.0075307377,-0.04409185,-0.04427386,0.043577198,-0.045301802,-0.0148710795,0.04622018,-0.043450795,-0.012378941,-0.039227735,-0.045763217,0.04613352,-0.012217745,-0.03026266,-0.047037225,0.009223766,0.010970431,0.039477393,-0.004886987,-0.014314648,0.0057464405,0.056223635,0.0034840368,-0.03943932,-0.005461111,-0.008193375,0.049572743,0.020455819,0.0018090588,0.03505353,0.028898679,0.047476094,0.052193623,-0.010432346,-0.045815263,0.030920472,-0.033908557,-0.006840527,-0.03927231,-0.04724569,0.005151551,-0.02848151,-0.033162706,-0.040540244,-0.019069772,-0.0014294647,-0.021649424,-0.052366707,0.003144425,-0.05057107,-0.023362005,-0.0411848,0.020329824,0.040714268,0.0057269423,0.018411705,0.032102067,-0.04774569,-0.037206966,-0.022249654,0.03272231,0.024069961,0.010202528,0.011949592,-0.043557014,-0.007877186,-0.01985284,-0.02036004,0.009709941,-0.02411328,-0.00081512664,0.013074767,-0.059524547,-0.037661098,-0.048387762,0.023345165,0.0407758,0.039825972,-0.020586876,0.012320585,-0.04679067,0.012471547,-0.0509526,0.024255143,0.028878959,0.0019555788,0.0148902945,-0.034544002,0.008315214,-0.0066171708,0.033547625,0.016128615,-0.030640563,-0.030394448,0.018700564,0.017188195,0.0369971,-0.038437165,-6.862171e-06,-0.029669438,0.030172765,-0.016934087,-0.030220311,0.002028036,-0.017126616,-0.024599267,-0.047864445,-0.008090519,-0.035508603,0.030795714,-0.045984652,0.01922351,0.023020772,-0.043116953,0.03875872,-0.036871236,-0.009484309,-0.016001564,0.04653815,0.031530973,0.027603628,-0.029033938,0.015804296,0.027636105,-0.02850153,0.015645724,0.017432993,-0.0068244915,-0.03270245,0.01146583,-0.05054074,0.0016652718,-0.011411595,-0.010637811,0.045166932,0.0333331,-0.043620173,-0.009281594,0.009144116,-0.001408963,-0.042221367,0.03222337,0.033597365,-0.008270603,-0.0057587745,-0.010736433,-0.014730565,-0.039612178,0.0008317948,-0.006274402,-0.011596084,-0.052088052,-0.017013073,-0.07588869,-0.012533661,-0.033120885,-0.04438082,0.046767242,0.03433581,-0.03453794,0.0076515954,0.035253234,-0.013618991,-0.054420978,-0.049160663,-0.02103165,-0.017452069,-0.026858866,-0.054773957,-0.061542097,0.034235224,0.009109511,0.0265411,0.011887387,-0.011510517,-0.0368144,0.028318139,-0.040226687,0.03483029,0.020708406,0.007736488,0.027870208,-0.0352584,-0.01037561,0.06297757,-0.0074358825,-0.00459922,0.031841483,-0.025420582,0.046426352,-0.018359104,-0.013523529,0.014555592,0.0034119303,-0.022555202,0.007485536,-0.009973849,-0.00901874,-0.010603435,-0.006733214,-0.047355782,0.019247632,-0.0044179964,0.04522606,-0.0023808884,-0.051995147,-0.00897947,-0.012058809,0.0158657,0.066081055,0.042512253,-0.011638871,-0.004440553,-0.029623019,0.006791692,-0.051640965,0.009352559,-0.037465136,-0.022968153,-0.0052188304,-0.037783653,0.0687315,-0.014671916,0.030465009,0.0042836703,0.0059555136,0.010135484,-0.015385242,-0.029228471,-0.046591487,-0.01096819,-0.0046988656,-0.01241634,-0.03138946,-0.034021698,-0.034980144,-0.010257624,0.022501582,-0.04025031,-0.00027202646,0.0017934231,0.034516416,0.03836831,-0.047974035,0.018999157,-0.024327125,0.035892334,-0.04743043,0.009979085,-0.011307053,-0.020403907,0.0060955477,-0.02986452,-0.037755378,0.039903954,-0.03727511,-0.008791291,0.0041765934,0.03380007,0.007328053,-0.040741246,-0.018525232,-0.061080355,-0.0485856,0.024849571,-0.05289458,-0.011878356,0.0035870182,-0.0066736555,-0.005573205,-0.009924291,0.046935655,0.049179662,0.01353364,-0.004175549,0.03225983,-0.013118472,-0.022467175,0.0053084246,0.0059439354,-0.060687438,-0.0050204853,-0.044877976,-0.009283527,-0.053748585,-0.017885257,-0.040813863,-0.026614176,0.0022604228,0.016573083,0.005909674,0.012819376,-0.044413958,-0.01278254,0.036403853,0.012253596,0.0007002428,-0.01508054,0.0331308,-0.046209835,-0.015521075,0.042382587,-0.046191107,0.014119815,-0.024424545,0.014104355,-0.018321434,-0.00049514015,-0.0017577732,0.006159879,0.03216711,0.017979529,0.043380108,-0.045758355,-0.017586054,0.024721447,0.00038376078,0.007938102,-0.030187495,0.04783924,-0.04388577,-0.029532835,-0.045678373,-0.0032971161,-0.0032999672,-0.008799978,-0.04574098,-0.0322023,-0.054183774,-0.010577705,-0.031273704,0.016682958,0.034562767,0.03726473,0.012726012,-0.017009983,-0.02246299,-0.012198899,0.03487675,-0.00678819,-0.031830788,0.013870274,0.03574451,0.022259083,-0.01533072,0.010409485,-0.028599,-0.04135447,-0.040525813,0.05051082,0.010192555,0.037463997,-0.040556166,-0.0041329754,-0.026711313,0.03631553,-0.006298522,-0.030603953,0.017512582,-0.009622769,0.032469247,-0.025547052,0.08231625,-0.005508348,0.059326414,0.010952026,-0.006647002,0.042609785,-0.019903943,0.027305355,0.009543181,-0.021552272,0.011105292,-0.026313014,-0.038301762,-0.04247414,-0.014381255,0.042179275,0.009208243,0.046623673,0.028778268,0.03885847,-0.008866145,-0.012640075,-0.015615568,0.036010426,-0.020098686,0.019884216,-0.03659725,-0.020648645,0.03202695,-0.020582456,-0.031556606,-0.031436816,-0.0036532062,0.024409112,0.035700105,0.031983707,0.0020796037,-0.00067733246,0.030112954,-0.012116457,-0.021570757,0.04874535,0.029135786,0.010019157,-0.0028145462,-0.020007316,0.055179678,0.012008056,0.014496085,0.007162642,0.04778149,-0.029487425,0.04634169,0.011866376,0.022127554,0.046319187,-0.013330669,-0.04726235,-0.0088626295,0.0027368283,-0.008772751,-0.0015911482,0.039618593,0.02751974,0.034172297,-0.055700786,-0.014611494,-0.022246892,0.00042054534,0.0032120342,0.044633854,-0.031055713,-0.03991694,0.0021412666,-0.033494025,-0.014460241,0.011893777,0.05397059,0.04104887,-0.009357842,-0.052189216,-0.03798666,0.014800048,-0.036765423,-0.052068207,-0.022420933,0.038524378,-0.010705288,0.010547862,-0.00849474,-0.018120468,-0.018698024,0.04532585,-0.049909744,0.030511927,-0.03533443,0.008910331,-0.048762247,-0.047771443,0.034171864,-0.023392035,-0.024062598,0.013625878,-0.027646909,0.0020953063,-0.008682972,-0.02296566,0.05903861,0.034739807,-0.00083978206,-0.018656747,-0.06820342,0.0028744605,-0.006015185,0.0031203404,-0.027669476,-0.022223808,-0.01753044,0.059422247,0.03341684,-0.04157322,0.026522065,0.0053791944,0.03910574,0.02416483,0.014423012,0.009545352,-0.021182247,-0.045589276,-0.035083313,0.05084585,0.015805744,-0.04484864,0.008058969,-0.010720687,-0.04472796,-0.019391173,-0.02692445,-0.037629817,0.0043661366,-0.02892853,-0.013358456,0.014828193,0.036899865,-0.042761154,0.030973839,-0.03781906,-0.036480747,0.028952612,-0.05019614,0.012313504,-0.0071220244,0.03298621,-0.030575098,0.030785393,-0.013962481,0.0012997547,0.013388238,-0.010049732,0.001439583,0.03760165,0.03953552,-0.040498674,0.013017514,-0.0126753235,-0.052240532,-0.03240922,-0.031755824,0.03153878,-0.03841386,0.028115189,-0.01608729,0.028485665,0.004259559,-0.016011514,-0.034300473,-0.014667751,0.032050997,0.04167073,-0.036625378,0.019136265,0.024746882,-0.0044239503,0.035391618,-0.03328133,0.028830785,-0.056228276,0.037490666,0.024988528,0.027000163,0.0374174,-0.054468594,0.025034878,-0.045651216,0.054676592,-0.031765483,0.017121349,-0.010660086,0.016766133,-0.032000735,-0.030522212,0.045701906,0.0020559493,-0.048959814,-0.036488295,-0.00476925,0.037544295,0.02806554,0.005819718,0.023317192,-0.009909298,0.020369913,0.020082036,-0.042199,-0.037987325,0.020215763,-0.029441437,0.015551189,-0.036740184,-0.017381838,-0.03953435,0.0019669414,0.024550427,-0.0021188743,-0.026374646,0.03616593,-0.033985425,0.030713623,0.01945595,0.021873603,0.07722454,0.006610414,0.004273117,0.0062886206,0.0152552845,0.023979053,-0.0071917856,0.008294964,0.02511598,0.03243316,0.0051670237,-0.019543568,0.044788197,0.019196203,-0.022372967,0.031095944,-0.01855368,0.018628608,0.010511335,0.006006308,0.020669905,0.035787385,0.03410677,-0.032746237,-0.04163936,0.020567814,0.0011838371,0.02107294,0.039435364,0.04304528,0.028451962,0.017173469,-0.018088475,-0.045344282,0.006097586,0.0056357416,0.006001061,0.02776959,0.04284719,0.037531104,-0.015459997,-0.03227902,-0.012356505,0.03698742,-0.02959424,-0.04432287,-0.0150685925,-0.017910803,-0.010287359,-0.003318835,0.0092242,0.0028992726,0.008231896,-0.0024226434,0.0006608833,0.043384645,-0.030019673,-0.03250142,-0.02103368,-0.0267544,0.0033790667,-0.04794469,-0.039534386,-0.032278173,0.050086986,0.000421659,0.038683683,0.006383208,-0.026302002,0.03549015,0.0043152533,-0.051705655,0.0023522628,0.036891535,0.05706304,-0.016785849,0.0057723215,-0.017817853,0.027236722,-0.045258373,-0.03725198,-0.023875706,-0.040713932,0.03593536,-0.030190386,0.029244361,-0.04180257,-0.015064271,-0.047696333,-0.023490114,0.036344875,-0.050103392,-0.012282628,-0.00056167436,0.012848136,-0.032835774,-0.033139147,-0.033281606,0.03145829,0.007253634,0.023425004,0.043061953,-0.027370397,-0.040340163,-0.008527073,-0.023847006,0.009436604,-0.013075648,-0.00836208,-0.023532536,-0.0030750285,0.03526928,-0.017978055,-0.03527191,0.036439046,0.0063835247,-0.022000803,0.011682962,0.046025977,-0.017818555,-0.04765205,0.0065354966,0.0057126326,0.021800261,0.020686222,-0.026369983,-0.010248642,-0.014588308,-0.044037204,0.0008947867,0.0072452556,-0.007321341,0.021935906,0.024979439,-0.00044039247,-0.031763915,0.03749344,0.013681805,0.038239688,-0.0033276866,-0.0026121573,0.052999534,0.044795226,-0.04303644,0.0077682543,-0.0099945795,0.015350027,-0.04507013,-0.04187592,-0.0118398145,-0.004754159,0.05209733,0.039976038,-0.0027487287,-0.014285005,-0.014582155,-0.013268243,0.0038763098,-0.0054829987,-0.035792727,-0.0036768923,0.038828257,0.02668093,-0.032451518,-0.009754623,-0.0014717202,-0.046369337,0.0059865545,0.02796729,-0.019730141,0.006805155,-0.005621914,0.02689184,0.018607173,0.0054161884,-0.007814365,-0.048949495,-0.030615771,-0.023281198,0.040299803,-0.010414283,-0.01105818,0.0030652287,-0.030252522,0.01670025,0.019329455,0.024204949,-0.035787564,-0.0466146,-0.0014920533,0.002525976,-0.017736696,0.021027835,-0.018252017,-0.01362926,-0.033073418,0.03182077,-0.020503178,-0.000679791,0.0049865306,0.018146798,0.0012874715,0.023820976,-0.040423352,0.03210434,-0.04191618,-0.053821966,-0.026825413,0.04027293,0.017696278,-0.042290285,0.039029367,-0.040209074,0.01839526,0.026690342,0.018090779,-0.042659726,-0.051584892,0.0028483293,-0.02301685,0.00948545,-0.040964734,-0.023524165,-0.026349379,0.02777738,0.011124499,0.0007500121,-0.006669257,-0.0262752,-0.03253708,0.039219998,-0.0126018515,-0.033808906,0.04129821,0.012773558,0.002565237,-0.056427367,-0.012692738,0.013892043,0.0036953818,0.0004395883,0.003729027,0.03952503,0.044823267,-0.04775466,0.03460334,-0.037592757,-0.017876623,-0.048390605,-0.045082822,-0.039611883,0.0022278589,0.04070966,-0.039958198,0.01342641,0.029395306,0.032375954,-0.0182332,-0.042414606,-0.0042782193,-0.02946478,-0.039325524,0.04257978,-0.036069114,0.020029068,-0.010507836,0.039432745,-0.034030914,0.041403968,-0.014794337,-0.047659643,-0.04935468,0.036185987,-0.011186349,0.034870367,0.0155210765,0.03575473,0.008588776,-0.007213216,0.012257461,0.0042796806,-0.03874912,0.03375286,0.0341104,-0.03165392,-0.0032636346,-0.025997516,-0.03676232,0.010452965,0.03134926,0.038847376,0.024541607,0.026111176,-0.018320054,-0.013756879,-0.01201173,0.026397768,0.0052151713,0.019440252,0.008146769,0.0054442934,0.0018413253,-0.0011299879,-0.050466683,-0.016098756,-0.01312341,0.04783057,0.02609816,-0.047342245,-0.033058617,0.049645558,-0.04532269,0.003118762,-0.034692053,-0.0080822725,-0.03236402,-0.039250154,0.043529794,0.029068142,0.022384105,0.032283828,-0.017462462,0.04548171,-0.02743544,0.045998916,-0.018407758,-0.04113975,-0.07785821,-0.015477382,-0.04052735,0.027956499,-0.0067979135,0.008171097,0.01549187,0.0117650665,-0.051186647,0.039812483,0.0262643,-0.011458955,-0.051536757,0.037831046,-0.030862149,0.008847352,0.000502595,0.012129594,-0.05206968,-0.01627709,-0.018064732,0.021401225,-0.0043870285,0.03722111,-0.007279977,0.02586855,-0.048007105,0.02242047,0.032544933,-0.03308044,-0.03779123,-0.022924874,0.054299455,0.027518844,0.04053026,0.0392239,0.016163763,0.009487588,0.00948488,0.012935216,0.020109713,-0.025315255,-0.019753926,-0.0342776,-0.049847156,-0.0036180587,0.018357076,0.058889937,-0.048524674,0.0083434265,0.018550705,-0.019269347,0.02583006,-0.013020264,0.0062956437,-0.018115764,-0.043215938,0.041352414,-0.009872454,0.011621793,0.015298988,0.05234749,0.024948861,0.024494523,-0.00073222903,0.08292213,-0.030280076,6.560661e-05,-0.03360903,0.08042821,-0.0017719719,-0.03034308,0.024822842,-0.00028747687,-0.0018179342,-0.057211053,-0.053722512,-0.03608516,0.0073038265,0.04386915,0.011837968,0.028772887,0.027492408,0.008743904,-0.021233132,-0.02176127,-0.034959324,-0.019611403,-0.008272419,-0.03478836,-0.0075887376,0.01116272,-0.03214811,-0.04836974,0.004574925,0.020269364,-0.03588912,0.020161439,0.0004491447,-0.009614987,0.009866733,0.010961407,0.005699504,-0.011692107,0.021273524,-0.02023247,-0.03471023,0.05042392,-0.02287064,0.022260778,-0.034939628,-0.051484305,0.012389315,-0.022105237,0.02251511,-0.02347421,-0.040299997,-0.0041647903,-0.006372481,-0.017295083,-0.052686106,0.027367292,-0.022051223,-0.01850343,-0.04713378,-0.012561008,-0.062095612,-0.034962147,-0.037973747,0.06669495,0.032507095,0.02142861,0.034193624,-0.021786164,0.033418182,-0.03479391,0.041149464,-0.03137339,0.037514195,-0.086618796,-0.05300748,0.013450352,-0.031115571,0.007807683,0.009533706,0.03674483,-0.038617525,-0.040744994,-0.03962327,0.009234729,0.041246682,0.022886481,-0.00806728,0.026564216,-0.0329574,0.027535137,0.03019428,-0.04468179,0.0074112783,-0.025265634,-0.013743798,0.042502973,-0.009538315,-0.027237695,-0.010469568,-0.0386081,-0.03645318,-0.022673545,-0.0049274256,0.021444397,0.029174147,0.02717458,-0.030917915,-0.052549656,-0.02878929,0.03529932,-0.014487418,0.02951379,0.047891814,-0.040016826,0.011905193,0.0009961044,0.036317408,0.017058939,0.038242448,0.035115458,-0.011122371,0.059800822,0.034418676,-0.0052849837,0.057305228,0.01910308,-0.031623106,0.03923284,0.05058816,-0.028070867,-0.051319275,-0.025757615,0.038278043,0.0059685544,0.018757017,0.019050967,-0.015015462,-0.029457515,0.049547367,-0.054976895,0.041653868,-0.04862547,-0.018070485,-0.044954937,-0.055795576,0.022811184,-0.012152259,-0.025800934,0.012338147,-0.022366477,0.016710473,0.038964458,-0.025227353,0.05383753,-0.023690803,-0.020763727,-0.060797658,-0.010746132,-0.019862384,0.077951215,0.018062094,0.04162738,-0.040724453,-0.03651949,0.004054699,0.008294794,0.03431587,0.031655967,0.017127115,-0.03906232,0.04147397,0.033407312,0.030833576,0.01824448,-0.01504628,-0.015977487,-0.03282416,-0.03637201,0.053758394,-0.027225677,-0.008144669,0.0048685353,-0.015160452,0.0020298883,0.016870668,0.05122749,0.018067442,-0.017319014,0.0062476,0.0062575457,-0.03186669,-0.036127232,0.086002834,-0.0034713803,0.023096854,0.023871996,0.025940577,-0.04720761,0.0036676005,0.026288403,-0.043703195,0.018619597,0.04361471,-0.015537563,-0.030985232,-0.049489427,0.03890887,-0.004553081,0.044562295,-0.011281973,-0.0007565199,0.009713638,0.03999833,-0.038014293,0.038674686,0.040231317,0.015074564,-0.024032788,-0.0014093445,-0.04633159,-0.013537127,0.004863021,0.018354956,0.017545456,-0.015006346,-0.0118737025,0.041048445,0.040707786,-0.015297726,-0.021769753,0.027609466,0.013255513,0.0060023167,0.010015584,-0.0015987545,0.024909277,-0.005160606,0.03649784,-0.0025712934,-0.019257363,-0.016562995,0.015379171,0.048728745,-0.010297341,0.004958026,-0.0031107587,-0.0013805886,0.0031275733,0.01909061,-0.0015245333,-0.047597297,0.016398111,-0.007704688,0.026442692,0.018278206,0.027051264,-0.022619106,0.005505148,-0.05660544,-0.038947713,-0.0034055088,0.0404405,0.0148734115,0.006263277,0.017233493,-0.035703927,0.008517184,0.00020486873,0.03227802,-0.004405285,0.03372436,-0.004805248,-0.05704561,0.012837852,0.015178322,0.05932885,0.04584335,0.03942207,0.012723443,-0.03284003,-0.0064252242,0.033752732,-0.017458336,0.0055180453,0.02636408,0.025750196,0.0468793,-0.034654163,-0.02972359,-0.047230836,0.0015023537,-0.022992538,-0.036896907,-0.031196924,0.010255898,-0.009382298,0.026833821,0.007823725,0.034995314,0.014764732,0.058805786,0.016868072,-0.04798402,0.013032816,0.0053528473,-0.0405252,0.047323246,0.021582749,-0.017160866,-0.06683858,0.016885033,0.03744469,-0.04188209,0.066487454,0.05143871,-0.032838896,0.06125663,0.035631727,-0.029607838,0.048625723,-0.035630062,0.015561121,0.030723622,0.03161041,0.04007786,0.028102458,0.025717948,-0.025123306,8.270386e-05,-0.01849725,0.03888543,0.010814041,-0.012134795,-0.016304553,0.01881312,0.012326818,-0.0033031749,0.023175739,0.03569874,0.04340652,-0.037929047,0.014217093,-0.048199937,-0.02156712,-0.008841581,-0.026702788,-0.010889848,0.005284483,0.017774547,-0.033402693,0.03168631,-0.050952457,0.026992725,0.02078671,-0.0046521076,0.016067455,0.049316723,-0.0038501073,-0.027648238,0.03486654,-0.009114493,-0.04603589,0.04825843,-0.0104959905,0.024090428,0.039293863,0.01634371,-0.011214052,0.040402103,0.054109953,0.050147958,0.014551922,0.011311068,0.023452416,0.0022782888,-0.022500323,0.028800953,0.028412772,-0.032071397,0.0147992065,0.016564237,0.031153765,-0.09231937,0.04724971,-0.06414791,0.048038162,0.03515304,0.035332777,0.039821904,-0.050006878,-0.0021372393,0.035247687,-0.036103453,0.0050392724,-0.03443764,-0.03952947,-0.0045037023,-0.004646469,0.0051327585,0.005896751,-0.04450524,0.03311507,-0.0003059032,-0.033508144,-0.033107813,0.04106138,0.037556343,0.0035829567,0.010021731,0.005524155,0.053552605,0.023941051,0.0049834806,-0.032899372,0.020898134,0.030022638,0.038545657,-0.024767786,-0.037604038,-0.017638529,0.03732675,-0.0053801504,-0.027053589,0.020988062,0.0092639495,0.0020691827,-0.038982246,-0.05518926,0.05732511,-0.023133205,0.025769874,-0.055136938,0.040911783,-0.019922508,0.03928961,-0.040197715,-0.019626385,-0.006798712,-0.013868198,0.019214146,-0.03910864,-0.027876,0.015802735,0.021873517,0.0099806115,0.033086862,0.043229047,0.029771859,0.017642984,-0.060784433,0.009065703,0.050346464,0.04110599,-0.0018162166,-0.037794046,-0.039303843,-0.034073308,-0.0149072185,-0.034977842,-0.018946977,-0.0036587939,0.001162637,-0.048824802,-0.037145022,-0.046782292,-0.0018335667,-0.014765735,-0.027050283,0.0050552655,0.03175065,0.035075516,0.04897335,-0.03919829,-0.028149037,0.0213165,-0.017873337,0.02623506,-0.0037185913,0.028997129,-0.049935095,-0.009429596,0.033095665,-0.03441418,0.034446053,-0.008357711,-0.00086252566,-0.030524042,-0.0005973861,0.0011082155,0.042576518,-0.04611948,-0.032446202,-0.04599418,0.019490669,0.020541895,-0.038320873,-0.026456492,-0.045839105,0.030758498,-0.027703838,-0.04347774,-0.04985311,-0.007917474,-0.016016856,-0.030022543,0.03754224,-0.025300093,0.053288635,0.033273853,-0.028780295,-1.4681906e-05,0.052049074,-0.0052996436,0.020732895,0.0012643565,-0.032753877,0.002424955,0.015445542,-0.013814293,-0.003428444,-0.04852858,-0.022897722,-0.022566855,0.031931613,-0.0037440434,-0.009118255,0.006778889,-0.024600726,-0.022834348,-0.019208698,-0.00027369848,0.00067189516,0.0025276095,0.009465619,0.0011469214,-0.020573188,0.041793466,0.05171218,0.03652899,-0.032823533,-0.0023732367,0.016095936,0.0071177254,-0.032975744,0.01581033,-0.034152005,-0.025813008,0.035922527,-0.036424093,-0.049043555,-0.034047466,0.019213527,0.040043604,0.011138529,-0.048120715,0.0069897026,-0.027521316,-0.006524882,0.008022562,0.029025076,-0.03441982,0.018184252,0.061748188,-0.015289235,0.013018664,0.015162964,0.007257377,0.0015217527,0.057675216,0.041304015,-0.001689617,0.025515728,0.06644934,0.036980513,0.019818187,-0.016655115,0.019582387,-0.015044135,-0.03251997,0.030631566,0.046199355,-0.026598226,-0.03664113,-0.021366691,-0.043307796,-0.005065659,0.016561264,0.008791325,-0.025567709,-0.03270413,0.016908886,0.04186139,0.040458594,-0.035678685,0.01944455,-0.018267065,-0.006140355,-0.025285842,0.03926776,0.041899774,0.022581501,-0.0065719616,0.031066274,0.01243574,0.027866364,-0.004011612,0.004801733,-0.0041470793,0.032126565,0.048600744,-0.034181375,-0.041100226,0.04465783,0.0020205497,0.0018403748,-0.053141233,-0.0047769845,-0.012768121,0.044179432,-0.028724823,-0.0073307627,0.041209344,0.012440786,0.006193574,0.023671884,-0.0058908197,-0.005849063,0.023679998,-0.010893345,-0.041773774,0.048759375,-0.04141277,-0.0019416179,0.008216098,-0.017446633,-0.0038676169,0.029180968,-0.046949774,-0.055759944,0.009923671,-0.02577135,0.02534473,-0.037559427,-0.020181198,0.020567928,-0.029450964,-0.0003887564,0.016210107,0.009091804,-0.018494943,-0.0528711,-0.036237497,-0.040556207,0.003555386,0.032470208,0.039097313,-0.0045939316,0.0058108526,0.034748487,-0.010662631,0.041769527,-0.03077447,0.025791554,0.00033187238,-0.029974462,-0.0076508597,0.015373009,-0.00977411,-0.045206048,0.019238507,-0.025317617,0.06775412,-0.03340247,0.007056888,-0.017865341,-0.021171305,0.012157235,-0.051250473,-0.055483583,-0.037009917,0.013806484,-0.016817724,0.040597152,0.041213084,-0.02598769,0.040076047,0.015132774,-0.04180564,0.0056828004,0.03187825,0.018820105,-0.0058393674,-0.010219735,0.022722455,-0.042807244,-0.00553093,0.007448139,0.0040369104,0.031002706,-0.01895479,-0.00085298007,-0.016280893,-0.046199493,0.013333084,-0.058837242,0.011519922,-0.019928783,-0.019040434,0.032164,0.032514077,-0.03908954,-0.0008089428,-0.034899343,0.029838024,-0.047066197,-0.031109728,0.038196106,0.03451645,0.0044665574,0.0033358522,-0.042814948,0.006496508,-0.035692986,0.039687358,0.034284223,0.015894767,-0.0142295845,0.040708296,-0.0094418535,-0.042891588,-0.025411481,0.037830893,-0.05482255,-0.008948061,0.0013341982,0.046097863,0.037635703,0.034937132,-0.013986729,0.0052073523,0.033203032,0.021808544,-0.0071647316,-0.010586144,-0.021193054,0.041381247,0.025042666,0.035349637,-0.012686875,0.029782463,0.021037895,0.0369506,0.031135824,-0.031265736,0.009951471,-0.03688132,-0.024931708,-0.052309576,0.006255972,-0.007185698,-0.013889545,-0.03226795,-0.04806813,0.02745732,-0.016132973,-0.042784728,-0.023982123,-0.029810939,-0.0023130435,-0.04582375,-0.029397305,0.037263684,0.036419246,-0.03210546,-0.048556935,-0.023321193,0.0091978405,0.015716486,0.013396863,-0.062764004,0.019210842,-0.009939738,0.020813808,0.028158862,0.012973177,0.042499237,0.01992527,-0.03811217,0.026505437,-0.04120156,-0.044631418,0.024904666,-0.027890766,-0.0053896443,-0.039642684,0.028905112,-0.02111892,0.0044172234,-0.002191797,0.017260166,-0.0019042455,0.0033913106,0.0068748593,0.04525816,-0.022831736,0.034731362,-0.041114785,0.00963892,-0.0012495108,-0.04190339,-0.0045212023,-0.033949897,0.04846727,-0.017700162,-0.013386235,0.011454115,0.023759577,-0.037205376,0.050084125,-0.013993717,-0.03418346,0.039821263,0.04152978,-0.04062471,0.03017811,0.0035058444,0.0389331,0.034885727,0.0038185406,-0.009733021,0.062807105,-0.018983226,0.0064697354,-0.08132923,-0.015602946,0.023656694,-0.019115375,-0.043555956,0.045710545,0.033888012,0.0058158673,-0.006227461,-0.012262143,-0.05329927,0.017502205,0.0065538287,-0.013991762,0.028236471,0.068153575,-0.016964717,0.008885157,-0.016897425,0.005304164,-0.024881613,0.017569793,-0.035660226,0.015334658,0.04674733,-0.032634933,-0.03499522,-0.05207486,-0.035595547,-0.051857747,0.01698572,-0.025423324,-0.019201195,0.021338142,-0.012146804,0.014278632,0.038317196,0.026113132,-0.024079587,-0.054316346,0.02177188,0.03994255,-0.057313204,0.04905863,-0.008998329,-0.048698243,-0.004490134,0.04410168,0.0011518141,-0.014354465,0.040898923,-0.054491956,0.010240997,0.027692528,0.03653153,-0.019535318,-1.8679926e-05,-0.024357708,-0.03805143,0.012999755,-0.051473185,0.015953476,0.019355323,-0.0031573423,-0.0386117,-0.047200173,-0.005513602,0.01944069,0.019398212,-0.05418827,0.032113336,0.039419632,-0.024145788,0.032201532,-0.0061190315,-0.012426857,0.0054925494,-0.0037820905,-0.014950026,0.022446506,0.002001729,0.007445825,0.0009867065,0.026835892,0.01563191,-0.0369991,0.034016993,-0.0275457,0.012295667,-0.032730635,0.008290816,-0.010867016,-0.009206691,-0.030305484,-0.021286784,-0.039988752,-0.048565626,-0.046503063,-0.01419609,0.02502833,-0.051338825,0.033929292,0.005573378,0.02691454,-0.025207192,-0.04572406,0.02899242,0.0294803,0.024485372,-0.01150829,0.011957568,-0.049274124,0.01591435,0.027797248,-0.00035754807,0.03342623,-0.069456175,-0.015448047,-0.040412698,-0.0075213914,-0.011884656,0.0035758237,0.011083197,-0.019142186,-0.014119249,0.057894696,-0.03335903,0.009381266,-0.06100389,-0.048985098,0.008223165,-0.014293241,-0.019007413,0.043615732,-0.032351058,0.043043643,-0.020047728,0.01578932,0.007177738,-0.02412349,0.032419845,0.041029263,-0.053120196,-0.009309176,0.02023572,0.031415988,0.03674177,0.04048125,0.032848217,-0.030256998,0.01583171,-0.005641611,0.052088022,0.008022774,0.013251884,0.022723429,0.024056215,0.032589532,0.043467484,-0.0006908577,-0.018161822,0.01830979,-0.041750576,0.013608467,-0.03938922,0.011667344,0.01357256,-0.017191637,-0.030075245,0.031403366,0.008944362,0.047998223,0.02428857,0.042715207,-0.04962862,-0.051251166,-0.023966163,-0.018087532,0.035703126,0.03847278,0.018488498,0.013064072,-0.012079128,-0.037141085,0.034020018,0.011677876,0.028494934,0.010275161,0.037035495,-0.0043544024,0.039196536,-0.0140086785,0.034535293,-0.025379555,-0.052895468,0.015408576,-0.05378569,0.030463642,0.044671737,-0.050397966,-0.017083773,-0.032201584,-0.0024634516,0.0036881827,0.0064589716,-0.0155644305,0.0012937505,-0.052198816,-0.052961856,-0.042845182,-0.018712945,0.043137472,-0.0064992756,-0.025288712,0.04593334,0.03733425,-0.0398479,0.018333992,0.004915864,0.0097702835,0.04448931,-0.026821874,0.023781992,0.026283192,-0.037502035,0.007469766,-0.05110761,0.02781197,-0.048741516,-0.041006338,0.040755045,0.03128906,-0.027732696,-0.010248743,0.019953705,0.002622978,-0.021213451,0.02707738,-0.030941518,0.03383701,0.03390436,0.035504308,0.021699237,-0.020637369,-0.02276503,0.039401706,0.044093817,0.014148398,0.016502399,-0.028355742,0.02151328,0.045009647,-0.010037926,-0.0064871856,-0.017053386,0.004442201,-0.016681306,-0.049871113,-0.02625236,-0.032195993,-0.047639523,-0.025084024,0.042871434,-0.026844244,-0.056614175,0.009963221,-0.04035107,-0.012607038,-0.020699529,-0.00105285,0.039993994,0.0030221976,0.022742959,0.03741307,0.015853746,0.006916661,0.014493929,0.005712446,0.006799079,-0.024598574,-0.0041296924,-0.035641905,0.042972736,0.034765255,0.019672439,-0.03942351,-0.0129883615,-0.03942459,0.021134231,-0.033125106,-0.043733224,-0.03407869,-0.007789194,-0.026523734,0.041495305,0.029536497,0.03462896,0.04587601,-0.039507087,-0.016259657,-0.03203423,0.02486736,-0.0051138145,-0.0471733,-0.024979942,0.010105827,0.013823554,0.03617293,0.00030406995,-0.0360278,0.051145304,-0.042213906,0.037010156,0.027845308,-0.038280785,-0.025348937,-0.043521486,-0.053088922,-0.025836725,0.027106203,-0.006932092,0.028757399,0.01578201,0.028762149,-0.02668781,-0.028385073,0.03814005,0.04144343,-0.00584203,5.29888e-06,-0.026990065,-0.035345193,-0.020902943,0.040802486,0.024523187,-0.037987873,0.008211351,0.0053768624,0.028203087,-0.005166748,-0.023815492,-0.037627045,0.04280726,-0.030013025,-0.042746723,0.0025922328,0.0334402,-0.027802309,0.027969977,-0.031342942,0.014251848,-0.009315892,0.043961003,0.015469518,-0.024074925,-0.047483187,0.034596134,0.037700154,-0.015297653,0.0059198104,-0.037130542,0.0038120614,-0.022992954,-0.04440953,0.0020682008,-0.025115432,-0.060126144,0.04083961,0.03444701,-0.02493683,-0.018146629,-0.012115226,0.03103286,0.017600052,0.007263817,-0.0072817313,0.0055982955,-0.046047695,-0.010240254,-0.037676834,0.041796576,-0.04113612,-0.013009244,-0.05728714,0.06270745,-0.011708377,-0.020581342,-6.268977e-06,-0.014036227,-0.039265696,0.009645785,0.048082486,-0.040913552,-0.053824246,-0.04434567,-0.055005357,-0.013972058,0.0047576493,0.027598094,0.00745861,-0.0127579225,-0.051542923,-0.02982611,-0.040539462,-0.043779388,-0.0343748,0.07588142,0.023983918,-0.019945864,-0.021427069,-0.048016384,0.012074197,-0.020075757,0.010559509,0.060460284,0.030528726,0.001824956,0.034681756,0.035760954,-0.033898905,-0.002130049,-0.0041111563,-0.009925218,-0.02662278,0.0014719543,-0.0073722806,-0.048624754,-0.0127517525,0.02564923,0.022251997,-0.048079126,0.032497182,0.02903617,-0.058121845,0.0031155017,-0.046390623,0.025441514,-0.045110013,-0.035954446,-0.021741984,0.02381323,0.050528508,0.031053267,-0.04803365,-0.02716917,-0.003166526,0.03447255,0.025279932,-0.05225173,-0.021414615,0.042457413,-0.0030961377,-0.0061466848,-0.0007259057,-0.03509275,0.03688114,-0.031078205,-0.04703634,-0.02328997,-0.0065238853,0.0023657717,-0.04964293,0.030516941,-0.0041010748,-0.040199846,-0.010420098,-0.0076024323,-0.017431306,0.03704466,0.024920937,0.012770986,0.007509017,-0.011096698,0.02903529,-0.03005046,0.01985582,0.035963684,0.0270521,0.020720163,-0.008802901,-0.013163189,-0.04803752,-0.017467422,-0.044004977,0.030559074,0.03843471,0.016253186,0.00278351,0.03576892,0.009911433,0.03234367,0.02911626,0.053882282,-0.038970523,0.010482926,-0.015493702,-0.01320545,-0.027428977,-0.03856716,0.0167121,-0.07303627,0.03693533,0.042110328,-4.2383617e-06,0.041152056,-0.02482941,0.035005268,-0.008454534,0.034421075,-0.01578294,0.07538968,-0.046892084,-0.0083757,0.0024151695,0.015957795,0.019667758,-0.025979124,0.006559807,-0.0058383956,-0.0066388133,-0.015370015,0.010581762,-0.0033606703,-0.047167093,-0.042138427,-0.025319159,-0.0023273965,-0.05339074,-0.011147809,0.025383148,0.002483067,0.041480433,0.00082514295,-0.044967048,-0.012216826,-0.018361514,0.013380262,-0.042910952,-0.032394473,0.0065127397,-0.033310648,0.016210645,0.02519513,0.020389402,-0.049924817,-0.031468615,0.042489942,0.028658513,-0.029923216,-0.035830535,-0.007594774,0.042982426,-0.04987362,0.029084159,0.009094111,-0.045276526,0.014020403,-0.036907483,-0.04699898,0.032221638,0.041114822,0.0011640853,0.03347706,0.030807402,0.01640935,0.013871078,0.012584545,0.00027481143,-0.010832011,0.031799413,0.036487546,0.023497678,-0.024924994,0.01878245,-0.043104466,0.051699895,0.034658164,-0.058327813,0.013380305,-0.010966001,-0.040263087,-0.011859804,0.011966224,0.03824718,-0.042145707,0.0119811855,0.03178047,-0.04722024,-0.03483136,-0.013089923,0.026428698,0.022177448,-0.0018155443,0.044997327,-0.027265757,-0.023692964,0.0027214289,-0.025986435,0.058554273,-0.03238292,0.011446126,0.0490941,-0.004774401,0.008517506,0.024141915,0.025849737,-0.040187437,0.014209177,-0.028708287,0.012078814,-0.01621591,-0.035842,-0.01669589,-0.045776695,0.008308574,-0.033833995,0.010724093,-0.033460747,0.01163348,0.04651418,0.054725435,-0.03762966,-0.047279473,-0.033547767,0.04334088,0.0020753639,-0.041125268,0.021402333,0.0076116333,0.041578397,-0.026869116,0.0052885697,-0.033589873,-0.031047357,-0.010129161,-0.0063669747,-0.020507222,-0.029073885,0.046247244,0.0062306384,0.043375544,-0.022146665,0.02587808,-0.041016314,0.046917196,-0.014860049,-0.011227684,-0.013094995,0.047539823,-0.011553872,0.021935683,-0.026740322,0.013551863,0.00888333,0.0012840518,0.0058009974,0.025774056,-0.02260335,0.040863506,-0.036175676,-0.011917836,0.005989532,0.02726362,-0.011735973,0.01652296,-0.022106303,-0.0358667,-0.036687907,-0.010219953,-0.017598186,0.04744619,-0.009615153,-0.001945575,0.038368568,0.014957859,-0.012102935,-0.020147335,-0.02698141,-0.045041427,0.03555694,0.010395316,-0.029964073,-0.0418103,-0.037824158,0.0023226638,-0.05053921,0.01289788,-0.017399393,-0.020523585,0.027188897,0.01396296,-0.04970732,-0.069522545,0.032500528,0.022123514,-0.03794041,-0.014831375,-0.023772923,0.031121206,0.023437705,-0.03515028,-0.0631573,0.057744566,0.007901324,-0.02542088,-0.004460989,0.0016917632,0.037829105,-0.0023416707,-0.019264976,0.0024537127,-0.00073106267,0.012341156,-0.0062175156,0.021527706,0.037661348,0.04231636,-0.019233424,0.015425929,0.029521156,0.041337557,0.0028623927,0.035115033,-0.0009809023,-0.016819287,-0.04720427,-0.039759032,0.002341076,0.047565203,-0.040703442,-0.035825003,-0.05754483,0.032482725,0.037004657,-0.042625956,-0.015920281,-0.04198873,0.041068338,-0.030514767,0.035664666,-0.020104423,0.015882183,-0.027943632,0.009322629,0.030067332,0.03750212,0.04205388,0.04958986,-0.029833496,0.036752813,-0.05483291,0.003816612,0.012509277,0.0620089,-0.0025087602,0.0021067702,-0.028854083,-0.023450354,0.027117334,-0.06194747,-0.012926493,-0.015707375,-0.01857576,0.049152948,-0.026403468,-0.057665765,-0.023120988,-0.0150559265,7.1305236e-05,0.011357855,-0.026988974,0.04442079,-0.049462054,-0.04358491,0.041761793,-0.04869688,0.008976315,0.029462248,-0.009877375,-0.04093924,0.04194429,-0.011953503,-0.035060853,-0.044256758,0.039749056,-0.03342109,0.05140746,0.022467533,0.008922175,-0.04867639,0.040234573,-0.034762453,0.02758557,0.03151244,0.013690527,-0.023260517,0.038087543,0.029145963,0.060182594,0.0035784945,0.039377987,-0.016867088,0.009312061,-0.032279547,-0.0452392,-0.021274863,-0.03301466,-0.024196412,0.05726358,0.021372886,-0.030228203,-0.03275539,0.036795225,0.028482996,0.004811536,-0.0036862418,-0.0019565504,0.034921646,-0.005213612,-0.045809444,0.062725745,0.012063519,0.039900307,0.036956046,-0.024317427,0.034258034,0.0034229923,0.056243386,0.03802122,-0.028377963,0.01568947,0.068615265,-0.02433424,-0.021376343,0.011819118,0.040220458,0.033270605,-0.048135173,0.046370234,-0.054116167,0.033616956,-0.03528256,-0.04673661,0.028405864,0.03650577,-0.035721306,0.012995305,-0.049126662,-0.020643944,0.016071977,-0.027419545,-0.024602069,-0.019895757,-0.0016283419,0.048695173,0.03360096,-0.02963225,0.012507946,-0.019996332,0.014018842,-0.0034023016,-0.00083869335,-0.01608934,0.014935663,-0.018216351,-0.042677913,-0.002960308,0.023086865,-0.05271507,-0.03863488,-0.018561242,0.043560777,-0.006335063,-0.014418159,-0.016326245,0.047187425,-0.042354897,0.0024886467,-0.062086713,-0.031837843,0.011327692,0.018014722,-0.00883439,0.0130084865,-0.016505558,0.03779629,-0.014316488,-0.022208434,0.022281654,-0.018302357,0.030778917,0.014083331,-0.003104031,-0.040199813,0.047060166,0.013346568,0.03370739,-0.053218365,0.013366138,-0.041791476,-0.023848003,-0.029339688,0.04656665,-0.018572377,-0.008297412,-0.042321533,0.020694034,-0.056538623,-0.04992461,-0.0048604934,0.039551493,-0.001186807,0.03676724,0.024493687,0.0517463,0.030952387,-0.032610044,0.0076755947,-0.027569724,-0.039905313,-0.015560403,-0.052901264,0.022628203,-0.005746171,-0.02713871,-0.04129244,0.036300343,0.02759056,0.026275016,-0.031200059,-0.0027701587,0.039123733,0.019699933,-0.03803563,0.007224868,-0.039912865,0.06140113,-0.04545317,0.0047260746,-0.031992957,-0.03664077,-0.054061066,-0.018936,0.01554336,0.0009263556,0.009914156,-0.007364175,-0.053280875,-0.0017492933,0.017966723,0.043627843,-0.057286225,-0.03454603,0.012670563,0.033424888,-0.022315705,0.001607798,-0.022860983,0.019222442,0.025967952,0.02645195,-0.027111486,0.019571306,-0.0032037522,-0.02748035,-0.045502443,-0.047660206,0.015240892,0.0155778425,0.021357333,-0.0281737,0.029487181,-0.029000418,0.030740751,0.028610123,-0.044749763,0.020954376,0.0003181498,-0.023821099,0.012063041,-0.048924588,-0.021051561,0.05208386,0.0017190819,-0.03158078,-0.033638764,-0.04051948,-0.038093902,0.0113216285,0.022831002,-0.012182554,0.04065534,0.014000009,-0.014020041,-0.047079366,0.035887953,-0.016068524,-0.051544763,0.009823054,-0.012342755,-0.035011664,0.00052458706,-0.026114069,0.0027093359,0.054487273,0.030476343,-0.038993213,0.048559066,-0.013793932,0.011409212,-0.0010179401,-0.0009467043,-0.015541475,0.058028575,0.03540826,0.02131458,0.005245016,-0.0023592433,0.0056897607,-0.012890122,0.002559036,-0.04375371,0.058720548,-0.04875337,-0.005724199,0.02215686,-0.007321728,0.06272595,-0.02704036,-0.031698473,-0.05566762,-0.012023951,-0.03785389,-0.010040256,0.016569119,-0.039035235,0.0043854164,-0.03582886,0.042798217,0.002634096,0.024466574,0.033239484,0.026174318,0.034527734,-0.018125815,0.039422855,0.010746739,-0.0093635665,0.05578734,-0.039293464,-0.0074152895,-0.0495093,-0.00481058,-0.04664337,0.03638573,-0.029684115,0.024007436,0.04011768,0.005670681,0.036729906,-0.047562003,0.025230527,0.023811985,-0.049027074,0.05584786,0.04471338,-0.03430563,0.0028663087,-0.056697708,0.030497655,-0.05927798,-0.0251613,-0.015553019,-0.04659257,-0.014288091,-0.016654234,-0.02859605,-0.045226067,-0.009324989,-0.013824968,0.037299138,-0.04205378,-0.014756264,0.016680175,0.022695374,-0.04674496,-0.028314812,0.041690443,-0.0048430706,-0.047679465,0.012646272,0.059652694,-0.010629588,-0.046880867,-0.0072585912,0.045529783,0.014930302,-0.053234614,-0.030345682,0.030900272,-0.014733332,0.0012449566,-0.018198736,0.008185305,0.018033233,0.003876511,-0.0054060975,-0.007282117,-0.04541201,-0.013320065,0.04122234,-0.024055768,0.042252455,-0.040152032,0.026717829,-0.06264515,0.00010689237,0.013728673,-0.02086019,-0.016984941,0.016655393,-0.03706292,-0.0011230152,-0.023787038,-0.029717596,-0.05091745,0.021453332,0.038100522,-0.01715861,0.031519342,-0.02483061,-0.030664138,-0.0094345305,-0.04853748,-0.0036235645,0.017161343,-0.048461195,-0.008709125,-0.017793756,0.038416307,0.038473584,-0.038692765,-0.0054552285,0.03726113,0.04305446,0.044134706,-0.02410597,-0.04573186,-0.018220635,-0.04326669,0.0014187524,-0.073085174,0.010250754,-0.047206406,-0.0154358735,-0.037990626,-0.026650036,0.030129788,-0.031605415,-0.026656592,0.018623812,0.016714226,0.038575582,-0.010035992,-0.044883694,-0.026887253,0.008911025,0.021687986,0.0048493226,0.028006956,0.004222576,0.0073908605,-0.028917912,-0.0024967855,0.043562677,0.024081126,-0.040613044,0.011265924,0.022943264,-0.03531782,-0.013557711,-0.033811353,0.005681887,-0.00804224,0.020505425,0.0010276474,0.033163186,0.027066778,0.025864575,-0.013104568,-0.0070702257,-0.01406496,-0.010255607,0.047735732,-0.041279916,-0.014087831,0.052683517,-0.018833581,-0.030219799,0.04813266,0.014462624,0.01638885,-0.022369163,-0.014889501,-0.058465764,0.024988005,0.030911095,0.059162855,-0.0044968287,-0.014956393,-0.0017711695,0.024014479,-0.024593707,0.020701312,0.0061333166,-0.00702194,0.005568093,-0.037192613,-0.05145687,0.036513347,0.02953729,-0.040899895,-0.018969607,-0.049162626,0.01825802,0.029212905,-0.026182119,0.024799151,0.034503784,0.0015912801,-0.03360666,0.0031430942,-0.01812049,0.015354235,0.049753647,-0.050794072,0.03842973,-0.020336404,0.030882994,0.032319423,0.016286757,-0.0044857897,-0.04093863,0.010564254,0.0023380497,-0.000890104,-0.0372899,-0.033080135,-0.033355728,-0.024297394,-0.04502662,-0.00038115308,-0.005216682,0.04341274,-0.023645516,0.03111039,0.02447586,0.0453071,-0.016904013,0.00971061,0.045567438,-0.03072588,-0.033385586,0.006882564,-0.015955217,0.028029824,-0.021421593,0.012836421,0.008345508,-0.033945695,-0.0307902,-0.0012818871,0.038385235,0.014305987,0.06750743,-0.0359872,0.007250016,0.013045033,0.055799976,-0.061619017,0.09624833,0.036735598,-0.020574057,0.00851454,-0.008682441,0.037583165,0.022067504,0.034596447,-0.08818562,0.0124944225,-0.00668157,-0.054301076,-0.046507478,0.0125199845,0.034101207,-0.02594592,-0.033879332,0.026745364,-0.036971036,-0.0060773785,-0.027188135,-0.026955552,0.035438724,-0.0060709547,0.010411745,0.006138794,-0.031051151,0.03286017,0.016662365,0.019357506,0.031167502,0.014238798,0.013124912,0.01229183,-0.024821285,0.017544013,-0.029641444,0.023469154,0.016392738,-0.0467847,0.055351168,0.03437665,-0.04663439,-0.014685749,0.060798053,-0.04276818,0.0049205674,-0.044506863,-0.056775652,-0.057331357,0.0030069053,-0.0037341372,0.012306624,0.033836823,-0.0053535597,0.027236786,-0.020638473,0.0114991395,0.035615552,0.041664757,0.046845708,0.008377874,-0.01339669,-0.008032999,-0.032844685,-0.048728045,-0.03432166,0.05436051,-0.013175759,-0.045608874,-0.036688235,0.0074384743,-0.055496033,-0.0404876,-0.024579596,0.043213215,0.025292464,0.030014321,-0.010101988,-0.06893255,-0.029090436,-0.037002627,0.019254092,-0.04952833,0.03209957,-0.027226621,0.08215858,-0.034971103,0.006743321,-0.0050491747,0.013148197,0.032475766,-0.027591411,-0.0136505505,0.054857746,0.016291661,0.01935765,0.047829915,0.014651123,-0.019538147,-0.05525722,-0.0032921333,-0.0037775016,0.01375578,-0.017328082,-0.05923286,-0.0075008865,0.019222397,-0.0025637136,0.009338412,0.03678123,-0.01749302,-0.044780947,-0.007494082,-0.03367655,0.040481176,-0.011703059,-0.030595526,-0.0023055775,0.008308273,-0.024366505,-0.00532156,0.050058722,-0.028906254,0.04270646,-0.0006084873,0.04383988,0.03311888,-0.023366457,-0.05067641,0.010275264,0.013024231,-0.013794039,-0.0063971654,0.041611623,-0.03774192,-0.0047840024,0.02600706,0.011268497,0.019481225,0.023038551,-0.008883243,0.012286253,0.01837973,-9.6108386e-05,-0.041957147,-0.0018908769,-0.028015828,0.034023244,-0.0012692821,-0.039455008,0.010902788,0.017226674,0.042672094,-0.005143126,0.014153159,0.040994477,0.0073015336,0.01128866,-0.045867663,0.024105357,-0.024861785,-0.009902656,0.021203924,-0.05190569,-0.036700487,-0.0057790135,0.030811772,0.00075841724,-0.01045394,-0.020448945,-0.030536538,-0.040474556,0.031489562,-0.019507969,0.005759111,0.012737067,0.022649873,0.03622964,-0.052265428,-0.042318188,0.028812306,0.030572763,-0.031269193,-0.0058378763,0.037122082,-0.04356872,0.006148347,-0.03549112,0.048399284,-0.05199138,-0.05514488,-0.018269485,-0.045346003,0.006694012,0.07168784,0.04640186,0.029486101,0.026213521,-0.046135563,0.0030758195,-0.024384791,-0.00186261,-0.0071704052,-0.0066802315,-0.004428613,0.014303109,-0.07347775,0.0018781367,-0.036271155,0.048963074,-0.025673542,0.03766406,0.03994188,-0.019981826,-0.023013692,0.03579794,-0.048643317,-0.02809626,-0.051211398,-0.039855585,0.016074136,-0.002235235,0.037093703,0.0041433573,-0.019799292,0.011433675,0.012785014,-0.029920578,0.020274563,0.04156453,-0.04061626,-0.059799965,-0.027343607,-0.0018684239,0.012079762,0.021329015,0.033865284,0.024503715,0.041503895,0.010241278,0.030217834,-0.03901756,0.011033736,-0.0018749587,-0.018902646,-0.019066831,0.059115496,-0.017175252,0.0032664794,0.00056097005,0.02399681,0.008607484,-0.058938894,-0.003245635,-0.036110453,0.029430525,0.008896351,-0.0042262594,-0.0036626938,0.014467925,0.037860263,0.020240527,0.023367314,-0.032449763,-0.04048994,0.03876116,-0.022021005,0.01936112,-0.0030523369,-0.038698763,0.0040566674,-0.037008394,-0.008909115,-0.037189268,-0.035927832,-0.025706481,-0.019536724,-0.012035085,0.0011477085,0.014021396,0.017927088,0.014866183,-0.03322333,0.0253204,-0.031670302,-0.018413058,0.034689784,-0.03179945,-0.04210382,-0.00053254847,0.015910286,0.00892565,-0.0150085,-0.042974453,-0.020492211,-0.01396966,-0.010201306,0.009538346,0.038176335,0.02285034,-0.02470963,0.021350177,-0.015111376,-0.03119517,0.022763701,0.009925783,0.031879168,-0.031174023,0.020840645,0.01423274,0.014548171,0.005226169,-0.031890374,0.033352986,0.03103423,0.011862811,-0.038643114,-0.025180345,-0.022159936,0.07784267,-0.009585097,-0.027974,-0.029038211,0.038225457,-0.052064832,-0.013879254,-0.038247477,-0.08287088,-0.02485004,-0.0050229114,-5.6420657e-05,-0.048485585,0.040051237,-0.013400584,-0.0765247,-0.009956,0.007970957,-0.005444168,-0.05426555,0.034184955,-0.023653792,-0.026092744,-0.02455562,0.02393132,-0.043624185,-0.021543661,0.01210646,0.0063702995,-0.019880937,-0.02257659,-0.008884076,0.030479886,0.009958057,0.03026007,-0.006262485,-0.047235023,-0.022099907,0.0073713255,-0.011663318,0.039317835,-0.05118244,-0.045392152,-0.036489863,0.026947446,0.0034149361,-0.011164837,-0.047701564,0.02586372,-0.02702138,-0.018472033,0.024767634,-0.009547206,-0.00898195,0.00797638,-0.04136562,0.039108712,-0.022651155,-0.0019193278,0.07258961,-0.051801886,0.015857708,0.03851954,-0.0065531856,0.013082041,0.038759872,-0.011535306,0.010574011,0.00434024,0.031140652,-0.039720025,-0.03467569,0.016887302,-0.019017043,-0.044793643,-0.041566987,0.034671087,-0.042281654,0.03086853,-0.03135933,-0.041788407,-0.015495288,-0.003781734,-0.011173776,-0.020908643,0.02796442,-0.010107381,-0.035822846,0.022372948,-0.024043012,0.027042573,-0.026286874,0.036380596,0.022443593,0.034055643,-0.031711537,-0.041762598,-0.049440492,0.040214233,0.031918462,0.008084496,-0.008623919,-0.04529622,-0.0158053,0.019862145,-0.052469444,-0.04392138,-0.015435404,0.004620856,0.043399267,0.005152906,-0.04863925,-0.005606388,-0.013123323,0.034305114,0.03532607,-0.03202434,-0.03803271,0.0060454486,0.0015222116,-0.02174312,0.03406588,0.038529344,0.0321321,0.042346865,-0.06898122,0.06476168,0.008743666,0.053162046,-0.0062796567,-0.03770931,-0.01996217,0.0051515903,0.021420287,0.016583381,0.043946147,-0.061109204,0.038950775,-0.030256035,-0.034114137,-0.012754507,-0.022863956,-0.033910155,0.03727579,0.03338591,-0.010286743,-0.034817155,-0.023599077,-0.04443806,0.004401489,-0.023033973,-0.04566017,-0.0008812289,0.019724121,0.019778768,-0.04974349,-0.02060026,-0.03355432,0.010811981,0.031599935,0.01589137,0.031315472,0.025821995,0.012049183,-0.019075552,-0.019551255,0.01379861,0.014500532,-0.028594075,0.022933826,-0.04492269,-0.017610623,-0.008480494,0.002649475,0.0065129567,0.017499262,-0.024350084,0.017974861,0.013918196,-0.03228414,-0.013764224,-0.044207513,-0.006769249,0.07108931,0.042501286,-0.005097856,0.007353556,0.058585804,-0.026705794,0.01915703,-0.014593696,0.010615966,0.0050910707,-2.9279134e-05,-0.050180197,-0.014413396,-0.034937505,0.017084729,-0.019760417,-0.028404508,0.014361188,-0.039611977,0.011981698,-0.048076566,-0.013225641,-0.013321884,-0.038058892,-0.0053725434,-0.0046350956,0.018152235,0.02832994,-0.0013923049,0.037260372,-0.027142493,0.015791478,0.0066294363,0.012595001,-0.021102855,-0.04352459,-0.042303488,-0.029143699,-0.0072058914,0.021881048,-0.020419901,0.031608716,0.032882717,-0.0057070367,0.03951865,0.029778915,0.05027223,-0.0061649475,0.028727908,0.0331024,0.032608792,-0.02625254,-0.009930377,-0.025023341,-0.013205152,0.040611997,0.018501926,-0.036962096,-0.019093003,0.030781336,-0.013814628,0.017680185,0.0048938077,-0.026785098,0.04527612,-0.032720767,0.020905523,0.01075456,-0.0054057557,0.026191462,-0.06260043,-0.0052387845,-0.050479177,0.017256109,-0.02473669,0.04860025,0.048038874,0.04222778,-0.0061529316,0.0149523355,-0.006748359,-0.033833127,0.041834496,0.028862724,0.015613475,-0.020283297,-0.009722487,0.03268769,-0.010189247,0.04556198,-0.038646996,-8.663151e-05,0.04130468,0.024145145,-0.04020213,-0.03569905,0.002230249,-0.036477383,-0.0038835225,0.034311105,-0.054317057,0.041580148,-0.01099246,0.013484302,0.0433718,-0.04673372,-0.036881793,-0.0023553718,0.029741514,0.0342653,0.03690745,-0.00782966,0.040809,-0.0071533774,-0.003933619,0.009518698,-0.030598247,-0.005011151,-0.026856393,0.016848914,-0.05127334,-0.02426631,-0.012707665,-0.016567994,-0.012307282,0.009646787,0.004813781,-0.041935742,0.054974135,-0.06095471,-0.018817477,0.043356642,-0.01964988,-0.032151222,-0.007695044,0.05259817,0.012242601,0.01936689,-0.0034589642,0.00965139,-0.028907385,0.013685299,-0.0024242506,-0.0057570897,-0.043543275,-0.0073334053,0.034021527,-0.033278916,-0.010985088,-0.022620754,0.044932675,-0.028791817,-0.015216627,0.01505612,0.043781366,-0.04511346,-0.002392996,-0.016898725,-0.017658127,-0.060223248,-0.05326983,-0.017042518,-0.012528653,-0.042652488,-0.023008047,0.010254603,-0.038465843,0.059677515,0.016223522,-0.044911575,0.018039454,-0.022336103,0.034238588,-0.046457127,0.03296381,0.017933423,-0.03562086,-0.008926664,-0.016068194,-0.0015244539,-0.023960987,-0.01844833,-0.004914589,0.02532888,0.0072609633,-0.04129158,-0.0031017899,-0.027742142,-0.026953392,-0.007507409,0.045517493,0.03728313,-0.001576814,0.0015885378,0.017456625,-0.015635874,-0.033505935,-0.034518868,0.029360618,0.00024604204,-0.0057765804,0.021076838,-0.04967152,0.04167225,0.048596945,0.0043095793,-0.017366268,-0.025280831,0.0011915996,-0.0056188013,-0.014110812,0.06982637,0.020039465,0.04871198,0.03520258,