0.21799503,-0.28555804,-0.06862011,0.14520735,0.015975019,0.17135157,-0.23043334,-0.080732375,0.3642157,0.1926664,-0.29988846,-0.070802,-0.12129597,-0.026180927,0.21579635,-0.19544609,0.012733171,0.052328832,-0.30803356,0.20451605,0.0568432,-0.29295897,0.16916302,0.13902864,0.09350988,-0.19952776,-0.26836503,0.05192599,-0.1911472,0.24703833,-0.122739285,-0.066188104,-0.033849802,0.16179985,-0.2790831,-0.046670664,-0.30739093,0.076184526,0.27476168,0.24113253,-0.18887942,-0.031950545,0.030083273,0.15304369,-0.2643802,-0.2208584,-0.26917592,-0.0266225,-1.0332355,0.25020948,-0.3967934,-0.114945866,-0.6589153,0.830538,-0.04737221,0.018138824,0.7742884,0.48754418,-1.0345616,0.31711668,-1.5681565,-0.83221436,-0.8231082,0.5563091,0.71472454,0.6718348,0.015548818,-1.0961652,0.28376517,-0.059899084,0.7868557,-1.0463891,-0.105952255,-1.2208179,-0.8194514,0.07399205,1.401003,-0.21826966,0.44749132,0.7481327,1.130253,-0.28463385,-0.095267475,-0.23266003,0.48790875,0.54133135,0.29011354,-0.4361775,-0.16297515,-0.21904807,-0.22457384,-0.08473091,0.2422731,-0.35543507,0.9655351,0.10708716,-0.02094077,0.086045265,-0.2355052,-0.019051686,-0.07809262,-0.08966333,-0.1585934,0.28606668,0.11535588,0.21709128,-0.058311094,-0.23729375,-0.099334665,-0.16896798,0.17390153,0.20997968,-0.2982642,-0.094465196,0.06727623,-0.12114636,0.118536,0.087536044,-0.15353933,-0.07495514,0.3538421,0.28143513,0.05592554,0.12338181,-0.17224082,-0.025372423,-0.058944177,-0.16972557,-0.32591134,0.0062048603,-0.06957259,0.29216662,-0.06752059,-0.15198928,0.11895894,-0.14862323,0.07564343,0.1388635,-0.1938192,-0.118644744,0.034009144,0.14961302,-0.11611741,0.005807355,-0.20173107,-0.21182707,-0.28632295,0.05533522,-0.09393592,0.12088429,0.20650369,-0.0033862866,0.059142776,0.07099181,0.10284833,0.049184453,-0.24887778,0.06600275,-0.29985446,-0.10363409,-1.2683904,0.36010712,-0.8251366,-0.1833824,-0.5004578,1.2262774,0.25276577,-0.04071196,1.0564289,0.2122489,-0.8932581,0.3783327,-1.3473667,-0.67640704,-0.93961155,0.24818854,0.92054844,0.7854946,0.01737535,-0.9830068,0.34456322,0.2585336,0.6718976,-0.82344717,-0.5412147,-1.144545,-1.021034,0.11290627,1.2951554,-0.2010455,0.4294597,0.88905084,1.1491,-0.3484522,0.1725683,-0.43978968,0.86296463,0.33314124,0.17835774,-0.35644525,-0.4437721,-0.19094257,-0.24981095,-0.13491063,0.0151374,-0.4931899,0.5820905,0.024901971,-0.021316761,0.079995885,-0.058051866,0.14925724,0.23593375,0.0841234,0.20543985,-0.017002843,-0.051587798,0.2763328,-0.096989,-0.261506,-0.19254288,-0.14673254,0.119971395,0.30798203,0.28296417,0.1870693,-0.17787766,-0.23412655,-0.10539407,0.1519621,-0.31305918,-0.15047857,0.235266,-0.02417127,-0.23569304,0.13983543,-0.4270402,0.087811135,-0.10653969,-0.123896874,-0.34485683,-0.012465386,-0.100265,0.054503046,0.24542114,0.5377251,0.20212255,-0.15797074,0.26749015,-0.19355047,0.026892927,-0.30368152,-0.04350166,0.24897033,0.18983802,-0.04223481,0.14166375,-0.32028225,0.008240857,0.24185307,-0.1621948,-0.037147965,0.11499717,0.23229639,-0.10771323,-0.081772715,0.32845765,0.12725979,0.09635016,-0.21401602,0.011916221,-0.060807813,-1.0578625,0.5128218,-0.62629855,-0.1578981,-0.5391852,0.79242074,0.40715948,-0.022200204,0.96036106,0.15579604,-1.040163,0.2580722,-1.295369,-0.9912243,-0.9115381,0.38714862,0.70421886,0.9240526,0.26279888,-1.1761853,0.40691888,0.07045188,0.63200164,-0.9306172,-0.3085913,-0.74752027,-0.9809349,-0.28869137,1.1488391,-0.05247344,0.7815998,0.8645266,0.8990634,0.04255486,0.26366946,-0.019115493,0.63623446,0.6736784,0.0028896134,-0.33699936,-0.49490026,-0.051590625,-0.41587287,-0.13239284,-0.22608988,-0.76297235,0.55957735,0.0063514486,0.013328428,-0.038200635,-0.25464198,0.11342723,-0.20697853,-0.113522746,0.21281704,0.28089282,-0.057381272,0.20469785,-0.14172828,-0.028309384,-0.1173633,0.19406258,0.21134555,0.24979486,0.1178738,0.21642542,0.23210013,0.18482915,-0.025333151,0.17971411,-0.5523402,-0.2624486,0.32417688,-0.05414881,-0.04419287,0.036916863,-0.3317811,-0.07092068,0.07763037,-0.027290972,0.29496863,-0.076566264,-0.19492678,0.37352985,0.33293816,0.47504732,0.15843935,0.12456401,0.28375915,-0.25843057,-0.0966388,-0.29362088,-0.004812594,0.23035266,0.14786486,0.04262612,0.14143974,-0.4133791,-0.12240466,0.17291753,-0.35715437,0.17382985,0.25964496,0.31752583,-0.076936506,-0.06808348,0.30297437,0.14129376,0.19023466,-0.26586834,-0.36103886,0.12802081,-1.3011919,0.88035613,-0.579321,0.033631478,-0.46832323,1.0682293,0.23986559,-0.52541023,1.2651554,0.038887385,-1.1349581,0.009512053,-1.3518599,-0.5101144,-1.0463716,0.21776779,0.8870996,0.7559508,0.056766864,-1.0634773,0.017879188,-0.061833825,0.30910635,-1.1840355,-0.30188778,-1.1259359,-1.2163355,-0.24916586,1.2380975,-0.16869195,0.7428777,0.9114392,1.0999442,-0.18393122,0.14558205,-0.23050542,0.9345582,1.1111083,0.16686322,-0.26359105,-0.6338944,0.12582755,-0.17859691,-0.13920878,-0.044873323,-0.74895215,0.6156638,-0.038114194,-0.13239451,0.04381216,0.17916983,0.038941093,0.08710912,-0.12311815,-0.083608806,0.013318313,-0.14531285,-0.013657519,0.07249037,-0.1716946,0.1323197,0.21329711,0.04453277,0.3296008,-0.3425483,0.15688367,0.17731588,-0.086707585,-0.039446387,-0.23562215,-0.42816737,-0.28302512,0.16912131,0.3149601,-0.074526496,-0.1515017,-0.047886185,0.16972274,-0.25731644,-0.23353034,0.42034674,0.11497163,-0.29887697,0.050795674,-0.01458881,-0.114255264,0.2311657,-0.098670624,-0.03761197,-0.051481854,-0.022161214,-0.040909573,-0.08860224,0.39460194,-0.14624129,-0.04509359,-0.037201658,-0.20877406,0.1461203,-0.09147318,-0.4791014,0.110129,0.1962634,0.08798265,-0.22656575,0.04030892,-5.1339903e-05,0.1296605,-0.19959016,-0.11497985,-0.3498248,-0.08256655,-1.150127,0.5714016,-0.5223268,0.3134611,-0.5535395,1.0397278,0.34819132,-0.24038646,1.6109624,0.027686352,-1.0698329,0.15833981,-1.4454216,-0.56707394,-0.77436626,0.53686863,0.8183753,0.7130191,0.23994966,-1.2521085,0.04654875,0.053098496,0.47950718,-0.8773972,-0.5312806,-0.9657302,-1.1042064,-0.42723727,1.333912,-0.16925223,0.61446875,0.8920982,0.87409335,-0.35142767,-0.0075226068,-0.07013058,0.8470081,0.95516914,0.014090758,-0.3295805,-0.61325365,0.106060915,-0.27601528,0.27917472,-0.071693756,-0.7531353,0.4930682,0.27407673,-0.08544683,-0.052870557,-0.14064232,-0.16053873,-0.09699891,0.1477935,-0.21323346,0.118746586,-0.0045706565,0.25732014,0.19243576,-0.13047309,0.21898195,-0.00932538,-0.16671185,0.23947029