0.17126238,0.15996182,0.12517078,-0.003043224,-0.12595282,0.1739011,0.11753636,-0.2411086,0.011593233,-0.25132188,0.26601306,-0.2393492,0.21217753,-0.020448437,-0.011265812,-0.08574865,-0.18140948,0.09512624,-0.085230865,0.25895765,-0.13021044,0.062055077,0.10697625,-0.18639465,0.06456479,-0.27940834,0.09857578,-0.22008297,-0.14297694,0.04249818,-0.44597962,-0.56378263,-0.4906662,-0.53750205,0.053884283,0.06111403,0.08580726,-0.00038349954,-0.26380533,-0.628134,-0.2297112,0.19400413,0.17993672,-0.016665887,-0.10966297,-0.37673897,-0.45996597,-0.2919287,-0.094616696,0.20371492,0.04304389,0.12646814,-0.4240036,0.12380858,0.09948053,-0.40415603,-0.24801159,-0.4005441,-0.32746595,-0.10844967,0.1056885,-0.41672117,-0.17804807,-0.31387392,-0.17449403,0.26160374,0.3158917,-0.2482944,-0.04348719,0.3209654,0.31411898,-0.353149,-0.35259947,-0.02707594,0.03014975,0.28565404,-0.26961973,0.21433677,-0.114388175,-0.10504748,0.21914181,0.1988798,0.017296027,0.26662922,0.16326338,-0.4202749,0.245216,0.23599136,0.052781448,-0.45645002,-0.24918044,0.3147354,0.28583154,-0.20322074,-0.22056337,-0.43593642,-0.1962545,0.21095203,-0.077644624,0.27766886,0.27553698,-0.12911394,-0.36867803,0.27977994,-0.078483775,-0.09876719,0.24064624,0.22786629,-0.03219641,-0.3975984,-0.26448992,-0.51073503,0.23971593,-0.4886457,0.13841504,0.17430553,-0.3899047,0.27103814,0.27479038,0.23367932,0.1664193,-0.19814517,-0.03009394,0.17360963,0.060161028,-0.2689035,0.0818556,0.06430686,0.14341886,-0.039243333,-0.24981475,-0.21500868,0.24562183,-0.45927563,0.10970776,-0.47693998,-0.34525394,-0.31992975,0.18031192,0.19899859,-0.1119243,-0.39756727,-0.23013128,-0.14825068,0.34467366,0.3556514,-0.00558429,0.085984014,-0.3069805,-0.16948012,-0.30816254,0.13675778,0.30362302,-0.37252745,0.08456565,0.21858837,-0.4370948,-0.20388065,0.121146865,-0.16510917,0.16642453,-0.2959302,-0.53552204,-0.34570977,-0.13708234,0.1753367,0.22199817,-0.04857468,-0.5113994,-0.4321698,0.14666507,0.08209455,0.11878353,0.1796413,-0.35888958,-0.40974888,-0.387199,0.061345216,-0.01771361,-0.23891877,-0.25705868,-0.54974246,0.003514187,0.16061608,-0.34722233,-0.26184744,0.1386045,-0.14174294,0.25995877,-0.4391183,0.2390936,-0.27986526,0.23889662,-0.17640196,-0.12504664,-0.2585538,-0.056196645,-0.25172898,-0.16932228,-0.05432299,0.14303681,0.16356272,-0.24243611,0.029965833,-0.3307892,-0.65276086,-0.4898818,0.2153275,0.21524513,0.12740552,-0.15489736,-0.4969842,-0.111101136,0.25887328,-0.17538315,0.2228449,0.31080708,-0.36671925,0.0752899,0.20282535,-0.1787898,-0.25072056,0.2552606,0.082367346,0.092395395,0.11679251,0.08280484,-0.5741348,-0.33566728,-0.4409975,-0.58483726,0.13769083,-0.6734703,-0.17046443,0.20844997,-0.45579004,0.17475468,-0.013616052,0.09026557,-0.106465675,0.16164099,-0.35920236,-0.4524131,0.13382173,-0.4878952,-0.16076599,0.17210071,-0.5654229,-0.29480928,0.14702228,-0.31684825,0.19424017,0.215922,0.30563357,0.22776365,-0.4087018,-0.24027954,-0.3253666,-0.3568236,-0.14833817,-0.28005138,0.21191378,-0.37102222,-0.5512168,0.17186704,-0.32907146,-0.3816696,0.24430376,0.26815492,-0.1850157,-0.11036543,0.26862714,0.34722888,-0.12843372,-0.29328966,-0.4583131,-0.21390994,-0.12651955,-0.2517415,-0.02067011,0.28243238,-0.17150176,0.3898254,-0.253713,-0.53069127,-0.24316964,-0.21427132,0.35814518,-0.32864416,-0.23666677,-0.25554076,-0.3442181,0.27485022,-0.16546388,-0.19954337,-0.32620642,-0.43276715,0.28272784,0.24749151,0.26704013,0.16800652,-0.6784184,-0.46319613,-0.18474682,0.21611108,0.19701514,0.20213911,-0.06557302,0.09804842,0.050255675,-0.13564551,-0.21505879,-0.2549934,0.3807105,-0.204496,0.3845727,-0.36997023,-0.27080405,-0.31639153,-0.34479815,-0.23488843,0.17253883,-0.38267934,0.23288584,-0.021036442,-0.44617727,-0.13247669,0.27401707,-0.4200527,-0.3633571,-0.40722045,-0.27386838,-0.1849854,0.12104851,0.3110481,-0.49253875,0.08930796,0.25959617,-0.28197458,-0.16899009,-0.22232653,0.22800028,0.27748412,-0.46225104,-0.46628946,-0.4160341,-0.29380435,0.20116195,0.217409,-0.24573268,0.094491206,-0.24841596,-0.40860444,-0.20080666,0.25464132,0.26050657,0.26219648,0.19515952,-0.095728524,-0.1319366,-0.21671753,0.043876015,-0.043659154,-0.22685549,-0.03703743,0.19578946,-0.022466699,0.21915524,0.08144491,-0.053915806,0.25321954,-0.36564162,-0.3089501,0.02597667,0.28643116,0.21024658,-0.38723987,-0.35747102,-0.5152074,-0.3543149,0.20420544,0.3526228,-0.14411491,-0.46614376,0.19228956,0.25524756,-0.2619567,0.17325191,-0.10535927,-0.39278552,0.22249573,-0.51857656,-0.4395269,-0.21475665,-0.21759604,0.15037403,0.16676842,0.21145362,0.21277827,-0.41697398,-0.24688923,-0.34704465,-0.05986116,-0.23129286,0.08179551,-0.2533887,0.41774756,-0.025424201,-0.24540699,-0.24352543,-0.19511771,-0.0090244245,-0.2623605,-0.06770249,-0.15347289,-0.039982166,-0.001958038,-0.065748684,-0.21842211,-0.18074174,0.22170432,-0.4034247,-0.4516634,0.2520671,-0.11890305,0.1571977,-0.047733307,-0.40592194,0.11715845,-0.3929312,-0.61965495,-0.3692008,-0.39420772,-0.19619985,-0.57626265,-0.040386967,0.09270471,0.21879661,0.1863135,0.27858844,0.24391347,0.18071964,-0.1378584,0.26240537,-0.44308284,-0.4228443,-0.39803624,0.22973314,0.23881334,-0.08008406,-0.24811193,-0.2641446,0.21242042,-0.0137911895,-0.26884404,0.2532215,0.26627046,-0.26246157,0.14063504,0.27948204,0.27764916,-0.285584,0.18911159,-0.103437506,0.14753513,0.22766776,-0.26051533,0.24241464,-0.27397475,-0.36220816,-0.20348631,-0.26395324,-0.42946795,-0.1658169,0.39101654,0.2906179,-0.2470718,0.028072694,0.052464493,-0.27612478,-0.053053595,0.20082805,0.026982903,-0.11757467,-0.15328369,-0.06296411,0.2120366,-0.118937984,0.25801167,-0.023756407,-0.3718817,0.3048974,-0.21084374,-0.1538411,-0.28438547,-0.17599717,-0.28752297,-0.09377749,-0.247312,0.28061,0.05973282,0.18120338,0.2277231,0.21049929,-0.26515657,-0.26905462,-0.5229267,-0.4270845,0.21566589,0.2247273,-0.27609766,0.26374286,-0.26840585,-0.06596665,0.2645311,-0.21472143,-0.018019432,-0.11599556,-0.3328428,-0.38790014,0.093612455,0.314929,-0.26101264,0.20662223,0.043532386,0.107094936,-0.4431897,-0.56979114,-0.3057153,0.2583062,0.20401195,0.21299838,0.1464186,-0.2959407,-0.08848169,-0.46324626,-0.5381353,-0.4994191,0.09922256,0.1776964,0.24733433,-0.16024609,0.25356168,0.28000677,-0.3159143,0.250614,-0.250804,-0.44525728,0.17870486,-0.20986217,0.23996839,-0.29147547,0.23068595,-0.1472208,0.054894272,-0.17914358,-0.15839596,0.2070106,0.17353693,-0.27900976,-0.3777054,-0.18353856,0.15589257,0.27915433,-0.11149052,-0.42385623,-0.32300368,-0.32634,-0.22948934,0.1249222,0.13195454,-0.35169265,-0.23979785,0.2047331,0.26589477,-0.34443545,-0.2987209,0.008210847,0.3448166,0.08265011,0.1698106,-0.43319595,0.07634493,-0.16091461,0.17511144,0.16714442,0.15449731,0.19979493,0.20803472,-0.46879423,-0.16833791,-0.13215843,-0.05316254,-0.10389512,0.2204907,0.118593544,-0.19414224,-0.016806217,-0.14244957,0.08038185,-0.20539036,-0.45418602,-0.059318468,-0.1197563,-0.15831576,0.23778638,-0.12790316,-0.1797651,0.34064418,-0.58983237,0.022504395,-0.28270438,-0.2312859,-0.07034094,0.27677435,-0.19493246,0.3188088,0.31010702,-0.2980143,-0.4320226,0.17975357,0.11579287,-0.2102062,-0.4042488,-0.59184724,-0.45634538,0.06785692,-0.020467434,-0.2629528,0.29824322,0.28049332,-0.20875417,0.21882507,-0.22167115,-0.2562086,0.2606963,-0.19608726,-0.2646915,-0.4046306,0.24684024