0.30393565,0.043495603,0.2636646,-0.30261,0.17655967,0.03754757,0.18100584,-0.09975153,-0.32361814,0.23205186,-0.09195264,-0.24798629,0.04457999,-0.35341108,-0.36591423,-0.28158006,-0.028014302,0.14645831,-0.13965069,0.14201349,0.028300205,-0.433324,0.255908,-0.18846183,-0.44300872,0.3498169,0.08959538,0.20864211,-0.3010717,-0.15141806,-0.13684745,0.04732992,0.31621245,-0.31977576,-0.070576176,-0.20481187,0.100699395,-0.024515552,0.33661258,-0.12785855,0.07746742,0.11487977,0.2186612,-0.010866719,0.10931073,-0.14139666,-0.15181874,-0.5079528,0.12164628,0.057422753,-0.07172909,-0.117295876,0.029092506,-0.19818524,-0.22212636,0.086356595,0.36093274,0.15785326,0.0090203425,0.11443187,-0.14331712,0.14182106,0.009945377,-0.00018118345,0.13447057,-0.13472867,0.19374189,0.15285799,0.074245825,0.13436931,0.4099801,-0.014993036,0.01585821,0.1595304,0.111525156,-0.19099176,-0.13228945,0.036002073,-0.063664384,-0.104172006,0.23963632,-0.09783379,-0.35654747,0.0686814,0.004136787,-0.23678233,-0.24001756,-0.22962509,0.20009112,0.07420553,0.037933316,0.024082758,0.24032918,0.20540512,-0.4028411,0.25883964,0.07853077,0.20191678,-0.21990104,0.15887442,-0.024799602,-0.06296223,-0.19712655,-0.14186238,-0.030677054,-0.1137005,0.06262239,-0.044274285,0.04622856,0.24001756,-0.02697844,-0.27868497,0.13325976,-0.010891919,0.13246861,-0.12326521,-0.2249196,0.10049424,-0.024826515,0.099326976,0.11104569,0.10678298,-0.07589803,-0.016540537,0.09185406,-0.24326828,-0.066594146,-0.14961648,-0.1406,0.231146,-0.020259077,-0.18659714,-0.1606046,-0.16454099,0.21317619,0.30325738,-0.035498604,-0.17968573,0.0995492,-0.32781374,0.22990444,-0.05439448,-0.1969385,0.2863129,-0.20448449,0.2991098,0.087818794,0.13266031,-0.16455272,0.001492324,-0.008814641,-0.22191353,-0.18038283,-0.119881034,-0.0974228,0.23389034,0.022168575,0.024011536,0.23841846,-0.05531679,0.4238817,-0.36909768,0.08729435,-0.026923703,0.11716503,0.038847744,-0.4345373,-0.2446461,0.021566663,0.22854711,0.14204568,0.10222392,0.16296189,-0.2665185,0.09376061,-0.19402666,0.21656413,0.068199195,-0.34243044,0.048899785,0.4917174,-0.11189081,0.18749274,-0.10072032,-0.20502919,0.12704429,0.09830559,-0.4042441,0.13452458,0.30272633,-0.40229273,0.11475239,0.22628634,0.0032984447,-0.07552911,-0.065508425,-0.1979232,0.047665592,-0.20008941,0.04737842,0.108157314,0.007711932,0.09183826,0.19838402,0.009038613,0.31971276,0.15822206,0.27591166,0.12019283,0.13896336,-0.12403266,0.20353933,-0.08691239,-0.19263364,0.019885426,0.10387859,0.1682228,0.013009187,-0.046238977,0.026571952,0.350982,-0.08871313,-0.035726994,-0.20535684,-0.0052508954,-0.08133906,-0.3186802,-0.32195657,-0.26005226,0.12058901,0.21601166,-0.03130376,0.27229306,0.16679089,0.067352355,0.036486655,0.019995302,0.046120167,-0.042913526,0.099155515,0.24848342,0.16544946,-0.16212478,0.25444388,0.010135006,-0.24982555,0.053432595,0.23022556,-0.1258472,0.13594495,-0.18861538,0.1933915,-0.027680812,-0.13124055,-0.12856264,0.016875712,0.11544227,0.10054087,-0.07970285,-0.30369163,0.11475325,-0.07501172,-0.014446889,0.057184983,-0.02383029,0.052949395,0.12154956,-0.034519445,-0.09970789,-0.020875856,0.012284357,0.1516406,0.08486302,-0.15279761,-0.26743275,-0.28035748,0.020153943,-0.08789068,0.25363195,-0.02062748,-0.24920347,0.025736209,0.030616717,0.09215831,0.29016447,-0.23988217,-0.07527688,0.19387639,-0.14231536,-0.24898231,0.0149887735,0.18769918,-0.067949586,0.03076125,-0.5875899,-0.18566182,0.30064327,0.108841024,0.12741064,-0.061014857,0.02145897,0.16921856,0.07148288,-0.08114265,0.16393475,-0.016289072,-0.21787922,-0.51538545,0.06988664,-0.05966938,-0.15559934,0.004670495,-0.20754491,-0.23025343,0.04619708,0.19771723,-0.11900439,-0.16028868,0.06853174,0.11374213,0.4515805,0.29036483,0.24154052,-0.105552815,-0.066735305,-0.3537677,0.36214626,-0.062547594,-0.16802779,0.24212158,-0.1488005,-0.07088151,0.047981057,-0.2420339,0.17241012,-0.08347395,0.017448267,0.060677577,0.1191966,-0.02936138,0.32659906,0.017504701,0.22171801,0.08626527,-0.52659225,0.09273576,0.15172154,-0.57363737,0.20760924,0.08666629,-0.48202512,0.17157888,-0.018805007,-0.098278664,0.3767138,0.0339584,0.22072084,0.09754057,-0.17486241,0.048124958,0.06680903,-0.070027545,0.028438581,-0.1008551,-0.08510376,0.03168591,0.058197074,-0.12495968,-0.1283707,-0.038667224,0.11786204,-0.2838631,0.031434294,0.14265032,-0.23619936,-0.117285,-0.34163594,-0.31830195,0.07195851,-0.04485591,0.4400595,-0.063904576,-0.1310274,0.10827206,-0.11433728,0.34549746,0.1092108,0.17766266,-0.1951445,-0.2342837,-0.07874823,0.03281912,-0.021589365,-0.37838766,-0.2974879,-0.09856602,-0.13264678,0.03991862,0.13295197,0.26443022,-0.06769376,0.22383998,0.16882183,0.25493395,-0.09962507,-0.033990465,-0.0015289409,-0.061778877,0.00706636,-0.025937006,-0.16701593,-0.022619512,-0.06269189,0.2577264,0.18362622,-0.3187253,-0.19361688,0.06725555,-0.14465995,0.3191873,0.0014389721,0.11298661,-0.06414035,-0.22337854,-0.01450366,0.15502691,0.0061276094,0.012863312,-0.38511574,0.35228118,0.031297993,0.053558897,-0.030896166,0.1834922,-0.054650884,0.02357022,0.07803349,0.10606379,-0.2030571,-0.10794822,-0.12751107,0.15104966,0.08710909,0.025907442,-0.15125567,0.19287,-0.19683768,-0.34898207,0.50896555,-0.44369027,0.14257678,-0.041082393,0.24511732,0.0014664184,0.2847196,-0.115395375,-0.24853249,0.13491255,0.43133646,0.062483113,-0.117904395,-0.3177304,0.049100135,-0.34154162,0.07914794,-0.24513775,0.030959884,-0.04632306,0.36340228,-0.14394216,0.19907303,0.14604361,-0.22269,0.18793522,0.1369119,-0.12961909,-0.12667465,0.2146687,-0.43258217,0.04791124,0.0990482,0.10463665,-0.25313878,0.13524285,-0.27335283,-0.0020932748,-0.09008378,-0.08690472,0.11891028,-0.25575736,0.2676829,0.020435419,0.310831,-0.051793568,0.12522712,-0.18082924,0.13909385,-0.032829322,0.1733715,0.21494168,0.01292332,-0.14162587,-0.058993902,0.12821929,0.12603901,0.086080074,-0.16606009,-0.17278697,0.11547539,-0.32597354,0.14919987,0.21619748,0.31787586,0.04117059,0.08914113,-0.3410085,0.08354299,-0.0064836834,0.03508266,-0.029453453,-0.19229315,0.19123267,-0.14196256,-0.21211073,-0.021568935,-0.25145683,-0.38598025,-0.10540862,0.07775669,0.1765796,-0.0886181,0.108324,-0.024038082,-0.505597,0.15865374,-0.17088307,-0.30498537,0.09324083,0.082833864,-0.00462724,-0.04974354,-0.04569533,-0.014734211,-0.07568013,0.269589,-0.17313197,-0.029815618,0.09900131,0.21853681,0.19607021,0.22803643,-0.115286686,0.20216763,0.17443186,0.1355862,-0.1288637,0.15652472,0.035375807,-0.16319472,-0.20078959,0.052813586,-0.009639017,0.08708666,-0.12461416,0.0665144,-0.14814761,-0.07058808,-0.17087278,0.30116907,0.10560847,0.11578429,0.12460851,-0.22790784,0.02928828,-0.005300384,0.031339537,0.18123688,0.071859755,0.21365327,0.10135721,-0.023992686,0.28218603,0.042524673,-0.01764547,0.20472217,0.13609537,0.059967455,0.042066585,-0.20891833,-0.030826652,-0.11590622,0.018997572,0.103126734,-0.16710772,-0.271331,-0.28215346,-0.12387774,-0.067343324,-0.15553148,-0.18202336,0.18884288,-0.07982646,0.012853895,0.23593792,0.40993991,0.053899027,-0.3506409,0.18000457,-0.19427492,0.015302454,-0.10840127,0.08610917,0.03502218,-0.12334268,-0.2117559,-0.14524408,-0.13077763,0.06415028,-0.23493156,0.10797051,-0.106459305,0.27146232,0.06789303,-0.19463243,-0.14082216,0.052030142,0.1614214,-0.14174274,-0.23346218,-0.10438639,-0.11597418,0.1818338,0.047303066,0.20403196,0.03920058,0.16139056,0.09624926,-0.10683638,0.045513317,-0.014990108,-0.17570339,0.3565761,-0.07308546,-0.24358805,0.07949338,-0.21781005,0.15654056,0.27284938,0.027100813,-0.10894313,-0.032994896,-0.2581014,-0.021749102,-0.18745847,-0.12220814,0.1693599,-0.25077417,0.1347687,0.14782944,-0.028768664,-0.19536096,0.06743772,0.12686393,0.025357097,-0.27029955,0.022903824,0.08537188,-0.01607288,-0.051661085,-0.11218067,0.0919807,-0.14226103,0.33090028,0.08673436,-0.08788438,-0.15722394,0.01791468,0.10361784,-0.44280273,-0.09753224,0.03812106,0.044834614,0.04318096,-0.02913321,0.16734616,-0.23887254,0.04161949,-0.20535685,0.2526876,0.21949823,-0.17273054,-0.013561038,0.3206362,0.11758002,0.18371938,-0.010871877,-0.06909542,0.14631444,-0.017939389,-0.21137306,0.080040544,0.059334844,-0.24880835,-0.04695666,0.08807956,-0.030717285,-0.034275725,0.16449022,-0.12872735,0.08283922,-0.4414255,0.104354955,0.05527483,-0.15672046,-0.068437204,0.00841005,-0.008359807,0.23753674,0.04730211,0.16084893,0.029835615,-0.00783455,-0.22410901,0.05095742,0.06696518,-0.28928423,0.09703627,0.07306053,0.18024534,-0.081153594,0.018543765,-0.04279786,0.06962126,-0.013821793,-0.052833617,-0.18967505,0.16086401,-0.20406583,-0.09043069,-0.3567363,-0.21837725,0.06447335,-0.21940364,-0.19345082,0.19002947,0.26010063,0.1260607,-0.10000203,0.032958686,-0.0016619322,-0.08861573,-0.0067490004,0.1068988,0.060360618,-0.22093683,-0.15992369,-0.008565292,-0.06154048,0.0019540729,0.2035165,0.01904395,0.15285343,-0.109075025,0.08674051,-0.1565688,-0.19978505,-0.17834017,-0.10419825,0.14754348,0.056969352,0.07570562,-0.10524618,-0.0060722013,0.15450731,0.13436179,0.027753364,-0.17177479,0.21634528,0.22206141,0.12137854,0.0052806884,0.0010534753,-0.12410441,0.12497981,0.12173571,-0.100854374,-0.3000683,-0.23088649,0.11816385,-0.20075093,0.13328254,-0.023971371,-0.189168,0.022282772,0.014664567,0.13250244,0.014913495,-0.28557426,0.038679704,0.12683605,-0.3284916,-0.11229055,-0.09152601,0.017187549,0.07458587,0.07644817,-0.38468698,-0.17697197,0.122225076,-0.17210887,0.12883867,0.038545728,-0.08915453,0.057765488,0.17645027,-0.097488664,-0.004098993,-0.12033558,0.09878281,-0.28812152,0.09970021,-0.14545088,0.029611068,-0.20201272,-0.09800281,-0.2910132,-0.013172629,0.0789471,0.041653473,-0.3488823,0.024339333,0.18611239,0.16880648,-0.007837319,0.24606057,-0.14813057,-0.18723139,-0.17305066,0.021139361,0.041587565,0.08937275,0.17125376,-0.11711647,-0.02918751,0.035170667,-0.33862153,0.15099783,0.009990652,0.21428949,-0.03167814,0.06412607,0.2152807,0.27170667,0.13387118,0.06612181,-0.033744186,-0.40150917,0.16178232,0.02622957,-0.34240684,-0.05723702,0.31153092,-0.6188942,0.07579164,-0.3630067,0.1363568,0.23811106,-0.1584228,0.09354873,-0.06102052,-0.26882222,0.046946097,0.21415481,-0.19147193,0.19144781,0.04640298,0.112543344,0.03638148,0.11685725,0.08054423,-0.21496767,-0.035801087,0.08842357,-0.19437052,-0.028070675,0.18400596,-0.05043785,0.12040102,-0.29848915,-0.41597155,0.082885504,-0.027977703,-0.16579548,0.15106782,-0.060149286,-0.08946556,-0.17412701,0.21551433,0.11182737,0.0274741,-0.04543339,-0.23199803,0.14461401,0.018041119,-0.14879632,-0.36893845,-0.11003677,-0.3067349,-0.101418875,0.049401123,0.04158875,0.07471894,-0.12093359,0.22748601,0.20212784,0.20470296,-0.101471186,0.08108938,-0.0682828,-0.12793733,-0.019949721,-0.17924848,-0.15921623,-0.01493862,0.14371674,0.05467076,-0.015978457,-0.075775206,-0.13127555,-0.019499825,-0.030939465,0.27793756,0.12636414,0.10729086,0.03542088,-0.3604633,0.10459955,0.008552198,-0.08322018,-0.036661603,-0.4002428,0.31336942,0.029599912,0.1180876,0.03135765,0.10868039,0.15979216,0.07499009,0.18617672,-0.0053633433,-0.106027,-0.11367897,0.026067074,0.07602199,-0.0645143,0.012287601,-0.13017826,0.11208671,-0.36553723,-0.24864367,0.40440398,-0.0012802777,0.13413139,0.12016146,0.30522645,-0.1224777,0.31355545,-0.04879645,-0.18972857,0.2922636,0.50942814,-0.015718203,0.032330133,-0.39743015,-0.052434776,-0.27575153,-0.10537894,-0.42775482,0.0951813,0.046475437,0.08116433,-0.20171134,0.36746812,0.28112006,-0.303752,0.37905726,0.109257646,-0.3233032,-0.15269229,-0.17736384,-0.47314388,-0.0916501,0.06821155,0.12207818,-0.0986279,0.213935,-0.2912012,0.08393524,-0.058212906,0.033875093,0.21460801,-0.28424224,0.08478488,0.029804261,0.097695634,-0.08041214,-0.08813788,-0.25755528,0.12716934,0.08889339,0.085078575,0.01497579,-0.042429794,0.06356269,0.017847879,0.1999215,0.06354938,0.17980361,0.064509116,-0.1351425,0.16978423,-0.012107441,-0.012813515,0.20174284,0.045732263,0.12594467,-0.06920644,-0.22251874,-0.035890203,0.10369114,-0.17414686,0.0757095,-0.038844112,0.08430021,-0.108438045,0.021025533,0.07893974,-0.32130632,-0.24607942,-0.18410598,-0.17811847,0.31263676,-0.15637824,0.0669756,0.058790855,-0.26360556,0.028306922,-0.2920705,-0.48533195,-0.028072398,-0.031057268,0.009551149,-0.28995273,0.07287636,-0.021178676,-0.07726018,0.15991488,-0.041937828,-0.07452734,-0.028353965,-0.051255193,0.19166811,0.07218249,-0.3593342,0.1797556,0.104446694,0.1962917,-0.012542357,0.30493757,0.10443964,0.14503533,-0.2126005,-0.0923382,0.12555766,0.015924305,0.08811323,0.09201444,-0.19714822,-0.20391247,-0.30855122,-0.011819562,0.04851368,-0.021918328,-0.020963073,-0.06176409,-0.040329043,0.08532745,-0.09805505,0.0670204,-0.0864203,-0.007597915,0.064950556,-0.09477882,0.34670392,0.004398437,0.0036472934,0.25229597,0.11611045,0.087704204,0.18440577,-0.2591847,0.06309999,0.17557314,-0.04493607,0.008399577,-0.24344034,-0.13657464,-0.15726285,0.10416814,-0.06338195,-0.23009351,-0.06158574,0.15675668,-0.061078265,0.322614,0.20538543,-0.08263634,-0.015681168,-0.19937946,-0.029142428,-0.12242885,0.11132137,-0.05802197,-0.074688256,-0.155316,-0.018893536,-0.15191048,-0.051112194,0.021361584,-0.024960088,-0.29059482,-0.0419487,0.052709088,0.2622371,0.040552195,-0.04377714,-0.1681598,-0.011588047,0.28313398,-0.26281026,-0.03934253,-0.040338796,-0.069155544,-0.05871615,-0.012353626,-0.09465815,0.14673519,0.060576357,-0.21904261,0.0064855274,-0.0073328875,-0.045554705,0.012632875,0.28820255,-0.09439976,-0.14224705,0.010053709,-0.2376076,0.10601057,-0.0064446237,-0.099700876,-0.13939251,0.0023334958,-0.36509842,0.03565409,-0.21274312,-0.101213805,0.06691787,-0.265803,0.29544884,0.09554026,-0.08415683,-0.27760637,0.0053693866,0.08578229,-0.15347227,-0.39671025,-0.13989215,0.124128096,0.108960696,-0.008120508,0.0867967,0.11725554,0.08756938,0.19466081,0.1114473,-0.14215761,0.03836838,-0.046758145,0.09536961,-0.32773912,-0.123975195,-0.005762752,0.14105475,-0.17093337,0.12963377,0.19942987,-0.08160369,-0.011466344,-0.069975354,0.10937133,0.10940217,-0.17680222,-0.03165969,0.21476778,-0.002316864,0.2254398,-0.16117471,-0.20915425,0.04889955,-0.07431168,0.04043259,0.119746454,-0.075958155,0.025649961,-0.11304837,-0.07277964,0.1156307,0.092100084,0.06390773,0.069937594,-0.0161279,-0.13257174,0.037013613,-0.16871937,-0.069459945,-0.08251057,0.10659281,-0.12582247,0.027804699,-0.14874846,-0.025980407,0.005646051,0.1384975,-0.20115341,-0.05056327,0.032771368,-0.2257674,-0.004073037,-0.062011547,0.22392315,-0.074067086,0.08801241,0.089477584,0.20771241,-0.20667587,-0.07260772,0.07996761,0.14371783,-0.23499443,-0.061106466,-0.25134474,-0.10069497,0.027559692,-0.33376235,-0.095739454,0.23785882,0.22420684,0.09501748,0.028534755,-0.049382888,-0.092818536,0.10984527,0.051517285,0.15016212,0.029167969,-0.15907161,-0.14540988,-0.08494725,-0.03753926,-0.09151266,0.22085828,0.06710816,-0.03887822,-0.28853026,-0.15528272,-0.18813428,-0.04925766,-0.23443916,-0.12685148,-0.014921072,-0.0629464,-0.070524365,-0.2195478,-0.0115407,0.07824201,-0.04618065,0.08129357,-0.24056654,0.13812236,0.12976372,-0.0046592923,0.0050108656,0.023610368,0.08176637,0.07249068,-0.17925702,-0.034670677,-0.040483084,-0.36012042,0.14916372,-0.23198241,0.08410538,-0.018249745,-0.07336707,0.034546133,-0.03425517,0.09771232,-0.050789434,-0.10232654,-0.07172065,0.0010520786,-0.65552765,-0.058421355,0.1250984,-0.14985308,-0.10160992,0.13232948,-0.54556537,-0.018675264,0.18457349,-0.07002014,0.1210028,-0.064811006,-0.20626932,0.09019109,0.41929236,0.08106314,-0.056857478,-0.028166264,0.07113583,-0.021812541,0.24618298,0.006180026,-0.15214741,-0.3131445,-0.48578066,-0.4085921,0.06400344,0.1472563,0.09815891,-0.22612326,0.089625455,0.2499056,0.18052973,0.17244871,0.1983534,-0.11800256,0.1184631,-0.24982344,-0.081837006,0.045831215,0.13847773,0.042328093,-0.05532701,0.029651456,0.048450142,-0.3869222,0.022104954,-0.05516393,-0.012827278,0.02766021,0.029257745,0.25316322,0.095725745,0.053717233,-0.008523984,0.03864975,-0.3188298,-0.07415942,-0.050302465,-0.49963474,0.20050263,0.35488707,-0.4722148,0.035373162,-0.54789037,0.056099158,0.36675155,-0.17761023,-0.07625349,0.14486498,-0.26076508,0.07547235,0.11046619,-0.060126312,0.05372775,0.19907133,-0.05741954,-0.16814171,0.028605446,0.099543154,-0.2706452,-0.15693292,0.07555135,0.109841906,-0.19935367,0.13887833,-0.19711478,0.04941812,-0.34289068,-0.41325507,0.20397758,-0.09569185,0.15840712,-0.1276108,-0.0716549,0.16107295,-0.21258001,0.18740907,0.10756063,0.07010115,0.05492075,-0.01109112,0.12824032,0.09064606,0.0058560767,-0.33582702,-0.1671928,-0.35069224,0.030006383,0.084714614,-0.103187,0.1541583,-0.116485976,0.29669458,0.15180467,0.19763093,0.059896894,0.03185759,0.05225008,-0.16001679,0.10075293,0.06524519,-0.09092586,0.01051022,0.100535,0.115911305,0.108229205,-0.030934947,-0.13752174,-0.10645961,-0.045873985,0.21848993,-0.08393853,-0.114068,0.037922014,-0.3389251,0.13521962,-0.004914891,-0.020965692,0.02805382,-0.07389803,0.058342032,0.06322157,0.058760326,0.010015441,0.034801617,0.07482238,0.2527463,0.053691786,0.07076664,-0.1347629,-0.32136518,-0.04087222,0.097157225,0.059590876,-0.03467781,-0.056996077,0.11072069,-0.34276456,-0.17775837,0.20109876,-0.20952897,-0.09513627,0.101444304,0.20551509,-0.15887076,0.1315219,0.2308233,-0.34142134,0.027924752,0.50074196,0.17721716,-0.323872,-0.36407274,0.114208214,0.041585084,-0.050992843,-0.3891061,0.02538736,0.1131528,0.09311118,-0.0781077,0.2906302,-0.07434392,-0.34844086,0.09669043,-0.21516566,-0.20048337,-0.2822992,-0.11387322,-0.43609422,0.025274904,-0.04528581,0.10494536,-0.13930386,0.06644842,-0.32018614,-0.004586969,-0.09305002,0.113056056,0.046438657,-0.17321865,-0.017141983,0.029011156,0.21388118,-0.018097397,0.034264266,-0.22399613,0.20588435,0.12030791,0.014122669,-0.2285585,-0.10976773,0.026635742,-0.14972974,0.15659313,-0.039657857,0.011955733,0.097471744,-0.0078917565,-0.14085427,0.03594531,-0.02409589,0.120047584,-0.13099569,0.12766647,-0.1294459,-0.2522157,0.08373684,0.02305741,-0.28521308,-0.0840788,-0.10600388,0.11732707,0.14554389,-0.015498785,0.10974472,-0.32964256,-0.22964226,0.15235467,-0.25171354,0.17102316,0.090387374,-0.05528403,-0.18063264,-0.22861356,0.2710603,-0.36206436,-0.32631347,-0.014318549,0.040473428,0.013210835,-0.17887574,-0.114861086,-0.11154988,-0.035516795,0.1833404,-0.121669404,-0.20721415,0.024657449,-0.100285985,0.04499945,0.12922835,-0.27906853,0.030422777,0.17847759,0.01712377,0.086441755,0.2100768,0.16207194,0.031578578,-0.10836402,-0.08812885,-0.02346212,-0.04548401,-0.044580624,-0.023063334,0.11995812,-0.12104669,-0.014340431,-0.30102155,-0.003135753,0.046114266,-0.068280146,-0.09370282,0.08448122,0.15220074,-0.08823359,0.19583765,-0.004273472,-0.0038877004,0.23781009,-0.00252604,0.18272632,0.15611619,-0.16860309,0.18990387,0.29254082,0.11152696,0.24843293,-0.30663547,-0.026339246,0.17846084,-0.046840403,-0.18960989,-0.3631216,0.018863412,-0.0057594343,0.09273125,-0.014486578,-0.14677621,-0.018200886,0.026023235,0.18905422,0.27395082,0.056335874,0.16173467,0.11101893,-0.18863179,-0.028271057,-0.32012105,-0.029919751,0.07636369,-0.086883366,-0.18130116,0.034640815,-0.1501232,-0.12160432,0.121007234,0.037197597,-0.4227464,0.10126219,0.019027349,-0.072091214,-0.0025706762,-0.19357248,-0.16948691,0.15075763,0.054597452,-0.37026465,-0.2468104,0.12736537,-0.054381274,-0.10061735,0.09319534,-0.050301757,0.15892255,0.18696743,-0.09745616,-0.10104001,0.040359214,-0.072714105,-0.023668526,0.04861879,0.029841652,-0.06100689,-0.011634677,-0.19473682,-0.14362375,0.025678571,-0.083254874,-0.16809689,0.10364796,-0.23179674,0.17483331,-0.15853658,-0.15271711,0.19864616,-0.3950235,0.15834005,0.0077365516,0.15862395,0.0052105775,0.1258481,0.025736842,-0.20450918,-0.36036512,-0.059851132,0.11805153,-0.029431587,-0.08535514,0.10002861,0.101250194,0.057557367,0.07164575,0.15124717,-0.07011862,-0.07882377,0.0710878,-0.023736803,-0.3835389,-0.10362056,-0.020316364,0.02524911,-0.17822023,0.012500313,-0.09839399,-0.087214276,-0.07874662,0.13288055,0.07551915,-0.21079774,-0.3246295,0.07626923,0.08485865,0.06271609,0.11483933,-0.21125568,-0.09109304,-0.0061624874,0.084890276,-0.19163594,-0.009991991,0.12518051,0.13583653,-0.09069232,-0.30835858,0.22150671,0.0601083,-0.030922344,0.030952202,0.028615838,-0.15251158,0.16828395,-0.11048531,-0.08558494,-0.018127773,0.14436436,-0.09677724,0.12576889,0.008898804,0.01889911,0.10280834,-0.014696555,-0.05152181,0.012290761,-0.110298045,-0.1556606,-0.011538229,0.045150694,0.23813365,0.092536554,-0.028052839,-0.09670373,0.0066188937,-0.1326844,0.042874563,-0.09934764,0.04567264,-0.02609095,-0.07966467,-0.1596819,0.022436392,0.0057056677,-0.26164386,-0.09245739,0.12545267,0.08998219,-0.009152229,0.1530339,0.16154413,-0.028542843,0.12651469,0.09102575,-0.047032066,-0.10189966,-0.17510135,0.10131586,-0.2653658,-0.0029325013,-0.0993954,0.2609057,0.07174882,-0.11665457,-0.24575318,-0.08735422,-0.25251332,0.08416393,-0.20243244,0.039117698,0.11152283,0.012583977,0.14064918,-0.28098747,0.16472054,0.11218781,0.008182943,0.14820042,-0.053749595,0.22557974,0.32971212,0.1288323,0.10558551,0.021309167,-0.116773784,-0.050074797,-0.1514374,-0.09421162,-0.010725738,-0.19728327,-0.1157639,-0.019090334,0.08523822,-0.18633951,-0.03344848,-0.088462204,0.047438007,-0.04921542,-0.06887903,-0.1260863,-0.08804651,0.07685299,-0.878246,0.070807196,0.028291527,-0.07554453,0.03691583,0.1028759,-0.51055735,0.071524024,0.06704627,-0.1684537,-0.011959957,-0.026385082,-0.2175441,0.10658167,0.17520374,0.18683033,-0.21973133,-0.118674636,-0.09028437,-0.06193485,-0.03516356,0.17631193,-0.17106318,-0.37608558,-0.5909287,-0.45017558,0.028497802,0.22664599,-0.14219555,-0.089138746,-0.017584808,0.101480946,-0.13138688,0.033997517,0.082010806,-0.33122244,0.103115074,-0.22104125,-0.116873786,0.14142081,0.083648846,0.19402829,-0.1981026,-0.030965824,-0.040230703,-0.48043236,0.014656589,0.0016430748,0.015269859,0.10225162,0.059137523,0.2470409,-0.037860226,0.06593796,0.13548191,-0.2304517,-0.32883838,-0.02999005,-0.10156516,-0.34127492,0.03749961,-0.13249658,-0.2583442,0.101778485,-0.712571,0.1521089,0.2641816,-0.3164274,-0.036009107,-0.007207567,-0.55723935,-0.08580259,0.26495638,-0.056078017,-0.072982535,0.059264358,-0.3424316,-0.16840793,0.22304799,0.047399037,-0.4456562,-0.12658215,-0.16810744,-0.012814183,-0.059522916,0.20832627,-0.13226968,-0.40283945,-0.48268074,-0.518071,0.19000335,0.076624416,-0.19135079,0.008577865,0.049674332,0.13599972,-0.23305297,0.026666425,0.011417991,0.17053524,-0.058425397,-0.12098982,0.059871837,0.051683612,0.084663615,-0.388537,-0.0657922,-0.26352173,-0.1145877,0.101630434,-0.13374601,0.13493663,0.037847135,0.030859062,0.0759756,0.16464919,0.008344662,0.026449742,-0.0122174565,-0.101178296,-0.04190576,-0.06321878,-0.080753654,0.006236497,-0.024041247,-0.0892088,0.056392264,-0.03075022,-0.094844066,-0.23085159,-0.09936917,0.12670603,-0.05923327,-0.11226161,0.04643762,-0.13134643,0.034429982,-0.040630914,-0.17928913,-0.065234184,-0.014826162,0.1369863,0.030589724,0.02916963,0.13401142,0.117024705,0.09172011,0.16962315,0.11001445,0.08126966,-0.015307933,-0.12085627,-0.2489418,0.054310773,-0.029297188,0.08944586,-0.088355616,0.008969016,0.018305227,-0.09413836,0.18644148,-0.14242956,0.077457,-0.14183342,0.17889263,0.010584696,0.21850398,0.19892712,-0.14963578,0.11403575,0.29340276,0.17770362,-0.46995646,-0.20386282,0.030143704,0.032107588,-0.061305948,-0.3633213,-0.1600633,0.094173126,-0.06084854,0.025160398,0.25981483,-0.011266898,-0.30010343,0.17143697,-0.014093235,-0.09580882,-0.37767738,0.2707167,-0.32728758,0.16753925,-0.11290457,-0.08845165,-0.01959069,0.05881889,-0.26807082,-0.010314475,-0.2835117,0.11354397,0.22786148,-0.12730075,-0.08170811,-0.055409472,-0.007988615,-0.029230613,-0.019939274,-0.08366278,0.10103335,-0.027992848,0.17483792,-0.04647336,-0.25909278,-0.02685805,0.011502264,0.26205558,0.08035011,-0.18040127,0.057393335,-0.0860539,0.017898044,0.027947128,-0.03582587,0.023972645,-0.06100509,-0.0118204085,-0.170735,-0.21499377,0.15756205,-0.11400457,-0.35388416,0.07203262,-0.29950133,-0.019770283,0.21573333,-0.21544029,-0.16862701,-0.19847004,-0.103310816,0.07487566,-0.37843677,0.15205687,-0.10687601,0.22051127,-0.25258523,-0.18055008,0.22451888,-0.15064164,-0.14664826,0.07465364,0.1478161,-0.011628344,-0.3321725,-0.28525943,-0.13636112,-0.15942636,-0.01170961,-0.22365408,-0.13573542,0.06914453,-0.08885756,0.16261144,0.0012103172,-0.32757956,0.0009890231,0.19385292,0.09266576,0.21349536,0.20372331,0.2340031,-0.079981245,-0.08545227,0.14090776,0.008875031,-0.046831213,0.04678059,-0.021275643,0.014116775,0.12870564,0.03475652,-0.41479936,0.0941482,-0.11594644,-0.0048460746,0.012057908,0.054055225,0.087881416,-0.004971591,-0.027143693,0.2818506,0.18390505,-0.05877861,-0.22116472,0.17026836,-0.16679053,-0.29113698,-0.010404828,0.19589837,0.021095315,0.29171345,-0.21571459,-0.006598801,0.15728118,-0.040309742,-0.25146177,-0.50815046,-0.21702167,0.10502292,0.03484576,0.10266614,-0.3070898,-0.43537682,-0.07239761,0.10213859,0.15602094,-0.024605265,-0.17988779,0.05652541,-0.22095563,-0.014815904,-0.14936931,-0.016781991,0.036683835,0.01602944,0.026087219,-0.1374589,-0.03747925,0.05295304,-0.14489621,0.04420808,-0.3993283,-0.0700056,-0.009452011,-0.15955414,-0.016362607,0.033930656,0.018421277,0.06196076,0.22175677,-0.27492374,-0.09142963,-0.027961234,0.0054973643,0.16972451,0.19098735,-0.055835977,0.08426168,0.1520752,-0.14787608,-0.343115,0.10820843,-0.13001676,0.06871463,0.1276863,-0.081761785,-0.25568908,-0.1449763,-0.13346702,0.027748082,-0.11556082,-0.08449773,-0.14861733,0.056162033,-0.34575674,0.24723387,0.062652275,-0.01057536,0.053488903,-0.17885081,0.097665556,0.17726399,-0.022557825,-0.1664131,0.21480657,0.0870407,-0.26758248,-0.33013925,-0.032734647,-0.078616604,0.12673795,-0.09920016,0.02062299,0.18070845,0.08715181,0.0046285065,0.04123478,-0.18224443,-0.035340294,-0.03802844,0.103815876,-0.21100025,0.08943469,-0.19178675,0.13138321,-0.2483245,0.26704508,-0.34780607,-0.04826655,-0.06591238,-0.1153619,0.2088399,-0.13384406,-0.5348508,0.14850439,0.11849392,0.19008067,0.17638658,-0.31741676,-0.021757558,0.22048907,-0.054895744,-0.32010186,0.19647522,0.23369947,0.12115545,0.13574773,-0.48453537,0.04393693,-0.019369956,0.17971961,-0.10574318,0.054005,-0.13693668,0.031327367,-0.0670673,-0.01191286,-0.04136846,0.19590093,-0.1701697,0.08425974,0.106926374,-0.08435122,-0.011864546,-0.030159753,-0.15910624,-0.11771367,0.086323805,-0.20452124,0.06478483,0.1337429,0.30169114,-0.06592752,0.09842424,-0.09756374,0.12386836,-0.23790981,-0.013653008,-0.0075713405,0.028334772,-0.119546026,-0.17701931,-0.243849,-0.2396314,-0.095801465,-0.24941449,0.019808227,0.20214882,0.14124389,0.004058016,0.028836694,0.20318137,0.01288363,0.17309579,0.1506314,-0.08396996,-0.025258705,0.0049764663,0.13650051,-0.2256562,0.07660464,-0.13942026,0.13677755,0.07838509,-0.15076908,0.0424729,0.046187557,-0.3121451,0.010029933,-0.07746058,0.055228446,0.20749426,-0.17949545,-0.028610218,-0.19489157,0.05342389,-0.03651672,0.116660655,0.18601103,-0.1457005,0.21356773,0.28304902,0.045546625,0.15164079,0.007003541,-0.30631608,-0.049105454,-0.068498574,-0.13411576,-0.039121002,-0.059145827,-0.13347271,-0.1187868,0.22552261,-0.15850684,-0.028615188,-0.108379506,-0.026679194,-0.06448845,-0.20035914,-0.26997504,-0.0064230706,-0.050078206,-1.0772513,0.10259913,0.15124795,-0.16723163,-0.07027449,0.04224841,-0.7229377,0.02003101,0.12915117,-0.19644375,-0.19068387,0.15333931,-0.2107051,0.06630969,0.27923247,0.06922459,-0.3110371,0.05650061,0.13119267,-0.33895552,0.21126857,0.1008367,-0.26250967,-0.3117404,-0.55771595,-0.67610896,0.08193498,0.14027086,0.19432531,-0.15563907,0.15151726,0.16565894,-0.2105658,0.07362987,0.20423988,-0.39507636,0.01898602,-0.03137782,0.05831022,0.0501512,-0.08187722,0.17869155,-0.2790868,0.005074199,-0.14072701,-0.18208651,0.12515695,0.15896462,-0.20873794,0.06257966,-0.080796294,0.27433798,-0.10113793,0.21039912,-0.05676735,-0.21247183,-0.41320983,-0.104456276,-0.12241453,-0.36444327,0.22362,0.042114716,-0.37720275,0.17511052,-0.7272991,0.11902026,0.17421639,-0.62031794,0.08121862,0.18250544,-0.3079004,-0.3589488,0.006095394,-0.12275223,-0.2120384,0.25904518,-0.3652086,0.023619179,0.13370542,-0.026561912,-0.49215433,-0.063287936,0.06021852,-0.15405473,0.11611819,0.15322539,-0.18195514,-0.030964876,-0.5915159,-0.5561498,0.13546966,0.09370264,0.18846303,0.06843039,0.14332438,0.32987514,-0.2728023,0.09924473,0.0005839423,-0.031124571,0.09968409,-0.16512272,0.11293021,-0.083604194,0.04057845,-0.32522103,-0.13490264,-0.43736443,0.02321184,0.17370966,0.016721018,0.16251335,0.0160604,0.15744641,0.07664621,0.08268396,0.054637566,-0.06857727,-0.07701955,-0.14557406,0.01479983,-0.0838045,0.011632646,0.04683093,0.16804864,0.02513135,0.027924098,-0.18976037,-0.019632777,-0.027766034,0.10404702,0.088522516,-0.039441142,-0.066392034,-0.14084174,-0.089321785,-0.0033743437,0.037693106,-0.06310883,0.0505174,-0.2548569,0.14657564,-0.1358621,-0.14514953,0.1998238,-0.09414973,-0.053177908,0.08163776,0.08932077,0.03577576,-0.13766548,0.12608002,0.0049854796,-0.0024963608,0.058612138,-0.03448947,-0.18582182,0.17554688,-0.1322023,-0.15923037,0.21356714,-0.06650263,0.14139356,-0.25881773,0.102137804,-0.053436432,0.08923119,0.2622178,-0.3161248,0.17678757,0.20747627,0.11469208,-0.48596764,-0.21137144,0.0006710775,-0.089993894,-0.09047812,-0.2760991,-0.18059173,0.0050897915,-0.09819002,0.16140091,0.38045958,0.0965926,-0.07557691,0.30099925,-0.0939223,-0.1452491,-0.1795445,-0.05497765,-0.18988165,0.11250953,-0.12125456,-0.12253447,-0.07738023,0.17188604,-0.05081552,0.09654417,-0.12902391,-0.031337567,0.27305272,-0.012963763,-0.29730734,0.11614813,0.001147158,-0.111485936,0.1262078,0.039345104,0.06836987,-0.0070247687,0.016121767,0.11640143,-0.13994572,-0.034972947,-0.06957697,0.21934594,0.22009858,-0.042179924,-0.0059743943,-0.08658308,-0.050113205,-0.3048818,0.100889064,0.053734962,-0.0026720553,-0.094318956,-0.2354779,-0.34433654,0.24623491,0.06749618,-0.3156762,0.020315623,-0.38714755,0.23896143,-0.110530436,0.15999946,-0.24924935,-0.17973235,-0.38130277,0.027285332,-0.37312,-0.31734705,-0.11478705,0.29773742,-0.3716255,-0.14522502,0.28589675,-0.33305597,-0.17714036,0.06870235,0.20896457,0.15673386,-0.17405924,-0.038644705,-0.29949754,-0.056323625,0.14580122,-0.25504673,0.029161127,-0.020938456,0.01613298,0.12480976,0.016940799,-0.40076128,-0.11760219,0.15657258,-0.12867132,0.12970947,0.10372502,0.050019387,-0.002515628,-0.0036499742,0.0019438674,-0.1929475,0.12638271,-0.106227234,-0.12353385,-0.14990209,-0.0725932,-0.032454025,-0.17649744,0.09093514,0.10735432,0.11908914,0.15197413,-0.011641214,0.07707783,-0.10163728,-0.13108191,-0.13137011,0.28634706,-0.043794848,-0.055189945,0.25177363,0.04115086,-0.40483442,0.14902604,0.11424691,0.03888611,0.31992266,-0.18099166,0.18463752,-0.010999276,-0.0881646,-0.3538628,-0.5137894,-0.20270881,-0.11192326,-0.22265254,0.22816944,-0.28023863,-0.14691795,-0.10258677,-0.08893776,-0.036281396,-0.02424569,-0.12320709,0.069298066,-0.25549895,0.052985746,0.10678228,-0.0034874661,-0.032794375,-0.11707005,0.1374678,0.035642657,0.06380739,-0.17224976,-0.09549947,-0.03596084,0.09359714,0.098917626,-0.04063479,-0.15681443,-0.102286555,-0.061237924,-0.20826623,-0.00048976386,0.1443018,-0.22244556,-0.16527906,0.22319286,-0.11610041,0.03943883,0.107169405,-0.14713192,0.027225662,0.1806897,-0.16391201,-0.36019284,0.21915053,-0.108021684,-0.061590545,-0.16347338,0.10371836,-0.12051163,-0.058374714,-0.24441303,0.0029561496,0.051812403,-0.05782737,-0.15362662,-0.008686936,-0.31826663,0.15800229,-0.026466722,-0.284036,0.16319652,-0.319149,0.17924732,0.06163334,0.024507701,-0.13666646,-0.10633802,-0.021361005,-0.11098157,-0.3272381,-0.015809983,0.046238754,0.10936417,-0.24400538,0.025644388,-0.007978204,-0.07006055,-0.06877321,0.06651557,-0.020778837,-0.09890518,-0.061369408,0.2317315,-0.25250888,0.051701736,-0.12876579,0.1939871,-0.21142793,0.13300371,-0.2446752,-0.2065313,0.18562858,0.07630342,0.2517306,-0.21778457,-0.6468072,0.013251828,0.30160615,0.119911626,0.19353333,-0.042151302,0.08084998,0.18941927,-0.20206657,-0.19903538,0.01911683,-0.117206484,0.22291017,0.013317483,-0.46750498,-0.0039780666,-0.11363854,0.09083223,-0.112212375,-0.07823486,-0.028290972,0.18626978,-0.23563418,-0.12198654,0.119163945,-0.07570998,-0.113175824,-0.1920355,0.0064693354,-0.033708863,-0.06187562,0.09356624,-0.1482554,-0.0020639338,-0.06115745,-0.16889583,-0.009271854,-0.045439273,0.29193178,-0.028202258,0.12138768,-0.16170378,0.19368458,-0.06864657,0.10378927,0.017092587,0.08015875,0.06744181,-0.07792653,-0.41700935,-0.22321191,0.07549372,-0.01143483,-0.024486674,0.13434014,0.09285487,-0.12820637,0.24798334,0.25983128,0.20211686,-0.0841554,0.089428306,0.015978515,-0.04744702,-0.01863526,0.032788567,0.031059053,0.23192023,-0.025356717,0.037527442,0.026286788,-0.24544145,0.0549274,-0.07139397,-0.14260188,-0.12512384,-0.1910786,0.019668497,0.029949885,-0.03734636,0.079093516,-0.45880154,0.24706376,0.19365725,-0.041090336,-0.01777795,-0.34829152,0.25870115,0.14974895,0.10634272,0.16092817,0.10039707,-0.22027855,0.0678817,-0.24796544,-0.006912421,-0.14292236,-0.24784425,-0.037013255,-0.011322599,0.17108965,-0.20760879,-0.08418234,-0.08984608,0.043683175,0.10166263,-0.02337526,-0.13594574,-0.2403134,0.07155435,-0.96037114,0.12465748,0.18623228,-0.37220994,0.18773448,0.25404888,-0.80090976,-0.012500109,-0.059223812,-0.17883506,-0.1803253,0.19415164,-0.4012496,0.13019183,0.1373354,0.2489647,-0.13529555,-0.12507197,0.075454354,-0.2415222,0.055017736,0.2850389,-0.15293616,0.105211526,-0.65597457,-0.7797827,0.120206244,0.13350692,0.05699779,-0.26965725,0.2858498,0.21127085,0.0015680122,0.15266788,0.07146974,-0.3769669,0.19873984,0.020786587,-0.15245584,0.15833534,0.18921588,0.21091266,-0.32455128,0.012360428,-0.42525706,-0.12835233,0.121707864,0.19099101,-0.29591224,0.0038047777,-0.12158478,0.31624672,-0.17320333,0.13022685,0.0971271,-0.36246645,-0.33740917,-0.12770078,-0.090881534,-0.44438243,-0.058023106,-0.076678276,-0.17450793,0.32399684,-0.37442657,0.060197003,0.37094247,-0.66791385,0.2381159,0.10092411,-0.4765739,-0.05326615,0.25587672,0.1295481,-0.24293306,0.19211805,-0.23890741,-0.09333855,-0.050482344,0.020237707,-0.67734075,-0.3042589,-0.2616499,0.0181762,-0.09943089,0.15218973,-0.17113172,-0.0008406887,-0.4263991,-0.71517026,0.11744859,-0.10095089,-0.03789461,-0.05324185,0.08509019,0.21420085,-0.19537447,-0.011001492,0.068966754,0.019600365,0.011360535,-0.047810473,-0.09780583,0.043089435,0.119608395,-0.40988663,-0.044908527,-0.44180596,-0.01745165,0.18422101,-0.089346685,0.046984114,-0.0013066889,-0.038827755,0.079271935,0.0005862686,0.13313083,0.10396968,-0.15925127,-0.08634028,-0.035124205,-0.010667768,0.07053044,0.13170472,0.112815514,0.15053034,0.062180407,-0.23528573,0.04108432,0.03419779,-0.058746543,-0.059458323,-0.15467694,-0.18681875,0.1014824,-0.1754037,0.18499005,-0.013885309,-0.16222468,0.036459032,-0.3023607,-0.0665785,-0.07699668,0.035767008,0.055625487,-0.045893427,0.20291072,-0.06877082,-0.033859346,0.118048444,-0.25810376,-0.0483561,-0.11671564,-0.088750035,-0.024872655,0.04536876,-0.14799276,0.16539983,0.06929706,-0.038181107,0.024797361,-0.06436414,0.27698028,-0.18088822,0.21705566,-0.04997115,0.07029554,0.43853435,-0.18101431,0.26982787,-0.0015140944,0.2511674,-0.2915111,-0.18421829,0.04336131,0.13416475,-0.1305256,-0.18787277,-0.10780627,-0.1417065,-0.27530164,0.1701667,0.41837713,0.066365674,-0.020824485,0.14172523,-0.071621284,-0.27692384,-0.39205334,-0.37723255,-0.10925864,0.031045374,0.016242182,-0.099740036,-0.27739114,0.15260558,0.047102977,0.057388607,0.120183304,0.17443694,0.03598826,-0.13821557,-0.09134788,0.09775172,0.20113942,-0.29159093,0.123689465,0.009818877,-0.20540473,-0.08379349,0.23583747,0.12754877,-0.23129211,-0.077866666,-0.05464339,0.17064942,0.22133483,-0.11788434,-0.2204086,-0.18516846,-0.17334229,-0.14646937,0.14510089,-0.12639089,-0.008199956,0.08659548,0.030788505,-0.31021187,0.21851313,0.134345,-0.47932214,-0.090918794,-0.15333751,0.41400653,-0.17259829,0.49592718,-0.28145704,-0.077114955,-0.22862373,-0.06776736,-0.5983219,-0.66210526,-0.49282694,0.14999425,-0.42386675,0.102345,0.20657761,-0.12848802,-0.20585929,-0.060987256,0.23555179,-0.0017928439,-0.17520015,-0.17215149,-0.028615586,-0.088589735,-0.006150665,-0.05909619,0.05786164,-0.046894103,0.17966285,0.21505244,-0.10497132,-0.3960354,0.16261767,0.11187324,-0.19523656,0.49206558,0.20710039,0.14894162,-0.27357587,-0.008290631,-0.17512746,-0.052652206,-0.05782091,-0.27016482,-0.3537514,-0.2193844,-0.19579954,0.031775665,-0.45429432,-0.06897235,-0.010134023,0.22760907,-0.33229768,-0.13217592,-0.06701198,-0.29527688,-0.26663622,-0.11666002,0.24513239,-0.062040307,0.10323323,0.31446582,-0.08710529,-0.34949797,0.010783622,0.20887351,-0.15408786,0.26054922,-0.37968618,0.2897136,-0.13804138,-0.051037617,-0.37026823,-0.5832072,-0.10929668,-0.100151174,-0.3518308,0.17098515,-0.38065615,-0.20249969,-0.10156864,-0.17794381,0.27745056,-0.14846686,-0.2916427,0.24439257,-0.12909836,0.048039626,0.29508707,0.059726257,-0.15833415,-0.06372455,0.05373299,-0.04074453,0.21435775,-0.055939957,-0.19284643,0.0109454375,0.23551126,-0.2034545,-0.054186095,-0.278018,-0.017686876,-0.09725455,-0.12122476,-0.098574,0.076487616,-0.12035282,-0.32690924,0.22898465,-0.009641194,-0.10865549,0.12734282,-0.09789634,-0.27379394,0.21827643,-0.12130241,-0.35988006,0.35480514,0.018389957,-0.01714217,-0.031238489,0.048795056,-0.19050717,0.11729108,-0.07053172,-0.069294035,-0.035363317,-0.14367612,-0.17534406,-0.06859624,-0.07838689,0.11669759,0.1755323,-0.344637,0.15545905,-0.28081408,0.026042387,0.037182238,0.10028915,-0.34625462,-0.15579744,-0.049252473,-0.3135707,-0.3263336,-0.16675179,0.008091598,0.14924727,-0.20270753,0.07602091,-0.0705487,-0.26358944,-0.057873707,-0.040523764,-0.04239221,0.00428341,0.22726381,0.009177087,-0.06870534,0.11255587,-0.3052847,0.14797169,-0.12445925,0.31044757,-0.35769922,-0.2856431,0.1333649,0.16161057,0.24840477,-0.11648477,-0.547293,0.16628812,0.2710609,0.22034477,0.32657582,0.09887603,-0.064106375,0.06738851,-0.21450849,-0.46344346,0.033319287,0.2275536,0.33830023,0.22461702,-0.21110755,-0.14100586,-0.13193361,0.2001457,0.15311429,0.08442172,-0.023099821,0.17321719,-0.30176884,-0.13087443,0.14187646,-0.23687764,-0.0363241,-0.18720429,-0.1395673,0.05590129,0.19973914,-0.081931606,-0.20071827,-0.048225302,0.09164058,-0.1116228,-0.0044924794,0.099416025,0.18301168,0.10749713,0.06514176,-0.064811826,0.2680885,-0.17589746,0.31466627,-0.048030894,-0.056575626,-0.09456559,-0.22269794,-0.48322955,-0.11845513,-0.05345265,-0.08749872,0.056208774,0.10291637,0.16421182,0.04254221,0.117813885,0.21969213,0.15543035,-0.15986662,0.006396989,-0.0803028,0.082338385,0.2172567,-0.13339755,-0.25742003,0.19415024,0.07757727,0.16734101,0.022956965,-0.12992662,0.098692805,-0.0062457803,0.02285814,-0.23596627,-0.0396691,0.11588082,-0.07150743,0.03799896,0.0035056593,-0.53483623,0.18954247,0.3267192,0.02067215,0.17564444,-0.18097644,0.17326348,0.020885933,0.106120326,0.14650235,0.12599935,-0.40453252,-0.12744565,-0.2879783,0.116915815,0.0030979724,-0.120617665,-0.056252997,-0.13068691,0.3021637,-0.032169618,-0.23778658,-0.009162143,0.26689443,0.038772125,0.0871226,-0.13118523,-0.3857415,0.22829324,-0.4420526,0.24106906,0.23691976,-0.44786438,0.042218257,0.2573774,-0.3955008,0.1065654,0.1666337,-0.07012082,-0.36993742,0.31108165,-0.049695257,0.24006744,0.102292,0.16185746,-0.23997046,-0.11250782,-0.46469706,-0.3761682,0.13859934,0.32548934,-0.16151875,0.23354432,-0.59304905,-0.55631465,0.124765195,0.26766756,0.19020557,-0.06666012,0.1124101,0.33949953,0.11374111,0.13661444,0.10801519,-0.44348615,0.028795933,0.15435812,-0.13754365,0.05330594,0.04990971,0.36108825,-0.4435367,0.06432547,-0.19664353,-0.0778236,-0.0011120631,0.12904592,-0.32865202,-0.30024168,-0.41986984,0.08955685,-0.4032389,0.2594926,0.23299593,-0.5348548,-0.4205891,0.10909775,-0.06691727,-0.28284883,-0.005347545,0.022591414,0.00057278754,0.29807916,-0.1314961,0.09779757,0.42412013,-0.47191697,0.3238012,0.23602085,-0.28511614,-0.29658177,-0.037354805,-0.08699251,-0.22350474,0.16937116,-0.2853826,0.008858223,0.0023747175,-0.08940448,-0.44810322,-0.35477948,-0.30700937,-0.35737008,-0.043538164,0.3305075,-0.20088454,-0.18945749,-0.73024833,-0.81229305,0.279999,0.0025094396,0.20490135,-0.040742707,-0.019440908,0.24377458,0.0269724,-0.058831826,-0.0073773623,0.117094815,-0.03618457,-0.26459423,0.000605486,-0.018451491,-0.11926845,-0.201151,-0.112224564,-0.43352664,0.09203364,0.056749795,0.023061756,-0.013474034,0.100010745,-0.029129263,0.1633428,-0.012772321,0.011389795,0.030150784,0.01930978,-0.13552558,-0.10466824,0.038932595,-0.13749161,-0.0010043627,0.15779799,0.15815799,0.12524557,-0.043293215,0.02667106,-0.057905596,0.14252833,-0.13163312,-0.25966993,-0.16975455,0.113643475,-0.010459426,0.09215881,0.02554682,-0.15966786,0.04681603,-0.27683803,-0.16410868,0.19363204,0.05923337,0.11519301,-0.05576316,0.120375946,-0.06493437,0.04548943,0.060727205,-0.13913415,0.089591116,0.005554267,0.09254189,-0.12094196,-0.057119623,-0.30960888,0.113997065,0.09723451,-0.058564898,-0.11565301,-0.10782722,0.33128554,-0.24313983,0.43389225,0.022391522,0.030909143,0.384537,-0.16348206,0.5012926,-0.046585504,0.35647666,-0.5898743,-0.2786093,0.01652655,-0.052630547,-0.2439551,-0.18772237,-0.28942493,-0.18455039,-0.078272484,0.13563205,0.5230757,0.18913351,0.12423444,0.16658139,0.26996762,-0.3160245,-0.2694548,-0.03795259,-0.036829665,0.3109845,0.18185307,-0.042377096,-0.33474594,-0.06996484,0.11896615,0.06999414,0.08463265,0.12165232,0.16345444,0.08201357,-0.24767952,-0.059540514,0.1702166,-0.2498032,-0.118496925,-0.028870381,-0.105057485,-0.035716362,0.09515345,0.21811195,-0.18488686,0.07715371,0.03363761,0.031264476,0.19947702,0.034863133,-0.39243916,-0.028695539,-0.0789348,-0.40707925,0.30439565,-0.0117998915