-0.12422168,-0.08561103,-0.38009197,0.043027654,-0.2123159,0.13877992,0.15999635,0.0065593794,-0.071751975,-0.15575272,0.020667907,0.316741,0.052667454,0.33336866,0.02907947,-0.24688043,0.051130615,0.0571126,-0.012731565,0.26463926,-0.12483869,0.037467092,-0.30374226,-0.22958772,-0.14193846,0.3348326,-0.035778195,-0.04867576,0.09758723,0.24381828,0.04491781,-0.102316946,-0.22785437,-0.043163676,0.039331436,0.18492734,0.07315403,0.054531988,-0.0987763,0.028946377,-0.056628793,-0.018627051,-0.39652297,-0.0023502829,0.013906968,-0.0005302601,0.046654694,0.20846985,-1.8220515,-1.0282005,-1.1620972,1.2984138,1.5356205,-0.6050285,0.102675155,-0.5055478,-1.6689478,-0.65157044,-1.3151795,-0.40887675,1.8631666,0.2293818,-1.918966,-0.26585108,1.4230878,1.1955124,0.87446564,0.45288888,-1.5539823,1.813106,0.12975699,-1.1784176,0.99765366,0.39486647,0.5026434,0.37671524,-1.7928392,-0.66366833,1.9280145,-1.4715533,-0.07883907,1.4181799,2.3783805,-0.43743914,-1.1907586,0.8882289,0.3346587,0.6633093,0.62381095,1.1285903,0.6054794,0.9441934,-1.181012,0.60806376,0.23130926,0.11906181,-0.10911264,-0.18804823,-0.030203018,-0.12039955,0.16728948,-0.040010665,0.028153256,-0.042322807,-0.15095925,0.021308964,0.09766657,0.047041137,0.19136308,0.10333032,0.119296625,-0.18222167,-0.060561772,-0.25497735,-0.48751497,0.35260454,-0.31781784,-0.11529406,0.01822731,-0.13026068,-0.061662722,0.360595,-0.104281984,-0.4066765,0.029749097,0.3814138,0.030890929,0.10772555,-0.08742679,0.14901902,-0.056463588,0.17342107,0.014793211,-0.061274227,-0.3188476,-0.2861162,0.018165108,0.54365766,0.09725065,0.27051562,0.049223144,0.17138946,0.048992306,-0.12757103,-0.21121535,0.21379973,-0.097372636,0.08383947,0.10707801,0.13555987,-0.09544133,-0.08753544,0.19193518,-0.06825663,-0.5457795,-0.01485898,-0.14535841,0.030485764,0.23737782,0.2949338,-1.7913885,-0.9931208,-1.3781195,1.0467627,1.1979883,-0.5808874,0.08962248,-0.5934749,-1.7253877,-0.9294255,-1.2669566,-0.31833723,2.0064375,0.48606902,-2.0690997,-0.55406314,1.622187,0.69847035,0.9309484,0.33730596,-1.4962112,2.0300348,-0.10313877,-1.3814816,1.0295148,0.37722397,1.0117882,0.07316643,-1.8567348,-0.65938556,2.1814988,-1.9718372,-0.5476025,1.3590916,2.2643647,-0.2209692,-1.2390747,0.96192324,0.4923512,0.6756701,0.69423586,1.2177923,0.7002318,1.1399693,-1.3669233,0.71972525,-0.19078128,0.12678888,0.043923147,-0.0686044,0.09343796,-0.12532823,0.14889355,-0.068355724,0.096209094,-0.05688951,0.024424993,-0.14146277,0.18930726,-0.11456073,0.20242001,-0.2446033,0.049843747,-0.18157127,-0.06537772,0.019568412,0.02085169,0.3185482,-0.26669547,0.02612369,0.11803336,0.042059638,-0.13798745,-0.15392563,-0.20819445,-0.48155382,-0.104181096,0.1604012,0.007688616,0.13831365,-0.052276492,0.00033644988,0.090420954,0.06899691,0.14564045,0.061642367,0.073059775,-0.3674231,-0.1471694,-0.170263,-0.060913388,0.31965858,-0.009058338,0.2043279,0.06724583,-0.07640014,0.18410537,-0.06115016,0.023763563,0.16271803,0.063890785,-0.31030187,-0.13957861,0.12783344,-0.12977923,-0.04947867,-0.08691658,-0.0029823545,-0.22664751,-0.14358208,0.2857672,0.27352178,-1.5763665,-0.85459733,-1.0793942,1.0628849,1.0825984,-0.7704086,0.19162396,-0.66463244,-1.896722,-0.78913265,-1.1912909,-0.24254136,1.7953833,0.5324028,-1.691529,-0.40983412,1.5788026,0.97491944,0.93123215,-0.24762574,-1.5703015,2.202633,0.15506628,-1.2295196,1.0575039,0.081581295,0.8683427,-0.24897093,-1.9866596,-0.87031364,2.278524,-1.7341805,-0.5066285,1.4482949,2.1388307,-0.33614442,-1.3869497,0.89163345,0.52632326,0.8017851,0.21217121,1.1927108,0.5946724,1.1214947,-1.4253497,0.8570018,-0.23072952,0.03760441,-0.120617285,0.15290216,-0.098790914,-0.25051397,0.2559293,-0.23611252,0.00952193,-0.27721685,0.13492729,-0.050472222,0.04464514,-0.13033697,-0.002362329,0.089087464,-0.024300007,0.037936214,-0.16589583,-0.1711712,0.3127524,0.17910716,-0.24590811,0.17802298,0.10414887,-0.23995073,-0.030150956,0.002731625,0.049849406,-0.105270684,0.14951047,0.07761057,0.036079925,0.18513072,0.070409335,0.14750351,0.053476393,-0.13940199,-0.07021515,0.04980432,-0.41207784,-0.3423076,-0.16347808,-0.5918304,-0.095185496,-0.22497971,0.105830304,0.124469794,-0.03768257,-0.0027887658,-0.18246783,0.0016502735,-0.05327119,0.021388745,0.1394992,-0.62205803,0.088102244,0.0922645,0.06015729,-0.019833026,0.6443047,0.0071058255,-0.036840633,-0.06765367,-0.18050495,0.23791857,-1.5434893,-0.6849516,-1.0653185,1.0648663,1.0729163,-0.66517377,-0.052859183,-1.0338374,-1.8166112,-0.7474068,-1.2851936,-0.41031435,1.7639105,0.5523443,-1.8330747,-0.49233142,1.7554291,0.7382188,0.65541756,-0.26820427,-1.6974839,2.050057,0.042410452,-1.3197452,1.3938048,0.044525612,0.86242294,-0.12914486,-1.8814163,-1.0347992,2.713536,-1.8358653,-0.5600976,1.0205841,2.4170642,0.06590009,-1.2088108,0.7945046,0.7765227,0.89727193,0.53892124,1.5138026,0.48082235,1.3933719,-1.0808041,0.88916826,-0.7214952,0.13011383,0.20224066,-0.02338422,0.021687416,0.041826878,0.034286834,-0.043893833,0.2805671,-0.21321812,0.20044191,0.22593476,-0.12269791,0.21107058,0.1783864,-0.15697192,0.039942008,-0.048764978,-0.12804596,-0.33993405,0.061965372,0.37231806,0.046365194,0.25903356,0.20978533,0.06772352,-0.29219744,-0.26900786,0.2699769,0.7215906,-0.07257823,-0.17206937,-0.044524156,0.06517847,-0.06412576,0.15276864,0.031469624,-0.25169927,0.15296295,-0.1039558,-0.28546765,-0.2840363,-0.12262026,-0.37417868,0.0874316,-0.32034397,-0.13183768,0.1815702,0.0646275,0.0037725363,0.16907117,0.18974724,-0.077105284,0.17264387,0.05155432,-0.43130377,-0.12577087,-0.010411393,0.104035154,-0.12559818,0.5397056,-0.014588119,0.029739145,-0.1980205,-0.29766446,0.2728223,-1.4131455,-0.5535022,-1.3095964,1.1017619,0.90284073,-0.77356017,-0.20555854,-1.0111306,-1.5065905,-0.8801323,-1.2403967,-0.43948025,1.6904335,0.7729895,-1.4723325,-0.7348828,2.0435185,1.2307203,0.97659475,-0.9112127,-1.7318206,2.0683632,0.2056459,-1.0839056,1.5753601,0.102027275,0.82641256,-0.06376336,-1.8055768,-0.8214305,2.481486,-2.1109006,-0.66228193,0.9952276,2.1874354,0.4146791,-1.54023,0.87122405,0.95644957,0.90154266,-0.03928352,1.2146127,0.3859015,1.5199431,-1.1943171,1.1522826,-0.42584616,-0.14045222,-0.04302807,-0.23150472,0.24149431,0.07279794,0.21706775,0.15031402,0.31452018,-0.018475143,0.19088492,-0.11999204,-0.15584973,0.088779956,0.11319148,0.14926592,-0.032328565,-0.108481266