0.013573939,-0.10909383,0.32277045,0.10403807,-0.05786856,0.15509336,-0.041235235,0.26739725,0.17381907,0.110618606,-0.1207349,-0.34558815,0.022167077,0.017267056,-0.27631912,0.13740854,0.4042272,0.37009862,-0.045457333,-0.48372194,0.29277563,-0.14261338,0.026113229,0.057713844,0.09042261,0.16332296,0.058943,0.35440975,-0.40343615,-0.059703317,-0.22281666,-0.35043052,-0.026354017,-0.32445765,-0.08074896,-0.16686833,0.06470127,0.38951865,-0.18489975,0.0682426,-0.15458965,0.027623309,0.15114342,0.03695395,-0.17755343,-0.2939879,-0.39764836,-0.26957703,0.07495154,-0.011867086,-0.24902163,0.14133705,0.031921823,-0.3761077,-0.102018036,0.046097536,-0.1353205,0.18966652,-0.0046590664,0.117397964,0.17905177,0.06734633,0.35527042,0.3994824,-0.035727568,0.19184238,-0.5426668,0.055452827,-0.35313877,0.2231808,0.066629745,-0.17320727,0.022414712,-0.022494754,0.22831962,0.08082992,-0.12022606,-0.024075191,0.15658039,-0.024213614,-0.27732104,-0.3770777,-0.04395093,0.3391876,-0.0072935387,-0.16143414,-0.051335715,-0.04952747,0.0042733545,0.05943778,0.20254652,-0.27338275,0.37853298,0.36781603,-0.10892289,0.08622556,0.16600652,0.19636743,-0.048955467,0.1645963,0.14290473,0.064358614,0.08369325,0.010032584,0.385029,-0.060818,0.31959647,-0.044954177,-0.07054804,-0.03625888,0.43614358,0.1926679,-0.48929438,-0.019649457,0.1496657,0.5515751,0.1286572,0.24343811,0.06688496,-0.010683963,0.08802974,0.11217879,-0.066099964,0.047638983,0.20356219,-0.026219457,-0.178833,-0.024937943,0.04409154,0.23034611,-0.07342825,0.34728423,-0.040078424,-0.039301954,0.002085768,0.15460378,0.10363407,0.1456097,-0.29168165,-0.079584666,-0.014663985,-0.16716981,-0.06616828,-0.06853199,0.0068376227,0.20669167,-0.040185407,-0.19306865,-0.07749728,-0.13802177,-0.027596153,0.0109609505,0.12224402,-0.12300588,0.13198863,-0.018095264,-0.08812181,0.17168832,-0.056280375,-0.21908136,0.269056,0.040471748,0.060126048,0.13993277,0.024137022,-0.20947962,0.17762199,0.12317661,0.12617438,-0.03135853,-0.18087327,0.03866221,-0.043384694,-0.034797017,-0.15076822,-0.17063944,-0.15633655,-0.021143047,0.1096033,-0.10652801,0.39420277,0.08765143,-0.048100293,0.035889138,0.0895757,0.23342402,-0.04306523,-0.13435079,-0.21397705,0.031052537,-0.10100771,0.16650873,-0.08048092,0.07748002,0.03848868,-0.049883924,0.01694436,0.20390844,0.008044944,-0.082593426,-0.060730703,-0.19715452,-0.01267781,-0.11846223,0.03713391,0.059343174,0.29156545,0.1673257,-0.16866767,0.06057483,0.04879613,0.55156314,-0.21178003,0.14726208,-0.014353198,-0.0868411,0.2220937,-0.030126398,-0.06931878,-0.4092338,-0.018540632,0.074957214,0.16452898,0.42843035,-0.039386574,-0.086918674,0.1429433,-0.16362719,0.22801691,0.038789995,0.021855408,0.19999285,-0.08060109,-0.025963735,0.14712775,-0.024041979,-0.159047,0.29280216,0.2948974,0.11876357,0.10800378,-0.0029619127,0.18126178,0.039592613,-0.017863745,-0.1720941,0.05128002,-0.29031822,0.23066033,-0.083170705,0.21939944,0.13539301,0.00343769,0.15549915,-0.11686424,-0.12231991,0.0057598907,0.20475213,0.30801323,0.08612774,-0.00691055,0.034216005,-0.004377756,0.13850433,-0.031361826,0.20011456,-0.09054325,-0.21133654,-0.10343808,0.07799306,-0.24008311,-0.17829089,0.0870346,0.26862726,0.009861902,-0.18708162,0.29807803,-0.3461906,-0.08743244,0.0344336,0.1453768,0.09659091,-0.037846662,0.16349176,-0.3491841,0.07168016,0.12942809,0.026554387,0.07941355,0.096491575,-0.025643712,-0.22303121,0.16940764,0.28551692,-0.030334806,-0.016501978,-0.19295834,0.008659523,0.109991044,0.040277973,-0.22084303,-0.14665274,-0.09559699,-0.17977071,0.19760102,-0.04840782,0.3192852,-0.088782236,0.03530145,-0.1230673,-0.049573503,0.3003684,-0.060917903,-0.05415421,-0.10768532,0.23084947,0.036530055,0.10516432,0.25514948,0.20862131,-0.009267397,-0.12795423,0.28539422,0.09085973,0.21667616,0.14597766,-0.039144423,0.023037897,-0.089258455,-0.1664531,0.001732755,0.1277095,-0.039653737,-0.12725885,-0.00065211504,0.22307387,0.18377075,0.16677722,-0.055558924,-0.16380116,0.049323987,0.16695753,0.05175013,-0.09247915,-0.06789325,0.06804969,-0.09501105,0.28804022,-0.13108791,-0.045405775,0.16740716,0.039830025,-0.04341425,-0.12995018,0.075058945,0.14231074,-0.050642878,-0.07717764,-0.301137,-0.11528958,0.027323497,-0.0037419165,0.06521234,-0.08200878,0.05802883,0.073567115,0.0076024393,-0.246516,0.16798063,-0.07343542,0.17586806,-0.15611531,0.17828031,-0.034615714,0.038936798,-0.040762413,0.03788646,0.08996894,0.14145173,0.012275588,0.07108763,-0.034767065,0.0303345,-0.16075787,0.009725546,-0.272461,-0.013445221,-0.015670251,-0.25237498,-0.41898474,-0.074236944,0.37313703,0.24473214,-0.20929922,-0.018840957,0.23196681,-0.096229315,-0.12096578,-0.39521682,-0.09602908,0.06524758,-0.15091208,-0.019210976,-0.50053996,-0.22924726,-0.03529023,0.0018119569,-0.008155666,-0.19752775,-0.39537615,-0.32110846,-0.14540823,-0.14854477,-0.19832969,-0.015003027,0.0135968095,0.009338232,0.2252467,-0.49690694,0.019022625,0.06821364,0.020106431,-0.011279334,-0.32227358,-0.06494188,-0.036172517,0.017133059,0.011099199,-0.26258686,-0.15016721,0.073523134,-0.2168782,-0.21398652,0.06398011,0.21219562,-0.040807694,0.13242015,0.338203,-0.05899951,-0.29279193,-0.43625972,0.2119043,-0.14986053,-0.123344764,-0.024528181,-0.57926935,0.12478951,0.288291,-0.062387023,-0.046151873,-0.33860046,-0.08576899,-0.09258139,0.10743371,-0.043539003,-0.18953954,-0.26183766,-0.01220359,0.34369,0.055118155,0.003687472,-0.021898678,0.3116037,-0.18942645,-0.16584034,-0.10995532,0.027571931,0.1419128,-0.13632615,-0.08004959,-0.00925498,-0.06242298,0.004425275,0.20268555,-0.08994677,0.02072562,0.29899052,0.23247042,-0.049379162,0.06617698,-0.021688316,-0.043774948,0.12885924,0.1140454,-0.33679765,0.052654877,-0.019031918,-0.090812124,0.21608974,0.026555013,0.17296329,-0.086800046,0.042078197,-0.20759986,-0.1280496,0.09654931,-0.31740707,-0.08739242,-0.37207645,0.1822887,-0.086929694,0.21002686,0.030794464,-0.029343646,0.03408137,-0.2528933,-0.2877215,0.109349966,0.08980798,0.024203695,-0.019798327,0.044430982,-0.013414169,0.21890955,0.11948458,-0.025496,0.089108504,-0.25281414,-0.10087437,0.013027504,-0.07809664,-0.05796866,0.3074342,0.30838162,0.02386322,0.0048247636,0.12150019,0.30651924,-0.033141285,0.045308217,0.017795864,0.17893226,-0.27146196,0.37537837,-0.015105144,0.0037138266,-0.22374202,0.080738306,-0.24148375,0.020552088,0.067612536,0.20966704,-0.21654966,0.052663073,0.056839626,-0.2315042,0.16950941,-0.12565058,0.07757081,-0.10917835,-0.1135494,0.06135022,-0.055517953,0.040724766,0.38655064,-0.07083137,0.3085486,0.21915297,0.2731871,0.2407409,0.14553767,-0.063393086,0.06193355,-0.035414193,0.10162011,0.17044851,-0.05123541,-0.1543169,-0.0645007,0.13568994,0.45618916,-0.4115117,-0.016262298,0.113433994,-0.22141913,-0.047678534,0.0018463995,-0.10431406,0.17536123,0.15514795,0.16451934,-0.1034693,-0.10045204,0.17810982,-0.03091507,-0.18583304,-0.107220925,-0.17728747,0.02541576,-0.116268545,-0.011296293,0.24384987,0.22676018,0.28341264,-0.059857685,-0.109917425,-0.07777329,0.072819635,0.017771315,-0.0871343,0.032960787,-0.104514405,-0.3614353,0.34761342,-0.37717876,-0.18435478,-0.016275654,-0.24289075,-0.19133836,-0.5517099,0.047247555,-0.089243546,0.12623164,0.13023522,-0.28010708,0.15803893,-0.17392649,0.066670075,0.026001846,-0.074316874,0.13929428,-0.16224396,-0.17670278,-0.26042122,0.22379038,-0.037801143,-0.040468358,-0.4736694,0.09175758,-0.31891763,-0.08269341,0.105770156,0.03328402,0.12909457,0.3967756,0.032028954,0.17700006,0.22782144,0.033780582,0.19563185,0.062702805,0.074841775,0.38890204,0.17198212,0.30209434,0.07248407,0.03131834,0.14671445,-0.087575756,-0.027044997,-0.09270439,-0.017209394,-0.06542763,0.005100046,0.008901389,0.2978157,0.0997655,0.5691884,0.01386114,-0.03767958,-0.16403645,0.21909021,0.057243746,0.022106385,0.2507783,0.17085958,-0.57884616,0.21097292,-0.30292848,-0.023706451,0.23169269,0.1738297,-0.0741331,-0.037525974,-0.0016700802,0.21079169,-0.19975711,0.051940817,-0.16803066,-0.0238689,-0.101230025,-0.07770322,-0.06033449,-0.046079855,-0.08102644,0.14369519,-0.124040745,-0.11294323,0.20310786,-0.04429629,-0.0632739,-0.29923764,0.12925833,-0.11405188,-0.021658568,0.10013823,0.11744314,-0.1467524,0.017820127,0.2516543,0.06447988,0.046510227,0.14587006,-0.011957559,0.039703324,-0.07953812,0.17027442,0.028428484,0.09891578,0.2988942,-0.058080383,0.12275763,-0.07877576,0.064855576,-0.09564698,0.013057392,0.042520694,-0.03915207,-0.03819379,-0.018755095,0.30056685,0.18113163,-0.08978369,-0.1567927,0.21149226,0.017604018,0.060366604,0.06300212,0.108946376,0.14304866,-0.013461576,0.1730839,-0.024121877,-0.16630247,0.18455568,0.00028263277,0.059060775,0.043462634,0.12246018,-0.19301204,0.050348915,0.0910448,-0.11343384,0.04614253,-0.21158922,-0.06837844,-0.08570721,-0.12124997,0.14924859,-0.15693949,-0.0067405165,-0.020257592,0.067872986,0.07510996,0.055708,-0.06283095,-0.03049595,0.0058167083,-0.0023376513,-0.039510015,-0.0571586,0.009716004,-0.110191606,-0.02411649,0.05263581,0.059113786,0.16026586,0.0065493095,0.0023896634,0.04369239,0.12502879,-0.006975083,0.21578303,-0.06694532,0.05415546,0.14764485,-0.026969507,0.2935797,-0.10658728,-0.11881949,-0.020441428,0.12990144,-0.21691558,-0.067003205,0.16884615,0.13367796,0.0148904985,-0.20268245,0.18526098,0.108617894,-0.009666103,0.0042065927,0.27113292,0.03643795,0.19468153,-0.14057496,0.13228402,-0.09144466,0.014349097,-0.18540193,0.01849168,-0.063000426,-0.060656905,-0.13890618,-0.21444729,-0.0572543,0.029325252,-0.215143,-0.17561586,-0.07951368,-0.10104661,-0.008490683,0.16583252,-0.09459974,-0.22786544,0.06593375,0.06829494,-0.025707029,-0.07823428,0.06897204,-0.18637675,-0.03348757,-0.060603175,-0.053545844,0.04214639,-0.019338217,0.03857479,-0.25685844,-0.031376984,0.08837856,0.12899464,0.08076618,-0.004144904,-0.03510451,-0.36641312,-0.2845974,0.080721326,0.030256327,0.007843731,-0.30306527,-0.043925226,-0.1465944,0.18265808,0.2790999,0.0329044,-0.108650215,0.046282157,0.16823338,-0.3012879,-0.116813764,-0.06813815,0.43644348,-0.23898791,0.02426924,-0.051781125,0.012840456,0.11652232,-0.13063186,-0.03550732,-0.2860805,0.2846332,0.0031963855,0.12205203,0.29944515,-0.103715144,0.09938837,0.072889395,0.12133219,0.053246498,-0.13898447,0.29728943,-0.02282658,0.2990982,-0.08028485,-0.19974685,-0.04054286,-0.15440662,0.30189547,0.35768536,0.36748025,-0.35788482,-0.0337803,-0.05868229,-0.09738974,-0.08045118,0.083197154,0.010615519,-0.2093123,0.12516993,0.049770884,0.18814191,0.06390866,0.040015582,-0.12395433,-0.2778509,-0.16849375,0.04467912,0.074299455,-0.120909296,0.01365263,-0.072046734,0.22074008,-0.06434936,0.039918423,0.116573095,0.15880905,-0.06394896,-0.08623891,-0.00228594,0.0072651627,-0.028372457,0.024503723,0.044261575,-0.012929666,0.068388276,-0.022222385,0.17275502,0.120579906,-0.0909584,0.0366477,0.05522036,0.12834437,0.30799395,-0.15885715,0.16992046,-0.024832176,0.118462846,-0.32416764,0.13021243,0.2659633,0.13896945,-0.089766346,0.20172864,0.036648747,0.18815592,0.014299718,0.1529631,-0.072429694,0.11654386,0.020139426,0.2257985,0.21197909,0.31644216,0.033303957,0.09230671,0.0050290395,0.20263869,0.20752229,0.0004538368,0.05667598,0.007150866,-0.1789852,-0.11087664,0.13851927,0.08388618,0.017202787,0.04022882,0.07957024,-0.010383905,0.06914763,-0.057836674,0.02469237,-0.73412824,0.05424319,-0.34802976,0.12675461,0.06393516,-0.15458569,-0.030655567,-0.114414014,0.25831294,0.13845392,0.04243284,-0.15738854,0.16586187,0.045726683,-0.4723312,-0.47485998,-0.101046555,0.3273169,-0.3154051,-0.10120011,-0.049672585,-0.049640775,0.01200998,-0.11288422,0.14849168,-0.39508063,0.60653836,0.23900397,0.12354555,0.041082766,0.09158914,0.25299338,0.031887617,0.10587608,-0.034558207,-0.34830174,0.14090529,-0.10880681,0.40751374,-0.013655956,-0.07301366,-0.018483942,-0.26937467,0.012867162,0.28977296,0.3142754,-0.8920481,0.03149108,0.05380566,0.23719262,0.14045383,0.3206291,-0.047514852,-0.058459677,0.078364454,-0.08657687,-0.09131247,0.045825433,-0.0050456026,0.058867864,-0.4091737,-0.15602364,-0.060579695,-0.035728157,0.20529523,-0.15923838,0.2822366,-0.06850139,0.012531113,0.020639598,-0.05939107,0.06278022,0.1326702,0.27662072,0.037705917,0.19361304,0.02493647,0.06585612,0.13027695,0.102989376,-0.0820981,0.09066976,0.17741778,0.27053642,-0.028503237,-0.06503033,-0.2056146,0.27375364,-0.17566957,0.06724353,0.24722405,0.1335356,-0.12701531,-0.14052185,0.106204525,-0.015454093,0.20836128,-0.13952748,-0.088350475,0.34219643,-0.022851894,0.15247901,-0.20221274,0.05467122,0.22571765,0.029487459,0.5258137,0.09991924,0.1355089,0.024351021,0.3261392,-0.079225324,-0.06029087,0.063270964,-0.35895395,0.06567689,-0.09604967,0.17689326,-0.056463815,-0.13364531,0.21641414,-0.38001207,0.041002665,0.009759845,0.024530586,-0.12550154,-0.049780563,-0.026295358,-0.10800431,-0.25689116,-0.07017543,0.016655285,0.029859383,-0.1035188,-0.11766456,-0.121958815,0.18425113,0.1536254,0.04383505,-0.018867886,-0.068500035,0.07159155,-0.064168446,-0.062316936,-0.066962324,-0.027695881,-0.012129078,-0.093798414,-0.07979286,-0.013721205,0.17942517,-0.060557097,-0.1888382,-0.0193374,0.10632107,-0.13336839,-0.09614468,0.11587377,-0.013798877,0.08522632,0.15416418,0.231157,0.00077654875,-0.1390287,0.017848702,-0.1026375,0.06054143,-0.089805044,-0.13932973,0.05521255,0.08917606,0.052772816,-0.075676255,0.10023993,-0.05717901,0.025775459,-0.023314282,-0.20101602,-0.12063505,-0.11599743,0.041552365,-0.13571607,0.10346275,-0.06109194,0.11968554,-0.0030607844,0.14402284,0.1412285,-0.22017004,-0.14544232,-0.043780793,-0.21843842,0.122383006,-0.28527927,-0.045787346,-0.026467232,0.07368634,-0.020246122,-0.16908449,0.0130674755,0.12756346,0.025994886,0.031693958,0.1835674,-0.12192118,-0.049416397,-0.019772978,-0.058648635,-0.076038264,-0.1780163,0.08976557,-0.18882768,-0.016441325,-0.07166881,-0.026614567,-0.05129085,0.21290128,-0.06386428,-0.094931066,-0.39624014,0.10650103,0.3036855,-0.15413211,0.0703639,-0.06896992,0.15886784,-0.042070802,-0.042102925,-0.15278195,-0.2563882,-0.12404723,0.022383796,-0.10176774,-0.04906799,0.064586684,0.06501287,0.21972905,0.04347514,0.08970867,-0.06868559,0.21001434,-0.15235317,-0.09565745,0.14017951,0.028515292,0.11954393,-0.11937712,-0.27076226,-0.12600355,0.064433455,0.18253739,-0.22037087,0.20813529,-0.058186695,-0.04074167,0.25394356,-0.15874147,0.022045055,-0.15404138,-0.017708175,-0.037236318,0.07177277,0.06084977,0.35398757,-0.15684083,-0.13803537,-0.08586629,0.11144009,-0.15333183,-0.017757641,-0.17810442,0.017030919,0.010406223,-0.042056423,0.11363766,-0.27501255,-0.015141463,-0.090109974,0.2172116,-0.23068044,0.06293158,-0.10307154,0.1373412,0.010508978,0.36194837,-0.0027969046,0.13294502,0.11534047,0.18496981,0.09114254,0.14262682,-0.20178299,0.15533732,-0.10921133,-0.028553858,-0.068823755,-0.08798412,-0.0030542796,-0.08665715,0.0630716,0.028380051,-0.037695985,-0.22703822,-0.06880155,0.17916633,0.09046227,-0.0036474285,0.06718531,0.004204113,-0.15679282,0.16421151,-0.028006775,0.13547838,0.009601532,0.05010253,0.20119606,0.039793156,0.016054545,-0.05048624,-0.16456327,0.050558724,0.16956785,-0.13771607,0.04476175,0.070521064,0.12852201,0.252524,0.16152185,-0.13579226,-0.030057197,-0.06956187,0.026282424,-0.49368924,-0.061810564,0.101417206,0.05542373,-0.07539274,-0.39345273,0.09374726,-0.07312038,0.027656514,0.07401538,-0.01272789,-0.07973426,0.23904309,0.17141159,-0.13863736,-0.101634525,-0.031506494,-0.30338487,0.19798471,0.15788594,-0.12087329,0.11937847,0.15468708,-0.08688858,0.012514282,-0.033246912,-0.037109338,-0.031392436,-0.260716,0.04846056,-0.029953837,-0.03477233,-0.0010765838,-0.14369284,0.0019026449,-0.029301254,0.14751226,-0.13536595,0.12528598,0.06058924,0.07664691,-0.13914658,0.021391552,0.16639863,-0.11287042,0.033017796,-0.10247999,-0.0067446725,0.110731825,-0.060002174,-0.073937245,0.15073512,-0.052046333,0.12692712,-0.20462641,0.033552468,0.025005424,0.14868386,0.04461768,0.13161711,-0.0124217,-0.2114598,-0.11343201,0.36121884,0.0148485135,-0.04360482,-0.23492116,-0.24773043,-0.09114372,-0.021263061,0.21429156,-0.17555447,-0.042149764,-0.07854291,-0.054572944,0.0032192648,0.37918946,0.0716945,-0.057320934,-0.10905049,0.10386299,0.12138142,0.21537463,0.27859455,-0.07757997,0.01827886,0.28970888,-0.069018446,0.09972308,0.096842825,-0.05599359,-0.08171003,0.18529347,0.04146048,0.012136213,-0.028551416,0.20772348,0.022560263,0.052463513,-0.06757776,0.21570389,0.21579164,0.07296576,-0.06395612,0.06778548,0.032291405,0.015446707,0.1268258,-0.17429368,0.18249196,0.06901725,-0.16025423,0.20398854,-0.1333839,-0.0142244585,0.046150878,-0.15832847,0.21103291,0.031331398,0.13912247,0.022191355,0.1536563,-0.040317606,0.032018956,-0.042326614,-0.2241895,0.05097748,0.025691045,0.055040292,-0.106873535,0.16415128,0.025927605,-0.006433421,-0.041953687,0.1717077,-0.17444927,0.06227794,-0.000268121,0.20970823,-0.047573857,-0.02189036,0.014175867,0.13478217,0.0016702028,0.17022529,-0.3035692,0.18233538,0.08255251,0.14544986,0.024612058,-0.15996945,0.01858515,0.08747152,-0.1583667,0.068348184,0.046669133,-0.05597683,-0.039520063,-0.14922808,-0.17793041,-0.018779185,0.002374746,-0.050571,0.04702798,0.05370243,0.33224228,0.13391753,0.008939211,-0.035116427,-0.08033108,0.006582261,-0.03639028,-0.28298017,0.08347442,0.03881931,0.1278813,0.028871361,0.08592899,-0.02322964,-0.14994623,0.16397086,-0.29040697,0.095966786,-0.05140116,0.062059466,-0.05026921,-0.24258474,0.26980752,-0.0045148707,-0.057858106,-0.098901466,0.26938903,-0.019423496,-0.22485122,-0.02122327,-0.020870484,-0.0041444865,-0.21571188,0.21462882,0.056320444,-0.093372546,0.013356319,-0.055477977,0.17832944,-0.25285608,0.06883331,0.09234353,-0.056463927,0.020354418,0.075342424,0.14766228,-0.10115639,0.11278391,-0.21141174,-0.06249962,0.06493743,0.122271694,-0.03907031,-0.28818727,-0.092830084,0.018661648,0.07328158,0.23898475,0.0563503,-0.0963059,0.0935213,0.32935596,0.01812903,0.080873325,-0.04740352,-0.25856626,0.036143586,0.05451261,-0.05166588,-0.17193675,-0.17006403,0.03296933,-0.2345486,-0.16703776,0.01327207,0.038306568,-0.077745326,0.004016101,-0.15567753,0.2875196,-0.07353877,0.0884592,-0.207194,-0.075222954,-0.06812545,0.11517044,-0.2406428,-0.21393181,0.17095727,-3.656035e-05,-0.03674971,0.2086802,0.079805166,-0.05638123,0.2413445,-0.014067624,0.0118528865,-0.3332667,0.33233246,-0.0014138706,-0.072378255,-0.18051992,-0.15286389,-0.4908913,-0.2459986,0.19382879,0.09187581,-0.039410345,0.036924098,0.05222787,-0.44190276,-0.059361525,-0.11861619,-0.17247143,0.012851535,0.23532632,0.090438865,-0.014716605,-0.0125913825,-0.16876453,-0.075717695,0.23788354,0.1153266,-0.2381317,0.2462219,0.24765804,-0.09278114,-0.14808348,-0.34546494,0.018741628,0.05637423,0.053874727,0.25087237,-0.08131323,0.033501495,0.20503709,-0.2668935,-0.22120966,-0.21152408,-0.0081955325,-0.15652744,0.041176513,-0.09044131,0.36883792,-0.023929825,-0.04915206,-0.026182443,-0.061591804,0.077873126,0.11743205,0.14449213,-0.278659,-0.22475699,0.020079179,0.13752475,-0.033894323,0.03216434,0.08083763,0.052000638,0.06748564,-0.20137727,0.14402197,-0.05647086,0.056937266,0.0037033202,-0.10483211,0.027577072,0.088569626,0.13468178,-0.42178047,-0.109201446,0.16581826,0.09244149,-0.12112956,-0.1941323,-0.04041209,-0.07260993,0.21671622,0.3149097,-0.1093944,0.02306827,-0.17394875,-0.061463453,0.0002977653,0.05357481,-0.039076388,-0.014452299,-0.049508672,-0.0761422,0.07755804,0.07359033,0.14741898,-0.062121168,-0.1143767,-0.25922582,-0.062780164,-0.17433548,-0.09487036,0.048289545,-0.105687305,0.032009996,0.035825294,-0.06766885,0.36938244,0.08763631,-0.044538274,0.018357089,0.06999755,0.038600616,0.0073145786,0.09805855,-0.09464037,0.17163803,0.17192885,-0.035870016,-0.030590067,-0.05971273,-0.09948281,-0.058274947,-0.2025107,0.055689283,0.013904139,0.06216062,-0.026760787,-0.09403589,-0.11126471,0.05504832,0.036951907,0.030367425,-0.016877068,-0.0225545,0.04078053,0.024087265,-0.1404947,-0.07551999,-0.1968613,-0.16005819,0.07759982,0.029611316,0.0829073,0.0623732,0.07528186,0.059860513,0.031051291,-0.04258176,0.122135766,-0.035971284,0.036386225,-0.07707089,0.060983263,0.036415912,0.1483994,-0.16201939,0.014976469,-0.070699304,0.08836021,-0.0047712554,0.00987465,-0.17151205,-0.06235552,0.032267455,-0.02750281,0.2620549,0.14171493,-0.11454805,0.14967787,0.054814633,0.046500694,0.09355497,-0.07196275,-0.025648061,-0.073275775,-0.08016966,0.0523791,-0.25003055,-0.032219116,-0.055647783,-0.09673977,-0.30144307,0.10749355,0.2629587,-0.016820854,-0.15512449,-0.08503352,0.28762367,-0.1245557,0.03808388,0.034366652,-0.06452112,-0.3207137,0.21840617,0.06488196,-0.098845996,-0.16553676,-0.11971412,-0.15687592,0.048422057,0.095814966,0.033892788,-0.1787327,0.09261546,-0.06430759,-0.1732878,-0.0019939665,0.21905945,-0.12803507,-0.02982015,-0.012762023,0.12082671,0.13306549,-0.019647893,-0.018231936,-0.08870355,0.116405465,0.09228344,0.04648439,-0.025580792,0.062069066,0.0535657,-0.0466487,-0.2718534,0.13239472,0.2409394,-0.019344874,0.06574312,-0.054873735,-0.001159809,0.10562404,-0.121835455,0.222404,-0.03237993,-0.20914459,-0.02371421,0.040556695,0.08443756,-0.35288206,0.06146282,-0.2430013,0.06106354,-0.05428841,-0.12259368,-0.03252209,-0.13789475,-0.08260064,0.11147358,0.0019148502,-0.22085755,-0.19089052,-0.02622189,-0.00954647,-0.14019094,0.02899067,0.19691809,0.0029445807,-0.1342941,-0.083948866,0.04672128,-0.09191057,-0.04652512,0.06445736,-0.18886985,0.29489294,0.21404374,-0.27746114,-0.31505427,0.2598531,-0.0007034751,0.024096202,-0.08192277,0.049831163,-0.06938443,0.03194888,-0.11821864,0.20522648,0.0027797553,-0.16654809,-0.11087861,0.0899755,-0.00987075,0.19976987,0.15666765,-0.23772328,-0.106912,0.06365391,0.17810112,0.22237982,-0.047603503,-0.10862012,-0.27440977,0.09623318,0.07054349,-0.022104716,-0.21194734,-0.14643925,-0.027255453,-0.36800176,-0.09827309,0.06370299,0.091649026,0.12645221,0.3107781,-0.07604683,0.050120514,-0.09103726,0.20861773,0.21073946,0.14613876,-0.11726824,-0.12652741,0.007217592,-0.14653519,-0.2035446,-0.07106167,0.009632065,0.04584318,-0.02885545,-0.34871033,-0.2656385,-0.20528965,0.07003102,-0.08298571,0.18818457,-0.15282986,-0.009032318,-0.111231826,-0.24472588,-0.033780564,0.2738209,-0.02838509,0.16976187,0.11066849,-0.06032706,-0.18925384,0.067557506,-0.047414087,0.07103008,-0.43756053,-0.09697136,0.058065347,-0.16948721,-0.09207192,-0.3734864,-0.050406586,-0.23674805,-0.25037315,-0.19569406,0.014579511,0.22415747,-0.15177317,0.280534,-0.06461006,0.06941631,-0.477292,0.03963373,0.2403606,-0.2643751,0.043636,-0.022007056,0.114723094,0.22428328,0.32662368,0.040433392,-0.061689377,0.25943044,-0.42413902,0.3510407,-0.052733812,-0.014156917,-0.25415376,-0.011943435,0.12734509,0.13995114,0.10271115,-0.096812434,0.13432398,0.23057687,0.082462706,-0.09840125,0.21160986,0.0075788037,0.10502481,-0.16167608,0.1239398,0.045397665,-0.059705265,0.12195348,0.08161765,-0.04869544,0.015067362,0.16833556,-0.29515815,0.086393796,0.45454893,-0.10102043,-0.021314103,0.073329866,0.124233715,-0.040620986,0.12237595,-0.025050782,0.16205797,-0.19554013,-0.047879443,-0.05177396,-0.00013893761,0.051489018,-0.043289255,-0.01574321,0.22277455,0.22599594,0.052667987,-0.2834125,-0.17813104,-0.4136772,0.0063300896,0.004225263,0.37417868,-0.13228837,-0.16694342,0.07962207,0.21370967,-0.039164867,-0.03339433,0.24927329,-0.2113353,-0.0055143693,0.09911368,0.22246489,0.13171826,0.05382913,-0.023996169,0.032382496,0.23305726,-0.030061621,0.12898438,-0.40048233,0.026226219,0.06584122,-0.00893571,-0.016582934,-0.049254138,0.022183659,0.13575578,0.0069003482,-0.27054045,-0.031501353,0.18391314,0.019480793,0.04479738,-0.016971944,-0.042866066,-0.21806744,0.11556086,-0.13847871,0.068107985,0.029273028,-0.13459848,0.25100276,-0.28385586,0.009434508,-0.10787694,-0.103290275,-0.07355498,-0.037950862,0.02378526,-0.12803067,-0.020204535,-0.089780316,-0.040406685,0.31976193,-0.062381137,-0.14675981,0.030852772,0.31154832,-0.05727604,0.18109947,-0.021450952,0.14503859,-0.041585997,0.045202136,-0.10098033,-0.009388026,0.020682316,-0.032972265,-0.0998347,-0.12341868,-0.015402303,0.09202901,0.08904363,0.003559017,0.046639968,0.1949931,0.18368903,-0.03215201,0.03063549,0.002538687,0.10631164,0.22661595,-0.010548207,-0.18580757,-0.3361396,0.054170165,0.030766565,-0.20301463,0.10937703,0.27077818,0.32833004,-0.034873392,-0.15248841,0.1796598,-0.2712277,0.033802066,0.024767721,0.14583144,0.11914365,0.07090516,0.26176313,-0.33966595,-0.21432778,-0.08864684,-0.2590211,-0.115844674,-0.08977817,-0.013303871,-0.2776759,0.14261657,0.32437947,-0.19005206,0.042283766,-0.08775324,-0.057403494,0.14442204,-0.05027219,-0.24709673,-0.21557061,-0.20970906,-0.16666916,0.06651859,-0.07161471,0.024563912,0.25212285,0.14033654,-0.4099426,0.058373395,0.010851943,-0.03696638,0.12400186,0.08672711,0.13023323,-0.023086155,0.17613897,0.15094195,0.39743397,0.031861812,0.25965917,-0.28910783,-0.032690354,-0.20889933,0.05685867,-0.010472164,-0.0096519375,0.12937313,0.094230585,0.0597298,-0.11971807,0.006789428,-0.07947449,0.21268816,-0.020833246,-0.4357924,-0.26684085,0.06244478,0.044913787,-0.0067011793,-0.15455817,0.032026175,-0.059513897,0.026150892,-0.12830408,0.18180574,-0.17674072,-0.0039230427,0.10274,0.088479385,0.042841755,0.28594536,0.22061004,-0.003417745,0.020852694,0.19975172,-0.022619264,-0.0023063184,-0.059359558,0.10940145,0.03147992,0.18137822,-0.0823153,-0.074407905,-0.049127232,0.14005122,0.052295312,-0.19897294,-0.04671206,0.20733874,0.22877854,0.104627125,0.16675788,0.050848417,-0.07723428,0.07084364,0.06753289,-0.14986736,-0.0929547,0.074778855,0.08963818,-0.040136505,0.14814469,-0.021106299,0.2537341,0.07596546,0.32767338,-0.11384608,0.052641988,-0.068077795,0.15385519,0.19112204,0.12950672,-0.013879764,0.01998611,0.016580995,0.05189481,0.050381266,-0.0910446,-0.140245,0.08622417,-0.032350946,0.05360912,-0.026259076,0.032874487,-0.016307063,-0.08287651,0.016115587,-0.09393658,0.2053324,-0.14730674,0.08519491,0.11067992,-0.0048070797,0.03289971,0.19104677,0.11960961,-0.10173425,-0.0032870849,-0.009531507,-0.10617182,0.058698732,-0.018684769,-0.09902516,-0.051460557,-0.025819259,0.018629376,-0.15180239,-0.041201454,-0.05254517,0.06139376,-0.14124511,0.0696542,0.1978413,-0.064211994,0.25822935,0.11388813,0.029835004,0.019670658,0.05098248,0.20899606,-0.029841213,0.01656889,-0.09801154,-0.117266625,0.051863234,0.15600948,-0.027704455,0.18744905,-0.027887437,0.04439435,0.08247406,0.069126196,0.07261618,0.0067888405,0.20630741,-0.14077473,0.11620284,-0.06067323,-0.07786963,-0.18564163,0.28739986,-0.015064167,-0.1371817,-0.033354577,0.076489255,0.38338703,-0.30412415,-0.1266293,0.022756344,-0.050820295,0.13838011,0.0024592928,-0.13272282,-0.27287105,-0.018656388,0.090182096,0.05899463,0.03513509,0.0051393383,0.03720882,0.1546296,-0.1692092,-0.0015531076,0.034584068,0.21873547,0.12483173,-0.002629602,0.0114084445,0.0665544,-0.009346468,-0.23412265,0.15882999,-0.03227681,0.080221534,-0.16596352,-0.054074652,0.028778601,0.05904757,-0.003804467,0.0013530776,-0.039383117,-0.41030332,0.18436143,0.061582193,0.008798418,0.06427699,0.22086518,0.22287574,-0.14390437,0.0727941,-0.009372448,0.20548804,0.17649893,0.055984404,0.081562355,0.0369376,0.071477234,0.098548196,-0.054008786,0.07796745,-0.053084448,-0.22434641,0.028823765,0.008759299,-0.09797279,-0.1059231,-0.19521081,0.0055106855,-0.025722828,-0.17899483,0.14039181,-0.29972884,0.04220118,0.002271224,0.12022601,-0.0077307126,-0.004096088,-0.035805948,-0.14853932,0.013421962,0.1267606,-0.13285793,0.06948704,-0.012849126,-0.059436463,-0.21359986,0.15454626,0.058714285,-0.0066971923,-0.13338415,-0.2044789,0.04832374,0.0156243695,-0.044966865,-0.061292995,-0.17679325,-0.1511998,-0.31589493,0.093174234,0.06129661,0.2528898,-0.027372094,0.040892877,-0.13460776,0.010363594,0.045110624,-0.06534483,0.03937031,-0.1193807,0.076826975,0.2388755,-0.08547074,0.30529737,0.16565162,0.048268706,-0.12547292,0.19081087,0.10059597,0.13084975,0.036783636,-0.0035328728,0.0883982,-0.009057819,-0.05910903,-0.004717488,0.10978767,0.047066588,-0.14689115,-0.09650404,0.13220951,0.098991856,0.062098786,-0.10667113,-0.089689456,-0.08995271,0.11126248,-0.049493376,-0.095937975,-0.040223494,0.015668537,-0.26967365,0.07907969,-0.057844914,0.04974564,0.11989991,-0.038981333,-0.13381407,-0.002701044,-0.007059874,0.123657055,-0.031230044,-0.019519279,-0.0828966,-0.04815063,0.009716222,-0.07662307,-0.0053585107,-0.068547964,0.10858051,0.09479544,0.14807393,-0.09153619,-0.0038190105,-0.05011104,0.17304842,-0.30358496,0.05525294,0.0010070227,-0.029616084,0.08630879,-0.040072538,0.022568066,0.1517393,-0.021166958,0.108232945,-0.050609358,-0.0015109832,-0.06411589,0.04920083,-0.23756911,0.10031977,0.1076721,-0.21463607,-0.33286026,-0.078904346,0.16123626,0.28472972,-0.110335365,-0.06019284,0.0966267,0.06186126,-0.048784442,-0.13730778,0.11340228,0.042357776,-0.041465376,-0.025544265,-0.25469562,-0.27222267,-0.01078788,0.032795183,-0.0049909092,-0.2082872,-0.47287053,-0.18486314,-0.07867045,-0.07030274,-0.2502282,0.041797157,0.021920444,0.10431465,0.123192295,-0.3319065,0.10225422,-0.1711553,0.20717554,-0.07597094,-0.12914234,0.0788497,-0.0903881,0.1061046,0.0072831796,-0.28979322,-0.09379834,-0.015557771,-0.047879074,-0.118272364,-0.01690498,0.22225536,0.02284951,0.1530434,0.16212785,0.010422789,-0.20616183,-0.395934,0.27660054,-0.054435093,-0.099620245,0.08814024,-0.64199203,0.15067485,0.057990003,-0.056741625,-0.09255395,-0.29477564,-0.017208926,-0.1620942,0.026842725,-0.020745419,-0.12803337,-0.18583785,-0.24847631,0.2891746,-0.04547857,-0.08803892,0.016094178,0.22130013,-0.01751234,-0.16735668,-0.10163648,-0.054129284,0.23938844,-0.038706798,0.053997837,0.056966364,-0.052006222,-0.026909126,0.11734873,-0.021052511,-0.15043107,0.18483077,0.058056492,0.05072036,-0.100245096,-0.2300766,-0.07416362,-0.005333766,0.10456845,-0.17693967,-0.004653534,0.12344394,-0.15123908,0.096926175,-0.018353606,0.075227134,-0.05202664,-0.00032894034,-0.20734712,0.076648496,0.14001173,-0.22397238,-0.066949904,-0.13082483,0.08390767,0.0034840778,0.085933745,0.05725646,0.045606732,0.1612448,-0.28177357,-0.1275456,0.110747606,0.11206386,0.09001264,0.019467095,0.005031478,0.012740559,0.2185782,-0.009075255,-0.08837723,0.044530697,-0.17500563,-0.08904578,-0.02169463,-0.07386384,-0.13982578,0.17664622,0.34338224,-0.06491214,-0.048914652,0.06707121,0.23737499,0.08968932,0.16879506,0.03395424,0.10168738,-0.15220663,0.37279072,-0.047427822,-0.07409398,-0.17629303,0.037934817,-0.21130529,0.025989972,0.017272724,0.08674149,-0.13657093,0.059538573,-0.10636949,-0.034110516,0.0422187,0.038968246,0.13693775,-0.20104931,-0.09067404,0.13052246,0.0701917,0.022494333,0.22945845,-0.05591451,0.29452068,0.26069483,0.2842228,0.05028834,0.16699806,0.043525025,0.22158033,-0.1438783,0.065969996,-0.009886269,-0.03689663,-0.116035275,0.009142464,-0.084196374,0.31057128,-0.20359495,-0.08310843,-0.035650168,-0.19837712,0.015950639,-0.00057357486,-0.02404158,0.16973352,0.1601078,0.1406553,0.11366795,-0.103849925,0.1938682,-0.02182784,-0.12566206,-0.064225875,-0.20576945,-0.020361403,-0.12324645,-0.05997711,0.16084243,0.040622074,0.15456337,0.008188967,-0.07035931,0.009240519,-0.07066801,0.020000596,-0.061268803,0.018719839,0.09668682,-0.313684,0.24553889,-0.30889738,0.06651388,0.05941628,-0.19248016,-0.0456838,-0.30567047,0.047506407,0.050225113,0.09508205,0.11006128,-0.14854054,0.15449952,-0.13014534,-0.020308187,0.063428424,-0.06281404,-0.09503378,0.020852175,-0.11217373,-0.11024809,0.05650112,0.049514294,-0.033520713,-0.30371514,0.06746889,-0.23164012,-0.04771301,0.07601229,0.0014189988,-0.04750223,0.22306632,0.08271535,0.15948263,0.25375786,-0.029275382,0.07348181,-0.12905549,0.018229475,0.24246712,0.08529689,0.31000564,0.0642255,0.01930706,0.11486844,0.048586212,0.0047580767,0.118246846,-0.008941919,0.0058395173,-0.0106322225,-0.08607912,0.222131,0.055750232,0.30464593,0.06471344,-0.07279613,-0.07403083,0.06670403,-0.02029067,-0.015233073,0.19493203,-0.023015967,-0.5095812,0.15839921,-0.07018151,-0.0004713742,0.10464838,0.20376171,0.021605318,0.025335379,0.082034424,0.0832961,-0.17388523,-0.0303696,-0.21321476,-0.045712374,-0.12347299,0.06776331,0.024388684,0.07155164,0.072324365,0.13492301,-0.22717232,0.050325885,0.10363475,0.026510034,-0.10856384,-0.24011537,0.06049059,0.04647022,0.010554724,0.11398191,0.034581255,0.0021275824,0.08481532,0.059132773,0.16661738,0.10201397,0.054465786,0.061242465,-0.015152501,-0.13783416,0.20525084,0.053358655,0.066300526,0.09709116,0.018889533,0.07688965,-0.117293224,0.10836107,0.0712404,-0.09208412,-0.032527734,-0.006492109,-0.094262995,-0.04258893,0.26865035,0.13708775,0.03976512,-0.21051636,0.19438794,0.060039494,0.05459027,-0.018090196,-0.0036702892,0.18794733,-0.07960358,0.3193902,-0.21174411,-0.103264116,0.05075683,-0.03427827,0.05119698,0.00875166,0.15117459,-0.14809631,0.046728883,0.16940892,-0.11319348,0.090610966,-0.28942642,0.05819058,0.035303645,-0.03021436,0.12723623,-0.053875625,-0.025687091,-0.048773836,0.14721207,-0.00065644225,0.010420868,0.04313153,-0.115276046,-0.077209465,0.058252368,-0.036279712,-0.043036096,0.0358491,-0.024069166,0.08586568,0.11224714,0.09063534,0.2269851,-0.02022958,-0.016538505,0.08695237,-0.016570862,0.06910135,0.048644908,-0.117108054,0.058885746,-0.026224423,0.1689433,0.30692428,-0.13953707,-0.010216742,0.059559062,0.18820122,0.031577017,0.054727014,0.014572463,0.0827533,-0.08268385,-0.060977973,0.09692737,0.097417094,0.01374354,0.057107754,0.22611815,0.024161527,0.12558216,-0.015650898,0.08368076,0.07925257,-0.017839644,-0.02034638,-0.049778238,-0.1824969,-0.067713596,-0.11909519,-0.26593873,0.05729747,0.18240254,-0.12468392,-0.06590238,0.016643066,0.12905715,-0.07801607,0.0941024,0.015255456,-0.14996672,0.111859,0.18558611,-0.02406666,-0.16537791,0.14216071,-0.088435344,-0.1152126,0.055450346,-0.07273327,-0.08554116,0.07146292,0.079692304,-0.35117278,-0.10307616,0.12571585,0.116938904,0.13347623,-0.016192224,-0.13567956,-0.11428479,-0.19276889,0.038361173,0.08306774,-0.028204588,-0.2880713,-0.035334002,-0.011222029,0.15732767,0.20954567,-0.06610173,-0.08583042,0.027592087,-0.0060772765,-0.0778547,-0.09119475,-0.08921178,0.2256494,-0.34149656,0.06558927,-0.0006871317,-0.06004418,0.22638394,0.04278868,0.0263242,-0.20275912,0.2417437,-0.14515494,0.1389212,0.23678525,0.08484041,0.12592043,0.059472505,0.09585789,0.017153908,-0.11799332,0.15447481,0.05877827,0.2197023,-0.07944367,-0.19557384,-0.040758338,-0.10439225,0.14020522,0.3346444,0.2845402,-0.1589158,0.061635334,-0.13652396,0.037526906,-0.1230525,0.04403515,0.053731468,-0.08477605,0.090269886,0.0023093433,0.19575632,0.14704047,-0.08002322,-0.043607112,-0.0225812,-0.0368112,-0.06868798,0.006124196,-0.016407266,-0.032639477,-0.08595995,0.106832616,0.044954706,-0.051824935,0.042624224,0.18074031,0.08385119,-0.046174295,0.01574751,0.08518321,0.031908702,-0.04552028,-0.0002198215,-0.10581488,-0.08645384,0.0187746,0.1760017,-0.038554292,-0.0293699,-0.04552846,-0.034643862,0.087744065,0.18532701,-0.077469125,0.058018893,-0.008092688,-0.035608668,-0.282321,0.21209416,0.041555814,0.20210956,-0.16847712,0.10332332,0.014437893,0.043470584,0.05671217,-0.050662726,-0.0076341783,0.21543273,-0.014784507,0.17959896,0.008613506,0.21149755,0.017268503,0.0698474,0.021957316,0.14639886,0.123155825,-0.040673297,0.045284405,-0.07299744,-0.046564028,0.0018496332,0.0049033295,0.093987755,-0.12610127,0.02630858,0.022789521,-0.006362026,-0.08578997,-0.061239146,0.1483981,-0.65053797,-0.050335865,-0.16382906,0.21346524,-0.07960089,-0.22031127,-0.07756633,-0.1605908,0.15159564,-0.1669332,0.025319569,-0.2219323,0.010594735,-0.11004424,-0.34469444,-0.33656305,-0.023844043,0.16227266,-0.032349613,-0.10155736,0.04824252,0.04169911,0.024101641,-0.18344261,0.12794267,-0.29658997,0.3077343,0.013951583,0.14012855,0.085413,-0.049909905,0.13720046,0.05155694,-0.041080523,0.042115126,-0.26947635,0.115747325,-0.075896725,0.25864774,-0.11665552,-0.092671916,-0.035895076,-0.26864928,-0.06390114,0.13184099,0.15357919,-0.5766631,0.045660723,-0.038003277,0.21069893,0.11939555,-0.015794044,0.027215857,-0.059044465,0.088627145,0.03215571,-0.09373846,0.19257164,0.06112642,0.08480326,-0.25340787,-0.09402104,-0.07527278,-0.1487219,0.075072,-0.16325475,0.03279412,-0.030020118,0.06505382,-0.14783658,-0.15937577,0.051244352,0.13903669,0.16240822,-0.02150861,0.13545449,0.09848383,0.017302457,0.08440354,0.01964413,-0.08667563,0.09576422,0.118124105,0.12645969,-0.03726087,-0.073176235,-0.12706947,0.28108376,-0.28779274,0.03739644,0.11722861,0.016628267,-0.07741274,-0.039923806,0.049001038,-0.17728263,0.08126988,-0.062069636,-0.046384826,0.30003214,0.12009321,0.1634409,-0.026858142,-0.04129869,0.19293469,0.0789452,0.32283807,-0.012353445,0.04564959,0.08034761,0.27350223,-0.0016584944,-0.21983097,0.013293215,-0.28860897,-0.0005822075,-0.045383956,0.17825875,-0.08906064,-0.086250275,0.12821586,-0.08894837,0.03244688,0.044295404,0.12033725,-0.05384186,-0.1000711,-0.048928373,0.06406155,-0.23515075,-0.09616197,0.020020543,0.0046864417,0.10849094,-0.15856743,-0.011366193,0.081311025,0.1615334,0.0049440046,-0.09966056,-0.11740172,0.052283276,-0.06923404,0.03265375,-0.06768587,-0.106199235,-0.040732626,-0.01760935,0.018051457,0.024700968,0.06861691,0.12890941,-0.20282002,0.09424477,-0.118858516,-0.14777748,-0.056119494,0.15153773,0.07342961,-0.032022174,0.21305977,0.1832868,-0.07219501,-0.009377951,-0.085295364,-0.14518645,0.00021182094,0.04596297,-0.017229948,-0.005321519,0.22194728,-0.0062333015,0.03167142,-0.06543287,0.1557647,0.012131138,-0.0026116937,-0.09375922,-0.1038015,-0.031837463,-0.033319954,0.018997455,0.13330048,-0.17272666,0.12267955,0.04704251,0.12820458,0.14631516,-0.12647459,0.06493479,0.030041216,-0.11554884,-0.19178681,-0.17883655,-0.14303283,-0.053626113,-0.08942982,0.043379214,-0.037056476,0.092824176,0.09200272,-0.06299676,-0.073508434,0.07267218,-0.11470382,-0.0011369102,0.040666096,-0.12066254,-0.057912182,-0.14901833,0.0013821031,-0.28623617,-0.00513914,-0.06502808,-0.019568725,-0.022737587,0.17197236,0.0065081106,0.053853802,-0.2843012,0.09678939,0.074561305,-0.1202384,0.2225721,-0.2177902,0.18806094,0.09293335,-0.14804457,-0.15705402,-0.17277303,-0.018803531,0.0070992387,-0.113842614,-0.08852243,-0.13924201,0.050606184,0.24119817,0.17102553,-0.28008068,-0.059443217,0.019672358,-0.008008602,-0.026646012,0.09815552,0.050708793,0.10249007,-0.07773119,-0.105699316,-0.15934907,0.12597427,0.053095527,-0.06818452,0.14251524,-0.16136844,0.052314874,0.12596257,-0.08600419,0.04356285,-0.13348073,-0.012489526,-0.061342306,0.083637536,-0.028977616,0.032285612,-0.09805042,-0.018073212,-0.08124531,-0.2002019,-0.22124666,-0.07352195,0.004338926,-0.06599828,0.029540118,-0.07672017,-0.014305111,-0.13953474,-0.031263914,-0.027844204,0.041009285,-0.14034641,0.14301327,-0.10870802,0.000389883,0.043239575,-0.11544491,-0.23810591,0.101766,0.014316677,0.26776573,-0.1006734,0.18565957,-0.029016783,0.031581752,-0.16711533,-0.041470848,-0.046055794,-0.06605002,0.0044600475,-0.119863085,0.043740682,0.01608684,-0.035583008,-0.088100605,0.007076515,0.053594127,0.06315664,0.07095778,-0.10931354,-0.061245482,-0.29236633,-0.01459517,0.12979877,0.09792438,-0.23126395,-0.05843305,0.21535997,-0.15514186,0.020093787,-0.008408476,-0.082540244,0.09495523,-0.097811386,-0.11152287,-0.0023801867,-0.03664567,0.07374944,0.03852072,0.116766,-0.056440406,0.08518536,0.015782798,0.21916544,-0.40315634,0.018732008,0.018544542,-0.09748063,-0.070491105,-0.27542204,0.07653252,-0.07577165,0.026314503,-0.02388368,-0.1447783,-0.004542864,0.14093088,0.1514569,0.069920845,-0.044545565,-0.077417105,-0.01967123,0.053561907,0.028239891,-0.14318217,0.081261836,-0.042598873,0.047260296,0.011648049,-0.09270515,-0.06518135,-0.057193417,0.049193222,-0.050717518,0.09804856,0.053033605,-0.11197886,0.02826026,0.041710973,-0.084718935,0.066396415,-0.07816617,-0.13334256,0.1479813,-0.03064073,-0.051000476,-0.09649194,0.024615524,0.022930989,0.041475106,0.027744044,-0.008674187,0.12293393,-0.108524226,-0.079585515,0.017058492,-0.06736541,-0.06558649,-0.26929137,-0.17859308,0.031156475,-0.0012309452,0.09604348,0.18625797,-0.0773927,-0.24007724,0.033227406,0.29465008,0.018884858,-0.19911923,-0.21417163,-0.28636086,-0.04750257,0.017474644,0.09492487,-0.24133132,-0.09670293,0.061245948,-0.13314867,-0.23245764,0.23041877,-0.1200897,-0.052447684,-0.1390229,0.061935082,0.1538311,0.03568557,0.32320088,-0.09429497,-0.20519705,0.2587377,-0.005734697,0.120351695,0.024202641,-0.1084304,-0.08736283,0.09721182,-0.047107745,-0.1512452,-0.14140315,0.08900755,-0.037897933,-0.19394648,-0.026409635,0.14081469,0.23165259,-0.050455824,-0.033027384,-0.04006235,0.029203579,-0.075746045,0.059652362,-0.10836002,0.21830158,0.1584207,-0.2005472,0.23495688,-0.018526493,-0.054845024,0.018879201,-0.24239498,0.16913912,-0.018103633,0.22639939,-0.045853805,0.0045999154,-0.033260465,0.016770883,-0.031285245,-0.22239605,-0.05423094,-0.055067807,0.052662496,-0.019279417,0.06445663,0.016849864,0.05320335,0.004461751,0.10883504,-0.21154054,-0.0051261275,-0.06379037,0.16407727,0.062464245,-0.14430442,0.035983726,-0.046000045,0.0071076476,-0.0070868703,-0.31388792,0.12437473,0.01917814,-0.06131347,-0.0030918375,-0.0162921,0.01632133,-0.14166433,0.030884467,-0.017748294,-0.07218572,0.13853718,-0.045730438,-0.05534826,-0.036458395,0.059819836,-0.11490933,-0.088709734,0.016316233,-0.08656913,0.2460823,0.19225651,-0.06856113,0.059668813,-0.0032520795,0.07910787,0.039721217,-0.19923754,0.04490969,0.016768608,0.11068636,0.03438708,0.023698973,-0.02724105,0.05868342,0.07972346,-0.22325842,0.056385633,0.024697678,0.0050696954,0.032888457,-0.15186797,0.25739396,-0.020336233,0.07567497,-0.015329719,0.15277939,0.0029552486,-0.102824554,0.12365096,0.005709613,0.060396954,-0.1450403,0.058329377,0.08543526,-0.07954877,0.059713975,-0.1700363,0.113142684,-0.2775894,-0.025439236,0.004422019,-0.18553296,0.076617226,-0.0299833,0.14713426,-0.047139198,-0.12291667,-0.26017702,-0.20799173,-0.04725148,0.07307813,-0.16295037,-0.19966324,-0.07413062,-0.16552727,-0.08091357,0.20799044,-0.04989479,-0.095350936,-0.0035165797,0.10775605,0.06187163,-0.07698097,-0.14503308,-0.16323738,0.15378727,-0.09075753,-0.029932175,-0.20221755,0.0067651486,-0.069688834,-0.22005685,-0.07045206,-0.021501971,0.16812156,-0.027264943,-0.047665786,-0.0056388495,0.12734641,-0.1071673,0.012654757,-0.23907639,-0.027504265,-0.09665664,0.059459023,-0.13030474,-0.1843612,0.13507357,-0.01730689,-0.061474085,0.14352405,0.119033486,-0.055570472,0.075052135,-0.038701087,0.18458681,-0.2529607,0.2059074,-0.007727828,-0.028607445,-0.08320256,-0.12401945,-0.2887503,-0.1603672,0.2543514,0.07675579,-0.00017148381,-0.045904502,-0.07132021,-0.27048868,0.048961885,-0.04967061,-0.23770402,-0.10509537,0.24380343,0.02005911,0.026293058,-0.07187209,-0.17289253,-0.005765671,0.12289929,0.05400789,-0.13255487,0.14088394,0.04817573,-0.05902822,-0.13829216,-0.15764081,-0.0920842,0.029047996,0.020562556,0.23047806,-0.17947857,-0.0036326575,0.17905548,-0.1787791,-0.09958894,-0.23082957,-0.01581804,-0.03242499,0.005657136,-0.06956578,0.27403167,-0.045559615,-0.22443189,-0.019215122,-0.057415843,0.12718503,0.04309512,-0.019819034,-0.2963651,-0.1125133,-0.08704948,-4.154929e-05,-0.046446607,0.0639349,0.029611329,-0.0054293056,0.057451725,-0.20649956,-0.020993443,-0.024679918,-0.06897543,0.071466245,-0.10935935,-0.12494398,-0.13611282,0.07221084,-0.42398533,-0.05838188,-0.034833975,-0.047001973,-0.030266568,-0.16172932,-0.025476906,-0.050166853,0.29348746,0.18270952,-0.096250944,0.022389278,-0.05160914,0.006266547,0.049519397,0.05186864,-0.026386943,-0.059175946,-0.12526616,-0.23915303,0.13499933,0.07214644,0.13153271,-0.0068706507,0.012503254,-0.271189,-0.050811127,-0.13521108,-0.13491294,-0.011029266,-0.0041391253,-0.12645188,0.22106051,0.034925018,0.08989672,0.18034649,-0.061740246,0.062085826,0.08132182,0.2010879,0.08035439,-0.031098425,-0.083911076,0.03352701,0.14045836,0.039923962,-0.037694618,0.07339397,0.012347576,0.04146081,-0.07402863,-0.00028509917,-0.03737344,0.1580468,-0.011760707,-0.022054477,0.031477354,-0.112295486,-0.061670355,0.04370103,0.1475605,0.057117756,-0.08989716,-0.03568982,-0.17568928,-0.059325144,0.13467234,0.070721306,0.017258104,0.0027274934,-0.09994317,0.022592101,0.09719642,0.07474256,-0.019589644,-0.014420762,0.09857104,0.016657224,-0.07227003,-0.047201306,0.021153731,0.0814832,-0.0057725115,-0.11405016,0.06949853,-0.09171438,0.1590641,-0.12361894,0.040926643,-0.08311909,-0.023812963,0.009547876,-0.02581893,0.16977312,0.055379547,0.07400325,0.018087909,0.08914046,0.07337577,0.11321647,-0.016780378,-0.10096799,-0.056215085,-0.07264333,0.07874361,-0.3060086,0.0029832427,-0.08288692,0.07594669,-0.11118983,0.06742059,0.17929831,0.07644214,0.04818393,0.026522612,0.22331026,-0.08450086,0.07092461,0.010559467,-0.029665606,-0.26444247,0.11293786,-0.0054576932,-0.04156432,0.0321271,-0.20087802,-0.100734994,0.07728005,0.1981139,-0.07119264,0.013271059,0.20512767,-0.19814065,-0.07827142,-0.03890752,0.058178537,0.086330265,-0.024840387,-0.09217976,0.11798981,0.1372533,-0.025960946,-0.09690555,-0.009372069,0.24252442,0.059583575,-0.096989356,-0.05935849,-0.019904044,-0.0017951735,-0.07497626,-0.25742197,0.11289679,0.15568541,-0.034838386,0.10136911,-0.17846255,0.04673343,0.06041741,0.14333026,0.07124058,-0.08671239,-0.019996589,0.024613302,-0.03218364,0.027198886,-0.13996015,-0.086186245,-0.11850386,0.14027475,-0.09332995,-0.15214793,-0.17662466,-0.06999039,0.1263117,0.12769009,-0.01536346,0.06730856,0.042302497,-0.035562254,0.08884451,-0.250183,0.010179559,0.16173297,0.055082537,0.09381125,-0.07288448,-0.021994904,-0.09961517,0.13100116,0.02265119,-0.105146185,0.3080396,0.21899584,-0.20772061,-0.019912299,0.03069745,0.11065298,-0.0669671,0.1031805,-0.09132681,-0.11418533,0.07008844,0.0035829095,0.17209812,-0.045467563,0.1262938,0.008040539,0.08992608,0.10613322,0.12336372,0.067588836,-0.20429076,0.053309344,-0.18434475,-0.06266936,-0.1907281,0.23780099,-0.003254772,0.119272605,0.025609631,-0.045755453,0.033196095,-0.20047234,-0.098537356,0.09015684,-0.26052532,-0.021321645,-0.058011208,0.22610115,0.13575093,0.13276576,0.011804822,-0.018472172,-0.06755872,0.14264342,-0.08266821,0.038800906,0.08264286,-0.07389996,-0.06099297,-0.012815695,-0.11825556,-0.15358756,-0.03170775,0.18081851,0.017995423,-0.19163446,-0.023221811,-0.08795978,0.06859854,0.04040375,0.09718556,0.08366947,-0.113819525,0.10638002,-0.15183271,0.12437897,0.18650904,0.15673383,-0.025209544,0.008932248,0.08399791,-0.10693827,0.0055949776,-0.00084774516,0.009629178,-0.120269544,-0.042125974,0.015693154,0.17266876,0.0078081447,-0.15590325,0.094727196,-0.15444183,-0.1038139,-0.04170516,-0.046276737,0.14230569,-0.07053928,0.058046017,0.094216995,-0.051344693,-0.47178614,-0.10477889,0.060498465,-0.09167152,-0.18473284,0.17344491,0.28376174,0.046594646,0.2543827,-0.091327585,-0.16255671,0.031846117,-0.298678,0.1637995,-0.29320574,0.03009694,-0.059950415,-0.03465947,-0.01173115,0.008630992,-0.029005826,-0.07642389,0.23755081,0.2430746,0.08874653,0.021754935,0.09981885,0.03315301,0.11853935,0.023836209,-0.031596884,-0.0004207473,0.03245648,-0.13376762,-0.06650756,-0.042909715,-0.0053789658,0.18482603,-0.28895685,0.11851409,0.25852224,-0.071125865,-0.1101597,-0.079352506,0.18752985,-0.22216807,-0.13099955,-0.12695323,0.034920145,-0.13502005,0.0014999376,-0.121400595,0.011563802,0.062817045,-0.013937101,0.051058263,0.09820388,0.11559186,0.012558484,-0.20317405,-0.10428239,-0.28958574,0.030433772,-0.041565996,0.2908036,-0.04993438,-0.07932044,0.038035482,0.2145762,0.030822186,-0.16490948,0.07271784,-0.29141596,-0.012359914,0.0449455,0.09680259,0.19333734,0.09273795,-0.112730235,-0.0017753824,0.2069167,0.058797583,0.10467293,-0.260685,0.014840318,-0.0110037755,0.022137254,-0.12981169,0.096059404,0.104209594,0.020534476,0.04509983,-0.0896731,-0.051140826,0.18272899,-0.05285693,-0.020944115,-0.18694443,0.033927184,-0.16877776,0.1317234,-0.03788398,0.05985381,-0.07828688,-0.14621902,0.0417974,-0.32378668,0.11668655,-0.12560135,-0.081566036,0.012296521,-0.050241772,0.031859037,-0.08468126,-0.020890111,0.08240002,-0.038519945,0.19498156,0.070950866,-0.18536328,-0.042547926,0.26165926,-0.05759884,0.13498656,-0.018904729,0.11978286,-0.039909627,0.014375957,-0.04060414,-0.046418604,0.10385673,0.045896176,-0.19672762,0.10387872,0.048591267,0.038198452,0.006860271,-0.01518329,0.17808136,0.1980039,0.1412186,-0.11726464,-0.02336236,0.02368708,0.15179996,-0.035553314,0.1973365,-0.1314759,-0.36194202,-0.033121515,-0.042485535,-0.25410664,0.0028576686,0.2117816,0.2894923,-0.05820449,-0.14432444,0.16386394,-0.28207663,0.071323626,-0.064800024,0.22253317,0.085741885,0.11657469,0.21377096,-0.41891462,-0.15905091,-0.15423296,-0.18941441,0.09606383,0.10237578,-0.07527464,-0.20493856,0.12067748,0.28446507,-0.12272636,0.053202286,-0.18384582,-0.029025838,0.061697703,0.00498908,-0.16121125,-0.15400429,-0.059583865,0.08521662,0.07740557,-0.063886,-0.14297162,0.32396498,0.011131653,-0.13806316,0.020815238,0.1445542,0.04170962,0.06959266,-0.12128859,0.1452069,-0.10180165,0.047785114,0.15334241,0.2774848,-0.06950523,0.16073516,-0.13176519,-0.12165634,0.0267874,0.053468466,0.016960671,-0.05641847,0.045223024,0.11071655,0.14890377,-0.087589234,-0.013906214,0.12589139,0.096817754,0.054526962,-0.29686132,-0.061908036,-0.045932386,0.025913032,-0.049656656,-0.092619665,0.019210668,0.0569204,0.1691462,-0.020866267,0.10501372,-0.15318696,-0.066016935,0.00082110806,0.21667528,0.18453737,0.19549239,0.16870257,0.15922454,0.04642396,0.019322112,-0.15412289,0.022567123,-0.07550215,0.14128895,-0.04744159,0.06360589,0.0028177944,-0.10238015,0.057702973,0.021470975,0.078048,-0.20785078,-0.013851303,0.10951651,0.011034814,-0.102404945,-0.11517711,-0.095339276,0.055496596,-0.020968359,0.19974779,0.03491477,-0.0044651744,0.10832481,0.06600394,0.046543285,-0.011864009,-0.082102224,0.06843404,0.03519702,0.10582444,-0.03785107,0.046376552,-0.031252388,0.005071793,0.10454105,-0.021254553,-0.10965919,-0.0050273873,-0.05235993,-0.0769812,0.091569,-0.040494427,-0.084456645,0.017099977,-0.0882915,0.059305992,0.012153403,-0.1430421,0.016683301,0.02025166,-0.0031117387,-0.16110352,0.20154335,-0.06997823,-0.018599836,0.09883212,0.09830699,0.16841817,0.048746984,0.058998615,-0.10304186,0.062236354,0.08734629,-0.048290804,0.15397269,-0.0046009794,0.04611459,-0.067379676,-0.0050442773,-0.09873774,0.025965435,-0.033745065,0.13031082,-0.013061524,-0.06727719,0.061483275,0.10878151,-0.0123566305,0.14863,0.033839203,0.042232048,0.04771937,0.035366442,0.15380633,-0.044548545,0.042700984,-0.022402192,-0.15983462,-0.047155116,-0.006070736,-0.08026855,0.12110068,-0.13274167,-0.071695544,0.050656375,-0.025748191,0.05228539,-0.19006585,0.14712684,-0.2178385,0.019287445,-0.039135505,0.024549369,-0.2529416,0.20973985,-0.13437182,-0.03993356,-0.13241383,0.005575213,0.20990443,-0.18659273,-0.040228743,0.068421796,-0.087676436,0.11663619,0.03530045,0.022480538,-0.24050057,0.036027443,0.21835417,0.04092566,-0.1287133,0.06665608,-0.048293978,0.264778,-0.03854333,0.011287942,0.009376267,0.12803143,0.11593633,0.12792714,-0.012249363,0.19861916,0.04669538,-0.14708495,0.069160216,-0.07954597,-0.040578697,-0.15375565,-0.015280894,-0.06737158,-0.021316899,-0.08783287,0.058403023,0.010296356,-0.30312264,0.26462284,0.02903168,-0.085924014,-0.123689,0.093903676,0.3473477,-0.25753447,0.06376863,-0.07638051,-0.045369394,0.10267307,0.034093253,0.08908248,-0.021085942,-0.018467719,0.24110061,0.051794507,0.22203822,-0.15721126,-0.1641897,0.045084305,-0.040562864,-0.09983482,-0.06402603,0.060710546,-0.02767425,0.020168561,-0.29613185,0.11430307,-0.16695687,-0.10253177,0.004193224,-0.004018658,0.0891935,0.24365711,0.006919908,0.10433587,0.17387962,0.07505179,-0.2081422,-0.01738272,-0.0036121903,0.0029710273,0.10185116,0.06940135,-0.18454893,0.035322398,-0.16703849,-0.08862804,0.046743788,-0.17451979,-0.07586961,0.0009730114,0.07333728,-0.22066052,-0.101863064,-0.14920834,0.028326245,-0.010732027,-0.10534808,0.16315557,-0.029135726,-0.039667662,0.005495556,0.110518515,-0.03483852,-0.30386883,0.06947643,-0.057910502,0.0023782533,0.113076895,-0.07721014,-0.06683475,-0.02668449,0.12995128,-0.035489056,0.06834882,0.11322305,0.060677197,-0.061849523,-0.069678254,-0.09972036,-0.007998691,-0.00794153,-0.0014571216,-0.1189001,0.042190507,0.034833424,0.13927884,0.01998159,-0.021729397,-0.11095743,0.05435004,0.15298417,-0.045582876,0.00658349,-0.07558357,0.03308981,-0.09184337,0.14665581,-0.10794139,-0.023802713,0.08299835,0.009394151,-0.04471081,-0.014064952,0.04356086,0.09214313,0.0789474,-0.16235001,-0.082366236,-0.11646872,-0.046254028,-0.0858508,-0.08817924,-0.059958037,0.074872725,0.069770806,0.14083003,-0.08105119,-0.07749282,0.05625601,0.07815732,-0.12531266,-0.032912113,-0.081442915,0.041250825,-0.019147119,0.097729415,-0.11333114,0.053712297,-0.067253284,0.11288897,-0.08956286,-0.06684012,-0.17111285,-0.021383448,-0.058654495,0.1493047,0.07765368,-0.027943889,-0.16492963,0.010138482,0.2099069,0.066427,-0.0014017402,-0.12039543,-0.072738,-0.03470886,-0.122820534,-0.08808664,0.13691813,0.065989725,-0.03501069,0.021025022,-0.04688259,-0.15749975,-0.007912129,0.011257327,0.000977075,-0.088559754,-0.2826427,-0.16362931,0.03649966,-0.21355674,-0.116206914,0.08465786,-0.0015135383,-0.0364309,0.008780671,-0.15524216,-0.050693467,-0.14964117,0.19582969,-0.03979389,-0.16100648,0.1306395,0.074639454,-0.021449802,0.036293875,-0.33833984,-0.041059274,0.11565311,0.11476888,0.09310639,-0.07112451,0.12555358,-0.06149906,0.033371933,0.00866524,0.06548593,-0.083206005,-0.26124334,0.22442016,-0.21489348,-0.022022452,0.0040712366,-0.2523791,0.16947801,0.17874259,0.04655203,0.017029842,-0.21569227,-0.0720271,-0.09470539,0.10434167,-0.079259776,-0.09846772,-0.23545972,-0.21868154,0.2945756,0.069346525,-0.06698722,0.06290821,0.10296429,0.07599344,-0.1874177,0.0012214689,0.013288502,0.16527012,-0.11496033,-0.007917879,0.030274691,-0.054833226,0.08167272,0.08429532,-0.29519722,-0.09319978,0.12134672,0.09016875,0.0038406167,-0.058446042,-0.12007933,-0.048916988,0.10949657,0.042088773,-0.027876988,0.20624673,0.013924182,-0.064976946,0.109621376,-0.04762974,-0.028413422,-0.016000325,-0.19558838,-0.08136127,-0.06671639,-0.0693354,-0.21771078,0.011375029,-0.0481388,0.08892422,-0.09613824,0.25144675,-0.0658851,0.02651528,0.091767706,-0.25020835,-0.037275717,0.051427256,0.19020966,-0.014177229,-0.01104741,0.09061805,-0.08814322,0.11081647,0.064149484,-0.045654472,0.1495487,-0.16573155,-0.05979967,0.012259608,-0.15763226,-0.16558465,0.012940669,0.11225603,0.0073460387,-0.13794005,0.1744472,0.17697494,-0.038233954,0.15501706,-0.04230248,0.20056319,0.019429129,0.162797,-0.0877869,0.062681384,-0.15856528,-0.00020257157,-0.1982351,0.13294902,0.09980861,0.14702785,-0.15500537,0.10155056,-0.04004243,-0.21120016,0.14353132,0.080856785,0.013951577,-0.13886707,-0.06384138,0.103003845,0.026833484,-0.052396808,0.076666266,0.05264963,0.31115967,0.16998082,0.29579455,0.13145316,0.09130105,0.013924521,0.09661133,0.019360453,-0.055604316,-0.04795598,-0.050875176,0.035704456,0.0530742,0.00070985465,0.29836476,-0.050194804,0.047993854,0.104778476,-0.14434429,-0.124598905,0.050797593,-0.009461674,0.00766456,-0.063926406,0.12161102,-0.012228476,-0.05856927,0.1424256,-0.1396008,-0.08363201,-0.05283742,-0.15592204,0.067634135,-0.023322372,0.068196245,0.053737085,0.030051507,0.10404285,-0.009261354,0.013121016,0.105187744,-0.06671109,0.010349023,0.029235458,0.1094321,0.025053246,-0.22959618,0.28536582,-0.19096695,0.12223563,0.055380005,-0.164476,-0.023186753,-0.027046397,0.060840845,-0.035072215,0.01925962,0.019204697,-0.06704412,0.23036873,-0.097213745,0.038652882,0.11893023,-0.0140406685,0.026430124,-0.059144657,-0.07133172,-0.17714302,-0.0047198595,0.06743676,0.103422314,-0.1277189,0.011438936,-0.17681117,-0.048687518,0.027296862,0.052005105,-0.037764497,0.15276042,0.070693366,0.13124877,0.15335993,-0.11111555,-0.046843633,-0.007273669,-0.12481743,0.065051354,0.010136472,0.16416343,-0.12801555,-0.08761242,0.02338031,0.084555954,-0.15568322,0.19248685,-0.0096142925,0.028841807,0.049896594,-0.04932934,0.1722475,0.062108684,0.22866662,-0.012682282,0.028394606,-0.17897353,0.025829788,0.06006031,-0.062053066,0.15832634,0.06199438,-0.3728569,0.25777513,-0.027478887,-0.0528213,0.037196945,0.0635077,0.047626086,0.06864942,0.021164957,0.119478546,-0.09913278,0.038264375,-0.19922373,-0.04538587,0.041826747,-0.06787791,0.052846313,0.026805662,0.11867293,0.020176245,-0.20049088,0.016661776,0.11673979,-0.020645427,-0.0934692,-0.18618721,0.20132703,0.09639063,0.054763168,0.1233957,-0.019007113,0.14979161,0.13987613,0.13190103,0.0730508,-0.040236156,-0.006140324,-0.021604292,-0.0043482706,-0.10799388,0.22062826,0.04399232,0.005566408,0.11229311,-0.034635093,0.13248509,-0.0822276,0.07629036,-0.012637743,-0.08474538,0.049909737,0.17089437,-0.14930381,-0.032954432,0.08603475,-0.04686928,0.006990947,-0.04816826,0.19993003,-0.0075362087,-0.049567007,-0.06457928,-0.019535042,0.11535539,0.034910325,0.21983989,-0.1368645,-0.063127905,0.003574568,0.019196253,0.07439198,0.059559748,-0.008937117,0.023355203,0.0016850731,0.060823236,-0.1925542,0.025411746,-0.1453703,-0.08107263,-0.021825317,0.0032337836,0.1072546,-0.08059143,0.04308975,-0.06251677,0.09639691,-0.08396833,0.07894631,0.13381018,-0.1645489,0.009332713,0.02372544,-0.008154562,-0.02474507,-0.02689727,-0.2161586,-0.059598017,0.0069246865,0.1117566,0.019432949,-0.0871864,0.025369372,0.024370613,0.13918318,0.12533447,0.17313945,-0.020129021,0.068023026,-0.02672962,0.22175352,0.20066155,-0.040931016,-0.053907227,0.07419413,0.1374179,0.08498654,0.124142066,0.12434371,0.07511297,0.040260058,-0.010303057,0.19186713,0.10357146,-0.017057233,0.04070882,0.085412644,0.07477151,0.2321561,-0.0030565485,-0.0073028626,-0.0110004265,-0.11084544,-0.02844463,-0.20763135,-0.10596074,-0.011985816,-0.07127649,-0.09118352,-0.03517022,0.18104765,0.06500579,-0.08000683,0.069535196,0.14481582,-0.02198461,0.052604757,0.06456126,-0.05645061,-0.029341383,0.18942703,-0.010240552,-0.12507655,0.14036253,-0.057370294,-0.13096039,0.031770147,-0.16564345,-0.1130265,0.08817117,0.0985064,-0.22091238,-0.115365244,0.19934358,0.07319985,0.10246034,0.0047075455,0.11623515,-0.13135129,-0.1714497,-0.04637868,0.17135957,-0.07851846,-0.23393276,0.04188729,-0.02337468,0.10671886,0.14838049,-0.043739773,-0.11166777,0.053923137,0.0019180094,-0.08600837,0.10302079,-0.09147433,0.22819854,-0.20771521,-0.0261404,-0.095581025,-0.09922428,0.16520827,0.08521681,-0.01707071,-0.11837333,0.16904718,-0.018174328,-0.09045664,0.10542041,-0.040468033,0.08491794,0.058847066,0.026096368,0.15104409,0.1496254,0.08146871,0.008426568,0.19493681,-0.062695086,-0.02460773,-0.037991498,0.06647399,-0.02568998,0.23303361,0.2602738,-0.12147622,0.028509894,-0.27318352,0.072210185,-0.18915011,0.06580846,0.002438852,-0.09711713,-0.03526257,0.123824686,0.26360843,0.030059107,0.016527463,-0.0037782236,-0.10935797,-0.014912643,0.0038580596,0.04677894,0.046412993,-0.09944353,-0.234188,0.08713071,-0.10224799,0.0049163247,-0.04287949,0.16137208,0.0063813063,-0.0492286,-0.055361163,0.1891071,0.017326541,-0.081047066,-0.026958292,-0.16622996,0.031662803,0.04973505,0.13694151,-0.06323119,0.015558613,-0.04771066,-0.10157901,0.04848686,0.092432454,0.09914405,0.05178503,0.070957564,0.012223532,-0.17947742,0.028758267,0.080386676,0.075824134,-0.09118205,0.023640553,0.09286278,0.17094958,0.046516735,-0.1561475,-0.055106852,0.17902167,0.064141646,0.11359681,-0.04816955,0.1319132,0.055665098,0.052088365,-0.04147368,0.115595065,0.29244792,-0.08531071,-0.04463873,0.020798264,-0.017954184,0.0022260882,-0.071950436,-0.0006164287,0.02274798,-0.007869096,-0.013323436,0.042114384,-0.13911515,-0.11657636,0.1351386,-0.30259067,0.015407006,-0.22085626,0.152853,0.023942247,-0.13706736,-0.0084006945,-0.012006119,0.028241336,-0.1278714,-0.0031526175,0.087307535,0.03556293,-0.12118271,-0.39623475,-0.18416947,0.042668544,0.17905338,-0.18979791,-0.122617476,0.0602096,0.031491805,0.17890784,-0.048158232,-0.024692297,-0.36869547,0.0801092,-0.010414344,0.18863563,0.080281645,0.020583998,0.18289697,0.11790861,0.0026122474,0.0075998395,-0.07224428,0.12626718,-0.053515337,0.15646645,0.062412817,-0.06322073,0.04486622,-0.07242224,-0.021261174,0.14845178,0.027564716,-0.3395613,0.0053353244,0.063344635,0.105300486,0.07187156,0.08951766,-0.04387979,-0.035365332,0.14965834,0.004596588,0.006172332,0.17648813,0.13458031,-0.071961984,-0.0062554674,0.109554194,0.026972096,0.04371975,0.079854995,-0.20379423,0.102406554,0.0023964625,-0.06484343,-0.026633563,-0.08900735,-0.10006536,0.116083704,0.03023587,-0.0331779,-0.0309427,-0.066765554,-0.03202968,0.020315507,-0.03858439,0.06427808,0.132872,-0.03188713,0.095559336,0.00049654546,-0.042781677,-0.013309606,0.1860421,-0.22743969,0.040831123,0.11349599,-0.039209615,-0.055506367,-0.05657464,-0.13837788,-0.025893241,0.18043087,-0.008669658,0.08387532,0.16855918,0.08567669,0.08500894,0.0069483262,0.064441055,0.08689619,-0.011006727,0.108132966,-0.017509427,0.06789246,0.07105114,0.087295115,-0.08244188,-0.089229904,0.018271046,-0.19548191,-0.004956265,0.060654774,0.01015165,-0.105014674,-0.11779518,0.015397421,0.071930274,0.029793652,0.1695269,0.046505533,-0.0131608,-0.118299715,-0.0006136751,0.09364511,-0.11501876,0.07044872,-0.07106865,-0.016600367,-0.019783162,-0.18177053,-0.050334148,0.040322572,0.08222062,0.041890606,-0.036969915,-0.1638953,0.049824033,0.1837242,0.16351642,0.06957612,-0.15982513,0.09604207,-0.08601879,-0.05789022,-0.05470483,0.06961711,-0.033708915,-0.16540231,0.14974242,-0.09082073,-0.13244411,-0.21524088,0.042336274,0.017662875,-0.13953403,0.06749292,0.1284269,-0.11421819,0.042521708,-0.17449369,-0.03592919,0.022342954,-0.08997287,-0.10808571,-0.0281987,0.33344564,-0.15094423,-0.17015615,0.088608146,0.2640114,0.051982496,-0.086063914,-0.093564495,-0.015017173,-0.07112724,0.019133927,-0.04111304,0.12888601,-0.1371825,0.07778597,-0.14472865,0.0345872,0.033072677,-0.07006014,-0.030540405,-0.03549466,-0.10690585,-0.054698482,-0.124128796,-0.028109815,-0.2942125,0.053682283,0.0031836976,-0.028495353,-0.019701699,-0.09949133,-0.12726994,-0.01028626,-0.11556941,-0.10037458,0.022634747,0.030519128,-0.058973636,-0.029007155,-0.15136558,0.027503625,-0.33855253,-0.03970846,-0.07024167,0.061512865,-0.16628447,0.0542621,0.031489387,-0.14526327,-0.32974136,0.011410712,0.0036011355,-0.09614655,0.14344944,-0.15016222,-0.031122971,0.01964026,-0.24704516,-0.10932245,-0.11819106,-0.13388495,-0.0048611388,-0.2053266,-0.06625105,-0.1487396,0.00635374,0.08061879,0.07721878,-0.09506934,0.007053219,0.012787101,-0.05927553,0.013350076,-0.1511929,-0.05654877,-0.026745627,-0.21178184,0.009220016,-0.27457824,-0.086854324,-0.20587209,-0.07685154,0.06949644,-0.06729339,0.069493525,0.19027779,-0.10266257,0.020288777,-0.15593493,0.0012348205,0.06401989,0.014591008,0.03433595,0.046638094,-0.15196574,0.21262108,0.019318486,-0.22146875,-0.24661975,-0.15743427,-0.011279817,-0.073981255,0.024419948,-0.04610993,-0.04838725,-0.12782966,-0.04687796,0.023252038,-0.06800463,-0.10204648,-0.05424176,-0.07300781,0.07380322,0.1518835,0.043845396,-0.31474,-0.059750512,0.047155876,0.23626196,-0.16388732,0.13986741,-0.019029042,0.06939529,-0.103578046,0.023574984,-0.037634205,0.037190106,0.027547814,-0.07438743,0.10738242,0.107106104,-0.13426304,-0.136278,-0.0054077376,0.0060212216,0.10234988,-0.0055983323,0.19434689,0.013978395,-0.04576378,-0.025052274,0.33248797,-0.034914125,-0.2568361,0.028430576,0.13256682,-0.1835043,0.100138284,-0.055849724,-0.20136811,-0.034848083,0.018215548,-0.27368397,-0.038918603,0.06083303,-0.0208883,0.08045215,0.14454655,-0.043352466,-0.08425283,-0.02182661,0.12668233,-0.31301004,-0.060587972,0.023241762,-0.15287963,-0.031448495,-0.036348913,0.11361875,0.005277959,0.036218464,0.04738978,-0.054382816,-0.015105627,0.16349876,0.07902709,0.07016264,-0.108822145,-0.07556831,-0.11738868,0.11320704,0.121274434,-0.15428764,-0.022030309,0.24454986,0.04606749,0.11400757,-0.006937226,-0.061591294,-0.08641689,-0.013608827,-0.014114326,-0.04824659,0.011752606,0.09282868,0.13721015,-0.003877751,0.01111537,0.09147344,0.045033194,-0.038206954,-0.048167985,0.014803065,0.14314157,0.06252903,0.052732576,-0.014072076,0.20506242,-0.06092622,-0.12358806,0.06989489,-0.10867029,0.016419085,0.008416682,-0.044910014,0.064450294,-0.25693548,-0.036162734,-0.09821968,0.098500274,0.17176594,-0.03866268,0.14818276,-0.22109203,-0.028451454,0.18239096,0.05070352,-0.12564798,-0.14618886,-0.21084976,0.03931555,0.05571394,0.060260244,-0.14809006,-0.0356843,0.0589824,0.05020382,-0.0355338,0.18626526,-0.056447815,-0.011193512,-0.08320216,0.114515126,0.16652669,-0.012750446,0.11178932,-0.15600148,-0.18279529,0.2955839,0.04620918,0.14618544,0.029371854,0.03485521,-0.020401448,0.061973475,-0.116236635,-0.09609291,-0.18585691,0.08991252,-0.11392113,-0.11209384,-0.10217769,0.017699528,0.04628431,0.10383505,-0.0060889893,0.060271416,-0.07933855,-0.178378,0.13280866,0.112986945,0.14581501,0.111228295,-0.16048458,0.15963268,0.09307861,-0.031312622,0.1278317,-0.12823692,0.06198162,0.02725325,0.13587832,-0.043511942,0.1098024,-0.06852487,0.17620239,-0.03924293,-0.21671017,0.029629368,-0.049445458,0.123176716,-0.22670175,0.029459195,-0.046770524,-0.008876544,0.08284077,0.082774505,-0.24147753,0.016067889,-0.08340223,0.21078198,0.105006106,-0.16970427,-0.031809773,0.0065969597,0.17617889,0.14041288,-0.23718204,0.07896641,0.15672128,0.09862808,-0.055060744,-0.070171416,-0.06162528,-0.045643035,-0.033148497,-0.002466151,-0.112712614,0.015774809,-0.010510421,-0.12508094,0.09895573,-0.013143569,-0.110925704,-0.08133942,-0.06587434,-0.026234057,0.27893206,0.15207511,-0.049821995,0.00596212,0.07017255,0.14288169,-0.027690375,-0.3102546,0.0961334,0.032456264,0.030346889,0.039392605,0.10310968,-0.10059409,-0.048102353,-0.069435455,-0.04683895,-0.14645737,0.08328748,-0.007983736,0.0096243,-0.16811964,0.14673191,0.10602196,0.081960164,-0.06596156,0.16710268,-0.10341405,-0.24118918,0.21115208,-0.1035256,0.024615733,-0.10670414,0.12591235,0.1051305,-0.03775874,0.04676145,0.056812845,0.15616713,-0.18411542,0.010027594,0.109698616,-0.086688824,0.033534493,-0.10701909,0.10703894,-0.005675293,0.020043103,-0.050860826,-0.13439406,0.08323444,0.20855552,-0.051947486,-0.05273935,-0.008942354,-0.29661745,-0.0026163994,0.17146663,-0.07691708,-0.08399343,0.014527313,0.05650076,-0.05867163,-0.029061954,-0.0088508185,-0.08450983,0.056243803,-0.009023846,0.022015164,-0.017870976,-0.04439546,-0.058717884,-0.1520827,-0.060816526,-0.061581254,0.13180552,-0.08537601,-0.08805887,-0.0057032816,0.008218965,-0.20584878,-0.10854046,-0.080763526,0.025049817,-0.0944228,0.040412817,-0.13837229,-0.06593656,0.034739148,0.022585819,0.044926826,0.059215736,-0.022715392,0.1274089,0.0087872455,-0.057235982,0.004251552,-0.09875553,0.08317597,0.015501109,0.047652543,-0.09059931,-0.17486896,-0.24542859,-0.052301496,0.06904979,0.030118363,0.017166028,-0.04131491,-0.03322574,-0.046988524,0.07266431,-0.05068866,-0.21923369,-0.048412655,0.2511064,-0.06340471,-0.0035654006,-0.06965013,-0.2234197,-0.09370641,0.10675049,-0.053864274,-0.12567173,0.0041832635,0.05759577,-0.054673947,-0.14664641,-0.2673574,-0.19781268,0.038520228,-0.035886448,0.028641619,-0.12618376,0.101726525,-0.023232453,-0.1506187,-0.050233103,-0.22913492,0.06542367,-0.07996302,-0.08024747,-0.017554982,0.0362665,-0.10264219,-0.092089854,-0.01686446,0.008696747,-0.04209823,0.026361892,-0.08005168,-0.12146249,-0.06879059,0.0048391474,-0.09540159,-0.049898583,0.049961925,0.06744265,-0.059926394,-0.082899295,-0.09829221,-0.122661434,-0.042194217,0.01689355,-0.0077366643,0.061829004,0.011083916,-0.11059344,0.065691926,-0.16326685,-0.082261205,-0.036562108,-0.16425352,-0.047180817,-0.1631646,0.18091568,-0.0140818395,0.035841625,0.18818043,0.031003077,0.13276178,-0.13029362,-0.06968791,0.0885411,-0.025983725,-0.1632406,-0.057390526,-0.056557775,-0.08592034,-0.062745646,0.028019413,-0.097884215,-0.10461724,-0.029837124,-0.05905807,0.07153554,-0.048771057,-0.01978322,0.036594924,-0.11870985,0.0054197144,0.20420894,0.15007783,-0.13537374,0.124228284,-0.12319716,0.07305217,-0.033536177,0.06963201,0.03638325,0.093333475,-0.035412636,0.15082143,-0.092571914,0.07832289,-0.07522612,-0.11785183,-0.07419446,-0.08093803,0.01162109,0.015420259,-0.12621899,0.043875095,0.015749376,0.046147805,-0.0545075,0.052630354,0.053610466,-0.06921247,0.17699747,0.050665986,0.12176806,-0.02936102,-0.017603552,-0.052023377,0.1852311,-0.013021756,0.037679557,-0.0025136047,0.011548045,0.029259402,0.0848082,-0.14119841,-0.04312711,0.04170272,0.01730602,0.06594152,0.03681646,-0.033575494,0.08332875,-0.017354818,0.052756798,-0.03135701,-0.09568136,-0.08729024,0.23675986,-0.09300219,0.097744204,-0.048576135,-0.10102203,0.10000824,-0.05197985,-0.0035772715,-0.008793067,0.17051022,0.08185236,-0.07465872,-0.06773493,-0.0038572322,-0.13166444,-0.04282263,0.05639797,-0.06946713,0.24465558,-0.096173435,-0.047273614,-0.0753988,0.009214801,0.022152102,0.030747315,0.09132294,0.08286398,0.13690554,0.0072652814,0.13404246,0.04075717,0.18674542,-0.10785411,0.10379566,-0.18382834,0.032559752,0.052984703,-0.04493907,0.059106283,-0.11674347,-0.032199252,0.032027632,0.02964945,-0.2389981,0.08153147,0.091335826,-0.05727274,-0.0681983,0.016479583,-0.015935363,0.12516382,-0.05179561,0.09002712,0.17382391,0.017126484,-0.04712419,-0.0905781,-0.02340694,0.16415937,0.11106456,-0.14467378,0.044378746,-0.009433074,0.020893455,0.08264144,-0.27829862,-0.04271721,-0.0076138196,0.06100614,0.11980111,-0.21772058,0.012326113,0.025542054,0.104457125,0.1403792,0.0012838899,0.14969069,0.0749896,0.013088822,0.010718663,-0.3370335,0.07001609,-0.19144736,0.08693324,-0.03504967,-0.10707839,0.016000386,0.05593084,-0.062048458,0.11664578,0.014507058,-0.078626595,0.11706532,0.062688515,0.022415083,-0.24619153,-0.024368156,0.086626306,-0.021683745,0.05206497,0.037327547,-0.09790213,-0.25170323,0.06472201,0.31425667,-0.05290341,0.033327717,0.30151072,-0.33066815,-0.19976252,0.14049008,-0.0827283,-0.008679589,0.12343166,-0.1348246,-0.0058708386,0.12626378,-0.004438114,0.09443093,0.06403118,0.12746668,0.052512318,-0.026654286,-0.057206094,0.3134477,0.121997,-0.0406596,0.016022598,-0.09990965,0.09671476,0.012438504,0.11462155,-0.0008861107,-0.033600707,0.05840165,0.124769084,-0.03611215,-0.24872155,-0.14389206,-0.059579402,-0.29017234,-0.032814853,-0.024988497,0.111710615,0.20730223,0.05716704,-0.34223738,-0.1286013,0.048870493,0.015836459,0.16286749,-0.047622256,0.07240375,0.028990291,-0.023775084,-0.029282425,-0.018633364,0.022402206,-0.025898898,0.1939325,0.012188102,-0.08754848,-0.10058393,-0.07375245,-0.014250523,-0.09383172,-0.11653851,-0.16127647,0.17328839,0.08894676,0.1405193,-0.043794487,-0.19532584,-0.010916902,-0.05462584,-0.062636495,-0.0035919975,-0.030079149,0.055744544,0.21071261,0.061289854,0.016055703,-0.0020462056,-0.096773066,0.06658568,-0.0058090813,-0.14302728,-0.07079654,-0.0800757,0.08086945,-0.06060962,-0.011765915,0.018787457,0.01435365,-0.020147372,0.13536683,0.036605507,0.004417822,-0.08484664,0.096307345,-0.128163,-0.15046431,0.022508426,0.13841835,-0.031625975,0.07852836,0.03896833,-0.05612167,0.00046620978,-0.3263258,0.165548,-0.39141786,0.007516588,-0.18071432,0.010061245,-0.044961542,-0.10131342,0.030897172,0.02171964,0.09448176,0.26212057,0.11740549,-0.07454327,0.12143763,0.023829915,0.08810011,-0.018308815,-0.08158812,-0.075669646,-0.033986986,-0.15077506,-0.027385032,0.0592436,-0.08636701,0.065917954,-0.03063581,0.043534394,0.1764977,-0.0683746,-0.22617222,-0.13821058,0.036277685,-0.33714667,-0.1261619,0.0375606,0.18008427,-0.18229671,0.051426914,-0.030634651,-0.04870689,-0.12151756,-0.12321233,-0.21836594,0.19067113,0.08115002,-0.082719095,-0.18897222,-0.24479061,-0.1403674,0.029557623,-0.07109813,0.17986919,-0.13857575,-0.26633376,0.030595373,0.11442273,-0.07626509,-0.12195631,0.10927545,-0.15736525,-0.061326418,-0.043704458,0.051044513,0.1079915,-0.011702942,-0.1172658,1.4704459e-06,0.0148921665,0.16330756,0.00864229,-0.06875557,0.017409343,-0.035172198,0.009936357,0.16071166,-0.017385244,0.13766888,0.04724389,0.008179281,0.015279235,-0.009195798,0.0535455,0.042723652,-0.10201791,-0.022157842,-0.013385262,-0.08924125,0.06860283,-0.07616886,0.050801102,0.04051676,-0.09944716,0.045298222,-0.10088009,0.010626407,-0.04552367,-0.26153007,-0.058912236,0.0023056136,0.043664448,-0.11925488,0.01959654,0.18164994,-0.01815919,0.09058554,-0.034875624,-0.085467726,-0.002939933,0.06395722,0.05162334,0.0633441,0.027761985,0.14027232,0.07054315,0.009903473,-0.09056174,0.022542955,0.13337715,-0.07938189,-0.18510456,0.029536977,0.09068935,-0.049130995,0.06633189,-0.03469411,0.04742276,0.07438881,-0.00049610296,-0.058187548,0.05662968,0.08149397,0.01716202,0.08477275,0.16831116,-0.10704667,-0.19477116,-0.05240609,-0.010518076,-0.2505645,-0.037961107,0.2089692,0.17072475,-0.08431347,-0.09809189,0.16279837,-0.23920324,-0.04599676,0.018618573,0.1930094,-0.039816204,0.04469583,0.19865642,-0.30577898,-0.14390555,-0.11931382,-0.21572578,0.23692915,0.14094879,-0.087247334,-0.2590393,0.111970074,0.38272527,-0.078247875,0.03832315,-0.26377317,-0.09044269,0.11194936,-0.028239632,-0.17092834,-0.26499662,0.12690823,0.05577906,0.129197,-0.061353195,-0.041466158,0.39873633,-0.035275552,-0.36932215,-0.095544614,0.016612377,0.09967824,0.1296034,0.13478324,0.12460116,-0.0786,0.14331256,0.1814131,0.3051899,-0.12923989,0.19449514,-0.07475404,-0.025366224,0.044531323,0.2384038,0.05242015,-0.04568886,0.09164856,0.117023356,0.016124055,-0.15450095,-0.07145797,0.17330031,0.12700748,-0.08718591,-0.18370304,0.051791042,-0.065665506,0.021109717,0.045795206,-0.22529335,0.066327035,0.05804804,0.20119627,0.030080039,-0.0040196804,-0.22289057,-0.13286789,-0.06439347,0.22303738,0.032688722,0.18722543,0.14314735,-0.06620732,0.008977649,0.13413738,-0.0078706145,0.20171781,-0.25720608,0.060004503,0.00042724857,0.063941866,-0.12176245,-0.18416265,-0.048938774,0.021800563,0.09890814,-0.11632157,-0.09052569,0.13752468,0.050914373,0.038923852,-0.01565435,0.069405764,-0.0591628,0.02226623,0.039920148,-0.039508104,0.18517607,0.10871032,0.120636,0.2174759,0.22686192,0.03909964,-0.056052912,-0.008077181,0.20589054,0.036400583,-0.040182427,0.008555555,0.064974986,-0.004672807,0.088330895,-0.18269521,-0.0067571457,-0.05302556,0.01412228,0.00092503184,-0.076638564,0.012331058,0.1411206,0.06555577,-0.16665354,-0.06386029,-0.10716742,-0.07463865,-0.07988522,0.18950109,-0.011577081,0.14608516,-0.07745486,-0.011699319,0.06388051,0.12675978,-0.030915968,0.082180485,0.04914941,0.025726706,0.097157255,-0.03294255,-0.25569582,0.07844037,-0.11247005,0.082090065,-0.03671458,-0.1635069,0.04520818,-0.12466575,0.063948564,0.0077735246,-0.058021754,-0.13057649,-0.000483016,0.13026704,-0.055937257,0.05295387,-0.10249571,-0.054113746,0.0010150273,0.043358956,-0.03177075,-0.19581927,0.052892372,-0.050797287,0.00021044382,0.0018837315,-0.044355027,-0.08034692,0.07639917,0.033241183,-0.06892958,0.0708653,-0.0329147,0.062286846,-0.026825385,0.16073288,-0.16596921,-0.05147585,0.0049827136,-0.010865696,-0.20593332,0.20496619,-0.17689916,0.0014893679,-0.00971223,-0.018930433,0.06736011,-0.19088008,-0.040005863,-0.03949984,0.016323876,0.1285843,0.012654528,-0.061450604,-0.16621874,-0.042478576,0.21389572,-0.033011883,-0.013774806,-0.10361017,0.036964677,0.15774846,-0.028798196,-0.07841612,0.047309663,0.2051901,0.16844815,-0.08864148,0.06507902,0.1551149,-0.05942535,-0.03969142,0.062423464,-0.021338977,-0.049787495,-0.086464085,-0.012396239,-0.12203599,-0.022894034,-0.22819982,-0.10910571,0.0025804068,-0.18540959,0.11265025,0.08810819,0.029052056,-0.18097694,0.07435504,0.1440524,-0.17477919,0.033257734,0.019465592,-0.05083211,-0.06618865,-0.017118711,0.074159145,0.15110214,0.00022841514,-0.1346866,-0.15617909,0.03448607,-0.05494076,-0.11487241,-0.07683798,-0.0980103,-0.13909352,-0.15831307,0.032712262,0.04215588,0.043928295,-0.013867841,0.13744429,0.025905406,-0.06986626,0.06833764,0.0513429,0.14517729,0.09647925,-0.01558221,0.018062437,0.22688463,0.06320258,-0.15444185,0.01516408,-0.02593179,-0.068690665,0.19316594,-0.060503032,-0.18783084,0.0011850063,-0.16681802,0.018954989,-0.069675334,-0.20182352,0.009539292,0.06135335,0.13077217,-0.10821205,-0.09511437,-0.00904303,0.056659143,-0.002676312,0.037689384,-0.084632896,-0.022446267,0.0051061204,-0.00620656,0.09645203,-0.026888585,-0.114421934,0.035285093,-0.1900744,0.07983394,-0.10104908,-0.096872374,0.028232636,-0.014693113,0.031114355,0.07999593,0.08261326,0.056196187,0.048738066,-0.065042056,-0.13572106,-0.0934155,0.100173436,0.05184349,-0.0459059,-0.055963762,-0.07163995,0.049854066,0.088640414,-0.04925806,0.05915787,-0.090696104,0.009116343,0.14825968,-0.032057278,-0.09050277,-0.084495686,0.11008845,-0.09667142,0.14166717,-0.034715194,0.036288533,0.053487785,0.04500223,0.015263764,0.019629162,0.044946276,0.14130348,0.03346362,-0.094721496,-0.15047638,0.014226159,0.08530295,-0.029125376,0.07959824,-0.0038750216,0.049969673,0.104849145,0.004902307,0.07084905,-0.1153088,-0.008023149,-0.09449006,0.027448012,0.07600099,0.0015052672,0.0317591,-0.054667756,0.08235135,-0.028258886,0.043817833,0.026080139,-0.03925754,0.09518389,-0.04471334,-0.035268642,-0.08498314,-0.10214775,-0.021518216,0.0038059314,-0.08759377,-0.14248072,-0.06726611,0.1639911,-0.11675878,0.12687922,-0.17917588,0.09065654,-0.063492574,-0.092812955,-0.043761637,0.12250208,0.20784876,0.073609546,0.0781802,-0.1472153,-0.08756175,-0.11191647,0.024412159,0.055664435,0.20142843,-0.21619932,-0.14805736,-0.007845567,-0.1501866,-0.04794423,0.12232632,0.0013815429,-0.13268211,0.044948187,0.0052177617,-0.08035174,-0.123698026,-0.07272794,0.013783725,-0.07912764,0.14672825,0.0003324586,-0.090243466,-0.004084725,-0.20854345,0.17841317,0.04644872,0.016470816,0.08984808,0.031424657,0.055350307,-0.09462967,0.122214966,0.06967891,-0.024840388,-0.10203667,-0.13517424,-0.026540894,-0.047094207,-0.09296228,-0.1370539,-0.07155287,0.012637013,0.022883624,0.042336755,-0.05937276,-0.1416221,-0.0203273,-0.09647724,-0.057974238,0.050078943,-0.10102797,-0.025892694,-0.026543407,0.11280264,-0.0707553,-0.084729336,0.06306445,0.20539245,0.03485331,-0.17508133,-0.1775706,-0.08499869,0.038923543,-0.08809587,-0.14945832,0.07565773,-0.041377407,-0.016814783,-0.030753449,-0.09844097,-0.053674646,0.12803952,0.10242158,0.10705927,0.005861609,-0.1307547,-0.037741,0.0027795024,-0.0061208233,-0.17695767,0.06118503,0.14915979,0.02822851,-0.01032117,-0.034854986,0.02206712,0.005751742,-0.0026402003,-0.04890075,-0.028329296,-0.09308783,-0.19906098,0.010854927,0.025785904,0.1602343,-0.09724616,0.10208384,-0.00957722,-0.034294795,0.055157166,-0.117278725,-0.0027366434,0.018167812,0.116591655,0.07145794,0.05042215,0.029974526,0.06614403,-0.0012388229,0.04931086,0.0031128058,0.046282176,-0.11542975,-0.01177576,-0.01559616,-0.18130875,-0.024720259,0.07268248,0.116698876,-0.043551046,0.033180516,0.13531952,0.18251982,0.053078964,0.09128957,-0.09671839,-0.045838386,-0.046863027,0.23924044,0.07748241,-0.09794282,-0.054168507,0.1136553,0.0635681,-0.043738455,-0.033476528,0.14534588,-0.13775174,0.10313614,-0.05956137,-0.16817372,0.1301973,0.19794421,-0.044838585,-0.04581565,-0.07935804,0.04787827,0.094963916,-0.053267464,0.14217149,-0.017857503,0.27442858,0.21973449,0.033186827,-0.08067049,-0.026619311,-0.07629951,-0.06875366,0.04694147,-0.112580866,0.05143714,-0.09812124,-0.10771188,-0.035823524,-0.11919685,0.091800645,0.014629223,0.0767612,0.0077285985,-0.062007975,-0.14501442,0.058894545,-0.07621986,0.003928364,0.08514185,0.1075791,0.108201586,0.02819196,-0.016737035,-0.08930002,-0.10360428,-0.0799303,-0.08408663,-0.071363665,0.012505269,-0.021207156,0.049824864,0.02969718,0.15376988,-0.067218885,-0.09871923,0.026957376,0.10983624,0.061176114,0.05583041,-0.012110222,0.13709632,-0.11331469,0.15488093,-0.22565305,0.018899918,0.0069657653,-0.030997112,0.042152394,-0.27591473,0.238775,-0.030932983,0.09322486,0.097954676,-0.1279622,0.11157183,-0.26847744,-0.09790814,0.04597555,0.033633742,-0.021874962,0.10033212,0.05493521,-0.09651168,0.16200078,0.03048235,0.0625324,-0.16902763,-0.0251556,-0.23396264,-0.0958864,0.008116855,0.0652255,-0.1012854,0.1385648,-0.08052665,0.11298746,0.1546378,-0.036582123,-0.033279408,-0.09783313,0.010292996,0.11054422,0.015856372,0.10558006,-0.043305665,-0.087663636,-0.008936496,0.12475571,-0.12288161,0.14459796,0.18992895,-0.00531419,0.076598175,0.027512189,0.038393278,0.13066149,0.1212501,-0.012007779,0.032250073,-0.13145274,0.104271404,0.044138763,0.010014809,0.07106405,0.013213892,-0.29406494,0.08915377,0.04937319,0.030516926,0.10427669,0.02464251,-0.11912147,0.04185787,-0.12024152,-0.015675744,-0.12280628,0.09937545,-0.027409941,-0.07233343,-0.14092152,0.024967855,0.040804077,-0.090594694,0.013662575,0.02457894,-0.008092119,-0.01630366,-0.018760378,0.05618482,-0.15817724,-0.20433901,0.12194806,0.17876518,-0.08661272,0.10410209,0.0624536,0.010958976,0.24725495,0.081100665,-0.040248316,-0.001103382,0.07764061,-0.09587476,-0.06305843,-0.062938385,0.15547778,-0.0927305,0.06193639,0.04120385,-0.072219655,-0.01090715,-0.022850078,0.0024757695,-0.071900286,-0.08912303,0.014150652,0.05302222,-0.07340198,-0.017889475,-0.044060558,0.05712491,-0.05743246,-0.183895,0.18639536,-0.00964334,-0.024458423,0.0036897375,-0.04761668,-0.0073735192,-0.06710111,0.19999492,-0.13114297,-0.11234161,0.016419398,-0.033902384,-0.07115286,-0.0857252,0.0049304464,0.03555663,0.10001578,0.03659895,-0.11493361,0.08272276,-0.13666384,-0.032905567,-0.105380096,-0.08436058,-0.013846222,-0.108155236,0.053614497,-0.037197903,0.112021655,0.0063256645,-0.03977254,-0.054657612,-0.10419372,-0.018833213,0.05555377,0.02943475,-0.06244368,-0.01430431,-0.12294677,-0.07898411,0.021602603,0.0714264,0.10594319,0.05563292,0.07674005,0.103241496,0.033096723,0.10093246,0.1559885,-0.0028449697,0.069242425,0.065771595,0.35783604,0.17183313,-0.10849104,-0.010755686,0.034678254,0.09187697,-0.05636743,0.1308603,0.12094637,0.19053598,-0.0527971,0.07464607,0.079794005,0.16567071,0.08720084,0.05929969,0.09501422,0.00653666,0.19315384,-0.045451205,0.08980559,0.004586188,-0.0069378894,-0.06470777,-0.05624299,-0.095023386,0.054538295,-0.08414621,-0.12987676,0.06668709,0.14716104,0.11066229,-0.09961776,-0.08891631,0.1661854,0.014340697,0.007722683,0.016486086,-0.10213243,0.03038455,0.11915284,-0.0033301448,-0.12677802,-0.0032742368,-0.06656033,-0.15391184,0.07964877,-0.01287967,-0.0014507768,0.06264599,0.033867072,-0.20776448,-0.017284602,0.08873642,0.10277088,0.11021105,-0.0874604,-0.0016229406,0.0021294546,0.00079662935,-0.090590596,0.008527299,0.008203642,-0.24100342,0.07204494,-0.1470268,0.12903602,0.076461844,0.029575897,0.03341507,0.04257663,0.043615915,0.12361424,0.06663688,-0.007900293,0.22839311,-0.3593939,0.061848953,0.022377925,0.010768722,0.08709675,0.054845665,-0.030212497,0.0022360669,0.07069552,-0.030200874,-0.122742005,0.0828327,0.039706387,-0.03674636,-0.10392717,0.014448768,0.12642457,0.10496836,-0.008415127,0.051838305,0.044322595,0.0042809574,0.05434281,-0.08265093,0.049555454,-0.056917354,0.17877215,0.11684209,-0.14885493,-0.028851325,-0.20139731,-0.0103965225,-0.0070423544,-0.037624616,-0.07291919,-0.11265129,0.050909776,0.074933805,0.2572542,-0.025702644,0.06344766,0.10297106,-0.063558824,0.025047597,-0.095844,0.06269146,-0.019406734,-0.11912839,-0.20054147,0.02998228,-0.00011304219,-0.011388191,-0.0017930309,0.20215674,0.008055911,0.01575963,-0.053644225,0.050308883,0.05370677,-0.090958245,0.09181679,-0.116069764,-0.091978975,-0.029545585,0.12876596,0.038216762,-0.0017059036,-0.06927489,-0.09596365,-0.024722025,0.22103831,0.026109872,0.17011614,-0.049401812,-0.028510483,-0.031367373,0.06522694,0.08190951,-0.00836925,-0.1625123,-0.027139638,0.07104871,-0.043000013,0.12969105,-0.1326419,-0.061547093,-0.056012407,-0.11207716,0.09316969,-0.1073343,0.112044536,0.09503085,-0.02216482,0.0683721,0.029059468,0.16083384,-0.087866716,0.0020742938,-0.07137347,0.12890686,0.0014846696,0.08286725,0.06945279,-0.027027467,-0.11894511,-0.07313171,0.056959312,0.04136609,-0.10410585,0.06855342,-0.11672095,0.01708375,-0.2666974,0.10834796,-0.010750879,-0.06237037,0.06139777,0.04727615,0.03629063,-0.14132254,-0.08846802,0.03961787,-0.0059326757,-0.18058172,-0.2528209,-0.036221102,-0.09147468,0.06313668,-0.007900083,-0.2763777,-0.027565038,0.005613657,0.07279085,-0.04656136,0.17693095,-0.16075577,0.12927765,0.14398894,0.19174926,-0.0019993137,0.00050735596,0.13304903,-0.03591515,-0.06472947,0.10521948,-0.019933244,0.14749463,-0.002875905,0.10902507,-0.012731775,-0.044105936,-0.03831,-0.23681736,-0.09089817,0.07295951,0.01980509,-0.29514256,0.046096265,0.017425897,0.10135255,0.124672174,0.1252013,0.039118975,0.07031916,0.16224352,0.02726272,-0.12587492,0.21632507,0.05417903,-0.08561338,0.08137208,0.08987013,-0.12270013,0.00055287965,-0.04283439,-0.2436292,-0.065470226,0.10354376,0.05175505,-0.1080521,-0.11911679,0.04071943,0.05486869,0.066918515,-0.059959807,-0.08990481,-0.0029029325,0.007829986,0.15061733,-0.004951559,-0.081657074,0.14841206,0.108522356,0.19768225,0.05935105,-0.008734693,0.066962704,0.15724763,-0.2796704,0.08720832,-0.015310282,-0.014027656,-0.038271457,-0.046555433,-0.017796116,-0.061866466,0.19544576,-0.08223697,0.08905141,0.22780107,-0.008260529,0.046924908,-0.026379742,0.0730395,0.0421642,-0.07825353,0.19867958,0.028681766,0.063397385,0.0291282,0.11386166,-0.08402724,0.020251434,0.016657118,-0.20652659,0.0066508707,-0.056335375,-0.046741907,-0.145831,-0.1428648,0.05499571,-0.025062228,-0.03294418,0.10708447,-0.12760195,-0.065130666,-0.088776395,0.03447609,0.011735823,-0.18567018,-0.0053126565,-0.063262485,-0.08519981,0.0028208236,-0.09768789,-0.08696009,0.11455492,0.08775606,0.045033734,0.061548624,-0.021140816,0.0069135292,0.1057269,0.10311744,0.026862266,0.036084533,0.014685718,-0.096904285,-0.040376246,0.025937568,0.122794166,0.08338831,0.036631722,-0.049142513,-0.0261318,-0.063702896,-0.16994375,-0.00091450894,0.03580439,-0.041076396,0.06749627,0.027223408,-0.12550743,0.02973145,-0.010252597,-0.03928491,0.008314456,-0.04346404,-0.042549454,-0.036319,0.2185388,-0.061097346,0.03367363,-0.030415278,0.15342085,0.030531269,-0.17124297,-0.1004189,-0.029364672,-0.10421565,0.040048882,0.047191657,0.022050599,-0.19200678,0.13949059,-0.12792228,0.10683959,0.012042888,0.02350964,-0.03991528,-0.08656897,-0.12414215,0.048993293,-0.103708416,0.032615554,-0.1846244,-0.03461787,-0.008034938,0.1706683,0.050554514,-0.101776384,-0.043049257,-0.088273175,-0.07493901,-0.0134220775,-0.06558267,0.0344333,0.040237226,0.004615193,-0.03265497,0.14953688,-0.18991974,-0.026416667,0.01618051,0.07774541,-0.1177496,0.06251677,-0.07907754,-0.14843878,-0.3024874,0.033143252,0.06631524,-0.28577954,0.08126501,-0.19866945,-0.026968036,-0.0026696,-0.31225467,-0.050457004,-0.11798426,-0.045091227,0.050798167,-0.18586074,-0.029996363,-0.1649586,-0.104407124,0.08651197,0.022603294,-0.10130384,-0.06501459,0.1014163,-0.09207909,0.027620023,-0.027861442,-0.05682601,0.1891411,-0.28318337,0.045044836,-0.023178473,0.11455759,-0.0977717,-0.110796995,0.06925408,-0.118941315,-0.07835546,0.14253576,-0.14862092,-0.12230966,-0.17425944,0.032348223,-0.051601935,-0.06323902,0.15506056,0.25444168,-0.08545885,0.0057922048,-0.08661998,-0.02931859,0.022237536,-0.0788186,-0.28851724,-0.07233939,0.013820468,-0.026943408,0.020894054,-0.17127159,0.07003684,0.044048633,-0.04729685,0.014696912,0.0024544408,-0.12203654,0.09174775,0.18664445,0.19700038,-0.17941844,-0.101093106,0.13861583,0.07072491,-0.23951666,0.028361825,-0.06419222,0.21955441,-0.10653026,0.15243018,-0.08264303,0.16361703,-0.113628045,-0.0892332,-0.019879106,0.16732776,-0.06301418,-0.01534809,0.0075670914,-0.008695274,0.17109568,-0.060573805,0.023317724,0.0061560585,-0.07794138,-0.14961313,0.14474627,-0.17702504,-0.019326333,0.027727082,0.09571359,0.04105202,0.08432939,0.040462796,-0.032278884,0.07656667,-0.006926117,-0.08141986,0.07781164,0.06382736,0.004952733,0.19118963,0.20770754,-0.01696649,-0.077298805,0.03354106,-0.08623626,-0.056449626,-0.07528618,0.1476644,-0.13713083,0.016845934,0.03811436,0.039528202,0.04596033,-0.030474635,0.026286457,-0.051932767,-0.055283863,0.14467883,-0.014213976,0.028420513,-0.07516125,-0.13708337,-0.15872738,-0.058391027,-0.0084385695,-0.15671515,-0.083966225,0.20648324,0.09457213,0.010335799,-0.04511952,-0.05389016,-0.0049199886,-0.0820056,0.05490101,0.04638159,-0.07013713,0.050017197,0.12419702,0.0650724,0.014120129,-0.058393482,-0.011249161,-0.02179346,-0.031912997,-0.10029214,0.13284045,0.10303404,0.09327079,-0.12455231,0.06521418,-0.07514818,0.062421206,-0.0135366535,-0.07750268,-0.048747353,0.084643215,-0.20428446,0.18113172,-0.30661854,-0.20207533,-0.07908886,0.009037476,0.34367883,-0.031214898,0.056458946,0.041603148,-0.053056024,0.20674175,0.033865813,0.04096972,-0.08260577,-0.16560386,-0.06751113,-0.041091103,0.04438021,-0.03106914,-0.052716445,0.02031028,-0.18843685,-0.30087763,0.29388037,-0.21083024,0.15848199,0.014834709,-0.07814805,0.04423744,0.14001743,0.123506695,-0.14799353,-0.06578794,0.18134405,0.052305304,0.11771843,0.14208406,-0.009738005,0.046585858,0.022332905,0.00061599514,0.005207128,-0.21457033,0.008089635,0.015379812,-0.20910989,0.08306647,0.091307364,0.24649695,0.14490561,0.02371795,-0.0735077,0.057297233,-0.07641048,0.09377203,0.069947615,-0.028165191,0.09645357,-0.26807752,0.20821038,0.16948844,-0.11986725,0.1940751,-0.046648324,0.025127418,-0.02792571,0.040016733,-0.07776233,-0.037823144,-0.10015023,0.16541679,-0.04462016,-0.24547964,-0.07557559,0.112671204,0.014776961,-0.094578505,0.046326865,0.025903983,-0.08179317,-0.07548175,0.017815577,-0.13938269,-0.03929858,-0.008656775,0.22339924,0.0064150253,-0.1271402,-0.03900304,-0.09785557,0.11403481,0.10099428,-0.13491586,0.029311836,0.028182745,-0.0027379894,-0.14807305,-0.019325875,0.047526855,0.016714146,-0.011820327,-0.1412044,-0.008029923,0.1681406,-0.011708401,-0.12496911,-0.019699182,0.021097979,-0.02363478,0.049280968,-0.05280474,0.114717595,0.1369749,0.056958865,-0.07527874,0.06046688,-0.077065475,0.20536183,-0.059538685,-0.14702632,0.16570733,0.13289395,0.12423051,0.0065311617,0.19339338,-0.10753623,0.039276175,-0.21506284,-0.18813285,-0.2705656,0.025079032,-0.008603804,-0.09401829,0.048642155,0.086442,0.14294131,-0.012822767,-0.11868818,0.2429374,-0.062005665,-0.19304053,-0.005219181,-0.15567936,-0.066508226,-0.09522276,0.08910834,-0.035206463,-0.0069312276,-0.02320964,-0.10482268,0.011272914,-0.016647179,0.023046518,0.22620666,-0.2333075,0.080735885,-0.09354355,0.0003963196,0.07841739,-0.08035265,-0.058598567,-0.103916004,0.004784737,0.13521692,-0.07921249,-0.034191146,0.037294257,-0.16417156,0.07523774,0.09626422,-0.14846757,-0.02417928,0.10685567,0.065550715,0.01776704,-0.021318426,0.084625565,-0.1309269,0.19201052,0.076121934,0.16517471,-0.18274328,-0.116970785,-0.07173765,-0.12756015,-0.050779104,-0.0084336875,0.06008493,-0.104417354,-0.056468137,-0.035138723,0.033809148,-0.22504206,-0.06815101,-0.08869471,-0.008952357,-0.21929245,0.026658934,-0.090984404,-0.11278085,-0.07067336,-0.08735459,-0.0069751455,0.0141509455,0.110517845,0.02509834,-0.12017737,0.06858125,0.12044883,-0.057379555,0.040029045,-0.031968635,-0.078929,-0.12225519,-0.15875974,-0.18591611,-0.13444489,0.026332155,0.016910193,0.14740323,-0.1390535,-0.13938457,-0.07318127,-0.0429135,0.09302663,-0.12946545,-0.019593582,0.20415393,0.023044253,0.058005586,0.040212557,-0.14479883,-0.045007646,-0.16565362,0.017301276,-0.06893811,-0.07437549,0.00026422372,0.023128506,-0.03537217,-0.20637314,-0.048617866,-0.027689714,-0.088038735,0.08601219,-0.07017372,-0.02509136,-0.05625638,-0.069929,-0.1076317,-0.17493644,-0.017464343,-0.023252565,-0.08364246,0.019551918,-0.025714513,-0.169539,-0.15729709,-0.120545395,0.023873629,-0.06445919,0.07336489,-0.06257408,-0.11974086,-0.01177698,-0.047596328,-0.08862318,-0.05126759,-0.08468348,-0.08167148,-0.018456915,0.031183958,-0.017839832,-0.11657706,-0.14055063,0.03383354,-0.05909253,0.1731589,0.018492578,-0.00070633256,-0.04759916,-0.20075558,-0.0027131697,0.16396226,-0.18746415,-0.10716219,-0.20335965,0.23397309,-0.065497935,0.040489625,0.1676046,0.022416973,0.15687175,-0.12677129,0.08593375,-0.0733346,-0.062616,0.01661508,-0.07370481,-0.16814435,-0.14759566,0.022986682,0.00516472,0.05847197,-0.045614343,-0.04221693,-0.051971674,-0.06796185,-0.041158024,0.01548209,-0.10851276,0.004336266,-0.092773825,0.06263267,0.25274667,0.007022134,0.17635517,-0.010439691,-0.0858264,0.0053775352,0.070576794,0.17397833,0.10952475,-0.022386376,0.005566668,-0.113901965,0.009207233,0.05299273,-0.018716194,0.05420219,0.036242478,0.05497401,0.143467,0.039329737,0.13907985,0.05328571,-0.08781572,0.0152263455,0.044637587,-0.037066247,-0.052443072,0.0631728,0.073834985,-0.050924618,0.024238667,-0.027968682,-0.16250934,0.10997834,-0.029558403,-0.030847326,-0.059060466,0.028246906,0.06685538,0.055569187,-0.048857275,-0.052842174,0.11389524,-0.01097969,0.053361222,0.057669796,0.051990896,0.1370052,-0.03117617,0.074521065,-0.038991015,0.009972542,-0.009471174,0.033987284,-0.010284685,0.09549085,0.11785147,0.027533872,-0.022813302,0.029004375,-0.04446847,0.12463927,0.017573912,0.0008025767,-0.031466447,0.016885806,-0.013233946,-0.084254615,-0.041204773,0.25977424,0.059316076,0.21895589,-0.11768796,0.013886584,-0.04632128,-0.07942816,-0.033043034,0.011372708,0.036273587,-0.01907799,-0.0026683304,0.08210456,0.18106174,0.10380871,0.21984443,-0.08704215,-0.017562458,-0.07628766,0.039056696,-0.08754448,-0.09818458,0.12965572,0.091805,-0.048892625,0.028821534,0.019435259,-0.0385657,0.12097976,0.07666768,-0.02398474,-0.1344316,0.0691059,0.11094211,-0.029797776,0.026486864,-0.05936933,0.09867287,-0.072485715,-0.0773444,-0.0055188914,0.038338367,0.047983695,0.08479735,-0.14525308,0.13226551,-0.025720088,-0.002546717,0.13484491,-0.2843005,-0.040808905,-0.02532296,-0.07778887,0.11532519,-0.02249083,-0.103479624,0.030923057,0.062264368,0.08204986,0.06688243,0.12969743,-0.042430118,0.021697884,0.055308495,-0.2776799,-0.09401556,-0.05069453,0.06878067,-0.010749816,-0.101708844,0.23391382,-0.08657443,0.0089536635,0.014969577,-0.015019487,-0.058286007,0.15723802,0.08353385,-0.09964393,-0.16176508,-0.08061505,0.06517974,0.09642446,0.005423243,0.047949556,0.055672035,-0.0057676854,-0.07034266,-0.009817825,-0.108565494,-0.012241667,0.041823156,0.0034274242,-0.17936124,0.048871696,0.034094658,0.09253341,0.06367217,-0.102311194,-0.060041662,0.21849592,-0.0050189663,0.19338185,0.032424968,0.2182236,0.00781915,-0.041919753,0.051642235,0.17970297,0.07803722,-0.14793728,-0.102576196,-0.122109964,0.198417,0.0002918027,0.08222938,-0.10313202,0.0013473565,-0.042230558,0.23112905,0.107731394,0.03217767,0.029890217,-0.16780256,-0.12799685,0.018271632,0.04382837,0.03346561,-0.065899454,-0.13815212,-0.0482009,-0.13819513,-0.080110215,-0.06210872,0.2256693,0.157524,-0.013558991,0.091540314,0.073388524,-0.054304555,-0.010032892,0.004870433,-0.042066954,-0.14767268,-0.00483377,-0.06811915,-0.11248,-0.10864679,-0.02837978,-0.086850144,-0.13307221,-0.17635638,-0.0051419707,0.02997518,0.16463669,-0.008308866,-0.118697874,0.018109486,0.04372963,0.030203836,-0.20955971,0.08555801,-0.061357662,0.079679795,-0.0018438121,0.036030356,0.04444963,-0.07564842,0.111981,-0.027443644,-0.051543973,0.09900789,-0.03902399,-0.018191466,-0.15059832,-0.0021757234,-0.039391328,0.0959612,-0.0454829,0.124622434,0.0020584308,0.06757336,-0.13843855,0.019375036,-0.059105378,-0.1158625,-0.011174202,-0.12730314,-0.09940507,0.00207726,-0.08562108,0.06505006,0.07236061,-0.3511758,0.17517956,-0.1597471,0.062905714,-0.16799498,-0.13459966,-0.10008454,-0.18598843,-0.08698726,-0.113243185,0.24034134,0.16746949,0.0052879658,-0.091183744,0.11425233,-0.054548074,0.09765581,-0.05219029,-0.08073444,-0.07612835,-0.005231588,0.06382894,-0.07484916,0.0077983746,-0.10921235,0.17268665,-0.1461523,0.12051898,0.26234916,-0.05639792,-0.11934772,-0.09725684,-0.033471093,-0.0736073,-0.071082145,0.052980665,0.0068099923,-0.15542914,0.050105415,-0.13913849,0.025151152,-0.035924524,-0.01225587,-0.2200813,0.11049294,0.033718158,-0.037154984,-0.1036228,-0.20204177,-0.14396168,-0.039273653,0.058806255,0.27543503,-0.10870989,-0.2472658,0.022563716,0.00026372971,-0.09350312,-0.08427717,0.21362387,-0.0149693,-0.07791322,0.016990086,-0.0544423,-0.043284763,0.11907252,-0.004906404,-0.083823904,0.01423181,0.12803026,-0.053366482,0.05649418,0.058892667,0.028059425,0.117164105,0.18905863,0.08944793,-0.056700274,-0.007058807,0.051941954,0.096634194,-0.08445531,0.027045589,-0.09025914,-0.10442556,0.03878631,0.03370593,-0.20708106,-0.10378229,0.041683,-0.14430223,0.0067592645,-0.045993563,-0.07157874,-0.100868315,0.11544735,-0.0064902105,-0.112448744,0.017064003,0.11650525,0.019865472,0.056774985,-0.034913313,0.002029507,0.04269456,0.12496802,0.050887264,-0.16751063,0.16035467,-0.06934783,0.0060111745,-0.024554959,-0.016773606,0.04158568,0.07848511,0.009850345,-0.012242938,-0.030267691,0.09592879,0.108364806,-0.0077156224,-0.005275843,-0.041312747,-0.006719584,-0.07136149,-0.05631487,-0.13742848,0.13266797,0.018780345,-0.21496971,-0.22947748,-0.07095285,0.04217494,0.34653497,0.13171871,-0.10305028,0.043969933,0.010945362,-0.097101584,-0.02326739,-0.027943643,0.1562614,0.107358314,-0.04972647,0.08877301,0.037031747,-0.3963865,-0.032415707,0.04002706,-0.036906198,-0.13154753,0.20813863,0.08653926,-0.2498637,-0.26216933,-0.2305759,-0.1420331,0.1849022,-0.015420513,-0.23933859,-0.23698005,0.19211155,0.49827352,-0.1345017,0.15639545,-0.06827162,0.03044505,-0.094480775,0.073275045,-0.0745153,-0.17666356,0.10725915,-0.13484858,0.24039295,0.05795085,-0.14977495,0.10005267,0.07109536,-0.22419769,-0.05212094,0.0662239,-0.11536809,0.16301678,0.19902404,0.09044854,-0.19932191,-0.10046881,0.2618792,0.32808244,0.017960556,0.21017668,-0.021375425,0.03873637,0.09303868,0.23755652,-0.02698883,0.07435493,-0.01831889,0.21620087,-0.17627035,-0.079918995,-0.053132545,0.054380015,0.066576645,-0.14595857,-0.2121046,0.05026731,0.005086385,-0.2138984,0.15432572,-0.16221501,-0.06488686,-0.026575252,0.03924262,-0.028854633,0.036016222,-0.10477253,-0.1817343,0.12361895,0.24373232,0.070744835,0.027888605,-0.05856513,0.037151787,0.034817394,0.049235236,-0.09320071,0.090275556,0.04490141,-0.14966653,-0.02839439,-0.03156669,0.035016537,0.031590853,-0.06068035,0.025639996,-0.12041312,-0.13947076,-0.039979886,0.00738855,0.13989735,-0.008253651,0.057794835,0.024729384,0.17295305,0.09028919,-0.09191578,-0.024494123,0.1623119,-0.0036427493,0.0768554,0.18682429,0.1689388,0.059266314,-0.009893625,0.010880777,-0.0012870554,0.20616207,0.05952335,0.037873775,0.008892201,-0.046568733,-0.033304248,-0.33485276,-0.08258988,0.051948775,-0.048782222,-0.080582745,-0.035925653,0.027777707,0.090806335,-0.04395905,-0.1044316,-0.111059025,0.14424367,0.037626266,-0.061021037,-0.0030326985,-0.039865267,0.27852547,0.055598237,0.082443446,-0.0057520405,-0.0028104945,-0.12265711,0.059526242,0.067411914,-0.11752336,-0.003099532,-0.22413404,-0.07559433,0.16858748,-0.19883205,0.018647488,0.0074090203,-0.18721165,0.059805468,-0.15435766,0.05219846,0.07021132,0.023570761,0.051917393,-0.030706348,-0.05890174,-0.14583495,0.096198626,0.002586347,-0.022967078,-0.14244458,0.10928788,-0.12173519,-0.21625707,0.023726001,-0.24668281,-0.056181885,-0.04768229,-0.18407111,-0.052995756,0.08195339,0.006292965,0.04276617,0.07536284,-0.059073452,-0.066406645,0.079761095,0.17177276,-0.11824297,-0.0930807,-0.06857264,-0.01473411,-0.22746715,0.29124185,-0.17527623,0.060251687,0.052909255,-0.07965701,0.2690182,-0.21491392,0.090861775,-0.03795475,-0.02038975,-0.00020327457,0.18292356,-0.03681663,-0.17884597,-0.08654204,0.11303279,0.115484595,-0.08101292,-0.15066403,-0.120232165,0.25831208,-0.09478082,-0.050609875,0.019833634,0.080643475,0.03953685,0.017385025,0.027292496,0.11771301,0.05107785,0.002450169,0.039840512,-0.0069048014,0.08533892,-0.02524927,-0.008743306,-0.103197806,-0.17423156,0.048122574,0.034809254,0.018867532,-0.10848338,-0.011568665,0.11201049,0.013776458,0.05008027,-0.079144895,0.24083811,-0.11036971,